tree
version=v4
num_class=1
num_tree_per_iteration=1
label_index=0
max_feature_idx=173
objective=regression
feature_names=log_close/mean_60_id0 log_return_60_id0 log_close/mean_300_id0 log_return_300_id0 log_close/mean_900_id0 log_return_900_id0 log_close/mean_60_id1 log_return_60_id1 log_close/mean_300_id1 log_return_300_id1 log_close/mean_900_id1 log_return_900_id1 log_close/mean_60_id2 log_return_60_id2 log_close/mean_300_id2 log_return_300_id2 log_close/mean_900_id2 log_return_900_id2 log_close/mean_60_id3 log_return_60_id3 log_close/mean_300_id3 log_return_300_id3 log_close/mean_900_id3 log_return_900_id3 log_close/mean_60_id4 log_return_60_id4 log_close/mean_300_id4 log_return_300_id4 log_close/mean_900_id4 log_return_900_id4 log_close/mean_60_id5 log_return_60_id5 log_close/mean_300_id5 log_return_300_id5 log_close/mean_900_id5 log_return_900_id5 log_close/mean_60_id6 log_return_60_id6 log_close/mean_300_id6 log_return_300_id6 log_close/mean_900_id6 log_return_900_id6 log_close/mean_60_id7 log_return_60_id7 log_close/mean_300_id7 log_return_300_id7 log_close/mean_900_id7 log_return_900_id7 log_close/mean_60_id8 log_return_60_id8 log_close/mean_300_id8 log_return_300_id8 log_close/mean_900_id8 log_return_900_id8 log_close/mean_60_id9 log_return_60_id9 log_close/mean_300_id9 log_return_300_id9 log_close/mean_900_id9 log_return_900_id9 log_close/mean_60_id10 log_return_60_id10 log_close/mean_300_id10 log_return_300_id10 log_close/mean_900_id10 log_return_900_id10 log_close/mean_60_id11 log_return_60_id11 log_close/mean_300_id11 log_return_300_id11 log_close/mean_900_id11 log_return_900_id11 log_close/mean_60_id12 log_return_60_id12 log_close/mean_300_id12 log_return_300_id12 log_close/mean_900_id12 log_return_900_id12 log_close/mean_60_id13 log_return_60_id13 log_close/mean_300_id13 log_return_300_id13 log_close/mean_900_id13 log_return_900_id13 mean_close/mean_60 mean_log_returns_60 log_close/mean_60-mean_close/mean_60_id0 log_return_60-mean_log_returns_60_id0 log_close/mean_60-mean_close/mean_60_id1 log_return_60-mean_log_returns_60_id1 log_close/mean_60-mean_close/mean_60_id2 log_return_60-mean_log_returns_60_id2 log_close/mean_60-mean_close/mean_60_id3 log_return_60-mean_log_returns_60_id3 log_close/mean_60-mean_close/mean_60_id4 log_return_60-mean_log_returns_60_id4 log_close/mean_60-mean_close/mean_60_id5 log_return_60-mean_log_returns_60_id5 log_close/mean_60-mean_close/mean_60_id6 log_return_60-mean_log_returns_60_id6 log_close/mean_60-mean_close/mean_60_id7 log_return_60-mean_log_returns_60_id7 log_close/mean_60-mean_close/mean_60_id8 log_return_60-mean_log_returns_60_id8 log_close/mean_60-mean_close/mean_60_id9 log_return_60-mean_log_returns_60_id9 log_close/mean_60-mean_close/mean_60_id10 log_return_60-mean_log_returns_60_id10 log_close/mean_60-mean_close/mean_60_id11 log_return_60-mean_log_returns_60_id11 log_close/mean_60-mean_close/mean_60_id12 log_return_60-mean_log_returns_60_id12 log_close/mean_60-mean_close/mean_60_id13 log_return_60-mean_log_returns_60_id13 mean_close/mean_300 mean_log_returns_300 log_close/mean_300-mean_close/mean_300_id0 log_return_300-mean_log_returns_300_id0 log_close/mean_300-mean_close/mean_300_id1 log_return_300-mean_log_returns_300_id1 log_close/mean_300-mean_close/mean_300_id2 log_return_300-mean_log_returns_300_id2 log_close/mean_300-mean_close/mean_300_id3 log_return_300-mean_log_returns_300_id3 log_close/mean_300-mean_close/mean_300_id4 log_return_300-mean_log_returns_300_id4 log_close/mean_300-mean_close/mean_300_id5 log_return_300-mean_log_returns_300_id5 log_close/mean_300-mean_close/mean_300_id6 log_return_300-mean_log_returns_300_id6 log_close/mean_300-mean_close/mean_300_id7 log_return_300-mean_log_returns_300_id7 log_close/mean_300-mean_close/mean_300_id8 log_return_300-mean_log_returns_300_id8 log_close/mean_300-mean_close/mean_300_id9 log_return_300-mean_log_returns_300_id9 log_close/mean_300-mean_close/mean_300_id10 log_return_300-mean_log_returns_300_id10 log_close/mean_300-mean_close/mean_300_id11 log_return_300-mean_log_returns_300_id11 log_close/mean_300-mean_close/mean_300_id12 log_return_300-mean_log_returns_300_id12 log_close/mean_300-mean_close/mean_300_id13 log_return_300-mean_log_returns_300_id13 mean_close/mean_900 mean_log_returns_900 log_close/mean_900-mean_close/mean_900_id0 log_return_900-mean_log_returns_900_id0 log_close/mean_900-mean_close/mean_900_id1 log_return_900-mean_log_returns_900_id1 log_close/mean_900-mean_close/mean_900_id2 log_return_900-mean_log_returns_900_id2 log_close/mean_900-mean_close/mean_900_id3 log_return_900-mean_log_returns_900_id3 log_close/mean_900-mean_close/mean_900_id4 log_return_900-mean_log_returns_900_id4 log_close/mean_900-mean_close/mean_900_id5 log_return_900-mean_log_returns_900_id5 log_close/mean_900-mean_close/mean_900_id6 log_return_900-mean_log_returns_900_id6 log_close/mean_900-mean_close/mean_900_id7 log_return_900-mean_log_returns_900_id7 log_close/mean_900-mean_close/mean_900_id8 log_return_900-mean_log_returns_900_id8 log_close/mean_900-mean_close/mean_900_id9 log_return_900-mean_log_returns_900_id9 log_close/mean_900-mean_close/mean_900_id10 log_return_900-mean_log_returns_900_id10 log_close/mean_900-mean_close/mean_900_id11 log_return_900-mean_log_returns_900_id11 log_close/mean_900-mean_close/mean_900_id12 log_return_900-mean_log_returns_900_id12 log_close/mean_900-mean_close/mean_900_id13 log_return_900-mean_log_returns_900_id13
feature_infos=[-0.22807757679301877:0.1225217771359559] [-0.33914896845817566:0.22853517532348633] [-0.37471100653486078:0.2220821040384173] [-0.43397310376167297:0.34003239870071411] [-0.46436598280542823:0.31386048036320729] [-0.59379559755325317:0.5533481240272522] [-0.16888859086068614:0.1036913962805682] [-0.23344297707080841:0.16011399030685425] [-0.24036691271358346:0.14475921806780365] [-0.26984381675720215:0.23616909980773926] [-0.27450434903172483:0.15977445666449017] [-0.43467473983764648:0.23506920039653778] [-0.30301066690350859:0.11954770073037792] [-0.45918524265289307:0.38283848762512207] [-0.4955162291947684:0.21476793166220987] [-0.57055038213729858:0.47480124235153198] [-0.58568726588619158:0.22673918509085658] [-0.69867730140686035:0.31540915369987488] [-0.2544505589359945:0.19036214187547926] [-0.4032951295375824:0.36529093980789185] [-0.42695810832053388:0.18789210523506461] [-0.49593010544776917:0.51722538471221924] [-0.50904276099736534:0.23260452653752045] [-0.63139426708221436:0.35735505819320679] [-0.32319639456862753:0.40428131521579802] [-0.49236267805099487:0.63543152809143066] [-0.44315149437324758:0.67417134065072615] [-0.71376359462738037:1.1493268013000488] [-0.52513571850480611:1.0806898441694064] [-0.79540836811065674:1.9544382095336914] [-0.34883273374682988:0.14708278139754588] [-0.51106739044189453:0.31581923365592957] [-0.54291254170964665:0.22766206164817485] [-0.61696690320968628:0.42309972643852234] [-0.62854743803965674:0.34369935472561353] [-0.75385600328445435:0.4745841920375824] [-0.23782156864866363:0.096856138455825941] [-0.34853857755661011:0.24265505373477936] [-0.37045075448736203:0.12888120162147507] [-0.42667052149772644:0.32028564810752869] [-0.453351237914287:0.16680610915797017] [-0.56796640157699585:0.27226635813713074] [-0.30675639055200471:0.20985915319863532] [-0.48379108309745789:0.42164498567581177] [-0.5210633854181177:0.3323494064827559] [-0.60538017749786377:0.47824448347091675] [-0.6227977023815614:0.44903567300099934] [-0.75572067499160767:0.57220721244812012] [-0.37376389320073994:0.17022459124177511] [-0.54719418287277222:0.37502720952033997] [-0.6006094534082046:0.23185556237349186] [-0.69609898328781128:0.48176592588424683] [-0.70117585197491006:0.32682553775478229] [-0.80341053009033203:0.48293626308441162] [-0.30919731231810232:0.22324834948722855] [-0.45826292037963867:0.26621943712234497] [-0.48632048124588662:0.25859286597750381] [-0.55979180335998535:0.31243008375167847] [-0.55911736572632498:0.24787440233086558] [-0.65282523632049561:0.29971563816070557] [-0.2770099681799198:0.15799412628659207] [-0.36545681953430176:0.20737309753894806] [-0.41861144767190456:0.25030135557698968] [-0.47559326887130737:0.4270661473274231] [-0.48999245840575706:0.36183107063217373] [-0.63622403144836426:0.63517379760742188] [-0.30123699252364372:0.1398645998223251] [-0.45401281118392944:0.33410552144050598] [-0.49027990132529825:0.13596360310951569] [-0.5620916485786438:0.39843788743019104] [-0.58859950018774498:0.17073949410086703] [-0.70818358659744263:0.35400170087814331] [-0.32001649797995146:0.171051687464497] [-0.48256406188011169:0.36842545866966248] [-0.50832139644489738:0.3209645042979713] [-0.58935177326202393:0.49033546447753906] [-0.59671115123061391:0.50393360805392051] [-0.70222151279449463:0.66539096832275391] [-0.22578539828956415:0.2521998943688844] [-0.3379656970500946:0.33591663837432861] [-0.3797329364762006:0.33477170245539439] [-0.44038635492324829:0.36233571171760559] [-0.45918299896904813:0.36354591471182318] [-0.56593906879425049:0.38407120108604431] [-0.27625893162526466:0.11421124496340654] [-0.4170415997505188:0.29791116714477539] [-0.093471877033634285:0.1213701796984186] [-0.14999072253704071:0.13714328408241272] [-0.07377145093468529:0.14043135098797974] [-0.18777267634868622:0.18359862267971039] [-0.078437502402985554:0.10144056812896546] [-0.087223067879676819:0.16660785675048828] [-0.073666580198410186:0.12228379266769139] [-0.087819337844848633:0.15014514327049255] [-0.28824560391639337:0.37392377578547509] [-0.45519444346427917:0.58796674013137817] [-0.16509384560130405:0.12418961875966222] [-0.17175093293190002:0.21840295195579529] [-0.038349411228592811:0.069188264920551995] [-0.066732078790664673:0.088799566030502319] [-0.10983549186449904:0.17867295503739539] [-0.19412806630134583:0.27411025762557983] [-0.11509856239002714:0.10468493870052398] [-0.15388303995132446:0.1524127870798111] [-0.12642783341206359:0.17776106730948832] [-0.19711080193519592:0.21184574067592621] [-0.10895274593718687:0.15185445092142977] [-0.1630997508764267:0.19365169107913971] [-0.074760895036296737:0.079763773884462943] [-0.12051686644554138:0.10706652700901031] [-0.10719453441310667:0.16437033848381258] [-0.18532878160476685:0.24827836453914642] [-0.14497487254144817:0.23214265052699196] [-0.14942184090614319:0.3163413405418396] [-0.44982787186487477:0.1318080835321179] [-0.51821517944335938:0.38407611846923828] [-0.17033197545638759:0.21893610057343793] [-0.18186549842357635:0.28039702773094177] [-0.063930301604466319:0.20946095915129131] [-0.19701081514358521:0.24837136268615723] [-0.090838194425938656:0.1554157293719467] [-0.10216963291168213:0.17218324542045593] [-0.09070581178956319:0.15823064464615577] [-0.12004583328962326:0.19081428647041321] [-0.43600050766718196:0.61683134049458044] [-0.69022631645202637:1.0713602304458618] [-0.1688854072810928:0.2008024753279132] [-0.17243051528930664:0.35955810546875] [-0.051951558862122375:0.10013876553676487] [-0.097028791904449463:0.13383769989013672] [-0.12729405314858316:0.29087881224673506] [-0.20908141136169434:0.37941578030586243] [-0.17333344292286595:0.21179357743609117] [-0.20004048943519592:0.30525925755500793] [-0.12778016804094985:0.202127298210071] [-0.20750522613525391:0.20789715647697449] [-0.12300464817016311:0.22696907494775495] [-0.18386608362197876:0.31794989109039307] [-0.12892332624127859:0.10734254498229462] [-0.22406260669231415:0.15066851675510406] [-0.11165492966735863:0.27842641378805005] [-0.19752073287963867:0.35810151696205139] [-0.1486272138310091:0.29410968095419643] [-0.1818784773349762:0.29948583245277405] [-0.53270308023151569:0.13799429171039063] [-0.64324843883514404:0.32684582471847534] [-0.12762496266624573:0.28933873749997546] [-0.22618837654590607:0.50562202930450439] [-0.094506888147311327:0.25819873119979087] [-0.16498772799968719:0.30494481325149536] [-0.096216251742775816:0.15585837456631213] [-0.14432629942893982:0.22893555462360382] [-0.10404559952266737:0.17645862450504662] [-0.18181341886520386:0.2303193211555481] [-0.43379084171123711:0.99738667344851462] [-0.68829107284545898:1.790666937828064] [-0.17373140709635698:0.29101601162806534] [-0.23653608560562134:0.38697513937950134] [-0.10315480688584765:0.11528803755404587] [-0.18119262158870697:0.15663351118564606] [-0.16200460387510462:0.41003659541773635] [-0.18257397413253784:0.51295804977416992] [-0.19203205744987967:0.29068419907144999] [-0.18537801504135132:0.42360144853591919] [-0.12572493986275746:0.20626845918754483] [-0.20969337224960327:0.21108877658843994] [-0.15767537894842901:0.30244733958344894] [-0.22739069163799286:0.42289894819259644] [-0.16905950402469622:0.14368396466582367] [-0.22202256321907043:0.21741694211959839] [-0.11999822298324216:0.4297375441360386] [-0.20824933052062988:0.56834053993225098] [-0.16473063462031706:0.3032095259352372] [-0.24600836634635925:0.34829205274581909]
tree_sizes=3360 3042 2622 2862 3068 2877 2917 3172 3039 2895 3141 2813 3006 2875 3255 3204 2923 3114 2964 3003 3226 2935 3105 2851 2761 2874

Tree=0
num_leaves=31
num_cat=0
split_feature=6 36 98 18 36 106 146 152 98 18 141 160 18 52 161 54 96 157 152 96 90 106 106 165 65 119 60 163 160 92
split_gain=0.0163225 0.0123057 0.00636704 0.00635628 0.00342398 0.00745974 0.00462552 0.00295009 0.00246328 0.00253279 0.00241132 0.00281722 0.00213167 0.00257949 0.00178634 0.00149895 0.00132284 0.00226973 0.00130043 0.00124946 0.00121846 0.00113681 0.00113036 0.000901775 0.000634264 0.000477955 0.00192476 0.000749939 0.000123813 1.50384e-05
threshold=0.0037664287548294802 -8.8604361136777445e-05 0.00023570169619090438 0.0098352644478071193 -0.0055257335510494349 -0.0015553005956628083 0.0034435121516838644 0.0032341679439409723 0.00047914382274479944 0.0028403965047273899 0.0029723284533247356 -0.00093111370866264182 -0.001441932780762052 -0.040125060138550696 0.023317943327128891 0.011720314765553177 -0.0021247866788991188 -0.01934220269322395 -0.0010640027517500343 -0.00037375296059758448 -0.0032943715161799767 -0.0019132794545454166 0.0022655763929744469 -0.0012613113503903148 -0.0027995518175885077 -0.0029693385586142536 0.014336528354363885 -0.014806173741817473 -0.0025094033877601412 -0.00077141689903705154
decision_type=4 6 4 4 6 6 6 6 6 6 4 6 6 6 6 6 6 6 6 6 6 6 6 6 6 6 4 6 6 6
left_child=1 4 12 14 5 7 -7 -1 25 20 29 -12 19 15 23 -14 17 -6 -18 24 -10 -11 -15 -4 -2 26 -3 -27 -16 -5
right_child=2 8 3 10 16 6 -8 -9 9 21 11 -13 13 22 28 -17 18 -19 -20 -21 -22 -23 -24 -25 -26 27 -28 -29 -30 -31
leaf_value=-1.1316582772141835e-05 -2.1638733412172973e-06 -5.8466797541591688e-06 2.2522293823152978e-05 -2.1638733412172973e-06 -2.8263331204754632e-05 -1.4641585883204095e-05 -4.0234054565330357e-05 1.136704280992835e-05 -1.4416919999228413e-05 2.5697169114169288e-05 9.6351849640490558e-05 1.293891776657205e-05 1.3211824391288969e-06 3.6465309082067053e-06 -2.1638733412172973e-06 6.0785298114236389e-05 -8.4247664010252193e-06 -7.5576134896087486e-06 -2.3997418438841418e-06 -2.1638733412172973e-06 2.4856786852177479e-06 7.9477867162813268e-06 -1.1715429299484046e-05 7.5748991139655004e-06 -7.1847016868467145e-05 5.1824294483050291e-06 2.3162394154661285e-05 -2.1638733412172973e-06 -1.1160318424923749e-05 2.9843899073415508e-05
leaf_weight=13631 291 45704 11416 775 7253 17977 12645 8262 3678 6297 1836 1054 1529 20541 133 1127 74806 22886 66204 1035 59577 18154 4948 12409 613 16520 2065 41073 2264 4361
leaf_count=13631 291 45704 11416 775 7253 17977 12645 8262 3678 6297 1836 1054 1529 20541 133 1127 74806 22886 66204 1035 59577 18154 4948 12409 613 16520 2065 41073 2264 4361
internal_value=-2.16387e-06 -4.46462e-06 1.17691e-05 2.06954e-05 -9.27516e-06 -1.61359e-05 -2.57013e-05 -2.16387e-06 1.03058e-06 4.74551e-06 4.49633e-05 7.11489e-05 1.10779e-06 3.6445e-06 1.26925e-05 3.22249e-05 -7.08225e-06 -1.30395e-05 -5.70244e-06 -2.79531e-05 1.26538e-06 1.31342e-05 7.54634e-08 1.53681e-05 -5.37977e-05 -2.16387e-06 -4.27764e-06 -2.24086e-07 -7.64108e-06 2.72866e-05
internal_weight=0 416732 64332 34248 223664 52515 30622 21893 193068 87706 8026 2890 30084 28145 26222 2656 171149 30139 141010 1939 63255 24451 25489 23825 904 105362 47769 57593 2397 5136
internal_count=481064 416732 64332 34248 223664 52515 30622 21893 193068 87706 8026 2890 30084 28145 26222 2656 171149 30139 141010 1939 63255 24451 25489 23825 904 105362 47769 57593 2397 5136
is_linear=0
shrinkage=1


Tree=1
num_leaves=30
num_cat=0
split_feature=36 36 137 106 41 96 16 166 106 148 157 152 73 36 98 128 160 165 144 106 32 51 128 166 25 93 96 128 88
split_gain=0.0310483 0.00806417 0.00535307 0.00828702 0.00471207 0.0074091 0.00341336 0.0107011 0.0084692 0.00428252 0.0035435 0.00275597 0.00256329 0.00252357 0.00221387 0.00218724 0.00197737 0.0019718 0.00148005 0.00300952 0.00200279 0.00124724 0.00104666 0.000930486 0.0008703 0.000368464 0.00028239 7.64667e-05 3.66471e-05
threshold=0.0045079288219324774 -0.0025867779703510753 0.028553612530231479 0.00053519753754421612 -0.021591253578662869 -0.0009051932218358175 0.082226012863591671 0.027411232429074086 0.0034113097520119362 0.010027510084693811 -0.015213156118988989 -0.0046303933205586083 -0.0087641444988548738 0.0017299979235440505 -0.0002261989471806383 0.0014842498540165209 -0.001486478434199436 0.00041311723180115228 0.0047331465391959775 -0.0031329573521078889 0.020569421908817598 -0.0026511495234444733 -0.0055363463093209024 0.022585719400500626 0.1165377087891102 -0.020759182050824162 0.0051643968879868975 0.01174222192576724 -0.0032292121678690966
decision_type=6 6 6 4 6 6 6 6 6 6 6 6 4 6 6 6 6 6 6 4 6 4 6 6 6 6 6 6 6
left_child=1 6 3 14 26 16 8 28 11 -10 -9 -1 17 18 25 -14 -6 -5 19 -3 -20 23 -7 -15 -23 -2 -4 -16 -8
right_child=2 13 4 12 5 22 7 10 9 -11 -12 -13 15 21 27 -17 -18 -19 20 -21 -22 24 -24 -25 -26 -27 -28 -29 -30
leaf_value=-1.3319407117112904e-05 0 1.1757735543864426e-05 0.00010366284852288078 7.1372238552319398e-05 1.3237093402122652e-05 0 0 0 -1.8061112833550472e-05 -5.2553048155441789e-05 0.0002981662194115525 -2.3607502863922307e-06 -9.2740311237410759e-06 6.3137350514270245e-06 2.6753404655655683e-05 7.4587362606937768e-06 -3.7941544118062579e-05 0 -6.7238305906243074e-06 -2.1398039565030188e-06 7.8613599640382502e-06 1.035306157847526e-06 7.5605427337905451e-05 2.9216388713435822e-05 -6.6850162270329537e-05 1.2615213438903845e-05 0 4.4942626233169763e-05 -9.7074957703755773e-06
leaf_weight=35891 231 16411 1293 845 1655 203 121 56 13411 5624 164 58888 11534 30456 23217 17601 1034 601 84497 95999 8500 53787 1947 2207 164 11539 113 3271 348
leaf_count=35891 231 16411 1293 845 1655 203 121 56 13411 5624 164 58888 11534 30456 23217 17601 1034 601 84497 95999 8500 53787 1947 2207 164 11539 113 3271 348
internal_value=0 -3.27347e-06 1.77239e-05 1.49816e-05 4.55368e-05 2.7014e-05 -1.00295e-05 5.29555e-05 -1.05435e-05 -2.90443e-05 0.00022828 -6.66904e-06 2.7779e-06 -5.73001e-07 2.43437e-05 3.19556e-07 -8.82042e-07 4.18824e-05 -2.42815e-06 0 -5.2293e-06 3.65329e-06 6.88421e-05 8.32214e-06 5.48458e-07 1.13071e-05 9.85041e-05 2.95691e-05 0
internal_weight=0 406524 75084 68839 6245 4839 114503 689 113814 19035 220 94779 30581 292021 38258 29135 2689 1446 205407 112410 92997 86614 2150 32663 53951 11770 1406 26488 469
internal_count=481608 406524 75084 68839 6245 4839 114503 689 113814 19035 220 94779 30581 292021 38258 29135 2689 1446 205407 112410 92997 86614 2150 32663 53951 11770 1406 26488 469
is_linear=0
shrinkage=0.03


Tree=2
num_leaves=25
num_cat=0
split_feature=36 36 53 107 86 98 66 151 107 98 146 98 11 167 98 66 152 54 167 18 116 165 141 161
split_gain=0.0298205 0.00658954 0.00623268 0.00579586 0.0081925 0.00436075 0.00321535 0.00270848 0.0023765 0.00600494 0.0143068 0.00433019 0.00324232 0.00280671 0.00223186 0.0022272 0.00172746 0.00164186 0.00117269 0.00106791 0.000980619 0.000637732 0.000367666 0.000204137
threshold=0.0053001456276874758 -0.0067689741609741972 -0.22631593048572538 0.0023226366611197595 0.023204800175223951 0.0028040822028579967 0.0026718894154374793 -0.0083476053550839407 0.014528886415064337 0.000339167751504636 -0.019649085099325829 0.0008241183646408957 -0.011221883352845905 0.016627417877316478 -0.0032639041314517819 0.0048408296727752874 -0.0033378071299002385 0.0043612329597514142 -0.014442444778978823 0.0021439506680265212 -0.0049479461322493009 -0.0034232437610626216 -0.0022966538090258832 0.00033540464937686926
decision_type=4 6 4 6 6 4 4 6 4 6 6 6 6 4 4 6 6 6 6 6 6 6 6 4
left_child=1 3 15 16 20 19 17 -8 11 10 -10 14 -11 -13 -3 -2 22 -7 -18 23 -5 -21 -1 -4
right_child=2 8 5 4 -6 6 7 -9 9 12 -12 13 -14 -15 -16 -17 18 -19 -20 21 -22 -23 -24 -25
leaf_value=-2.157458272491748e-05 0 -1.2405585723366771e-05 0 -5.0397979269473436e-06 -0.00034353100799437795 0 5.47962659976994e-05 2.3795460204825594e-05 0.00012065048440218161 1.734037631445459e-05 8.0012542668683738e-06 5.2699073974791367e-06 -3.3066153182930057e-05 -7.087043095021819e-06 -3.2501794967896049e-06 0.00016095526311377993 1.028265894181729e-05 2.6299063316273408e-05 -6.3088982497925143e-06 1.7659849905468768e-05 -3.3049402955489717e-05 6.6931803463290098e-06 -4.7808200204071317e-06 -1.1220694423960723e-05
leaf_weight=5875 98 28629 2012 2779 82 5606 6236 9046 1247 1331 7622 85849 3291 19623 232882 402 6362 4458 9609 15533 10137 15892 5051 1522
leaf_count=5875 98 28629 2012 2779 82 5606 6236 9046 1247 1331 7622 85849 3291 19623 232882 402 6362 4458 9609 15533 10137 15892 5051 1522
internal_value=0 -2.99008e-06 1.94853e-05 -1.46404e-05 -3.13816e-05 1.83174e-05 2.818e-05 3.74326e-05 -1.72898e-06 1.04441e-05 2.55545e-05 -2.21741e-06 -1.53054e-05 2.8286e-06 -4.30992e-06 0.000129831 -5.99083e-06 1.26353e-05 0 1.07365e-05 -2.81858e-05 1.25919e-05 -1.51859e-05 -1.51855e-06
internal_weight=0 420369 60805 39895 12998 60305 25346 15282 380474 13491 8869 366983 4622 105472 261511 500 26897 10064 15971 34959 12916 31425 10926 3534
internal_count=481174 420369 60805 39895 12998 60305 25346 15282 380474 13491 8869 366983 4622 105472 261511 500 26897 10064 15971 34959 12916 31425 10926 3534
is_linear=0
shrinkage=0.03


Tree=3
num_leaves=28
num_cat=0
split_feature=6 36 92 128 106 12 173 160 118 36 146 10 85 113 173 136 113 165 98 12 152 105 107 35 16 163 23
split_gain=0.0157972 0.0167372 0.00580775 0.0039594 0.00386604 0.0123568 0.00356719 0.00494472 0.00719408 0.00330016 0.00296522 0.00236977 0.00236072 0.00256799 0.00223861 0.00193738 0.00182044 0.00145034 0.00129518 0.00126464 0.00144075 0.00127109 0.00104003 0.000370526 0.000625209 0.000257986 0.000252729
threshold=0.0097399269872410557 0.0028523148384887883 0.0016747865646557487 0.0044943782063672612 -0.0016814618213243922 -0.020081496365876726 -0.013647824060171841 -0.0032216811529219374 0.00063821800709931806 -0.00053350093324041432 -0.022322939260841768 0.026571401386170774 -0.023318494670093056 -0.00046516198199242348 -0.013544881716370581 -0.0031061365392836223 0.0088206436485052126 -0.0021621361374855037 -0.00062971831699987766 0.0057288548329580162 0.00025778560836580067 -0.0071537429466843596 0.00070681929355487238 0.011502378154546024 0.06849236827162776 -0.0078577036038041097 -0.026849481277167794
decision_type=6 6 6 6 4 6 6 6 6 6 6 6 6 6 6 4 6 6 6 6 6 6 4 4 4 6 6
left_child=1 4 11 15 12 10 7 8 -4 -7 -6 14 13 -1 17 18 -14 -2 -3 20 -5 -21 -17 26 -25 -16 -13
right_child=2 3 6 19 5 9 -8 -9 -10 -11 -12 23 16 -15 25 22 -18 -19 -20 21 -22 -23 -24 24 -26 -27 -28
leaf_value=5.6929178640683128e-05 0.00010186550084658491 1.68488991757762e-06 0.00028177747583914747 5.0777464072835502e-06 0 -8.5795678426882473e-06 3.5433359912750303e-05 1.0465930758506467e-05 4.8653508971795113e-05 -1.3828763661155719e-06 -7.5176075258257498e-05 0 5.275682453123391e-07 2.316694971335228e-06 2.3498800590965139e-05 6.7091865112005003e-06 -1.3810538628264141e-05 0 1.6105055034890859e-05 0 2.2713512779574703e-05 3.238551211998882e-05 -2.4615035398984371e-06 0 -6.1087877614259659e-05 0 1.9931328470101266e-05
leaf_weight=1358 649 11460 329 12756 473 132039 2955 590 516 111416 2887 143 102909 3397 1407 18236 8550 456 19291 745 9405 8837 26002 1968 222 2208 726
leaf_count=1358 649 11460 329 12756 473 132039 2955 590 516 111416 2887 143 102909 3397 1407 18236 8550 456 19291 745 9405 8837 26002 1968 222 2208 726
internal_value=0 -9.76727e-07 3.36382e-05 9.42443e-06 -4.07606e-06 -6.20387e-06 6.24871e-05 0.000107632 0.000157581 -5.34769e-06 -6.37382e-05 1.5418e-05 3.13924e-07 2.10843e-05 2.90356e-05 5.37905e-06 -4.37957e-07 7.01646e-05 1.12193e-05 1.85077e-05 1.32404e-05 2.91192e-05 9.79955e-07 -6.98701e-07 -1.11644e-05 1.22847e-05 8.41981e-06
internal_weight=0 469761 12169 106732 363029 246815 4390 1435 845 243455 3360 7779 116214 4755 4720 74989 111459 1105 30751 31743 22161 9582 44238 3059 2190 3615 869
internal_count=481930 469761 12169 106732 363029 246815 4390 1435 845 243455 3360 7779 116214 4755 4720 74989 111459 1105 30751 31743 22161 9582 44238 3059 2190 3615 869
is_linear=0
shrinkage=0.03


Tree=4
num_leaves=30
num_cat=0
split_feature=36 107 126 128 12 141 107 106 30 60 117 98 157 48 12 167 34 54 51 18 12 153 55 99 167 106 29 60 147
split_gain=0.0196697 0.0109172 0.0106565 0.00764611 0.0054658 0.00507476 0.00445857 0.00443211 0.00567947 0.0149519 0.022701 0.00511105 0.00389621 0.00368728 0.00526413 0.00195978 0.00174502 0.00154641 0.00149045 0.00137731 0.00125632 0.00101441 0.00110098 0.00110058 0.000821889 0.000820596 0.000786874 0.000752625 2.68144e-05
threshold=-0.0004872137579228953 0.027459812350571159 0.0071964018383442897 0.0029241648126854939 0.0051284922735382555 -0.0023694147821515794 -0.0040865251794457427 0.0017373444655487175 -0.0075292128827329314 0.026260796067813393 -0.016377737745642659 0.0023239931559987177 -0.01472399430349469 -0.0003834298074146942 -0.00028919227482324361 0.0032754885032773022 -0.024268535838918814 0.00057848594142249953 -0.013778433203697203 -0.00029707175931022433 0.0010849578746104788 -0.039837807416915887 0.00032717600697651511 -0.00053947698324918736 0.044295145198702819 -0.0063158676905099966 0.0037032258696854119 0.01192052144586681 0.010825215838849546
decision_type=4 6 6 6 4 6 6 4 6 6 6 4 6 6 6 4 6 4 4 6 6 6 4 6 4 6 6 6 4
left_child=7 3 13 6 25 -4 19 11 12 27 -11 21 28 20 -15 16 -13 -6 -8 -2 -3 23 -23 -1 -17 -5 -14 -10 -9
right_child=1 2 5 4 17 -7 18 8 9 10 -12 15 26 14 -16 24 -18 -19 -20 -21 -22 22 -24 -25 -26 -27 -28 -29 -30
leaf_value=-2.7726603276908953e-05 0 -4.186238336489245e-05 0.00029256074727677245 2.4918798362251462e-05 0 0 4.5094013226538949e-06 -3.4666446751642228e-05 -1.1300681699897195e-05 0.00044841772639665572 0 4.1765037046463984e-05 -2.1767345347906552e-05 -1.514420104622525e-05 7.3689524343815592e-05 5.6478624217496128e-06 7.9275271793313122e-06 2.8472933271087575e-05 -2.9996272587521052e-06 1.1206025120291102e-05 1.803449073096405e-05 -3.4532927762659617e-06 -1.0558499612120199e-05 0 -2.1894953708038599e-05 6.2986016536110895e-06 0 4.7362224410178326e-06 -6.7636422813743843e-05
leaf_weight=4076 10342 585 253 2914 967 101 28876 3319 40037 158 327 3083 6029 468 2266 3620 5186 18795 113744 42262 347 100735 29243 1851 1300 54657 2779 1452 2432
leaf_count=4076 10342 585 253 2914 967 101 28876 3319 40037 158 327 3083 6029 468 2266 3620 5186 18795 113744 42262 347 100735 29243 1851 1300 54657 2779 1452 2432
internal_value=0 5.32147e-06 5.47277e-05 4.53733e-06 1.25438e-05 0.00022018 1.28883e-06 -6.92909e-06 -1.41917e-05 -8.09898e-06 0.000155274 -4.07452e-06 -3.07234e-05 3.45504e-05 5.30008e-05 1.34124e-05 2.23641e-05 2.64693e-05 -1.37407e-06 8.79342e-06 -3.5109e-06 -5.88209e-06 -5.16739e-06 -1.90183e-05 0 7.50245e-06 -1.56196e-05 -1.03777e-05 -5.12349e-05
internal_weight=0 276577 4020 272557 77333 354 195224 205627 56533 41974 485 149094 14559 3666 2734 13189 8269 19762 142620 52604 932 135905 129978 5927 4920 57571 8808 41489 5751
internal_count=482204 276577 4020 272557 77333 354 195224 205627 56533 41974 485 149094 14559 3666 2734 13189 8269 19762 142620 52604 932 135905 129978 5927 4920 57571 8808 41489 5751
is_linear=0
shrinkage=0.03


Tree=5
num_leaves=28
num_cat=0
split_feature=36 106 12 36 98 166 152 12 97 82 122 125 106 54 66 153 30 160 54 125 160 123 128 38 31 76 18
split_gain=0.0248753 0.00563421 0.0119198 0.00475749 0.00447513 0.00370793 0.0036615 0.00360162 0.00311879 0.00294279 0.00423302 0.00232569 0.00193519 0.00169735 0.00152146 0.00235342 0.00174009 0.00150494 0.00134098 0.00111244 0.00108616 0.000970129 0.000322363 0.000786633 0.000317685 0.00021477 0.000578111
threshold=0.0073270867742447803 0.00040588448887680305 -0.015953219749570167 0.01053288891567678 -0.0014599863232718344 0.0068293362119254859 -0.019711257599854374 -0.006767586321417606 -0.0097788898274302465 -0.045466003357569555 0.0069007134137773814 -0.014467492699623106 0.0010393324550640249 0.00085330488638370237 -0.0026372943874425456 -0.0097346007823944074 -0.0011680160336741332 0.00018839337173262238 0.0032612537102374023 0.010332556907087566 -0.0047004195353188664 -0.013047899119555948 -0.013633538887775258 0.00048473904815563457 -0.0033137509599328037 -0.0044640426264247841 0.015489935472130982
decision_type=6 6 4 6 6 4 6 4 6 6 6 6 6 6 6 6 6 6 6 6 6 6 6 6 6 6 6
left_child=1 4 5 12 14 19 25 24 -7 10 -6 -9 22 -11 15 -1 -16 21 -19 -3 -14 -8 -2 -24 -4 -5 -27
right_child=3 2 7 6 9 8 17 11 -10 13 -12 -13 20 -15 16 -17 -18 18 -20 -21 -22 -23 23 -25 -26 26 -28
leaf_value=-2.6892387485292675e-05 0 -3.5684215421702191e-05 -1.4119418665082125e-05 0 7.3036858109225765e-06 -0.00014429610102489765 4.0678471340965452e-06 5.9194571651295861e-06 -4.2545547458939503e-05 3.3004411375841382e-07 7.1660718566644217e-05 -4.46426867704908e-06 1.3211188634422645e-05 6.6039409301686371e-06 -1.2821416964449994e-05 -2.821556633984137e-06 0 -3.5563107463466804e-06 2.7329531899682714e-05 0 -9.8091201664986529e-06 5.0580778981626823e-05 0 2.4249280556089758e-05 -3.3576510759030778e-05 0 -7.7961256446076174e-05
leaf_weight=6892 315 1663 14027 574 4820 752 1172 21306 1512 107408 1401 143705 3155 66091 11453 11381 47923 563 6409 1043 4431 9646 1790 8715 2534 769 117
leaf_count=6892 315 1663 14027 574 4820 752 1172 21306 1512 107408 1401 143705 3155 66091 11453 11381 47923 563 6409 1043 4431 9646 1790 8715 2534 769 117
internal_value=0 -1.8448e-06 -5.82654e-06 2.35486e-05 9.82917e-07 -5.19428e-05 3.43973e-05 -4.48107e-06 -8.30597e-05 3.63162e-06 2.4226e-05 -3.03258e-06 1.13851e-05 2.80646e-06 -4.95432e-06 -1.27231e-05 -2.31052e-06 3.82745e-05 2.26843e-05 -2.03274e-05 0 4.69297e-05 1.953e-05 2.05053e-05 -1.80059e-05 -2.57372e-06 -1.51188e-05
internal_weight=0 443911 186542 37656 257369 4970 19250 181572 2264 179720 6221 165011 18406 173499 77649 18273 59376 17790 6972 2706 7586 10818 10820 10505 16561 1460 886
internal_count=481567 443911 186542 37656 257369 4970 19250 181572 2264 179720 6221 165011 18406 173499 77649 18273 59376 17790 6972 2706 7586 10818 10820 10505 16561 1460 886
is_linear=0
shrinkage=0.03


Tree=6
num_leaves=28
num_cat=0
split_feature=36 30 136 111 46 106 84 86 107 153 98 160 106 165 133 98 117 92 128 122 173 123 8 2 54 18 164
split_gain=0.0240193 0.00505177 0.00907134 0.0146213 0.00947351 0.00596657 0.00724131 0.00615911 0.00380573 0.0035034 0.00395566 0.00349822 0.00333058 0.00280471 0.00224686 0.00186122 0.00182773 0.00185626 0.0017914 0.00175309 0.0015217 0.00132496 0.00127193 0.00126745 0.000892833 8.07239e-05 1.79485e-05
threshold=0.0070493534579451995 0.0020307727486292035 0.013652130654640547 -0.0079608648084104044 0.010783146941669248 0.0015159026532352684 -0.004620873860540972 0.010593849692860164 0.00073423015419393789 -0.0064925064798444501 0.0029738842009286166 -0.0075139088429193668 -0.0016344596698699911 -0.00062879780307412137 -0.016598355956375595 0.00045358641608251265 -0.0087223402224481088 -0.00021562582685390308 0.0027915596268593278 -0.0011543629425789213 -0.006156396120786666 -0.00034236209467053408 0.0076818628051637189 0.02135737749637295 -0.00020147373204359659 -0.00043125098934379173 0.002774045319623965
decision_type=4 6 4 4 6 6 6 6 6 6 6 6 4 6 4 6 6 6 6 6 6 6 4 6 6 6 6
left_child=1 5 8 4 -4 9 7 -7 15 19 -11 13 -13 20 -5 -3 17 -14 -10 -1 22 26 -2 -8 -18 -23 -15
right_child=11 2 3 14 -6 6 23 -9 18 10 -12 12 16 21 -16 -17 24 -19 -20 -21 -22 25 -24 -25 -26 -27 -28
leaf_value=-8.7783180959991952e-06 2.8913355821214418e-05 2.1881424104885476e-06 0 5.2058037008062219e-05 0.00021289116632963612 -2.0914238930876444e-05 -4.4539051114985588e-06 -0.00010100199726352385 -1.047962991447958e-05 3.4664684088596197e-07 2.1284214894057418e-05 3.1504939402995187e-05 -2.5331219938551229e-05 0 1.7616247750546982e-06 1.4183960199630648e-05 -1.4938381020995923e-05 9.1256575788545645e-06 4.0642407049869961e-06 0 2.6658216776477758e-05 0 8.550198870825476e-05 -2.4892166674318605e-05 1.5106422659881495e-05 2.939852877014427e-05 -3.1944453489431827e-06
leaf_weight=59694 1653 56777 407 1219 652 21742 74315 1025 28409 120907 8848 8651 2633 455 4539 16319 448 2215 8676 34394 3582 131 2255 3254 14202 2377 1581
leaf_count=59694 1653 56777 407 1219 652 21742 74315 1025 28409 120907 8848 8651 2633 455 4539 16319 448 2215 8676 34394 3582 131 2255 3254 14202 2377 1581
internal_value=0 -2.07176e-06 3.20092e-06 3.68439e-05 0.000141071 -4.02098e-06 -1.01212e-05 -2.51872e-05 9.82635e-07 -1.21953e-06 1.89029e-06 2.21546e-05 1.54149e-05 3.66682e-05 1.50282e-05 5.07178e-06 7.50427e-06 -6.49818e-06 -6.67262e-06 -5.6676e-06 4.89018e-05 1.31908e-05 6.54296e-05 -5.50528e-06 1.3162e-05 2.81109e-05 0
internal_weight=0 441177 116998 6817 1059 324179 100336 22767 110181 223843 129755 40183 28149 12034 5758 73096 19498 4848 37085 94088 7490 4544 3908 77569 14650 2508 2036
internal_count=481360 441177 116998 6817 1059 324179 100336 22767 110181 223843 129755 40183 28149 12034 5758 73096 19498 4848 37085 94088 7490 4544 3908 77569 14650 2508 2036
is_linear=0
shrinkage=0.03


Tree=7
num_leaves=31
num_cat=0
split_feature=84 128 36 106 61 17 133 106 81 36 18 155 65 122 61 65 166 37 98 146 173 173 61 106 24 173 65 162 0 122
split_gain=0.0127503 0.00916272 0.00528445 0.00607526 0.0077954 0.00296558 0.00353926 0.00336035 0.00435071 0.00421999 0.00225509 0.00225092 0.00219547 0.00318862 0.0019896 0.00193677 0.00264193 0.00155224 0.00116243 0.00110521 0.000987923 0.00102128 0.000942799 0.000359964 0.000271828 0.000533925 0.000144269 0.000103037 7.9359e-05 4.96319e-06
threshold=0.0026851162797528905 0.0010705004721470377 0.0010649148883988167 0.0051395684037428774 0.012666900642216207 -0.10822832211852072 -0.010577767156064509 0.00067629871139636844 0.015571322292089464 0.0050447921594252701 0.0021439506680265212 0.0074752317741513261 0.089377313852310195 0.013452878153230121 -0.0034212516620755191 -0.055001651868224137 0.01505385878102119 -0.0018871041829697786 -0.0029338594925548884 -0.0048197595873538798 -0.0021326337009668346 -0.028194469399750229 0.00098412472289055608 -0.00072356473700555533 -0.0043085569875942345 0.00052596908062696468 -0.10887423902750014 -0.00053845020486521778 0.0057102116036490654 -0.0023904933229152866
decision_type=4 4 6 6 6 4 6 6 6 6 4 4 6 6 6 6 6 6 6 6 6 6 6 4 6 6 6 6 6 6
left_child=2 5 3 15 14 6 -2 9 -9 -7 24 -6 22 17 -5 16 -1 -14 -17 -15 21 -12 26 -24 28 -26 -4 -22 -3 -8
right_child=1 10 12 4 11 7 29 8 -10 -11 20 -13 13 19 -16 18 -18 -19 -20 -21 27 -23 23 -25 25 -27 -28 -29 -30 -31
leaf_value=6.3132649627072504e-06 9.4684986559113296e-05 -1.6210634230899575e-05 3.7137770454871309e-05 -5.1289374180874744e-05 -3.5408548535636164e-06 0 0 -1.6349923274338956e-05 8.8578953514073239e-06 1.8945253683589278e-05 4.3912339875332165e-05 3.3317498188717398e-05 3.9256616604797923e-06 0.00011881382514219431 -2.2401317467209772e-05 -1.2255024479951336e-05 -3.7326099408510999e-05 -3.753740702506732e-05 -3.8846251507292937e-06 0 1.7885780736338636e-05 2.1638473458821819e-05 7.6694717796892885e-06 0 1.1824638552161143e-05 0 8.0067988449777883e-06 6.8851309072317854e-06 0 2.1604584084012787e-06
leaf_weight=25076 672 440 464 4744 5104 40836 161 18455 8405 14410 4337 1878 282 153 10718 18429 1243 3039 204436 92 10031 17042 7105 34540 5743 3584 31870 7153 121 955
leaf_count=25076 672 440 464 4744 5104 40836 161 18455 8405 14410 4337 1878 282 153 10718 18429 1243 3039 204436 92 10031 17042 7105 34540 5743 3584 31870 7153 121 955
internal_value=0 7.80312e-06 -3.13013e-06 -5.12531e-06 -2.02265e-05 1.60691e-06 3.99528e-05 5.88219e-07 -7.90344e-06 4.98841e-06 1.82219e-05 4.23214e-06 3.66518e-06 -1.84606e-05 -3.22401e-05 -3.7048e-06 3.67969e-06 -2.95024e-05 -4.64419e-06 6.95097e-05 2.16013e-05 2.68623e-05 4.93493e-06 1.50293e-06 3.52411e-06 5.88183e-06 8.89099e-06 1.41808e-05 -8.91321e-06 0
internal_weight=0 132345 349173 271628 22444 83894 1788 82106 26860 55246 48451 6982 77545 3566 15462 249184 26319 3321 222865 245 38563 21379 73979 41645 9888 9327 32334 17184 561 1116
internal_count=481518 132345 349173 271628 22444 83894 1788 82106 26860 55246 48451 6982 77545 3566 15462 249184 26319 3321 222865 245 38563 21379 73979 41645 9888 9327 32334 17184 561 1116
is_linear=0
shrinkage=0.03


Tree=8
num_leaves=29
num_cat=0
split_feature=36 36 161 90 61 170 146 157 106 136 106 106 47 171 157 166 5 18 85 106 62 52 106 146 138 146 138 172
split_gain=0.0144764 0.0160998 0.00429916 0.00284123 0.0110009 0.0202917 0.0128607 0.00401461 0.00593733 0.00306348 0.00304687 0.00276562 0.00301148 0.00245456 0.00330284 0.00188377 0.00485949 0.00890444 0.00616544 0.00370803 0.00350084 0.00144324 0.00126286 0.00110205 0.000699462 0.00013317 3.55546e-05 1.20257e-05
threshold=-0.0018519245712069405 0.005995110165202394 0.029719330370426181 -0.0032073921867421273 0.02466845698654652 -0.015283891378457502 -0.0092349994588809669 -0.014346736483275889 0.0011126203566646524 0.0090120297354626296 0.003944809788963213 -0.0017973138068584358 -0.19721705466508863 0.0017519639804959299 0.0041900628712028274 0.027411232429074086 0.02930631767958403 -0.0011772129334719696 -0.0014936032239347694 0.0012844830865117133 0.01404401855778436 -0.012529739362856467 0.010803474852773292 0.0017312747566244964 -0.00056131653235817443 0.0072770114061212841 0.011562951322991313 0.019064760067418873
decision_type=6 6 6 6 6 4 6 6 4 4 6 4 4 6 6 4 4 6 6 4 4 6 4 6 6 6 6 6
left_child=3 15 11 7 9 6 -6 8 -1 10 -5 -3 -13 14 -4 19 17 -17 -18 21 -21 -2 -7 -11 25 -9 -26 -15
right_child=1 2 13 4 5 22 -8 24 -10 23 -12 12 -14 27 -16 16 18 -19 -20 20 -22 -23 -24 -25 26 -27 -28 -29
leaf_value=-8.8818825380993786e-06 7.4722358865511255e-06 3.4519900520195135e-05 0 -3.64120233267131e-06 0.00069411690820662801 -3.6700388212891441e-06 1.7652020776610805e-05 3.6275649709609428e-06 -7.1604852247997462e-05 -1.02448718575796e-05 -2.3502655177551687e-05 9.7405529749830977e-05 1.469170993835762e-05 2.5953870610123643e-05 -5.7389379511185175e-05 -1.6410141749376448e-05 5.1830956282758522e-05 4.0956418604202529e-05 -3.2417774461958131e-05 -1.8947385752750366e-06 -1.797960213985368e-05 9.5308297665259993e-07 4.6791395625997579e-05 -3.2280371152774885e-05 -6.6240589975926715e-06 -7.1249311924033662e-06 -2.6467799298823068e-05 0
leaf_weight=3774 40926 13604 2693 100912 77 366 116 4087 2908 7577 7918 472 31712 1409 1310 3152 893 7528 3705 65385 15872 151889 566 5861 4320 1299 1396 95
leaf_count=3774 40926 13604 2693 100912 77 366 116 4087 2908 7577 7918 472 31712 1409 1310 3152 893 7528 3705 65385 15872 151889 566 5861 4320 1299 1396 95
internal_value=0 3.52287e-06 1.90246e-05 -7.90008e-06 -6.10519e-06 8.6198e-05 0.000368811 -1.95084e-05 -3.84363e-05 -7.07856e-06 -5.22447e-06 2.20961e-05 1.63768e-05 -3.78907e-06 -1.835e-05 7.22819e-07 1.09856e-05 2.26216e-05 -1.27791e-05 9.59191e-08 -5.22157e-06 2.41466e-06 1.09496e-05 -2.09751e-05 -6.76041e-06 0 -1.41013e-05 2.49785e-05
internal_weight=0 340645 51295 141177 123393 1125 193 17784 6682 122268 108830 45788 32184 5507 4003 289350 15278 10680 4598 274072 81257 192815 932 13438 11102 5386 5716 1504
internal_count=481822 340645 51295 141177 123393 1125 193 17784 6682 122268 108830 45788 32184 5507 4003 289350 15278 10680 4598 274072 81257 192815 932 13438 11102 5386 5716 1504
is_linear=0
shrinkage=0.03


Tree=9
num_leaves=28
num_cat=0
split_feature=61 37 36 100 173 165 110 137 98 172 140 12 106 80 153 98 159 55 18 118 107 101 106 35 47 59 136
split_gain=0.011695 0.0210022 0.0163523 0.0107783 0.00986752 0.00842487 0.0187842 0.0196975 0.00563704 0.00455054 0.003739 0.00312684 0.00308627 0.00434034 0.00269121 0.0025891 0.00256459 0.00237424 0.00247697 0.00179089 0.00159034 0.00157916 0.00128837 0.0010314 0.000853834 0.000656596 0.000587507
threshold=0.021419684402644638 -0.0077634623739868394 0.00023577779591633553 -0.0011625701199860972 -0.02297835890203714 -0.032414510846137994 -0.0035654360523455389 -0.00079643726348876942 0.00016075237414551615 -0.00054803976697959643 -0.0021943389134530893 0.0010849578746104788 -0.00013501550010461741 -0.027917397106456954 -0.0033664957154542203 -0.00048958898647831874 -0.032880311831831925 0.010696222074329855 0.0026230598947518569 0.0058826109315228614 -0.00097742374055087545 0.00030432990752160555 -0.0032853279158026132 0.0074552062433213004 0.01169698126614094 -0.0084796836599707586 -0.00014262380953484531
decision_type=4 4 6 6 6 4 6 6 6 6 6 6 6 6 6 4 6 6 6 4 4 6 4 6 4 6 6
left_child=2 3 12 23 -5 6 7 -3 20 11 -8 -7 13 15 -15 -1 21 18 -10 -18 22 -14 -4 -2 -22 -11 -19
right_child=1 5 8 4 -6 9 10 -9 17 25 -12 -13 16 14 -16 -17 19 26 -20 -21 24 -23 -24 -25 -26 -27 -28
leaf_value=0 0 -4.5123428430337473e-05 9.0265644211560714e-06 0 0.00050196946870908674 -2.8171601649925001e-06 -4.5177928931658637e-05 0.00024179857931227216 3.5998647021353661e-06 0 3.8873363547464789e-05 2.6459217914776883e-05 -5.4820374000738352e-05 -8.7293896628492799e-06 1.289232399099069e-07 3.73648519499956e-05 -6.6997645997638448e-06 2.4436221821791527e-05 1.4119446904764238e-05 -1.7220995141492198e-05 -4.8382026295308184e-07 -4.0425250554992656e-06 0 0.00010228843885242361 -9.5606337417063754e-06 -2.1696149734661041e-05 9.3779113905866115e-06
leaf_weight=3235 191 184 21769 62 163 3573 670 790 64449 2464 1331 10150 2042 59012 57921 3646 91538 12496 33680 20759 28831 1742 32169 134 17269 3330 7909
leaf_count=3235 191 184 21769 62 163 3573 670 790 64449 2464 1331 10150 2042 59012 57921 3646 91538 12496 33680 20759 28831 1742 32169 134 17269 3330 7909
internal_value=0 2.11209e-05 -7.73371e-07 0.000206283 0.000379513 1.59083e-05 6.36782e-05 0.000172245 5.12478e-06 7.85245e-06 3.22448e-06 1.77445e-05 -6.20979e-06 -2.74428e-06 -4.21335e-06 2.00352e-05 -9.77684e-06 9.55135e-06 7.36348e-06 -8.77854e-06 0 -3.54208e-05 3.37481e-06 3.88953e-05 -4.20962e-06 -1.29866e-05 1.93361e-05
internal_weight=0 23042 458467 550 225 22492 2975 974 218572 19517 2001 13723 239895 123814 116933 6881 116081 118534 98129 112297 100038 3784 53938 325 46100 5794 20405
internal_count=481509 23042 458467 550 225 22492 2975 974 218572 19517 2001 13723 239895 123814 116933 6881 116081 118534 98129 112297 100038 3784 53938 325 46100 5794 20405
is_linear=0
shrinkage=0.03


Tree=10
num_leaves=31
num_cat=0
split_feature=37 36 36 13 166 106 24 152 38 107 166 106 106 166 157 98 157 47 161 89 130 158 156 65 137 152 131 132 73 173
split_gain=0.0122802 0.00593033 0.00629849 0.00629344 0.0169397 0.0065862 0.00505928 0.00366227 0.00482219 0.00360678 0.00178929 0.00466588 0.00353848 0.00146594 0.00120643 0.0011341 0.00258788 0.00107382 0.00115487 0.000994676 0.00152486 0.000976986 0.000872475 0.000586525 0.000763453 0.000451899 0.000431602 0.000367242 0.000197264 0.000196182
threshold=0.013672159519046547 0.0057474183734868229 0.00028285474365184385 0.038985095918178565 -0.0025897907102951628 0.0046457663039704217 0.0057666255221911081 -0.014851911720516855 0.0054361458919065042 0.0061155995354056367 0.023026429720197427 0.01672486202082487 0.0011894078989117427 0.0062404257103395198 0.0037034912966191773 0.0011982309423712507 -0.013577821664512156 0.07388173416256906 0.021298749372363094 -0.0054359089117497197 -0.0084373914564058895 0.013180514144270369 -0.0074873927061798341 0.020331898704171184 0.003580281045287848 -0.00074293718952961882 -0.011538267601281403 0.0047785819949182047 -0.0017662437749095259 -0.015938138589262959
decision_type=6 6 6 6 4 4 6 6 6 4 4 4 6 4 6 6 6 6 6 6 6 6 6 4 6 6 6 6 6 6
left_child=1 2 3 5 -5 -1 9 15 29 17 12 -12 -4 -10 27 16 -8 18 -2 23 26 -17 -16 28 -25 -22 -21 -11 -3 -9
right_child=6 19 10 4 -6 -7 7 8 13 14 11 -13 -14 -15 22 21 -18 -19 -20 20 25 -23 -24 24 -26 -27 -28 -29 -30 -31
leaf_value=-3.8665404419526281e-06 2.1301035122520189e-05 0 4.1837377828498403e-06 0 0.00031872443244951266 -2.0552551048964284e-05 0 1.0733009604890812e-05 3.0303265412141129e-05 -8.7470807354166764e-06 5.2091401305142146e-06 6.7572019954921148e-05 -5.4168940545928142e-06 6.1091882451813216e-05 0 3.718037055989083e-05 -8.1831103046757213e-05 -3.6026554556009425e-06 -2.1586897597193927e-06 4.7423574156334357e-05 4.3872779625487035e-06 -4.0400005581755679e-06 -4.4831002954030736e-05 0 -3.1421743047476754e-05 1.711862505313246e-05 0 8.5127849067963009e-06 1.1367280927317851e-05 -6.2947374934417637e-06
leaf_weight=220552 10777 374 114112 458 196 24298 370 893 7135 3303 10332 1330 48710 4474 99 683 489 1158 940 1994 9643 386 1386 1173 954 8429 678 1127 3470 1852
leaf_count=220552 10777 374 114112 458 196 24298 370 893 7135 3303 10332 1330 48710 4474 99 683 489 1158 940 1994 9643 386 1386 1173 954 8429 678 1127 3470 1852
internal_value=0 -1.26043e-06 -2.16268e-06 -5.27766e-06 8.61447e-05 -5.58381e-06 1.7173e-05 2.96503e-05 3.50137e-05 5.56081e-06 2.13423e-06 1.36177e-05 1.21945e-06 4.34693e-05 -1.24882e-05 -2.50314e-06 -3.33706e-05 1.50183e-05 1.8139e-05 1.23616e-05 1.549e-05 8.31096e-06 -3.67144e-05 0 -1.09822e-05 1.11565e-05 3.91598e-05 -9.69803e-07 8.39572e-06 0
internal_weight=0 446703 419988 245504 654 244850 35072 16282 14354 18790 174484 11662 162822 11609 5915 1928 859 12875 11717 26715 20744 1069 1485 5971 2127 18072 2672 4430 3844 2745
internal_count=481775 446703 419988 245504 654 244850 35072 16282 14354 18790 174484 11662 162822 11609 5915 1928 859 12875 11717 26715 20744 1069 1485 5971 2127 18072 2672 4430 3844 2745
is_linear=0
shrinkage=0.03


Tree=11
num_leaves=28
num_cat=0
split_feature=36 36 161 172 36 164 93 106 116 9 133 110 107 158 173 51 158 135 107 18 113 60 28 91 3 93 162
split_gain=0.0216515 0.00624971 0.00345127 0.00315158 0.00297943 0.00295709 0.00265416 0.00244634 0.00447808 0.00358376 0.00170353 0.00180683 0.0017367 0.00147102 0.0011978 0.0011732 0.000989917 0.000852634 0.000632575 0.000592685 0.000589212 0.000500449 0.0005779 0.000491873 0.000452349 0.000422109 0.000417746
threshold=0.0084252053523949429 0.0033130871891563622 0.029180980287492279 -0.012361223681217889 0.0011271503178329348 -0.0028332382841535944 -0.0010279939742758868 0.00058848645398848411 0.0060019865422446294 -0.060271931812167161 0.0050920124631375083 -0.005325119725060958 0.00070681929355487238 -0.0058948596390554367 -0.020532921887934204 -0.012720413040369747 -0.0056521155453442542 0.0053138919174671182 -0.0031368139898404475 -0.004981736285103738 -0.0036842622794210906 0.0032362038349413144 -0.0043638785509502393 0.00030664150835946208 -0.0061766130384057752 0.0017200261936523022 -0.0030214037048059694
decision_type=6 6 6 6 6 6 6 6 6 6 6 6 4 6 6 4 6 6 6 6 6 6 4 6 4 6 6
left_child=1 4 3 5 7 17 -7 9 -9 -1 11 13 -13 -3 24 26 25 -2 -17 -5 -18 22 -12 -23 -4 -16 -6
right_child=2 10 14 19 15 6 -8 8 -10 -11 21 12 -14 -15 16 18 20 -19 -20 -21 -22 23 -24 -25 -26 -27 -28
leaf_value=4.8160078214930538e-05 8.6552367588013123e-05 0 0 0 1.0720108307518826e-05 0 5.1589390887638748e-05 -5.2435477387173302e-06 -2.1689415234729886e-05 -2.7127541420741018e-06 -2.8536751321344249e-06 1.2752910264464993e-05 2.1192246555460862e-07 4.5993875511120333e-05 -3.2511613390813586e-05 4.030552159342883e-06 0 0 -2.1890521071609811e-06 2.3026794548812482e-05 4.7293000790426443e-05 -8.0340496078253156e-06 1.0416066331782492e-05 1.671140774715629e-06 -3.9467279645398696e-05 0 0
leaf_weight=1226 2069 1078 570 524 14389 1394 1585 96350 18882 174732 2680 25853 20236 2276 374 21260 628 91 46732 20627 722 9575 6989 5268 813 177 4536
leaf_count=1226 2069 1078 570 524 14389 1394 1585 96350 18882 174732 2680 25853 20236 2276 374 21260 628 91 46732 20627 722 9575 6989 5268 813 177 4536
internal_value=0 -1.56265e-06 2.49309e-05 2.85889e-05 -3.14927e-06 5.20364e-05 2.48106e-05 -4.61784e-06 -8.06888e-06 -2.2725e-06 6.34622e-06 9.55239e-06 7.57231e-06 3.22712e-05 0 1.59819e-06 1.0645e-05 8.25897e-05 -2.36133e-08 2.21784e-05 2.83812e-05 0 5.18717e-06 -3.57933e-06 -2.49532e-05 -5.6312e-06 8.21674e-06
internal_weight=0 452062 29574 26290 378107 5139 2979 291190 115232 175958 73955 49443 46089 3354 3284 86917 1901 2160 67992 21151 1350 24512 9669 14843 1383 551 18925
internal_count=481636 452062 29574 26290 378107 5139 2979 291190 115232 175958 73955 49443 46089 3354 3284 86917 1901 2160 67992 21151 1350 24512 9669 14843 1383 551 18925
is_linear=0
shrinkage=0.03


Tree=12
num_leaves=29
num_cat=0
split_feature=36 166 171 52 126 62 35 107 66 106 36 128 116 150 20 128 153 98 117 116 166 152 145 147 10 109 105 136
split_gain=0.0156496 0.00787999 0.0125722 0.00468353 0.00740794 0.00440436 0.0075116 0.00448989 0.00372213 0.00290296 0.00661363 0.00269118 0.0026284 0.00230494 0.00847495 0.00204334 0.00180781 0.0036497 0.00172407 0.00162311 0.0022152 0.00144778 0.00418408 0.00123856 0.00111079 0.000913512 0.000666894 0.000440553
threshold=0.00086294486319700339 0.048247254584851275 -0.045572943985462182 0.00045396965986985448 0.0075595562008780471 0.057176971726662286 0.020440698601305488 -0.0018792341579683123 0.0025355636134326985 0.0014462653990213931 -0.0057319778600837777 0.0061207220972376783 0.0032197983921832115 -0.00093335055880226076 -0.041370096931560581 0.003116663573490597 -0.02875624597072601 0.001099887084386254 -0.014082332607358692 0.0014346178354814501 0.0098550761755689959 0.0014070802012276713 0.095361601561307921 0.018954122439026836 0.014987943618325587 0.002902398351579905 6.1420949350576861e-05 0.004146840160523693
decision_type=4 4 4 6 6 6 6 4 4 4 6 6 6 6 6 6 6 6 6 6 4 6 4 6 6 6 6 6
left_child=9 5 24 8 -5 7 25 15 -4 11 13 21 -9 14 -11 -2 27 -18 -15 20 -12 22 -1 -21 -3 -7 -23 -13
right_child=1 2 3 4 -6 6 -8 12 -10 10 19 16 -14 18 -16 -17 17 -19 -20 23 -22 26 -24 -25 -26 -27 -28 -29
leaf_value=-5.104123486755488e-06 7.0892301949615322e-06 -0.0001002531346422237 2.9855583989157059e-05 6.6389703822833798e-06 0.00015676429857467154 0.00020392622920075519 0 -1.4657990934498086e-06 0.00012453189751907815 -0.00012220251479323676 -6.3948435860745623e-06 0 8.9394379230963847e-06 1.8248494949224464e-05 -2.498062832979346e-05 1.9310854237388904e-05 -2.4941181573707709e-07 2.9685187736669846e-05 -1.8683342461388461e-05 -5.7025541265541773e-06 7.9714301363662584e-06 2.4977216725665338e-06 -7.0331722436503958e-05 -2.2309971987132687e-05 0 0 -3.5294596163319017e-06 -3.8232047917054753e-05
leaf_weight=112525 57955 507 1236 3464 358 291 235 91296 1374 1051 27890 1200 28276 1014 7702 19097 6116 6595 5977 17383 14324 36834 931 7499 137 77 29732 548
leaf_count=112525 57955 507 1236 3464 358 291 235 91296 1374 1051 27890 1200 28276 1014 7702 19097 6116 6595 5977 17383 14324 36834 931 7499 137 77 29732 548
internal_value=0 6.18006e-06 3.76091e-05 5.17194e-05 2.46982e-05 4.97604e-06 8.72166e-05 4.64666e-06 8.54966e-05 -4.76071e-06 -9.53562e-06 -2.64961e-06 8.69461e-07 -2.72639e-05 -3.83929e-05 1.03134e-05 9.5156e-06 1.41042e-05 -1.11779e-05 -5.15145e-06 -1.16464e-06 -3.71012e-06 -5.77281e-06 -1.13119e-05 -7.98227e-05 0.000175241 0 -1.52584e-05
internal_weight=0 204303 7076 6432 3822 197227 603 196624 2610 277321 82840 194481 119572 15744 8753 77052 14459 12711 6991 67096 42214 180022 113456 24882 644 368 66566 1748
internal_count=481624 204303 7076 6432 3822 197227 603 196624 2610 277321 82840 194481 119572 15744 8753 77052 14459 12711 6991 67096 42214 180022 113456 24882 644 368 66566 1748
is_linear=0
shrinkage=0.03


Tree=13
num_leaves=27
num_cat=0
split_feature=84 36 36 128 106 18 97 24 146 61 46 171 172 141 120 100 98 166 70 17 36 96 16 140 45 158
split_gain=0.00985955 0.0101718 0.00710339 0.00560326 0.00318619 0.0052737 0.0056602 0.00416967 0.00232175 0.00220359 0.00253323 0.00220918 0.00189053 0.00634494 0.00175339 0.0017478 0.00171612 0.00294396 0.0015494 0.00259655 0.00134917 0.00127021 0.00119497 0.000899931 0.000666837 0.000590923
threshold=0.0058085869216752146 0.0179742380586226 -0.00013408537090312279 0.0018543203243146366 -0.0060898810181223388 -0.019910089169636779 -0.0042600911110639563 -0.016049970389251145 0.0026759244024215103 0.0080792289227247256 0.0046620097614437786 0.0043148123659193524 -0.0057431975966507473 -0.00022660102695226667 1.878664883514701e-05 0.0014342811308633656 -0.0005338030201503971 -0.02858878803356386 0.033741961240681385 0.046483999118208892 0.0019158633018680658 -0.0010122169141518972 0.06231678607144326 -0.0056949496683446534 0.0025241083931177859 -0.0018953395334865336
decision_type=6 6 6 6 6 6 6 4 6 4 6 6 6 6 6 6 6 4 6 6 6 6 6 6 6 6
left_child=2 3 4 14 5 6 -1 15 -9 16 25 -12 13 22 20 -6 24 -18 19 -5 -2 -16 -3 -7 -4 -11
right_child=1 12 9 18 7 23 -8 8 -10 10 11 -13 -14 -15 21 -17 17 -19 -20 -21 -22 -23 -24 -25 -26 -27
leaf_value=0.00016452039130896221 -2.6910845420194078e-05 4.1068301801140123e-05 3.1533710015042433e-06 1.948804697641151e-05 -3.1568925781575397e-05 -1.0118600482315602e-05 7.3423764829101397e-06 -2.3376901177609517e-06 -9.3881474633904507e-06 -1.3245482118189452e-06 -1.580739365749369e-05 1.9858770447432346e-06 2.4188885425105135e-05 0.00014277207535313361 -9.6385437721496678e-07 -2.1318297042028943e-06 3.1482007971096562e-05 5.1797449918265093e-06 0 6.4152003668118128e-05 -8.596760704636505e-07 1.6507109991930677e-05 0 5.7797251591412438e-06 -4.1851242666019657e-06 7.3179255303565627e-06
leaf_weight=388 2219 1165 20336 11228 8349 3982 958 121127 71735 8483 17162 7740 2175 953 4026 3799 4257 109862 1710 1820 17642 8508 272 12581 23126 15786
leaf_count=388 2219 1165 20336 11228 8349 3982 958 121127 71735 8483 17162 7740 2175 953 4026 3799 4257 109862 1710 1820 17642 8508 272 12581 23126 15786
internal_value=0 1.24869e-05 -1.37525e-06 7.97308e-06 -5.11279e-06 6.62305e-06 6.39552e-05 -6.21122e-06 -5.03795e-06 2.58202e-06 -2.7789e-06 -9.67489e-06 5.58024e-05 7.82569e-05 5.14121e-07 -2.35996e-05 4.35002e-06 6.29288e-06 2.33275e-05 2.68763e-05 -4.52787e-06 9.69951e-06 2.49083e-05 1.05124e-06 -4.0632e-07 3.67915e-06
internal_weight=0 51718 429671 47153 222919 17909 1346 205010 192862 206752 49171 24902 4565 2390 32395 12148 157581 114119 14758 13048 19861 12534 1437 16563 43462 24269
internal_count=481389 51718 429671 47153 222919 17909 1346 205010 192862 206752 49171 24902 4565 2390 32395 12148 157581 114119 14758 13048 19861 12534 1437 16563 43462 24269
is_linear=0
shrinkage=0.03


Tree=14
num_leaves=31
num_cat=0
split_feature=36 36 162 36 106 107 131 153 8 55 96 92 117 60 150 124 18 99 106 167 173 158 160 12 147 166 164 123 53 167
split_gain=0.0127658 0.00960799 0.00409749 0.00311886 0.00979669 0.00650395 0.00922994 0.00741809 0.00419742 0.00396325 0.00323908 0.00301794 0.00314954 0.00283226 0.00256718 0.00237979 0.00199876 0.00164888 0.00140487 0.00139486 0.00136532 0.00133076 0.00128116 0.00122894 0.00120826 0.00104878 0.000903203 0.000837362 0.000788291 0.00078553
threshold=0.0010475645928747204 0.010314166417779018 -0.018352641290354976 -0.0089657332852291372 0.0020780272218509413 0.031619437038898475 -0.0077711702324450007 0.0045551871880888948 -0.034066600254697717 -0.0097117214463651163 -0.0035734654133609098 -0.00023623443997486564 -0.0083736875094473345 0.0017820433074411301 -6.1091350769705899e-05 0.0017363374727794197 -0.0016540869638339327 0.0016960136708803477 0.00049751133627833771 0.031896449625492103 -0.0017175953835248945 -0.003165285920499787 7.6455906086750361e-05 0.0013797460235890223 -0.029785263352096077 0.0088107928975755534 0.016013562892010381 -0.009773149620741604 -0.016455355100333687 0.015824085101485256
decision_type=6 6 6 6 6 6 6 6 4 4 6 6 6 6 6 4 6 6 4 6 6 6 6 6 6 6 6 6 6 4
left_child=3 2 16 4 8 10 7 -7 25 -8 21 12 27 19 29 -10 28 -12 -15 -4 22 -5 -13 -18 -16 -1 -14 -3 -2 -6
right_child=1 11 13 5 14 6 9 -9 15 -11 17 20 26 18 24 -17 23 -19 -20 -21 -22 -23 -24 -25 -26 -27 -28 -29 -30 -31
leaf_value=5.3627554512307917e-05 7.1980800188066226e-06 -3.0370027391201898e-05 8.5058049179405232e-06 -2.3409674398597607e-05 -3.9092782344111848e-05 3.2879353344775044e-05 0.0002435189561580677 -0.00015456747990254399 -1.8386649981885917e-05 5.4868518263097542e-05 -3.785728978999943e-06 6.1566628392938121e-05 2.7455697611313396e-05 3.1864927873351477e-06 1.3082064425548808e-05 3.040548478187189e-06 2.3915164069440537e-06 1.9684458550934342e-06 -4.1469797079886429e-06 -6.9421877302870742e-06 1.8251696152616552e-05 -5.781620579661764e-06 1.8381302188235778e-05 2.6531652817031214e-05 -2.5978502301749203e-05 0 0 0 -2.1450289193429535e-05 -8.9980182778588504e-05
leaf_weight=1375 1379 1185 55006 10004 2673 522 240 257 8531 846 182493 3935 6092 36928 421 8187 3988 55632 59623 4735 4250 11070 2138 11669 2525 230 670 1887 1406 1499
leaf_count=1375 1379 1185 55006 10004 2673 522 240 257 8531 846 182493 3935 6092 36928 421 8187 3988 55632 59623 4735 4250 11070 2138 11669 2525 230 670 1887 1406 1499
internal_value=0 5.90688e-06 3.54447e-06 -4.04556e-06 -1.42326e-05 -2.99526e-06 5.23063e-05 -9.99257e-06 -1.76662e-06 0.000110717 -3.45143e-06 2.56393e-05 1.14409e-05 1.85814e-06 -4.42061e-05 -6.99726e-06 1.70208e-05 -2.37841e-06 -1.18677e-06 7.03015e-06 3.77075e-05 -1.48629e-05 4.88434e-05 2.13419e-05 -1.53032e-05 4.33236e-05 2.36425e-05 -1.05353e-05 -1.88786e-06 -6.10047e-05
internal_weight=0 194891 174734 286505 25441 261064 1865 779 18323 1086 259199 20157 9834 156292 7118 16718 18442 238125 96551 59741 10323 21074 6073 15657 2946 1605 6762 3072 2785 4172
internal_count=481396 194891 174734 286505 25441 261064 1865 779 18323 1086 259199 20157 9834 156292 7118 16718 18442 238125 96551 59741 10323 21074 6073 15657 2946 1605 6762 3072 2785 4172
is_linear=0
shrinkage=0.03


Tree=15
num_leaves=31
num_cat=0
split_feature=36 36 160 173 141 160 106 122 36 137 64 125 106 91 91 60 85 93 125 105 92 116 105 61 48 51 60 153 92 122
split_gain=0.015598 0.00786338 0.00409326 0.00373388 0.00542641 0.00370115 0.00268047 0.00240064 0.00329974 0.00217646 0.00194166 0.00288714 0.00271052 0.00150404 0.00137562 0.00157019 0.00197547 0.0012609 0.00102256 0.00097877 0.00095418 0.000796984 0.000758894 0.000659742 0.000605994 0.0010557 0.000515027 0.000363593 0.00028948 0.000261764
threshold=0.0014516307112400625 0.0082985709002029433 -0.0080922189326387405 -0.0075767692178487769 0.0053912845905870208 0.077432141715062838 0.0040616999606044044 0.0013229293529149345 -0.0060036704650100088 0.0057156588882207879 -0.030703964172132284 -0.024622244760394093 -0.0036157157836671813 -0.0026762244524434205 0.000680188648402691 0.008253715786359932 0.0041189005132764587 0.0022785392357036476 -0.0010167890577577052 -0.0012045989278703926 0.00053477378422843913 -0.0089502779253267817 0.0086157992482185381 -0.0053079677745699874 -0.0013287381409743412 -0.017530499957501885 -0.0010435392941661912 -0.031687699258327477 -0.0026047564124697911 0.0025910251872330705
decision_type=6 6 6 6 6 6 4 6 6 4 6 4 6 6 6 6 6 6 4 6 6 4 6 6 6 4 6 6 6 6
left_child=7 14 3 4 -3 6 -4 8 9 19 11 17 -13 20 15 26 -17 -9 27 -1 -12 -11 -20 -15 25 -16 -2 -10 -5 -7
right_child=1 2 5 28 -6 29 -8 10 18 21 13 12 -14 23 24 16 -18 -19 22 -21 -22 -23 -24 -25 -26 -27 -28 -29 -30 -31
leaf_value=0 9.990522272883013e-06 2.6749572054875093e-05 2.1897928899625195e-05 0 0.00010599639638553421 -6.6514145311332324e-05 -2.9894823316929347e-07 0 -8.1422364982944767e-06 0 0 3.5947999870741128e-05 4.1774522850293114e-06 4.2112146662068404e-06 3.3907363449025893e-05 1.0413454446358166e-05 -1.5152976019651098e-05 -3.8769816350287155e-05 -5.9298046767830675e-06 -1.4709062127317753e-05 -1.2597691356065832e-05 -3.1667748677955027e-05 -2.486586870261813e-05 -1.9344416489445535e-06 5.7552043729329413e-06 7.7691162035293629e-06 2.1401499075301092e-06 -8.4805678024756666e-07 1.8376221452520165e-05 0
leaf_weight=8376 10570 2820 15854 917 1686 472 5205 519 7775 930 8432 4103 9292 24202 2625 3085 9616 1374 83734 11130 16425 8111 2527 43978 42096 8825 67004 76431 3310 78
leaf_count=8376 10570 2820 15854 917 1686 472 5205 519 7775 930 8432 4103 9292 24202 2625 3085 9616 1374 83734 11130 16425 8111 2527 43978 42096 8825 67004 76431 3310 78
internal_value=0 7.19781e-06 2.11984e-05 3.94553e-05 5.97625e-05 1.3123e-05 1.57e-05 -4.03946e-06 -6.00056e-06 -1.56447e-05 -2.98023e-07 9.43974e-06 1.50326e-05 -2.05954e-06 4.13955e-06 1.66629e-06 -7.76155e-06 -2.21943e-05 -4.29735e-06 -8.84905e-06 -8.38606e-06 -2.86425e-05 -6.65898e-06 2.71552e-08 8.02897e-06 1.50762e-05 3.40341e-06 -1.69986e-06 1.42428e-05 -5.80706e-05
internal_weight=0 174163 30342 8733 4506 21609 21059 307339 199014 28547 108325 15288 13395 93037 143821 90275 12701 1893 170467 19506 24857 9041 86261 68180 53546 11450 77574 84206 4227 550
internal_count=481502 174163 30342 8733 4506 21609 21059 307339 199014 28547 108325 15288 13395 93037 143821 90275 12701 1893 170467 19506 24857 9041 86261 68180 53546 11450 77574 84206 4227 550
is_linear=0
shrinkage=0.03


Tree=16
num_leaves=29
num_cat=0
split_feature=36 17 133 98 18 106 98 116 66 9 152 12 136 98 153 106 163 121 98 13 131 62 106 119 160 164 62 7
split_gain=0.0132144 0.00420933 0.0032682 0.00295137 0.00488734 0.00293663 0.00394527 0.00655164 0.00261544 0.00261522 0.00266071 0.00243559 0.00957346 0.0031844 0.00194655 0.0019067 0.00185157 0.0015982 0.00125263 0.00106873 0.000767338 0.00526863 0.00208648 0.000634978 0.000530426 0.000501786 0.00102167 0.000437502
threshold=0.0017125436334456993 -0.12777119874954221 -0.0036720875650644298 0.0015389415437073357 0.017284454530763407 -0.0018955784448475429 0.012543112572270266 0.034183763185604364 0.0016291655750390024 -0.012501724995672701 -0.0058809958527840361 0.010887667464294355 0.0039684352579755838 -0.004654130717212125 -0.016768744215369221 0.00071896569950002898 -0.017765895463526245 0.003882380668073893 -0.0029056971756224776 -0.011529645416885613 -0.020111612975597378 0.043282995997438949 -0.00090056724800833393 0.0038231327198445801 0.032872380919885515 -0.0053206625046856469 -0.015992093408898341 -0.022720501758158203
decision_type=6 4 6 4 4 4 4 4 6 6 6 6 6 6 6 6 6 6 6 4 4 4 4 6 6 6 6 6
left_child=5 2 8 20 15 9 11 17 -2 10 27 13 -13 -7 23 -5 -10 -8 -12 -16 21 -3 -22 -11 -6 -4 -27 -1
right_child=1 3 25 4 24 6 7 -9 16 14 18 12 -14 -15 19 -17 -18 -19 -20 -21 22 -23 -24 -25 -26 26 -28 -29
leaf_value=1.4042858623499024e-05 0 3.7945618170479784e-06 2.336998962566636e-05 1.5341355531881077e-05 6.1101157951403513e-05 -2.7126598853675786e-05 -6.9223946337407808e-05 -0.00037900707431697168 0.00012656270634167283 -1.3435805509834813e-05 0 -1.1400015562733537e-05 0.00014117151965714308 -4.645016406107513e-06 -1.0861585306099188e-05 3.4702279904209668e-06 0 0 2.5494081941262386e-05 2.668980042260627e-06 7.1594844870887656e-06 0.00011781029608921147 -1.6738585732540438e-06 0 0 -5.9836201966085465e-05 0 -6.8989371071695728e-06
leaf_weight=755 289 6127 791 28831 2041 6154 343 67 777 13318 2864 882 501 215812 5591 28077 302 235 8863 52244 42049 418 51848 5655 125 260 317 5797
leaf_count=755 289 6127 791 28831 2041 6154 343 67 777 13318 2864 882 501 215812 5591 28077 302 235 8863 52244 42049 418 51848 5655 125 260 317 5797
internal_value=0 7.08266e-06 4.48863e-05 6.33967e-06 1.17523e-05 -3.4313e-06 -5.31632e-06 -8.08568e-05 7.85721e-05 8.5146e-07 1.11465e-05 -5.03029e-06 3.31637e-05 -5.33613e-06 -1.40353e-06 9.74834e-06 0.000100008 -1.92463e-05 1.98778e-05 1.10128e-06 3.00676e-06 1.34011e-05 2.12222e-06 -9.82873e-06 5.74274e-05 1.86071e-07 -5.6606e-06 -2.19354e-06
internal_weight=0 162252 2736 159516 59074 319081 223994 645 1368 95087 18279 223349 1383 221966 76808 56908 1079 578 11727 57835 100442 6545 93897 18973 2166 1368 577 6552
internal_count=481333 162252 2736 159516 59074 319081 223994 645 1368 95087 18279 223349 1383 221966 76808 56908 1079 578 11727 57835 100442 6545 93897 18973 2166 1368 577 6552
is_linear=0
shrinkage=0.03


Tree=17
num_leaves=31
num_cat=0
split_feature=36 36 123 166 123 51 63 77 106 35 120 106 153 9 65 107 158 46 166 165 92 93 166 147 153 158 135 152 166 18
split_gain=0.0164902 0.00623552 0.00331004 0.00781681 0.0058142 0.00295805 0.00565326 0.00338482 0.00273339 0.00335206 0.00361229 0.00297254 0.00231997 0.00289545 0.00208711 0.00167957 0.00151827 0.00144839 0.00138466 0.000718795 0.000711846 0.000548523 0.000532165 0.00107115 0.000525362 0.000483817 0.000471567 0.000429802 0.000308206 3.56336e-06
threshold=0.0077280004349298695 0.00044303012833733167 -0.015210701152682303 0.032569232156790258 -0.0034661688841879363 -0.013778433203697203 0.027573126368224624 -0.049995364621281617 -0.0020167041570857314 0.084071740508079543 -0.012592272133304402 0.0047478495501204155 -0.0066509959287941447 -0.0099940346553921682 0.031715236604213722 -0.0061381584964692584 -0.0062059295798008026 0.00081330413071740765 0.009760181906755816 0.011815947480499746 -0.008282392303747341 0.0049432229716330775 0.0042675122932746253 -0.0049110823310911647 0.05490077659487725 0.00097851298973971831 0.0012740329839289191 -0.011951442424328896 0.01807661793909186 0.0016783268931283618
decision_type=6 6 6 6 6 4 4 6 4 6 6 6 6 6 6 6 6 6 4 6 6 6 4 6 6 6 6 6 4 6
left_child=1 8 22 18 17 6 25 -8 12 10 -10 -11 27 -14 15 -7 -16 -5 20 -6 -4 -20 23 26 28 -3 -2 -1 -24 -25
right_child=2 5 3 4 19 14 7 -9 9 11 -12 -13 13 -15 16 -17 -18 -19 21 -21 -22 -23 24 29 -26 -27 -28 -29 -30 -31
leaf_value=-1.011979215342752e-05 0 2.4213172685386037e-06 0 6.9402425907392982e-05 0.00011920764306376158 1.1023295571239016e-05 0 8.1730025904685723e-05 -3.7482086066923246e-05 0 -6.5549801150843635e-06 5.2732759112021427e-05 1.7953012453221823e-05 0 -1.6898425815996192e-05 9.2275919062016752e-07 -1.5981416995945957e-06 -3.5895549094163126e-06 -8.7345313471583052e-07 0 2.3013859757108133e-05 1.7935942768391688e-05 0 0 0 1.0566221714058322e-05 -2.2733235221105923e-05 -1.7757262187760203e-06 -3.5708732574248677e-05 3.250882585605861e-05
leaf_weight=13223 799 18849 777 267 1452 18653 318 1524 3703 4243 171286 1441 11374 30019 8360 95065 29258 708 3957 148 20875 1578 728 258 119 19684 890 19466 930 918
leaf_count=13223 799 18849 777 267 1452 18653 318 1524 3703 4243 171286 1441 11374 30019 8360 95065 29258 708 3957 148 20875 1578 728 258 119 19684 890 19466 930 918
internal_value=0 -1.41012e-06 2.01419e-05 2.38543e-05 7.57413e-05 2.62762e-06 9.86827e-06 6.22562e-05 -4.50752e-06 -6.5004e-06 -7.29558e-06 1.53361e-05 1.50342e-07 5.06201e-06 5.9666e-07 2.7116e-06 -5.39783e-06 1.14705e-06 1.83829e-05 0.000111776 2.19328e-05 1.7845e-06 -4.30187e-07 3.80978e-06 -1.56944e-05 6.97161e-06 -4.65076e-06 -5.61023e-06 -2.34266e-05 2.86817e-05
internal_weight=0 446466 34404 29762 2575 191711 40375 1842 254755 180673 174989 5684 74082 41393 151336 113718 37618 975 27187 1600 21652 5535 4642 2865 1777 38533 1689 32689 1658 1176
internal_count=480870 446466 34404 29762 2575 191711 40375 1842 254755 180673 174989 5684 74082 41393 151336 113718 37618 975 27187 1600 21652 5535 4642 2865 1777 38533 1689 32689 1658 1176
is_linear=0
shrinkage=0.03


Tree=18
num_leaves=29
num_cat=0
split_feature=98 107 153 30 8 12 166 106 53 24 156 84 136 145 136 158 170 106 93 6 68 36 84 114 153 26 18 113
split_gain=0.0092017 0.0101563 0.00743896 0.0122675 0.00745023 0.0044776 0.00740201 0.00441299 0.00422077 0.00415334 0.00384749 0.00277616 0.00275398 0.00540389 0.00225244 0.00203198 0.00169692 0.00155327 0.0015348 0.00152739 0.00144605 0.00113464 0.00111242 0.00100219 0.000819284 0.000705942 0.000264505 4.60388e-05
threshold=0.0016577667256676926 0.017818869091570381 -0.0068721123971045009 0.0038038310423987704 0.0052419555677020889 0.001578574899609123 0.0087386253628063629 -0.001697303143923251 -0.084003005176782594 -0.0014106266078825693 0.019442322379698413 -0.0041943233057356727 0.02176089363597819 -0.00098920398158952572 -0.0041838801605534248 0.0024707073794267218 -0.0016835448681979857 -0.0027623607238312226 -0.0013138747308403251 0.0037331138496884469 0.024028020748086323 -0.00087581518641040117 -0.0077669875330768417 0.022256477317788011 -0.0061856058891862622 -0.0019126704647564306 -0.00047207125720101977 0.0050503890961408624
decision_type=6 4 6 4 6 6 4 4 4 4 6 6 4 6 6 4 6 6 4 4 6 4 6 6 6 4 6 6
left_child=1 7 3 14 -5 6 8 19 17 23 -11 22 16 -14 -3 -10 -8 -2 -13 24 26 -21 -9 -4 -1 -22 27 -7
right_child=5 2 9 4 -6 20 12 11 15 10 -12 18 13 -15 -16 -17 -18 -19 -20 21 25 -23 -24 -25 -26 -27 -28 -29
leaf_value=-2.8044299464784362e-06 7.94845374728455e-05 -5.7691542490347803e-05 -4.0207175597358177e-05 0.00019778885027874158 0 5.2795755757464506e-06 -1.5811732699632393e-05 -2.4388959495617593e-05 0 9.7525193447455339e-06 0.00015151022425626465 -7.3620388862399812e-06 -8.7545068782921866e-05 0 3.1540847718374907e-05 1.208131441154151e-05 3.5984261460243856e-06 2.0448843440514826e-05 -1.9573023889142824e-06 -1.6373225470110841e-05 0 1.2140611269368068e-05 -8.8430650838046243e-06 0 2.4144776282973247e-06 4.5916659397242428e-05 1.5245583047656322e-05 0
leaf_weight=48628 1002 168 1721 773 331 5544 8672 9213 21325 3069 217 86612 1287 1618 3179 23851 5730 2710 127518 930 466 16247 16868 181 60874 2439 29603 867
leaf_count=48628 1002 168 1721 773 331 5544 8672 9213 21325 3069 217 86612 1287 1618 3179 23851 5730 2710 127518 930 466 16247 16868 181 60874 2439 29603 867
internal_value=0 -2.19951e-06 2.80443e-05 5.662e-05 0.000146116 7.83934e-06 2.81343e-06 -3.03512e-06 8.96941e-06 6.25539e-07 2.37624e-05 -5.43758e-06 -1.37081e-05 -4.15372e-05 2.25512e-05 6.0484e-06 -7.04837e-06 4.04577e-05 -4.21353e-06 1.40208e-06 1.60016e-05 9.72192e-06 -1.49111e-05 -3.14518e-05 0 3.9393e-05 1.36962e-05 4.20053e-06
internal_weight=0 376529 9639 4451 1104 105114 66195 366890 48888 5188 3286 240211 17307 2905 3347 45176 14402 3712 214130 126679 38919 17177 26081 1902 109502 2905 36014 6411
internal_count=481643 376529 9639 4451 1104 105114 66195 366890 48888 5188 3286 240211 17307 2905 3347 45176 14402 3712 214130 126679 38919 17177 26081 1902 109502 2905 36014 6411
is_linear=0
shrinkage=0.03


Tree=19
num_leaves=29
num_cat=0
split_feature=36 30 152 98 106 24 162 33 111 92 64 106 98 99 89 106 122 35 107 161 8 111 106 131 120 54 48 117
split_gain=0.0146638 0.00372382 0.00366465 0.0035088 0.0047135 0.00413403 0.00283626 0.00293103 0.00312549 0.0024129 0.0022092 0.0020181 0.00167768 0.00152606 0.00122982 0.00290562 0.00191279 0.00122175 0.000977484 0.000918795 0.00358414 0.000820303 0.000604407 0.000775211 0.000359755 0.000118113 4.65459e-05 3.89368e-05
threshold=0.0092858285545891345 0.00050354210333170555 -0.019502147557579768 -0.0005688671462518569 0.0093069916230968646 0.0072579521556015002 -0.010408310151597648 -0.0042974173557013265 -0.0083109857514500601 0.00071201366192107833 -0.041328402566220016 0.00048511845773016804 0.000339167751504636 -0.0014935604995116589 0.0029286199714988474 0.0054482958386698338 -0.023280280676475102 -0.023469578474760052 0.017818869091570381 -0.028347685933113095 0.0079714570173811446 -0.0033972203964367505 -2.749065072905703e-05 -0.017985267564654347 0.0071703783215176743 0.00011763062017099617 -0.0017228983033000182 0.002412072848528624
decision_type=6 6 6 4 6 4 4 6 6 6 4 4 6 6 6 4 6 6 6 6 6 6 4 4 6 6 6 6
left_child=1 3 13 14 10 -6 7 21 -9 22 -5 12 -8 17 16 -16 -1 -2 -13 20 -11 -3 25 -24 -19 -4 -21 -15
right_child=2 6 9 4 5 -7 11 8 -10 19 -12 18 -14 27 15 -17 -18 24 -20 26 -22 -23 23 -25 -26 -27 -28 -29
leaf_value=-5.372788021068183e-05 0 3.250564590827969e-05 0 1.2595544042643046e-05 -3.92618907984281e-05 5.6158964728579832e-05 -8.3901578960714004e-08 2.8447724086568594e-05 -9.7525823032407152e-07 6.3012250663263872e-06 -1.0886092949274294e-06 -5.9126109143770105e-06 8.4010128375775414e-06 -1.5547208727632049e-06 -1.1323250753810717e-05 -5.9117636368926965e-05 -5.5480482705877655e-06 0 1.0985182204171983e-05 0 0.00011295456110015666 1.2404486297510956e-05 3.6542709695404214e-05 1.6244437473719964e-06 -0.00012903402570058509 2.5772045904383718e-05 3.1010720968893191e-05 8.339668342570451e-06
leaf_weight=829 72 4140 67 11413 4603 325 65204 3590 27159 923 149712 53161 28761 1116 17844 1454 73115 146 2687 443 868 13019 804 7072 183 4803 7888 463
leaf_count=829 72 4140 67 11413 4603 325 65204 3590 27159 923 149712 53161 28761 1116 17844 1454 73115 146 2687 443 868 13019 804 7072 183 4803 7888 463
internal_value=0 -1.33882e-06 2.23219e-05 -3.72196e-06 -1.00352e-06 -2.99061e-05 1.71061e-06 8.07457e-06 1.97376e-06 2.59466e-05 -2.60783e-08 -2.24447e-07 2.35367e-06 -1.19578e-05 -8.4022e-06 -1.57073e-05 -6.29249e-06 -6.41194e-05 -4.83067e-06 3.8014e-05 6.64245e-05 1.81316e-05 1.51824e-05 7.10139e-06 -9.12556e-05 2.51644e-05 3.00918e-05 0
internal_weight=0 457016 24848 259295 166053 4928 197721 47908 30749 22868 161125 149813 93965 1980 93242 19298 73944 401 55848 10122 1791 17159 12746 7876 329 4870 8331 1579
internal_count=481864 457016 24848 259295 166053 4928 197721 47908 30749 22868 161125 149813 93965 1980 93242 19298 73944 401 55848 10122 1791 17159 12746 7876 329 4870 8331 1579
is_linear=0
shrinkage=0.03


Tree=20
num_leaves=31
num_cat=0
split_feature=30 36 166 34 107 10 106 12 157 123 58 63 153 173 136 98 116 161 94 123 173 86 21 98 48 141 67 106 172 92
split_gain=0.00711743 0.0100249 0.00815926 0.0202972 0.0141424 0.0094057 0.00407105 0.00529109 0.00414763 0.00361775 0.00307782 0.00255346 0.00249656 0.00297819 0.00226774 0.00187308 0.00172776 0.00509006 0.00169839 0.00156225 0.00153907 0.00158217 0.00148636 0.00122074 0.00113222 0.000858642 0.000543964 0.000403738 0.000287049 0.000122231
threshold=0.00058276762637845126 0.008980097114879711 0.038063490614984562 0.092893347211162478 0.0055235780309885749 0.0037962406877359578 0.0028694651869231405 -0.0038136523952233829 -0.030651667155325409 -0.014819763600826262 -0.048420955870247383 -0.019591836258769032 -0.015679278410971161 -0.024591531604528424 0.00011308958208148722 7.5916628494751789e-05 -0.0026662806779487176 -0.0093791675753891451 -0.0003573346431195575 -0.021679903380572792 0.0010982365929521622 0.0028406438972942683 0.0070259526837617168 0.00024450136096836587 0.0043173680357795514 -0.0031290077604353424 0.0019869720563292508 0.0030007175524824552 -0.014258312135510902 0.00068882370393602479
decision_type=4 6 4 4 4 6 6 6 6 6 6 6 6 6 6 6 6 6 4 6 4 6 6 6 6 6 6 4 6 6
left_child=6 2 14 5 -5 -4 10 8 18 27 11 19 13 -12 23 -14 17 -9 -8 -1 21 -11 -16 -2 -10 -18 -13 28 -3 -29
right_child=1 9 3 4 -6 -7 7 16 24 20 12 26 15 -15 22 -17 25 -19 -20 -21 -22 -23 -24 -25 -26 -27 -28 29 -30 -31
leaf_value=-7.989285356008371e-08 8.2512870654103086e-07 -1.0881553418435884e-05 6.1499661675084585e-05 0 0.00061707445494349814 -5.4696340576211778e-06 -8.7361550197319202e-05 3.243027953267202e-05 -1.7829104033685771e-05 2.5856795624747638e-05 -2.6511986002483255e-05 -2.702206679033405e-05 -3.4174224014940903e-06 -4.4324201340578037e-06 0 3.1253140933502542e-06 -1.4508956216705937e-05 -8.2038016207873608e-06 -2.1003614452350964e-05 3.1136067391248487e-05 1.2136650575247439e-05 5.8871558043231341e-05 -8.7345150593529642e-06 7.8474394603913521e-06 1.0611211261461635e-05 -8.4691443269261232e-07 0 -2.3073016538128381e-05 1.0734105654254899e-05 0
leaf_weight=694 73506 510 3226 58 90 3692 1384 4353 17353 11444 7048 1041 79394 39664 45817 77770 9837 6742 1518 5883 7405 2737 29351 36146 678 11665 293 933 1714 320
leaf_count=694 73506 510 3226 58 90 3692 1384 4353 17353 11444 7048 1041 79394 39664 45817 77770 9837 6742 1518 5883 7405 2737 29351 36146 678 11665 293 933 1714 320
internal_value=0 4.16236e-06 1.74652e-06 3.34121e-05 0.000385605 2.36006e-05 -3.16156e-06 -1.05908e-05 -2.24608e-05 2.20583e-05 -1.21289e-06 1.69489e-05 -1.99136e-06 -8.08592e-06 4.54383e-07 -8.44186e-08 -2.50704e-06 6.38978e-06 -5.78542e-05 2.55632e-05 2.67325e-05 3.32938e-05 -3.46339e-06 3.27688e-06 -1.59268e-05 -7.79551e-06 -1.42692e-05 -2.64769e-06 0 -1.75774e-05
internal_weight=0 216949 191886 7066 148 6918 265317 53530 20933 25063 211787 7911 203876 46712 184820 157164 32597 11095 2902 6577 21586 14181 75168 109652 18031 21502 1334 3477 2224 1253
internal_count=482266 216949 191886 7066 148 6918 265317 53530 20933 25063 211787 7911 203876 46712 184820 157164 32597 11095 2902 6577 21586 14181 75168 109652 18031 21502 1334 3477 2224 1253
is_linear=0
shrinkage=0.03


Tree=21
num_leaves=28
num_cat=0
split_feature=36 98 18 24 133 137 167 147 60 90 84 42 107 121 107 118 128 166 167 106 90 161 98 160 96 79 0
split_gain=0.00922471 0.00642193 0.0056255 0.00369535 0.00305762 0.0148967 0.00881322 0.00225872 0.00766071 0.0144816 0.00233222 0.00208279 0.00183152 0.00170932 0.00142308 0.00251255 0.00244697 0.00140678 0.00133877 0.00250524 0.00157964 0.00131263 0.000953651 0.000475227 0.000126518 5.61107e-05 3.79817e-06
threshold=-0.0011058438036591533 0.0011757231856920707 0.019161215919821339 0.0079750084035998918 -0.014386238530278204 0.01531126629561186 0.040497474372386939 -0.0006728852167725562 0.026260796067813393 0.0022340426968822141 0.0036593509549807269 0.014233161313727909 0.0044529999140650043 -0.0038096178323030467 -0.0016109506832435725 -0.0021374935252283767 0.0048267632400541991 0.011805501684261694 0.011902996338903906 0.00073311300853005673 -0.0070286757089308496 -0.0023858125787228342 -0.0016329585523389076 -0.0061081242456582875 1.7095780664587297e-05 -0.0033302564406767483 -0.00068225786872788154
decision_type=6 6 6 6 6 6 6 6 6 6 6 6 6 6 6 6 4 4 4 6 6 4 4 6 6 4 6
left_child=7 4 3 21 5 23 -7 8 14 13 12 26 22 -10 16 -16 -1 -14 19 -6 -20 -3 -9 -2 -12 -5 -4
right_child=1 2 11 25 18 6 -8 10 9 -11 24 -13 17 -15 15 -17 -18 -19 20 -21 -22 -23 -24 -25 -26 -27 -28
leaf_value=-4.9530291164434603e-07 -7.0976938761273811e-06 9.6465288452831938e-06 0 4.8196700535908624e-05 2.9095928835354686e-06 1.2717033002848015e-05 9.3833116766847325e-05 -1.1255248500144861e-05 0 0.00054569361232676208 -8.8568788289687997e-05 9.3814782903949346e-05 -8.8825410021277609e-06 0.00011466750037820579 4.6452137122974786e-06 -1.0151604433729692e-05 2.4667969074073529e-05 -2.9391056993828795e-05 -5.8490235864806253e-05 -5.8660062311825149e-06 -4.8639080529913827e-06 1.5733484832402391e-06 -2.931490098071806e-06 1.7357737045100886e-06 0 2.1331746016333645e-05 1.3690910087845804e-05
leaf_weight=31983 7307 46300 115 1355 94490 3150 2646 21143 204 64 407 1036 11691 115 12953 35611 3784 6552 560 42305 41426 38188 49184 19820 294 7851 1007
leaf_count=31983 7307 46300 115 1355 94490 3150 2646 21143 204 64 407 1036 11691 115 12953 35611 3784 6552 560 42305 41426 38188 49184 19820 294 7851 1007
internal_value=0 3.21877e-06 9.66562e-06 8.37454e-06 2.28951e-07 8.68895e-06 5.2355e-05 -5.42356e-06 -1.69171e-06 0.00013113 -8.79678e-06 5.87164e-05 -8.17045e-06 0 -2.4759e-06 -5.89611e-06 1.74874e-06 -1.70728e-05 -1.24516e-06 8.59677e-08 -5.93916e-06 6.17517e-06 -5.64746e-06 -9.10663e-08 -6.63465e-05 2.69245e-05 1.28539e-05
internal_weight=0 307556 95852 93694 211704 32923 5796 173985 84714 383 89271 2158 88570 319 84331 48564 35767 18243 178781 136795 41986 84488 70327 27127 701 9206 1122
internal_count=481541 307556 95852 93694 211704 32923 5796 173985 84714 383 89271 2158 88570 319 84331 48564 35767 18243 178781 136795 41986 84488 70327 27127 701 9206 1122
is_linear=0
shrinkage=0.03


Tree=22
num_leaves=31
num_cat=0
split_feature=12 36 106 60 73 136 165 36 118 115 122 9 173 146 137 0 106 107 85 87 125 0 166 62 26 118 164 137 98 136
split_gain=0.00831389 0.00505423 0.00489189 0.00408765 0.00583658 0.0074711 0.00895968 0.00402444 0.00313672 0.002917 0.00309918 0.00198666 0.00193579 0.00191045 0.0027977 0.00175412 0.00171216 0.0042771 0.00138924 0.00118223 0.00117783 0.0011239 0.000896582 0.000927444 0.000693551 0.000958086 0.000624676 0.000358171 0.000178865 3.81118e-06
threshold=0.010887667464294355 -0.0069446182439681856 -0.00026843388455663611 0.0088529279878452466 -0.0064933556132018557 0.015915529305235192 -0.004626514855772256 0.00055073376360457256 -0.008945129647163241 -0.060679381713271134 0.00096770465337155185 -0.0098967207595705969 0.0060372317675501117 0.002411474155220032 0.013660555239766838 0.0040445194096468797 -0.0011410511576432879 0.018916388042271141 0.0049131771083921203 0.0069706290960311898 0.015701171942055229 0.0046879056436517031 0.012459158880233903 -0.0384971253246729 0.0022043647503582355 -0.0045277380547366648 -0.0072064984608258146 -0.033798610791563981 -0.00035217713892330001 -0.0088993905802928295
decision_type=6 4 6 6 6 6 6 4 6 6 6 6 6 6 4 6 6 6 6 6 6 6 6 4 6 6 6 6 6 6
left_child=1 2 9 15 8 27 -7 11 -5 10 -1 20 -11 19 -15 24 21 -18 -13 -4 -3 -9 23 -17 25 -2 -10 -6 -26 -24
right_child=3 7 13 4 5 6 -8 16 26 12 -12 18 -14 14 -16 22 17 -19 -20 -21 -22 -23 29 -25 28 -27 -28 -29 -30 -31
leaf_value=0 0 5.9488940277717685e-06 -5.79190329663485e-06 0.00028194012178621002 0 0.00013614647843996762 0 4.2220011864810184e-06 8.5843190866162079e-05 1.8895550469957523e-06 7.0777686780354175e-05 -2.950034208306142e-06 -1.6876950709956505e-05 -1.9933510958246332e-05 -6.7231779302590701e-05 -5.4903747076195932e-07 0 2.685887968735276e-05 -1.2722778235744481e-05 -4.6224465998468203e-05 -7.0134113713073301e-06 1.3167570624562995e-05 0 2.6509612168364624e-05 0 -3.3234555925814315e-05 0 1.3070534520336667e-05 1.2986364162598933e-05 -2.943087349373827e-06
leaf_weight=830 1175 33113 8661 152 618 1076 582 52020 144 11506 997 164349 7427 5784 2171 158 122754 5559 15659 933 6850 21563 159 4708 2077 1476 228 6995 956 394
leaf_count=830 1175 33113 8661 152 618 1076 582 52020 144 11506 997 164349 7427 5784 2171 158 122754 5559 15659 933 6850 21563 159 4708 2077 1476 228 6995 956 394
internal_value=0 -6.45506e-07 -1.10884e-05 1.86937e-05 3.31192e-05 2.55785e-05 8.47319e-05 2.67285e-07 0.000137413 -4.80761e-07 3.48017e-05 -2.50099e-06 -4.68095e-06 -2.27808e-05 -3.47405e-05 4.61321e-06 3.35769e-06 1.12469e-06 -3.88363e-06 -1.12959e-05 3.35148e-06 7.04757e-06 1.75434e-05 2.25498e-05 -5.07791e-06 -1.70389e-05 3.70602e-05 1.07071e-05 4.38588e-07 0
internal_weight=0 460176 38309 20898 9795 9271 1658 421867 524 20760 1827 219971 18933 17549 7955 11103 201896 128313 180008 9594 39963 73583 5419 4866 5684 2651 372 7613 3033 553
internal_count=481074 460176 38309 20898 9795 9271 1658 421867 524 20760 1827 219971 18933 17549 7955 11103 201896 128313 180008 9594 39963 73583 5419 4866 5684 2651 372 7613 3033 553
is_linear=0
shrinkage=0.03


Tree=23
num_leaves=28
num_cat=0
split_feature=36 106 120 99 16 166 167 169 106 149 93 161 23 117 171 173 71 126 98 87 153 87 99 38 128 163 140
split_gain=0.0108534 0.00204855 0.00582883 0.00312183 0.00296433 0.0186029 0.00266036 0.00231202 0.00377037 0.00211846 0.00201317 0.00332715 0.00292199 0.00225547 0.0023911 0.00195777 0.00182675 0.00202705 0.00127294 0.00125084 0.00124814 0.0012141 0.00097591 0.000788447 0.000626082 0.000325393 3.4418e-05
threshold=0.0041336150189237803 -0.0037418574307854576 -0.012592272133304402 0.0091939768753945845 0.10909792230063121 1.0000000180025095e-35 0.027628961950540546 -0.020791276358067986 0.010109246844536936 0.001820045989006758 0.00052534849965013574 0.081718508154153838 -0.092506289482116685 -0.0069589433260262004 0.0018951387610286476 -0.0049840528517961493 0.049651402980089195 -0.0065917216620634935 -0.00090129420630889734 -0.0075865560211241237 -0.0047503137029707423 0.0065701303537935027 0.0068770237267017373 0.0042116908382989777 0.0064563193776884138 0.031235105358064178 -0.0088366074983916784
decision_type=6 6 6 4 6 6 6 6 6 6 6 6 6 6 6 6 6 6 6 6 4 6 6 6 6 6 6
left_child=1 3 7 6 21 -6 9 8 -3 -1 11 15 25 14 -13 22 17 -5 26 -20 -8 -4 -2 -17 -9 -12 -14
right_child=10 2 4 16 5 -7 20 24 -10 -11 12 13 18 -15 -16 23 -18 -19 19 -21 -22 -23 -24 -25 -26 -27 -28
leaf_value=-2.2566887350785472e-07 8.7576969388398854e-06 -2.9540589966413781e-05 -1.6993128710511495e-06 0.0001149565791529375 -3.69557274996347e-05 0.00027360722659462895 -2.4053454146032888e-05 -2.5596573578714551e-06 -0.00016061168555015794 1.1484167177526053e-05 5.8673339802781465e-05 -8.7449039352182085e-05 0 0 0 -6.9757787456706405e-06 0 4.0628429042745599e-06 3.5908158703245101e-05 1.2720962016010834e-05 0 -8.0989253715766942e-06 2.6820912384911452e-05 4.7897737076428479e-06 -3.5185031348156001e-05 0 2.1673848301939549e-06
leaf_weight=29672 15371 1644 298425 501 380 247 4521 3349 361 22738 1693 803 958 802 181 6853 174 679 3412 23647 4421 31370 5331 17031 1216 72 6609
leaf_count=29672 15371 1644 298425 501 380 247 4521 3349 361 22738 1693 803 958 802 181 6853 174 679 3412 23647 4421 31370 5331 17031 1216 72 6609
internal_value=0 -1.84114e-06 -2.79099e-06 3.02426e-06 -2.18564e-06 6.20208e-05 1.77455e-06 -3.09432e-05 -6.07503e-05 4.56868e-06 1.0091e-05 5.43452e-06 1.56119e-05 -3.32285e-05 -6.37257e-05 7.3211e-06 4.85025e-05 6.39509e-05 1.31167e-05 1.62015e-05 -1.29224e-05 -2.35357e-06 1.41358e-05 7.85617e-07 -1.45463e-05 5.60049e-05 1.0238e-07
internal_weight=0 399698 336992 62706 330422 627 61352 6570 2005 52410 82763 46372 36391 1786 984 44586 1354 1180 34626 27059 8942 329795 20702 23884 4565 1765 7567
internal_count=482461 399698 336992 62706 330422 627 61352 6570 2005 52410 82763 46372 36391 1786 984 44586 1354 1180 34626 27059 8942 329795 20702 23884 4565 1765 7567
is_linear=0
shrinkage=0.03


Tree=24
num_leaves=27
num_cat=0
split_feature=36 84 152 36 31 106 60 137 116 63 98 117 152 64 65 129 137 166 166 64 100 34 99 104 173 98
split_gain=0.00865529 0.00445398 0.00560509 0.00464346 0.00324043 0.00314969 0.00746323 0.00524025 0.00516732 0.00516514 0.00246299 0.00239119 0.00198631 0.00173499 0.00314339 0.0026711 0.00144289 0.00102257 0.002447 0.00173194 0.000892824 0.000854549 0.00113175 0.000709143 0.000511816 0.00050087
threshold=0.00080071203076448436 0.020298466635735962 -0.0061445463344682481 0.01207241040369475 0.0090852668508887308 0.0033809309732785666 -0.012298612458691183 0.016954434104263786 -0.0033997188779126808 0.037818757817149169 0.0012581345375771433 -0.0004204744473099708 -0.003419092028489501 0.060979402057940051 0.035500911995768554 -0.0014846725389361379 0.083739183843135848 -0.0083038433370823516 0.021193965174557634 -0.10263761978825198 0.0017722254313292626 0.02839565818761975 -0.0036480263806879516 0.0014240302957795987 0.043781796470284469 0.0019821438129839983
decision_type=6 4 4 6 4 4 6 6 6 4 6 6 6 4 6 6 4 4 6 6 4 6 6 6 6 6
left_child=5 3 21 13 -4 10 7 -7 9 -8 12 25 24 14 -2 -15 -10 19 -19 -12 -14 -3 -23 -9 -1 -5
right_child=1 2 4 11 -6 6 8 23 16 -11 17 -13 20 15 -16 -17 -18 18 -20 -21 -22 22 -24 -25 -26 -27
leaf_value=-7.7281920803869603e-06 4.1048061826584739e-06 0 0 0 0.00010467162923026903 -2.0642733199231533e-05 -1.0251994905347084e-06 -0.00020090642323405768 -1.3645695832101256e-05 4.5880474292856455e-05 6.6965499516757229e-05 3.7880722143138375e-05 -2.3586218842309045e-06 3.5220155133222632e-05 -6.015251607557585e-06 0 -7.6589957140933088e-05 3.8994449142395074e-06 -2.6534550094385401e-05 7.7425188669429091e-06 3.913477951746746e-06 -0.00012491139594292291 0 -2.3118940370521267e-05 0 1.2655998244810538e-05
leaf_weight=76707 152811 208 156 1616 1161 1241 9204 346 27600 2548 559 5426 83153 3758 32727 3756 446 26085 2579 12624 26020 121 62 264 5548 5689
leaf_count=76707 152811 208 156 1616 1161 1241 9204 346 27600 2548 559 5426 83153 3758 32727 3756 446 26085 2579 12624 26020 121 62 264 5548 5689
internal_value=0 4.6316e-06 5.35987e-05 4.15176e-06 8.63093e-05 -3.48481e-06 -1.11673e-05 -7.10869e-05 -8.00009e-06 7.87453e-06 -2.0488e-06 2.18834e-05 -3.53394e-06 2.90452e-06 2.23884e-06 1.7341e-05 -1.51869e-05 4.38634e-06 6.36264e-07 1.14012e-05 -7.26308e-07 -1.82907e-05 -6.97708e-05 -0.000148799 -7.0779e-06 7.94094e-06
internal_weight=0 207491 1708 205783 1317 274924 41649 1851 39798 11752 233275 12731 191428 193052 185538 7514 28046 41847 28664 13183 109173 391 183 610 82255 7305
internal_count=482415 207491 1708 205783 1317 274924 41649 1851 39798 11752 233275 12731 191428 193052 185538 7514 28046 41847 28664 13183 109173 391 183 610 82255 7305
is_linear=0
shrinkage=0.03


Tree=25
num_leaves=28
num_cat=0
split_feature=54 30 64 146 146 152 53 128 96 30 98 123 128 171 60 106 98 50 69 66 165 98 53 85 98 93 24
split_gain=0.0064123 0.00300593 0.0029218 0.00353567 0.00563089 0.00269507 0.00232703 0.00223921 0.00221252 0.001994 0.0030349 0.0032176 0.00183842 0.00170643 0.00154241 0.00152631 0.00150021 0.00143728 0.001239 0.000972509 0.00089182 0.000835384 0.000389999 0.000708901 0.000278786 0.000228193 4.02127e-08
threshold=0.0091274557250590818 0.00023014149357956131 0.031517741528852394 -0.0063959697503882347 -0.011211646312372668 -0.012748380441081366 0.026019990444183353 0.0019372024163086027 -0.0060038312806924244 0.00070830444481884255 0.0024784692602287514 0.0032894443720579152 0.001767752580479291 0.0022642416879534726 0.0084560578505721105 0.0054482958386698338 -0.0002261989471806383 0.0080871069164343869 0.024863596074283126 0.0045450964105824285 0.0033103250898420815 -0.00031832030572956788 0.011541797313839199 0.00097432866459712397 -0.0023746684208025884 -0.0045916449744254342 0.0031789543424662185
decision_type=6 6 4 6 6 6 4 6 6 4 6 6 6 6 6 4 6 6 4 6 6 6 4 6 6 6 4
left_child=1 5 12 4 -4 8 -5 16 13 22 19 17 14 -1 -3 -9 -7 -12 -10 25 -21 -14 26 -24 -25 -11 -2
right_child=9 2 3 6 -6 7 -8 15 18 10 11 -13 21 -15 -16 -17 -18 -19 -20 20 -22 -23 23 24 -26 -27 -28
leaf_value=-4.657062457268604e-05 0 -4.9059100327030345e-07 4.3444356269495391e-05 1.7154318645193255e-05 -5.5880754882302006e-06 -6.9738748353615227e-06 -9.0514846029083542e-06 4.1349034554710303e-06 -1.001205116426538e-05 -7.5505758042954553e-06 0 5.9594635994177962e-05 -1.101749409470535e-06 0 -1.3467507108782026e-05 -9.7048947747967759e-06 -4.5568891383008975e-07 2.9782587390359887e-05 6.1709900700206639e-06 2.0067376428634919e-05 2.1513951146790639e-06 6.9140547968083307e-06 0 -6.9562607553749534e-05 0 3.5101890691347485e-06 2.9930360615073353e-07
leaf_weight=2743 782 117737 6001 5162 2481 75344 7099 62046 28308 2376 2402 2806 11819 1341 9169 7607 64071 2367 3808 8369 6586 44189 269 306 612 5663 402
leaf_count=2743 782 117737 6001 5162 2481 75344 7099 62046 28308 2376 2402 2806 11819 1341 9169 7607 64071 2367 3808 8369 6586 44189 269 306 612 5663 402
internal_value=0 -9.88446e-07 1.65706e-06 1.23515e-05 2.73363e-05 -3.24628e-06 7.5922e-07 -1.85073e-06 -1.08912e-05 1.27232e-05 1.49981e-05 3.22583e-05 3.6215e-07 -3.2881e-05 -1.54657e-06 2.40784e-06 -4.08595e-06 1.30117e-05 -7.62593e-06 8.65748e-06 1.31816e-05 4.95474e-06 -1.0274e-05 -2.24916e-05 -3.67052e-05 0 0
internal_weight=0 448925 203657 20743 8482 245268 12261 209068 36200 32940 30569 7575 182914 4084 126906 69653 139415 4769 32116 22994 14955 56008 2371 1187 918 8039 1184
internal_count=481865 448925 203657 20743 8482 245268 12261 209068 36200 32940 30569 7575 182914 4084 126906 69653 139415 4769 32116 22994 14955 56008 2371 1187 918 8039 1184
is_linear=0
shrinkage=0.03


end of trees

feature_importances:
log_close/mean_60-mean_close/mean_60_id10=53
log_close/mean_60_id6=46
log_close/mean_60-mean_close/mean_60_id6=37
log_close/mean_900-mean_close/mean_900_id10=23
log_return_60-mean_log_returns_60_id10=19
log_close/mean_60_id3=17
log_return_900-mean_log_returns_900_id13=16
log_close/mean_300-mean_close/mean_300_id6=15
log_close/mean_900-mean_close/mean_900_id3=15
log_return_900-mean_log_returns_900_id3=14
log_close/mean_60_id2=13
log_close/mean_900-mean_close/mean_900_id7=12
log_close/mean_60_id10=11
log_close/mean_300-mean_close/mean_300_id10=11
log_close/mean_900-mean_close/mean_900_id0=11
log_close/mean_60-mean_close/mean_60_id3=9
log_return_300-mean_log_returns_300_id10=9
log_return_900-mean_log_returns_900_id7=9
log_return_900-mean_log_returns_900_id9=9
log_return_900-mean_log_returns_900_id10=9
log_close/mean_60_id5=8
log_close/mean_60_id9=8
log_return_60-mean_log_returns_60_id3=8
log_close/mean_60-mean_close/mean_60_id5=8
log_close/mean_300-mean_close/mean_300_id0=8
log_close/mean_300-mean_close/mean_300_id3=8
log_return_300-mean_log_returns_300_id3=8
log_return_900-mean_log_returns_900_id5=8
log_close/mean_900-mean_close/mean_900_id6=8
log_close/mean_60_id4=7
log_return_60_id10=7
log_return_900_id10=7
mean_close/mean_60=7
log_return_300-mean_log_returns_300_id0=7
log_close/mean_60_id11=6
log_return_60-mean_log_returns_60_id6=6
log_return_300-mean_log_returns_300_id12=6
log_return_900_id5=5
log_return_300_id8=5
log_return_900_id8=5
log_close/mean_300_id10=5
log_close/mean_900_id10=5
mean_log_returns_60=5
log_close/mean_300-mean_close/mean_300_id1=5
log_return_300-mean_log_returns_300_id4=5
log_return_300-mean_log_returns_300_id8=5
log_return_900-mean_log_returns_900_id0=5
log_close/mean_900-mean_close/mean_900_id9=5
log_return_900-mean_log_returns_900_id12=5
log_close/mean_900-mean_close/mean_900_id13=5
log_close/mean_60_id0=4
log_close/mean_300_id1=4
log_return_300_id1=4
log_close/mean_900_id2=4
log_close/mean_60_id8=4
log_close/mean_60-mean_close/mean_60_id2=4
log_return_60-mean_log_returns_60_id9=4
log_return_60-mean_log_returns_60_id13=4
log_close/mean_300-mean_close/mean_300_id2=4
log_return_300-mean_log_returns_300_id7=4
log_close/mean_900-mean_close/mean_900_id8=4
log_return_900-mean_log_returns_900_id8=4
log_close/mean_60_id1=3
log_close/mean_900_id1=3
log_return_900_id2=3
log_close/mean_900_id5=3
log_return_60_id6=3
log_close/mean_300_id6=3
log_close/mean_900_id7=3
log_return_900_id7=3
log_close/mean_900_id8=3
log_return_60_id9=3
log_return_300_id10=3
log_return_60_id12=3
log_close/mean_60-mean_close/mean_60_id0=3
log_return_60-mean_log_returns_60_id0=3
log_return_60-mean_log_returns_60_id2=3
log_close/mean_60-mean_close/mean_60_id7=3
log_return_60-mean_log_returns_60_id12=3
log_close/mean_300-mean_close/mean_300_id5=3
log_close/mean_300-mean_close/mean_300_id12=3
log_return_60_id2=2
log_return_900_id3=2
log_close/mean_300_id4=2
log_return_60_id5=2
log_return_60-mean_log_returns_60_id1=2
log_return_60-mean_log_returns_60_id5=2
log_close/mean_60-mean_close/mean_60_id12=2
log_return_300-mean_log_returns_300_id1=2
log_return_300-mean_log_returns_300_id2=2
log_return_300-mean_log_returns_300_id9=2
log_close/mean_300-mean_close/mean_300_id11=2
mean_log_returns_900=2
log_close/mean_900-mean_close/mean_900_id2=2
log_close/mean_900-mean_close/mean_900_id5=2
log_close/mean_900-mean_close/mean_900_id12=2
log_close/mean_300_id0=1
log_return_300_id0=1
log_return_900_id0=1
log_return_60_id1=1
log_return_900_id1=1
log_close/mean_300_id3=1
log_return_300_id3=1
log_return_60_id4=1
log_close/mean_900_id4=1
log_return_900_id4=1
log_close/mean_300_id5=1
log_return_300_id5=1
log_return_900_id6=1
log_close/mean_60_id7=1
log_return_300_id7=1
log_close/mean_300_id8=1
log_close/mean_900_id9=1
log_return_900_id9=1
log_return_60_id11=1
log_close/mean_300_id11=1
log_return_300_id11=1
log_close/mean_900_id11=1
log_return_900_id11=1
log_close/mean_900_id12=1
log_return_900_id12=1
log_return_60_id13=1
log_close/mean_300_id13=1
log_return_300_id13=1
log_close/mean_900_id13=1
log_close/mean_60-mean_close/mean_60_id1=1
log_close/mean_60-mean_close/mean_60_id4=1
log_return_60-mean_log_returns_60_id7=1
log_close/mean_60-mean_close/mean_60_id9=1
log_return_60-mean_log_returns_60_id11=1
mean_close/mean_300=1
mean_log_returns_300=1
log_close/mean_300-mean_close/mean_300_id4=1
log_return_300-mean_log_returns_300_id6=1
log_close/mean_300-mean_close/mean_300_id7=1
log_close/mean_300-mean_close/mean_300_id8=1
mean_close/mean_900=1
log_close/mean_900-mean_close/mean_900_id1=1
log_return_900-mean_log_returns_900_id1=1
log_return_900-mean_log_returns_900_id2=1
log_return_900-mean_log_returns_900_id4=1
log_return_900-mean_log_returns_900_id6=1
log_return_900-mean_log_returns_900_id11=1

parameters:
[boosting: gbdt]
[objective: regression]
[metric: rmse]
[tree_learner: serial]
[device_type: cpu]
[data: ]
[valid: ]
[num_iterations: 5000]
[learning_rate: 0.03]
[num_leaves: 31]
[num_threads: 0]
[deterministic: 0]
[force_col_wise: 0]
[force_row_wise: 0]
[histogram_pool_size: -1]
[max_depth: 5]
[min_data_in_leaf: 50]
[min_sum_hessian_in_leaf: 0.001]
[bagging_fraction: 0.7]
[pos_bagging_fraction: 1]
[neg_bagging_fraction: 1]
[bagging_freq: 1]
[bagging_seed: 8586]
[feature_fraction: 1]
[feature_fraction_bynode: 1]
[feature_fraction_seed: 8586]
[extra_trees: 1]
[extra_seed: 8586]
[early_stopping_round: 50]
[first_metric_only: 1]
[max_delta_step: 0]
[lambda_l1: 0.5]
[lambda_l2: 2]
[linear_lambda: 0]
[min_gain_to_split: 0]
[drop_rate: 0.1]
[max_drop: 50]
[skip_drop: 0.5]
[xgboost_dart_mode: 0]
[uniform_drop: 0]
[drop_seed: 8586]
[top_rate: 0.2]
[other_rate: 0.1]
[min_data_per_group: 100]
[max_cat_threshold: 32]
[cat_l2: 10]
[cat_smooth: 10]
[max_cat_to_onehot: 4]
[top_k: 20]
[monotone_constraints: ]
[monotone_constraints_method: basic]
[monotone_penalty: 0]
[feature_contri: ]
[forcedsplits_filename: ]
[refit_decay_rate: 0.9]
[cegb_tradeoff: 1]
[cegb_penalty_split: 0]
[cegb_penalty_feature_lazy: ]
[cegb_penalty_feature_coupled: ]
[path_smooth: 0]
[interaction_constraints: ]
[verbosity: -1]
[saved_feature_importance_type: 0]
[linear_tree: 0]
[max_bin: 600]
[max_bin_by_feature: ]
[min_data_in_bin: 3]
[bin_construct_sample_cnt: 200000]
[data_random_seed: 8586]
[is_enable_sparse: 1]
[enable_bundle: 1]
[use_missing: 1]
[zero_as_missing: 1]
[feature_pre_filter: 1]
[pre_partition: 0]
[two_round: 0]
[header: 0]
[label_column: ]
[weight_column: ]
[group_column: ]
[ignore_column: ]
[categorical_feature: ]
[forcedbins_filename: ]
[precise_float_parser: 0]
[objective_seed: 30655]
[num_class: 1]
[is_unbalance: 0]
[scale_pos_weight: 1]
[sigmoid: 1]
[boost_from_average: 1]
[reg_sqrt: 0]
[alpha: 0.9]
[fair_c: 1]
[poisson_max_delta_step: 0.7]
[tweedie_variance_power: 1.5]
[lambdarank_truncation_level: 30]
[lambdarank_norm: 1]
[label_gain: ]
[eval_at: ]
[multi_error_top_k: 1]
[auc_mu_weights: ]
[num_machines: 1]
[local_listen_port: 12400]
[time_out: 120]
[machine_list_filename: ]
[machines: ]
[gpu_platform_id: -1]
[gpu_device_id: -1]
[gpu_use_dp: 0]
[num_gpu: 1]

end of parameters

pandas_categorical:[]
