tree
version=v4
num_class=1
num_tree_per_iteration=1
label_index=0
max_feature_idx=173
objective=regression
feature_names=log_close/mean_60_id0 log_return_60_id0 log_close/mean_300_id0 log_return_300_id0 log_close/mean_900_id0 log_return_900_id0 log_close/mean_60_id1 log_return_60_id1 log_close/mean_300_id1 log_return_300_id1 log_close/mean_900_id1 log_return_900_id1 log_close/mean_60_id2 log_return_60_id2 log_close/mean_300_id2 log_return_300_id2 log_close/mean_900_id2 log_return_900_id2 log_close/mean_60_id3 log_return_60_id3 log_close/mean_300_id3 log_return_300_id3 log_close/mean_900_id3 log_return_900_id3 log_close/mean_60_id4 log_return_60_id4 log_close/mean_300_id4 log_return_300_id4 log_close/mean_900_id4 log_return_900_id4 log_close/mean_60_id5 log_return_60_id5 log_close/mean_300_id5 log_return_300_id5 log_close/mean_900_id5 log_return_900_id5 log_close/mean_60_id6 log_return_60_id6 log_close/mean_300_id6 log_return_300_id6 log_close/mean_900_id6 log_return_900_id6 log_close/mean_60_id7 log_return_60_id7 log_close/mean_300_id7 log_return_300_id7 log_close/mean_900_id7 log_return_900_id7 log_close/mean_60_id8 log_return_60_id8 log_close/mean_300_id8 log_return_300_id8 log_close/mean_900_id8 log_return_900_id8 log_close/mean_60_id9 log_return_60_id9 log_close/mean_300_id9 log_return_300_id9 log_close/mean_900_id9 log_return_900_id9 log_close/mean_60_id10 log_return_60_id10 log_close/mean_300_id10 log_return_300_id10 log_close/mean_900_id10 log_return_900_id10 log_close/mean_60_id11 log_return_60_id11 log_close/mean_300_id11 log_return_300_id11 log_close/mean_900_id11 log_return_900_id11 log_close/mean_60_id12 log_return_60_id12 log_close/mean_300_id12 log_return_300_id12 log_close/mean_900_id12 log_return_900_id12 log_close/mean_60_id13 log_return_60_id13 log_close/mean_300_id13 log_return_300_id13 log_close/mean_900_id13 log_return_900_id13 mean_close/mean_60 mean_log_returns_60 log_close/mean_60-mean_close/mean_60_id0 log_return_60-mean_log_returns_60_id0 log_close/mean_60-mean_close/mean_60_id1 log_return_60-mean_log_returns_60_id1 log_close/mean_60-mean_close/mean_60_id2 log_return_60-mean_log_returns_60_id2 log_close/mean_60-mean_close/mean_60_id3 log_return_60-mean_log_returns_60_id3 log_close/mean_60-mean_close/mean_60_id4 log_return_60-mean_log_returns_60_id4 log_close/mean_60-mean_close/mean_60_id5 log_return_60-mean_log_returns_60_id5 log_close/mean_60-mean_close/mean_60_id6 log_return_60-mean_log_returns_60_id6 log_close/mean_60-mean_close/mean_60_id7 log_return_60-mean_log_returns_60_id7 log_close/mean_60-mean_close/mean_60_id8 log_return_60-mean_log_returns_60_id8 log_close/mean_60-mean_close/mean_60_id9 log_return_60-mean_log_returns_60_id9 log_close/mean_60-mean_close/mean_60_id10 log_return_60-mean_log_returns_60_id10 log_close/mean_60-mean_close/mean_60_id11 log_return_60-mean_log_returns_60_id11 log_close/mean_60-mean_close/mean_60_id12 log_return_60-mean_log_returns_60_id12 log_close/mean_60-mean_close/mean_60_id13 log_return_60-mean_log_returns_60_id13 mean_close/mean_300 mean_log_returns_300 log_close/mean_300-mean_close/mean_300_id0 log_return_300-mean_log_returns_300_id0 log_close/mean_300-mean_close/mean_300_id1 log_return_300-mean_log_returns_300_id1 log_close/mean_300-mean_close/mean_300_id2 log_return_300-mean_log_returns_300_id2 log_close/mean_300-mean_close/mean_300_id3 log_return_300-mean_log_returns_300_id3 log_close/mean_300-mean_close/mean_300_id4 log_return_300-mean_log_returns_300_id4 log_close/mean_300-mean_close/mean_300_id5 log_return_300-mean_log_returns_300_id5 log_close/mean_300-mean_close/mean_300_id6 log_return_300-mean_log_returns_300_id6 log_close/mean_300-mean_close/mean_300_id7 log_return_300-mean_log_returns_300_id7 log_close/mean_300-mean_close/mean_300_id8 log_return_300-mean_log_returns_300_id8 log_close/mean_300-mean_close/mean_300_id9 log_return_300-mean_log_returns_300_id9 log_close/mean_300-mean_close/mean_300_id10 log_return_300-mean_log_returns_300_id10 log_close/mean_300-mean_close/mean_300_id11 log_return_300-mean_log_returns_300_id11 log_close/mean_300-mean_close/mean_300_id12 log_return_300-mean_log_returns_300_id12 log_close/mean_300-mean_close/mean_300_id13 log_return_300-mean_log_returns_300_id13 mean_close/mean_900 mean_log_returns_900 log_close/mean_900-mean_close/mean_900_id0 log_return_900-mean_log_returns_900_id0 log_close/mean_900-mean_close/mean_900_id1 log_return_900-mean_log_returns_900_id1 log_close/mean_900-mean_close/mean_900_id2 log_return_900-mean_log_returns_900_id2 log_close/mean_900-mean_close/mean_900_id3 log_return_900-mean_log_returns_900_id3 log_close/mean_900-mean_close/mean_900_id4 log_return_900-mean_log_returns_900_id4 log_close/mean_900-mean_close/mean_900_id5 log_return_900-mean_log_returns_900_id5 log_close/mean_900-mean_close/mean_900_id6 log_return_900-mean_log_returns_900_id6 log_close/mean_900-mean_close/mean_900_id7 log_return_900-mean_log_returns_900_id7 log_close/mean_900-mean_close/mean_900_id8 log_return_900-mean_log_returns_900_id8 log_close/mean_900-mean_close/mean_900_id9 log_return_900-mean_log_returns_900_id9 log_close/mean_900-mean_close/mean_900_id10 log_return_900-mean_log_returns_900_id10 log_close/mean_900-mean_close/mean_900_id11 log_return_900-mean_log_returns_900_id11 log_close/mean_900-mean_close/mean_900_id12 log_return_900-mean_log_returns_900_id12 log_close/mean_900-mean_close/mean_900_id13 log_return_900-mean_log_returns_900_id13
feature_infos=[-0.27805297355941316:0.12516575759583556] [-0.32725825905799866:0.14341259002685547] [-0.38054498509878487:0.22281339499391656] [-0.43425023555755615:0.34003239870071411] [-0.46210622766744963:0.31418866333185347] [-0.58518224954605103:0.55262202024459839] [-0.14750296232180654:0.099963518108047433] [-0.17639248073101044:0.16198371350765228] [-0.18865767016923798:0.15883282622025302] [-0.2132459282875061:0.19702070951461792] [-0.21750530502752:0.21520523595844027] [-0.28229522705078125:0.31671631336212158] [-0.46821061151475529:0.13535212343984632] [-0.53033649921417236:0.22860442101955414] [-0.60139366579795284:0.22828406050287633] [-0.6608349084854126:0.47480124235153198] [-0.67988424367168576:0.31354945196805256] [-0.78613549470901489:0.4492267370223999] [-0.33512935016610695:0.21077497485404759] [-0.39719575643539429:0.21372443437576294] [-0.45180240553224926:0.187010304298277] [-0.51601511240005493:0.51722538471221924] [-0.52325549056125664:0.23260452653752045] [-0.63256710767745972:0.32764038443565369] [-0.36737830468709476:0.40428131521579802] [-0.52795237302780151:0.65335887670516968] [-0.49777245152254468:0.69872051024100912] [-0.70030909776687622:1.1582350730895996] [-0.5703451128143433:1.1017421859333485] [-0.73162400722503662:1.9544382095336914] [-0.41035013249891972:0.14359974100320957] [-0.47071188688278198:0.23951876163482666] [-0.53537937429035665:0.21468755928990568] [-0.59465539455413818:0.39813020825386047] [-0.60885697830832486:0.33034960488192272] [-0.72342973947525024:0.4624665379524231] [-0.22943940714263575:0.11205263221502143] [-0.28315436840057373:0.14045442640781403] [-0.31813473857619828:0.12868792707042459] [-0.37029421329498291:0.30856418609619141] [-0.39320275268045524:0.17513193034875313] [-0.50195938348770142:0.28403210639953613] [-0.35662990879013257:0.22072056825348318] [-0.42948377132415771:0.26817134022712708] [-0.50186087651647193:0.28323406353264169] [-0.56729573011398315:0.45904397964477539] [-0.59102560923403813:0.43451445146542478] [-0.71405863761901855:0.55160897970199585] [-0.44587990258127397:0.20765815773472165] [-0.5171779990196228:0.21246472001075745] [-0.60115373814879902:0.22104043676856339] [-0.6823810338973999:0.48176592588424683] [-0.68701481850649893:0.30682918540038656] [-0.78062283992767334:0.48048093914985657] [-0.37655008049156874:0.2252812817876314] [-0.43652412295341492:0.28624457120895386] [-0.4930358849678334:0.27679894231192975] [-0.55171060562133789:0.31173381209373474] [-0.55319313152800886:0.26938457886321648] [-0.64000970125198364:0.27581179141998291] [-0.19617281939999134:0.16633795700293497] [-0.31387194991111755:0.21313132345676422] [-0.35959169688757781:0.25096921915613418] [-0.42975381016731262:0.35228663682937622] [-0.43521490278326513:0.36518854275937557] [-0.55000048875808716:0.66681057214736938] [-0.40143252332971524:0.216752110485122] [-0.46435052156448364:0.17803440988063812] [-0.52198804637570073:0.13596360310951569] [-0.58030760288238525:0.39843788743019104] [-0.60811700213027686:0.17073949410086703] [-0.72055947780609131:0.38319206237792969] [-0.42110778432305213:0.19032073336847297] [-0.50214076042175293:0.24393497407436371] [-0.55995036266511511:0.30746298056378529] [-0.62733304500579834:0.47569715976715088] [-0.63520049757208485:0.49100852134347611] [-0.7367437481880188:0.66491883993148804] [-0.25151748981105149:0.20121508308493624] [-0.30209851264953613:0.29174283146858215] [-0.36193846308770061:0.29204375950070344] [-0.40950280427932739:0.32128620147705078] [-0.43290425899711199:0.32244948839130827] [-0.53235459327697754:0.3576284646987915] [-0.33445422486934528:0.15529713198139378] [-0.39341408014297485:0.15282341837882996] [-0.080281308080185812:0.12290112686340456] [-0.11814369261264801:0.14097313582897186] [-0.07426717130533185:0.18695126254753874] [-0.10709094256162643:0.21991874277591705] [-0.13375638664541001:0.10052719944761573] [-0.13692241907119751:0.16542363166809082] [-0.1081450885844108:0.12228379266769139] [-0.11044330894947052:0.14255927503108978] [-0.20437728409652364:0.37392377578547509] [-0.48953431844711304:0.61940199136734009] [-0.13823686856383435:0.12381580798387867] [-0.15614897012710571:0.21677957475185394] [-0.043244499766372346:0.10501481772670954] [-0.049486570060253143:0.11533796787261963] [-0.097443635240348381:0.15210870793202594] [-0.17444880306720734:0.22911624610424042] [-0.11142567771192868:0.10468493870052398] [-0.12885051965713501:0.13630825281143188] [-0.099937819383324494:0.18174368014151815] [-0.18526050448417664:0.23261266946792603] [-0.13172808726012603:0.14127650791603763] [-0.26645275950431824:0.1665213406085968] [-0.081520311955422461:0.074892064286071328] [-0.12009811401367188:0.10706652700901031] [-0.11819103421585331:0.17847969234845634] [-0.14616219699382782:0.23948672413825989] [-0.098520505935027397:0.18022474743988426] [-0.14245128631591797:0.27347886562347412] [-0.45048738241152286:0.12721600046505085] [-0.50685900449752808:0.38407611846923828] [-0.15161866182188863:0.21907018010500356] [-0.16467864811420441:0.27564132213592529] [-0.056269785352291705:0.26182971224228491] [-0.18705540895462036:0.29485896229743958] [-0.15090628338642997:0.16345984159011184] [-0.15397590398788452:0.188211590051651] [-0.10772166147095794:0.14727103385048124] [-0.11837085336446762:0.16491208970546722] [-0.45027533558741523:0.65634656680630588] [-0.6818806529045105:1.0748004913330078] [-0.14365135371877299:0.19892961316808561] [-0.15798839926719666:0.35193678736686707] [-0.055285373047395524:0.13235264383532458] [-0.100617915391922:0.13656479120254517] [-0.1438956332191956:0.28581586840722767] [-0.22439724206924438:0.37758746743202209] [-0.15066635573727616:0.20457120838371237] [-0.17552202939987183:0.27521383762359619] [-0.11269482103757515:0.21941480156650647] [-0.18657112121582031:0.22945454716682434] [-0.11744528647688519:0.22524402289897122] [-0.16647778451442719:0.31704059243202209] [-0.12912294450678935:0.10734254498229462] [-0.2204766720533371:0.15066851675510406] [-0.13328879048419673:0.26714283572082581] [-0.21366646885871887:0.34125226736068726] [-0.11268454858713768:0.25021592086711048] [-0.18433228135108948:0.26079335808753967] [-0.52277749651309557:0.13046053723595144] [-0.62675482034683228:0.30181699991226196] [-0.12783668024708406:0.28905428158880858] [-0.22618837654590607:0.50426441431045532] [-0.094506888147311327:0.30527219148557561] [-0.15916238725185394:0.34936025738716125] [-0.15710674715859019:0.22159749377532995] [-0.15938067436218262:0.3300725519657135] [-0.11436353523889298:0.16058462043563076] [-0.18517737090587616:0.23663733899593353] [-0.40054985911333624:1.0153348028484124] [-0.62840670347213745:1.790666937828064] [-0.15255689301388789:0.27927562612368567] [-0.22554415464401245:0.37284040451049805] [-0.096872293567502293:0.12957474383264034] [-0.17424221336841583:0.15430828928947449] [-0.16413535377847743:0.40568540242051371] [-0.21406577527523041:0.50374484062194824] [-0.16570459209832222:0.27436112468672463] [-0.18095386028289795:0.41456350684165955] [-0.11954210455290201:0.22586402662341856] [-0.23039054870605469:0.23247823119163513] [-0.15117323728006279:0.30500021640713137] [-0.25649839639663696:0.42454037070274353] [-0.16527965524478083:0.14368396466582367] [-0.22618229687213898:0.21541911363601685] [-0.13486163708827686:0.4189411894283831] [-0.19034212827682495:0.56756830215454102] [-0.15540185521727576:0.26391230135809796] [-0.24221475422382355:0.34829205274581909]
tree_sizes=3351 2842 2858 2503 2770 2806 2532 3087 2567 3202 3159 2801 2756 2987 2858 2722 2945 3249 2844

Tree=0
num_leaves=31
num_cat=0
split_feature=90 15 51 120 18 121 86 120 12 125 146 120 96 150 120 166 12 148 136 95 64 137 150 40 106 150 29 150 166 24
split_gain=0.0210645 0.00700132 0.00608876 0.00465812 0.00441201 0.00948334 0.00378036 0.00373747 0.00356587 0.00138965 0.00228969 0.00136282 0.00184616 0.00116108 0.00107237 0.00100697 0.000902823 0.000802195 0.000717785 0.000564418 0.000505108 0.000503889 0.000479287 0.00043767 0.000420766 0.000332717 9.68226e-05 3.6361e-05 2.09473e-05 8.60074e-06
threshold=-0.0014818153160327098 -0.042093332856893532 -0.073756814002990709 0.002486203247753662 -0.010097436868193419 -0.014891372527927159 0.010147818562078985 0.0023598984113611808 -0.003911227333584134 0.035408103838562972 -0.0026197072875284301 -0.0036521589393477762 0.0057507172146577324 -0.0044256821940420283 0.0076715950596462834 0.0093149515043245718 0.0044399043924932781 -0.0061985513766470209 -0.030084350742838457 -0.0098233693279325945 0.0041279174905774632 -0.044592184945940964 0.00081978171145793727 -0.013026665766990552 0.00076058522720251194 -0.0046957399521663857 0.030724379234015945 -0.0016620340069300925 -0.0098779331996426203 -0.0053338126346397707
decision_type=6 4 4 6 6 6 6 6 6 4 4 6 6 6 6 6 6 6 6 6 6 4 6 6 6 6 6 6 6 6
left_child=1 4 7 16 5 6 -1 19 21 14 -11 12 -10 17 -5 18 24 -6 -9 26 -17 29 -13 -18 -4 -23 -2 -7 -21 -3
right_child=2 8 3 9 13 27 -8 15 11 10 -12 22 -14 -15 -16 20 23 -19 -20 28 -22 25 -24 -25 -26 -27 -28 -29 -30 -31
leaf_value=5.8353064671557655e-05 -3.2015201454878642e-05 -3.8296727497319424e-06 -3.5316918632460828e-06 -9.2992990769506307e-06 -3.8296727497319424e-06 -3.8296727497319424e-06 0.00017984111737781792 -3.8296727497319424e-06 1.5163775529738731e-06 5.5011254383902974e-06 -1.2701265253595736e-05 -1.1658014956813338e-06 2.7448807037232658e-05 -3.8296727497319424e-06 -1.5125977134868595e-05 -9.8584031118478227e-05 -1.4979654588846072e-05 2.0520337260598077e-05 -4.4116536881425529e-05 -1.012868516332478e-08 -3.8296727497319424e-06 1.1641999105937572e-05 -5.7040721362171385e-06 -6.58549128388005e-06 -5.5522821128110236e-06 5.4026495717709542e-06 -3.8296727497319424e-06 3.8518615375800753e-06 -4.3851062520139963e-06 -6.6648227387372298e-06
leaf_weight=2062 871 700 315267 126390 792 1653 515 685 71994 12708 12121 51007 2866 2765 47861 931 8874 6329 2187 1248 99 31777 32240 44961 127510 37097 75 686 1996 961
leaf_count=2062 871 700 315267 126390 792 1653 515 685 71994 12708 12121 51007 2866 2765 47861 931 8874 6329 2187 1248 99 31777 32240 44961 127510 37097 75 686 1996 961
internal_value=-3.82967e-06 3.76278e-06 -6.47489e-06 -6.15043e-06 2.40519e-05 4.85484e-05 8.85716e-05 -3.25093e-05 2.38345e-06 -1.00379e-05 -3.82967e-06 -2.55885e-07 2.71037e-06 1.03455e-05 -1.09859e-05 -5.42449e-05 -4.5618e-06 1.68013e-05 -3.56324e-05 -8.67499e-06 -9.14458e-05 8.08669e-06 -3.10357e-06 -8.24814e-06 -4.07971e-06 8.4995e-06 -2.91211e-05 -1.99601e-06 -3.82967e-06 -3.82967e-06
internal_weight=0 243444 703784 695692 14802 4916 2577 8092 228642 199080 24829 158107 74860 9886 174251 3902 496612 7121 2872 4190 1030 70535 83247 53835 442777 68874 946 2339 3244 1661
internal_count=947228 243444 703784 695692 14802 4916 2577 8092 228642 199080 24829 158107 74860 9886 174251 3902 496612 7121 2872 4190 1030 70535 83247 53835 442777 68874 946 2339 3244 1661
is_linear=0
shrinkage=1


Tree=1
num_leaves=28
num_cat=0
split_feature=90 121 62 12 120 20 56 120 48 125 28 36 25 120 93 120 24 150 93 29 96 85 103 80 77 15 80
split_gain=0.0163784 0.00827339 0.0107523 0.00819774 0.00807667 0.00538426 0.00364966 0.00329862 0.002195 0.00183254 0.00232096 0.00170515 0.00335493 0.00172421 0.00125403 0.00113845 0.00110381 0.00097761 0.000828105 0.000800635 0.000729126 0.000701976 0.000701576 0.000657714 0.000349507 0.000104349 9.28446e-05
threshold=0.00028075050289519393 -0.03584842570126056 -0.035623681965456559 -0.0041781845724213314 -0.0051529032839639239 -0.039445022172214066 -0.0098612992899798444 -0.0053505061751612047 0.0025437897619862639 -0.023759672418236729 0.031892746903245527 0.0034817287849092287 -0.056355332955718034 0.0013514008564527173 -0.0011163644958287475 0.00087022934721441383 -0.00031879498634449036 -0.00062403589213639264 0.0047636134549975404 -0.11072388291358946 -0.0017549122079904389 0.00038857678009662783 0.003626777790486813 -0.01338072087188631 0.011551871895790102 -0.0094129401259124262 -0.017444842015919244
decision_type=6 6 4 4 6 6 6 4 6 4 4 6 6 4 6 6 6 4 6 4 6 6 6 4 6 4 6
left_child=1 2 14 4 25 11 21 20 19 16 -11 12 13 -2 -1 -14 -10 -9 -16 26 -5 -4 -6 -21 -8 -3 -7
right_child=5 3 6 7 22 8 24 17 9 10 -12 -13 15 -15 18 -17 -18 -19 -20 23 -22 -23 -24 -25 -26 -27 -28
leaf_value=0 0 2.49036776773501e-05 7.5760429984447224e-05 2.1000939636716093e-06 5.8409631875999128e-06 0 7.8625706212914038e-06 1.3307432536395799e-06 -6.0715184871452535e-06 -9.3672823474235551e-06 2.301685795553432e-06 0 0 -0.00012606976956439973 0 -3.0684407948993745e-05 -3.8294124941986176e-05 -1.760680039050436e-06 0.00028774634862136075 -6.9019865847947132e-06 9.3353329367093209e-06 0 -5.7734571747106434e-07 -2.0154325545589574e-06 -1.7419716461400262e-05 1.5577104069400826e-05 -2.0421323737073996e-05
leaf_weight=120 417 23469 1017 25370 51092 1283 914 217882 3250 70530 17154 652 1180 651 75 3709 3284 159354 218 31501 47151 398 16162 254413 848 13508 2965
leaf_count=120 417 23469 1017 25370 51092 1283 914 217882 3250 70530 17154 652 1180 651 75 3709 3284 159354 218 31501 47151 398 16162 254413 848 13508 2965
internal_value=0 3.26884e-06 4.89214e-05 2.94574e-06 1.05443e-05 -4.73955e-06 2.46537e-05 1.15138e-06 -4.23277e-06 -8.29744e-06 -6.91337e-06 -3.19347e-05 -3.72685e-05 -9.08255e-05 0.000198437 -2.24698e-05 -2.45684e-05 0 0.000243354 -2.86119e-06 7.01119e-06 6.06767e-05 4.07556e-06 -2.60632e-06 0 2.19033e-05 -1.64765e-05
internal_weight=0 557578 3590 553988 104231 390989 3177 449757 384380 94218 87684 6609 5957 1068 413 4889 6534 377236 293 290162 72521 1415 67254 285914 1762 36977 4248
internal_count=948567 557578 3590 553988 104231 390989 3177 449757 384380 94218 87684 6609 5957 1068 413 4889 6534 377236 293 290162 72521 1415 67254 285914 1762 36977 4248
is_linear=0
shrinkage=0.03


Tree=2
num_leaves=28
num_cat=0
split_feature=120 55 90 68 120 90 154 86 59 4 164 54 90 118 90 32 13 89 90 12 97 46 47 136 25 89 89
split_gain=0.0208198 0.00790629 0.00775662 0.00592585 0.00379697 0.00324159 0.00280522 0.00252434 0.00252083 0.00251273 0.00195383 0.00194435 0.00174175 0.00133983 0.00126928 0.00109383 0.00102641 0.000766422 0.000751705 0.000696999 0.000680574 0.000576949 0.000662101 0.000562786 0.000433719 0.000166907 0.000162089
threshold=-0.0095401300087219129 -0.009357105474919079 0.0024470113814104816 -0.027232592375326364 0.00081313770583202208 -0.0012074564880901061 0.064214312933166914 0.0039439679491225883 0.0049271592870354661 -0.0052408574929116341 -0.012042139614651027 -0.00084136304587468082 -0.00070792775714433899 0.0028064824672520768 0.0030915702485871566 -0.024787637995203098 -0.0015579073806293307 -0.0065317971166223279 0.00029771511741160457 -0.0012546156430374366 0.0022276426898315553 0.0084281615558870638 -0.1741283908486366 0.0017413478849076756 0.0067930831573903569 -0.00018018239643424747 0.0019025039509870114
decision_type=6 4 6 6 6 6 4 4 4 4 4 6 6 6 6 6 6 6 6 6 6 6 6 4 6 6 6
left_child=1 5 4 21 16 7 11 17 -8 -9 13 -5 -12 24 -15 23 18 -1 -2 -17 -18 22 -4 -6 -3 -7 -27
right_child=2 10 3 6 15 25 8 9 -10 -11 12 -13 -14 14 -16 19 20 -19 -20 -21 -22 -23 -24 -25 -26 26 -28
leaf_value=0 3.9511073309705823e-06 2.1937795813895165e-07 -8.3039333459164363e-05 -1.8864873867052323e-06 -2.5294150282750661e-06 0 -6.2711627733145649e-06 0.00010000962704897525 1.4990638167670811e-05 2.299627574533949e-05 2.1728703366712393e-05 -1.1317953725920909e-05 0 4.7542474276150477e-05 0 0 -2.6064789973501734e-07 3.7830462994759382e-05 -7.8385238295761472e-08 -3.5141759210247795e-06 3.171406455621391e-06 0 -2.9943599662981114e-05 -2.2653695171618686e-05 -1.1054057106335617e-05 0 1.4983975379216473e-05
leaf_weight=593 191533 3824 680 34195 4712 437 9179 2079 9770 1192 15939 65109 3396 989 114 75554 237725 5344 44056 160732 64697 266 5479 4111 4077 243 1318
leaf_count=593 191533 3824 680 34195 4712 437 9179 2079 9770 1192 15939 65109 3396 989 114 75554 237725 5344 44056 160732 64697 266 5479 4111 4077 243 1318
internal_value=0 2.13584e-05 -8.77094e-07 -7.83028e-06 2.10763e-07 4.32405e-05 -6.15215e-06 5.09126e-05 3.90021e-06 7.6559e-05 1.2174e-05 -8.22141e-06 1.75543e-05 0 3.15166e-05 -2.86194e-06 1.63852e-06 3.4236e-05 3.13391e-06 -2.39705e-06 4.23987e-07 -3.6371e-05 -3.82655e-05 -1.36089e-05 -3.70115e-06 3.67006e-07 9.81223e-06
internal_weight=0 39545 907798 124678 783120 11206 118253 9208 18949 3271 28339 99304 19335 9004 1103 245109 538011 5937 235589 236286 302422 6425 6159 8823 7901 1998 1561
internal_count=947343 39545 907798 124678 783120 11206 118253 9208 18949 3271 28339 99304 19335 9004 1103 245109 538011 5937 235589 236286 302422 6425 6159 8823 7901 1998 1561
is_linear=0
shrinkage=0.03


Tree=3
num_leaves=24
num_cat=0
split_feature=90 120 84 90 10 150 118 13 48 80 73 24 24 47 120 120 28 3 166 80 61 74 71
split_gain=0.010675 0.0161281 0.00998097 0.00713979 0.0057724 0.00291925 0.00258095 0.00255374 0.00182449 0.00153599 0.00129264 0.00146188 0.00123361 0.00118321 0.000976263 0.000943447 0.000899225 0.00111895 0.00089118 0.000746256 0.000426337 0.000372406 4.24705e-05
threshold=0.0024743599772661736 -0.014823291347913568 -0.0036309132172885352 -0.00068266056039777004 -0.04329465849229875 -0.0087143513362571718 0.016021433774202589 -0.0068999200593680135 0.0018790117485451925 0.014572885106453997 -0.036326183006167405 0.0023646719784169616 0.0053484933357610728 0.048117607831954963 -0.001091558788329257 0.00267887680577442 0.016329974606364529 -0.034989360719919198 -0.0098779331996426203 -0.012031173597205805 -0.013971349224448202 0.019655819286244824 0.037226291373372085
decision_type=6 6 6 4 6 6 6 4 6 6 6 6 6 6 4 4 6 6 4 6 6 6 6
left_child=1 2 6 5 16 19 9 -7 12 -1 21 13 -4 -12 20 -16 17 -2 -13 -3 -5 -6 -19
right_child=4 3 8 14 10 7 -8 -9 -10 -11 11 18 -14 -15 15 -17 -18 22 -20 -21 -22 -23 -24
leaf_value=5.7059698846048607e-05 -5.9534302240046592e-05 1.809007858000197e-05 9.8168979184629792e-06 2.4516360128985162e-06 -3.5021097247261617e-05 7.8974265248479901e-06 0.00012450420434032347 8.32245182927958e-07 2.6291644376411963e-05 0 -5.5086176584143198e-06 -5.1713033115362934e-07 -2.6538990102506586e-05 4.5347283566113874e-06 -1.5426707530744539e-06 -5.3265695021254088e-06 0 -6.9913322630554825e-06 -1.5563209373749163e-05 7.5741912910042209e-06 -9.3636145292900178e-07 0 0
leaf_weight=2992 2721 9742 2120 50012 2047 60170 1102 224593 4087 246 79593 6781 1284 10519 208832 94496 179 934 21676 67553 96965 151 83
leaf_count=2992 2721 9742 2120 50012 2047 60170 1102 224593 4087 246 79593 6781 1284 10519 208832 94496 179 934 21676 67553 96965 151 83
internal_value=0 1.22868e-06 3.6026e-05 7.03346e-07 -8.18991e-06 3.85314e-06 7.30277e-05 2.37783e-06 1.25729e-05 5.08128e-05 -6.8797e-06 -6.29695e-06 0 -4.1697e-06 -1.79587e-06 -2.77095e-06 -4.47339e-05 -4.80966e-05 -1.25053e-05 9.09407e-06 1.14438e-07 -3.14634e-05 -2.71785e-06
internal_weight=0 824194 11831 812363 124684 362058 4340 284763 7491 3238 120767 118569 3404 90112 450305 303328 3917 3738 28457 77295 146977 2198 1017
internal_count=948878 824194 11831 812363 124684 362058 4340 284763 7491 3238 120767 118569 3404 90112 450305 303328 3917 3738 28457 77295 146977 2198 1017
is_linear=0
shrinkage=0.03


Tree=4
num_leaves=28
num_cat=0
split_feature=90 78 120 120 73 12 92 47 85 91 96 31 12 115 25 56 46 136 27 48 151 29 95 92 107 36 121
split_gain=0.0196249 0.00773234 0.00571888 0.00524216 0.00415462 0.00300504 0.0061518 0.00264967 0.00151068 0.00133457 0.00127676 0.00103593 0.000934225 0.000908962 0.00205026 0.000860129 0.000699074 0.000691784 0.000426024 0.00039213 0.000338493 0.000258351 0.000149219 0.00010762 0.000104769 8.81346e-05 9.66081e-06
threshold=-0.0053763068253992342 -0.013580224313760573 -0.0065094914872048694 -2.8174709941466144e-05 -0.032144119963049882 -0.039243058285850348 -0.0052830384037659342 0.20891404896974566 -0.00077892487752251316 0.0012555122375488283 -0.0023682845745200917 0.034620959311723716 -0.0034379772556059319 -0.097094263881444917 -0.032666707411408417 0.0011199085898035285 0.047176266142873395 0.0019733901107372009 -0.052577292546629899 0.0053902228795450402 -0.014158056583255528 0.011096492409706117 0.013199950568377973 -0.0013417248504655724 0.00031418733124155557 0.00054231092833208845 -0.012958360835909842
decision_type=6 6 4 4 4 6 4 6 4 6 6 6 6 6 6 6 6 6 4 6 6 6 6 4 4 6 6
left_child=1 5 9 13 16 6 26 -6 25 11 22 12 -2 14 -4 19 -5 -15 20 -7 -11 -13 -10 -8 -20 -3 -1
right_child=2 8 3 4 7 15 23 -9 10 18 -12 21 -14 17 -16 -17 -18 -19 24 -21 -22 -23 -24 -25 -26 -27 -28
leaf_value=6.9308857996600748e-06 1.4033688357897541e-05 2.8726853044999028e-05 -0.00010671919559172331 -3.1378843114572308e-05 -3.5595570085474947e-06 4.6898128278729609e-05 0 2.8965573089588502e-05 3.7905706926989133e-06 -3.5218345092175871e-05 1.7680677290586469e-05 7.0936318560248208e-05 5.1539007033806299e-06 1.7568218665301939e-06 0 0 0 -9.489372724028039e-07 -4.9284661289360445e-06 0 0 0 -4.8827066470899201e-06 0.00018220050188609059 2.8486851872001811e-06 2.8060035602515138e-06 0
leaf_weight=179 20224 9924 226 5706 412304 2264 106 2168 5399 629 9308 388 42965 316766 220 190 199 108361 2874 60 168 295 2376 606 3009 1471 136
leaf_count=179 20224 9924 226 5706 412304 2264 106 2168 5399 629 9308 388 42965 316766 220 190 199 108361 2874 60 168 295 2376 606 3009 1471 136
internal_value=0 2.32227e-05 -6.67287e-07 -1.36668e-06 -3.75013e-06 6.65734e-05 0.000118913 -3.3531e-06 1.73014e-05 7.50598e-06 1.01533e-05 8.91939e-06 8.23366e-06 9.52422e-07 -4.09555e-05 3.91528e-05 -2.9068e-05 1.03186e-06 -3.76232e-06 4.46203e-05 -2.44593e-05 5.02541e-05 0 0.000167729 0 2.66979e-05 0
internal_weight=0 32019 916502 845950 420377 3541 1027 414472 28478 70552 17083 63872 63189 425573 446 2514 5905 425127 6680 2324 797 683 7775 712 5883 11395 315
internal_count=948521 32019 916502 845950 420377 3541 1027 414472 28478 70552 17083 63872 63189 425573 446 2514 5905 425127 6680 2324 797 683 7775 712 5883 11395 315
is_linear=0
shrinkage=0.03


Tree=5
num_leaves=28
num_cat=0
split_feature=90 120 20 18 152 150 14 37 4 86 24 144 120 94 167 15 120 31 60 157 121 48 151 121 121 26 62
split_gain=0.0164743 0.00709023 0.00614916 0.00578091 0.00325743 0.00184024 0.00149114 0.00141168 0.00129955 0.00122546 0.00113831 0.00109694 0.00132706 0.00123384 0.00186058 0.00093042 0.00087036 0.000660667 0.000627326 0.000535393 0.000712288 0.000271758 0.00023401 7.4035e-05 0.0007493 3.06486e-05 8.13357e-06
threshold=-0.0038733329065090247 -0.00060159989709488338 -0.041713192490106007 -0.0082453504828923722 0.0018054067205522065 -0.004489758905112497 -0.016139689401672944 0.0015035882825031879 0.0011814571906876294 0.00054200078143859434 -0.0071618349453191977 -0.085859497685856698 -0.0042304250849025732 -2.2286033472405775e-05 0.027091194875538353 -0.019822353497147557 -0.0062688281368509851 0.0073048046324402103 0.00010454539071535534 -0.0064081449527293435 -0.0092220623046159727 0.0038778751096176689 0.00071958749322220694 0.016631001606583599 -0.010779194533824919 -0.0048480821329960682 0.01007467482765566
decision_type=6 6 6 6 4 4 6 4 6 4 6 6 6 6 6 6 6 6 6 6 6 6 6 6 6 4 6
left_child=3 11 5 4 9 -3 23 15 21 25 -9 13 16 14 -2 -4 -13 -7 -14 22 -21 -6 -8 24 -5 -1 -10
right_child=1 2 7 6 8 17 19 10 26 -11 -12 12 18 -15 -16 -17 -18 -19 -20 20 -22 -23 -24 -25 -26 -27 -28
leaf_value=4.5747639575806168e-06 -8.948700901531419e-05 0 -7.3111489814288425e-06 3.1667285152102106e-05 7.8256180834568529e-05 -4.4592379756841841e-05 5.2463721116069182e-06 3.031526887169151e-07 5.4182619207302485e-06 3.1241651110161109e-05 -6.1927730275317934e-06 7.0680763567754582e-06 1.7367878850709331e-06 0 0 -1.1667044318124717e-06 1.801638938667783e-06 0 -1.1655252695332417e-06 1.9458494246473933e-05 6.4315766300121199e-06 0 0 0 6.6811191595601209e-06 0 0
leaf_weight=1316 447 803 26013 5143 2363 4619 14805 23435 546 3819 162765 61097 175857 628 273 252440 71211 281 102463 8081 18841 58 5811 116 3674 1084 191
leaf_count=1316 447 803 26013 5143 2363 4619 14805 23435 546 3819 162765 61097 175857 628 273 252440 71211 281 102463 8081 18841 58 5811 116 3674 1084 191
internal_value=0 -1.11803e-06 -3.6452e-06 1.44368e-05 3.69032e-05 -3.48729e-05 1.04394e-05 -3.22949e-06 6.43318e-05 2.05476e-05 -5.29465e-06 1.73086e-06 1.85363e-06 -2.45037e-05 -5.15821e-05 -1.79463e-06 4.34701e-06 -4.18712e-05 6.14411e-07 7.82912e-06 1.09001e-05 7.66583e-05 3.09065e-06 2.26468e-05 2.29604e-05 0 3.44446e-06
internal_weight=0 882332 470356 65848 9377 5703 56471 464653 3158 6219 186200 411976 410628 1348 720 278453 132308 4900 278320 47538 26922 2421 20616 8933 8817 2400 737
internal_count=948180 882332 470356 65848 9377 5703 56471 464653 3158 6219 186200 411976 410628 1348 720 278453 132308 4900 278320 47538 26922 2421 20616 8933 8817 2400 737
is_linear=0
shrinkage=0.03


Tree=6
num_leaves=24
num_cat=0
split_feature=90 150 37 30 91 12 4 17 43 40 148 154 14 53 150 60 63 120 136 136 85 14 159
split_gain=0.00951318 0.01001 0.00776787 0.00436962 0.00392609 0.00379515 0.00351592 0.00342706 0.00255463 0.00245104 0.00198363 0.00149298 0.00136024 0.00104783 0.000879884 0.000764158 0.000566894 0.000439025 0.000431872 0.000370814 0.00032166 0.00023014 0.000126937
threshold=0.0023972319758332234 -0.017155700669121081 -0.010453431401401756 -0.01401765088817295 -0.00041015836177393789 -0.0038341022571057003 -0.025468722790442027 -0.015054444316774605 -0.0076977186836302272 0.0024348310057206797 -0.0039785241656104904 0.038650173854336299 -0.0042382658402482188 0.057879664003849036 0.004477196582042574 -0.0019780483560004687 -0.056404523551464074 0.0042432415045548493 -0.011427452000491433 -0.012712183515789252 0.001325193443335593 0.0020900121161522285 0.040365574881434448
decision_type=6 6 4 6 6 6 4 4 6 6 6 4 6 4 6 6 4 6 4 6 6 6 6
left_child=1 2 6 22 5 19 8 15 -1 10 -9 -11 13 -4 -7 -5 18 -18 -6 -3 -8 -14 -2
right_child=3 4 12 7 16 14 20 9 -10 11 -12 -13 21 -15 -16 -17 17 -19 -20 -21 -22 -23 -24
leaf_value=8.6478596207121915e-05 -2.6430512424525595e-05 1.0699282220303353e-05 2.0535245829560144e-05 -9.5757441367514221e-06 0 1.6217249748966534e-06 2.2621645400995663e-05 1.4249370519050444e-05 0 -9.2918599440486022e-06 -1.1244405029512859e-06 2.4199609050349961e-06 -1.7973285227687295e-06 0 -2.8338302361502804e-06 -2.2122166825334315e-05 -1.0260504373008109e-06 -4.2805427269645496e-06 -1.8953380743236113e-05 5.6493385442617267e-06 0 5.5752296531454452e-06 -7.2176445081371954e-05
leaf_weight=2531 5228 38862 10527 17839 3409 294317 2957 9942 426 48139 25835 9926 5165 1672 44094 12101 304020 48100 3234 52635 148 6529 573
leaf_count=2531 5228 38862 10527 17839 3409 294317 2957 9942 426 48139 25835 9926 5165 1672 44094 12101 304020 48100 3234 52635 148 6529 573
internal_value=0 1.23166e-06 1.82693e-05 -7.51606e-06 5.65474e-07 2.51337e-06 4.9243e-05 -6.17395e-06 7.49992e-05 -3.15045e-06 2.72907e-06 -7.03143e-06 9.77964e-06 1.69297e-05 9.96841e-07 -1.51488e-05 -1.7269e-06 -1.51324e-06 -1.0791e-05 7.95835e-06 1.98542e-05 1.03668e-06 -3.35573e-05
internal_weight=0 818626 29955 129583 788671 429908 6062 123782 2957 93842 35777 58065 23893 12199 338411 29940 358763 352120 6643 91497 3105 11694 5801
internal_count=948209 818626 29955 129583 788671 429908 6062 123782 2957 93842 35777 58065 23893 12199 338411 29940 358763 352120 6643 91497 3105 11694 5801
is_linear=0
shrinkage=0.03


Tree=7
num_leaves=30
num_cat=0
split_feature=90 18 120 27 120 91 16 93 66 120 12 150 26 120 136 24 31 36 134 67 86 54 96 13 121 62 18 102 148
split_gain=0.0143819 0.00664843 0.00470658 0.00430144 0.00181705 0.00174287 0.00223115 0.00587342 0.00160307 0.00223292 0.00170389 0.00156003 0.00134726 0.000841272 0.00079987 0.000754926 0.00186113 0.00114843 0.00071539 0.000640478 0.000634649 0.000619245 0.000521451 0.000502219 0.000325697 0.000303238 0.000257083 2.86992e-05 5.49416e-05
threshold=-0.00085902932262127689 -0.0078162220737617184 -0.010902325775433592 -0.030519275926053521 0.0029725074510631657 -0.0011878720251843331 -0.052988683403629493 -0.0027520424919202919 -0.019690540664660996 0.0081913625996904663 0.0040791879767817186 -0.0043928817783925296 0.0064109458310612818 0.010933705949208705 0.0038435269819198916 -0.0071618349453191977 0.003078426001593471 0.0010732188008242061 -0.0088884949578562425 -0.00047707014891784633 0.0033225458861833776 -0.0033508664036650082 0.0008145859333802039 0.0052532018162310132 0.0043713536579161891 -0.0029698006269159439 -0.0028788472360063793 -0.0057615886767521966 -0.004818091820194886
decision_type=6 6 6 4 4 6 6 4 6 6 6 6 6 6 6 6 6 6 6 4 4 6 4 6 6 4 6 6 6
left_child=1 5 12 8 23 6 7 -1 9 14 24 22 -3 -11 -2 16 -6 -17 -14 -13 -8 -12 -4 25 -10 -5 -25 -7 -29
right_child=3 2 11 4 15 27 20 -9 10 13 21 19 18 -15 -16 17 -18 -19 -20 -21 -22 -23 -24 26 -26 -27 -28 28 -30
leaf_value=0 0 2.6615416244389737e-05 3.9265959331817608e-06 1.0703397939786036e-06 -5.5292410102117759e-06 0 1.0855792002926867e-05 7.9568237071776619e-05 -2.0899232531359395e-06 0 0 3.1124197805392591e-06 0 -0.00011801844048243985 -3.7352316310962853e-05 -2.9106853763310381e-06 1.104135024524897e-05 -9.1684301337623492e-06 1.5487605072580292e-05 -5.7367637524864871e-07 2.8423342728547879e-05 -2.4619381962033792e-05 9.0613461439990721e-06 1.6467897113642821e-06 -1.0413660304515392e-05 -9.5559975069534094e-07 -3.6889942281464422e-06 0 5.2405390753217866e-06
leaf_weight=1850 1012 10153 96707 84551 19771 683 11049 2205 16503 231 304 67071 3927 442 611 68139 8779 56343 4375 102690 5105 8238 31519 5024 11336 253080 73149 787 2739
leaf_count=1850 1012 10153 96707 84551 19771 683 11049 2205 16503 231 304 67071 3927 442 611 68139 8779 56343 4375 102690 5105 8238 31519 5024 11336 253080 73149 787 2739
internal_value=0 4.97828e-06 3.75597e-06 -2.72068e-06 -2.03086e-06 2.02028e-05 2.38906e-05 4.62726e-05 -1.24777e-05 -3.93196e-05 -1.03694e-05 2.78603e-06 1.86025e-05 -8.96664e-05 -9.12721e-06 -4.85061e-06 0 -5.86366e-06 6.99265e-06 7.94327e-07 1.73388e-05 -2.27886e-05 5.30586e-06 -9.56988e-07 -6.01862e-06 -4.03825e-07 -3.15417e-06 0 2.70578e-06
internal_weight=0 340860 316442 607513 568836 24418 20209 4055 38677 2296 36381 297987 18455 673 1623 153032 28550 124482 8302 169761 16154 8542 128226 415804 27839 337631 78173 4209 3526
internal_count=948373 340860 316442 607513 568836 24418 20209 4055 38677 2296 36381 297987 18455 673 1623 153032 28550 124482 8302 169761 16154 8542 128226 415804 27839 337631 78173 4209 3526
is_linear=0
shrinkage=0.03


Tree=8
num_leaves=25
num_cat=0
split_feature=120 90 14 114 85 39 120 120 34 71 20 90 161 90 121 91 12 49 29 62 131 29 12 151
split_gain=0.0111493 0.0110723 0.00791065 0.005332 0.00227502 0.00193714 0.00176797 0.00176376 0.00150736 0.00124649 0.00120942 0.00114054 0.00406465 0.000968135 0.000785353 0.000994499 0.000718902 0.000713685 0.000663007 0.00106561 0.00051744 0.000262806 0.000540504 2.83369e-05
threshold=-0.00058646528058559457 -0.0045795654561980523 -0.043280111135907684 -0.033191320781824303 0.001325193443335593 -0.075501948595046983 -0.006698705273590881 -0.0071839967014887453 -0.03108427222708637 0.031764257699251182 -0.0050308312807814679 0.0020841706096697385 0.15403109788894656 0.00018936890928155517 0.0018267546547576787 0.00091271987184882175 -0.0050973911512936865 -0.0008007810974959283 -0.039854466915130608 -0.0025161608931690334 -0.035146843641996377 0.023028728552162651 0.0027616902547729985 -0.035667942836880677
decision_type=6 6 6 6 6 4 6 6 6 6 6 6 6 6 6 6 6 4 6 4 6 6 4 6
left_child=1 2 9 14 6 18 -4 16 21 10 -1 17 -13 -9 23 -16 -7 -10 19 -3 -6 22 -5 -2
right_child=3 5 4 8 20 7 -8 13 11 -11 -12 12 -14 -15 15 -17 -18 -19 -20 -21 -22 -23 -24 -25
leaf_value=7.4517829762575739e-05 0 -4.4641005012987341e-05 2.9491327588662698e-05 -6.8350257039870995e-06 -1.1168955996406296e-05 1.571531454102526e-05 5.7381397294140312e-06 2.0649588077820976e-06 0 0 0 -5.7467687521127984e-06 4.7824706753537884e-05 -1.3634545722007859e-06 -3.9799782490392847e-06 -4.6058208217364755e-05 4.9934044623476103e-06 -2.7984393202119523e-06 0 0 7.0812921921346756e-06 0 -1.9616825002059899e-05 -4.6556240910584683e-06
leaf_weight=2838 122 1515 11276 18897 931 9237 6121 283624 151333 269 89 117020 1232 94891 1569 3628 39817 176581 293 553 16922 1377 6606 1748
leaf_count=2838 122 1515 11276 18897 931 9237 6121 283624 151333 269 89 117020 1232 94891 1569 3628 39817 176581 293 553 16922 1377 6606 1748
internal_value=0 3.14242e-06 1.8607e-05 -3.36188e-06 1.39612e-05 1.72454e-06 2.19977e-05 1.90686e-06 -2.94012e-06 6.51163e-05 7.07994e-05 -2.47949e-06 -5.06099e-06 1.16585e-06 -2.9462e-05 -3.62462e-05 7.3187e-06 -1.50278e-06 -2.49193e-05 -3.15774e-05 5.28833e-06 -1.00272e-05 -1.07353e-05 -2.57658e-06
internal_weight=0 468376 38446 480113 35250 429930 17397 427569 473046 3196 2927 446166 118252 378515 7067 5197 49054 327914 2361 2068 17853 26880 25503 1870
internal_count=948489 468376 38446 480113 35250 429930 17397 427569 473046 3196 2927 446166 118252 378515 7067 5197 49054 327914 2361 2068 17853 26880 25503 1870
is_linear=0
shrinkage=0.03


Tree=9
num_leaves=31
num_cat=0
split_feature=90 120 76 24 13 104 121 49 154 39 120 120 24 3 126 148 121 29 147 159 12 148 172 62 84 5 39 52 49 46
split_gain=0.011832 0.0138444 0.0051371 0.00507245 0.00311047 0.0017226 0.00163721 0.00124864 0.00169973 0.00120079 0.00176025 0.00119408 0.00103269 0.00103027 0.000990929 0.000750411 0.00064245 0.000518984 0.00051174 0.000913707 0.000480379 0.00046727 0.000392983 0.000331155 0.00028161 0.000272796 0.000256035 0.00024335 0.000233567 8.12803e-05
threshold=-0.00049643980454282786 -0.0087213315295716042 -0.040506682856077871 -0.0039228521748714473 -0.017638051882386204 0.00066735368969240126 0.0024829132016748194 0.0010202090488746764 -0.016931436357631887 -0.01201713504269719 0.0089812847975891501 -0.0050004751500574316 -0.0079461906449461699 0.0070532974787056455 -0.007361468049918672 -0.0061477326083475446 -0.0053310482762753955 0.023572150617837909 -0.01969875022768974 0.0047200387343764314 0.0044863762792002847 0.0036011073385419632 -0.0072862208579013632 -0.0015160640442727074 0.0039913025674647822 0.019900367595255378 0.031190841458737854 0.061970017962231137 0.0028581861406564717 -0.011442844351874244
decision_type=6 4 4 6 4 6 6 6 4 4 6 6 6 6 6 6 6 6 4 6 6 6 6 4 6 6 4 6 6 6
left_child=1 3 6 4 13 14 17 18 22 10 -8 28 -10 -1 26 25 -16 20 19 -4 -2 -17 -9 -20 -13 -5 -3 -6 -7 -19
right_child=2 5 7 15 27 11 9 8 12 -11 -12 24 -14 -15 16 21 -18 29 23 -21 -22 -23 -24 -25 -26 -27 -28 -29 -30 -31
leaf_value=5.8691104527890816e-05 -4.4146033955844305e-06 -6.5294885062149604e-06 6.2954251860551185e-06 9.304985199637721e-06 2.0596465091838086e-05 1.6642916553853634e-05 -1.862044044746125e-05 -2.2150964543230667e-06 2.1831432299021103e-06 0 -5.5226537053082212e-05 4.3781473261816958e-06 -3.9504804085579683e-06 2.6271677687455427e-06 3.5384421003154521e-06 8.3198059775827793e-06 1.3651236221457622e-07 1.5885687424847674e-05 0 -3.3543902763766001e-06 -2.2636656586734867e-05 2.4079437899076755e-05 -1.6790134673228481e-05 -2.1517603467929184e-06 0 0 0 0 5.3097615693007554e-06 0
leaf_weight=5426 9691 19889 22157 6547 6769 10579 6971 4949 25417 1962 2486 65232 175514 923 77601 7369 168879 498 91365 12504 2704 7520 11889 172649 13949 6190 2057 485 7818 230
leaf_count=5426 9691 19889 22157 6547 6769 10579 6971 4949 25417 1962 2486 65232 175514 923 77601 7369 168879 498 91365 12504 2704 7520 11889 172649 13949 6190 2057 485 7818 230
internal_value=0 3.88232e-06 -2.88758e-06 2.04023e-05 3.59985e-05 1.98032e-06 -1.63942e-05 -2.21662e-06 -3.96516e-06 -2.53529e-05 -2.98387e-05 5.41698e-06 -3.09993e-06 5.29059e-05 6.7512e-07 1.21778e-05 1.26844e-06 -7.45325e-06 -8.91491e-07 2.38151e-06 -9.60277e-06 1.7289e-05 -1.33978e-05 -1.37802e-06 3.54833e-06 5.0238e-06 -5.30467e-06 1.91226e-05 1.26431e-05 8.52275e-06
internal_weight=0 407233 540986 41229 13603 366004 24542 516444 217769 11419 9457 97578 200931 6349 268426 27626 246480 13123 298675 34661 12395 14889 16838 264014 79181 12737 21946 7254 18397 728
internal_count=948219 407233 540986 41229 13603 366004 24542 516444 217769 11419 9457 97578 200931 6349 268426 27626 246480 13123 298675 34661 12395 14889 16838 264014 79181 12737 21946 7254 18397 728
is_linear=0
shrinkage=0.03


Tree=10
num_leaves=31
num_cat=0
split_feature=120 120 90 88 145 7 120 85 2 124 58 66 124 6 84 38 117 149 68 69 89 12 9 90 17 104 69 107 89 90
split_gain=0.00753403 0.0142261 0.00657848 0.00625514 0.00513185 0.00277941 0.00234366 0.00227451 0.00217408 0.00215012 0.0037036 0.00190691 0.00181531 0.00138066 0.00132196 0.000924726 0.000751032 0.00056473 0.000683766 0.000608679 0.000543302 0.00053265 0.000761629 0.000476142 0.000455007 0.000452752 0.000390827 0.000304709 0.000112238 9.35463e-05
threshold=0.0030652558591275233 -0.02087850123639122 -0.001411244079709091 -0.0001621363757514029 -0.030624322593212124 0.0049899681471288213 -0.0045465038186223621 -0.0046548135578632346 -0.027541967411142395 0.056477486212554683 0.016940133186401782 -0.0017265669790674379 -0.010981192077476195 -0.0010225835910251835 -0.0057184329767334934 0.0073015412144381373 0.013527677860111 0.0022244735155254607 0.00089983397123805586 0.00093571265460923325 0.010109635069966318 0.0023341503300870329 -0.011035401839762924 -0.0012174480034716701 0.0064696741756051787 6.7521294589202729e-05 -0.034829933196306222 -0.0020564672304317351 -0.00062765099573880423 -0.00080494543854861685
decision_type=6 6 6 6 6 6 4 6 6 4 6 6 6 6 6 6 6 6 6 6 6 6 4 6 6 6 4 6 6 6
left_child=1 3 6 17 8 9 7 -3 12 13 -11 14 26 -6 -5 28 23 18 -1 -19 -17 27 -23 -10 -18 -8 -2 -4 -7 -13
right_child=4 2 21 11 5 15 25 -9 16 10 -12 29 -14 -15 -16 20 24 19 -20 -21 -22 22 -24 -25 -26 -27 -28 -29 -30 -31
leaf_value=-2.5504036755415133e-05 -8.9046151942170042e-05 1.7861725415498704e-05 5.3483227970319546e-07 0.00012500489519506861 1.3202538411806573e-06 -7.3573126771267847e-06 8.5754272728061167e-07 6.1074070642105796e-06 1.3091409349914704e-07 0 3.3156316178942829e-05 2.4325887627086092e-05 -2.1807366832262442e-05 -5.24384602548685e-06 0 -1.6988626115402435e-05 -3.0320758259445315e-05 4.3294416430906755e-05 1.8552108823322984e-05 0 0 -8.8688358624133186e-06 -1.5052489662496915e-06 -1.0056178985887238e-05 0 4.9271363206158432e-06 0 -1.1084498418914301e-06 0 0
leaf_weight=661 866 21110 194045 1373 43843 4374 83721 79765 1769 12510 4217 643 4878 70213 340 18023 3150 650 533 360 3347 16036 111421 17445 199 43900 307 199823 9376 131
leaf_count=661 866 21110 194045 1373 43843 4374 83721 79765 1769 12510 4217 643 4878 70213 340 18023 3150 650 533 360 3347 16036 111421 17445 199 43900 307 199823 9376 131
internal_value=0 1.33278e-06 9.86503e-07 5.3463e-05 -5.28854e-06 -3.15343e-06 5.24019e-06 8.71622e-06 -1.71426e-05 -1.01359e-06 8.83182e-06 8.70884e-05 -3.45316e-05 -2.58912e-06 0.000108787 -1.06944e-05 -1.18118e-05 8.67582e-06 0 2.58129e-05 -1.48504e-05 -8.49124e-07 -2.54951e-06 -8.33776e-06 -2.72497e-05 2.37502e-06 -7.45529e-05 -2.6078e-07 -3.14312e-06 1.95795e-05
internal_weight=0 754512 749821 4691 194517 165903 228496 100875 28614 130783 16727 2487 6051 114056 1713 35120 22563 2204 1194 1010 21370 521325 127457 19214 3349 127621 1173 393868 13750 774
internal_count=949029 754512 749821 4691 194517 165903 228496 100875 28614 130783 16727 2487 6051 114056 1713 35120 22563 2204 1194 1010 21370 521325 127457 19214 3349 127621 1173 393868 13750 774
is_linear=0
shrinkage=0.03


Tree=11
num_leaves=28
num_cat=0
split_feature=120 32 18 91 90 90 87 154 120 24 150 34 13 48 91 125 45 150 155 90 63 90 68 73 61 92 62
split_gain=0.0158962 0.00704476 0.00547399 0.00503114 0.00383902 0.00341501 0.00339738 0.00255314 0.00243945 0.00168658 0.00157825 0.00124316 0.00123071 0.00120763 0.00107589 0.000948659 0.000725889 0.000673005 0.000663125 0.000656185 0.000390471 0.000265272 0.000166814 0.000143684 0.000106912 1.97721e-05 1.15321e-06
threshold=-0.0074182019318187855 -0.030871401256393625 -0.016631318800886561 -0.0083971410058438761 -0.0017481890193050376 -0.0057509561058548255 0.0080690165050327795 -0.0063538128603557826 0.0010524426791422988 -0.0019459976134914086 -0.0057949309518083728 0.065258009616786919 -0.0067094434052705756 -0.00077957976140008206 0.0010891191195696594 -0.010145918466150759 -0.0014725733781233428 -0.0015046546730634084 0.013196832500398161 0.003619451136146147 -0.0020783967338502403 -0.0033943443941782557 0.0086883889277799154 -0.010839615948498247 0.0063979560509324082 -0.0032614620611958328 -0.013847127719104362
decision_type=4 6 6 6 6 6 6 6 4 6 6 6 4 6 6 6 6 6 6 6 6 6 6 6 4 6 6
left_child=2 7 3 6 12 9 21 15 19 -4 23 14 22 -10 -7 18 -12 -14 -2 -6 -8 -1 -3 -9 -17 -5 -27
right_child=1 4 5 25 8 11 20 10 13 -11 16 -13 17 -15 -16 24 -18 -19 -20 -21 -22 -23 -24 -25 -26 26 -28
leaf_value=2.999913008919294e-05 -4.9356667448308875e-05 8.9595297920720664e-06 3.8426818412024187e-05 0 2.4554074292677607e-08 8.1060894388619359e-06 0.00013336613368660584 9.3159865389089751e-06 -1.5064607530358889e-06 1.319706945139579e-05 -1.9342518799056058e-05 4.0007897869695773e-05 3.6955769477473593e-06 -5.5687443901888875e-06 -5.0960332127684874e-06 -1.0348168022930389e-05 0 -7.4524293669505542e-07 0 -8.6329461779245823e-06 0 0 0 0 0 7.6835500065750123e-06 0
leaf_weight=927 3794 35529 6172 857 403647 46048 928 2097 135652 8297 9198 1227 69790 156198 4867 1476 423 46452 90 7982 84 118 5510 1215 167 317 57
leaf_count=927 3794 35529 6172 857 403647 46048 928 2097 135652 8297 9198 1227 69790 156198 4867 1476 423 46452 90 7982 84 118 5510 1215 167 317 57
internal_value=0 -1.08156e-06 1.37824e-05 5.28854e-05 -6.70218e-07 1.16255e-05 8.16587e-05 -1.94471e-05 -1.63218e-06 2.49996e-05 -1.04818e-05 7.62585e-06 3.53701e-06 -3.73201e-06 6.54934e-06 -3.77012e-05 -1.70234e-05 1.79194e-06 -4.71814e-05 -1.06926e-07 0.000126359 2.3885e-05 8.11406e-06 3.99348e-06 -6.14169e-06 0 6.87945e-06
internal_weight=0 879220 69899 3288 860760 66611 2057 18460 703479 14469 12933 52142 157281 291850 50915 5527 9621 116242 3884 411629 1012 1045 41039 3312 1643 1231 374
internal_count=949119 879220 69899 3288 860760 66611 2057 18460 703479 14469 12933 52142 157281 291850 50915 5527 9621 116242 3884 411629 1012 1045 41039 3312 1643 1231 374
is_linear=0
shrinkage=0.03


Tree=12
num_leaves=26
num_cat=0
split_feature=90 120 88 12 50 152 124 48 154 24 16 33 91 91 120 80 96 36 150 61 24 137 12 97 49
split_gain=0.00808018 0.012563 0.00561759 0.00528113 0.00400478 0.00220332 0.00250292 0.00168665 0.00239475 0.00180721 0.00174812 0.00192909 0.00156666 0.00118348 0.00114798 0.00108622 0.000773718 0.000667832 0.000653097 0.000567492 0.000426748 0.000374535 0.000374141 0.000251004 0.000111756
threshold=0.0013603639650180963 -0.0062688281368509851 0.0081045184457196693 -0.0094329315809413995 -0.038084389257607099 -0.0056533691236735897 -0.0013289630344860118 0.0021263649915663051 -0.011680438401677403 -0.0024234377404110312 0.070832720857966033 0.014311118051409723 -0.011767514515668152 0.00083387966151349257 0.00073832084153277596 -0.0049174309042383626 0.0014610460300524574 -0.00014169507592867289 0.010893130281074257 0.0010146118002012374 6.6462290831327691e-05 0.017568344250321392 -0.0026329703515896264 0.00076191240805201243 -0.013216305524110792
decision_type=6 6 4 6 6 4 6 6 4 6 4 4 6 4 4 6 6 4 6 6 6 6 6 6 4
left_child=1 2 3 12 13 6 -4 10 20 -10 21 -12 -1 -2 19 -7 -5 18 -16 22 -9 -6 -3 -21 -19
right_child=4 14 5 16 7 15 -8 8 9 -11 11 -13 -14 -15 17 -17 -18 24 -20 23 -22 -23 -24 -25 -26
leaf_value=4.5026083492049482e-05 0 3.4299073344636803e-06 -4.524069305572523e-05 5.4999898018626849e-06 -2.181844103639905e-06 9.4648842669492472e-05 5.6243600791534865e-05 -8.3678263082814266e-06 3.9374081942787353e-06 -8.4094777690956146e-06 -2.0500901860354229e-05 3.6454647396612434e-05 1.6858876654476412e-05 -3.2534194480960935e-05 -1.172185653652563e-06 0 1.4072808972478519e-05 0 5.4643747998888547e-06 -1.3230301186434074e-06 -2.6209930800263782e-05 -8.4436014890570974e-06 9.0920708634813974e-07 1.2142742089003931e-06 -3.7811221468087015e-06
leaf_weight=4859 1099 87789 315 61053 137602 1248 505 5081 12908 38307 351 2102 7039 6084 76192 272 15679 4516 16177 108101 7734 11573 200302 46940 94729
leaf_count=4859 1099 87789 315 61053 137602 1248 505 5081 12908 38307 351 2102 7039 6084 76192 272 15679 4516 16177 108101 7734 11573 200302 46940 94729
internal_value=0 1.58671e-06 1.20141e-05 1.0595e-05 -4.94371e-06 5.93064e-05 0 -4.12743e-06 -8.30242e-06 -5.00472e-06 -2.26539e-06 2.21848e-05 2.96282e-05 -2.73556e-05 6.86142e-08 8.19458e-05 7.44751e-06 -1.84565e-06 0 9.30215e-07 -2.03085e-05 -2.76829e-06 1.72942e-06 -4.58086e-07 -3.55428e-06
internal_weight=0 725716 90970 88630 222841 2340 820 215658 64030 51215 151628 2453 11898 7183 634746 1520 76732 191614 92369 443132 12815 149175 288091 155041 99245
internal_count=948557 725716 90970 88630 222841 2340 820 215658 64030 51215 151628 2453 11898 7183 634746 1520 76732 191614 92369 443132 12815 149175 288091 155041 99245
is_linear=0
shrinkage=0.03


Tree=13
num_leaves=29
num_cat=0
split_feature=120 91 14 21 7 12 151 124 90 66 154 58 32 85 97 3 17 91 107 25 1 29 127 90 31 26 168 90
split_gain=0.00779592 0.00646069 0.0061543 0.00529998 0.00164121 0.00157063 0.00522906 0.00132117 0.00130067 0.00128363 0.00127765 0.00555938 0.00124616 0.00124077 0.00108113 0.000763471 0.000642258 0.000615832 0.000539223 0.000538097 0.000515501 0.000506624 0.000329738 0.000315988 0.00031376 0.00027758 0.000133594 6.27592e-06
threshold=0.00050924384588371923 -0.0046935242135077706 -0.024558162065194504 -0.053231520578265183 0.0055458855349570521 0.00067176388968837226 -0.029209086671471592 -0.008205227628535313 0.00038149578952526936 -0.004476874317300727 0.029949633116845644 0.01623770101442204 0.0223360011620048 -1.0000000180025095e-35 -0.0021475416142493482 0.0030557861318811779 0.02851381711661816 0.00071075418964028369 -0.0044375357683747998 -0.0069653715472668401 -0.0019808047218248244 0.042539330199360854 -0.013767948374152182 0.0005118614074033197 0.0024717871565371756 0.00093357008606209917 0.0020990742783160857 -0.0038272891941604657
decision_type=6 6 6 4 6 6 6 6 4 4 4 6 6 4 6 4 6 6 6 6 4 4 4 6 4 6 6 6
left_child=1 2 5 7 10 6 -1 15 12 25 21 -12 20 23 -15 -2 -11 27 19 -10 -3 -5 -20 -4 -19 -6 -14 -9
right_child=3 8 13 4 9 -7 -8 17 18 16 11 -13 26 14 -16 -17 -18 24 22 -21 -22 -23 -24 -25 -26 -27 -28 -29
leaf_value=6.7019114433432012e-05 -5.3319431871660764e-05 3.042753402425588e-06 1.1220630772337426e-05 -2.1620722419265545e-06 1.8973829312199862e-05 0 1.6993298593331052e-05 0 4.8402601388167635e-06 -5.3187042526966704e-06 -2.1864076166471908e-06 2.524136306168752e-05 1.5749808367919028e-05 -4.7134348433289837e-07 7.2983378091898331e-06 0 -1.3403923859594785e-05 -2.4998602948833433e-05 -1.0705607111760196e-05 -1.5997243492423982e-06 3.932843100903367e-07 -8.0791096847839809e-06 -2.6359051275962313e-06 0 0 0 0 -1.5168206370868546e-06
leaf_weight=3183 2134 104418 34089 250872 1402 1233 7854 295 16683 33149 32083 8186 6414 30274 28046 198 20795 4825 6776 36832 226254 16187 67362 855 1029 1685 2106 2453
leaf_count=3183 2134 104418 34089 250872 1402 1233 7854 295 16683 33149 32083 8186 6414 30274 28046 198 20795 4825 6776 36832 226254 16187 67362 855 1029 1685 2106 2453
internal_value=0 2.17207e-06 8.88663e-06 -3.39126e-06 -2.72712e-06 2.91873e-05 3.27888e-05 -2.41465e-05 6.22024e-07 -7.48657e-06 -1.79506e-06 3.01769e-06 1.61761e-06 6.05443e-06 3.00801e-06 -4.80353e-05 -8.71393e-06 -1.59173e-05 -1.90586e-06 1.27726e-07 1.2753e-06 -2.57694e-06 -3.57604e-06 1.07091e-05 -2.16078e-05 9.09692e-06 1.31395e-05 0
internal_weight=0 572379 105534 375293 364359 12270 11037 10934 466845 57031 307328 40269 339192 93264 58320 2332 53944 8602 127653 53515 330672 267059 74138 34944 5854 3087 8520 2748
internal_count=947672 572379 105534 375293 364359 12270 11037 10934 466845 57031 307328 40269 339192 93264 58320 2332 53944 8602 127653 53515 330672 267059 74138 34944 5854 3087 8520 2748
is_linear=0
shrinkage=0.03


Tree=14
num_leaves=28
num_cat=0
split_feature=90 120 84 151 46 60 145 38 121 87 134 107 90 12 130 48 29 126 27 104 104 6 90 49 60 86 173
split_gain=0.0121948 0.00524908 0.00513792 0.00415854 0.0033684 0.00133694 0.00128239 0.00170839 0.0014966 0.00115223 0.00104019 0.000893629 0.00108696 0.000813781 0.00080933 0.000730698 0.000687831 0.000619357 0.000744869 0.000600455 0.000592063 0.000570039 0.00015463 0.00013496 0.000118465 8.18276e-05 5.81003e-05
threshold=-0.0049739852096980413 -0.002226246936409939 -0.0034447488199347417 -0.021838057786226269 -0.030295223419416335 -0.014392263867936876 0.07821648940443994 -0.0016835387989696993 0.021228118799626831 -0.0040832343511283389 -0.018887310549768457 -0.0064199490007013074 0.00098628716108291 0.0027090660633489459 -0.017455798212949736 -0.024143773124647154 -0.0029740408062934871 0.0066250522922275904 0.0093697458505630511 0.0035653556907413076 0.0021392751298798911 0.00084351212439641985 0.0029427289833839805 0.014523680321872236 -0.00052551569316905671 0.0016715380933781155 -0.014622624497860668
decision_type=6 6 6 6 6 6 4 6 4 6 6 6 6 6 6 6 6 4 6 6 6 6 6 4 6 6 6
left_child=2 11 3 5 10 15 8 -8 -6 -5 16 17 20 -12 25 -1 -3 19 -19 -2 -13 -16 -14 -7 -11 -4 -23
right_child=1 4 14 9 6 23 7 -9 -10 24 13 12 22 -15 21 -17 -18 18 -20 -21 -22 26 -24 -25 -26 -27 -28
leaf_value=0.0001408692417014733 3.1293419138508219e-06 -6.0166170472524327e-05 -1.0724322214702247e-05 0 -1.3934856521079837e-06 3.2361974948878022e-05 4.8881463127765963e-05 2.6436282954792362e-06 -8.8733839988200831e-06 2.7847194893531299e-05 -6.3701261994729833e-06 1.4458387762128749e-06 -2.4854501764574459e-06 -1.8294032424221739e-05 1.4886063895920497e-05 4.8096906263263749e-05 0 1.9072612173988364e-05 0 1.2968150591325995e-05 7.3236073053994991e-06 0 -1.2395094968935094e-05 0 0 0 5.0629552387114078e-06
leaf_weight=584 79513 698 1285 1495 547256 1745 961 7056 26208 5372 31915 153839 13786 9120 13784 1056 53 6176 1988 7484 19478 3976 3762 55 1239 444 7520
leaf_count=584 79513 698 1285 1495 547256 1745 961 7056 26208 5372 31915 153839 13786 9120 13784 1056 53 6176 1988 7484 19478 3976 3762 55 1239 444 7520
internal_value=0 -6.36807e-07 1.65875e-05 3.38149e-05 -2.19424e-06 6.36016e-05 -1.57259e-06 1.00675e-05 -1.76151e-06 1.93115e-05 -1.04855e-05 2.70448e-06 1.41024e-06 -9.38649e-06 8.6657e-06 9.03995e-05 -5.04288e-05 5.14263e-06 1.38965e-05 4.14843e-06 2.19303e-06 1.03004e-05 -5.46578e-06 3.07884e-05 2.47801e-05 -6.55486e-06 3.49595e-06
internal_weight=0 909293 38555 11546 623267 3440 581481 8017 573464 8106 41786 286026 190865 41035 27009 1640 751 95161 8164 86997 173317 25280 17548 1800 6611 1729 11496
internal_count=947848 909293 38555 11546 623267 3440 581481 8017 573464 8106 41786 286026 190865 41035 27009 1640 751 95161 8164 86997 173317 25280 17548 1800 6611 1729 11496
is_linear=0
shrinkage=0.03


Tree=15
num_leaves=26
num_cat=0
split_feature=90 75 120 13 33 58 152 88 24 24 96 49 3 84 150 121 75 84 102 134 45 25 49 82 59
split_gain=0.00904496 0.0071658 0.00361526 0.0057511 0.00227277 0.00141847 0.00122876 0.00134166 0.00120373 0.00119408 0.000935955 0.000852196 0.000812138 0.000804531 0.00122396 0.00181621 0.000723973 0.000717687 0.000706383 0.000481483 0.000394297 0.00043483 0.000389701 0.000350746 8.48353e-05
threshold=4.7604430013676123e-05 -0.13504987210035321 -0.0015358268429181861 -0.0075840821955353013 -0.024843443185091015 -0.014751478807570408 0.026027172284288098 -2.9751765907945055e-05 -0.023041164285821428 0.0011328909768633718 0.00059546845655650293 0.035214392468333251 -0.050721671432256692 0.0048551853653415111 0.015824281025095761 0.02961667720228434 0.0026345684891566639 0.002026205025713876 -0.00064112000401095662 0.0015637365438935171 0.025427870452404026 -0.032666707411408417 -0.0049399659037590018 -0.021075375805613892 0.014584891963750126
decision_type=4 4 6 6 6 6 6 6 6 6 4 6 4 6 6 6 4 4 6 6 4 4 4 6 6
left_child=2 6 3 5 11 8 7 -2 -1 18 19 12 -3 20 24 -16 -11 -12 -6 -5 21 -4 -22 -7 -15
right_child=1 4 13 10 9 23 -8 -9 -10 16 17 -13 -14 14 15 -17 -18 -19 -20 -21 22 -23 -24 -25 -26
leaf_value=3.7212109453839955e-05 0 -1.8351000113354676e-05 -1.5413350919202337e-05 4.6459021661359892e-07 4.8437823615415545e-07 0 0 -0.00014746429947153615 1.5005332581937653e-05 -1.7745043024256439e-06 2.6323641008242742e-06 -5.1626095581715865e-05 -5.9338764357523535e-06 0 0 -6.5662037527953207e-05 -7.0410006350973689e-06 9.8577014664018075e-06 -2.46914926187874e-06 4.6344672250310178e-06 1.2618787581713817e-05 1.6876531719965332e-07 7.147291012537028e-07 9.3458522145680925e-06 -5.1715481175451558e-06
leaf_weight=3941 199 7842 1624 133944 136613 2300 171 425 21697 53592 37949 572 34219 10903 1222 767 60933 26681 141353 34231 4633 177497 12667 35871 6841
leaf_count=3941 199 7842 1624 133944 136613 2300 171 425 21697 53592 37949 572 34219 10903 1222 767 60933 26681 141353 34231 4633 177497 12667 35871 6841
internal_value=0 -3.05832e-06 2.81838e-06 4.96974e-06 -2.85812e-06 1.30117e-05 -9.353e-05 -0.000113596 1.90066e-05 -2.0943e-06 2.70102e-06 -9.53775e-06 -8.60634e-06 -6.4406e-08 -5.89604e-06 -2.90564e-05 -4.70759e-06 5.84747e-06 -9.63612e-07 1.40258e-06 4.45144e-07 0 4.77072e-06 8.59144e-06 -2.45165e-06
internal_weight=0 435919 512768 296614 435124 63809 795 624 25638 392491 232805 42633 42061 216154 19733 1989 114525 64630 277966 168175 196421 179121 17300 38171 17744
internal_count=948687 435919 512768 296614 435124 63809 795 624 25638 392491 232805 42633 42061 216154 19733 1989 114525 64630 277966 168175 196421 179121 17300 38171 17744
is_linear=0
shrinkage=0.03


Tree=16
num_leaves=29
num_cat=0
split_feature=120 12 144 90 32 90 60 90 127 12 137 148 106 67 4 105 90 63 148 12 136 27 150 114 38 60 106 155
split_gain=0.00848266 0.0082252 0.0035792 0.00314915 0.00236824 0.00191566 0.00227067 0.00171245 0.00148436 0.00144413 0.00135303 0.000971547 0.000859364 0.000721049 0.00070163 0.000627236 0.00159637 0.000552734 0.000431538 0.00037899 0.000599618 0.000349941 0.000227504 0.000197461 0.000193722 0.000127993 8.28106e-05 4.6953e-05
threshold=-0.0033548987606627331 -0.0085794130312150697 -0.085859497685856698 0.0065602606985079338 -0.023187302910597177 -0.0025295474831085714 -0.014695890063265065 -0.00088560384493405534 0.014278911519795658 0.0051222447802387007 -0.0219838498160243 0.0066047205099801594 0.017082123597086264 -0.001230698835570365 -0.025468722790442027 -0.00350188510492444 -0.002055015034161875 -0.022542624734342095 0.002621567928922599 0.00077264488223650494 0.0082985997206123669 0.0059260025154799232 -0.0021816151368388896 -0.0030132916104110767 0.0063547911416341049 -0.0048224231485588407 -0.00239558895934271 -0.021007516421377655
decision_type=6 6 6 4 4 6 6 6 6 4 4 4 6 6 4 6 6 4 6 6 6 6 6 6 6 6 6 6
left_child=1 5 3 10 19 6 11 13 15 -9 27 -1 23 -6 26 18 -17 -5 -3 20 -4 -16 -12 -7 -21 -8 -10 -2
right_child=2 8 4 17 7 12 25 9 14 -11 22 -13 -14 -15 21 16 -18 -19 -20 24 -22 -23 -24 -25 -26 -27 -28 -29
leaf_value=2.3454388810857675e-05 0 -2.0814307959017268e-06 -4.7350811667263802e-06 -0.00011896456079399472 3.996102409311589e-06 1.0119146628480612e-05 5.8796534379765521e-06 -1.262023363132781e-06 0 -5.62833823888251e-06 0 5.7319747499221251e-05 -6.31717596026227e-05 0 2.1303731158014456e-05 7.5234052236313409e-06 6.6386708725347942e-07 0 3.9438024074825007e-06 -2.2721002715033278e-05 -2.3816957353633875e-05 4.8825601901499488e-06 -4.1767651532640415e-05 0 0 2.0587229184342478e-05 -1.0274530154061199e-05 1.7591779938730019e-05
leaf_weight=3914 175 40264 17595 465 62167 4789 4614 435686 655 85260 570 3387 128 108119 6702 51782 88079 65 13975 4126 2370 4920 930 632 145 5930 704 399
leaf_count=3914 175 40264 17595 465 62167 4789 4614 435686 655 85260 570 3387 128 108119 6702 51782 88079 65 13975 4126 2370 4920 930 632 145 5930 704 399
internal_value=0 4.97771e-06 -1.63685e-06 -3.69752e-05 -1.48716e-06 2.19416e-05 2.69159e-05 -1.13965e-06 2.98866e-06 -2.00544e-06 -1.17224e-05 4.12302e-05 3.23881e-06 1.42094e-06 1.30573e-05 2.23788e-06 3.31085e-06 -0.000107184 -2.52362e-07 -1.07788e-05 -7.75365e-06 1.56445e-05 -3.076e-05 7.5956e-06 -2.13991e-05 1.55759e-05 0 1.19199e-05
internal_weight=0 230475 718072 2604 715468 23394 17845 691232 207081 520946 2074 7301 5549 170286 12981 194100 139861 530 54239 24236 19965 11622 1500 5421 4271 10544 1359 574
internal_count=948547 230475 718072 2604 715468 23394 17845 691232 207081 520946 2074 7301 5549 170286 12981 194100 139861 530 54239 24236 19965 11622 1500 5421 4271 10544 1359 574
is_linear=0
shrinkage=0.03


Tree=17
num_leaves=31
num_cat=0
split_feature=120 57 13 14 121 96 91 124 6 46 103 95 151 49 152 90 91 102 121 90 147 124 145 105 90 90 84 91 91 29
split_gain=0.00641436 0.00542279 0.00392373 0.00491712 0.00431406 0.00129585 0.00125464 0.00111821 0.00109807 0.00186933 0.0014787 0.00140835 0.00129976 0.00117773 0.000930449 0.000831353 0.00171424 0.00069688 0.000893113 0.000588905 0.0005765 0.000520484 0.00135294 0.000486395 0.000451827 0.000435351 0.000408792 0.000372092 0.000201846 0.000183966
threshold=0.00097916185006533289 -0.042570644989609711 -0.0040562949143350116 -0.056290393763297565 -0.0087507311254739744 0.0038427959717975933 -0.0033572197426110502 -0.0043030509634199724 -0.00021768481490699168 0.089491469621182942 0.002112031565047801 -0.036644363775849335 0.022596393711864952 -0.0022428730735555287 -0.0038116375380018216 0.0023257950069824319 -0.0035708809737116094 -0.00082022009427386462 0.0041491747833788404 0.0016522984172132171 -1.0000000180025095e-35 -0.0097542625259033153 0.041627662256360061 0.0032931437017396097 0.0015222253668345893 -0.00076962271767012556 -0.0041344520413653446 -0.00065165251726284612 -0.0031533872243016954 -0.019495649263262745
decision_type=4 4 6 6 6 4 6 6 4 4 6 6 6 4 6 6 6 6 6 6 4 6 4 6 6 6 4 6 6 6
left_child=2 7 3 4 6 23 -1 17 9 12 -11 20 -3 -13 -6 16 -5 18 -2 28 -10 22 -7 25 -25 -4 -17 -23 -9 -21
right_child=1 8 5 15 14 21 -8 19 11 10 -12 13 -14 -15 -16 26 -18 -19 -20 29 -22 27 -24 24 -26 -27 -28 -29 -30 -31
leaf_value=7.2486036292897815e-05 -5.9775467208508997e-06 -2.1526132919192277e-06 5.0919573868018708e-07 8.5446465722879855e-06 -5.300707598216832e-05 4.3160897063747975e-06 0 1.4026286693104014e-06 7.2495943533738814e-06 5.0023427171487512e-05 0 -3.5079873020857455e-07 6.1915522748848255e-06 -6.6085294157748734e-06 0 0 2.2073297316558597e-06 -1.4227365756663191e-05 -8.1651829889369364e-05 -2.6248223676200073e-05 -1.7126515596786162e-06 7.0617417511643142e-06 3.5861478794038089e-05 3.4667852653009735e-06 -2.9668249483496971e-06 -1.5846456499863645e-06 -1.6379468858827699e-05 -4.8309154774526842e-07 -7.4694839326738723e-06 0
leaf_weight=2080 732 118122 152532 78634 298 7148 404 791 12266 1168 471 41790 19037 118864 477 4265 91478 1861 1007 3660 9446 8829 2043 53066 9573 192074 1908 8553 3837 790
leaf_count=2080 732 118122 152532 78634 298 7148 404 791 12266 1168 471 41790 19037 118864 477 4265 91478 1861 1007 3660 9446 8829 2043 53066 9573 192074 1908 8553 3837 790
internal_value=0 -3.34266e-06 1.82495e-06 5.55883e-06 4.26542e-05 2.45013e-07 6.28184e-05 -2.27358e-05 -2.53027e-06 -3.97717e-07 3.11951e-05 -4.07107e-06 -8.8505e-07 -5.07413e-06 -2.66571e-06 4.78748e-06 5.22499e-06 -3.97778e-05 -5.84573e-05 -1.43182e-05 2.65989e-06 6.67643e-06 1.2966e-05 -1.3784e-07 2.24403e-06 -6.14329e-07 -4.8377e-06 2.48673e-06 -2.7134e-06 -2.30114e-05
internal_weight=0 333842 613362 179544 3259 433818 2484 12678 321164 138798 1639 182366 137159 160654 775 176285 170112 3600 1739 9078 21712 26573 9191 407245 62639 344606 6173 17382 4628 4450
internal_count=947204 333842 613362 179544 3259 433818 2484 12678 321164 138798 1639 182366 137159 160654 775 176285 170112 3600 1739 9078 21712 26573 9191 407245 62639 344606 6173 17382 4628 4450
is_linear=0
shrinkage=0.03


Tree=18
num_leaves=28
num_cat=0
split_feature=120 74 31 90 124 92 24 90 154 12 121 27 121 136 48 47 91 160 12 80 28 87 136 151 151 2 26
split_gain=0.012242 0.00570486 0.00376656 0.00323623 0.00277319 0.00163719 0.00144 0.00143887 0.0013385 0.00123994 0.00120404 0.00107155 0.000966193 0.000941453 0.000830387 0.000786609 0.000755665 0.000723993 0.000686792 0.00114632 0.000466326 0.000427735 0.000407597 0.000190804 0.000182985 5.50018e-05 3.53333e-05
threshold=-0.0089701926450342778 -0.033605419796732441 -0.011546828784048556 0.001667473842079951 -0.0054218729206717223 -0.0020766816146445045 0.0022722926433847881 0.0020096988522312754 0.0058174019606924256 -0.0062616958232205346 0.0013324695173650982 0.0077315133530646571 0.01028736960142851 0.019572390557738375 0.0034705569103486585 0.08206553012132646 -0.0030079671414569016 -0.0079106033879356493 -0.0098721932426585179 -0.014247276603515362 0.0087962304440104104 9.5959308964665993e-05 -0.0027270599818543318 0.0023767600068822507 -0.0052884400356560937 0.0049490698396490304 0.017532552014349095
decision_type=4 4 4 6 6 6 6 6 6 4 6 6 6 6 6 4 6 6 6 6 6 6 4 6 6 6 4
left_child=2 4 5 9 8 13 15 11 25 16 23 -4 -11 21 -8 -5 -3 -13 19 -7 -9 -1 -20 -6 -12 -2 -15
right_child=1 3 7 6 10 18 14 20 -10 12 24 17 -14 26 -16 -17 -18 -19 22 -21 -22 -23 -24 -25 -26 -27 -28
leaf_value=0 -4.4167496698456439e-05 8.7352879847521632e-06 1.6425858947788709e-05 -3.0449175850522073e-06 5.193825770291903e-06 6.5644392548087931e-05 -4.034213042796587e-06 -2.3610059857454516e-05 0 3.4490867166921297e-07 0 -1.6113302044091127e-06 -4.2691173141165808e-06 -2.1991486561444743e-05 -1.4055323017763409e-05 7.9938174016841107e-06 6.1226887493159649e-07 1.0358008818526624e-05 0 1.2792082040429035e-05 0 2.7471907193207947e-05 2.5506929350139731e-05 -7.1089564461582899e-06 -2.1607043331048146e-05 0 0
leaf_weight=1012 4370 24779 19723 133893 3949 2818 21085 1261 528 613179 1469 6557 43716 369 19546 5385 25167 8041 720 1346 515 1733 1656 1287 4332 123 113
leaf_count=1012 4370 24779 19723 133893 3949 2818 21085 1261 528 613179 1469 6557 43716 369 19546 5385 25167 8041 720 1346 515 1733 1656 1287 4332 123 113
internal_value=0 -8.48883e-07 1.50373e-05 -5.10544e-07 -1.85961e-05 3.22904e-05 -4.11014e-06 9.95196e-06 -3.8056e-05 3.84433e-07 -8.37925e-06 1.1559e-05 1.50011e-08 8.34324e-06 -9.22459e-06 -2.51031e-06 4.94273e-06 3.95485e-06 4.18075e-05 5.2175e-05 -1.26461e-05 1.83448e-05 1.73018e-05 0 -1.78969e-05 -4.34324e-05 -1.74645e-05
internal_weight=0 902808 45864 886750 16058 9767 179909 36097 5021 706841 11037 34321 656895 3227 40631 139278 49946 14598 6540 4164 1776 2745 2376 5236 5801 4493 482
internal_count=948672 902808 45864 886750 16058 9767 179909 36097 5021 706841 11037 34321 656895 3227 40631 139278 49946 14598 6540 4164 1776 2745 2376 5236 5801 4493 482
is_linear=0
shrinkage=0.03


end of trees

feature_importances:
log_close/mean_60-mean_close/mean_60_id2=42
log_close/mean_300-mean_close/mean_300_id2=42
log_close/mean_60_id2=21
log_return_300-mean_log_returns_300_id2=16
log_return_60-mean_log_returns_60_id2=15
log_close/mean_900-mean_close/mean_900_id2=15
log_close/mean_60_id4=14
log_return_900_id4=9
log_close/mean_300-mean_close/mean_300_id10=9
log_close/mean_60_id8=8
log_return_60_id8=8
log_return_900-mean_log_returns_900_id2=8
log_return_60_id2=7
mean_close/mean_60=7
log_close/mean_60-mean_close/mean_60_id5=7
log_close/mean_300-mean_close/mean_300_id4=7
log_close/mean_900-mean_close/mean_900_id1=7
log_close/mean_900-mean_close/mean_900_id4=7
log_close/mean_300_id2=6
log_close/mean_60_id10=6
log_close/mean_300_id10=6
log_close/mean_300_id13=6
mean_log_returns_60=6
log_close/mean_60_id3=5
log_return_60_id4=5
log_return_300_id4=5
log_return_60_id5=5
log_close/mean_900_id7=5
log_close/mean_60-mean_close/mean_60_id0=5
log_return_60-mean_log_returns_60_id1=5
log_return_300_id0=4
log_close/mean_900_id0=4
log_close/mean_300_id4=4
log_close/mean_300_id5=4
log_close/mean_60_id6=4
log_return_900_id7=4
log_close/mean_60-mean_close/mean_60_id3=4
log_close/mean_60-mean_close/mean_60_id9=4
log_return_60-mean_log_returns_60_id10=4
log_close/mean_900-mean_close/mean_900_id3=4
log_close/mean_60_id1=3
log_return_300_id2=3
log_return_900_id2=3
log_close/mean_300_id3=3
log_close/mean_900_id4=3
log_close/mean_300_id6=3
log_return_300_id6=3
log_close/mean_900_id9=3
log_return_60_id10=3
log_return_300_id10=3
log_close/mean_60_id11=3
log_close/mean_300_id11=3
log_return_60_id12=3
log_return_60-mean_log_returns_60_id0=3
log_close/mean_60-mean_close/mean_60_id1=3
log_return_60-mean_log_returns_60_id3=3
log_return_60-mean_log_returns_60_id4=3
log_return_60-mean_log_returns_60_id5=3
log_close/mean_60-mean_close/mean_60_id8=3
log_close/mean_60-mean_close/mean_60_id10=3
log_return_300-mean_log_returns_300_id4=3
log_close/mean_300-mean_close/mean_300_id9=3
log_return_300-mean_log_returns_300_id10=3
mean_log_returns_900=3
log_close/mean_900-mean_close/mean_900_id10=3
log_close/mean_300_id0=2
log_return_60_id1=2
log_close/mean_900_id2=2
log_return_300_id5=2
log_close/mean_900_id5=2
log_return_60_id6=2
log_close/mean_900_id6=2
log_return_300_id7=2
log_close/mean_60_id9=2
log_close/mean_300_id9=2
log_return_900_id9=2
log_return_60_id11=2
log_return_300_id11=2
log_return_900_id11=2
log_close/mean_300_id12=2
log_return_300_id12=2
log_return_60-mean_log_returns_60_id8=2
log_return_60-mean_log_returns_60_id9=2
mean_close/mean_300=2
log_close/mean_300-mean_close/mean_300_id1=2
log_close/mean_300-mean_close/mean_300_id5=2
log_return_300-mean_log_returns_300_id5=2
mean_close/mean_900=2
log_return_900-mean_log_returns_900_id0=2
log_return_900-mean_log_returns_900_id4=2
log_return_900-mean_log_returns_900_id6=2
log_return_60_id0=1
log_return_900_id0=1
log_return_300_id1=1
log_close/mean_900_id1=1
log_return_300_id3=1
log_close/mean_60_id5=1
log_return_60_id7=1
log_close/mean_300_id8=1
log_return_300_id8=1
log_close/mean_900_id8=1
log_return_900_id8=1
log_return_60_id9=1
log_return_300_id9=1
log_close/mean_900_id10=1
log_close/mean_900_id12=1
log_return_900_id12=1
log_close/mean_60_id13=1
log_close/mean_900_id13=1
log_close/mean_60-mean_close/mean_60_id4=1
mean_log_returns_300=1
log_return_300-mean_log_returns_300_id0=1
log_close/mean_300-mean_close/mean_300_id7=1
log_return_300-mean_log_returns_300_id7=1
log_close/mean_900-mean_close/mean_900_id0=1
log_return_900-mean_log_returns_900_id1=1
log_return_900-mean_log_returns_900_id5=1
log_close/mean_900-mean_close/mean_900_id7=1
log_return_900-mean_log_returns_900_id7=1
log_close/mean_900-mean_close/mean_900_id9=1
log_return_900-mean_log_returns_900_id10=1
log_close/mean_900-mean_close/mean_900_id11=1
log_close/mean_900-mean_close/mean_900_id13=1
log_return_900-mean_log_returns_900_id13=1

parameters:
[boosting: gbdt]
[objective: regression]
[metric: rmse]
[tree_learner: serial]
[device_type: cpu]
[data: ]
[valid: ]
[num_iterations: 5000]
[learning_rate: 0.03]
[num_leaves: 31]
[num_threads: 0]
[deterministic: 0]
[force_col_wise: 0]
[force_row_wise: 0]
[histogram_pool_size: -1]
[max_depth: 5]
[min_data_in_leaf: 50]
[min_sum_hessian_in_leaf: 0.001]
[bagging_fraction: 0.7]
[pos_bagging_fraction: 1]
[neg_bagging_fraction: 1]
[bagging_freq: 1]
[bagging_seed: 8586]
[feature_fraction: 1]
[feature_fraction_bynode: 1]
[feature_fraction_seed: 8586]
[extra_trees: 1]
[extra_seed: 8586]
[early_stopping_round: 50]
[first_metric_only: 1]
[max_delta_step: 0]
[lambda_l1: 0.5]
[lambda_l2: 2]
[linear_lambda: 0]
[min_gain_to_split: 0]
[drop_rate: 0.1]
[max_drop: 50]
[skip_drop: 0.5]
[xgboost_dart_mode: 0]
[uniform_drop: 0]
[drop_seed: 8586]
[top_rate: 0.2]
[other_rate: 0.1]
[min_data_per_group: 100]
[max_cat_threshold: 32]
[cat_l2: 10]
[cat_smooth: 10]
[max_cat_to_onehot: 4]
[top_k: 20]
[monotone_constraints: ]
[monotone_constraints_method: basic]
[monotone_penalty: 0]
[feature_contri: ]
[forcedsplits_filename: ]
[refit_decay_rate: 0.9]
[cegb_tradeoff: 1]
[cegb_penalty_split: 0]
[cegb_penalty_feature_lazy: ]
[cegb_penalty_feature_coupled: ]
[path_smooth: 0]
[interaction_constraints: ]
[verbosity: -1]
[saved_feature_importance_type: 0]
[linear_tree: 0]
[max_bin: 600]
[max_bin_by_feature: ]
[min_data_in_bin: 3]
[bin_construct_sample_cnt: 200000]
[data_random_seed: 8586]
[is_enable_sparse: 1]
[enable_bundle: 1]
[use_missing: 1]
[zero_as_missing: 1]
[feature_pre_filter: 1]
[pre_partition: 0]
[two_round: 0]
[header: 0]
[label_column: ]
[weight_column: ]
[group_column: ]
[ignore_column: ]
[categorical_feature: ]
[forcedbins_filename: ]
[precise_float_parser: 0]
[objective_seed: 30655]
[num_class: 1]
[is_unbalance: 0]
[scale_pos_weight: 1]
[sigmoid: 1]
[boost_from_average: 1]
[reg_sqrt: 0]
[alpha: 0.9]
[fair_c: 1]
[poisson_max_delta_step: 0.7]
[tweedie_variance_power: 1.5]
[lambdarank_truncation_level: 30]
[lambdarank_norm: 1]
[label_gain: ]
[eval_at: ]
[multi_error_top_k: 1]
[auc_mu_weights: ]
[num_machines: 1]
[local_listen_port: 12400]
[time_out: 120]
[machine_list_filename: ]
[machines: ]
[gpu_platform_id: -1]
[gpu_device_id: -1]
[gpu_use_dp: 0]
[num_gpu: 1]

end of parameters

pandas_categorical:[]
