tree
version=v4
num_class=1
num_tree_per_iteration=1
label_index=0
max_feature_idx=173
objective=regression
feature_names=log_close/mean_60_id0 log_return_60_id0 log_close/mean_300_id0 log_return_300_id0 log_close/mean_900_id0 log_return_900_id0 log_close/mean_60_id1 log_return_60_id1 log_close/mean_300_id1 log_return_300_id1 log_close/mean_900_id1 log_return_900_id1 log_close/mean_60_id2 log_return_60_id2 log_close/mean_300_id2 log_return_300_id2 log_close/mean_900_id2 log_return_900_id2 log_close/mean_60_id3 log_return_60_id3 log_close/mean_300_id3 log_return_300_id3 log_close/mean_900_id3 log_return_900_id3 log_close/mean_60_id4 log_return_60_id4 log_close/mean_300_id4 log_return_300_id4 log_close/mean_900_id4 log_return_900_id4 log_close/mean_60_id5 log_return_60_id5 log_close/mean_300_id5 log_return_300_id5 log_close/mean_900_id5 log_return_900_id5 log_close/mean_60_id6 log_return_60_id6 log_close/mean_300_id6 log_return_300_id6 log_close/mean_900_id6 log_return_900_id6 log_close/mean_60_id7 log_return_60_id7 log_close/mean_300_id7 log_return_300_id7 log_close/mean_900_id7 log_return_900_id7 log_close/mean_60_id8 log_return_60_id8 log_close/mean_300_id8 log_return_300_id8 log_close/mean_900_id8 log_return_900_id8 log_close/mean_60_id9 log_return_60_id9 log_close/mean_300_id9 log_return_300_id9 log_close/mean_900_id9 log_return_900_id9 log_close/mean_60_id10 log_return_60_id10 log_close/mean_300_id10 log_return_300_id10 log_close/mean_900_id10 log_return_900_id10 log_close/mean_60_id11 log_return_60_id11 log_close/mean_300_id11 log_return_300_id11 log_close/mean_900_id11 log_return_900_id11 log_close/mean_60_id12 log_return_60_id12 log_close/mean_300_id12 log_return_300_id12 log_close/mean_900_id12 log_return_900_id12 log_close/mean_60_id13 log_return_60_id13 log_close/mean_300_id13 log_return_300_id13 log_close/mean_900_id13 log_return_900_id13 mean_close/mean_60 mean_log_returns_60 log_close/mean_60-mean_close/mean_60_id0 log_return_60-mean_log_returns_60_id0 log_close/mean_60-mean_close/mean_60_id1 log_return_60-mean_log_returns_60_id1 log_close/mean_60-mean_close/mean_60_id2 log_return_60-mean_log_returns_60_id2 log_close/mean_60-mean_close/mean_60_id3 log_return_60-mean_log_returns_60_id3 log_close/mean_60-mean_close/mean_60_id4 log_return_60-mean_log_returns_60_id4 log_close/mean_60-mean_close/mean_60_id5 log_return_60-mean_log_returns_60_id5 log_close/mean_60-mean_close/mean_60_id6 log_return_60-mean_log_returns_60_id6 log_close/mean_60-mean_close/mean_60_id7 log_return_60-mean_log_returns_60_id7 log_close/mean_60-mean_close/mean_60_id8 log_return_60-mean_log_returns_60_id8 log_close/mean_60-mean_close/mean_60_id9 log_return_60-mean_log_returns_60_id9 log_close/mean_60-mean_close/mean_60_id10 log_return_60-mean_log_returns_60_id10 log_close/mean_60-mean_close/mean_60_id11 log_return_60-mean_log_returns_60_id11 log_close/mean_60-mean_close/mean_60_id12 log_return_60-mean_log_returns_60_id12 log_close/mean_60-mean_close/mean_60_id13 log_return_60-mean_log_returns_60_id13 mean_close/mean_300 mean_log_returns_300 log_close/mean_300-mean_close/mean_300_id0 log_return_300-mean_log_returns_300_id0 log_close/mean_300-mean_close/mean_300_id1 log_return_300-mean_log_returns_300_id1 log_close/mean_300-mean_close/mean_300_id2 log_return_300-mean_log_returns_300_id2 log_close/mean_300-mean_close/mean_300_id3 log_return_300-mean_log_returns_300_id3 log_close/mean_300-mean_close/mean_300_id4 log_return_300-mean_log_returns_300_id4 log_close/mean_300-mean_close/mean_300_id5 log_return_300-mean_log_returns_300_id5 log_close/mean_300-mean_close/mean_300_id6 log_return_300-mean_log_returns_300_id6 log_close/mean_300-mean_close/mean_300_id7 log_return_300-mean_log_returns_300_id7 log_close/mean_300-mean_close/mean_300_id8 log_return_300-mean_log_returns_300_id8 log_close/mean_300-mean_close/mean_300_id9 log_return_300-mean_log_returns_300_id9 log_close/mean_300-mean_close/mean_300_id10 log_return_300-mean_log_returns_300_id10 log_close/mean_300-mean_close/mean_300_id11 log_return_300-mean_log_returns_300_id11 log_close/mean_300-mean_close/mean_300_id12 log_return_300-mean_log_returns_300_id12 log_close/mean_300-mean_close/mean_300_id13 log_return_300-mean_log_returns_300_id13 mean_close/mean_900 mean_log_returns_900 log_close/mean_900-mean_close/mean_900_id0 log_return_900-mean_log_returns_900_id0 log_close/mean_900-mean_close/mean_900_id1 log_return_900-mean_log_returns_900_id1 log_close/mean_900-mean_close/mean_900_id2 log_return_900-mean_log_returns_900_id2 log_close/mean_900-mean_close/mean_900_id3 log_return_900-mean_log_returns_900_id3 log_close/mean_900-mean_close/mean_900_id4 log_return_900-mean_log_returns_900_id4 log_close/mean_900-mean_close/mean_900_id5 log_return_900-mean_log_returns_900_id5 log_close/mean_900-mean_close/mean_900_id6 log_return_900-mean_log_returns_900_id6 log_close/mean_900-mean_close/mean_900_id7 log_return_900-mean_log_returns_900_id7 log_close/mean_900-mean_close/mean_900_id8 log_return_900-mean_log_returns_900_id8 log_close/mean_900-mean_close/mean_900_id9 log_return_900-mean_log_returns_900_id9 log_close/mean_900-mean_close/mean_900_id10 log_return_900-mean_log_returns_900_id10 log_close/mean_900-mean_close/mean_900_id11 log_return_900-mean_log_returns_900_id11 log_close/mean_900-mean_close/mean_900_id12 log_return_900-mean_log_returns_900_id12 log_close/mean_900-mean_close/mean_900_id13 log_return_900-mean_log_returns_900_id13
feature_infos=[-0.1599580236441101:0.11493554850713347] [-0.25649729371070862:0.22853517532348633] [-0.28205767476838139:0.21335204008956299] [-0.3437342643737793:0.33179718255996704] [-0.36858489689596086:0.30284883294819259] [-0.49307215213775635:0.51653969287872314] [-0.11588335243769576:0.093917522030397702] [-0.17299634218215942:0.16072802245616913] [-0.17427549410071735:0.13156725984852718] [-0.20373113453388214:0.19578045606613159] [-0.20625940754235836:0.13323917940925206] [-0.26514187455177307:0.26700744032859802] [-0.27385770972466422:0.13302801484060853] [-0.35667756199836731:0.38283848762512207] [-0.37415868086679288:0.21683164242553649] [-0.45427325367927551:0.45715206861495972] [-0.4705234437792245:0.22688023763916151] [-0.59405040740966797:0.3307836651802063] [-0.19272825012888928:0.17084751354501132] [-0.30450022220611572:0.36529093980789185] [-0.33567772974376009:0.17747215890572707] [-0.40264692902565002:0.53176021575927734] [-0.41356469400990736:0.19638914034190047] [-0.52646946907043457:0.41996109485626221] [-0.30253798611420574:0.40428131521579802] [-0.48994320631027222:0.63543152809143066] [-0.46000770233882482:0.68870427789948152] [-0.70100462436676025:1.1870405673980713] [-0.50694026233686129:1.1069077199614659] [-0.79540836811065674:1.9647171497344971] [-0.28749500184409216:0.14953436883251425] [-0.39567267894744873:0.31581923365592957] [-0.42450426898723304:0.24260682779165191] [-0.49481156468391418:0.41760876774787903] [-0.5056742325571898:0.35533046149241804] [-0.62369740009307861:0.47519737482070923] [-0.15628203067531563:0.10127204456755186] [-0.2537510097026825:0.24265505373477936] [-0.26997670347306213:0.12690112308596099] [-0.32865175604820251:0.33294287323951721] [-0.34978165150334123:0.17053083122589163] [-0.45931702852249146:0.28639596700668335] [-0.24742686649830131:0.20985915319863532] [-0.37811586260795593:0.42164498567581177] [-0.41377566545944017:0.3323494064827559] [-0.49189466238021851:0.49623996019363403] [-0.51093221951978607:0.43451445146542478] [-0.63471180200576782:0.55160897970199585] [-0.30025422861072193:0.16363931031189685] [-0.44404616951942444:0.37502720952033997] [-0.49739084721953114:0.21165672218435666] [-0.59183067083358765:0.48881691694259644] [-0.59247641380607352:0.30803790778936835] [-0.69031316041946411:0.47112715244293213] [-0.25420484978285735:0.22805627247546228] [-0.38105201721191406:0.27269637584686279] [-0.41192428893523819:0.25859286597750381] [-0.48195794224739075:0.30421304702758789] [-0.48011060829543784:0.25090939949263297] [-0.56688904762268066:0.29971563816070557] [-0.16630495002179416:0.16633795700293497] [-0.30119198560714722:0.21313132345676422] [-0.33728327120889295:0.2432800231290452] [-0.41116830706596375:0.37707245349884033] [-0.41432233699956433:0.35814346007090403] [-0.53269767761230469:0.66681057214736938] [-0.24585624509565704:0.14585434282889287] [-0.37070852518081665:0.33410552144050598] [-0.40911205127013905:0.13236107324023957] [-0.47614476084709167:0.36705696582794189] [-0.50315644040504903:0.16685384572997058] [-0.61674588918685913:0.36326256394386292] [-0.31443346829362667:0.15660213697178499] [-0.36858642101287842:0.36842545866966248] [-0.42111300158340492:0.29668879453019553] [-0.48267656564712524:0.48779827356338501] [-0.48978887912700697:0.47196940242073704] [-0.58625268936157227:0.63748639822006226] [-0.14944577003355494:0.22645327612995769] [-0.24442973732948303:0.3135034441947937] [-0.2942223136044565:0.31333864936145939] [-0.35972318053245544:0.34380844235420227] [-0.37863871987177744:0.34296281771245279] [-0.49078726768493652:0.36377629637718201] [-0.20054266546941682:0.10816080575308198] [-0.32022324204444885:0.29791116714477539] [-0.081200268875884496:0.10380436693593947] [-0.13740384578704834:0.15357695519924164] [-0.07377145093468529:0.11883370600240445] [-0.18777267634868622:0.14722689986228943] [-0.12292297361919974:0.10144056812896546] [-0.13844995200634003:0.16660785675048828] [-0.095045120893156546:0.1107390150200588] [-0.11243053525686264:0.15502215921878815] [-0.27237945247427309:0.37392377578547509] [-0.45310679078102112:0.58796674013137817] [-0.15242904288880205:0.12335434052954572] [-0.15927121043205261:0.21840295195579529] [-0.04219705846712074:0.092038935248194939] [-0.070397481322288513:0.10870881378650665] [-0.10983549186449904:0.17867295503739539] [-0.13397055864334106:0.27411025762557983] [-0.09971156314130511:0.094661623330311029] [-0.12382292747497559:0.13562555611133575] [-0.08658408778587455:0.18408414731244233] [-0.19711080193519592:0.21841935813426971] [-0.083277949948728877:0.13667950176949611] [-0.1630997508764267:0.19207185506820679] [-0.0732935975581996:0.074892064286071328] [-0.10983534157276154:0.10272063314914703] [-0.13284692724084057:0.1442529143887657] [-0.18532878160476685:0.21632732450962067] [-0.098519027523629787:0.20486314762520322] [-0.14567510783672333:0.2948545515537262] [-0.35103139633269559:0.12253258279570241] [-0.41702643036842346:0.40116152167320251] [-0.16359976030568274:0.19621765999713253] [-0.18444961309432983:0.28611713647842407] [-0.060702574306172506:0.18024295081608821] [-0.20538106560707092:0.21329529583454132] [-0.1327024923914521:0.15498958662910423] [-0.1337355375289917:0.182087242603302] [-0.11343879522162412:0.16209597891486191] [-0.12235932052135468:0.19374822080135345] [-0.45027533558741523:0.64549329354706442] [-0.6818806529045105:1.1054755449295044] [-0.15848654376431012:0.20242931374908923] [-0.16516977548599243:0.36805865168571472] [-0.053972747210560772:0.11330860927904066] [-0.10016892850399017:0.13408483564853668] [-0.14625860083902398:0.28581586840722767] [-0.20908141136169434:0.37758746743202209] [-0.14635945088683555:0.1941082455335795] [-0.17480424046516418:0.29499062895774841] [-0.087379720971244301:0.20248853066215605] [-0.19235427677631378:0.21347883343696594] [-0.1284542317101649:0.21873758229481166] [-0.18853899836540222:0.30914521217346191] [-0.12163209685486187:0.10376443305230958] [-0.22541117668151855:0.15166914463043213] [-0.1465442690718684:0.25677916214622643] [-0.21366646885871887:0.36397045850753784] [-0.083413329488069551:0.27102475582026508] [-0.20819666981697083:0.28056344389915466] [-0.42998974572845006:0.13046053723595144] [-0.5347665548324585:0.32684582471847534] [-0.12347857034552784:0.2824719993801188] [-0.22188037633895874:0.46828234195709229] [-0.092373100802236513:0.2237303381860917] [-0.16341815888881683:0.26962468028068542] [-0.13460089992495439:0.15429889128055241] [-0.14432629942893982:0.24173653125762939] [-0.12695969306257149:0.17941808584946783] [-0.18181341886520386:0.23725652694702148] [-0.43522934042123401:1.0222862759996816] [-0.68829107284545898:1.8021227121353149] [-0.16248369557885309:0.29969260476251625] [-0.21911188960075378:0.38885796070098877] [-0.098628157912914308:0.11547180465540763] [-0.17789298295974731:0.15857252478599548] [-0.1655835433226191:0.40568540242051371] [-0.22185300290584564:0.50374484062194824] [-0.16248666807762346:0.27242651639510951] [-0.18256369233131409:0.4163072407245636] [-0.098561781451059191:0.21011366135224629] [-0.21279922127723694:0.21828477084636688] [-0.1483673654653391:0.29914820627078398] [-0.25712290406227112:0.43135011196136475] [-0.17068185290447796:0.14793356637445751] [-0.22838062047958374:0.21646344661712646] [-0.14785551570691557:0.40268865029929735] [-0.20824933052062988:0.54007327556610107] [-0.13538911968493028:0.28088000218368142] [-0.20438927412033081:0.31851673126220703]
tree_sizes=3345 3026 3193 3225 2869 3028 3069 2945 3144 3106 3047 3154 2888 3116 3233 3138 2505 3175 2565 3193 2894 3034 3160 2957 3015 2898 2873 3180 3075 3112 2735 3130 2961 2668 2932 2835 2698 2469 3170 3139 3119 3024 3161 3155 3108 3084 3148 3138 2993 3132 2815 2708 2859 2368 2778 2075 2971 3020 3148 2889 2882 2781 2330 2625 2378 1798 3025 2774 3222 3146 2953 2412

Tree=0
num_leaves=31
num_cat=0
split_feature=36 36 18 98 106 144 60 13 94 50 105 107 146 171 161 22 16 173 106 33 8 91 167 120 133 29 116 59 76 66
split_gain=0.017405 0.00925296 0.00389925 0.00374422 0.00601732 0.00419951 0.00314401 0.00299799 0.00383415 0.00266299 0.00235069 0.00715369 0.0126172 0.00194581 0.00273129 0.00251073 0.00177869 0.00276591 0.00161424 0.00147217 0.00133172 0.00123357 0.00118369 0.00109164 0.000993376 0.000624656 0.000582418 0.000413155 0.000406116 0.000291056
threshold=0.0018100160348776928 0.0053136529289434234 0.0075810125906425321 0.00033581499855790984 0.0016626474807424194 -0.034471901317091873 0.0048780029677761528 -0.015342597849667071 -0.0012072499393431285 -0.031131478045387632 -0.0013483358197845516 0.014372491277754309 -0.023341477380368857 0.0031825695186853413 0.0082559962756931799 0.052752450150852587 -0.056677852818414066 -0.0093168481253087503 -0.0013011793718687857 0.0013344319304451349 -0.0026034663950876102 0.0032806920353323226 0.03613491170108319 -0.0050336769574230731 -0.002375434734858572 -0.018327933736145493 -0.0079947454520972062 -0.0006048720097169279 0.0029429345562297471 0.0033164799105866662
decision_type=6 6 6 6 6 6 6 6 6 6 6 6 6 6 6 6 6 6 6 6 6 6 6 6 6 4 6 6 6 6
left_child=3 6 13 10 5 9 24 8 -6 -5 11 22 -13 14 -3 -15 -4 -18 27 28 -7 -21 -1 -20 26 -9 -2 -12 -8 -26
right_child=1 2 16 4 7 20 19 25 -10 -11 18 12 -14 15 -16 -17 17 -19 23 21 -22 -23 -24 -25 29 -27 -28 -29 -30 -31
leaf_value=-3.1790260272930548e-06 2.5762222930366455e-06 1.3057226770703433e-05 6.1024463166392145e-05 5.1451189604305454e-05 -4.7248476058328065e-05 9.8211063476769497e-06 6.7665270162034371e-06 2.9837723416997734e-06 1.2867325546914688e-06 5.1327870543570846e-06 2.0059525836576563e-06 0.00016790163548565973 1.1453957160333736e-05 1.620585657524267e-05 -1.0012228869289357e-05 7.0507988640116761e-05 3.8736880212484019e-05 1.5837761356209632e-05 -2.2049245223475286e-05 -1.3958568298358236e-05 1.9846349595782312e-06 4.2936673537597857e-06 9.4459794712694128e-06 -8.1104134695102594e-06 6.519090581528449e-06 -5.3556895693229999e-06 1.3635545612602391e-05 -4.6174067999542621e-06 -5.2278701112094933e-06 1.6465774958165644e-06
leaf_weight=79514 3102 17044 2012 3119 3643 31597 10088 8038 3581 2909 20589 595 3334 9223 5894 1083 9895 15470 7843 12677 43122 2616 6243 62177 24046 20621 28706 26089 3102 13090
leaf_count=79514 3102 17044 2012 3119 3643 31597 10088 8038 3581 2909 20589 595 3334 9223 5894 1083 9895 15470 7843 12677 43122 2616 6243 62177 24046 20621 28706 26089 3102 13090
internal_value=2.57622e-06 1.05703e-05 1.98082e-05 -1.5773e-06 2.59222e-06 7.26235e-06 4.66806e-06 -7.49858e-06 -2.5272e-05 3.15946e-05 -4.0062e-06 -1.15523e-07 3.9034e-05 1.21677e-05 6.47499e-06 2.33794e-05 2.8537e-05 2.53643e-05 -6.86767e-06 -3.46528e-06 5.09786e-06 -9.85584e-06 -2.08489e-06 -9.88659e-06 8.24584e-06 -2.49349e-06 1.22666e-05 -2.01742e-06 2.8079e-06 4.39773e-06
internal_weight=0 158048 60621 323014 116630 80747 97427 35883 7224 6028 206384 89686 3929 33244 22938 10306 27377 25365 116698 28483 74719 15293 85757 70020 68944 28659 31808 46678 13190 37136
internal_count=481062 158048 60621 323014 116630 80747 97427 35883 7224 6028 206384 89686 3929 33244 22938 10306 27377 25365 116698 28483 74719 15293 85757 70020 68944 28659 31808 46678 13190 37136
is_linear=0
shrinkage=1


Tree=1
num_leaves=30
num_cat=0
split_feature=98 24 76 36 166 91 146 107 106 36 9 96 106 141 16 106 152 138 38 18 132 107 34 87 18 166 20 20 158
split_gain=0.0179245 0.0178455 0.00544278 0.00511208 0.00630216 0.0180946 0.0124362 0.00370875 0.00401012 0.00344406 0.00342932 0.00274587 0.00312517 0.00258034 0.00193465 0.00180132 0.00173928 0.00148488 0.00131819 0.00128685 0.00127142 0.000798862 0.000755006 0.000724229 0.00061955 0.000601517 0.000150299 0.000648187 0.000130416
threshold=0.0015695797147194893 0.0086502711025566257 0.088392499367807159 0.0042542918614934958 0.03633585952630377 0.007605084218084813 0.005131195848927704 0.0058812834322452554 0.00030040187805420064 -0.0054895508962685075 0.0058896213304251441 -0.0034027415226306492 -0.00086342206567822303 3.7777354009449489e-05 -0.046749328437587695 -0.0011477669438375734 0.0014006295526371919 -0.0065141486516132451 0.017742144406049081 0.0034230670698996162 -0.023443661036116229 -0.0015034531243145464 0.0034757278284856517 -0.01586603187024593 0.006960390055492518 -0.005025640844935981 -0.035077082405708712 -0.011708136924605215 0.013819749215827124
decision_type=4 4 4 6 6 6 6 6 6 6 6 6 4 4 6 6 6 6 6 6 6 6 6 6 6 4 6 6 6
left_child=3 7 26 4 11 10 -7 8 24 17 -6 22 -13 -4 20 23 -11 -9 -17 -10 28 -22 -1 -16 -2 -15 -3 -28 -5
right_child=1 2 13 14 5 6 -8 9 19 16 -12 12 -14 25 15 18 -18 -19 -20 -21 21 -23 -24 -25 -26 -27 27 -29 -30
leaf_value=-8.2408430458134253e-06 1.4221521447335125e-05 0.00011715181740622099 0 0 2.0482863245546824e-05 0.00023880766924003942 0 0 -3.8568410523454698e-07 -5.7235704557771661e-06 -1.4461564211439704e-05 -5.7791258223368179e-07 -6.9489649100464833e-06 0 -4.8209017493718417e-06 -4.0437815679489682e-06 1.3239460100229276e-05 -4.120788092981997e-05 1.5208257724084411e-05 1.3942474962786713e-05 0 3.2430058642073707e-05 -2.1695923006490457e-05 1.4377895824870479e-05 3.1373327020408107e-05 0.00030075986902339242 0 4.4282622758838646e-05 0.0001315004704682858
leaf_weight=13596 39667 258 56 57 6148 535 240 822 28291 10734 3865 126355 169765 55 748 18941 7008 2773 3791 6572 997 1430 11345 14775 3861 150 920 7664 188
leaf_count=13596 39667 258 56 57 6148 535 240 822 28291 10734 3865 126355 169765 55 748 18941 7008 2773 3791 6572 997 1430 11345 14775 3861 150 920 7664 188
internal_value=0 1.07362e-05 5.12015e-05 -3.10217e-06 -4.36355e-06 1.78798e-05 0.000158142 6.89121e-06 9.96383e-06 -3.69436e-06 5.49643e-06 -5.15778e-06 -4.2811e-06 0.000203447 6.75873e-06 4.5725e-06 9.22022e-07 -3.06351e-05 -1.72272e-07 1.88572e-06 3.24226e-05 1.80009e-05 -1.49638e-05 1.24861e-05 1.60889e-05 0.0002526 4.49664e-05 4.1023e-05 0.000113255
internal_weight=0 108831 9103 372776 331849 10788 775 99728 78391 21337 10013 321061 296120 261 40927 38255 17742 3595 22732 34863 2672 2427 24941 15523 43528 205 8842 8584 245
internal_count=481607 108831 9103 372776 331849 10788 775 99728 78391 21337 10013 321061 296120 261 40927 38255 17742 3595 22732 34863 2672 2427 24941 15523 43528 205 8842 8584 245
is_linear=0
shrinkage=0.03


Tree=2
num_leaves=31
num_cat=0
split_feature=36 128 164 66 93 106 38 98 64 91 11 147 32 106 64 64 18 112 106 50 108 64 4 98 38 38 157 98 107 54
split_gain=0.0193332 0.00613319 0.00405748 0.00915035 0.00257321 0.00342122 0.00228198 0.00222466 0.0140484 0.0199765 0.0123485 0.00964329 0.00388089 0.00413346 0.0051548 0.0026946 0.00218942 0.00206586 0.00165054 0.00161162 0.00146673 0.00150249 0.00131901 0.00103989 0.000896155 0.000754842 0.000618802 0.000558786 0.000388168 4.96256e-05
threshold=0.0029148752593426528 0.0076609777795120333 -0.0052601421635943254 0.0022370289866298905 0.0056604286655783662 0.00048491668355263984 -0.00028427806724385789 -0.002309951943520384 0.048683391290662049 0.008724965155124666 -0.0051185730844736091 -0.024483420886099335 0.00056567767944157808 0.00048491668355263984 -0.051579013178324348 0.035093897293549718 0.0036090964873619932 -0.0051928245051722144 0.00067316613149814169 -0.015843105672574877 -0.0071688552362923173 -0.028894985215253636 -0.0037176885066459854 0.0018188586469095917 -0.013521904368533745 0.015870462789899741 -0.019615276716649529 -0.00037388524605150861 0.0036713005974888806 0.0022416330738629872
decision_type=6 6 6 6 6 6 6 6 6 6 6 6 6 6 6 6 6 6 6 6 6 6 6 6 6 6 6 6 6 6
left_child=7 4 3 29 5 22 -5 8 20 10 -10 -11 13 14 -9 -15 25 -6 27 -7 26 -22 -2 -19 -18 -4 -1 -14 -20 -3
right_child=1 2 16 6 17 19 -8 12 9 11 -12 -13 18 15 -16 -17 24 23 28 -21 21 -23 -24 -25 -26 -27 -28 -29 -30 -31
leaf_value=-6.1779407393839115e-05 1.1638531786935647e-06 0 1.8165428457197448e-05 0 5.0326263397649895e-05 2.0095764967809183e-05 9.2198657844130705e-05 3.1495665573727258e-05 0.00012541129760812905 0.00037104563744811097 -8.8895944902320791e-06 0 -6.1805099632378936e-06 -6.138909515582904e-06 2.59526955559945e-06 1.9253715560110924e-05 0 6.9923120996898837e-06 -6.8341177309903425e-06 -3.8600486855547682e-06 0 -1.3361091180628516e-05 1.4032659919102254e-05 2.7859486010980198e-05 2.9973066058479808e-05 -3.370228121957205e-06 -1.4285931568122011e-05 -5.0003844040622004e-07 -1.4310565346228364e-05 7.0018818506210884e-06
leaf_weight=1034 12911 1344 1911 485 1923 2616 2807 6063 750 244 2634 196 34373 73437 97835 3714 321 12167 24043 33384 9177 44756 30192 4016 7008 4514 2018 40397 23993 909
leaf_count=1034 12911 1344 1911 485 1923 2616 2807 6063 750 244 2634 196 34373 73437 97835 3714 321 12167 24043 33384 9177 44756 30192 4016 7008 4514 2018 40397 23993 909
internal_value=0 1.06523e-05 2.6409e-05 4.94955e-05 7.3693e-06 4.77176e-06 8.13972e-05 -3.38537e-06 -8.71245e-06 4.61035e-05 1.65022e-05 0.000238723 -2.26988e-06 4.45433e-07 4.4267e-06 -4.72164e-06 1.60053e-05 1.78875e-05 -6.39506e-06 -1.7016e-06 -1.26556e-05 -1.10938e-05 1.05262e-05 1.31003e-05 2.73684e-05 7.04919e-07 -3.5318e-05 -3.31215e-06 -1.08811e-05 0
internal_weight=0 116508 19299 5545 97209 79103 3292 364664 60809 3824 3384 440 303855 181049 103898 77151 13754 18106 122806 36000 56985 53933 43103 16183 7329 6425 3052 74770 48036 2253
internal_count=481172 116508 19299 5545 97209 79103 3292 364664 60809 3824 3384 440 303855 181049 103898 77151 13754 18106 122806 36000 56985 53933 43103 16183 7329 6425 3052 74770 48036 2253
is_linear=0
shrinkage=0.03


Tree=3
num_leaves=31
num_cat=0
split_feature=38 36 98 107 91 18 80 84 98 153 106 160 106 106 8 64 35 12 18 45 48 12 64 173 171 160 160 75 3 61
split_gain=0.0111731 0.0127927 0.00587249 0.0115032 0.0106091 0.0101969 0.00704376 0.00536196 0.0049471 0.00296009 0.00295868 0.00239631 0.00228232 0.0022333 0.00205352 0.00517892 0.00265584 0.00191526 0.00338302 0.00156891 0.00155392 0.00208475 0.00321021 0.0017613 0.00138778 0.00168561 0.00145292 0.00126426 0.00117858 0.0005736
threshold=0.011439870786206468 0.0051578454469029004 0.0017436061590374561 0.02161358576267958 0.018246030434966091 -0.0017021596378416315 0.022937434911508386 0.005279855263846011 -0.00038166994476733078 -0.027021446265280243 -0.00046796515280827047 -0.011058221036309433 0.0016470320048449017 -0.0036004230332731561 -0.012501332155997432 0.085830756985141046 -0.053423177450895303 -0.0027927067906000601 -0.029556611041450732 -0.017546574585139748 -0.0025621600609376906 -0.0059878751458124057 0.030260019472157739 0.0077727707102894792 0.0012371912598609926 0.018911615113311613 -0.0083146662173899204 -0.011067464016377924 0.00055446746409870695 -0.0008125327294692396
decision_type=6 6 6 6 6 6 6 6 6 6 6 6 6 4 6 6 6 4 6 6 6 6 6 6 6 6 6 6 6 6
left_child=2 20 3 8 6 -6 -5 24 13 19 14 -11 -10 -1 16 -16 -4 18 -12 -9 21 22 -2 28 25 -3 -26 -19 -22 -23
right_child=1 7 10 4 5 -7 -8 9 12 11 17 -13 -14 -15 15 -17 -18 27 -20 -21 23 29 -24 -25 26 -27 -28 -29 -30 -31
leaf_value=-6.789403951729246e-07 0 2.8686247647427141e-06 6.1868051358576542e-05 1.4627342175792535e-05 0.00050895359365373156 0 0.00017410511954013138 0.00010637141840472795 1.647915760221523e-06 6.393442609291494e-05 -5.8642823634279138e-05 3.0314892422006009e-05 -6.663973687090608e-06 -9.4608887516051719e-06 1.1605216825836137e-05 -0.000110076883387228 5.8132766812281004e-06 1.7121446200484551e-05 -1.9454550434055102e-06 -2.9181790577019769e-06 2.6916141232482802e-05 3.9889293158370182e-06 -8.8799365345735613e-05 -1.2431580135721948e-05 5.556297751244937e-05 -4.2611998119169166e-05 4.2965184749783944e-06 9.956982165766282e-07 3.5192925142040647e-06 -9.3601505055494856e-06
leaf_weight=36321 979 6310 1929 3838 89 109 303 121 115045 3530 1048 15841 39746 145794 20274 298 2406 7603 19358 2381 2589 3496 740 4864 925 805 2984 15786 20104 6313
leaf_count=36321 979 6310 1929 3838 89 109 303 121 115045 3530 1048 15841 39746 145794 20274 298 2406 7603 19358 2381 2589 3496 740 4864 925 805 2984 15786 20104 6313
internal_value=0 1.06793e-05 -2.13184e-06 -3.76966e-06 4.4443e-05 0.00026828 2.99954e-05 2.44773e-05 -4.43537e-06 3.32446e-05 5.78481e-06 3.72217e-05 -3.895e-07 -7.79181e-06 1.40813e-05 9.10296e-06 3.42323e-05 7.23559e-07 -5.59775e-06 0 -5.51172e-07 -1.01084e-05 -4.14841e-05 2.9031e-06 5.71877e-06 -1.80009e-07 2.02854e-05 6.87994e-06 6.85167e-06 -3.0737e-06
internal_weight=0 71982 409947 341245 4339 198 4141 32897 336906 21873 68702 19371 154791 182115 24907 20572 4335 43795 20406 2502 39085 11528 1719 27557 11024 7115 3909 23389 22693 9809
internal_count=481929 71982 409947 341245 4339 198 4141 32897 336906 21873 68702 19371 154791 182115 24907 20572 4335 43795 20406 2502 39085 11528 1719 27557 11024 7115 3909 23389 22693 9809
is_linear=0
shrinkage=0.03


Tree=4
num_leaves=29
num_cat=0
split_feature=37 36 90 166 26 6 98 61 38 2 173 23 106 50 8 152 98 161 160 49 157 172 60 173 30 32 72 150
split_gain=0.0157644 0.00829327 0.00468722 0.00482019 0.0132641 0.00407652 0.00390809 0.00455415 0.00381102 0.00362954 0.00369393 0.0026617 0.00276279 0.00327186 0.00214363 0.00200347 0.00173825 0.00165445 0.00167895 0.00141283 0.00104131 0.000906913 0.0012718 0.000797705 0.000501067 0.00026946 0.000217346 6.52487e-07
threshold=0.016854617744684223 0.002158680991273271 -0.0029713160684356455 0.12608015321092567 0.026168173687486793 0.013512576735262556 0.0009376179924367006 0.012206730898469688 0.0039768016866132154 0.044058503744393913 -0.019972132518887516 -0.11183021962642668 -0.00014792258937114234 -0.020976471288335772 -0.0011873436615471068 -0.0053438643274125279 0.0039665607518585303 0.015209912788122894 -0.012746826813357976 -0.012648729141801594 0.021289853379130367 -0.00052271806856113922 0.0002011150746122909 -0.011686941143125294 0.0018848920598331354 0.015118184212364503 -0.00016199407513915496 0.010546208046446201
decision_type=6 4 6 4 6 6 6 4 6 6 6 6 6 6 6 6 4 6 6 6 6 6 6 6 6 6 6 6
left_child=1 2 3 20 -5 8 7 -4 23 21 15 19 16 -14 -8 -11 -13 18 -10 -3 -1 22 -7 -2 -25 -19 -21 -23
right_child=5 11 6 4 -6 9 14 -9 17 10 -12 12 13 -15 -16 -17 -18 25 -20 26 -22 27 -24 24 -26 -27 -28 -29
leaf_value=-1.439341053118998e-05 0 0.00010346102032862216 -5.2613350623716368e-06 -0.00028364146084707909 4.3997311407757788e-05 0 7.9624417547015422e-06 1.4388414161810645e-05 5.5491827819753936e-05 0 0 7.9839015524457329e-06 3.1646658188581682e-05 -9.794396144026744e-07 -1.9266272957375378e-06 0.00026015369359712082 3.1766003908707593e-05 1.2039000792786292e-05 2.1013095256732586e-05 0 0 9.0689699311783557e-07 5.3924146090646518e-05 0 -3.1782552462224299e-05 -2.6752380343958328e-06 1.8940535034204229e-05 0
leaf_weight=30801 1002 403 214219 216 95 111 43546 10799 2377 61 130 54238 2887 59198 32503 218 3481 1582 11360 82 5089 712 2247 324 1502 1805 1150 68
leaf_count=30801 1002 403 214219 216 95 111 43546 10799 2377 61 130 54238 2887 59198 32503 218 3481 1582 11360 82 5089 712 2247 324 1502 1805 1150 68
internal_value=0 -1.07202e-06 -3.51994e-06 -1.38003e-05 -0.000135994 2.41165e-05 -2.23389e-06 -4.25153e-06 1.77164e-05 5.58602e-05 0.000154116 5.60291e-06 4.94243e-06 2.97073e-07 3.53872e-06 0.000215803 9.67911e-06 2.33564e-05 2.80782e-05 4.47713e-05 -1.23161e-05 3.81867e-05 4.78125e-05 -1.11263e-05 -2.41743e-05 0 1.32811e-05 0
internal_weight=0 458707 337268 36201 311 23499 301067 225018 19952 3547 409 121439 119804 62085 76049 279 57719 17124 13737 1635 35890 3138 2358 2828 1826 3387 1232 780
internal_count=482206 458707 337268 36201 311 23499 301067 225018 19952 3547 409 121439 119804 62085 76049 279 57719 17124 13737 1635 35890 3138 2358 2828 1826 3387 1232 780
is_linear=0
shrinkage=0.03


Tree=5
num_leaves=30
num_cat=0
split_feature=12 107 172 96 10 98 106 98 61 152 167 88 98 98 167 107 114 125 52 136 137 72 141 142 14 142 106 116 54
split_gain=0.0114369 0.00930442 0.012729 0.00867861 0.00708466 0.00962253 0.00458731 0.00920761 0.00683083 0.00705292 0.00726389 0.0051633 0.0041366 0.00472844 0.00273182 0.00472171 0.00450855 0.00221936 0.00211657 0.00231466 0.00185649 0.00173864 0.00157355 0.0013652 0.00095029 0.000942038 0.00190092 0.000788596 0.000626153
threshold=0.0078658339858594974 0.020596131682395939 0.01038876576292638 -0.0041293271496853903 -0.0029391433397290335 -0.0018380306537829078 0.003344026811199829 0.00022555794339724266 0.012424097862094642 -0.015542430091972387 0.012883328832685949 0.0051651308197503886 -0.0019756327792486549 0.0029812936089875157 0.12115888670086862 0.0018548473017290237 -0.057897952281133751 -0.0051890108734369269 -0.011123111426558193 -0.0011421501210441226 0.08039110898971559 -0.0018924337359535199 0.0058266317937523135 -0.0074589354205843658 0.0030194540287036501 0.0063525545733530411 -0.0034257028310550434 -0.0021480060415972608 0.0061923203895741285
decision_type=6 6 6 6 6 6 6 4 6 6 6 4 6 6 6 6 6 6 6 4 6 6 6 6 6 4 6 4 6
left_child=6 12 4 -4 5 -3 7 25 11 21 -11 22 18 24 16 -16 -9 -13 19 -2 -6 -10 -8 -20 -14 26 -1 -27 -15
right_child=1 2 3 -5 20 -7 8 14 9 10 -12 17 13 28 15 -17 -18 -19 23 -21 -22 -23 -24 -25 -26 27 -28 -29 -30
leaf_value=2.4723150379807632e-06 0 0.00024262463596339025 0 0.00050764614293637514 1.4750740361502383e-05 0 -1.5408156346963925e-05 8.3850261623816028e-05 0 -8.0345397731721172e-06 2.6670280300545721e-05 -7.1107513550204188e-05 -1.5146639652217402e-06 1.8244254749609313e-06 0 -0.00012219590544549659 5.1625245298675223e-06 -1.7166666692726712e-05 -2.5757252774411216e-05 4.4090036872880644e-05 -8.4579879078607425e-05 -5.2262680015348612e-05 0 0 1.3791345050628143e-05 -2.0250173909146243e-06 -4.9300659933986173e-06 -1.4966688471081181e-05 4.8090922080496364e-05
leaf_weight=36359 2090 313 57 108 674 369 27618 683 901 9408 11437 2304 2795 1013 953 399 164615 2326 2801 1725 211 2191 8572 7303 12852 10373 151653 14203 5260
leaf_count=36359 2090 313 57 108 674 369 27618 683 901 9408 11437 2304 2795 1013 953 399 164615 2326 2801 1725 211 2191 8572 7303 12852 10373 151653 14203 5260
internal_value=0 1.58508e-05 8.52001e-05 0.000350677 4.72747e-05 0.000120202 -1.38615e-06 -8.60142e-08 -8.76831e-06 3.44484e-06 1.02881e-05 -1.62974e-05 1.20763e-05 2.02054e-05 5.15304e-06 -3.58287e-05 5.57941e-06 -4.72664e-05 0 1.82692e-05 0 -3.78185e-05 -1.19185e-05 -7.90137e-06 1.00989e-05 -4.26353e-06 -3.41875e-06 -1.01152e-05 4.30129e-05
internal_weight=0 37571 1732 165 1567 682 443995 379238 64757 23937 20845 40820 35839 21920 166650 1352 165298 4630 13919 3815 885 3092 36190 10104 15647 212588 188012 24576 6273
internal_count=481566 37571 1732 165 1567 682 443995 379238 64757 23937 20845 40820 35839 21920 166650 1352 165298 4630 13919 3815 885 3092 36190 10104 15647 212588 188012 24576 6273
is_linear=0
shrinkage=0.03


Tree=6
num_leaves=30
num_cat=0
split_feature=36 84 107 38 106 115 90 61 147 48 141 106 131 33 98 131 43 8 153 8 134 147 161 173 57 78 95 173 13
split_gain=0.0133914 0.00901368 0.00447805 0.00408965 0.00370961 0.00528639 0.00514977 0.00489111 0.0128759 0.00242622 0.00235111 0.00354635 0.00346198 0.0047122 0.00223747 0.00220395 0.00217204 0.00204423 0.00189261 0.00181212 0.00156455 0.0012865 0.000920857 0.00227373 0.000902055 0.00075267 0.000688671 0.000474003 4.58462e-05
threshold=0.000553659599160251 0.0080616717387576916 0.012107565067708494 3.2930571765495699e-05 -0.00084977502516461647 -0.016028690151870247 -0.0030808248381909362 0.013195273932069542 -0.025542167946696278 -0.0050600510260496454 -0.050300125032663338 0.00070974857487185168 -0.013259903062134979 0.033316576853394515 -0.0011619136469414124 -0.018020393326878544 -0.015581310261040924 0.01186382645399984 -0.025169923901557919 0.0015590478173315625 0.0028705529207282655 0.00086158362682908784 -0.031417557969689362 0.0027934012468904261 -0.0061456668190658084 0.0057446074698857289 -0.017006377689540383 0.0012126389192417266 -0.0111592561006546
decision_type=4 4 4 6 4 6 6 4 6 6 6 6 6 6 6 6 6 6 6 6 6 4 6 6 6 6 6 6 6
left_child=4 10 3 27 5 9 16 19 -9 14 12 17 -2 -14 -1 -13 21 -12 24 -8 -5 -6 23 -4 -7 -20 -18 -3 -11
right_child=1 2 22 20 6 18 7 8 -10 28 11 15 13 -15 -16 -17 26 -19 25 -21 -22 -23 -24 -25 -26 -27 -28 -29 -30
leaf_value=0 0 0 0.00011848312328526338 1.4383806907137979e-05 -1.7075001953991221e-05 0 -4.5223205983986529e-06 0.00010298165837919359 0 -2.7257797673327008e-06 4.4208437267950612e-06 1.4296445726881131e-05 5.774738166199675e-06 0.00024245614143537044 2.904486321786263e-05 -3.6309503152540827e-06 -5.4404784603859513e-05 1.6866266799193097e-05 -9.4453380070472572e-07 -1.2921090585336806e-05 3.6754646741519138e-05 -6.5921417077175471e-05 3.5459618079071912e-05 0 -2.0028466493640051e-05 -1.5569572050131341e-05 -1.1732075285414789e-05 -1.5832505660917527e-05 1.8265130049169345e-06
leaf_weight=4428 314 3267 734 11761 2057 2792 93480 1319 4877 2288 97698 6516 435 165 9142 72431 616 15087 72291 36142 6480 2069 2523 158 8748 3577 10559 2134 7266
leaf_count=4428 314 3267 734 11761 2057 2792 93480 1319 4877 2288 97698 6516 435 165 9142 72431 616 15087 72291 36142 6480 2069 2523 158 8748 3577 10559 2134 7266
internal_value=0 5.45278e-06 2.17597e-05 1.62067e-05 -4.59304e-06 -2.74139e-07 -7.65268e-06 -5.64921e-06 1.97645e-05 1.23314e-05 3.08443e-06 2.77257e-06 5.19795e-05 9.63683e-05 2.04938e-05 -1.96097e-06 -2.44531e-05 6.2189e-06 -3.78077e-06 -6.98e-06 2.31563e-05 -4.5223e-05 5.57806e-05 9.62716e-05 -1.52894e-05 -1.83217e-06 -1.54357e-05 -4.48793e-06 0
internal_weight=0 219703 27057 23642 261651 110532 151119 135818 6196 23124 192646 191732 914 600 13570 78947 15301 112785 87408 129622 18241 4126 3415 892 11540 75868 11175 5401 9554
internal_count=481354 219703 27057 23642 261651 110532 151119 135818 6196 23124 192646 191732 914 600 13570 78947 15301 112785 87408 129622 18241 4126 3415 892 11540 75868 11175 5401 9554
is_linear=0
shrinkage=0.03


Tree=7
num_leaves=29
num_cat=0
split_feature=98 24 6 107 47 97 106 106 167 47 93 106 42 138 93 107 160 53 0 36 83 18 93 18 124 53 170 18
split_gain=0.0119385 0.0158864 0.00530511 0.013709 0.0217391 0.0157216 0.0045805 0.00404233 0.00368332 0.00330433 0.00305902 0.00293394 0.00321593 0.00241406 0.0023718 0.00199174 0.00396306 0.000884202 0.000874936 0.000874842 0.000686565 0.000667011 0.000251371 0.000161427 0.0001533 0.000111925 8.17783e-05 6.81853e-05
threshold=0.00096717325296479082 0.0088827667515497966 0.010741448411022805 0.018249916844069961 0.071365576237440123 0.004715793766081334 -0.00075900881891391588 -0.00099012886889549901 0.055375928059220321 -0.00055334376520477224 0.0011043124832212927 0.0012193551206230184 -0.0081935485360520328 -0.0046601316976216381 -0.0046387612819671622 0.012346252333372833 0.00061528252511169478 -0.012994278222322462 0.0026848723432220671 0.0092331763621669467 -0.055512541905045502 0.00087718778518203644 -0.003247557557187974 0.0016391415644919454 0.0043701078646579137 0.034119687974452979 -0.016459521350508034 -0.0042614906094515818
decision_type=4 4 6 6 6 6 6 6 6 6 6 6 6 6 6 4 6 6 6 6 6 6 6 4 6 6 6 6
left_child=2 6 3 7 9 -6 8 18 21 -5 22 25 -13 17 -9 27 23 -12 -1 -10 -15 -2 24 -17 -4 -8 -24 -3
right_child=1 15 10 4 5 -7 11 14 19 -11 13 12 -14 20 -16 16 -18 -19 -20 -21 -22 -23 26 -25 -26 -27 -28 -29
leaf_value=-2.1883228593690526e-06 1.0665810910376505e-05 2.0694919960633119e-06 -1.1900459622242887e-05 3.5892786944626225e-05 8.1938365395505127e-05 0.00041856390783156621 7.9753802407334808e-06 -1.5669152369517423e-05 -2.3029209828223135e-05 -5.7603196955128587e-06 0.00013911288249617479 -1.6531916168107485e-05 0 4.7781281461732307e-05 -5.8821194331406825e-06 0 0 2.6499043656396235e-05 3.0665115451799497e-06 5.6067434440133608e-06 0 2.1057650665635322e-05 0 0.00013328861541892807 0 7.4579347396946029e-07 1.7439528102586523e-05 3.6172184764641634e-05
leaf_weight=98928 27983 1023 1017 3020 791 211 29629 29370 3102 2841 461 13725 43013 298 152782 226 528 592 38669 329 828 14521 100 792 362 7225 963 8186
leaf_count=98928 27983 1023 1017 3020 791 211 29629 29370 3102 2841 461 13725 43013 298 152782 226 528 592 38669 329 828 14521 100 792 362 7225 963 8186
internal_value=0 7.02654e-06 -3.16822e-06 -3.66062e-06 3.80514e-05 0.000168457 4.19863e-06 -4.60306e-06 1.19659e-05 1.31488e-05 2.83771e-05 2.26026e-07 -3.88709e-06 5.44904e-05 -7.54267e-06 4.23116e-05 8.19421e-05 9.01893e-05 -6.02517e-07 -1.59123e-05 7.70736e-06 1.45698e-05 0 0.000116992 -2.14291e-06 6.96517e-06 1.43691e-05 3.40136e-05
internal_weight=0 150282 331233 326612 6863 1002 139527 319749 45935 5861 4621 93592 56738 2179 182152 10755 1546 1053 137597 3431 1126 42504 2442 1018 1379 36854 1063 9209
internal_count=481515 150282 331233 326612 6863 1002 139527 319749 45935 5861 4621 93592 56738 2179 182152 10755 1546 1053 137597 3431 1126 42504 2442 1018 1379 36854 1063 9209
is_linear=0
shrinkage=0.03


Tree=8
num_leaves=31
num_cat=0
split_feature=128 48 98 36 106 163 59 117 84 68 142 106 36 61 17 108 59 109 106 42 91 36 152 21 141 18 92 123 158 78
split_gain=0.0116085 0.00741415 0.00607567 0.0063205 0.00543827 0.00504525 0.00832635 0.00492555 0.00361603 0.00336386 0.0133837 0.00315548 0.00295669 0.00275786 0.00270653 0.00276977 0.00246082 0.0022661 0.00218885 0.00346581 0.00345967 0.0016178 0.00115604 0.0010686 0.000982014 0.000842673 0.000802413 0.000673203 0.000618148 0.00043432
threshold=0.0052209082525338764 0.0013108340476084112 -0.00022188341740525926 0.016222305917506816 0.0014817457988033126 0.035536631941795356 0.00015084797632880512 -0.017114261165261265 0.0061759401611849391 -0.0039798924289933786 -0.012091543746213053 0.000684742017970043 0.0028692557803130779 -0.013918402604758738 -0.02935004141181707 0.0044021724235409005 -0.0078833075240254385 -0.001507412700448185 0.00084170936786727251 0.011162236250892308 0.0031908469973132019 -0.00043430416170248679 -0.01878860845459852 -0.025491049513220784 -0.0060008168220520011 -0.0065446078746966537 -0.00030699881633949048 -0.0044260649010539046 -0.019770023220608807 0.0014023903547359755
decision_type=6 4 6 6 6 6 6 6 6 6 6 6 6 6 6 6 6 6 6 6 6 6 6 4 6 6 6 6 6 6
left_child=2 4 18 11 14 26 -7 9 29 -3 -11 12 -4 17 15 -2 -15 -6 21 25 -21 23 -10 -1 -16 -20 -5 -13 -23 -9
right_child=1 7 3 5 13 6 -8 8 22 10 -12 27 -14 16 24 -17 -18 -19 19 20 -22 28 -24 -25 -26 -27 -28 -29 -30 -31
leaf_value=1.2106355273601363e-06 4.1452978724261943e-05 0 1.479411000885645e-06 0 0 0 0.00052243019776670411 7.6142336759802324e-07 0 0.00027667863355846717 4.0023030061204698e-05 -6.8830121386844778e-06 1.2856368710722827e-05 1.2889096516737512e-05 -5.7553985232691594e-07 0 -1.1759379400499646e-05 -5.1481297008248762e-05 -2.5547691686204743e-05 0 5.614512801375476e-05 -1.1120274002385948e-05 3.8200333454726356e-05 -7.9246388670162613e-06 1.153014409433736e-05 -1.0775791934024838e-05 4.8285648966842168e-05 -8.3854883431844945e-07 5.9218242442522621e-07 1.3744825348773515e-05
leaf_weight=10700 4779 706 86731 565 806 128 60 7023 433 308 1592 29686 28713 5297 7578 1284 10319 2181 5725 3999 1214 4307 7794 64523 12315 53426 788 53664 66955 8224
leaf_count=10700 4779 706 86731 565 806 128 60 7023 433 308 1592 29686 28713 5297 7578 1284 10319 2181 5725 3999 1214 4307 7794 64523 12315 53426 788 53664 66955 8224
internal_value=0 1.11991e-05 -1.96509e-06 1.71918e-06 3.3677e-06 6.23952e-05 0.00022276 2.40032e-05 1.87449e-05 6.55656e-05 8.65232e-05 1.17276e-06 4.43917e-06 -8.53999e-06 1.24799e-05 3.07173e-05 -2.43752e-06 -3.54022e-05 -5.53677e-06 -1.02661e-05 1.17457e-05 -3.35625e-06 3.54407e-05 -6.4258e-06 6.16508e-06 -1.24599e-05 2.87465e-05 -3.17142e-06 0 8.74903e-06
internal_weight=0 70639 411184 200335 44559 1541 188 26080 23474 2606 1900 198794 115444 18603 25956 6063 15616 2987 210849 64364 5213 146485 8227 75223 19893 59151 1353 83350 71262 15247
internal_count=481823 70639 411184 200335 44559 1541 188 26080 23474 2606 1900 198794 115444 18603 25956 6063 15616 2987 210849 64364 5213 146485 8227 75223 19893 59151 1353 83350 71262 15247
is_linear=0
shrinkage=0.03


Tree=9
num_leaves=31
num_cat=0
split_feature=60 111 98 63 77 24 77 120 167 170 119 158 106 33 98 96 42 152 10 120 36 134 19 107 135 68 68 162 50 163
split_gain=0.0239483 0.01326 0.0121521 0.00878553 0.00624366 0.00582133 0.00557315 0.00830585 0.00540473 0.00573061 0.00534478 0.00458643 0.00438807 0.00429845 0.00347376 0.00185129 0.00149699 0.00122944 0.00123621 0.00107608 0.00104877 0.000848257 0.000793681 0.000571779 0.000395456 0.000210208 0.000179594 0.000134084 0.00012698 0.00010951
threshold=0.015089977324226693 -0.002869530580937862 0.0014874695430506769 -0.0061492954846471539 1.0000000180025095e-35 0.0043031390653858392 0.07818173244595529 -0.014059172853927302 0.016648089513182644 -0.013891657126605573 0.0078418548218905943 0.0089719209587443092 -0.0016744042639273056 -0.025603835470974442 -0.00038166994476733078 -0.00014936562835639233 -0.0063283911800512864 -0.0033179736304067985 -0.0073138802167730466 0.0021086240640822711 -0.00046851907871032133 0.0041373512893758246 -0.0060971209313720456 0.02161358576267958 0.0054993135854601869 0.0054339181773343992 0.022396973759220458 0.016101776607839176 0.0026641249637351923 0.013770829886198046
decision_type=6 6 4 6 6 4 6 6 6 6 6 6 6 6 6 6 6 6 6 6 6 4 4 6 6 6 6 6 4 6
left_child=2 3 12 24 13 8 7 -5 11 -10 -8 -4 17 29 16 19 -14 20 -19 -6 -1 23 -16 -7 27 -17 -15 -2 -23 -3
right_child=1 4 5 6 15 21 10 -9 9 -11 -12 -13 14 26 22 25 -18 18 -20 -21 -22 28 -24 -25 -26 -27 -28 -29 -30 -31
leaf_value=-6.8839193307233559e-06 1.5331946990426654e-05 8.0671856734417581e-05 3.4054884357317847e-06 -5.4206125361915926e-05 -4.6786884275636644e-05 1.8821664711832101e-05 0.00019385477272097269 7.9679311468352419e-05 -4.121531579134219e-05 0 0 2.1308608076867098e-05 -2.0784049860673915e-05 0 -7.1542886845919637e-06 0 -8.5228233728276067e-06 9.9817470833227309e-06 5.41200958157312e-07 0 1.0964013485050735e-06 1.4229725717670029e-05 -9.302066819794496e-07 0 -2.7463390442225942e-05 1.496425707003662e-05 1.684368810558615e-05 0 4.9495060240188691e-05 0
leaf_weight=26594 742 1378 53806 325 1708 13101 797 4171 4069 14705 106 18255 12141 1645 25999 304 108636 19139 47225 576 27665 1646 91984 149 398 868 620 57 2506 189
leaf_count=26594 742 1378 53806 325 1708 13101 797 4171 4069 14705 106 18255 12141 1645 25999 304 108636 19139 47225 576 27665 1646 91984 149 398 868 620 57 2506 189
internal_value=0 3.87602e-05 -1.21668e-06 6.99371e-05 8.47458e-06 7.54857e-06 8.62508e-05 6.66466e-05 4.3e-06 -9.67591e-06 0.000166922 8.14945e-06 -3.89832e-06 3.62159e-05 -6.26091e-06 -1.79503e-05 -9.87989e-06 6.53839e-07 3.49004e-06 -3.48396e-05 -2.53867e-06 2.36412e-05 -2.42899e-06 1.76477e-05 0 2.19014e-06 2.5579e-06 8.22705e-06 3.91392e-05 7.52409e-05
internal_weight=0 13884 467620 6596 7288 108237 5399 4496 90835 18774 903 72061 359383 3832 238760 3456 120777 120623 66364 2284 54259 17402 117983 13250 1197 1172 2265 799 4152 1567
internal_count=481504 13884 467620 6596 7288 108237 5399 4496 90835 18774 903 72061 359383 3832 238760 3456 120777 120623 66364 2284 54259 17402 117983 13250 1197 1172 2265 799 4152 1567
is_linear=0
shrinkage=0.03


Tree=10
num_leaves=30
num_cat=0
split_feature=37 36 173 160 141 164 91 107 98 64 25 106 54 98 100 96 23 162 93 129 131 38 173 47 54 2 93 54 38
split_gain=0.0128992 0.00501813 0.00369314 0.00649831 0.00443451 0.00418934 0.00348775 0.00269311 0.00263535 0.012416 0.00229666 0.00225151 0.00219706 0.00194123 0.00193894 0.00280843 0.00186354 0.00179592 0.00119554 0.000944106 0.000929209 0.000775565 0.00070318 0.000489361 0.000396381 0.000390957 0.000325193 0.00023921 4.53905e-05
threshold=0.014126661233603956 0.002158680991273271 -0.0080689601600170118 -0.0024034891620279327 0.0093503217212855833 -0.0028542374845833989 -0.0091569786891341192 0.0024261516518890862 -0.00067219687979315501 0.0468344108551349 -0.022304133512079712 -0.0002922967064289301 0.0017965209091647166 1.0000000180025095e-35 -0.00078334777932238852 0.00069073148058217614 0.086474604904651656 -0.02519929541739346 -0.0017423231620341537 0.00093201524578034889 0.0029158318648114805 0.010261167837168158 -0.010338652878999708 0.0064414849039167174 -0.00026644718006763789 0.0044638589958700412 0.0029473265167325739 -0.0024079853625696558 0.00041831961678484884
decision_type=6 6 6 6 4 6 6 6 6 6 6 6 4 6 6 6 6 6 6 6 6 6 6 6 6 6 6 6 6
left_child=1 6 3 4 5 -2 14 21 9 -8 20 -10 -6 17 15 -1 -15 -12 23 26 -3 28 -16 -5 -23 -20 -9 -21 -4
right_child=2 10 7 18 12 -7 8 19 11 -11 13 -13 -14 16 22 -17 -18 -19 25 27 -22 24 -24 -25 -26 -27 -28 -29 -30
leaf_value=-3.997592576257561e-05 6.3322196648848506e-05 4.1352888232207153e-05 0 1.0895495462793697e-05 0 3.6853306457246246e-06 -7.9626078047136106e-06 -2.7304903962431955e-05 3.2721526217143454e-06 3.6682370007863499e-05 2.1916748252181937e-05 -3.2985420201247534e-06 0.00010712829162606548 4.8863495067893796e-06 -1.7202940102032888e-05 0 2.8927395662907198e-05 -3.3500821572505082e-06 0 -1.5772639474148904e-05 0 0 3.1225672270577789e-06 -1.2940333859479467e-05 2.5830690308039959e-05 2.3493306628277291e-05 0 5.2054999263398503e-06 5.1454181010406078e-06
leaf_weight=5512 2276 2124 1236 567 274 3114 128344 1646 82964 5762 2602 106665 1641 61453 2114 1650 3404 41924 1175 328 1177 407 3196 2439 6705 3239 1048 5250 1541
leaf_count=5512 2276 2124 1236 567 274 3114 128344 1646 82964 5762 2602 106665 1641 61453 2114 1650 3404 41924 1175 328 1177 407 3196 2439 6705 3239 1048 5250 1541
internal_value=0 -1.49903e-06 1.79613e-05 2.95295e-05 5.00355e-05 3.16638e-05 -3.3595e-06 7.75371e-06 -2.70559e-06 -5.93202e-06 3.91876e-06 -3.44712e-07 9.3833e-05 3.02083e-06 -1.91273e-05 -2.96174e-05 6.38026e-06 -1.53576e-06 7.31226e-06 -3.39616e-06 2.91119e-05 1.85957e-05 -2.14899e-06 -3.4534e-06 2.40605e-05 1.80388e-05 -1.86329e-05 1.27855e-06 0
internal_weight=0 448891 32886 14725 7305 5390 336207 18161 323735 134106 112684 189629 1915 109383 12472 7162 64857 44526 7420 8272 3301 9889 5310 3006 7112 4414 2694 5578 2777
internal_count=481777 448891 32886 14725 7305 5390 336207 18161 323735 134106 112684 189629 1915 109383 12472 7162 64857 44526 7420 8272 3301 9889 5310 3006 7112 4414 2694 5578 2777
is_linear=0
shrinkage=0.03


Tree=11
num_leaves=31
num_cat=0
split_feature=98 136 157 120 40 60 18 38 106 13 116 84 51 173 106 106 66 94 126 120 122 112 75 89 142 94 168 36 91 63
split_gain=0.0070616 0.0215713 0.011525 0.0100136 0.00989898 0.00987299 0.00866327 0.00885438 0.00565462 0.00554917 0.0051043 0.00486976 0.00474785 0.00369631 0.00364668 0.00359226 0.00334697 0.00295724 0.00291719 0.00163983 0.00123215 0.000880313 0.00087121 0.000689713 0.000657934 0.000606214 0.000561356 0.000557048 0.000751232 0.000354448
threshold=-0.00071841942760621994 0.018094337102378989 0.019310912117362026 -0.0024132528982722169 -0.0016538928630431993 0.0076030054321582644 0.0026016877219936581 0.018414098870107521 0.0018326243821520387 -0.031469525769352906 -0.0019630743899021644 0.0062999320425362699 -0.047031290829181664 -0.021609599702060219 0.0014052872101248436 0.0019013805801591378 -0.0083559394598339345 -0.00058908781807946644 -0.0004400951260222413 0.0063475936847064308 0.0025993396149035773 -0.0036681974033247939 -0.018174265511333939 0.0030564980115741496 -0.0022324021752560333 -0.00068172338740820563 -0.028410875503300567 0.0017579331395167423 -0.0068849693052470675 0.034299055114388473
decision_type=6 6 6 6 6 6 6 6 6 6 6 6 4 6 6 6 6 6 6 6 6 6 6 6 6 6 6 6 6 6
left_child=1 15 4 23 10 -5 8 14 12 17 -3 24 16 -13 21 27 -2 -10 -6 26 -14 -8 -11 -4 -9 -16 -17 28 -1 -21
right_child=6 2 3 5 18 -7 7 11 9 22 -12 13 20 -15 25 19 -18 -19 -20 29 -22 -23 -24 -25 -26 -27 -28 -29 -30 -31
leaf_value=-1.5813844976266392e-05 4.7585910872416805e-05 0.00011930673817141504 3.4202470361879371e-05 0 -1.4643959457026702e-05 0.00029596188749805364 2.7896271753155737e-05 1.6994218630188776e-05 -8.5702040985502319e-05 0 1.7850847947693283e-05 9.3828479013804977e-05 0 3.4305320559485631e-05 -8.4536815863751237e-06 0 6.8900183170597111e-06 -1.886045669572344e-06 4.6820177612529626e-05 0 6.5333353968735593e-06 9.3161062013317409e-06 -7.7551853145061629e-06 -5.6305384482498685e-05 0 5.6503555618298877e-07 -1.9985279074128951e-05 -1.0379138488789994e-06 -5.1557869259657909e-06 2.7018233499277081e-05
leaf_weight=8192 3485 1240 385 225 3409 437 3563 4188 1292 13363 1357 1647 122535 6988 11418 808 6147 1098 862 2707 31838 38019 47880 51 2415 9716 26405 32937 96593 435
leaf_count=8192 3485 1240 385 225 3409 437 3563 4188 1292 13363 1357 1647 122535 6988 11418 808 6147 1098 862 2707 31838 38019 47880 51 2415 9716 26405 32937 96593 435
internal_value=0 -4.87616e-06 4.30862e-05 0.0001367 2.59011e-05 0.000211021 2.66558e-06 1.13014e-05 -2.25907e-07 -7.87667e-06 7.21194e-05 3.20475e-05 2.65115e-06 4.74143e-05 6.02073e-06 -7.23906e-06 2.31782e-05 -5.35005e-05 0 -1.67983e-05 1.27292e-06 1.12701e-05 -5.8496e-06 0 9.6725e-06 -3.59813e-06 -1.92091e-05 -5.02302e-06 -6.13246e-06 0
internal_weight=0 176043 7966 1098 6868 662 305592 77954 227638 63633 2597 15238 164005 8635 62716 168077 9632 2390 4271 30355 154373 41582 61243 436 6603 21134 27213 137722 104785 3142
internal_count=481635 176043 7966 1098 6868 662 305592 77954 227638 63633 2597 15238 164005 8635 62716 168077 9632 2390 4271 30355 154373 41582 61243 436 6603 21134 27213 137722 104785 3142
is_linear=0
shrinkage=0.03


Tree=12
num_leaves=29
num_cat=0
split_feature=128 36 36 60 99 90 50 56 165 36 162 106 107 157 157 66 171 46 18 90 14 168 24 54 152 43 54 30
split_gain=0.00879286 0.00871404 0.00411217 0.010891 0.00830384 0.00920926 0.00551683 0.00403803 0.00381536 0.00378431 0.00462474 0.00366054 0.00314621 0.00258728 0.00336948 0.00220381 0.00204356 0.00200491 0.00187736 0.00155404 0.00129188 0.00128807 0.000728151 0.000720689 0.000977729 0.000617804 0.000505301 0.00010991
threshold=0.0060897479441732469 0.0090850855745912354 -0.00043430416170248679 0.022035401285993895 -0.0052182245999574653 -0.0019891529979168417 -0.03400013916610959 0.0001286103853005202 -0.0068000415340065947 0.021635438036240243 -0.006358244312091684 0.00092440198212787137 0.025733292102813724 -0.0033882972784340377 -0.023117437027394768 0.0032671869771009571 0.072260081768035903 -0.029549155353113535 0.00061081330100708957 -0.0024322610375459314 -0.012324279413548111 -0.01205255698092769 -0.00053753967946295808 -0.0015582091087166861 -0.0023831004998343059 0.020424408838152889 0.00084062710001329207 0.0036162604670431377
decision_type=6 4 6 6 6 6 6 6 6 6 6 6 6 6 6 6 6 6 6 6 6 6 6 4 4 6 6 6
left_child=2 11 3 7 5 -5 17 19 23 12 -11 15 -8 14 -13 20 -15 22 27 -1 -2 -9 -4 -3 -25 -17 -20 -10
right_child=1 8 6 4 -6 -7 9 21 18 10 -12 13 -14 16 -16 25 -18 -19 26 -21 -22 -23 -24 24 -26 -27 -28 -29
leaf_value=-1.0318232959894161e-05 3.1560604170892131e-05 0 0 1.1020601911951513e-05 0 0.00041785348633408269 8.535500590620924e-08 -1.9920097482037585e-05 -2.2620819498952378e-05 0 0.00014852296633916946 -3.4486473906995374e-05 3.2621328436129494e-05 2.7638773561893457e-06 0 0 7.4736790611185403e-05 0 0 -4.0436645833161258e-07 1.1214961129137752e-05 -8.4344342342821996e-06 8.8278056639167488e-05 2.9730294388714633e-05 8.3507677211691942e-05 -3.2013105550553778e-05 2.7571917407115171e-05 0
leaf_weight=17116 5627 150 209 215 320 139 228917 14822 468 358 345 4258 2719 9414 7947 4297 408 669 232 108464 14574 48379 981 1703 2118 569 5843 362
leaf_count=17116 5627 150 209 215 320 139 228917 14822 468 358 345 4258 2719 9414 7947 4297 408 669 232 108464 14574 48379 981 1703 2118 569 5843 362
internal_value=0 1.11316e-05 -1.32196e-06 -4.62562e-06 0.000114635 0.000214351 1.28651e-06 -5.13208e-06 3.55778e-05 8.08815e-07 7.03813e-05 5.16617e-06 5.32305e-07 -3.21866e-06 -1.29082e-05 1.31321e-05 7.29507e-06 5.28641e-05 1.87977e-05 -1.87517e-06 1.76273e-05 -1.13659e-05 7.66606e-05 6.09563e-05 6.34911e-05 -2.44747e-06 2.56194e-05 -1.30449e-05
internal_weight=0 57970 423653 189455 674 354 234198 188781 10876 232339 703 47094 231636 22027 12205 25067 9822 1859 6905 125580 20201 63201 1190 3971 3821 4866 6075 830
internal_count=481623 57970 423653 189455 674 354 234198 188781 10876 232339 703 47094 231636 22027 12205 25067 9822 1859 6905 125580 20201 63201 1190 3971 3821 4866 6075 830
is_linear=0
shrinkage=0.03


Tree=13
num_leaves=31
num_cat=0
split_feature=98 84 106 53 48 65 36 157 90 168 152 167 121 106 138 24 90 123 141 116 129 56 167 93 102 48 8 123 116 18
split_gain=0.0114204 0.00699815 0.00433266 0.00303344 0.0146308 0.00267487 0.00213861 0.00321551 0.00463847 0.00510865 0.00295648 0.00234196 0.0209583 0.00316778 0.00189306 0.00141174 0.00287531 0.00121261 0.00118227 0.0010805 0.000892042 0.000880833 0.000861479 0.000633991 0.000618629 0.000360901 0.000303019 0.000169298 8.89847e-05 8.17341e-05
threshold=0.0014874695430506769 0.0043607939439121151 0.00030040187805420064 0.10792067274451257 0.026493833645909261 0.039909677579998977 0.007433123165776173 -0.030345416627824303 -0.0016802261358775281 0.0034689086751142251 -0.011627774990346404 0.11412765830755235 0.0018826704472303393 -0.00063003981510366359 -0.0062869875520200685 0.0021900100162792562 -0.00069744289206790809 -0.036855516955256455 -0.013588170055299996 -0.0095625744987128426 0.00536640314385295 0.0024791477536356913 -0.006956202443689107 -0.0021077764686197038 -0.003341603576936769 -0.00013237203145180431 -0.0025698917529006957 -0.0035707248607650395 0.014858474636349601 0.00017574564305079704
decision_type=6 6 4 6 6 6 6 6 6 6 6 6 6 6 6 6 6 6 6 6 6 6 6 6 6 6 6 6 6 6
left_child=6 2 5 21 22 20 7 8 9 -1 19 13 -13 -9 25 16 -4 -10 -7 23 -2 29 -5 -8 -17 -12 -16 -23 -21 -3
right_child=1 3 15 4 -6 18 10 11 17 -11 14 12 -14 -15 26 24 -18 -19 -20 28 -22 27 -24 -25 -26 -27 -28 -29 -30 -31
leaf_value=-5.1450196071574989e-05 9.9000527373888579e-06 0 -1.4980891747235564e-05 0 0.00047479728791066531 -2.583585748346975e-05 -7.7418372249284359e-05 4.5660545461969665e-07 4.6138614753203907e-05 0 0 -1.6611770344400524e-05 0.00016677501281801558 -5.3452014894345549e-06 0 2.1326594105704538e-05 1.3413342841630352e-06 -5.1906176053462426e-06 7.937347674547716e-07 -7.2682423042654689e-06 2.2026299158047986e-05 1.4019564966779276e-05 5.640089837161957e-05 0 0 3.7149980223405015e-05 8.9385230031861268e-06 2.9384328490014729e-05 0 5.7407672038455048e-06
leaf_weight=4976 21918 209 13781 466 82 1715 397 152340 390 2661 131 2137 715 179146 1599 2952 28446 12302 5558 1514 13836 6118 511 159 4774 3408 5746 9123 203 4072
leaf_count=4976 21918 209 13781 466 82 1715 397 152340 390 2661 131 2137 715 179146 1599 2952 28446 12302 5558 1514 13836 6118 511 159 4774 3408 5746 9123 203 4072
internal_value=0 8.23694e-06 4.53329e-06 2.42383e-05 7.90207e-05 1.15471e-05 -2.6456e-06 -3.11773e-06 -1.48436e-05 -3.35131e-05 8.94017e-06 -2.3598e-06 2.41924e-05 -2.63365e-06 1.62206e-05 -1.20803e-06 -3.63076e-06 -2.42469e-06 -3.42914e-06 -1.93113e-05 1.50131e-05 2.04905e-05 2.95792e-05 -5.71243e-05 1.00901e-05 3.51758e-05 5.03873e-06 2.42034e-05 0 3.76473e-06
internal_weight=0 113561 92980 20581 1059 43027 367824 354667 20329 7637 13157 334338 2852 331486 10884 49953 42227 12692 7273 2273 35754 19522 977 556 7726 3539 7345 15241 1717 4281
internal_count=481385 113561 92980 20581 1059 43027 367824 354667 20329 7637 13157 334338 2852 331486 10884 49953 42227 12692 7273 2273 35754 19522 977 556 7726 3539 7345 15241 1717 4281
is_linear=0
shrinkage=0.03


Tree=14
num_leaves=31
num_cat=0
split_feature=36 77 106 91 128 142 129 172 38 106 57 98 116 60 90 166 18 8 106 133 84 160 8 152 133 55 118 62 73 124
split_gain=0.00806002 0.00666003 0.0047177 0.00567047 0.00464953 0.00371063 0.00341602 0.00332582 0.00795616 0.00300888 0.00382524 0.00428751 0.00349975 0.0108718 0.00954499 0.00306551 0.00288734 0.00357173 0.00279849 0.00174498 0.00160065 0.00116352 0.00101996 0.000988495 0.00127942 0.000804168 0.000791852 0.000517917 0.000500371 0.000443442
threshold=0.00064910181334094594 -0.1038723587989807 0.015411136240893429 -0.0089919897727668268 0.0072294238430188453 -0.0038661739310957505 -0.022477374412119385 -0.0092639522932125382 0.0026065689849925273 0.00050947912897407379 -0.014476298820227383 0.00088747925097164726 0.0074866983916303739 0.013969526111937601 -0.00086037849462264955 0.0097981994135541966 0.005444588402131482 -0.019172746267106886 -0.00031774385959774162 -1.0000000180025095e-35 -0.01000431373837647 0.0033879329064510663 -0.0032107284089512122 -0.0046361499335870202 -0.012816929724067448 0.0025368314236402516 -0.0040793689282500253 0.0070366332928850648 -0.011736934073269365 -0.007455435375880861
decision_type=6 6 6 6 6 6 6 6 4 4 4 6 4 6 6 6 6 6 4 4 6 6 4 6 6 6 6 4 6 6
left_child=9 7 4 5 18 -4 -5 8 19 10 11 28 13 20 -15 -13 29 -18 -3 -2 -11 -6 -10 24 -12 -25 27 -14 -1 -9
right_child=1 2 3 6 21 -7 -8 16 22 12 23 15 26 14 -16 -17 17 -19 -20 -21 -22 -23 -24 25 -26 -27 -28 -29 -30 -31
leaf_value=5.9953208165780933e-06 4.7683901311719396e-05 4.8783232384150582e-06 -0.00010217812302240266 0.00019408813220874626 1.9857132041243465e-05 2.6973375103677554e-05 4.1712905717794326e-05 -3.6345270983683658e-05 0 -2.1252701875824976e-05 -1.7519837700631036e-05 2.7319615618112162e-05 -1.2352908703113132e-05 9.6823186860923146e-06 0.00017508680756862907 -8.9663693326406919e-06 0.00011495693836849341 8.0982942706849928e-06 -2.526601309098369e-06 -1.424044333151065e-05 -5.5435002413426967e-06 3.168063894936178e-06 0.00017872715082460289 0 -4.1591421661293017e-06 -7.5862167478783657e-06 -1.6564723446947201e-05 -6.5570535925980281e-05 -2.3136605011743619e-06 0
leaf_weight=9479 725 86162 358 226 16297 173 2346 432 69 7269 9854 11147 1280 1315 536 1874 478 1693 96061 412 81860 7949 549 59687 34687 15370 10643 1089 20463 915
leaf_count=9479 725 86162 358 226 16297 173 2346 432 69 7269 9854 11147 1280 1315 536 1874 478 1693 96061 412 81860 7949 549 59687 34687 15370 10643 1089 20463 915
internal_value=0 4.16875e-06 3.25228e-06 4.02996e-05 2.62247e-06 -3.20146e-05 6.10699e-05 3.77344e-05 7.4259e-05 -3.63783e-06 -9.81746e-07 6.56949e-06 -7.64551e-06 -5.34592e-06 6.58113e-05 2.09449e-05 1.52205e-05 3.86129e-05 8.92429e-07 1.20901e-05 -6.99342e-06 1.5005e-05 0.000164036 -3.81985e-06 -7.45239e-06 -1.4642e-06 -2.25684e-05 -4.31775e-05 0 -1.13639e-05
internal_weight=0 214845 209572 3103 206469 531 2572 5273 1755 266553 162561 42963 103992 90980 1851 13021 3518 2171 182223 1137 89129 24246 618 119598 44541 75057 13012 2369 29942 1347
internal_count=481398 214845 209572 3103 206469 531 2572 5273 1755 266553 162561 42963 103992 90980 1851 13021 3518 2171 182223 1137 89129 24246 618 119598 44541 75057 13012 2369 29942 1347
is_linear=0
shrinkage=0.03


Tree=15
num_leaves=30
num_cat=0
split_feature=98 18 120 12 107 146 97 79 157 123 106 90 136 11 73 107 168 116 106 160 167 58 65 122 75 9 8 167 36
split_gain=0.00857437 0.00948044 0.0042596 0.00289112 0.00993739 0.0201423 0.0155453 0.00261887 0.00229713 0.00218302 0.00282469 0.00279234 0.00227514 0.00171464 0.00444217 0.00146814 0.00300022 0.0019901 0.00146075 0.00138377 0.00130562 0.00125006 0.000979395 0.000866776 0.000765148 0.000595382 0.000532073 0.000465622 0.000394344
threshold=-1.0000000180025095e-35 0.0096943066246019307 -0.0098031652663006542 0.010282305405048866 0.020596131682395939 -0.004705856279734035 0.00062193535268306743 -0.0021651862189173694 -0.014545651618391274 0.0026831703726202254 0.0010061360728820204 -0.0030537467029329722 -0.0016919597132606559 0.047852752730250366 0.0053499029017984876 0.0015451107174158098 -0.02941260627383167 0.0046467093464316557 0.0039106570539755294 -0.0016884329145060246 0.004905074369162322 -0.010809278859321187 0.059872446581721313 -0.00083281349772480371 -0.007983790244907139 -0.019770070910453793 -0.002708086728933671 -0.050032136961817734 0.0033585395805564582
decision_type=4 6 6 4 4 6 4 6 6 6 6 6 4 6 6 4 6 4 6 4 6 6 4 6 6 6 6 6 6
left_child=3 9 8 15 7 6 -6 24 -3 11 26 12 -2 28 -15 16 27 20 -13 -12 -17 -9 -19 -18 -5 -7 -11 -1 -4
right_child=1 2 13 4 5 25 -8 21 -10 10 19 18 -14 14 -16 17 23 22 -20 -21 -22 -23 -24 -25 -26 -27 -28 -29 -30
leaf_value=-5.6926711278327845e-05 8.9059048839564211e-07 0.00013910792235746275 0 0 3.8547415275381549e-05 0 0.00049495033440200909 2.6839214729508732e-05 2.6867803710844129e-05 1.7605804896474688e-05 5.5492272112892125e-06 3.1658816853788088e-06 -2.3000106530641242e-05 0.00015029949872672312 8.8012463527085229e-06 -9.6156580905471057e-06 -4.2966243149041276e-06 -1.3831659318476265e-05 -6.0338057013562307e-06 -7.2420347764773135e-06 -1.411081328996226e-07 1.2680451063217665e-06 -4.3980514465164801e-05 5.4625652972991773e-08 -4.8054498139204037e-05 -6.9730625888214925e-05 8.4123927091746665e-06 -1.5386891972449177e-05 1.7054979361915468e-05
leaf_weight=916 4574 573 1045 668 255 81 167 2661 875 15172 17971 120917 7749 374 1049 31746 74033 11775 16902 13191 27947 9280 1821 78124 998 187 28149 3103 9200
leaf_count=916 4574 573 1045 668 255 81 167 2661 875 15172 17971 120917 7749 374 1049 31746 74033 11775 16902 13191 27947 9280 1821 78124 998 187 28149 3103 9200
internal_value=0 4.32541e-06 2.92388e-05 -3.67785e-06 9.06589e-06 0.000120495 0.000256022 2.29634e-06 8.17587e-05 2.80368e-06 7.02369e-06 6.10223e-07 -1.29167e-05 2.14228e-05 5.66756e-05 -4.5373e-06 -2.74602e-06 -8.14962e-06 1.92873e-06 0 -5.4313e-06 8.22598e-06 -1.89787e-05 -1.96395e-06 -3.11702e-05 -3.76702e-05 1.1979e-05 -2.86086e-05 1.50524e-05
internal_weight=0 237741 13116 243762 14297 690 422 13607 1448 224625 74483 150142 12323 11668 1423 229465 156176 73289 137819 31162 59693 11941 13596 152157 1666 268 43321 4019 10245
internal_count=481503 237741 13116 243762 14297 690 422 13607 1448 224625 74483 150142 12323 11668 1423 229465 156176 73289 137819 31162 59693 11941 13596 152157 1666 268 43321 4019 10245
is_linear=0
shrinkage=0.03


Tree=16
num_leaves=25
num_cat=0
split_feature=60 126 83 36 121 98 106 86 63 78 117 117 145 6 106 110 117 144 30 92 95 105 58 145
split_gain=0.0135044 0.023593 0.0274384 0.00880019 0.0073343 0.00639674 0.00354072 0.00507614 0.00496729 0.00383537 0.00322119 0.00585462 0.00307314 0.00303829 0.00365433 0.00270722 0.00219001 0.00172498 0.00163048 0.00158877 0.000883131 0.000706054 0.000686202 0.000285913
threshold=0.036777130307306914 -0.001231843860076187 0.033285448327660568 0.0011556715611103256 0.0040731045883148917 0.0063490249117370591 -0.00051775399151835497 0.0066702909915633381 -0.075924195349216447 -0.018713076633060596 -0.008484479505568741 0.0039137508720159539 0.073115028440952315 0.0078500990715826332 0.015411136240893429 -0.0043386206024153924 0.022430757991969589 0.0071377725187731838 0.004749000836206471 0.0004246232114439008 -0.00047911715228110546 0.0014553457149304452 0.014765311052661552 -0.024614810012280938
decision_type=6 6 6 6 6 6 6 6 4 6 6 6 4 6 6 6 6 6 6 6 6 6 6 6
left_child=3 10 -3 6 -4 13 8 21 9 -1 15 23 -10 14 -5 -2 -13 22 -19 -15 -9 -8 -7 -12
right_child=1 2 4 5 -6 17 7 20 12 -11 11 16 -14 19 -16 -17 -18 18 -20 -21 -22 -23 -24 -25
leaf_value=9.5191783114365188e-05 0 0 1.0088356332732485e-05 1.6341189840866123e-06 0.00065559446669067256 5.9527796674814647e-05 -3.864159226441036e-06 -4.6360204800404415e-05 -5.315617126021743e-08 1.1616395493022045e-05 0 0.0001911252995454965 -2.8578297343051433e-05 5.0461297353377059e-06 4.6728992247175487e-05 -0.00010630225431469853 0 0 3.4790125864300519e-05 2.6092114598706078e-05 -9.8832512336215938e-06 -8.9498138348440864e-06 0 -3.0928755008346586e-05
leaf_weight=818 252 154 75 160926 148 2373 107169 3495 128919 2803 132 268 3523 9156 1664 254 120 2718 2504 7979 2211 43233 170 267
leaf_count=818 252 154 75 160926 148 2373 107169 3495 128919 2803 132 268 3523 9156 1664 254 120 2718 2504 7979 2211 43233 170 267
internal_value=0 8.5172e-05 0.000295895 -2.30196e-07 0.000507182 4.80873e-06 -3.51509e-06 -6.59832e-06 0 3.46788e-05 1.17863e-05 5.7654e-05 -9.2561e-07 3.56251e-06 2.18846e-06 -2.99719e-05 0.000142251 3.17134e-05 1.73123e-05 1.57235e-05 -3.48622e-05 -5.42586e-06 5.53551e-05 0
internal_weight=0 1670 377 479661 223 187490 292171 156108 136063 3621 1293 787 132442 179725 162590 506 388 7765 5222 17135 5706 150402 2543 399
internal_count=481331 1670 377 479661 223 187490 292171 156108 136063 3621 1293 787 132442 179725 162590 506 388 7765 5222 17135 5706 150402 2543 399
is_linear=0
shrinkage=0.03


Tree=17
num_leaves=31
num_cat=0
split_feature=98 19 106 24 24 8 172 63 158 147 12 124 74 83 157 27 147 107 90 18 106 100 91 124 161 38 13 92 96 16
split_gain=0.00704375 0.00655345 0.0041073 0.00319126 0.00320966 0.00317272 0.00298055 0.0029766 0.00262972 0.00412495 0.00253327 0.00326778 0.00307615 0.00210574 0.00192779 0.001831 0.00165603 0.00597635 0.0160136 0.00177197 0.0016736 0.00132206 0.00113276 0.000935494 0.00091569 0.000503665 0.000449104 0.000441505 0.000431553 0.000240077
threshold=-0.00059206337477089041 0.0059044347144663343 0.0013116931498377779 0.0026866807300214373 0.0094692685614739033 -0.011704588747718179 -0.0073905267763282904 0.062801562249660506 0.020980389302437719 0.0022000658791512255 -0.014052663885672235 -0.0044161206588693115 -0.0068716276472052815 -0.0024913264205679293 0.0045665293000638494 -0.033583402633666985 -0.0064938305877149096 0.011088043916970493 0.0064869614954102253 -0.0073299069032825874 0.00057057867710660849 -0.0013382860632753988 -0.00069361506029963483 0.0020085761808798911 -0.0066701904870569697 0.0041940521850370059 0.004385437350720168 -0.00068093891203243294 0.0030829997193531442 0.012696766563110001
decision_type=6 6 6 6 6 6 6 6 4 6 6 6 6 6 6 6 4 6 6 6 6 6 6 6 6 6 4 6 6 6
left_child=8 2 5 24 25 15 -6 -7 16 13 11 -4 -12 14 -10 -2 17 22 -19 29 -21 28 -1 -23 26 -5 -3 -26 -11 -18
right_child=1 3 10 4 6 7 -8 -9 9 21 12 -13 -14 -15 -16 -17 19 18 -20 20 -22 23 -24 -25 27 -27 -28 -29 -30 -31
leaf_value=-7.7323945711774345e-06 3.0656271526318512e-05 1.6295265747901908e-06 -5.5854470145807855e-05 1.4428483049500564e-06 5.6278412569925955e-05 2.5016879421104016e-06 1.5525761684892579e-05 -3.1907969676934036e-05 9.7165892496043469e-05 0 5.3111157020913646e-06 0 -7.7495261804526753e-06 6.6130650633165433e-06 0 5.5991661102461196e-06 -2.2326009065352411e-05 1.1704104822573588e-05 0.00023153962203188009 -3.1830932414985649e-06 -1.1847830033007702e-05 -4.3478863744577794e-05 0 0 -1.0864929902340442e-05 1.4285795143141508e-05 1.5633552093461162e-05 1.8018341223214727e-06 4.4875350682299802e-05 0
leaf_weight=33981 5825 6756 2034 6695 3792 134550 5336 2250 904 906 22502 2561 50751 1246 89 8244 8581 4270 340 67991 33651 974 32512 668 2922 15964 7274 16072 299 930
leaf_count=33981 5825 6756 2034 6695 3792 134550 5336 2250 904 906 22502 2561 50751 1246 89 8244 8581 4270 340 67991 33651 974 32512 668 2922 15964 7274 16072 299 930
internal_value=0 2.85031e-06 3.95893e-07 1.12802e-05 1.82185e-05 3.34428e-06 3.4107e-05 1.82563e-06 -4.59457e-06 1.5964e-05 -5.12533e-06 -2.72388e-05 -3.53273e-06 4.71316e-05 8.27828e-05 1.70425e-05 -5.25074e-06 -1.41014e-06 3.12633e-05 -7.5725e-06 -6.19951e-06 -3.29833e-06 -3.90187e-06 -2.47013e-05 4.14691e-06 1.11535e-05 9.96024e-06 0 1.34317e-05 -2.06642e-05
internal_weight=0 293528 228717 64811 31787 150869 9128 136800 187342 5086 77848 4595 73253 2239 993 14069 182256 71103 4610 111153 101642 2847 66493 1642 33024 22659 14030 18994 1205 9511
internal_count=480870 293528 228717 64811 31787 150869 9128 136800 187342 5086 77848 4595 73253 2239 993 14069 182256 71103 4610 111153 101642 2847 66493 1642 33024 22659 14030 18994 1205 9511
is_linear=0
shrinkage=0.03


Tree=18
num_leaves=25
num_cat=0
split_feature=36 106 65 90 99 98 155 18 70 117 128 120 123 172 116 135 98 70 157 142 47 172 123 12
split_gain=0.0146734 0.00329382 0.00981316 0.0235556 0.0200785 0.00667782 0.00472425 0.00459536 0.00264497 0.00416392 0.00272211 0.00228237 0.00209938 0.00672256 0.00246155 0.00166022 0.00152627 0.00133754 0.000877805 0.000780828 0.000635151 0.000630764 0.00016783 9.84587e-05
threshold=0.010707458894695284 0.0037187170205905148 0.098041400313377394 0.012103098175511905 -0.0066201165318489066 -0.0002037685491906862 -0.040697151795029633 -0.014373377730432638 -0.063894547326673615 0.0068975971080362805 0.0054203366661063311 0.0021605744774558428 0.0012710727751255038 -0.0073375563631932093 -0.0038044621180174944 0.0036018148530274634 -0.0030581327890918898 0.018953877564493151 -0.018529945984482762 0.0057053286790886169 0.056352363899350173 0.0044339201705642711 -0.023717257194221016 -0.00014659416451887292
decision_type=6 6 6 6 6 6 6 6 6 6 6 6 6 6 6 6 6 6 4 6 4 6 6 6
left_child=1 5 7 6 -5 16 -4 11 9 -7 -10 -3 14 -14 20 -16 18 -9 -1 -18 22 -22 -2 -15
right_child=12 2 3 4 -6 8 -8 17 10 -11 -12 -13 13 23 15 -17 19 -19 -20 -21 21 -23 -24 -25
leaf_value=-1.7989950170522998e-05 -1.1576651544384507e-05 -6.350851668180833e-05 5.6155382426191551e-05 0.00056351725823090728 0 0 -3.9654147382822196e-07 -6.2336365334124756e-06 1.4748157584698831e-06 7.5070944688720328e-05 1.0788860948580239e-05 -2.3247523601331334e-06 7.0169236735115965e-05 0 3.8378635981550895e-05 0 -1.5946107822917007e-06 -2.056801668171623e-05 -6.1090223985301939e-06 -8.4460509231157101e-06 -4.0018078194826545e-05 0 6.9223049933220999e-06 1.303250784684585e-05
leaf_weight=9833 317 2409 1696 133 73 2145 3929 39110 170477 1221 35404 1416 3672 126 3733 2290 135951 8787 32072 18847 727 54 2258 4957
leaf_count=9833 317 2409 1696 133 73 2145 3929 39110 170477 1221 35404 1416 3672 126 3733 2290 135951 8787 32072 18847 727 54 2258 4957
internal_value=0 -1.0203e-06 -7.73841e-06 2.83925e-05 0.00034529 -3.08683e-08 1.40027e-05 -1.21027e-05 3.6623e-06 3.05573e-05 3.14944e-06 -4.47911e-05 2.6487e-05 3.82217e-05 1.39283e-05 2.57893e-05 -4.03581e-06 -9.17727e-06 -9.25554e-06 -2.52579e-06 -2.89434e-06 -2.76764e-05 0 1.21742e-05
internal_weight=0 463503 57553 5831 206 405950 5625 51722 209247 3366 205881 3825 18134 8755 9379 6023 196703 47897 41905 154798 3356 781 2575 5083
internal_count=481637 463503 57553 5831 206 405950 5625 51722 209247 3366 205881 3825 18134 8755 9379 6023 196703 47897 41905 154798 3356 781 2575 5083
is_linear=0
shrinkage=0.03


Tree=19
num_leaves=31
num_cat=0
split_feature=36 38 165 154 46 98 106 90 60 47 14 150 14 106 98 65 1 38 106 65 53 38 132 106 88 92 161 65 75 132
split_gain=0.00942968 0.00384241 0.0047849 0.00743869 0.00524649 0.00335592 0.00287708 0.0022142 0.00521625 0.00914855 0.00990459 0.00503886 0.00407827 0.00344506 0.00319119 0.00257129 0.00204745 0.00256954 0.00188342 0.00176541 0.00159498 0.00131401 0.00127501 0.0012445 0.00245626 0.0012099 0.00119946 0.000841129 0.000488674 0.000369581
threshold=0.0037106018151991942 0.025234422120109058 0.0022979152854532008 -0.024765543836146754 -0.0020647170970658868 -0.0038477430847478618 0.0011043833866593304 -0.0010131309861357292 0.010970226592738842 0.065771628171205535 0.015552745515399343 -0.020124828604889244 -0.0099370278951811958 0.00278100729688256 0.00084840716075265481 -0.0077368223574012509 -0.007958045229315756 0.00024294601845598125 -0.00058021792330210584 0.11114466562867166 0.025338612496852878 -0.0082923207626332002 -0.0030711296113813506 -0.0018319359909250185 0.0067913536278712454 -0.0022157370989186395 0.038601599633693702 0.064431726932525649 -0.0053560561500489703 -0.0049580811491214448
decision_type=6 4 6 6 6 4 6 6 6 6 6 6 6 6 6 4 4 6 6 4 6 6 6 6 6 6 6 6 6 6
left_child=7 6 3 5 -5 -3 21 11 13 12 -11 15 -10 14 -9 18 17 -8 -1 -17 -18 22 -2 29 -25 -4 -23 -15 -27 -13
right_child=1 2 25 4 -6 -7 16 8 9 10 -12 23 -14 27 -16 19 20 -19 -20 -21 -22 26 -24 24 -26 28 -28 -29 -30 -31
leaf_value=5.060020235582555e-06 1.1688176135306661e-05 0 -1.80598060988122e-05 9.3285852006904914e-05 1.0151848525495222e-05 0.00013393152111579003 7.6128458614736777e-05 -1.6523457646055367e-06 0.00012399382871630297 0 0.00024850259309652236 6.0452644258108888e-06 -4.0808616909084674e-07 -1.0839708820721086e-05 6.2245043892638533e-06 -3.2911432509129345e-05 1.1513041095370738e-06 0 -3.1853841786455619e-05 -0.00011683834946467796 -1.3511970975556887e-05 1.3665964620432373e-05 -1.9455213445173766e-05 -4.5699861556930095e-06 -3.9106446990356331e-05 0 -1.7132939286332043e-06 2.1845419805636515e-06 1.7331658275667354e-05 -5.6319227640969512e-07
leaf_weight=2069 1833 64 1690 919 5345 987 680 158414 243 179 348 9446 1955 33386 64820 2646 21441 732 1943 519 8865 41669 2444 81231 2040 243 3223 3024 3250 26217
leaf_count=2069 1833 64 1690 919 5345 987 680 158414 243 179 348 9446 1955 33386 64820 2646 21441 732 1943 519 8865 41669 2444 81231 2040 243 3223 3024 3250 26217
internal_value=0 8.70899e-06 2.45972e-05 4.02758e-05 2.47683e-05 0.000118233 6.06808e-06 -1.90555e-06 -2.74554e-07 4.09035e-05 0.000154941 -5.17979e-06 6.62721e-06 -7.64807e-07 5.67681e-07 -2.98786e-05 -5.34934e-07 3.4056e-05 -9.0873e-06 -5.14753e-05 -2.64363e-06 1.06325e-05 -2.60333e-06 -3.56275e-06 -5.59712e-06 0 1.22277e-05 -9.34598e-06 1.23961e-05 7.66839e-07
internal_weight=0 93385 12498 7315 6264 1051 80887 388480 262369 2725 527 126111 2198 259644 223234 7177 31718 1412 4012 3165 30306 49169 4277 118934 83271 5183 44892 36410 3493 35663
internal_count=481865 93385 12498 7315 6264 1051 80887 388480 262369 2725 527 126111 2198 259644 223234 7177 31718 1412 4012 3165 30306 49169 4277 118934 83271 5183 44892 36410 3493 35663
is_linear=0
shrinkage=0.03


Tree=20
num_leaves=29
num_cat=0
split_feature=36 76 101 173 155 47 106 166 158 90 116 8 98 158 148 172 92 116 106 45 168 158 106 169 76 52 36 98
split_gain=0.00870268 0.00397517 0.00433025 0.00466866 0.00444372 0.00340254 0.00293267 0.00856018 0.012194 0.0108724 0.00869293 0.00658244 0.0037018 0.00354653 0.00307093 0.00223772 0.00202224 0.0016386 0.00162264 0.00121621 0.00109756 0.00095203 0.000881345 0.000799318 0.000697559 0.000503316 0.000426263 5.64108e-05
threshold=0.0045326995125236315 0.071476788935938798 -0.0023533720523118968 -0.014096733182668684 -0.00538775511085987 0.078159078955650343 0.0027042776806519057 0.024475962580208697 -0.027041524707262558 0.00058418824459160296 0.0077507265254765376 -0.028520377908336534 -0.00070999875779660551 0.0058542892704756024 0.011302855629755186 -0.0096186194250921838 -0.0035786270647991197 -0.00097895299228392403 -0.0024611997590116498 0.015330632682889702 -0.0070279786054939933 -0.0041899179346538739 -0.001736676990481238 0.0039809737354516992 -0.0036035704648176184 0.088223050153224944 -0.0015448964169041876 -0.0010860928290392835
decision_type=6 6 6 6 6 6 6 6 6 6 6 6 6 6 6 6 6 6 6 6 4 6 6 6 6 6 6 6
left_child=6 5 -3 4 -4 15 11 21 9 -9 -10 13 22 23 -15 16 -2 19 -17 -7 -14 25 -13 -1 -19 -8 -23 -5
right_child=1 2 3 27 -6 17 7 8 10 -11 -12 12 20 14 -16 18 -18 24 -20 -21 -22 26 -24 -25 -26 -27 -28 -29
leaf_value=2.7680144081422336e-05 0 0 0.00018257991374854128 0 0 0 -2.023054003316724e-05 0 2.1499825485556374e-05 0.00039502504307893107 -4.9291397966912394e-05 -1.921508447420786e-06 -1.6601060160304464e-06 0 0.0001021876466131472 1.7263452724101186e-05 2.6643874554644539e-05 3.4095493879240731e-05 3.4063395827720978e-06 -3.7022310658707017e-05 3.0521193333263043e-06 -1.3653296289260192e-05 -7.2310702987372928e-06 0 -2.1253387592041166e-06 0 -5.5806167127053201e-06 1.1293505979511207e-05
leaf_weight=1271 2821 1094 535 278 319 625 15851 157 9658 143 1777 61668 61295 445 1086 10840 11278 531 41742 2625 137303 16168 72351 1526 1811 533 25974 558
leaf_count=1271 2821 1094 535 278 319 625 15851 157 9658 143 1777 61668 61295 445 1086 10840 11278 531 41742 2625 137303 16168 72351 1526 1811 533 25974 558
internal_value=0 9.40813e-06 4.57192e-05 7.57962e-05 0.000127438 7.80064e-06 -1.70857e-06 -7.30023e-06 1.55298e-05 0.000206206 9.18063e-06 -4.98022e-07 -1.02032e-06 3.61594e-05 7.4888e-05 9.81882e-06 2.09477e-05 -1.35783e-05 6.54885e-06 -2.77603e-05 1.52221e-06 -1.21345e-05 -4.8999e-06 9.56305e-06 0 -1.91916e-05 -9.03417e-06 4.96462e-06
internal_weight=0 75057 2784 1690 854 72273 407206 70261 11735 300 11435 336945 332617 4328 1531 66681 14099 5592 52582 3250 198598 58526 134019 2797 2342 16384 42142 836
internal_count=482263 75057 2784 1690 854 72273 407206 70261 11735 300 11435 336945 332617 4328 1531 66681 14099 5592 52582 3250 198598 58526 134019 2797 2342 16384 42142 836
is_linear=0
shrinkage=0.03


Tree=21
num_leaves=30
num_cat=0
split_feature=128 24 161 61 116 106 36 160 42 150 123 106 141 12 166 106 159 65 123 34 64 55 98 55 84 86 92 53 163
split_gain=0.00685232 0.00675871 0.00380836 0.00419593 0.00576689 0.00339742 0.00308895 0.00274792 0.00260787 0.00284085 0.00259771 0.00255012 0.00203851 0.00165126 0.00152988 0.0015737 0.00147603 0.00149704 0.00117675 0.00116748 0.00113896 0.00559268 0.00244207 0.000994414 0.000562071 0.000521218 0.00050649 0.000362175 0.000135482
threshold=0.0031626905610727903 0.0026300092217192632 -0.028209994547069069 0.010929365642368795 -0.0061304159382474816 0.0015654531151180807 0.0058844013835892871 -0.0039643206419910969 -0.011360219712791343 -0.0037900081104155362 -0.01604619529098272 -0.019879740577007799 -0.009271198417991398 0.0047793316087432784 0.015124309857556905 -8.7293367610373775e-05 0.04048117250204087 -0.041705176234245293 -0.0017522415146231649 0.03897988447536218 0.033480669289056721 0.0038524473784491424 -0.0013247185329782918 0.018849823623895649 0.005279855263846011 0.00092280575926380608 -0.0040943589540276175 -0.04016617685556411 0.037159955129027374
decision_type=6 6 6 6 6 6 6 6 6 6 6 4 6 6 6 6 6 6 6 6 6 6 4 6 6 6 6 6 6
left_child=6 5 3 -3 -5 16 11 10 9 -7 25 19 -10 28 15 -9 17 -2 -18 23 22 -22 -13 -1 -15 -8 -12 -16 -4
right_child=1 2 13 4 -6 8 7 14 12 -11 26 20 -14 24 27 -17 18 -19 -20 -21 21 -23 -24 -25 -26 -27 -28 -29 -30
leaf_value=7.6427121550564229e-05 2.0339636611133715e-05 1.2080931154964003e-05 6.9721850071214462e-06 0.00017066169505107804 2.846633971470932e-05 -4.9092302536929865e-05 -3.0632966199952173e-05 1.3289721091943061e-05 -1.5419189852699248e-05 -2.4062369976419987e-06 0 -7.1708443083843609e-06 3.7164283833711519e-06 1.676809352740602e-06 0 -5.8327336524827975e-06 -2.6743448975669066e-05 5.2873300081469142e-06 0 0 1.5495023536827611e-05 -1.6509179378016869e-05 -1.3901415580583862e-06 0 2.5992653422981685e-05 0 2.7738492913975713e-05 -3.5700208270598949e-05 0
leaf_weight=669 8528 2221 15235 567 1118 2450 802 7380 6730 3722 1301 100962 18232 2443 388 6981 1930 39673 2324 197 13737 7371 214982 62 9982 391 8611 1236 1318
leaf_count=669 8528 2221 15235 567 1118 2450 802 7380 6730 3722 1301 100962 18232 2443 388 6981 1930 39673 2324 197 13737 7371 214982 62 9982 391 8611 1236 1318
internal_value=0 6.53793e-06 1.8113e-05 4.75549e-05 8.5352e-05 1.8045e-06 -1.81528e-06 7.79344e-06 -5.79303e-06 -2.33779e-05 1.92565e-05 -2.62987e-06 -8.42679e-07 1.36239e-05 0 2.95027e-06 6.59991e-06 8.26239e-06 -8.70777e-06 4.60676e-05 -2.80872e-06 3.60796e-06 -3.28491e-06 6.42345e-05 2.24198e-05 -1.5453e-05 2.49494e-05 -2.77473e-05 6.11358e-06
internal_weight=0 116473 32884 3906 1685 83589 365070 27090 31134 6172 11105 337980 24962 28978 15985 14361 52455 48201 4254 928 337052 21108 315944 731 12425 1193 9912 1624 16553
internal_count=481543 116473 32884 3906 1685 83589 365070 27090 31134 6172 11105 337980 24962 28978 15985 14361 52455 48201 4254 928 337052 21108 315944 731 12425 1193 9912 1624 16553
is_linear=0
shrinkage=0.03


Tree=22
num_leaves=31
num_cat=0
split_feature=98 18 166 75 109 128 161 98 150 84 8 106 101 41 107 32 152 20 106 36 106 116 87 96 113 14 66 0 140 87
split_gain=0.00538789 0.00583175 0.00675313 0.00890047 0.00456203 0.00486307 0.00366421 0.00325106 0.00258818 0.00498604 0.00219477 0.00180273 0.00235172 0.00178001 0.00170163 0.00153713 0.00154219 0.00136398 0.00126745 0.00101626 0.00159876 0.000861434 0.000702071 0.000665865 0.000481246 0.000455869 0.000343669 0.000195217 0.000641595 8.29077e-05
threshold=-0.00029026737007591829 0.0017996316607376969 0.034099429900449278 0.018430234864354137 -0.015627333894371983 -0.0017873788694764176 -0.011521577835083006 0.0042690542642687323 0.0056312638490995373 0.0073311078507597247 -0.0022706182934362465 0.00011361605594617089 0.010634826496243479 0.054748294875025756 -0.0026517983060330148 -0.0014357527069155888 -0.005986658796493011 -0.014680866307501749 -0.0025852033145504559 -0.0040476016395067866 0.0069598494107699629 0.0067523660407750822 -0.00080421380698680867 0.0010357331774814859 -0.0063005588017404071 0.0054415018953787629 -0.0039187031038140875 0.0054628500280824669 0.0062484861867439434 -0.0026185779133811589
decision_type=6 6 6 6 6 6 6 6 6 6 6 6 6 6 6 6 6 6 6 6 6 6 6 6 6 6 6 6 6 6
left_child=4 10 7 26 5 13 -5 14 11 23 15 18 -13 21 -3 16 -2 -9 -6 24 -21 -1 -11 -10 -12 -17 -4 29 -29 -7
right_child=1 2 3 6 8 27 -8 17 9 22 19 12 -14 -15 -16 25 -18 -19 -20 20 -22 -23 -24 -25 -26 -27 -28 28 -30 -31
leaf_value=-7.0513312407845884e-05 -5.5586772001624541e-07 1.2212612098085892e-05 0 0.00016962646628473584 1.6398548070329469e-06 -1.0997047830322388e-05 8.6485993574839918e-06 8.6542645506818407e-05 -2.9273934217017171e-06 4.3328958751832742e-05 0 -1.0015834689675823e-05 1.0925757496117504e-05 0 1.2894555007792831e-06 -1.4703903557479805e-06 8.6542030097999145e-06 1.9244730139984932e-05 -4.907528286255363e-06 -1.101819152342159e-06 -1.9957356434302319e-05 0 3.5004584878924742e-06 5.8424995646781465e-06 -1.7578913981717648e-05 -2.0718634897214874e-05 1.7206970759602221e-05 3.8541737962502747e-05 0 0
leaf_weight=2409 21202 19713 207 694 45581 615 419 442 23496 3019 617 63608 4546 471 48127 8786 44774 9388 56698 96669 4406 450 1495 11655 6088 1895 2351 505 166 579
leaf_count=2409 21202 19713 207 694 45581 615 419 442 23496 3019 617 63608 4546 471 48127 8786 44774 9388 56698 96669 4406 450 1495 11655 6088 1895 2351 505 166 579
internal_value=0 2.71121e-06 9.40655e-06 4.98753e-05 -3.67121e-06 -3.17344e-05 0.000122602 7.29947e-06 -2.90561e-06 3.79295e-06 -1.60337e-07 -4.55261e-06 -8.39863e-06 -5.37057e-05 4.68488e-06 3.63283e-06 5.46719e-06 2.38134e-05 -1.84303e-06 -2.99736e-06 -2.07254e-06 -6.26026e-05 3.3467e-05 0 -1.46974e-05 -6.29271e-06 1.23011e-05 0 1.61574e-05 0
internal_weight=0 265778 81341 3671 215293 5195 1113 77670 210098 39665 184437 170433 68154 3330 67840 76657 65976 9830 102279 107780 101075 2859 4514 35151 6705 10681 2558 1865 671 1194
internal_count=481071 265778 81341 3671 215293 5195 1113 77670 210098 39665 184437 170433 68154 3330 67840 76657 65976 9830 102279 107780 101075 2859 4514 35151 6705 10681 2558 1865 671 1194
is_linear=0
shrinkage=0.03


Tree=23
num_leaves=29
num_cat=0
split_feature=18 98 22 98 167 90 146 44 133 53 94 107 91 62 59 19 36 112 7 99 138 172 123 106 9 10 172 155
split_gain=0.00415158 0.007353 0.00303235 0.00289709 0.00816428 0.0251815 0.0109274 0.00411026 0.00252571 0.00254135 0.00238642 0.00366494 0.00419815 0.00264233 0.0019947 0.00494638 0.00172855 0.00166695 0.00154538 0.00160222 0.00112228 0.0010819 0.00105241 0.000629447 0.00148928 0.00065751 0.000526126 1.06899e-06
threshold=0.0084450822778927414 0.0015836622967135023 -0.020318828883816153 -0.0007923270872619055 0.13742294162511828 0.0013289119682810032 -0.0019368491619262543 0.0096027275652913972 -0.0018092571990564463 -0.080512054264545427 2.2928258142590282e-05 0.0070278332568705091 -0.0063414047472178927 -0.051743026277304566 -0.14261931180953977 0.0019377161515876653 0.0056431251600360137 0.0022325846629710475 0.013215744867920877 -0.0021566844079643484 0.0015563874771003653 -0.00094534622466742877 0.002485493198037148 -0.0059135818082311203 -0.0061631791759282342 -0.068459209171699856 -0.0031417250461049187 -0.018555317074060437
decision_type=6 6 6 6 6 4 6 6 6 6 4 6 6 6 6 6 6 6 6 6 6 6 6 4 6 4 6 6
left_child=3 2 8 4 23 7 -7 -6 9 -2 11 22 -13 17 15 -3 -15 -12 19 -4 -20 26 -5 24 -1 -25 -16 -10
right_child=1 14 18 10 5 6 -8 -9 27 -11 13 12 -14 16 21 -17 -18 -19 20 -21 -22 -23 -24 25 -26 -27 -28 -29
leaf_value=1.4457655898632176e-05 6.5769988355922007e-05 0.00032571892982549466 -1.1559241073644598e-05 -1.7018866774772211e-06 -6.0636561100951441e-05 0.00036103390757470882 0 5.0036212453835449e-05 -1.3788981959176727e-06 0 7.2901077983590274e-05 -5.0140017524030971e-05 -7.3583597071575246e-06 2.0359847989397862e-06 3.8422352819034058e-05 3.2453719899247561e-06 1.4988823057385199e-05 0 2.2162090705595083e-05 3.1240027197330806e-06 -1.0495597882709261e-06 6.7814983367333841e-06 3.987933833172504e-06 2.2698240589068604e-05 -6.4323582799695736e-06 -6.056866447600346e-06 0 0
leaf_weight=4764 1690 86 14740 88814 633 295 130 543 504 1171 826 2581 19047 125369 5490 321 10662 560 3736 9965 1558 3480 43402 502 8316 130997 893 1379
leaf_count=4764 1690 86 14740 88814 633 295 130 543 504 1171 826 2581 19047 125369 5490 321 10662 560 3736 9965 1558 3480 43402 502 8316 130997 893 1379
internal_value=0 8.67412e-06 1.62208e-06 -8.9382e-07 -4.35616e-06 6.22646e-05 0.000260058 0 2.41096e-05 4.19231e-05 7.92402e-07 -1.70783e-06 -1.31614e-05 3.70066e-06 3.10656e-05 0.000109319 3.16169e-06 4.57109e-05 -1.43545e-06 -5.02972e-06 1.25009e-05 2.62944e-05 5.24703e-08 -5.19849e-06 3.064e-08 -5.83268e-06 3.45781e-05 0
internal_weight=0 45013 34743 437441 146180 1601 425 1176 4744 2861 291261 153844 21628 137417 10270 407 136031 1386 29999 24705 5294 9863 132216 144579 13080 131499 6383 1883
internal_count=482454 45013 34743 437441 146180 1601 425 1176 4744 2861 291261 153844 21628 137417 10270 407 136031 1386 29999 24705 5294 9863 132216 144579 13080 131499 6383 1883
is_linear=0
shrinkage=0.03


Tree=24
num_leaves=30
num_cat=0
split_feature=62 13 106 89 142 98 36 85 97 57 129 18 159 137 59 98 142 164 147 27 53 7 129 132 95 106 166 69 117
split_gain=0.00918586 0.0104343 0.00670849 0.00621041 0.0110757 0.00503183 0.00487283 0.00462955 0.0070375 0.00499202 0.0103438 0.00439245 0.00396907 0.00359502 0.0035205 0.00208346 0.00171867 0.00571823 0.00303323 0.00167875 0.00157335 0.00144879 0.00142445 0.00142004 0.00108377 0.000962785 0.000563179 0.000468325 7.0378e-05
threshold=0.038208973134490919 0.0026074600173160438 0.0036408556618471974 -0.0069238143041729918 0.0050495903366769308 -0.00150491248697167 -0.0081129976372935168 0.0046745936851948508 -0.00021704309619963166 0.031459685415029533 -0.0094082951545715315 0.011561018205930933 -0.0077344232704490415 0.005230378359556199 -0.013085190672427414 0.00018501945895278468 -0.0034400662721764687 -0.028570867349713428 -0.0053116166964173308 -0.018888144753873345 -0.014279929921030996 0.010270541999489071 -0.0040995297022163859 0.0035852732709377795 0.0059203929267823705 -0.0046384917477977966 -0.0070147933637531761 7.8615437814733027e-05 0.00047798687592148786
decision_type=6 6 6 6 6 6 6 6 6 6 6 6 6 6 6 6 6 6 6 4 4 6 6 6 6 6 6 6 6
left_child=2 7 5 4 13 25 24 9 14 10 -2 15 20 -3 -9 -7 17 -5 -18 -14 -8 -13 -10 -11 -4 27 -27 -1 -26
right_child=1 3 6 16 -6 11 12 8 22 23 -12 21 19 -15 -16 -17 18 -19 -20 -21 -22 -23 -24 -25 28 26 -28 -29 -30
leaf_value=5.1997906382639455e-06 0.00014855276421575983 0 -4.7846639680100904e-05 0.00018374865388893599 0.00025480560493217465 -1.2035605550586551e-06 -1.2556206723502067e-06 0 0 -8.3964495075830399e-05 0 9.3914581119480518e-06 1.0401973833061592e-05 7.0412377737617013e-05 -0.00013425571084143089 3.7888491925012171e-06 9.5523774513947741e-05 -4.3516488549458058e-06 0 -5.1631357502555872e-06 -2.6611461583869793e-05 3.8068625843329243e-05 0.00011019587184130835 0 0 -2.829687490887095e-06 -8.9845818525814247e-06 -3.6537147894136939e-06 -9.9829447244858951e-06
leaf_weight=9673 536 362 3837 149 352 124849 4383 171 88 479 1899 6044 7473 2324 729 176874 620 2582 466 30441 10930 3886 146 271 648 30145 49422 11976 662
leaf_count=9673 536 362 3837 149 352 124849 4383 171 88 479 1899 6044 7473 2324 729 176874 620 2582 466 30441 10930 3886 146 271 648 30145 49422 11976 662
internal_value=0 2.66498e-05 -8.58566e-07 4.99709e-05 8.37293e-05 4.526e-07 -1.03889e-05 -6.89929e-06 -6.07245e-05 7.5843e-06 3.24306e-05 2.3734e-06 -7.34278e-06 5.55565e-05 -0.000105332 1.67335e-06 1.91447e-05 5.49355e-07 5.20332e-05 -1.69919e-06 -2.03345e-05 2.21296e-05 4.67221e-05 -5.30084e-05 -3.89612e-05 -5.31345e-06 -6.84136e-06 0 -1.46958e-06
internal_weight=0 11174 471243 6855 3038 412869 58374 4319 1134 3185 2435 311653 53227 2686 900 301723 3817 2731 1086 37914 15313 9930 234 750 5147 101216 79567 21649 1310
internal_count=482417 11174 471243 6855 3038 412869 58374 4319 1134 3185 2435 311653 53227 2686 900 301723 3817 2731 1086 37914 15313 9930 234 750 5147 101216 79567 21649 1310
is_linear=0
shrinkage=0.03


Tree=25
num_leaves=29
num_cat=0
split_feature=98 18 94 106 53 107 129 157 129 146 173 64 24 93 73 90 166 107 37 38 108 107 71 14 35 36 117 84
split_gain=0.00728386 0.00700969 0.00325418 0.00282265 0.00430992 0.00275703 0.00652544 0.0127653 0.0426139 0.00755275 0.00722846 0.0032572 0.00288112 0.00216804 0.00190535 0.00153379 0.00142262 0.00205806 0.00124936 0.00124248 0.00118992 0.00114157 0.00111834 0.0011025 0.000828778 0.000584787 0.000505766 0.000335946
threshold=0.0026977783589069563 0.0043735222343951044 0.0012905171042757585 0.0022043380817773177 -0.10532104223966597 0.014372491277754309 0.0078935557976365107 0.016987305134534839 0.019635676406323913 -0.019698227532488451 0.0092125385999679583 0.078801780826186898 0.00026169747010641351 -0.0087460028007626516 -0.01855142135173082 0.0016534466136405787 0.040203495795698728 -0.00080673629418015469 0.0026722576003521685 0.012514983822376242 0.0026075996168265065 -0.0064479454886168233 -0.0029320745961740609 0.017887798227125652 -0.044209349900484078 0.0066419602182466982 0.007076970301568509 -0.0028125830091136434
decision_type=6 6 6 6 4 6 6 6 6 6 6 6 6 6 6 6 6 6 4 6 6 6 6 6 4 6 6 6
left_child=5 2 3 24 -5 13 9 12 -9 10 -7 -11 -8 16 25 20 17 -1 -17 -16 -15 26 -23 -18 -2 -3 -4 -21
right_child=1 14 21 4 -6 6 7 8 -10 11 -12 -13 -14 15 19 18 23 -19 -20 27 -22 22 -24 -25 -26 -27 -28 -29
leaf_value=0 1.979435337145155e-05 0 1.4832001159441344e-05 -6.8635374317839687e-05 -5.5501956155839637e-06 6.2831305514707746e-06 0 0 0.0006267528017491128 -3.7166343279842315e-07 0.00015906539114876066 -4.970283447167784e-05 5.1608677940730664e-05 -1.1650732673984911e-06 7.1276699431663339e-06 0 -6.6970421810814648e-05 -1.7590798569475269e-05 8.8639579723372205e-06 0 -5.9497184974024275e-06 2.0099638009589376e-05 0 0 1.4659378492363609e-06 0.00015145669740044288 7.0437488096825371e-05 3.2703540470719965e-05
leaf_weight=13826 3245 132 1611 1182 10889 1271 1495 228 141 6620 473 1684 1507 253686 4365 48085 739 11537 20824 64 61596 5285 5717 164 15207 211 694 9378
leaf_count=13826 3245 132 1611 1182 10889 1271 1495 228 141 6620 473 1684 1507 253686 4365 48085 739 11537 20824 64 61596 5285 5717 164 15207 211 694 9378
internal_value=0 9.95698e-06 3.63402e-06 -1.31511e-06 -1.29803e-05 -1.37985e-06 1.18515e-05 4.79586e-05 0.000219167 0 5.64459e-05 -1.21912e-05 2.17887e-05 -1.84902e-06 2.84793e-05 -1.23439e-06 -1.02674e-05 -8.23069e-06 2.72543e-06 2.5292e-05 -2.14745e-06 1.61116e-05 1.0131e-05 -5.07531e-05 5.50383e-06 0.000112414 3.81225e-05 3.20976e-05
internal_weight=0 57980 43830 30523 12071 423876 13419 3371 369 10048 1744 8304 3002 410457 14150 384191 26266 25363 68909 13807 315282 13307 11002 903 18452 343 2305 9442
internal_count=481856 57980 43830 30523 12071 423876 13419 3371 369 10048 1744 8304 3002 410457 14150 384191 26266 25363 68909 13807 315282 13307 11002 903 18452 343 2305 9442
is_linear=0
shrinkage=0.03


Tree=26
num_leaves=29
num_cat=0
split_feature=38 171 171 140 98 48 98 65 169 107 147 112 106 77 112 137 119 53 108 12 36 59 89 42 75 103 93 92
split_gain=0.00694411 0.00665112 0.0158091 0.0273109 0.00620843 0.0133719 0.00493579 0.00472072 0.00297006 0.0024414 0.00694618 0.00416811 0.0025045 0.0024853 0.00198877 0.00331296 0.00274947 0.00210485 0.00199436 0.00170394 0.00159339 0.0013094 0.00118752 0.00112683 0.000759861 0.000221547 0.000177244 4.45324e-05
threshold=0.025234422120109058 -0.001037805341184139 0.14280882477760318 0.0013389120215049123 0.0012804809563052037 0.020254477150981807 0.0013744268778260423 0.048706274479627616 -0.0060578370466828338 0.013445702381432058 0.0003374768421053887 -0.0037928775942781753 -0.00039329759737971083 0.013626592233777048 0.014670244229806484 0.014640071429312231 0.0071155843324959287 -0.038282422348856919 0.0042226556179933194 0.00086373046583450817 0.00068081519298624925 0.042914491146802909 0.0018319780938327315 -0.006458932546596065 -0.019994822330772873 0.0021036472171545033 -0.0002768726553767919 -0.0024616496457237447
decision_type=6 6 6 6 6 6 6 6 6 6 6 6 6 6 6 6 6 4 6 6 6 6 6 6 6 6 6 6
left_child=6 7 4 -4 27 -6 9 21 24 12 11 -11 20 -12 17 -16 -17 18 -8 -19 -1 22 -2 -14 -9 -10 -23 -3
right_child=1 2 3 -5 5 -7 14 8 25 10 13 -13 23 -15 15 16 -18 19 -20 -21 -22 26 -24 -25 -26 -27 -28 -29
leaf_value=-2.5456303861256499e-06 3.6197984288113857e-05 -7.3793851518240708e-06 0.00065902770013267662 0 3.5927520798990186e-05 0.00027760959646580546 1.7084698383424751e-05 0 0 8.0175345599917523e-05 0 1.5706184171461463e-05 -1.2908189421183048e-05 -4.3403203295089317e-05 0 0 -0.00032078009130517864 -2.3282504298386664e-07 -2.9393839458970319e-06 8.2159996801314132e-06 3.3300226994463353e-06 -1.4529746525052956e-05 0 -4.4407356456545948e-06 -5.1507019278768875e-05 2.1931967024956754e-05 1.4686964418066029e-06 0
leaf_weight=109241 3218 734 100 127 4013 245 20851 67 843 1396 3237 5568 18464 1728 462 57 64 52423 4162 32985 66386 746 1133 147858 2122 413 743 2304
leaf_count=109241 3218 734 100 127 4013 245 20851 67 843 1396 3237 5568 18464 1728 462 57 64 52423 4162 32985 66386 746 1133 147858 2122 413 743 2304
internal_value=0 1.9055e-05 4.00799e-05 0.000293455 3.0063e-05 5.34785e-05 -5.67416e-07 3.99899e-07 -2.57085e-05 -2.32756e-06 1.07544e-05 3.08023e-05 -2.82786e-06 -1.43462e-05 4.9087e-06 -4.77745e-05 -0.000187341 5.32356e-06 1.31532e-05 2.85465e-06 -2.39247e-07 1.83723e-05 2.69022e-05 -5.47107e-06 -4.75365e-05 4.25501e-07 0 0
internal_weight=0 16808 7523 227 7296 4258 464882 9285 3445 353878 11929 6964 341949 4965 111004 583 121 110421 25013 85408 175627 5840 4351 166322 2189 1256 1489 3038
internal_count=481690 16808 7523 227 7296 4258 464882 9285 3445 353878 11929 6964 341949 4965 111004 583 121 110421 25013 85408 175627 5840 4351 166322 2189 1256 1489 3038
is_linear=0
shrinkage=0.03


Tree=27
num_leaves=31
num_cat=0
split_feature=98 36 106 61 37 146 170 106 84 133 129 161 151 38 38 19 45 84 95 167 32 106 57 151 18 54 26 141 151 83
split_gain=0.00432252 0.00723282 0.00458409 0.00421382 0.0105074 0.00757183 0.0143564 0.00325075 0.00322336 0.00320245 0.0143555 0.00306258 0.00252237 0.00388784 0.00194526 0.00187397 0.00219614 0.00177175 0.00142218 0.00127233 0.000872497 0.000770982 0.00073246 0.00224159 0.00053431 0.000516602 0.000672221 0.000554652 0.000370223 0.000135172
threshold=-0.00026452418450326334 0.0087940161237925179 0.0045627927964834152 0.015650073066353801 -0.0078929197043180448 -0.011246018645863129 -0.011232442127901929 0.00088169465599451417 -0.0083765286550260502 -0.017491863109171387 0.023407408967614177 0.00032024178653955465 -0.011725457850843666 0.010959782517783285 -0.0012784871817923431 -0.032907592132687562 -0.097679663449525819 -0.011936866411546324 0.0012269125436432662 0.0032056836644187574 0.012051306398162492 0.002348937239592448 -1.0000000180025095e-35 -0.030139447189867493 -0.0033910049613634706 0.0089023515162223923 0.0089527482097870193 -0.0055403588339686385 0.0064696909394115218 -0.033347258344292634
decision_type=6 4 4 4 6 6 6 6 6 6 6 6 6 4 6 6 6 6 6 6 6 6 4 4 6 6 6 6 6 6
left_child=3 2 15 7 5 6 -5 22 17 10 -6 12 13 -3 -14 16 -2 -4 -10 -17 -11 -9 28 -24 -23 27 -27 -13 -1 -7
right_child=1 11 8 4 9 29 -8 21 18 20 -12 25 14 -15 -16 19 -18 -19 -20 -21 -22 24 23 -25 -26 26 -28 -29 -30 -31
leaf_value=-8.4358301700964016e-07 7.6992282107023354e-05 0 -4.8487828831421686e-05 0.00058967012163934252 4.8390888587850598e-06 0 0 -5.9698134740605048e-06 -1.0932499432981172e-05 -6.4156049879281851e-06 0.00019789756519929128 -1.6233569332361405e-05 -2.3545347232128981e-05 6.5218074735240699e-05 2.1245434391238885e-05 3.8942231492104732e-06 7.5704842591426526e-06 0 5.3118440286248881e-06 -7.6979156003067467e-07 8.8524508780009989e-06 -2.4315022843374995e-05 -2.7684151713549406e-05 -2.6031757642231856e-06 -1.089698157045381e-05 0 2.201676192058347e-05 3.9377938905898241e-06 4.3888852362174874e-06 2.7488580114849528e-05
leaf_weight=53510 665 1458 2973 86 3266 93 154 25269 13587 8848 415 1741 684 3424 7280 134589 3053 1389 6130 78780 5370 6751 3553 73537 20609 2122 2476 2678 15359 159
leaf_count=53510 665 1458 2973 86 3266 93 154 25269 13587 8848 415 1741 684 3424 7280 134589 3053 1389 6130 78780 5370 6751 3553 73537 20609 2122 2476 2678 15359 159
internal_value=0 2.67726e-06 1.11319e-06 -3.04112e-06 1.04589e-05 0.000148291 0.000270275 -4.36697e-06 -1.11913e-05 5.81614e-06 3.07731e-05 1.92425e-05 2.88847e-05 4.76153e-05 1.55106e-05 2.54717e-06 2.40542e-05 -3.51762e-05 -5.12143e-06 2.10189e-06 0 -1.08237e-05 -1.93597e-06 -3.95439e-06 -1.47576e-05 3.83928e-06 1.13844e-05 -6.20182e-07 1.05645e-07 0
internal_weight=0 263029 241166 216979 18391 492 240 198588 24079 17899 3681 21863 12846 4882 7964 217087 3718 4362 19717 213369 14218 52629 145959 77090 27360 9017 4598 4419 68869 252
internal_count=480008 263029 241166 216979 18391 492 240 198588 24079 17899 3681 21863 12846 4882 7964 217087 3718 4362 19717 213369 14218 52629 145959 77090 27360 9017 4598 4419 68869 252
is_linear=0
shrinkage=0.03


Tree=28
num_leaves=30
num_cat=0
split_feature=36 90 61 73 99 157 106 128 90 98 106 149 106 45 22 98 161 106 122 59 165 112 108 155 30 33 149 77 36
split_gain=0.00706579 0.00494921 0.00888939 0.0124359 0.00908021 0.00710682 0.0037889 0.00242698 0.00238313 0.00230262 0.00292925 0.00210891 0.00207945 0.00187281 0.00238859 0.0039943 0.0014081 0.00118253 0.00113695 0.000777846 0.00245111 0.000660771 0.000612398 0.000903149 0.000473923 0.000876752 0.000295073 0.00049807 8.02642e-05
threshold=0.0026313385410500312 -0.0055406973444943122 0.021303811110556129 0.00020781980856554585 -0.0060235215350985518 -0.016536906361579892 -0.0011201061717391826 0.0026415331139611597 0.0044202208178614989 3.3314926822030154e-05 0.0065673212383883283 0.013675900641828777 -0.0021556662564000376 -0.068798396736383424 0.07170163878893189 -0.0021412177183976534 0.0086163440719246882 0.0031277217387976845 -0.0061176519183785945 0.046339524909853942 -0.014103246387094258 -0.0076113354451297901 -0.00092768073320224074 -0.026975970715284344 -0.0026007558843943678 -0.02771985903382301 0.0043814799282699832 -0.020665582269430157 -0.017197533366432222
decision_type=6 6 4 6 6 6 6 6 6 6 6 6 6 6 6 6 6 6 6 6 6 6 6 6 6 4 6 6 6
left_child=1 5 9 4 -4 6 11 13 -5 12 -11 -1 -3 22 18 -16 19 -8 -15 21 -21 -9 23 -2 -18 -26 27 -7 -28
right_child=7 2 3 8 -6 26 17 16 -10 10 -12 -13 -14 14 15 -17 24 -19 -20 20 -22 -23 -24 -25 25 -27 28 -29 -30
