tree
version=v4
num_class=1
num_tree_per_iteration=1
label_index=0
max_feature_idx=173
objective=regression
feature_names=log_close/mean_60_id0 log_return_60_id0 log_close/mean_300_id0 log_return_300_id0 log_close/mean_900_id0 log_return_900_id0 log_close/mean_60_id1 log_return_60_id1 log_close/mean_300_id1 log_return_300_id1 log_close/mean_900_id1 log_return_900_id1 log_close/mean_60_id2 log_return_60_id2 log_close/mean_300_id2 log_return_300_id2 log_close/mean_900_id2 log_return_900_id2 log_close/mean_60_id3 log_return_60_id3 log_close/mean_300_id3 log_return_300_id3 log_close/mean_900_id3 log_return_900_id3 log_close/mean_60_id4 log_return_60_id4 log_close/mean_300_id4 log_return_300_id4 log_close/mean_900_id4 log_return_900_id4 log_close/mean_60_id5 log_return_60_id5 log_close/mean_300_id5 log_return_300_id5 log_close/mean_900_id5 log_return_900_id5 log_close/mean_60_id6 log_return_60_id6 log_close/mean_300_id6 log_return_300_id6 log_close/mean_900_id6 log_return_900_id6 log_close/mean_60_id7 log_return_60_id7 log_close/mean_300_id7 log_return_300_id7 log_close/mean_900_id7 log_return_900_id7 log_close/mean_60_id8 log_return_60_id8 log_close/mean_300_id8 log_return_300_id8 log_close/mean_900_id8 log_return_900_id8 log_close/mean_60_id9 log_return_60_id9 log_close/mean_300_id9 log_return_300_id9 log_close/mean_900_id9 log_return_900_id9 log_close/mean_60_id10 log_return_60_id10 log_close/mean_300_id10 log_return_300_id10 log_close/mean_900_id10 log_return_900_id10 log_close/mean_60_id11 log_return_60_id11 log_close/mean_300_id11 log_return_300_id11 log_close/mean_900_id11 log_return_900_id11 log_close/mean_60_id12 log_return_60_id12 log_close/mean_300_id12 log_return_300_id12 log_close/mean_900_id12 log_return_900_id12 log_close/mean_60_id13 log_return_60_id13 log_close/mean_300_id13 log_return_300_id13 log_close/mean_900_id13 log_return_900_id13 mean_close/mean_60 mean_log_returns_60 log_close/mean_60-mean_close/mean_60_id0 log_return_60-mean_log_returns_60_id0 log_close/mean_60-mean_close/mean_60_id1 log_return_60-mean_log_returns_60_id1 log_close/mean_60-mean_close/mean_60_id2 log_return_60-mean_log_returns_60_id2 log_close/mean_60-mean_close/mean_60_id3 log_return_60-mean_log_returns_60_id3 log_close/mean_60-mean_close/mean_60_id4 log_return_60-mean_log_returns_60_id4 log_close/mean_60-mean_close/mean_60_id5 log_return_60-mean_log_returns_60_id5 log_close/mean_60-mean_close/mean_60_id6 log_return_60-mean_log_returns_60_id6 log_close/mean_60-mean_close/mean_60_id7 log_return_60-mean_log_returns_60_id7 log_close/mean_60-mean_close/mean_60_id8 log_return_60-mean_log_returns_60_id8 log_close/mean_60-mean_close/mean_60_id9 log_return_60-mean_log_returns_60_id9 log_close/mean_60-mean_close/mean_60_id10 log_return_60-mean_log_returns_60_id10 log_close/mean_60-mean_close/mean_60_id11 log_return_60-mean_log_returns_60_id11 log_close/mean_60-mean_close/mean_60_id12 log_return_60-mean_log_returns_60_id12 log_close/mean_60-mean_close/mean_60_id13 log_return_60-mean_log_returns_60_id13 mean_close/mean_300 mean_log_returns_300 log_close/mean_300-mean_close/mean_300_id0 log_return_300-mean_log_returns_300_id0 log_close/mean_300-mean_close/mean_300_id1 log_return_300-mean_log_returns_300_id1 log_close/mean_300-mean_close/mean_300_id2 log_return_300-mean_log_returns_300_id2 log_close/mean_300-mean_close/mean_300_id3 log_return_300-mean_log_returns_300_id3 log_close/mean_300-mean_close/mean_300_id4 log_return_300-mean_log_returns_300_id4 log_close/mean_300-mean_close/mean_300_id5 log_return_300-mean_log_returns_300_id5 log_close/mean_300-mean_close/mean_300_id6 log_return_300-mean_log_returns_300_id6 log_close/mean_300-mean_close/mean_300_id7 log_return_300-mean_log_returns_300_id7 log_close/mean_300-mean_close/mean_300_id8 log_return_300-mean_log_returns_300_id8 log_close/mean_300-mean_close/mean_300_id9 log_return_300-mean_log_returns_300_id9 log_close/mean_300-mean_close/mean_300_id10 log_return_300-mean_log_returns_300_id10 log_close/mean_300-mean_close/mean_300_id11 log_return_300-mean_log_returns_300_id11 log_close/mean_300-mean_close/mean_300_id12 log_return_300-mean_log_returns_300_id12 log_close/mean_300-mean_close/mean_300_id13 log_return_300-mean_log_returns_300_id13 mean_close/mean_900 mean_log_returns_900 log_close/mean_900-mean_close/mean_900_id0 log_return_900-mean_log_returns_900_id0 log_close/mean_900-mean_close/mean_900_id1 log_return_900-mean_log_returns_900_id1 log_close/mean_900-mean_close/mean_900_id2 log_return_900-mean_log_returns_900_id2 log_close/mean_900-mean_close/mean_900_id3 log_return_900-mean_log_returns_900_id3 log_close/mean_900-mean_close/mean_900_id4 log_return_900-mean_log_returns_900_id4 log_close/mean_900-mean_close/mean_900_id5 log_return_900-mean_log_returns_900_id5 log_close/mean_900-mean_close/mean_900_id6 log_return_900-mean_log_returns_900_id6 log_close/mean_900-mean_close/mean_900_id7 log_return_900-mean_log_returns_900_id7 log_close/mean_900-mean_close/mean_900_id8 log_return_900-mean_log_returns_900_id8 log_close/mean_900-mean_close/mean_900_id9 log_return_900-mean_log_returns_900_id9 log_close/mean_900-mean_close/mean_900_id10 log_return_900-mean_log_returns_900_id10 log_close/mean_900-mean_close/mean_900_id11 log_return_900-mean_log_returns_900_id11 log_close/mean_900-mean_close/mean_900_id12 log_return_900-mean_log_returns_900_id12 log_close/mean_900-mean_close/mean_900_id13 log_return_900-mean_log_returns_900_id13
feature_infos=[-0.27805297355941316:0.20378711353993445] [-0.34597417712211609:0.31443879008293152] [-0.38054498509878487:0.19329061055673849] [-0.48409068584442139:0.27774021029472351] [-0.47694461711876157:0.2838746536890468] [-0.59360933303833008:0.51113796234130859] [-0.18700066564400292:0.15852327224531729] [-0.24752482771873474:0.28130057454109192] [-0.25299959966696178:0.14670695332147277] [-0.34152746200561523:0.22286398708820343] [-0.34262307672585524:0.16334201590306249] [-0.47345060110092163:0.24903187155723572] [-0.46821061151475529:0.14549028558998237] [-0.53033649921417236:0.38283848762512207] [-0.60139366579795284:0.22828406050287633] [-0.6608349084854126:0.27262455224990845] [-0.67988424367168576:0.31354945196805256] [-0.78613549470901489:0.4492267370223999] [-0.33512935016610695:0.20142147658456636] [-0.43459683656692505:0.34447610378265381] [-0.45409473280620699:0.187010304298277] [-0.52008485794067383:0.45151025056838989] [-0.53500030108412666:0.23260452653752045] [-0.65235692262649536:0.39201706647872925] [-0.36737830468709476:0.30977824397551318] [-0.48497647047042847:0.55725020170211792] [-0.49777245152254468:0.58732301500601791] [-0.69954627752304077:1.1236412525177002] [-0.5703451128143433:1.0236032150849763] [-0.70677405595779419:1.9312264919281006] [-0.41035013249891972:0.1485152161887171] [-0.48678091168403625:0.27371025085449219] [-0.53537937429035665:0.22921558231943592] [-0.59465539455413818:0.41252803802490234] [-0.60885697830832486:0.35533046149241804] [-0.72342973947525024:0.47151976823806763] [-0.24389349407260733:0.14732778958284506] [-0.35474357008934021:0.3378961980342865] [-0.37228265214697848:0.18464232069201436] [-0.4304315447807312:0.27936962246894836] [-0.45449898970153119:0.17053083122589163] [-0.56680446863174438:0.2873421311378479] [-0.35662990879013257:0.21197492132365639] [-0.52016961574554443:0.38153541088104248] [-0.55159566020810857:0.25383069564026628] [-0.63466006517410278:0.37475177645683289] [-0.65235717890905121:0.40165229281415293] [-0.78173065185546875:0.52766299247741699] [-0.44587990258127397:0.19884540839234019] [-0.53895717859268188:0.36245882511138916] [-0.60115373814879902:0.21997411937231728] [-0.68477094173431396:0.43211394548416138] [-0.68886144346792788:0.30625321883626588] [-0.79063069820404053:0.4925818145275116] [-0.37655008049156874:0.21605550825775] [-0.49499672651290894:0.29390084743499756] [-0.52090096345642201:0.25693405582385276] [-0.59514552354812622:0.28201627731323242] [-0.59274604299085776:0.25107141477362183] [-0.68302124738693237:0.32790568470954895] [-0.26173471577752094:0.31465640101994657] [-0.35019603371620178:0.38075369596481323] [-0.41035806374453554:0.27862321502310539] [-0.50714701414108276:0.42322754859924316] [-0.46971618695922274:0.32256894337312264] [-0.82452213764190674:0.63893908262252808] [-0.40143252332971524:0.20088357259985412] [-0.46586686372756958:0.33410552144050598] [-0.52198804637570073:0.13236107324023957] [-0.58030760288238525:0.27975782752037048] [-0.60811700213027686:0.16685384572997058] [-0.72055947780609131:0.38319206237792969] [-0.42110778432305213:0.19156681012217169] [-0.50214076042175293:0.34062168002128601] [-0.55995036266511511:0.23946047908119583] [-0.62733304500579834:0.39756950736045837] [-0.63520049757208485:0.39723259933541571] [-0.7367437481880188:0.58786630630493164] [-0.25151748981105149:0.21720745280700043] [-0.32834291458129883:0.27043277025222778] [-0.36617822684563806:0.22966896651280122] [-0.42657539248466492:0.26479998230934143] [-0.44490161223686059:0.25360301526545587] [-0.55020785331726074:0.35106021165847778] [-0.33445422486934528:0.15045216974056719] [-0.42554935812950134:0.2769588828086853] [-0.086214634185882558:0.083356741273846874] [-0.11597177386283875:0.12891429662704468] [-0.070927401653053029:0.18695126254753874] [-0.16707092523574829:0.21991874277591705] [-0.13375638664541001:0.10078897215275] [-0.13692241907119751:0.16542363166809082] [-0.073666580198410186:0.12228379266769139] [-0.087819337844848633:0.15502215921878815] [-0.23777473809937694:0.29101299107227713] [-0.45310679078102112:0.52535772323608398] [-0.1805843323633857:0.12418961875966222] [-0.19931153953075409:0.21194897592067719] [-0.065423605636918097:0.10501481772670954] [-0.0699586421251297:0.11025971174240112] [-0.12159187148967246:0.14811620941575357] [-0.1783386617898941:0.21297526359558105] [-0.12210059729300127:0.094881318479032306] [-0.15472939610481262:0.12735858559608459] [-0.076268883883984201:0.17666821008338512] [-0.15032696723937988:0.21755246818065643] [-0.19234812979310398:0.24074256014757706] [-0.29535791277885437:0.38896173238754272] [-0.073524998289685339:0.079763773884462943] [-0.10601728409528732:0.10272063314914703] [-0.13284692724084057:0.17847969234845634] [-0.14881235361099243:0.23948672413825989] [-0.098519027523629787:0.15460493200657721] [-0.14567510783672333:0.21735073626041412] [-0.45483033265431294:0.12202687327550092] [-0.52287179231643677:0.30726537108421326] [-0.12494443662984023:0.17819166820734197] [-0.18201906979084015:0.27396586537361145] [-0.06265029343333807:0.26182971224228491] [-0.10605376213788986:0.29485896229743958] [-0.15090628338642997:0.16345984159011184] [-0.18595293164253235:0.20738668739795685] [-0.09070581178956319:0.16209597891486191] [-0.11548679322004318:0.19374822080135345] [-0.43600050766718196:0.5526526587889713] [-0.67774820327758789:1.0676093101501465] [-0.18585218686184124:0.19939686118834421] [-0.2023676335811615:0.36805865168571472] [-0.051951558862122375:0.13235264383532458] [-0.097975030541419983:0.13656479120254517] [-0.13759659045458625:0.23735896276462495] [-0.2409873902797699:0.33848506212234497] [-0.17614789351333232:0.20315353967258165] [-0.23355747759342194:0.27929732203483582] [-0.083868696098110984:0.20279613006111713] [-0.18433710932731628:0.21256281435489655] [-0.27241693468709494:0.23847693955483154] [-0.28249132633209229:0.37006288766860962] [-0.11749895051370036:0.10228280244138474] [-0.2213176041841507:0.14141017198562622] [-0.1465442690718684:0.19467752894656798] [-0.21366646885871887:0.34891319274902344] [-0.1329905034554297:0.19228471765763738] [-0.20819666981697083:0.26755613088607788] [-0.53685635061051196:0.1699460316477637] [-0.64534235000610352:0.32684582471847534] [-0.17065826445035026:0.26557642329112335] [-0.22618837654590607:0.47198817133903503] [-0.087923153217080358:0.30527219148557561] [-0.16341815888881683:0.34936025738716125] [-0.15710674715859019:0.22159749377532995] [-0.17805415391921997:0.3300725519657135] [-0.10404559952266737:0.17941808584946783] [-0.18181341886520386:0.23663733899593353] [-0.40436346177927224:0.95476859976709183] [-0.6410372257232666:1.7747427225112915] [-0.19608184473808773:0.29969260476251625] [-0.22972744703292847:0.38372135162353516] [-0.10315480688584765:0.12957474383264034] [-0.18119262158870697:0.15857252478599548] [-0.15673740509751341:0.3551506248396834] [-0.22237791121006012:0.46101668477058411] [-0.21606862985289541:0.27343065269168326] [-0.22151392698287964:0.41456350684165955] [-0.1030695764255786:0.2103406718286607] [-0.21574914455413818:0.21775045990943909] [-0.26030137576096374:0.26672289962146267] [-0.53140568733215332:0.41998648643493652] [-0.16778567334001934:0.13739391898276915] [-0.22725245356559753:0.21541911363601685] [-0.14785551570691557:0.33147852839843112] [-0.19718536734580994:0.48305445909500122] [-0.16076646340130127:0.25127197133740869] [-0.24729825556278229:0.33121120929718018]
tree_sizes=2862 3228 2830 3237 2902 3242 2959 3163 3263 2971 3036 3257 2972 3201 2980 3069 3174 3150 3125 3051 3088 3036 3068 3052 2811 2815 3176 3177 2823 2340 3150 3031 3256 3127 3241 2989 3014 2778 3259 3170 2834 2963 3159 2632 3102 2908 3143 2876 3056 3103 2862 3050 3179 3194 2475 3133 3189 2809 3089 2422 2791 3056 2533 2607 2926 2528 2915 2426 3128 3102 2496 2215 3185 2965 2925 3023 3029 3120 3067 3126 3048 2987 2454 2645 2805

Tree=0
num_leaves=26
num_cat=0
split_feature=90 120 13 28 120 27 30 104 134 14 120 24 24 48 18 59 84 13 12 64 32 120 102 114 165
split_gain=0.0162154 0.0143499 0.004801 0.0037359 0.00312448 0.00298716 0.00228059 0.0020574 0.00199684 0.00189617 0.00131774 0.00127022 0.00113612 0.00211338 0.00100675 0.000859817 0.000751803 0.000488809 0.000401645 0.000311871 0.000250334 0.000197777 0.00018988 0.00015941 0.000126368
threshold=0.00028800489932725618 -0.010365275397693057 -0.06873049214482306 -0.0057464228581287297 -0.001832328814187902 -0.027682235464453694 -0.0030064674272975499 0.0018301563536728799 -1.0000000180025095e-35 0.013321078046382205 0.0048426400677285342 0.013427579351488571 -0.00026066493109048642 0.0014999076248868525 0.0058817214280069939 0.032723514363169677 8.9519707276494067e-05 0.0097176590934395807 1.352825137536192e-05 -0.0074475848173373672 0.012136476336447133 0.0030764346019866956 0.00031955761064261231 0.0042213026784183117 -0.0037324239965528245
decision_type=4 4 4 6 4 4 6 4 4 6 6 6 6 6 4 6 6 6 6 6 6 6 6 6 6
left_child=1 3 8 6 7 9 17 16 -2 10 -4 23 15 -14 18 -7 -3 -1 -6 -16 -8 -11 -9 -5 -13
right_child=2 4 5 11 14 12 20 22 -10 21 -12 24 13 -15 19 -17 -18 -19 -20 -21 -22 -23 -24 -25 -26
leaf_value=4.0614502417254055e-05 -1.0979538847493333e-05 -5.7535558378123623e-06 -1.6245149608957382e-05 1.3356164986172357e-05 -9.5816407595569691e-06 -1.4009914531125819e-05 2.9235172572463098e-06 2.6826225916099322e-06 -0.00021120270653895778 -1.0979538847493333e-05 -3.1045904911571862e-05 -1.6324048759117812e-05 -1.3075898354188622e-05 -2.032839317566966e-05 -1.9548396559557839e-05 -8.9080089683742509e-06 -9.4715778929351497e-06 -1.0979538847493333e-05 -1.2113056690029819e-05 -1.1954170794660159e-05 3.2470426883682001e-05 -5.4704208279007427e-05 -4.7941670954017024e-06 -1.6853427701649687e-06 -5.7611191195087477e-06
leaf_weight=6392 146 100136 20692 5104 152121 163589 6147 22417 163 266 10213 2950 81295 76411 15473 32710 126331 81 84294 14672 1087 2279 14777 6400 1078
leaf_count=6392 146 100136 20692 5104 152121 163589 6147 22417 163 266 10213 2950 81295 76411 15473 32710 126331 81 84294 14672 1087 2279 14777 6400 1078
internal_value=-1.09795e-05 -7.75178e-06 -1.57341e-05 1.27571e-05 -8.91111e-06 -1.55993e-05 2.47972e-05 -6.59314e-06 -0.000135441 -2.43468e-05 -2.16226e-05 1.16276e-06 -1.47303e-05 -1.6685e-05 -1.11476e-05 -1.30833e-05 -7.76133e-06 3.96238e-05 -1.05477e-05 -1.63501e-05 9.44706e-06 -5.15048e-05 1.15891e-07 6.29489e-06 -1.09795e-05
internal_weight=0 559460 387764 29239 530221 387455 13707 263661 309 33450 30905 15532 354005 157706 266560 196299 226467 6473 236415 30145 7234 2545 37194 11504 4028
internal_count=947224 559460 387764 29239 530221 387455 13707 263661 309 33450 30905 15532 354005 157706 266560 196299 226467 6473 236415 30145 7234 2545 37194 11504 4028
is_linear=0
shrinkage=1


Tree=1
num_leaves=31
num_cat=0
split_feature=90 91 25 75 124 121 91 155 36 165 61 60 62 120 25 73 24 49 43 14 65 19 105 166 16 97 28 1 28 84
split_gain=0.0177591 0.00577529 0.00571848 0.00466618 0.00450299 0.00270069 0.00165901 0.00148871 0.0028296 0.0018445 0.00129773 0.00139822 0.00125205 0.00110761 0.000901844 0.000840982 0.000787241 0.000714504 0.00112833 0.00085843 0.000671324 0.000601533 0.000548056 0.000383595 0.000484712 0.000287276 0.000160856 0.000107062 7.58662e-05 7.42873e-05
threshold=-0.0014826869176858117 -0.010296085849404333 -0.012613296508789061 -0.037376787513494485 -0.0080892312058269342 -0.0089930729009211046 0.0035321299219504003 0.019256154075264934 0.0013114217547524622 0.018943022936582569 0.038025692105293281 -0.017699853376690305 -0.038391896932081719 0.0069736086426748613 0.00013249234325485307 0.0098027149215340632 -0.0013417696855920469 -0.0024110212689265604 0.039961617439985282 0.0029824538576664976 0.0033754298929125075 0.010608647949993612 0.00042500626295804983 -0.011054647595318061 -0.034234389965393158 -0.00072790827834978689 0.01327518549819807 -0.0065419510938227168 -0.0080308183409719004 -0.00030922284491905979
decision_type=6 6 6 6 6 4 6 4 6 6 6 4 4 6 6 6 4 4 6 6 4 4 6 6 6 6 6 6 6 6
left_child=1 2 10 4 12 14 17 8 -8 -9 11 -1 20 22 29 -15 25 18 -5 -19 -2 -18 -4 28 -25 -7 -14 -16 -6 -3
right_child=3 5 13 6 23 16 7 9 -10 -11 -12 -13 26 15 27 -17 21 19 -20 -21 -22 -23 -24 24 -26 -27 -28 -29 -30 -31
leaf_value=8.4053521976314199e-05 -7.0439816360764315e-05 1.895519469479094e-05 7.5527988800440543e-06 7.8193131391993179e-08 -3.1027557370062443e-06 3.3822310815167612e-06 -1.9545481111322877e-06 -2.3392325170700866e-06 -1.2429730485374928e-05 1.6993080229995697e-05 0 3.4966789710582054e-05 -2.4817854764531565e-05 0 0 -4.5668242551330112e-05 3.0040919359638729e-06 -5.5176549833828775e-07 3.2432970524787784e-05 -3.7445667141377397e-06 0 -1.9727026389418293e-06 2.5167730074303013e-05 -1.6680829663356723e-05 -3.1364418936739752e-06 9.9583377274420091e-06 0 6.9684281455488003e-06 0 1.0082570003858484e-05
leaf_weight=1323 1457 15064 11505 194787 10188 21924 57231 30552 44437 5168 219 5945 5510 794 2124 441 97510 198480 981 137786 75 24371 3664 7463 8603 20778 247 25570 2352 12013
leaf_count=1323 1457 15064 11505 194787 10188 21924 57231 30552 44437 5168 219 5945 5510 794 2124 441 97510 198480 981 137786 75 24371 3664 7463 8603 20778 247 25570 2352 12013
internal_value=0 6.95487e-06 2.11767e-05 -2.44536e-06 -1.30527e-05 5.33734e-06 -1.85414e-06 -4.82457e-06 -6.68073e-06 3.86685e-08 4.35536e-05 4.5986e-05 -3.46592e-05 1.00451e-05 1.12251e-05 -1.16202e-05 3.28674e-06 -1.05887e-06 3.17274e-07 -1.90465e-06 -6.57671e-05 1.88586e-06 1.27991e-05 -7.02079e-06 -1.03629e-05 6.93361e-06 -2.37565e-05 6.43086e-06 -1.54196e-06 1.55737e-05
internal_weight=0 243245 23891 705317 35895 219354 669422 137388 101668 35720 7487 7268 7289 16404 54771 1235 164583 532034 195768 336266 1532 121881 15169 28606 16066 42702 5757 27694 12540 27077
internal_count=948562 243245 23891 705317 35895 219354 669422 137388 101668 35720 7487 7268 7289 16404 54771 1235 164583 532034 195768 336266 1532 121881 15169 28606 16066 42702 5757 27694 12540 27077
is_linear=0
shrinkage=0.03


Tree=2
num_leaves=27
num_cat=0
split_feature=90 90 77 84 149 150 82 120 48 154 119 120 120 29 27 61 150 103 29 148 88 48 150 61 72 82
split_gain=0.0164925 0.00684907 0.00674153 0.00546232 0.00289559 0.00196718 0.00177045 0.00128942 0.00141292 0.0011396 0.000919656 0.00145423 0.000898776 0.000667161 0.000661824 0.000637917 0.00399024 0.000362716 0.000357226 0.000354422 0.000336591 0.000321968 0.000300003 0.000169586 0.000158968 6.54447e-05
threshold=-0.00042045260668052432 -0.0023221521250615163 -0.14228667318820951 -0.004841880083791804 -0.01057909522205591 -0.0018208432959743283 -0.043480550878531414 0.00073695658761483405 0.0016973117820877799 0.0071472249820125682 0.027683353051543239 -0.0090552253346158056 -0.00022575962221101388 -0.013601202517747877 -0.063430361449718461 0.015003220178186895 -0.014566495657178392 0.00029855183674953883 0.0017670269007794561 0.0051081418027280898 -0.00095824004203353232 0.0008760003762351866 -0.001144665466092282 -0.010936178732663391 0.0022260683537596352 0.017154290498009286
decision_type=4 6 4 6 6 6 6 6 6 6 6 6 6 4 6 6 6 6 4 6 6 6 6 6 6 6
left_child=1 3 4 15 -2 13 9 17 -9 14 11 -5 19 -6 -4 16 -1 -8 -11 23 -21 25 -12 -3 -23 -14
right_child=2 12 6 10 5 -7 7 8 -10 18 22 -13 21 -15 -16 -17 -18 -19 -20 20 -22 24 -24 -25 -26 -27
leaf_value=4.8367282614427235e-05 0.00010880221513266756 3.4197946078369938e-06 -3.2664760167959949e-05 1.4016355545108513e-05 -2.5568295089719485e-05 -7.4194761801733974e-05 0 -2.5261149152398012e-06 -7.4115505346185406e-06 -6.7495547451083645e-06 3.8028779598547619e-05 4.9570982798186495e-06 0 0 -8.9613731652315045e-06 0 1.5675847715361552e-05 -2.3486988378311549e-06 7.0947385092850984e-06 0 7.1044063080655092e-06 -2.6261348019667996e-07 0 1.0099569134805649e-06 -5.401428732372277e-06 3.8088682931796956e-06
leaf_weight=5464 50 56095 3714 22271 1821 1885 132976 179041 86882 6614 1467 104615 35745 193 4974 833 15621 105665 1378 8079 29173 18165 1003 101809 16994 4814
leaf_count=5464 50 56095 3714 22271 1821 1885 132976 179041 86882 6614 1467 104615 35745 193 4974 833 15621 105665 1378 8079 29173 18165 1003 101809 16994 4814
internal_value=0 4.55772e-06 -3.40508e-06 9.69169e-06 -4.27422e-05 -4.85856e-05 -3.07812e-06 -2.72237e-06 -4.17873e-06 -1.29384e-05 7.17768e-06 6.66559e-06 1.63515e-06 -1.71264e-05 -2.08256e-05 2.38426e-05 2.48627e-05 -1.03665e-06 -2.4849e-06 2.7332e-06 5.60316e-06 -9.96854e-07 2.73894e-05 1.96107e-06 -3.17322e-06 5.20001e-07
internal_weight=0 422148 525193 151274 3949 3899 521244 504564 265923 16680 129356 126886 270874 2014 8688 21918 21085 238641 7992 195156 37252 75718 2470 157904 35159 40559
internal_count=947341 422148 525193 151274 3949 3899 521244 504564 265923 16680 129356 126886 270874 2014 8688 21918 21085 238641 7992 195156 37252 75718 2470 157904 35159 40559
is_linear=0
shrinkage=0.03


Tree=3
num_leaves=31
num_cat=0
split_feature=120 90 90 12 79 86 48 28 144 48 34 12 154 34 64 149 85 90 36 20 18 34 103 116 65 136 63 93 29 166
split_gain=0.0135736 0.00513899 0.00509887 0.0074378 0.00357907 0.00295531 0.00192262 0.00404845 0.00191108 0.0016711 0.00150601 0.00130543 0.00122244 0.0010566 0.00104692 0.000992071 0.000975802 0.000878838 0.000803963 0.000586508 0.000589863 0.000507566 0.000491369 0.000486791 0.000373996 0.000302337 0.00029526 0.000199315 0.000177604 4.50577e-08
threshold=-0.0028055630448018177 0.0021716197811324973 -0.0013829528166483078 -0.012535903841591955 -0.021732138469815251 0.0061114088211991638 0.0027509970982934058 0.13132541171349468 -0.10432661067244543 -0.019562191911400403 0.044471541852792944 0.0054866290645821511 0.00087963464581708006 -0.0050019857441704748 -0.097174092819226704 -0.025419622659683224 -0.0049647553823888293 -0.0013711862145819082 -0.00028068566676277376 -0.0031226941880309186 -0.00017078500635196627 0.0013473764211047957 -0.0053210856858640901 -0.011694800079393683 0.0052951802499592313 -0.0095107154420684351 -0.021337126381695267 -0.0033160815946757789 0.00089146685786545287 0.0083282722825852307
decision_type=6 6 6 6 6 4 6 4 6 6 6 4 6 6 6 6 4 6 6 6 6 6 4 4 4 6 6 4 4 4
left_child=2 11 3 5 9 28 13 -8 14 12 16 17 -3 -6 24 -12 -5 18 -2 20 -10 -11 29 -7 -4 -21 -19 -24 -1 -13
right_child=1 4 8 10 6 23 7 -9 19 21 15 22 -14 -15 -16 -17 -18 26 -20 25 -22 -23 27 -25 -26 -27 -28 -29 -30 -31
leaf_value=1.3218544779341612e-05 4.6266220983545657e-06 -7.6907400592969509e-05 -9.3978787413189732e-05 1.3078538372860382e-05 -8.1692773734263471e-06 0 -1.5800401647599905e-05 1.1695443915480542e-05 6.7937282412140758e-06 -1.9103133631830882e-05 3.7560395474265884e-05 1.0169684683022025e-07 -1.4930925430260118e-05 -8.5345484064789554e-07 0 4.0951979656378543e-06 5.0708314233221588e-06 -2.3045505967461287e-06 -4.8926158528210094e-07 2.2207972494070439e-06 -1.7596055119911498e-07 0 -9.2954167134104937e-07 6.5162176420342389e-05 0 -1.612148146090715e-06 -5.4671114576395275e-07 -1.077944930405085e-05 3.2199740579966785e-05 0
leaf_weight=6048 48467 1254 328 19472 30064 68 34397 4962 26376 3804 2772 3919 1377 57199 51 2788 114375 163017 53871 27497 11879 1240 5995 2634 90 52919 247373 18615 3414 2608
leaf_count=6048 48467 1254 328 19472 30064 68 34397 4962 26376 3804 2772 3919 1377 57199 51 2788 114375 163017 53871 27497 11879 1240 5995 2634 90 52919 247373 18615 3414 2608
internal_value=0 -2.36399e-06 5.5812e-06 9.2417e-06 -7.63717e-06 3.20974e-05 -6.27762e-06 -1.19525e-05 7.98299e-07 -2.81057e-05 7.1394e-06 -1.03427e-06 -5.02034e-05 -3.54593e-06 -5.89313e-05 2.3484e-05 6.34803e-06 -6.39788e-07 1.78708e-06 1.16174e-06 4.23751e-06 -1.35913e-05 -7.04798e-06 6.30659e-05 -7.83455e-05 -1.14984e-07 -1.28153e-06 -8.98974e-06 2.16575e-05 0
internal_weight=0 678162 270711 151571 134297 12164 126622 39359 119140 7675 139407 543865 2631 87263 469 5560 133847 512728 102338 118671 38255 5044 31137 2702 418 80416 410390 24610 9462 6527
internal_count=948873 678162 270711 151571 134297 12164 126622 39359 119140 7675 139407 543865 2631 87263 469 5560 133847 512728 102338 118671 38255 5044 31137 2702 418 80416 410390 24610 9462 6527
is_linear=0
shrinkage=0.03


Tree=4
num_leaves=28
num_cat=0
split_feature=90 90 144 166 24 76 124 130 74 150 38 28 89 72 49 151 103 150 27 104 156 136 125 96 120 64 120
split_gain=0.014333 0.00799999 0.0064835 0.00437195 0.00360595 0.0019619 0.00192814 0.00164714 0.00148322 0.00110322 0.00102543 0.00284539 0.00101072 0.000939783 0.000902716 0.0008291 0.000676646 0.000654907 0.000653827 0.000628453 0.000511293 0.000458357 0.000428975 0.000405164 0.00038864 0.000378707 0.000229434
threshold=-0.00027322355922074752 -0.0036204343338525 -0.10432661067244543 0.011041693382085339 -0.0025529270566064239 -0.04716158160598144 -0.00066358893162181583 -0.003723322544969957 -0.0074901880286020886 -0.0047830376987226938 0.005452585464463049 0.22356236108692437 -0.00084077089559286822 0.0017327172294584758 0.01701437029987574 -0.0005564474849961697 -0.002445297315716743 0.0021290930549545581 -0.010834615677595137 0.0029520326480429117 0.0051376079849570168 0.0072714606535695548 -0.01334254117682576 -0.0087093128403309683 -0.0031824663706467014 -0.010488279986323559 -0.0042327026498650772
decision_type=6 6 6 4 6 4 6 6 6 4 6 4 6 4 4 6 6 6 6 6 6 4 6 6 6 6 6
left_child=1 4 3 6 8 18 23 -8 16 19 21 -12 15 22 -10 -6 -1 -14 24 25 -15 -7 -11 -2 -4 -3 -21
right_child=2 9 5 -5 12 10 7 -9 14 13 11 -13 17 20 -16 -17 -18 -19 -20 26 -22 -23 -24 -25 -26 -27 -28
leaf_value=4.4837930311904272e-05 -0.00018324997523318004 5.3102636547012961e-06 0 -0.00011573716093322987 6.9272988345121089e-06 -9.0654078191945092e-07 0 8.0773409518167987e-05 1.6865847889657995e-05 -7.256019506074219e-07 -6.610137462250583e-06 1.034082250482856e-05 1.6313432361983965e-05 -2.9788471436015507e-06 0 -3.3533225561206948e-06 2.0982121787518259e-05 0 0 1.6708847130776853e-05 2.6668012135858873e-06 -3.2269827058473201e-06 3.0013534224886008e-06 0 -1.9354489334757479e-05 1.6217748762799344e-06 2.9589341033673145e-06
leaf_weight=4311 53 61346 2688 785 18157 203124 205 264 14914 28131 114913 9011 14058 66486 1962 9324 7132 4858 2579 6042 15754 153227 123503 318 10620 69438 5315
leaf_count=4311 53 61346 2688 785 18157 203124 205 264 14914 28131 114913 9011 14058 66486 1962 9324 7132 4858 2579 6042 15754 153227 123503 318 10620 69438 5315
internal_value=0 3.94194e-06 -3.44222e-06 -6.37257e-05 1.29476e-05 -3.21429e-06 0 2.31787e-05 2.16693e-05 2.11251e-06 -2.83172e-06 -5.25638e-06 7.30026e-06 7.66343e-07 1.42567e-05 2.89342e-06 3.12864e-05 1.29086e-05 -1.38338e-05 4.22188e-06 -1.71493e-06 -1.94641e-06 2.21101e-06 -6.30393e-05 -1.65126e-05 3.46666e-06 1.15962e-05
internal_weight=0 450731 497787 1625 74716 496162 840 469 28319 376015 480275 123924 46397 233874 16876 27481 11443 18916 15887 142141 82240 356351 151634 371 13308 130784 11357
internal_count=948518 450731 497787 1625 74716 496162 840 469 28319 376015 480275 123924 46397 233874 16876 27481 11443 18916 15887 142141 82240 356351 151634 371 13308 130784 11357
is_linear=0
shrinkage=0.03


Tree=5
num_leaves=31
num_cat=0
split_feature=120 91 90 26 120 20 84 95 24 140 109 85 90 16 90 90 49 19 90 104 92 61 25 136 94 72 86 24 138 96
split_gain=0.0139321 0.0048193 0.00581029 0.00493085 0.00446901 0.00332003 0.00225216 0.00200342 0.00166473 0.00159181 0.00148189 0.00116763 0.00115952 0.00111497 0.000965836 0.000674571 0.000692814 0.000574076 0.00138178 0.000750827 0.000544886 0.000525517 0.000489154 0.000472533 0.000430778 0.000447997 0.000373171 0.000341269 0.000327268 0.00026658
threshold=-0.0042987125508582432 -0.0063878772780299178 -0.0076961624866256273 -0.011950479731494008 0.0013758705672953914 -0.027902097450092509 0.0016440409177183358 -0.0033030621707439418 -0.002116656272141419 0.0073927463354136807 -0.0024935952387750144 -0.00072646533953957249 -0.00091133076566937861 0.011355426445301636 -0.0012835560640951683 0.0020244629985514762 0.0077827321365475663 -0.0031278420938178893 -0.0011296051188723576 -0.00012662714106025094 -0.0037843865743962123 0.0032194232335314159 -0.0018288816208951173 -0.01048565186522007 0.00020141838632583732 0.0039160686779051842 0.0011954864468909305 -0.0039692802715052908 -0.0020006947818707391 -0.0031204449190437695
decision_type=4 6 6 6 6 6 4 6 6 6 6 6 6 4 6 6 6 6 6 6 6 6 4 4 6 6 4 6 6 6
left_child=1 2 3 26 14 7 13 11 -8 -9 -5 -6 22 -7 24 27 -17 18 -4 -19 23 -22 -3 -16 28 -26 -1 -14 -2 -24
right_child=4 12 17 10 5 6 8 9 -10 -11 -12 -13 15 -15 20 16 -18 19 -20 -21 21 -23 29 -25 25 -27 -28 -29 -30 -31
leaf_value=3.3094236724564429e-05 3.3572443227821433e-06 1.0787492566892802e-05 1.9129250624000089e-05 0 -4.3053936449276334e-05 -3.4527393124991822e-06 4.7903229477990848e-07 -1.4506595461293226e-05 -9.2476657258307475e-06 2.1096980416679827e-05 2.9283930894101655e-05 0 6.7860707814151087e-06 1.3043872611205186e-06 1.8779857154771539e-05 0 -2.3978118902976271e-05 1.6310712250989602e-06 -5.7640713863002907e-06 1.4021015654681485e-05 -3.2492445984937875e-07 -3.2996304625745677e-06 0 1.5515497347145452e-06 6.0880347185994629e-06 0 8.1364164765906934e-05 0 -6.0627040086321213e-07 5.484570052431893e-06
leaf_weight=1658 27835 23660 13260 2384 3846 123219 16042 8613 82486 994 3076 529 10482 63639 1878 4997 1840 16623 1338 8430 252518 73451 8599 24182 39644 9780 2256 29022 45116 46781
leaf_count=1658 27835 23660 13260 2384 3846 123219 16042 8613 82486 994 3076 529 10482 63639 1878 4997 1840 16623 1338 8430 252518 73451 8599 24182 39644 9780 2256 29022 45116 46781
internal_value=0 7.69841e-06 1.57958e-05 3.76611e-05 -1.68733e-06 -4.55855e-06 -3.79334e-06 -1.91018e-05 -7.51178e-06 -9.25817e-06 1.54621e-05 -3.72763e-05 4.41242e-06 -1.75231e-06 9.29135e-08 2.96201e-07 -7.98014e-06 1.02466e-05 1.58197e-05 6.39959e-06 -6.72068e-07 -1.04125e-06 6.63591e-06 3.37e-06 2.41604e-06 4.64463e-06 6.47744e-05 2.10862e-06 7.00477e-07 4.59106e-06
internal_weight=0 174406 49025 9374 773772 299368 285386 13982 98528 9607 5460 4375 125381 186858 474404 46341 6837 39651 14598 25053 352029 325969 79040 26060 122375 49424 3914 39504 72951 55380
internal_count=948178 174406 49025 9374 773772 299368 285386 13982 98528 9607 5460 4375 125381 186858 474404 46341 6837 39651 14598 25053 352029 325969 79040 26060 122375 49424 3914 39504 72951 55380
is_linear=0
shrinkage=0.03


Tree=6
num_leaves=29
num_cat=0
split_feature=90 16 120 12 54 110 150 147 24 12 86 137 64 128 22 90 90 109 150 31 150 103 166 117 64 90 64 66
split_gain=0.0131552 0.00622536 0.00606663 0.00334023 0.00314911 0.00292996 0.00240902 0.00220937 0.00165107 0.00161542 0.00134204 0.00127929 0.00117196 0.00159358 0.00112109 0.00110323 0.00102364 0.000849082 0.000758655 0.000698918 0.000514086 0.000410887 0.000337365 0.000234768 0.000181909 0.000156783 7.01883e-05 5.34373e-07
threshold=-0.0045128878669895012 -0.041585168501923335 -0.0029560999729086259 0.0070656415811464644 -0.013265825775502333 0.0030479065233365646 -0.013980770573457002 -0.0019954915624111886 -0.00054130800887892429 -0.0040235251423427201 -0.0037061490041600761 -0.012974685989320276 0.0069026209649434541 -0.0034974535851071205 0.0032057181317402096 -0.00024095020858058895 0.0021502388124943921 -0.00091437256196513761 0.0029605905594047516 0.023986505344510082 0.001412850456316348 0.00096101642702706169 -0.014996492850512293 -0.0088477078825235349 0.0015071747380014215 0.00084645731841506775 -0.0027716362490645395 0.001769753933209553
decision_type=6 6 6 4 6 4 6 6 6 6 4 4 4 6 6 6 6 6 6 6 6 6 6 6 6 4 4 6
left_child=1 6 9 4 11 7 12 -5 10 22 27 -4 14 -14 -1 19 -6 20 -19 -11 -10 26 -2 -7 -24 -17 -8 -3
right_child=2 8 3 5 16 23 21 -9 17 15 -12 -13 13 -15 -16 25 -18 18 -20 -21 -22 -23 24 -25 -26 -27 -28 -29
leaf_value=7.9676513144147536e-05 1.2267481940497685e-05 0 0 0 -5.8764322476310308e-07 -3.4865110438871548e-05 2.9134130057421256e-05 -1.2206700436493191e-05 1.7637781143195626e-06 3.1631602451771846e-06 2.0114190016635057e-05 -2.0830714864527998e-05 -5.515309703801425e-07 4.1757197336089493e-05 0 0 -4.2026227720189424e-06 1.5839329935119002e-05 0 1.9146369657851691e-05 -1.1834173206249508e-05 0 7.6141452860313172e-06 -1.538778295908784e-05 1.1633213988385605e-07 -3.3682997460809714e-06 0 -6.6363954336433742e-07
leaf_weight=2425 20783 1638 3170 27885 516226 3740 881 24118 8636 128307 16782 10515 431 1439 229 27765 85090 6840 2409 2947 3139 1229 12175 6616 9665 21548 483 1090
leaf_count=2425 20783 1638 3170 27885 516226 3740 881 24118 8636 128307 16782 10515 431 1439 229 27765 85090 6840 2409 2947 3139 1229 12175 6616 9665 21548 483 1090
internal_value=0 1.5425e-05 -7.47976e-07 -2.1751e-06 -1.47491e-06 -8.83978e-06 4.20213e-05 -5.55631e-06 1.03834e-05 3.51599e-06 1.69149e-05 -1.57892e-05 5.64493e-05 2.40028e-05 7.36282e-05 2.16493e-06 -1.12414e-06 3.60775e-06 1.0571e-05 3.63659e-06 -5.88913e-07 1.10442e-05 8.88731e-06 -2.38754e-05 4.98315e-06 -1.44794e-06 2.24149e-05 0
internal_weight=0 47651 900550 677360 615001 62359 7117 52003 40534 223190 19510 13685 4524 1870 2654 180567 601316 21024 9249 131254 11775 2593 42623 10356 21840 49313 1364 2728
internal_count=948201 47651 900550 677360 615001 62359 7117 52003 40534 223190 19510 13685 4524 1870 2654 180567 601316 21024 9249 131254 11775 2593 42623 10356 21840 49313 1364 2728
is_linear=0
shrinkage=0.03


Tree=7
num_leaves=31
num_cat=0
split_feature=90 120 16 121 78 74 104 48 90 124 55 24 19 120 13 151 84 25 120 61 151 19 121 20 12 120 71 136 48 48
split_gain=0.0124816 0.00482268 0.00395448 0.00472324 0.00362382 0.00266919 0.00214507 0.00196588 0.00153264 0.00113523 0.00109331 0.000998016 0.00102513 0.000879956 0.000632126 0.000512079 0.000475444 0.000386285 0.000357997 0.000283804 0.000346147 0.000264206 0.00115204 0.000206339 0.000201945 0.000172105 0.000164297 0.000145632 0.000141027 0.000124038
threshold=-0.0025230549675528788 0.0011347572556302799 -0.031431986818744213 -0.0096171242184936983 -0.018324165704654959 -0.031330349093989913 -0.00014373253882179199 3.9571226663637198e-05 0.00046753503823870212 0.0010618085330342116 -0.005489757750183343 0.0016121065571799949 -0.018705816939473149 -0.0069342117101291933 -0.0052089223172515622 -0.012864306569099425 0.0069522629081212066 0.0011741179623641076 0.0036658143933744796 0.0036883794236928229 0.010009011253714563 -0.027166623622179028 0.0008407033164985479 -0.006753103029354118 0.0079439549443819611 -0.0042987125508582432 -0.010650706943124531 0.008999782470121313 0.0038755238962061831 0.0020438878248568919
decision_type=4 6 6 6 6 6 6 6 6 6 6 4 4 6 6 6 6 6 6 4 6 6 6 6 6 6 4 4 6 6
left_child=2 8 3 10 9 15 11 -7 14 28 25 18 -13 17 26 -6 -15 -8 -4 27 -21 22 -5 -16 -12 -1 -2 -10 -3 -11
right_child=1 4 6 21 5 7 13 -9 19 29 24 12 -14 16 23 -17 -18 -19 -20 20 -22 -23 -24 -25 -26 -27 -28 -29 -30 -31
leaf_value=4.6232384765978004e-05 6.2447895288826905e-06 -5.0503243252870254e-05 7.5571087160731065e-06 -3.5596412245473038e-05 0 -8.8593782499595685e-07 2.6941363304262097e-05 -5.9823511646666793e-06 0 -1.0568223060078766e-05 1.882970761095452e-05 3.3616079872214723e-05 -8.8103156407879509e-07 9.7584775868388324e-06 3.0596935014976905e-06 -2.519846438064646e-05 0 8.3030361006222728e-06 0 -4.4217737511009951e-06 6.6877912397023127e-07 5.9349258735009877e-06 1.136726122871111e-05 4.179399047694196e-07 0 0 2.3283666087045239e-06 -3.5653158199669075e-06 0 0
leaf_weight=6041 27570 2158 35226 801 1173 151110 6409 137443 61997 2240 3465 788 38497 25887 33695 6414 2791 4687 3522 62096 8870 6143 507 259351 452 127 46149 12512 155 94
leaf_count=6041 27570 2158 35226 801 1173 151110 6409 137443 61997 2240 3465 788 38497 25887 33695 6414 2791 4687 3522 62096 8870 6143 507 259351 452 127 46149 12512 155 94
internal_value=0 -1.34009e-06 8.49867e-06 2.21433e-05 -4.35966e-06 -3.88904e-06 6.33996e-06 -3.36546e-06 4.03727e-07 -3.11098e-05 3.56574e-05 3.1847e-06 0 1.21527e-05 1.46178e-06 -2.18195e-05 8.42858e-06 2.0423e-05 6.60336e-06 -2.16067e-06 -3.57414e-06 1.83445e-06 -5.95266e-06 7.72899e-07 1.63489e-05 4.54789e-05 3.99666e-06 -6.13041e-07 -4.8218e-05 -7.70743e-06
internal_weight=0 813027 135343 17536 300787 296140 117807 288553 512240 4647 10085 78033 39285 39774 366765 7587 28678 11096 38748 145475 70966 7451 1308 293046 3917 6168 73719 74509 2313 2334
internal_count=948370 813027 135343 17536 300787 296140 117807 288553 512240 4647 10085 78033 39285 39774 366765 7587 28678 11096 38748 145475 70966 7451 1308 293046 3917 6168 73719 74509 2313 2334
is_linear=0
shrinkage=0.03


Tree=8
num_leaves=31
num_cat=0
split_feature=120 90 79 86 0 124 12 120 57 6 90 46 65 17 29 90 90 72 65 24 41 56 5 90 90 102 103 25 64 24
split_gain=0.0110993 0.00738514 0.00367278 0.00334662 0.00444917 0.00198169 0.00169029 0.00156401 0.00392446 0.0017469 0.00105847 0.00219125 0.00207299 0.00129774 0.000920335 0.000870204 0.000777739 0.000687128 0.000634183 0.000503631 0.000766743 0.000489168 0.00035574 0.000350481 0.000304221 0.000282182 0.000239669 0.000158826 7.18855e-05 3.6479e-05
threshold=-0.0017973751383817775 -0.0045888288046713821 -0.00597443152219057 0.010409714158905205 -0.0041663198763893915 -0.0055831188705967325 -0.0036353105941962067 0.0032656560455132807 -0.031321575865149491 0.0011654134524935779 0.0010049182024809823 0.05302919328541713 0.0068044494837522515 -0.020246814005076882 -0.0076321898959577075 -0.00055296263880890209 -0.00038730622919418942 0.0035617523638583441 -0.023096691817045208 0.0032440555671851578 9.9177210358902826e-05 0.021499546485955322 0.098307989537715926 0.0010156980273088791 0.00087690044451915739 0.0023013676776332758 -0.0023166808532550927 -0.0025477949529886241 0.017254939629195925 0.011699136072079088
decision_type=4 4 6 4 6 4 4 6 6 6 6 6 4 6 6 4 6 6 6 6 4 6 4 4 6 6 6 4 6 6
left_child=1 2 3 22 -5 7 18 25 14 -10 16 13 -13 -12 -9 21 17 -7 24 -4 -21 -8 -1 -17 -3 26 -2 -18 -20 -27
right_child=5 6 19 4 -6 10 15 8 9 -11 11 12 -14 -15 -16 23 27 -19 28 20 -22 -23 -24 -25 -26 29 -28 -29 -30 -31
leaf_value=2.4834099210038428e-05 1.1306545993316752e-06 1.1139839732202647e-05 1.3079338338726493e-05 0.00014841920482276593 7.6092459491996804e-07 2.1479400675015964e-06 2.3720018645859231e-06 -4.6326047018454705e-05 -1.3375469576262543e-06 -1.3961403450689295e-05 -8.9875005571666666e-06 6.9373407503511635e-05 2.9653357978442779e-06 -2.5289067535424868e-06 0 3.4928049224908375e-07 -4.9146830996835815e-08 -2.8826791472871965e-06 4.0537630408815909e-06 1.3287437243309046e-05 -3.1483788693178052e-06 1.0659580783117844e-05 0 -3.4746634341578908e-06 0 -6.5766552199978314e-06 -3.0460268579892511e-06 -2.5914211978794663e-06 0 0
leaf_weight=10817 18152 29814 14920 562 604 113500 148607 3278 24264 20976 39420 648 3061 142048 383 70408 42678 29111 24436 3776 5616 8067 253 28313 2351 14875 24725 115840 6628 354
leaf_count=10817 18152 29814 14920 562 604 113500 148607 3278 24264 20976 39420 648 3061 142048 383 70408 42678 29111 24436 3776 5616 8067 253 28313 2351 14875 24725 115840 6628 354
internal_value=0 4.16996e-06 1.70193e-05 3.09995e-05 8.49054e-05 -2.53522e-06 2.64889e-06 -6.28363e-06 -1.03505e-05 -7.52264e-06 -1.67956e-06 -3.47967e-06 1.86407e-05 -4.01464e-06 -4.11774e-05 1.48679e-06 -5.22766e-07 1.01584e-06 7.10546e-06 9.36424e-06 1.86421e-06 2.89459e-06 2.39525e-05 -5.95527e-07 1.03206e-05 -2.60261e-06 -9.28035e-07 -2.0016e-06 3.29309e-06 -6.33179e-06
internal_weight=0 355172 36548 12236 1166 593313 318624 107007 48901 45240 486306 185177 3709 181468 3661 255395 301129 142611 63229 24312 9392 156674 11070 98721 32165 58106 42877 158518 31064 15229
internal_count=948485 355172 36548 12236 1166 593313 318624 107007 48901 45240 486306 185177 3709 181468 3661 255395 301129 142611 63229 24312 9392 156674 11070 98721 32165 58106 42877 158518 31064 15229
is_linear=0
shrinkage=0.03


Tree=9
num_leaves=29
num_cat=0
split_feature=120 90 144 20 86 22 12 154 155 166 90 150 48 158 131 18 90 136 90 87 146 63 14 64 166 14 62 62
split_gain=0.00987179 0.00597095 0.00345354 0.00294325 0.00350777 0.00186126 0.00183058 0.0015508 0.00138067 0.00290058 0.0011743 0.00179043 0.00116114 0.00103513 0.00100574 0.000902642 0.00116869 0.000691958 0.00110541 0.00068564 0.000523747 0.000485563 0.000442046 0.000437681 0.000403231 0.000278218 9.00684e-05 7.2569e-05
threshold=-0.0019585286268596464 -0.003932442147531817 -0.033894659432612183 -0.012615309610369057 0.0063725445993829018 -0.085026054006204541 0.0062775049186351755 0.0077410439657110723 0.11169837415218355 -0.010342508686269859 0.00092928698686351862 -0.0036732147388373678 -0.0017958269035426931 -0.003455594855199294 -0.010851554106920956 -0.0056529087058368619 -0.00010385478571766476 0.0001633718029397497 0.00082614724623980573 -0.011451687663793562 0.0016859956775833792 -0.027736159972846505 -0.01363991672387818 -0.01681241175378579 -0.013301172341937378 0.012561437177912175 -0.0061185489047987877 0.013683199008003417
decision_type=6 6 6 6 4 6 4 4 6 6 6 6 6 4 6 6 6 4 6 6 6 4 6 6 6 6 6 4
left_child=1 3 8 4 19 21 17 12 10 -10 24 -12 -8 -9 25 23 -17 20 -19 -1 -4 27 -16 -7 -2 -5 -6 -3
right_child=2 5 6 14 26 15 7 13 9 -11 11 -13 -14 -15 22 16 -18 18 -20 -21 -22 -23 -24 -25 -26 -27 -28 -29
leaf_value=0 0 -4.0811869551525754e-05 1.533121966092697e-06 2.7531559399400805e-06 6.9977823389584173e-05 1.1128900408140276e-05 1.3858024114887963e-06 9.6852173458946588e-06 0.00013078667550279384 0 0 -2.6813264279666469e-05 -1.0900624164804317e-05 -5.1227685461457163e-06 2.2876766724017679e-05 3.0630577958109051e-06 -1.4684062536560305e-06 -6.4793029760286254e-07 -4.3937847325935789e-06 2.0824651959327808e-05 -1.6644997603520907e-06 0 9.4057224388581942e-06 2.2541830364731016e-06 -1.0583343656671442e-05 -1.2983058286083074e-05 0 0
leaf_weight=882 4915 1126 112516 8504 1869 16847 5707 7398 170 398 2626 10642 44760 9245 4995 194140 64547 207284 118123 7231 76429 259 24917 14430 6980 1101 101 71
leaf_count=882 4915 1126 112516 8504 1869 16847 5707 7398 170 398 2626 10642 44760 9245 4995 194140 64547 207284 118123 7231 76429 259 24917 14430 6980 1101 101 71
internal_value=0 4.01656e-06 -2.36129e-06 1.37012e-05 2.89353e-05 2.31667e-06 -1.85525e-06 -6.56696e-06 -1.32127e-05 2.41181e-05 -1.46533e-05 -2.13365e-05 -9.21402e-06 5.58748e-07 9.4333e-06 2.53453e-06 1.87439e-06 -1.2113e-06 -2.05379e-06 1.76207e-05 1.6028e-07 -3.07261e-05 1.21581e-05 7.51441e-06 -5.93545e-06 0 6.786e-05 -3.88909e-05
internal_weight=0 341020 607193 49600 10083 291420 581462 67110 25731 568 25163 13268 50467 16643 39517 289964 258687 514352 325407 8113 188945 1456 29912 31277 11895 9605 1970 1197
internal_count=948213 341020 607193 49600 10083 291420 581462 67110 25731 568 25163 13268 50467 16643 39517 289964 258687 514352 325407 8113 188945 1456 29912 31277 11895 9605 1970 1197
is_linear=0
shrinkage=0.03


Tree=10
num_leaves=29
num_cat=0
split_feature=90 14 90 18 117 29 28 53 86 104 157 13 150 133 151 129 116 19 18 118 120 15 136 87 87 124 150 12
split_gain=0.0112369 0.00447025 0.00412269 0.0109708 0.00459659 0.0024966 0.00196973 0.00413535 0.00139926 0.00130457 0.00127381 0.00079342 0.000779543 0.000770668 0.00159832 0.000769369 0.000558713 0.000542063 0.000449507 0.000388578 0.000373326 0.000271607 0.000184442 0.000150674 0.000175192 9.11037e-05 7.16002e-05 4.30479e-05
threshold=-0.0023412910692137087 -0.018737327987004931 0.00051495686025069631 -0.039783451167814315 -0.024682824499905106 -0.065136939287185655 0.036576384560500934 -0.26455372571945185 0.0016440722037910063 -0.0010758781178974921 -0.032816609367728226 -0.0062322106678038827 -0.0028839245898693872 -0.0078085926361381999 0.025984325446188453 -0.0024397901725023981 -0.007018951551254116 0.00309654965531081 -0.0012022173809480849 -0.00089731499403204143 -0.0022084579096042808 -0.13984231650829312 -0.0044057706604033516 -0.0080223195254802687 -0.0026401588693261142 -0.0057121458104745686 -0.0096257557088911695 -0.019408890135603797
decision_type=4 6 4 6 4 4 4 4 4 6 6 4 4 6 6 6 6 4 4 6 6 4 6 6 6 6 6 6
left_child=1 8 12 4 -4 -6 7 -5 15 13 -8 -11 20 14 -3 27 -17 22 -15 -19 21 -2 -14 -10 -25 -22 -13 -1
right_child=2 9 3 6 5 -7 10 -9 23 11 -12 26 17 18 -16 16 -18 19 -20 -21 25 -23 -24 24 -26 -27 -28 -29
leaf_value=7.4574804402761306e-06 -2.8045501524619641e-05 1.6461740033635111e-08 0 -8.9408855462781418e-05 -0.00023341453058539275 -2.0263105299570687e-05 1.9712653705072282e-05 -4.339144914533113e-06 0 1.4103073414481312e-05 5.7211425346798822e-08 9.5826605285666749e-06 1.2631428828605011e-06 8.6402754639357941e-06 -2.5295125323751682e-05 0 2.2054251122128228e-05 -4.8080343923817668e-06 1.6807986663944146e-06 -2.3785209649331118e-07 -1.6813992958618262e-06 3.0127199665136952e-06 -6.5841235631168711e-07 0 3.230445190606031e-05 7.5378833621817401e-07 3.9790986295384018e-06 -1.0348375827362588e-07
leaf_weight=694 161 16958 121 532 308 276 3283 292740 62 20032 49052 9389 90859 16516 2416 1619 5677 39551 32430 42114 17785 127594 79232 205 8469 55802 31804 3340
leaf_count=694 161 16958 121 532 308 276 3283 292740 62 20032 49052 9389 90859 16516 2416 1619 5677 39551 32430 42114 17785 127594 79232 205 8469 55802 31804 3340
internal_value=0 7.56601e-06 -1.39186e-06 -3.86089e-06 -0.00012256 -0.000158689 -3.57465e-06 -4.54522e-06 2.10053e-05 5.36823e-06 1.57752e-06 8.64146e-06 4.6217e-07 2.21521e-06 -2.36811e-06 1.1759e-05 1.75951e-05 -6.06089e-07 4.33586e-06 -2.63496e-06 1.8724e-06 2.85573e-06 2.79857e-07 3.1275e-05 3.16346e-05 0 5.62083e-06 0
internal_weight=0 149611 799410 346312 705 584 345607 293272 20066 129545 52335 61225 453098 68320 19374 11330 7296 251756 48946 81665 201342 127755 170091 8736 8674 73587 41193 4034
internal_count=949021 149611 799410 346312 705 584 345607 293272 20066 129545 52335 61225 453098 68320 19374 11330 7296 251756 48946 81665 201342 127755 170091 8736 8674 73587 41193 4034
is_linear=0
shrinkage=0.03


Tree=11
num_leaves=31
num_cat=0
split_feature=90 120 57 18 120 124 104 64 13 149 12 124 24 154 6 147 30 20 166 72 121 84 98 60 105 28 88 87 164 149
split_gain=0.00935773 0.0068084 0.00444779 0.00394992 0.00229208 0.00201967 0.00180193 0.0018007 0.00144368 0.00101558 0.00088763 0.00106658 0.0008452 0.0010175 0.000848622 0.000837026 0.0017226 0.000796498 0.000566944 0.000558124 0.000512348 0.000506034 0.000445044 0.000426446 0.000341761 0.00031182 0.000301747 0.000240854 8.4812e-05 8.45103e-06
threshold=0.00059575517515204446 -0.0042327026498650772 -0.061244904994964593 -0.0093414290683010749 0.0018749973115871931 -0.0037555543499412417 0.0056057962938142478 -0.023567866803560201 -0.0084351110272109491 -0.0084922667592763883 -0.0011505878133964253 -0.017152029344520422 -0.00013658593263883993 -0.0089812758114967625 0.0010548942533572915 -0.0060700071044266215 0.0054623552289472842 -0.011646153541492078 -0.008626976064051212 0.00088579984909867109 0.00056476308964192878 0.0079899646542709746 -0.00035418235180916977 0.0016441249612565738 -0.001909788232296705 0.022426656627466617 0.001255572930948254 -0.0026401588693261142 0.004988777793806228 0.0080353678204119223
decision_type=4 6 4 6 6 6 6 6 4 6 6 6 6 4 6 4 6 6 4 6 4 4 4 6 4 4 6 6 6 6
left_child=1 3 4 7 19 -6 8 23 -5 -7 11 17 15 14 -14 16 -4 -3 -15 29 26 -22 -17 -1 -13 -21 -12 -9 -8 -2
right_child=2 10 12 6 5 9 28 27 -10 -11 20 24 13 18 -16 22 -18 -19 -20 25 21 -23 -24 -25 -26 -27 -28 -29 -30 -31
leaf_value=3.5645515917331224e-05 4.1296060459446603e-06 -1.8985807619384758e-05 -1.0526037191480151e-06 1.1297583032436449e-05 -8.5847387042542282e-05 8.793783735052065e-06 1.584367102491355e-06 0 3.5219248485365387e-06 -2.9788791130262379e-05 -1.3697095898067693e-07 6.0273701479661646e-07 -1.3308527368058366e-06 0 -1.4629346529850323e-05 -6.3283543034680894e-07 1.4559078882221153e-05 -9.9152897677492781e-07 -4.9572000393242175e-06 -3.0882019584162776e-05 -1.7117014861528741e-06 -1.0994192550406905e-05 -4.9602975397222195e-06 0 3.8069237762850801e-06 0 4.1903608981182729e-06 9.7668294140623615e-06 2.9555571896243331e-05 0
leaf_weight=7128 444 2911 62003 30689 1115 127 1374 1057 112088 2206 144162 58681 9047 20648 18868 40759 7021 20205 86525 871 102442 6482 80980 383 107022 103 15649 3003 3533 1593
leaf_count=7128 444 2911 62003 30689 1115 127 1374 1057 112088 2206 144162 58681 9047 20648 18868 40759 7021 20205 86525 871 102442 6482 80980 383 107022 103 15649 3003 3533 1593
internal_value=0 2.15945e-06 -4.08513e-06 7.50559e-06 -2.90604e-05 -4.65307e-05 6.04773e-06 2.48122e-05 5.29844e-06 -2.12588e-05 2.65887e-07 1.86664e-06 -3.54387e-06 -5.43543e-06 -1.08571e-05 -2.12569e-06 3.18456e-07 -3.90784e-06 -3.88312e-06 -4.05856e-06 -8.03026e-07 -2.402e-06 -3.63468e-06 3.39815e-05 2.76276e-06 -2.37805e-05 1.92957e-07 4.14773e-06 2.47829e-05 0
internal_weight=0 616809 332310 159255 6459 3448 147684 11571 142777 2333 457554 188819 325851 135088 27915 190763 69024 23116 107173 3011 268735 108924 121739 7511 165703 974 159811 4060 4907 2037
internal_count=949119 616809 332310 159255 6459 3448 147684 11571 142777 2333 457554 188819 325851 135088 27915 190763 69024 23116 107173 3011 268735 108924 121739 7511 165703 974 159811 4060 4907 2037
is_linear=0
shrinkage=0.03


Tree=12
num_leaves=29
num_cat=0
split_feature=120 33 84 91 64 166 155 166 139 91 148 101 12 157 25 80 90 138 118 121 36 120 12 56 158 46 90 25
split_gain=0.0116879 0.00412259 0.00388903 0.00380156 0.0030346 0.00249499 0.00206013 0.00154958 0.00194914 0.00141991 0.00380798 0.0027109 0.00243387 0.00117352 0.00160259 0.000913823 0.000910776 0.000851287 0.000847028 0.000746503 0.000662856 0.00124312 0.000845998 0.000413711 0.000676138 0.000302094 0.000252972 0.000111686
threshold=-0.0062998044997696857 -0.062391530722379678 -0.0037053424746714232 -0.011132515035569666 -0.025048875644375055 0.029312683882735658 0.0013681296259164812 -0.012899560669122831 -0.010061673820018767 -0.0019934837473556395 -0.030133441773112595 0.0059684794396162042 0.0034221215444454486 0.017536815255880359 -0.0030375613132491703 -0.0074321995154112098 0.00010617476322600346 0.0077216212528449539 -0.0055039636069574302 0.0052270819433033475 0.00084487078935894535 0.00036485673897153814 -0.001668772935363279 -0.0026175919884928161 -0.00085472590093357045 0.01798550837616782 0.0019670064793171943 -0.0020465619163587685
decision_type=6 4 6 6 4 6 6 4 6 4 4 6 4 6 6 6 6 6 6 6 6 6 6 4 6 6 6 6
left_child=2 5 3 4 15 7 -6 8 -2 20 11 -11 -12 16 26 -1 18 -7 -4 -9 22 -22 -3 24 -5 -16 -15 -18
right_child=1 9 13 23 6 17 -8 19 -10 10 12 -13 -14 14 25 -17 27 -19 -20 -21 21 -23 -24 -25 -26 -27 -28 -29
leaf_value=9.0037219927309347e-05 4.9330265923706683e-05 4.3904031461052207e-06 2.6791966554287589e-07 3.3088740781608816e-06 4.4746003118666426e-05 -2.7699354378426269e-05 0 -9.238356973623274e-06 -6.0889775658230156e-06 0 -7.5583876955508997e-07 5.0310900897168116e-05 -5.2754016436956009e-06 3.7371840476004405e-05 0 0 0 -0.0001647667684089758 8.789968109323464e-06 -3.4002835777171189e-05 9.5076473654327756e-07 -7.8661973824286717e-06 -5.5473511041679077e-07 0 2.2042990679472766e-05 1.3452664257531351e-05 0 -6.5069988810364455e-06
leaf_weight=1486 687 84263 19620 5422 2115 742 1869 5866 2308 2845 477794 2127 142715 3064 4183 114 3485 170 38455 3040 70305 17649 41544 2555 6418 2657 303 4751
leaf_count=1486 687 84263 19620 5422 2115 742 1869 5866 2308 2845 477794 2127 142715 3064 4183 114 3485 170 38455 3040 70305 17649 41544 2555 6418 2657 303 4751
internal_value=0 -1.13217e-06 9.88379e-06 2.19994e-05 4.41609e-05 -1.80782e-05 2.44588e-05 -1.28307e-05 1.64265e-06 -8.55534e-07 -1.58743e-06 2.43495e-05 -1.81951e-06 6.52385e-06 1.66244e-05 8.37642e-05 4.74246e-06 -6.99652e-05 6.16927e-06 -1.93812e-05 1.21588e-06 -6.48061e-07 2.63821e-06 1.23559e-05 1.47326e-05 5.53121e-06 3.4691e-05 -3.49677e-06
internal_weight=0 852055 96497 19979 5584 12813 3984 11901 2995 839242 625481 4972 620509 76518 10207 1600 66311 912 58075 8906 213761 87954 125807 14395 11840 6840 3367 8236
internal_count=948552 852055 96497 19979 5584 12813 3984 11901 2995 839242 625481 4972 620509 76518 10207 1600 66311 912 58075 8906 213761 87954 125807 14395 11840 6840 3367 8236
is_linear=0
shrinkage=0.03


Tree=13
num_leaves=31
num_cat=0
split_feature=90 12 120 91 33 148 87 95 23 104 150 25 120 126 104 127 12 46 25 109 102 94 64 136 149 120 70 19 94 94
split_gain=0.010043 0.00421587 0.00384888 0.00306808 0.00433376 0.00361681 0.00243503 0.00190564 0.00314065 0.00291228 0.00140593 0.00139765 0.00133937 0.0015418 0.000842579 0.00159038 0.000728201 0.000722327 0.00049382 0.000335148 0.000313168 0.000280695 0.000244904 0.000208054 0.000103975 9.62049e-05 7.79321e-05 6.98076e-05 5.15101e-05 3.43107e-05
threshold=-0.0025230549675528788 -0.0077198648814042594 -0.0087917324422169939 0.0076064500026404866 -0.074924409389495836 0.0018463273898592029 -0.0062487770337611428 0.0079077091068029421 -0.0053546184208244077 -0.0096921241672178905 0.0028833890511816814 0.00034975848393514758 -0.0046154885687314622 -0.006817540570464041 0.0023946994949936018 0.01334141055122018 0.0026812243823237446 0.022799688909685836 0.00097102447762154054 0.0005207688082009555 0.0001575998652705149 -0.00034856333950075772 0.044684902494983421 -0.0071233141582192948 0.029137430712580684 -0.0050104032779871655 -0.0069558508743048824 -0.0037447805516421791 -0.0029966113762463567 0.0050583253946269091
decision_type=6 6 6 4 6 4 4 4 4 6 6 6 4 6 6 6 4 6 6 6 6 6 4 6 6 6 6 4 4 6
left_child=1 2 6 12 5 22 29 9 -9 -6 14 27 18 17 15 -3 -15 -14 23 -13 -4 -8 -5 -2 -20 -16 -7 -12 -22 -1
right_child=3 10 20 4 7 26 21 8 -10 -11 11 19 13 16 25 -17 -18 -19 24 -21 28 -23 -24 -25 -26 -27 -28 -29 -30 -31
leaf_value=1.4741661796969269e-06 7.3077088923561943e-06 3.28723012566765e-06 1.2051334073528303e-05 2.7073534235664977e-05 5.9919670572899604e-05 -7.1801016182775307e-05 4.9842189007264566e-05 -1.5594190055831468e-05 1.6632368939055605e-05 -1.0591160501554361e-05 0 -1.4312781758520731e-05 -8.8331749934308719e-06 -3.422749318196957e-07 2.0268628115510751e-05 2.1144629347580549e-05 -2.8149522615843753e-06 8.5145198512218209e-07 -3.4673620269680131e-07 0 0 2.6051293078814264e-05 0 2.0436425094743822e-06 5.9441046709990531e-06 5.8841755114842133e-06 0 7.2386280989607883e-06 3.0863842168995449e-06 -6.2786724699327329e-06
leaf_weight=947 20845 69537 10205 302 473 1731 4020 4042 7234 39997 2790 6768 33948 489433 5354 5300 144725 5301 35118 4143 1425 5860 68 26435 2527 4672 65 6348 7329 729
leaf_count=947 20845 69537 10205 302 473 1731 4020 4042 7234 39997 2790 6768 33948 489433 5354 5300 144725 5301 35118 4143 1425 5860 68 26435 2527 4672 65 6348 7329 729
internal_value=0 7.45729e-06 1.74438e-05 -1.36565e-06 -8.31292e-06 -5.08753e-05 3.15788e-05 -6.23957e-06 3.74968e-06 -9.39351e-06 4.40934e-06 -2.20233e-06 -8.51953e-07 -1.31464e-06 6.14813e-06 4.75286e-06 -9.3024e-07 -7.14303e-06 2.64023e-06 -9.9722e-06 8.03463e-06 3.72574e-05 2.54599e-06 4.68194e-06 0 1.5064e-05 -7.0214e-05 5.4341e-06 1.63736e-06 0
internal_weight=0 135427 30515 812244 53912 2166 11556 51746 11276 40470 104912 20049 758332 673407 84863 74837 634158 39249 84925 10911 18959 9880 370 47280 37645 10026 1796 9138 8754 1676
internal_count=947671 135427 30515 812244 53912 2166 11556 51746 11276 40470 104912 20049 758332 673407 84863 74837 634158 39249 84925 10911 18959 9880 370 47280 37645 10026 1796 9138 8754 1676
is_linear=0
shrinkage=0.03


Tree=14
num_leaves=29
num_cat=0
split_feature=90 31 121 91 149 4 24 121 14 14 120 26 121 103 29 12 48 151 21 18 48 89 105 42 84 24 32 106
split_gain=0.00902979 0.00558249 0.00381749 0.00325543 0.00265049 0.00256211 0.00249151 0.0033435 0.00227303 0.00151057 0.00132192 0.000953596 0.000834034 0.000785483 0.0014781 0.000705991 0.000685412 0.000675538 0.00125472 0.000559598 0.000553622 0.000533715 0.000373282 0.000340505 0.000282593 0.000259935 0.000237945 1.82166e-05
threshold=-1.6031745170102116e-05 -0.057674914598464959 0.0008708876557648183 -0.0053963353857398024 -0.0038938054349273439 -0.055124610074984239 -0.0039692802715052908 -0.010161059908568857 -0.030672074985366195 0.034040262181331889 -0.0026548508665008553 -0.021449318039967417 0.00081034691538661729 -0.00051126407925039519 0.11820410564541818 0.0088899094473476447 -0.025763984188377709 -0.011154085397720335 -0.031358322128653519 0.0034126187792324794 -1.0000000180025095e-35 -0.0018462120788171885 0.0017371782450936737 -0.002312302162548231 0.0038737853456578021 0.0083537949416760595 -0.012355381741910665 -0.005104173043167101
decision_type=6 4 6 6 6 6 6 6 6 6 6 4 6 4 4 4 6 6 6 6 4 6 6 6 6 4 6 6
left_child=3 2 -2 6 27 17 7 8 -1 21 22 -6 -11 14 -7 -15 -9 19 -19 -3 25 -8 23 -5 -22 -12 -24 -4
right_child=1 5 4 10 11 13 9 16 -10 12 20 -13 -14 15 -16 -17 -18 18 -20 -21 24 -23 26 -25 -26 -27 -28 -29
leaf_value=4.9792605931919427e-05 0 0 0 5.5371795508231033e-06 -0.00014588251059446746 -2.1501103273182322e-06 1.6583451020974984e-06 -1.8315103742128213e-05 1.5883187025642034e-05 0 2.2964950196724745e-06 0 -4.1595550434873934e-05 -3.2537575653184893e-06 5.2873182245828241e-06 -1.0077963334979977e-05 7.8940810373546807e-06 -3.489820441445983e-05 0 -2.3653803758951785e-05 -2.1412275233856475e-07 7.9386990466140778e-06 0 1.4949805819752395e-06 -3.6715317134941892e-06 -1.6924530751317052e-06 7.5462338746454473e-06 1.3727633038421305e-05
leaf_weight=3753 485 2465 65 31983 576 201676 31552 633 7536 354 100813 101 940 189730 26429 17636 17220 4091 1822 936 105668 32227 3875 89554 30910 12780 31946 85
leaf_count=3753 485 2465 65 31983 576 201676 31552 633 7536 354 100813 101 940 189730 26429 17636 17220 4091 1822 936 105668 32227 3875 89554 30910 12780 31946 85
internal_value=0 -3.12582e-06 -6.54071e-05 2.74043e-06 -0.000104525 -2.90809e-06 7.8059e-06 1.5304e-05 2.84916e-05 4.2171e-06 1.53253e-06 -0.000129816 -2.60461e-05 -2.53512e-06 -1.22259e-06 -3.90657e-06 6.12275e-06 -1.87316e-05 -2.55309e-05 -2.49447e-06 1.1499e-07 5.06709e-06 3.69081e-06 2.68219e-06 -1.10646e-06 1.71564e-06 6.69386e-06 0
internal_weight=0 446097 1312 501744 827 444785 94215 29142 11289 65073 407529 677 1294 435471 228105 207366 17853 9314 5913 3401 250171 63779 157358 121537 136578 113593 35821 150
internal_count=947841 446097 1312 501744 827 444785 94215 29142 11289 65073 407529 677 1294 435471 228105 207366 17853 9314 5913 3401 250171 63779 157358 121537 136578 113593 35821 150
is_linear=0
shrinkage=0.03


Tree=15
num_leaves=30
num_cat=0
split_feature=120 90 19 72 154 12 10 110 131 55 86 64 90 24 150 59 35 27 12 134 166 91 67 124 37 69 86 155 38
split_gain=0.00743833 0.00402215 0.00304642 0.00210039 0.00283536 0.00276101 0.00213548 0.00135932 0.000937424 0.000981278 0.000815492 0.000946415 0.000795947 0.000646738 0.0010021 0.000536113 0.000519691 0.000968763 0.000621871 0.000496712 0.000398897 0.000361625 0.000338033 0.000275916 0.000222183 0.000208052 0.00019362 0.000165542 6.48044e-05
threshold=-0.0032052995830983907 -0.0027293653569749905 -0.021734758280217644 -0.011372385811994136 -0.015206803157527154 0.0051494015581335355 -0.0088533521593487045 0.003182927175906593 0.00084199430420994769 0.008555839769542219 -0.00052308887374861166 0.030052136538244099 0.0060573837841980714 -0.0010212919076275733 -0.0096257557088911695 0.060840966179966934 0.068221390247344985 0.049298105761408813 -0.0042567358587901486 -0.0076910666295970887 -0.010489881666705734 0.0023178318515419964 0.0070356603246182212 0.0011827041094083725 0.0071823731996119031 -0.0085712084546685201 -0.0043245791588800526 -0.012693834491074084 -0.033783829290901103
decision_type=6 6 4 6 6 6 6 6 6 6 4 4 4 6 6 4 6 4 4 6 6 6 4 6 6 6 6 4 6
left_child=1 2 10 4 12 16 26 -8 25 -10 28 -12 23 14 -4 21 18 -18 -5 -15 -17 22 -3 -2 -23 -6 -7 -14 -1
right_child=3 15 13 5 8 6 7 -9 9 -11 11 -13 27 19 -16 20 17 -19 -20 -21 -22 24 -24 -25 -26 -27 -28 -29 -30
leaf_value=0 -2.1280670329716474e-05 2.5366784755191577e-06 1.8968178979797415e-05 2.3416307659002608e-06 -1.2704758319871056e-05 -3.1447514940612705e-05 -1.8726934808404557e-06 -1.3227374527312828e-05 0 5.8092281463886261e-05 5.8777542228902027e-05 8.7580245942218565e-06 -7.4627326728580581e-05 0 6.1410237079233835e-06 1.4412408779700519e-05 8.5809782838914165e-08 1.756656478269756e-05 -8.576701743793351e-07 7.0457344987819026e-06 0 0 -7.1278466500447788e-07 0 -1.1580469392457924e-05 0 -1.2808191285518824e-05 0 9.0410068345520981e-06
leaf_weight=632 4571 109209 13432 59452 7863 2267 70655 12100 8040 276 2084 1385 688 9219 17783 5425 16067 4064 505132 35129 4346 8609 30377 194 2537 4017 12048 156 929
leaf_count=632 4571 109209 13432 59452 7863 2267 70655 12100 8040 276 2084 1385 688 9219 17783 5425 16067 4064 505132 35129 4346 8609 30377 194 2537 4017 12048 156 929
internal_value=0 4.651e-06 1.01606e-05 -1.44917e-06 -9.92441e-06 -1.10636e-06 -5.80074e-06 -3.71445e-06 -3.81255e-06 2.57189e-06 3.37894e-05 4.31453e-05 -2.92485e-05 8.38839e-06 1.2142e-05 1.7909e-06 -3.01367e-07 4.36122e-06 -4.94201e-07 5.40772e-06 8.86635e-06 1.23262e-06 1.72206e-06 -1.95536e-05 -3.55051e-06 -9.54375e-06 -1.68117e-05 -6.60771e-05 3.37237e-06
internal_weight=0 241096 80593 707590 25805 681785 97070 82755 20196 8316 5030 3469 5609 75563 31215 160503 584715 20131 564584 44348 9771 150732 139586 4765 11146 11880 14315 844 1561
internal_count=948686 241096 80593 707590 25805 681785 97070 82755 20196 8316 5030 3469 5609 75563 31215 160503 584715 20131 564584 44348 9771 150732 139586 4765 11146 11880 14315 844 1561
is_linear=0
shrinkage=0.03


Tree=16
num_leaves=30
num_cat=0
split_feature=90 150 120 144 17 91 64 154 56 56 120 149 125 150 104 20 156 96 32 64 49 86 62 9 124 14 125 42 60
split_gain=0.00661492 0.00283346 0.00296109 0.00274676 0.00244931 0.00194565 0.00170834 0.00187517 0.00675532 0.00135424 0.00119445 0.00112332 0.00130914 0.00110373 0.00103538 0.000964351 0.000809194 0.000753727 0.000910949 0.000730208 0.000727184 0.000619975 0.000561771 0.00032205 0.00032053 0.000225567 0.000156019 2.9816e-05 2.35298e-06
threshold=0.0015594237221801634 -0.011543411433135657 -0.0061936195016726878 -0.0071164291716090738 -0.01808962598443031 -0.0028709430480375882 0.012480326810517688 0.063403853277998259 0.024247152605473166 0.0097793322635093705 -0.00086812366667631555 -0.014496373943984507 0.035094805061817176 0.003250784217986343 0.0029520326480429117 -0.017036682464787126 0.0050746050898422433 -0.0019094511279566405 0.022302222552955078 -0.029973212919928514 -0.0020519372774288054 -0.0035409425110716152 0.0021587336298826494 -0.0016803247854113577 -0.0012918115609062157 0.0013469729636220154 -0.0049094208516180507 0.036224138174779388 -0.005275258140712987
decision_type=6 6 4 6 4 6 6 4 6 6 4 6 4 4 6 6 6 6 6 6 4 6 6 6 6 6 6 6 6
left_child=1 3 14 5 11 15 7 19 -9 23 22 12 26 -13 16 -1 -3 21 -19 -6 -12 -5 -4 -8 -7 -16 -2 -11 -15
right_child=4 2 10 17 6 24 9 8 -10 27 20 13 -14 28 25 -17 -18 18 -20 -21 -22 -23 -24 -25 -26 -27 -28 -29 -30
leaf_value=3.3768775435234679e-05 -1.3719554623320766e-05 3.1484931166713346e-06 2.3275909244768894e-06 -1.2256525566863344e-05 -5.9303562791906717e-06 -2.4264020080372452e-06 3.0678603776531175e-06 1.4155066509634181e-06 7.0564637905703924e-05 -1.6482234262319916e-05 4.5592986446686155e-07 -8.130999079756654e-06 5.2936349592761643e-05 -2.4670834525339603e-05 2.7725448177721741e-05 1.3216620032131874e-05 1.4567097664834287e-05 3.0808236027532838e-06 2.2906188336816653e-05 -4.1021264206199505e-07 -2.3378815966374222e-06 5.2048941429822749e-08 -3.3210232046668187e-07 -5.3055835142554073e-06 7.5085582991295198e-06 0 0 0 -1.1836567321066e-05
leaf_weight=5736 744 33614 203161 4260 43952 3315 4113 19705 1403 14062 130784 31682 442 7734 3371 9515 8664 29242 2692 55132 200705 12024 96305 11380 5386 1487 1173 235 6517
leaf_count=5736 744 33614 203161 4260 43952 3315 4113 19705 1403 14062 130784 31682 442 7734 3371 9515 8664 29242 2692 55132 200705 12024 96305 11380 5386 1487 1173 235 6517
internal_value=0 1.2173e-06 5.91579e-07 6.88839e-06 -4.94299e-06 1.53192e-05 -2.91309e-06 -1.17511e-06 6.7285e-06 -9.4212e-06 2.58284e-08 -1.09363e-05 5.28619e-06 -1.20962e-05 7.84609e-06 2.19332e-05 5.84386e-06 2.38892e-06 5.2231e-06 -3.01031e-06 -1.19038e-06 -2.24803e-06 1.42218e-06 -2.11448e-06 2.0002e-06 2.2175e-05 0 -1.62887e-05 -1.98566e-05
internal_weight=0 750261 678091 72170 198274 23952 149982 120192 21108 29790 630955 48292 2359 45933 47136 15251 42278 48218 31934 99084 331489 16284 299466 15493 8701 4858 1917 14297 14251
internal_count=948535 750261 678091 72170 198274 23952 149982 120192 21108 29790 630955 48292 2359 45933 47136 15251 42278 48218 31934 99084 331489 16284 299466 15493 8701 4858 1917 14297 14251
is_linear=0
shrinkage=0.03


Tree=17
num_leaves=30
num_cat=0
split_feature=120 90 76 19 24 154 117 99 85 31 19 140 149 78 121 90 100 150 136 121 90 136 9 169 104 12 162 102 160
split_gain=0.00685666 0.00385806 0.00282456 0.00156147 0.00144234 0.00127953 0.00117743 0.00435112 0.00116862 0.00107868 0.00090297 0.000883965 0.00257126 0.000778293 0.00144517 0.000757212 0.000647464 0.00125839 0.000629533 0.000624604 0.00154442 0.000569151 0.000430799 0.000334366 0.000409747 0.000390605 0.000296553 0.00034669 0.000214789
threshold=-0.00065897804558227022 -0.0019973481878663422 -0.046238440796363668 0.0068313260562717923 -0.005058179673775671 -0.005523714976001552 -0.066146984696388231 -0.0061410709749907246 -0.0024948825594037767 0.02202211041003466 -0.0087110213935375196 0.0007654176149891655 -0.01714357919991016 0.0014400169084674028 0.0096689094789326208 -0.0080726363121428456 0.003359980465081729 -0.045505740038254042 -0.0049920230489723183 -0.0035219428827986117 0.0048864875853235016 -0.0074662488899919265 -0.029268409125506874 -0.033269030973315232 0.0003160227405931196 0.0025390550402143008 -0.0076108374123840658 -0.003633501083671858 -0.0040586728868098505
decision_type=6 6 4 4 4 6 4 6 6 4 6 6 6 4 4 6 6 6 4 6 6 6 6 6 6 6 4 6 6
left_child=1 4 5 6 16 19 7 -4 10 -10 -6 22 -13 18 -15 -8 17 -1 -5 -2 -21 26 -7 24 -23 -25 27 -3 -28
right_child=2 21 3 13 8 11 15 -9 9 -11 -12 12 -14 14 -16 -17 -18 -19 -20 20 -22 23 -24 25 -26 -27 28 -29 -30
leaf_value=8.7948648174262966e-05 0 1.1531191032700267e-05 0.00019303087040282988 6.7447977506858738e-06 1.7866687845820142e-05 -2.0008342321511306e-05 2.3378919229839191e-05 0 2.604962198468482e-06 1.7856994239669459e-05 5.2534906566514867e-06 0.00019295548350436588 0 -4.2270153224176049e-06 -1.5289936387534517e-05 -1.4057090846378546e-06 3.0219470151593919e-05 8.2887236844857817e-06 -3.8274626636830329e-06 -1.6882260432148989e-05 -7.2092047845745175e-05 0 -2.0868233954236138e-06 0 1.1717996157779869e-05 -3.54868517367889e-06 -1.4127041393582255e-07 2.2409382993689164e-06 2.3413949992815011e-06
leaf_weight=228 653 7027 129 6212 11834 4571 1046 397 93266 4855 17741 61 2760 43380 17507 377039 3290 13990 20604 3362 985 5475 4658 139790 4356 35489 41073 21330 64098
leaf_count=228 653 7027 129 6212 11834 4571 1046 397 93266 4855 17741 61 2760 43380 17507 377039 3290 13990 20604 3362 985 5475 4658 139790 4356 35489 41073 21330 64098
internal_value=0 2.54698e-06 -2.55834e-06 -2.08223e-06 6.61171e-06 -1.46984e-05 -1.1963e-06 4.27549e-05 5.32016e-06 3.51285e-06 1.08085e-05 -7.61678e-06 3.33875e-06 -5.73564e-06 -7.65471e-06 -1.29734e-06 1.51734e-05 1.06332e-05 -8.18723e-07 -2.87566e-05 -3.28689e-05 6.47573e-07 -1.25905e-05 -3.60834e-07 4.8325e-06 -7.37745e-07 2.15785e-06 5.07269e-06 1.22922e-06
internal_weight=0 463842 483364 466314 145204 17050 378611 526 127696 98121 29575 12050 2821 87703 60887 378085 17508 14218 26816 5000 4347 318638 9229 185110 9831 175279 133528 28357 105171
internal_count=947206 463842 483364 466314 145204 17050 378611 526 127696 98121 29575 12050 2821 87703 60887 378085 17508 14218 26816 5000 4347 318638 9229 185110 9831 175279 133528 28357 105171
is_linear=0
shrinkage=0.03


Tree=18
num_leaves=31
num_cat=0
split_feature=90 27 90 15 151 12 149 116 54 116 12 150 98 29 147 120 47 56 151 101 126 13 25 134 21 96 120 12 48 60
split_gain=0.00806439 0.00474272 0.00284285 0.00251694 0.00207604 0.00185964 0.00179564 0.00127353 0.00126603 0.00122556 0.00116704 0.00111399 0.0009596 0.000941594 0.00082305 0.00187178 0.00166732 0.000819601 0.000801939 0.000763975 0.00112236 0.000733176 0.000690022 0.000373126 0.000319725 0.000231233 0.000181017 0.000173599 0.000171358 0.000112445
threshold=-0.0026825340483201342 -0.069444566965103136 0.00051495686025069631 -0.039717767387628548 -0.0067426264286041251 0.0052604238807962538 0.0074941942002624282 -0.013201311832893709 -0.0004075196787624485 -0.00095453230926504848 -0.0099839475685083289 -0.0058551436359419945 0.0033545639788772528 -0.013330131303519009 -0.0032042979728430505 0.0042450646638978497 0.043570764362812049 0.010631208844312035 0.0083407158963382261 -0.0034360141726210709 -0.0026936802272384828 -0.0057436353527009478 0.0091455117799341696 0.0078473673410839172 0.014186543878167869 -0.00029747676363844406 0.005131693933825128 -0.00017197689724245143 -0.027787654402188871 -0.0091244080637741688
decision_type=4 4 6 6 6 6 6 4 6 4 6 6 6 6 4 6 4 6 6 6 6 6 6 4 6 6 6 6 6 6
left_child=3 5 21 4 9 6 12 19 -7 24 28 -10 -2 -8 16 -16 -4 -11 25 20 -5 26 -12 -23 -1 -6 -3 -20 -9 -21
right_child=1 2 14 7 18 8 13 10 11 17 22 -13 -14 -15 15 -17 -18 -19 27 29 -22 23 -24 -25 -26 -27 -28 -29 -30 -31
leaf_value=1.2547060228482853e-05 -2.9297118076100186e-06 3.5254011710136227e-06 -2.7209810450044859e-06 -3.0474064189194013e-05 -1.7945656445521471e-05 0 -2.6941142390132815e-05 0 -3.5688614457060808e-06 4.1268523862332222e-05 6.3216225785926945e-06 -6.8575027398540739e-05 2.9888954152190742e-05 0 -2.3510852383393882e-06 -9.3247287673879713e-06 5.4378964656785558e-06 0 1.9291848632322138e-05 -3.6067637070196419e-06 0 -1.5962083420716322e-07 0 3.8859807375510437e-06 0 0 -4.2340713784497963e-07 0 1.6087424664578642e-05 5.2394096746128837e-06
leaf_weight=2775 2659 80714 122421 2072 1251 248 4937 368 909 5104 71374 1579 949 451 138649 50973 26817 121 1832 1107 1076 366837 20422 21636 232 870 4467 323 12338 3159
leaf_count=2775 2659 80714 122421 2072 1251 248 4937 368 909 5104 71374 1579 949 451 138649 50973 26817 121 1832 1107 1076 366837 20422 21636 232 870 4467 323 12338 3159
internal_value=0 -1.14861e-06 -8.55843e-07 7.04399e-06 2.02627e-05 -2.01425e-05 -1.1207e-05 5.43227e-06 -4.40146e-05 2.9167e-05 6.35498e-06 -5.08708e-05 1.55912e-06 -2.2536e-05 -2.96162e-06 -4.30488e-06 -1.15433e-06 3.90198e-05 0 -5.5491e-06 -1.70521e-05 6.19002e-07 4.93026e-06 2.71052e-08 7.04698e-06 -9.59409e-06 3.14222e-06 1.56208e-05 1.54653e-05 0
internal_weight=0 824246 812514 124424 12508 11732 8996 111916 2736 8232 104502 2488 3608 5388 338860 189622 149238 5225 4276 7414 3148 473654 91796 388473 3007 2121 85181 2155 12706 4266
internal_count=948670 824246 812514 124424 12508 11732 8996 111916 2736 8232 104502 2488 3608 5388 338860 189622 149238 5225 4276 7414 3148 473654 91796 388473 3007 2121 85181 2155 12706 4266
is_linear=0
shrinkage=0.03


Tree=19
num_leaves=30
num_cat=0
split_feature=90 120 11 119 12 94 91 132 86 154 59 68 13 12 12 72 54 162 166 136 121 97 31 104 24 86 166 103 125
split_gain=0.00663172 0.00699018 0.00296588 0.00263192 0.00226063 0.00283684 0.00209514 0.00177037 0.00138752 0.00116955 0.0022688 0.00229215 0.0014402 0.00140996 0.00104312 0.000944734 0.000932905 0.00086087 0.000721114 0.000665191 0.000585981 0.000961503 0.000920697 0.000520598 0.000536592 0.000448924 0.000291141 0.00027257 0.000214859
threshold=0.00013148378441020332 -0.0098120765936661018 -0.079532429575920091 0.011604568455368282 -0.016284891434502093 0.010398556550179478 0.0087296902202069777 -0.0017555116164284631 -0.0052670124313219111 0.037015927435083744 0.038564236834645278 0.0018548587837617936 -0.0047622288111597291 0.0059958981358266758 0.0010718840374563247 0.00021109522997521534 -0.0010465437877005877 -0.014987352303190978 -0.0092075032535916968 0.0077901052419104546 0.0078723998740315455 0.0064605870284140119 0.021425633691251281 0.0015363108499277429 0.0019576073963721639 0.0043263898412137921 -0.027815559933627217 -0.0027854356449097391 -0.005830940091982483
decision_type=6 4 4 6 6 6 6 6 4 4 4 4 4 6 6 4 6 6 6 4 4 6 6 6 4 4 6 6 6
left_child=1 4 3 14 8 -6 17 -8 -1 13 12 -12 -11 19 26 23 -15 -5 -16 -4 21 -17 -22 24 -3 -10 -2 -25 -7
right_child=2 15 9 6 5 28 7 -9 25 10 11 -13 -14 16 18 20 -18 -19 -20 -21 22 -23 -24 27 -26 -27 -28 -29 -30
leaf_value=0 2.1618351123671471e-05 2.7800082894577311e-06 -9.9177730383504438e-07 -4.2079266479429805e-05 1.5865284255037041e-05 0 -0.00013067003744922977 0 2.0604327904920035e-05 -1.566368877265033e-05 0 2.930920735475812e-05 7.8416324150703848e-07 6.725391612591886e-06 0 0 -8.267127457823427e-06 0 -4.7898838851697084e-05 -4.0846758847434588e-06 -1.9002027014864042e-06 8.2353126146437967e-06 -2.4394572090971354e-05 1.0235756574862492e-05 -6.2873715679620431e-07 5.9623115620528141e-05 0 3.2120892067314779e-06 -1.1430398508167953e-05
leaf_weight=595 736 159153 187588 753 23794 447 510 268 2303 5325 3404 4878 38104 2872 841 216002 59269 974 663 110048 22324 13540 2052 13153 47355 1970 1246 24387 3919
leaf_count=595 736 159153 187588 753 23794 447 510 268 2303 5325 3404 4878 38104 2872 841 216002 59269 974 663 110048 22324 13540 2052 13153 47355 1970 1246 24387 3919
internal_value=0 2.21165e-06 -2.84169e-06 -2.40882e-05 1.56181e-05 1.15477e-05 -4.8204e-05 -9.57353e-05 3.60699e-05 -2.49578e-06 1.53246e-06 1.60318e-05 -8.87825e-07 -3.11646e-06 -2.44068e-06 1.29227e-06 -7.33264e-06 -1.80301e-05 -2.41276e-05 -2.18576e-06 0 4.80833e-07 -4.41096e-06 2.62515e-06 1.9257e-06 4.21216e-05 6.46327e-06 6.07296e-06 -8.54477e-06
internal_weight=0 530994 417479 5991 33028 28160 2505 778 4868 411488 51711 8282 43429 359777 3486 497966 62141 1727 1504 297636 253918 229542 24376 244048 206508 4273 1982 37540 4366
internal_count=948473 530994 417479 5991 33028 28160 2505 778 4868 411488 51711 8282 43429 359777 3486 497966 62141 1727 1504 297636 253918 229542 24376 244048 206508 4273 1982 37540 4366
is_linear=0
shrinkage=0.03


Tree=20
num_leaves=30
num_cat=0
split_feature=120 90 64 81 16 150 36 105 154 90 16 55 149 136 136 94 84 154 85 105 90 80 104 104 126 125 136 127 127
split_gain=0.00583797 0.00426082 0.00349445 0.00270009 0.00278554 0.00234792 0.0019022 0.00154113 0.00151261 0.00124843 0.00172112 0.00109665 0.0010513 0.00184936 0.00157733 0.00100351 0.000977496 0.000932158 0.000931815 0.000864445 0.000629329 0.000610545 0.0004965 0.000760776 0.000424529 0.000242961 0.00022968 0.000546633 7.2406e-05
threshold=-0.00060979833721567806 -0.0026613324543531794 -0.073306261397868208 -0.029597095213830468 0.032062936119152168 -0.0055981146491673921 0.00047812343616282 -0.010870225727558134 -0.010405791173839572 -0.0059051164277481496 0.024225433958510859 -0.014083840418606995 0.0089807980693876761 -0.04609326107641866 -0.0012973963761396129 -0.0065726761648149451 0.0015182443678697678 -0.0031850853825410737 -0.0025251467013731595 -0.0010243884171359239 0.00077787595032764766 0.012454039308036595 -0.000713094040454135 0.0016251835933531363 0.020343089287439879 0.005914682289585472 0.0084616582923383674 -0.020063631236553189 -0.011992848478257654
decision_type=6 6 4 6 6 6 6 6 4 6 6 6 6 4 6 6 6 4 6 6 4 6 6 6 6 6 6 6 6
left_child=1 2 5 4 12 7 9 -1 16 17 -11 -6 13 -2 -14 -10 -8 -5 21 -20 22 -4 24 -24 -3 -13 27 -22 -28
right_child=3 20 18 6 11 -7 8 -9 15 10 -12 25 14 -15 -16 -17 -18 -19 19 -21 26 -23 23 -25 -26 -27 28 -29 -30
leaf_value=0.00014465309593058239 9.3765077795853426e-05 -1.8054904409688743e-07 1.2694860035040377e-05 0 0 0 0 2.9985389952373325e-05 2.6894565773942665e-06 -1.0053108424576882e-06 6.865870001033316e-06 -8.801403306096655e-05 -4.5090471023744846e-06 -3.1675161344416765e-06 -2.3685730252521167e-05 -3.4071803854701139e-06 -1.2069551447543703e-05 4.0225762247185112e-05 1.363418024385928e-06 8.7076274151368173e-06 -1.2548726730702064e-05 0 1.100049292521512e-06 5.7169613678487497e-06 1.8546001299320902e-05 0 -1.3891935391406446e-05 0 -1.4090488951298815e-06
leaf_weight=344 172 124879 29106 949 216 507 10736 979 26559 204231 28479 666 12522 15329 7958 141486 28655 1215 40968 28854 3347 1647 130381 48777 1097 375 2223 51087 5423
leaf_count=344 172 124879 29106 949 216 507 10736 979 26559 204231 28479 666 12522 15329 7958 141486 28655 1215 40968 28854 3347 1647 130381 48777 1097 375 2223 51087 5423
internal_value=0 2.39282e-06 7.82209e-06 -2.31289e-06 -1.01489e-05 5.02275e-05 -1.61922e-06 7.12948e-05 -3.71633e-06 1.69063e-07 0 -5.61471e-05 -8.12205e-06 -1.11243e-06 -1.26945e-05 -2.35434e-06 -9.1455e-06 2.28438e-05 6.90039e-06 4.61341e-06 8.3787e-07 1.16044e-05 1.42602e-06 2.44081e-06 0 -6.89323e-05 -1.81133e-06 -8.06404e-07 -7.00231e-06
internal_weight=0 469619 102405 479548 37238 1830 442310 1323 207436 234874 232710 1257 35981 15501 20480 168045 39391 2164 100575 69822 367214 30753 305134 179158 125976 1041 62080 54434 7646
internal_count=949167 469619 102405 479548 37238 1830 442310 1323 207436 234874 232710 1257 35981 15501 20480 168045 39391 2164 100575 69822 367214 30753 305134 179158 125976 1041 62080 54434 7646
is_linear=0
shrinkage=0.03


Tree=21
num_leaves=30
num_cat=0
split_feature=120 19 131 124 64 36 95 20 99 93 37 90 12 18 158 103 90 130 46 134 63 93 150 90 12 165 103 25 101
split_gain=0.00540019 0.0028298 0.00259959 0.00993492 0.00470747 0.0020279 0.00194423 0.00182788 0.0019264 0.00466662 0.00379146 0.00186133 0.00171512 0.00127785 0.00110935 0.000877896 0.000859935 0.000838586 0.000694879 0.000677527 0.00062645 0.000546939 0.000514833 0.000427827 0.000379047 0.000356605 0.00030334 0.0002532 9.25786e-05
threshold=-8.2002873086766138e-05 -0.029291086830198761 0.098329812288284316 0.00059398369586949231 -0.00025494288200602841 0.0022797747046874625 -0.0072368802502751342 -0.0072553897941444031 0.012225214857608082 0.0068656424991786489 -0.015529369004070757 -0.00091133076566937861 -0.0058293449618723259 0.0071509795417842208 -0.0081487921097285945 -0.00114556128391996 0.00050565661837087301 0.013395492051226371 0.02115898938033469 0.00098529672348130989 -0.047456022351980202 -0.004169793799519538 0.0013181001086587675 0.0016801616539113553 -0.0008125422264144579 -0.0059925494715571395 0.0018717006314545872 -0.038228854537010186 -0.0042553385719656936
decision_type=6 4 6 6 4 4 6 6 4 4 6 6 4 4 6 6 6 6 6 6 4 6 6 6 4 6 6 6 6
left_child=7 6 5 15 -5 17 18 8 12 21 -11 19 14 -7 -1 -4 28 -3 -2 24 -14 -10 -18 26 -9 -21 -13 -25 -8
right_child=1 2 3 4 -6 13 16 11 9 10 -12 23 20 -15 -16 -17 22 -19 -20 25 -22 -23 -24 27 -26 -27 -28 -29 -30
leaf_value=0 -5.4182545176701835e-05 -1.2968029689668512e-06 2.4034620594035509e-05 0.00031114392619688291 0 -3.5688024840015849e-06 0 3.4343805993972815e-06 -6.4139659480133557e-06 0.00016929294568984507 0 5.8358116174959596e-07 -6.9703699132993878e-06 -1.1396447701228387e-05 1.30288546256657e-05 -2.3337661520570768e-05 0 5.9707513572331883e-06 0 0 2.9153119983839503e-06 2.2952098556527997e-05 -2.2884463763791492e-05 0 1.8704275187419048e-07 7.2176633758341853e-06 -1.9462401685266043e-06 -6.0891860105488731e-06 1.0514543186348912e-05
leaf_weight=5777 1774 289820 834 155 75 85092 534 80012 874 357 258 122875 5657 28802 27973 562 1446 14447 203 10453 59972 864 3216 3773 71961 47451 62822 19584 989
leaf_count=5777 1774 289820 834 155 75 85092 534 80012 874 357 258 122875 5657 28802 27973 562 1446 14447 203 10453 59972 864 3216 3773 71961 47451 62822 19584 989
internal_value=0 -2.43863e-06 -2.05855e-06 3.52345e-05 0.000217376 -2.2396e-06 -2.01443e-05 2.10945e-06 5.75597e-06 3.37136e-05 0.000105571 1.18811e-06 4.94241e-06 -5.68016e-06 1.05411e-05 0 -8.7548e-06 -9.02394e-07 -4.81518e-05 3.19799e-06 1.83446e-06 0 -1.61861e-05 -7.57947e-07 1.99545e-06 6.09493e-06 -1.91503e-07 -4.61884e-06 4.14807e-06
internal_weight=0 427949 419787 1626 230 418161 8162 520663 101732 2353 615 418931 99379 113894 33750 1396 6185 304267 1977 209877 65629 1738 4662 209054 151973 57904 185697 23357 1523
internal_count=948612 427949 419787 1626 230 418161 8162 520663 101732 2353 615 418931 99379 113894 33750 1396 6185 304267 1977 209877 65629 1738 4662 209054 151973 57904 185697 23357 1523
is_linear=0
shrinkage=0.03


Tree=22
num_leaves=31
num_cat=0
split_feature=120 37 72 166 120 86 12 155 148 120 48 90 166 125 148 149 158 24 92 118 33 1 31 94 120 14 27 146 107 117
split_gain=0.00667288 0.00342485 0.00382851 0.00595851 0.00301159 0.00263422 0.0037982 0.00586545 0.0020688 0.00189139 0.00174804 0.00121986 0.00103583 0.000800805 0.000762475 0.000702827 0.000577404 0.000433517 0.000420899 0.000411644 0.000390885 0.000380066 0.000341374 0.000215742 0.000139352 0.000120351 8.05943e-05 5.31922e-05 4.38105e-05 2.22643e-05
threshold=-0.011854585658648638 -0.034074673429131501 -0.024718756347682964 -0.0065363452938420894 -0.0073918514544410842 0.001110644710222188 -0.030118668106544001 0.0052546053193509587 0.0033731632547763491 -0.00045070781136849226 0.0014785761673667614 -0.0019370642886322119 -0.017261134429716361 -0.0034858213039115067 0.0030352688454110305 0.012524465098977091 -0.0029542961560807286 0.028830199219712058 -0.00056840728422416129 0.00055561919629842839 0.0027433520881459121 0.034996341913938529 -0.0056815908756107083 0.0034879586468454086 0.0015174599007875312 0.017910917302093082 0.0069439753424376258 -0.0061763636412038338 -0.022343743592500683 0.0017651749658398332
decision_type=6 4 6 4 6 4 6 6 6 4 6 6 6 6 6 6 6 6 6 6 4 4 4 6 6 6 6 6 4 6
left_child=5 2 3 12 20 13 7 -7 -5 14 -11 25 -2 15 -6 21 18 -18 -15 -17 22 -1 -3 -22 28 -8 -26 -13 -4 -9
right_child=1 4 24 8 9 6 11 29 -10 10 -12 27 -14 16 -16 19 17 -19 -20 -21 23 -23 -24 -25 26 -27 -28 -29 -30 -31
leaf_value=2.5802743278519501e-05 3.6648329558966277e-05 8.8157522747636712e-06 0 0 4.434868604719906e-08 0.00015559076079109505 2.6921794035652207e-05 0 -0.00012040196568085889 -4.6464427112969651e-07 -4.3982135889890357e-06 -6.7416006618053646e-06 -3.6218242942205894e-05 -1.5837411990188975e-05 2.982363977420264e-06 -2.4787802692609089e-05 1.32408813345653e-05 -1.4621848214526638e-06 0 8.9780369390729191e-06 1.2817142103271995e-05 0 5.1802818578437244e-07 2.6972806676789539e-07 -1.164851757405927e-05 0 0 3.3995735768542275e-06 5.3702254015009802e-06 8.3412245389051036e-06
leaf_weight=3276 487 9251 97 364 298888 537 6441 152 951 297333 163064 661 208 2379 114020 456 3936 472 2113 1103 15747 50 17547 4101 1438 240 132 1533 1454 286
leaf_count=3276 487 9251 97 364 298888 537 6441 152 951 297333 163064 661 208 2379 114020 456 3936 472 2113 1103 15747 50 17547 4101 1438 240 132 1533 1454 286
internal_value=0 -2.97783e-07 -2.4753e-05 -5.72337e-05 -1.45026e-07 1.58404e-05 2.81639e-05 8.91761e-05 -9.52692e-05 -5.577e-07 -1.89043e-06 1.97528e-05 0 5.94396e-06 8.91987e-07 1.5721e-05 0 8.2652e-06 -6.97126e-06 0 7.25919e-06 2.35159e-05 3.94265e-06 1.09805e-05 0 2.61256e-05 -8.84039e-06 0 1.28407e-06 0
internal_weight=0 925082 5131 2010 919951 23635 9850 975 1315 873305 460397 8875 695 13785 412908 4885 8900 4408 4492 1559 46646 3326 26798 19848 3121 6681 1570 2194 1551 438
internal_count=948717 925082 5131 2010 919951 23635 9850 975 1315 873305 460397 8875 695 13785 412908 4885 8900 4408 4492 1559 46646 3326 26798 19848 3121 6681 1570 2194 1551 438
is_linear=0
shrinkage=0.03


Tree=23
num_leaves=30
num_cat=0
split_feature=90 30 140 120 145 147 13 120 52 99 54 29 127 24 105 103 88 149 103 150 121 37 149 166 52 120 137 27 125
split_gain=0.00619062 0.00507887 0.0065294 0.00233859 0.00202566 0.00234354 0.00195836 0.00422316 0.00209324 0.00162037 0.00159912 0.00152992 0.00101151 0.000672324 0.0012811 0.000613627 0.000595627 0.000679653 0.000527188 0.000506684 0.000370103 0.000334199 0.000325609 0.00146452 0.000246399 0.0001691 0.000130332 8.06853e-05 1.30002e-05
threshold=-0.0015742857973211231 -0.043115202289939085 -0.0031064035354894117 0.0024422305636664448 -0.042780103161931031 -0.024651665240526196 -0.012794245034456251 -0.014590152689883814 0.014946094007694503 -0.0060658832080662242 0.0062755706463800036 -0.042441345751285546 -0.014486129395663737 -0.00081272467176738761 -0.0018405548762530086 0.0023647209163755183 0.0031362952501740584 -0.014843652490526436 -0.0051005601417273274 -0.0065299334949665789 0.0063053630292415628 -0.00063549799961037923 0.02597262337803841 -0.027004202795812043 0.023822873003700788 0.0034800067429973246 -0.0087320921011269075 -0.0066923419944941989 0.015384003054350616
decision_type=4 6 6 6 6 6 6 6 6 6 6 4 6 4 6 6 4 4 6 6 4 4 6 4 6 6 4 6 4
left_child=6 2 11 16 10 -6 7 8 9 -1 -5 -2 15 24 20 -9 21 -18 -14 -16 -15 -3 23 -4 25 -8 -26 -10 -24
right_child=1 3 22 4 5 -7 13 12 27 -11 -12 -13 18 14 19 -17 17 -19 -20 -21 -22 -23 28 -25 26 -27 -28 -29 -30
leaf_value=0 -0.00024278782175957424 3.5638059788130291e-07 0.00014238979679846256 -8.631550845697834e-06 5.8770323087099387e-06 -4.2702625489849093e-06 7.858640685344089e-06 0 0 4.9097863789531291e-05 -3.5847948395464542e-05 0 1.6964823907376947e-05 -7.7228486877109537e-08 7.8962482701326342e-06 -1.9502441375885148e-05 -5.9964814624500057e-06 5.442368361519701e-06 4.6623395696003211e-06 2.2183633337573026e-06 -7.3950942396595436e-06 -1.2026496118781582e-06 -3.9572677333266114e-05 0 6.2543615289198684e-06 0 -6.8376991499506312e-08 -1.0901788933706678e-05 0
leaf_weight=710 202 205493 68 16633 22321 161423 35852 3025 224 4306 2902 109 6312 57741 27514 1782 4360 30068 18861 52930 7720 273587 128 154 3024 3191 7513 609 71
leaf_count=710 202 205493 68 16633 22321 161423 35852 3025 224 4306 2902 109 6312 57741 27514 1782 4360 30068 18861 52930 7720 273587 128 154 3024 3191 7513 609 71
internal_value=0 -1.41223e-06 -8.06275e-05 -1.31018e-06 -4.03787e-06 -2.9559e-06 4.23104e-06 1.08401e-05 3.46938e-05 4.2177e-05 -1.34457e-05 -0.000184443 5.68406e-06 2.94287e-06 1.76915e-06 -5.12418e-06 -2.01168e-07 3.55781e-06 8.34406e-06 4.34696e-06 -1.16958e-06 -5.02622e-07 0 2.1252e-05 6.09419e-06 7.26727e-06 3.23735e-07 0 -3.0897e-05
internal_weight=0 717519 732 716787 203279 183744 231314 35829 5849 5016 19535 311 29980 195485 145905 4807 513508 34428 25173 80444 65461 479080 421 222 49580 39043 10537 833 199
internal_count=948833 717519 732 716787 203279 183744 231314 35829 5849 5016 19535 311 29980 195485 145905 4807 513508 34428 25173 80444 65461 479080 421 222 49580 39043 10537 833 199
is_linear=0
shrinkage=0.03


Tree=24
num_leaves=28
num_cat=0
split_feature=90 2 154 119 135 86 120 12 161 156 29 48 147 167 63 84 125 97 80 156 101 123 19 159 108 165 93
split_gain=0.00548881 0.00677497 0.00421672 0.00360647 0.00740299 0.0125058 0.00347492 0.0027673 0.00160697 0.00267094 0.00111256 0.00224572 0.00138539 0.00325758 0.000913352 0.000787807 0.000673318 0.000649769 0.000577149 0.000562233 0.00110708 0.000522406 0.000434446 0.000369147 0.000176351 0.000318884 1.17555e-05
threshold=0.00053211393515819325 -0.045641260494014187 -0.00033532111024852854 0.048959050327539451 -0.012877658009529112 0.01167917434039957 -0.0043896115563454028 -0.0073743356621504162 0.0067298905923962602 0.016288575340589934 0.062019661068916328 0.0029949940014416354 -0.013638198375701903 -0.055921260267496102 -0.014642101246863602 0.0011196894879319489 -0.01334254117682576 0.0049960417672991761 0.015519992427534763 -0.020046742212440991 -0.0023395624011754985 0.0051722179632633933 -0.0033106410410255189 -0.015522350557148455 0.0016316524201094534 0.017442588694393638 0.010865412186831238
decision_type=4 4 6 6 6 6 6 6 6 6 4 6 6 4 6 6 4 6 6 6 6 6 6 6 6 6 6
left_child=3 2 14 6 5 21 7 18 -4 -10 11 23 13 -12 -2 -13 -14 -9 -1 20 -8 -5 -21 -3 25 -6 -26
right_child=1 10 8 4 24 -7 19 17 9 -11 12 15 16 -15 -16 -17 -18 -19 -20 22 -22 -23 -24 -25 26 -27 -28
leaf_value=1.6052716636488285e-05 -9.8979748887115151e-05 1.7735695522313945e-06 -3.2008686217727074e-05 0 2.7567905802398957e-05 0.00047504551684496136 -2.2732756017615334e-05 2.6881913576483053e-06 0 0.00015846408372453878 4.1301207957650493e-05 0 -1.851835855003434e-05 2.3176022448005691e-06 0 -9.7699386951386861e-06 -5.240828839326802e-07 1.0621817298506396e-05 0 1.8784233667278268e-06 0 6.998254988502595e-05 -1.5117214292501682e-07 -2.1704228565745517e-06 -4.9204000338905484e-06 0 0
leaf_weight=23358 1146 19698 1750 144 635 93 2813 113642 686 97 2350 11405 2169 17514 154 53845 33808 12135 1420 129450 4577 94 316216 198889 435 291 142
leaf_count=23358 1146 19698 1750 144 635 93 2813 113642 686 97 2350 11405 2169 17514 154 53845 33808 12135 1420 129450 4577 94 316216 198889 435 291 142
internal_value=0 -3.01058e-06 -4.29085e-05 1.73687e-06 4.40277e-05 0.000174872 1.58338e-06 5.53674e-06 -1.30373e-05 1.02288e-05 -2.51596e-06 -3.29212e-06 1.16063e-06 7.68829e-06 -8.9481e-05 -8.24029e-06 -2.02681e-06 3.57304e-06 1.48984e-05 2.36513e-07 -7.87449e-06 0 4.04701e-07 -1.74637e-06 5.05139e-06 1.45743e-05 0
internal_weight=0 343511 3833 605445 1834 331 603611 150555 2533 783 339678 283837 55841 19864 1300 65250 35977 125777 24778 453056 7390 238 445666 218587 1503 926 577
internal_count=948956 343511 3833 605445 1834 331 603611 150555 2533 783 339678 283837 55841 19864 1300 65250 35977 125777 24778 453056 7390 238 445666 218587 1503 926 577
is_linear=0
shrinkage=0.03


Tree=25
num_leaves=27
num_cat=0
split_feature=90 52 125 121 12 100 149 155 111 119 12 24 45 134 48 124 24 85 124 94 35 68 120 38 145 157
split_gain=0.00429852 0.00640343 0.00408193 0.00294359 0.00317998 0.00285282 0.00198107 0.00171013 0.00160195 0.00142135 0.00100489 0.000951781 0.00108814 0.000815201 0.00080757 0.00207147 0.000657593 0.000651726 0.00144737 0.00106041 0.000625875 0.00097142 0.000588 0.000541799 0.00021857 7.98586e-05
threshold=0.00080694192534883275 -0.12532708420271799 -0.00093123893020674575 -0.0080177076160907728 -0.0044678629476296592 0.035582510985770401 0.013892116490751507 -0.052303193137049668 -0.00087963626720011223 0.0017965548322536053 -0.0045107805801825156 -0.0074475728707619308 -0.035404531285166733 -0.0021705553419002583 0.00051774191983124378 -0.0062236328608360368 0.0043231925463921078 0.023655074648559097 -0.0025620954997904112 0.0051337593928374378 0.088140398263931288 0.0081371348582463931 0.00026184334612738949 -0.014257114257955452 0.013741401955485346 0.0065390397794544705
decision_type=4 6 4 6 6 6 6 4 6 4 6 4 4 4 6 4 6 6 6 6 6 6 6 6 6 6
left_child=3 2 -2 4 6 14 16 -7 -9 -4 11 12 -5 -13 23 -16 -1 19 -19 -6 22 -22 -12 -3 -8 -11
right_child=1 5 9 10 17 7 24 8 -10 25 20 13 -14 -15 15 -17 -18 18 -20 -21 21 -23 -24 -25 -26 -27
leaf_value=9.9310288058070594e-06 -0.0001259449884177686 -5.6998038801176441e-06 6.2489131380773506e-05 -1.492258027323545e-05 3.2002130795315051e-06 0 2.7783268802928983e-05 0.00013046906117028591 0 -3.6463219173060099e-05 3.7645064118168492e-07 2.2324586537694925e-07 1.4856071712034078e-06 8.4545500534159426e-06 -1.2224108955467565e-05 -2.4112281835445996e-06 -2.7828579601679209e-06 0 4.1900308470025878e-05 -6.2256639423375234e-06 1.5790203675145685e-05 -5.9957508588260037e-07 -1.9272749654381751e-06 -5.994979289745232e-07 0 0
leaf_weight=22346 631 23366 113 4539 87025 176 8334 307 145 684 283894 21432 13283 34622 26807 93109 2312 1109 1218 11366 5564 4071 148428 152692 683 66
leaf_count=22346 631 23366 113 4539 87025 176 8334 307 145 684 283894 21432 13283 34622 26807 93109 2312 1109 1218 11366 5564 4071 148428 152692 683 66
internal_value=0 -2.9579e-06 -6.52896e-05 1.3924e-06 5.35461e-06 -2.59292e-06 1.34421e-05 6.01452e-05 9.17056e-05 -3.41056e-06 3.31001e-07 3.58007e-06 -1.85296e-06 5.57506e-06 -2.77712e-06 -4.73013e-06 8.13054e-06 2.50141e-06 1.89828e-05 1.95879e-06 -1.78176e-07 7.30997e-06 -3.79791e-07 -1.36165e-06 2.62991e-05 -3.3426e-05
internal_weight=0 298096 1494 650226 134393 296602 33675 628 452 863 515833 73876 17822 56054 295974 119916 24658 100718 2327 98391 441957 9635 432322 176058 9017 750
internal_count=948322 298096 1494 650226 134393 296602 33675 628 452 863 515833 73876 17822 56054 295974 119916 24658 100718 2327 98391 441957 9635 432322 176058 9017 750
is_linear=0
shrinkage=0.03


Tree=26
num_leaves=31
num_cat=0
split_feature=120 32 154 148 90 142 24 90 125 58 24 103 159 13 12 91 135 125 131 13 158 104 151 28 37 156 137 45 90 134
split_gain=0.00444727 0.00417251 0.00235052 0.00176964 0.00171046 0.00122991 0.00118985 0.00112886 0.000950949 0.00120335 0.00138159 0.00107035 0.00138363 0.00125612 0.00103611 0.000888781 0.000579325 0.000455355 0.000455176 0.000412364 0.000884268 0.000399223 0.000364487 0.000289907 0.00041669 0.000219987 0.00018981 0.000166827 0.000112819 4.34509e-05
threshold=-0.0026152775943317835 -0.028419700329117659 -0.0073851435667616179 0.0062469041301082637 -0.00047795176111543267 0.0026574746257217569 0.0013545532054696665 0.0040871074193294735 -0.011455694213509558 0.026926830001983381 -0.00096074614881279049 0.00025389876100234693 -0.0084502645768225176 0.0078289797529578226 0.0017001779252667655 -0.0060885834973305455 -0.0030131797539070244 -0.0018310896120965479 -0.0089264833368360979 -0.0060622491873800746 -0.019494573514781701 0.0017509303275783702 -0.010608156211674212 -0.0095528557356128439 -4.7267600166378536e-05 0.0032710086498000559 -0.011197417508810757 0.025530889630317691 -0.00076793109696326458 0.0065202103088511367
decision_type=4 6 6 6 6 6 6 4 4 4 6 6 6 6 6 6 6 4 4 4 6 6 6 6 6 6 4 6 6 6
left_child=3 2 7 6 19 27 15 26 11 14 -11 12 -3 -13 -10 18 25 -9 -1 20 -5 -17 -7 24 -6 -8 -2 -4 -18 -25
right_child=1 8 5 4 23 22 16 17 9 10 -12 13 -14 -15 -16 21 28 -19 -20 -21 -22 -23 -24 29 -26 -27 -28 -29 -30 -31
leaf_value=0 0 7.0081584630861313e-06 -1.7489558377247249e-05 -1.2843689289891497e-05 0 1.4966441890354315e-05 -4.2122815604317525e-06 -7.6996712750580323e-05 1.4027333108031875e-07 1.1504014854369444e-05 0 -3.5096038391081922e-06 -3.89958340412735e-06 -1.6373298953838516e-05 -2.6948476536991312e-06 1.4079762967430244e-06 2.839438105274868e-06 0 1.1249105893096362e-05 6.831222345146308e-06 1.6699534506404646e-05 6.4489541607257922e-06 -1.1877484842257271e-06 5.9566261737257233e-06 -1.1126319275125525e-05 0 -2.2130942194211702e-05 0 0 0
leaf_weight=6487 553 14659 6377 376 6228 1437 36591 1006 344736 15809 25990 30920 35001 10997 168362 100933 26955 295 19432 19205 19415 20253 4298 5615 3841 8440 2804 212 10740 640
leaf_count=6487 553 14659 6377 376 6228 1437 36591 1006 344736 15809 25990 30920 35001 10997 168362 100933 26955 295 19432 19205 19415 20253 4298 5615 3841 8440 2804 212 10740 640
internal_value=0 -1.24439e-06 -1.5972e-05 3.23391e-06 8.14174e-06 -7.50647e-06 1.98728e-06 -3.5138e-05 -8.34266e-07 -3.36942e-07 4.50681e-06 -3.68386e-06 -3.77562e-07 -7.24287e-06 -7.60783e-07 3.62478e-06 -7.43257e-07 -6.53587e-05 8.89212e-06 1.15546e-05 1.53792e-05 2.37431e-06 2.49153e-07 0 -3.16248e-06 -3.16566e-06 -1.89285e-05 -1.65307e-05 1.75268e-06 5.05987e-06
internal_weight=0 663456 16982 285151 55320 12324 229831 4658 646474 554897 41799 91577 49660 41917 513098 147105 82726 1301 25919 38996 19791 121186 5735 16324 10069 45031 3357 6589 37695 6255
internal_count=948607 663456 16982 285151 55320 12324 229831 4658 646474 554897 41799 91577 49660 41917 513098 147105 82726 1301 25919 38996 19791 121186 5735 16324 10069 45031 3357 6589 37695 6255
is_linear=0
shrinkage=0.03


Tree=27
num_leaves=31
num_cat=0
split_feature=90 149 108 110 65 91 40 160 103 19 91 45 148 87 64 61 33 62 158 105 120 127 58 90 150 127 150 137 96 120
split_gain=0.00518382 0.00287765 0.00586498 0.00545867 0.0073604 0.00306501 0.003862 0.00238043 0.00217902 0.00207567 0.0030399 0.00177113 0.00127302 0.00123991 0.000931116 0.000851202 0.000850941 0.00100802 0.00075525 0.000682651 0.000847297 0.000675992 0.00072061 0.000564127 0.000541813 0.000446732 0.000408156 0.000296257 0.000404896 0.000106245
threshold=-0.00032964483483261469 -0.042834913358092301 -0.0043855074409956431 -0.0021625868522307163 -0.0083788204938173277 0.0093307290226221102 -0.016551744341580635 0.023573625492530063 -0.0036999467993155117 -0.0095755280926823599 -0.010812607593834398 0.012438815087080004 0.012318059334521134 -0.0044445178937166921 0.014151991204935868 0.0051927813328802594 -0.03451216779649257 0.0060934217877073845 0.0081068462396209056 -0.00022526110842591149 -0.0020428996109454769 -0.034039003774523728 0.01355643354020898 0.0013492526481214827 -0.016534487910444661 -0.01252375543117523 0.007635625421591759 0.020007343031466011 -0.0038734205423443962 -0.0061378130734570501
decision_type=4 6 6 6 6 6 6 6 6 6 6 6 6 4 6 4 4 4 6 6 6 6 6 6 6 6 6 6 6 6
left_child=9 2 3 4 -2 16 18 23 -9 10 13 -5 19 -1 -8 -15 24 -18 -7 25 -21 22 -14 -4 -3 -11 -23 29 -29 -12
right_child=1 5 7 11 -6 6 14 8 -10 12 27 -13 21 15 -16 -17 17 -19 -20 20 -22 26 -24 -25 -26 -27 -28 28 -30 -31
leaf_value=0 0.00022871348607740775 2.9341393854788875e-06 0 6.050901023221701e-05 3.1741820925470146e-05 -2.0467993754201157e-05 -2.5906293006608655e-06 5.0168453222581831e-05 0 -4.5625329098008355e-06 1.0227222226578785e-05 -8.2513580334069494e-06 4.6183417945121614e-05 4.3938986266336719e-05 -1.8215401611639484e-05 7.112425561185804e-06 0 -2.8293494732017132e-06 -5.6782994484391531e-05 4.7076127809470199e-06 1.3750038773115197e-08 7.7434008479950931e-06 0 -2.087849332375288e-05 -8.7912628763735699e-06 2.9014336958282163e-07 0 -1.8653116950136952e-05 1.5644701418219066e-06 3.9658244805734253e-06
leaf_weight=1385 338 2062 1414 415 859 4291 23135 1292 1512 18602 8393 1019 898 3537 5020 1991 207744 229130 1765 77556 74351 23087 132 3105 23645 188728 3842 1018 3883 31483
leaf_count=1385 338 2062 1414 415 859 4291 23135 1292 1512 18602 8393 1019 898 3537 5020 1991 207744 229130 1765 77556 74351 23087 132 3105 23645 188728 3842 1018 3883 31483
internal_value=0 -2.14608e-06 1.35927e-05 5.19939e-05 0.00010016 -2.49168e-06 -1.1242e-05 0 2.14888e-05 2.30674e-06 8.02192e-06 1.25879e-06 1.505e-06 2.70276e-05 -5.91033e-06 3.33951e-05 -1.81206e-06 -1.4567e-06 -3.35432e-05 9.77101e-07 2.50897e-06 7.75081e-06 3.5095e-05 -1.36848e-05 -7.26714e-06 -7.29391e-08 6.14542e-06 4.75163e-06 0 5.6603e-06
internal_weight=0 506746 9954 2631 1197 496792 34211 7323 2804 438886 51690 1434 387196 6913 28155 5528 462581 436874 6056 359237 151907 27959 1030 4519 25707 207330 26929 44777 4901 39876
internal_count=945632 506746 9954 2631 1197 496792 34211 7323 2804 438886 51690 1434 387196 6913 28155 5528 462581 436874 6056 359237 151907 27959 1030 4519 25707 207330 26929 44777 4901 39876
is_linear=0
shrinkage=0.03


Tree=28
num_leaves=28
num_cat=0
split_feature=90 90 114 78 166 29 126 130 45 66 29 7 150 156 26 149 99 104 35 149 24 86 136 150 88 104 121
split_gain=0.0050225 0.00459485 0.00355015 0.00244954 0.00431565 0.00267844 0.00221991 0.00166944 0.00114186 0.00109568 0.00109125 0.00159945 0.00103584 0.00100155 0.000990924 0.00168711 0.000889671 0.000879888 0.000822647 0.000700686 0.000667398 0.000584084 0.000487101 0.000370943 0.000365317 0.00022536 0.000138293
