tree
version=v4
num_class=1
num_tree_per_iteration=1
label_index=0
max_feature_idx=173
objective=regression
feature_names=log_close/mean_60_id0 log_return_60_id0 log_close/mean_300_id0 log_return_300_id0 log_close/mean_900_id0 log_return_900_id0 log_close/mean_60_id1 log_return_60_id1 log_close/mean_300_id1 log_return_300_id1 log_close/mean_900_id1 log_return_900_id1 log_close/mean_60_id2 log_return_60_id2 log_close/mean_300_id2 log_return_300_id2 log_close/mean_900_id2 log_return_900_id2 log_close/mean_60_id3 log_return_60_id3 log_close/mean_300_id3 log_return_300_id3 log_close/mean_900_id3 log_return_900_id3 log_close/mean_60_id4 log_return_60_id4 log_close/mean_300_id4 log_return_300_id4 log_close/mean_900_id4 log_return_900_id4 log_close/mean_60_id5 log_return_60_id5 log_close/mean_300_id5 log_return_300_id5 log_close/mean_900_id5 log_return_900_id5 log_close/mean_60_id6 log_return_60_id6 log_close/mean_300_id6 log_return_300_id6 log_close/mean_900_id6 log_return_900_id6 log_close/mean_60_id7 log_return_60_id7 log_close/mean_300_id7 log_return_300_id7 log_close/mean_900_id7 log_return_900_id7 log_close/mean_60_id8 log_return_60_id8 log_close/mean_300_id8 log_return_300_id8 log_close/mean_900_id8 log_return_900_id8 log_close/mean_60_id9 log_return_60_id9 log_close/mean_300_id9 log_return_300_id9 log_close/mean_900_id9 log_return_900_id9 log_close/mean_60_id10 log_return_60_id10 log_close/mean_300_id10 log_return_300_id10 log_close/mean_900_id10 log_return_900_id10 log_close/mean_60_id11 log_return_60_id11 log_close/mean_300_id11 log_return_300_id11 log_close/mean_900_id11 log_return_900_id11 log_close/mean_60_id12 log_return_60_id12 log_close/mean_300_id12 log_return_300_id12 log_close/mean_900_id12 log_return_900_id12 log_close/mean_60_id13 log_return_60_id13 log_close/mean_300_id13 log_return_300_id13 log_close/mean_900_id13 log_return_900_id13 mean_close/mean_60 mean_log_returns_60 log_close/mean_60-mean_close/mean_60_id0 log_return_60-mean_log_returns_60_id0 log_close/mean_60-mean_close/mean_60_id1 log_return_60-mean_log_returns_60_id1 log_close/mean_60-mean_close/mean_60_id2 log_return_60-mean_log_returns_60_id2 log_close/mean_60-mean_close/mean_60_id3 log_return_60-mean_log_returns_60_id3 log_close/mean_60-mean_close/mean_60_id4 log_return_60-mean_log_returns_60_id4 log_close/mean_60-mean_close/mean_60_id5 log_return_60-mean_log_returns_60_id5 log_close/mean_60-mean_close/mean_60_id6 log_return_60-mean_log_returns_60_id6 log_close/mean_60-mean_close/mean_60_id7 log_return_60-mean_log_returns_60_id7 log_close/mean_60-mean_close/mean_60_id8 log_return_60-mean_log_returns_60_id8 log_close/mean_60-mean_close/mean_60_id9 log_return_60-mean_log_returns_60_id9 log_close/mean_60-mean_close/mean_60_id10 log_return_60-mean_log_returns_60_id10 log_close/mean_60-mean_close/mean_60_id11 log_return_60-mean_log_returns_60_id11 log_close/mean_60-mean_close/mean_60_id12 log_return_60-mean_log_returns_60_id12 log_close/mean_60-mean_close/mean_60_id13 log_return_60-mean_log_returns_60_id13 mean_close/mean_300 mean_log_returns_300 log_close/mean_300-mean_close/mean_300_id0 log_return_300-mean_log_returns_300_id0 log_close/mean_300-mean_close/mean_300_id1 log_return_300-mean_log_returns_300_id1 log_close/mean_300-mean_close/mean_300_id2 log_return_300-mean_log_returns_300_id2 log_close/mean_300-mean_close/mean_300_id3 log_return_300-mean_log_returns_300_id3 log_close/mean_300-mean_close/mean_300_id4 log_return_300-mean_log_returns_300_id4 log_close/mean_300-mean_close/mean_300_id5 log_return_300-mean_log_returns_300_id5 log_close/mean_300-mean_close/mean_300_id6 log_return_300-mean_log_returns_300_id6 log_close/mean_300-mean_close/mean_300_id7 log_return_300-mean_log_returns_300_id7 log_close/mean_300-mean_close/mean_300_id8 log_return_300-mean_log_returns_300_id8 log_close/mean_300-mean_close/mean_300_id9 log_return_300-mean_log_returns_300_id9 log_close/mean_300-mean_close/mean_300_id10 log_return_300-mean_log_returns_300_id10 log_close/mean_300-mean_close/mean_300_id11 log_return_300-mean_log_returns_300_id11 log_close/mean_300-mean_close/mean_300_id12 log_return_300-mean_log_returns_300_id12 log_close/mean_300-mean_close/mean_300_id13 log_return_300-mean_log_returns_300_id13 mean_close/mean_900 mean_log_returns_900 log_close/mean_900-mean_close/mean_900_id0 log_return_900-mean_log_returns_900_id0 log_close/mean_900-mean_close/mean_900_id1 log_return_900-mean_log_returns_900_id1 log_close/mean_900-mean_close/mean_900_id2 log_return_900-mean_log_returns_900_id2 log_close/mean_900-mean_close/mean_900_id3 log_return_900-mean_log_returns_900_id3 log_close/mean_900-mean_close/mean_900_id4 log_return_900-mean_log_returns_900_id4 log_close/mean_900-mean_close/mean_900_id5 log_return_900-mean_log_returns_900_id5 log_close/mean_900-mean_close/mean_900_id6 log_return_900-mean_log_returns_900_id6 log_close/mean_900-mean_close/mean_900_id7 log_return_900-mean_log_returns_900_id7 log_close/mean_900-mean_close/mean_900_id8 log_return_900-mean_log_returns_900_id8 log_close/mean_900-mean_close/mean_900_id9 log_return_900-mean_log_returns_900_id9 log_close/mean_900-mean_close/mean_900_id10 log_return_900-mean_log_returns_900_id10 log_close/mean_900-mean_close/mean_900_id11 log_return_900-mean_log_returns_900_id11 log_close/mean_900-mean_close/mean_900_id12 log_return_900-mean_log_returns_900_id12 log_close/mean_900-mean_close/mean_900_id13 log_return_900-mean_log_returns_900_id13
feature_infos=[-0.25734479476729216:0.16961821065531935] [-0.36029729247093201:0.34632083773612976] [-0.43949030590867827:0.18456231021779848] [-0.56551575660705566:0.35904914140701294] [-0.55409803355043408:0.27620268051790564] [-0.58751392364501953:0.49726223945617676] [-0.13478911472812344:0.14206078084975579] [-0.19856646656990051:0.28987497091293335] [-0.27002710606839719:0.14475921806780365] [-0.3801322877407074:0.27611792087554932] [-0.38281875134881205:0.18351048899245453] [-0.48313978314399719:0.283316969871521] [-0.27734876000457587:0.13535212343984632] [-0.32050076127052307:0.27882668375968933] [-0.31395760544007595:0.22828406050287633] [-0.35391846299171448:0.27262455224990845] [-0.36084761761804846:0.31354945196805256] [-0.50029420852661133:0.4492267370223999] [-0.20878234429874537:0.14335878997153415] [-0.25369808077812195:0.30774280428886414] [-0.31248572907508171:0.1687783357014408] [-0.43030062317848206:0.31135055422782898] [-0.41445641141843087:0.21391373755636739] [-0.48644638061523438:0.34387689828872681] [-0.32319639456862753:0.40428131521579802] [-0.49236267805099487:0.63543152809143066] [-0.43604905127516208:0.67417134065072615] [-0.70306068658828735:1.0968711376190186] [-0.47261372393278617:1.0613315491284672] [-0.73583388328552246:1.9617093801498413] [-0.28749500184409216:0.10167513097619925] [-0.37048467993736267:0.23745808005332947] [-0.36722406646475148:0.14806305236426365] [-0.4066728949546814:0.21220710873603821] [-0.40986883580759059:0.17662906209229798] [-0.47663453221321106:0.24199537932872772] [-0.20492156731328764:0.14595276340380073] [-0.20615750551223755:0.31822890043258667] [-0.26455512927981878:0.20119856466676356] [-0.37232056260108948:0.33399242162704468] [-0.38267129342143913:0.17513193034875313] [-0.4699137806892395:0.33074262738227844] [-0.25191773867924033:0.15597425308183344] [-0.32305416464805603:0.20143340528011322] [-0.31559811526927706:0.22587579924602966] [-0.3538137674331665:0.32838043570518494] [-0.36321479992590627:0.30668011385275123] [-0.45376366376876831:0.36337167024612427] [-0.2241249590089851:0.14251330930804532] [-0.29749813675880432:0.34867843985557556] [-0.39934912194087036:0.22398536612777264] [-0.53708666563034058:0.34334397315979004] [-0.53093037057862535:0.32017362579987746] [-0.58620989322662354:0.47754055261611938] [-0.1739155972146777:0.21605550825775] [-0.24903528392314911:0.27136752009391785] [-0.24085169242934451:0.26081181622146316] [-0.32519516348838806:0.28503814339637756] [-0.33119971236621559:0.25417810108751077] [-0.45268994569778442:0.35399347543716431] [-0.27148819282418363:0.3074532597782933] [-0.35745590925216675:0.38075369596481323] [-0.42341885440248345:0.2784392516216454] [-0.5488935112953186:0.42322754859924316] [-0.4389902681458539:0.35364269737924292] [-0.79778569936752319:0.52794605493545532] [-0.15671985763042576:0.15771900785504464] [-0.1983216404914856:0.28568130731582642] [-0.27432044575783521:0.13467445671241723] [-0.38627809286117554:0.29902005195617676] [-0.38086825405012198:0.1606402857127498] [-0.48977696895599365:0.28367301821708679] [-0.25256942053265963:0.15547005296227898] [-0.3131435215473175:0.28234803676605225] [-0.31055755366325472:0.30746298056378529] [-0.3479936420917511:0.41058275103569031] [-0.36349841125688037:0.49100852134347611] [-0.42143535614013672:0.66491883993148804] [-0.17974369324272882:0.22645327612995769] [-0.224868044257164:0.3135034441947937] [-0.26666364236131723:0.31333864936145939] [-0.34501862525939941:0.34380844235420227] [-0.34777641757961592:0.34296281771245279] [-0.46372038125991821:0.36377629637718201] [-0.19112615015713486:0.13066295301708936] [-0.24126552045345306:0.24792221188545227] [-0.11725962451166039:0.096127477573939982] [-0.16520413756370544:0.12960860133171082] [-0.032324387713512155:0.086597616676628769] [-0.065356642007827759:0.12500336766242981] [-0.12728099263088022:0.10715713678823166] [-0.13637749850749969:0.16542363166809082] [-0.095045120893156546:0.10620363445969642] [-0.11243053525686264:0.1538846492767334] [-0.28824560391639337:0.37392377578547509] [-0.45519444346427917:0.58796674013137817] [-0.14954129372203998:0.073051512641107916] [-0.15812669694423676:0.15603773295879364] [-0.054853799939591996:0.076062406709332522] [-0.060890749096870422:0.10323960334062576] [-0.097443635240348381:0.13942857239128642] [-0.17692123353481293:0.18812915682792664] [-0.098116682758997251:0.097257192116125393] [-0.1381528228521347:0.1444469541311264] [-0.080832494423542206:0.17666821008338512] [-0.18526050448417664:0.22282597422599792] [-0.2460458673841677:0.24689273870104822] [-0.31540247797966003:0.37399587035179138] [-0.058251525835952965:0.06559126011601589] [-0.10304407030344009:0.10088083148002625] [-0.097708165731089008:0.13721014792725725] [-0.14616219699382782:0.20636871457099915] [-0.088541400071440624:0.20486314762520322] [-0.11806792020797729:0.2948545515537262] [-0.2683274780440798:0.11670163530454858] [-0.37021031975746155:0.27395036816596985] [-0.18100907019821144:0.17113133203619157] [-0.19530543684959412:0.26610803604125977] [-0.055340333825916063:0.11792840629758171] [-0.092766672372817993:0.12618623673915863] [-0.12109477578807426:0.16345984159011184] [-0.16762721538543701:0.20293489098548889] [-0.11343879522162412:0.14341027366759435] [-0.11446258425712585:0.15547168254852295] [-0.42093317649252526:0.61683134049458044] [-0.67859655618667603:1.022558331489563] [-0.15848654376431012:0.11398795168186709] [-0.16516977548599243:0.15084853768348694] [-0.051373286448695855:0.098786287459500063] [-0.094033263623714447:0.13039423525333405] [-0.11299977867645233:0.20538289775838139] [-0.17778074741363525:0.28962361812591553] [-0.1655639562566073:0.20457120838371237] [-0.22185169160366058:0.30208396911621094] [-0.079069072874125151:0.20888924782030199] [-0.16910040378570557:0.21793723106384277] [-0.2887122682018054:0.23855647131045854] [-0.29309824109077454:0.30581137537956238] [-0.11422922156672002:0.099556461985152528] [-0.22350747883319855:0.15166914463043213] [-0.10970201295556135:0.26714283572082581] [-0.18772926926612854:0.35588470101356506] [-0.12250086017183243:0.27102475582026508] [-0.20819666981697083:0.28056344389915466] [-0.37014807363972096:0.1466687768201724] [-0.45725402235984802:0.31374844908714294] [-0.18394995991071311:0.25961211485398877] [-0.21881453692913055:0.45106086134910583] [-0.093230234852532082:0.1000485725450375] [-0.13766556978225708:0.12735801935195923] [-0.11856884233348329:0.22159749377532995] [-0.15930387377738953:0.3300725519657135] [-0.12695969306257149:0.14575012136167376] [-0.18209679424762726:0.23725652694702148] [-0.40436346177927224:0.9801213320269565] [-0.63343602418899536:1.7957041263580322] [-0.16248369557885309:0.13070634524572103] [-0.18273164331912994:0.1657852977514267] [-0.1002672422781824:0.11220527555693834] [-0.18107572197914124:0.14962533116340637] [-0.14470224419886119:0.26437537682775747] [-0.22237791121006012:0.30305156111717224] [-0.20823498358618012:0.28422185045791332] [-0.21860960125923157:0.41572108864784241] [-0.077690570505667758:0.21589372822414193] [-0.19940671324729919:0.22286112606525421] [-0.25597493556118112:0.29415193362013015] [-0.53565067052841187:0.43135011196136475] [-0.1688696388567483:0.14793356637445751] [-0.22838062047958374:0.21407985687255859] [-0.10522407455461016:0.4189411894283831] [-0.19718536734580994:0.56756830215454102] [-0.16720719835450293:0.28088000218368142] [-0.25532129406929016:0.30872416496276855]
tree_sizes=3328

Tree=0
num_leaves=31
num_cat=0
split_feature=130 130 100 120 42 144 44 100 64 104 126 167 155 124 8 126 160 30 50 112 100 96 160 137 149 60 91 160 112 123
split_gain=0.129904 0.0819111 0.0333114 0.0231464 0.0210776 0.0176382 0.0148975 0.0147629 0.0142536 0.0128292 0.0103452 0.006858 0.0129383 0.00582943 0.00523364 0.0047541 0.00256749 0.00221422 0.00187161 0.00170092 0.00164684 0.00140623 0.00134932 0.00124617 0.00121836 0.0011548 0.00113345 0.00101839 0.000501833 0.000254831
threshold=-0.0076384083084394096 0.022936328649957437 0.00053791976389583991 0.00082887079205453274 -0.0045488764222923793 -0.026886710581506375 -0.011241727806504355 0.0040671327360207463 0.0022664744709916316 0.0014943489282075683 -0.00070565981409214642 -0.018079613335430619 -0.016733045689761635 0.0023522217571186979 -0.0095566187715354842 -0.0031696820407703641 -0.001257099522122181 -0.005211056484556372 0.0071915408565217951 0.0010523971815928643 -0.0023764020507178879 0.0028443931036050891 -0.0023239766268191935 -0.0042334832251071921 0.0059896374586969623 -0.00082803419241957762 -0.001263091806322336 -0.010904953009497835 -0.00033226131636074477 -0.0045561098959296933
decision_type=6 4 4 6 6 6 6 6 6 6 6 6 6 6 6 6 6 4 4 6 6 6 6 6 6 6 4 6 6 6
left_child=4 2 16 5 6 10 8 17 13 -10 -3 12 -5 -1 -9 -7 21 -4 -18 27 22 -2 26 28 -13 -21 -6 -8 -22 -25
right_child=1 3 7 11 20 15 19 14 9 -11 -12 24 -14 -15 -16 -17 18 -19 -20 25 23 -23 -24 29 -26 -27 -28 -29 -30 -31
leaf_value=6.7229217390584866e-05 3.9997645869103801e-05 -0.00033313284308450399 2.1609275563698043e-05 9.0440054177907449e-05 5.103292633326378e-05 -6.6885286176698232e-05 5.3765293558335922e-05 -5.4321857548637323e-06 8.6641345120298997e-05 0.00017208057788837758 -1.4624406540681227e-05 -5.199800592102797e-05 -1.0196428562750638e-05 9.5809625774157431e-05 1.9126527839032167e-05 -1.894584467179471e-05 3.7737447411747463e-05 3.1642066385428235e-05 3.0561033579005768e-05 5.1327207112347365e-05 3.3800773545239617e-05 4.7961188850144477e-05 3.6475031172046131e-05 3.9746565644967804e-05 2.5782119309113521e-05 8.8209452686298571e-05 6.9409330591328522e-05 3.6475031172046131e-05 4.4367992247050878e-05 6.0554714338000701e-05
leaf_weight=17154 260978 369 23895 2250 10371 5631 6071 9860 4147 3713 292 1172 2333 15196 82457 5986 165265 218675 40668 3507 6180 23967 2172 2715 815 2495 10275 4312 7387 4984
leaf_count=17154 260978 369 23895 2250 10371 5631 6071 9860 4147 3713 292 1172 2333 15196 82457 5986 165265 218675 40668 3507 6180 23967 2172 2715 815 2495 10275 4312 7387 4984
internal_value=3.6475e-05 3.24916e-05 3.3922e-05 -2.93758e-05 6.85417e-05 -5.40166e-05 8.08099e-05 2.66182e-05 9.08444e-05 0.000128934 -0.000215633 1.89686e-05 3.6475e-05 8.1121e-05 1.63402e-05 -4.34879e-05 3.88743e-05 3.05918e-05 3.6393e-05 5.52656e-05 5.24502e-05 4.07202e-05 5.85408e-05 4.52083e-05 -2.76795e-05 6.91694e-05 6.09072e-05 4.57791e-05 3.84493e-05 5.51674e-05
internal_weight=0 844613 825765 18848 100679 12278 56595 334887 40210 7860 661 6570 4583 32350 92317 11617 490878 242570 205933 16385 44084 284945 22818 21266 1987 6002 20646 10383 13567 7699
internal_count=945292 844613 825765 18848 100679 12278 56595 334887 40210 7860 661 6570 4583 32350 92317 11617 490878 242570 205933 16385 44084 284945 22818 21266 1987 6002 20646 10383 13567 7699
is_linear=0
shrinkage=1


end of trees

feature_importances:
log_close/mean_60-mean_close/mean_60_id7=3
log_close/mean_900-mean_close/mean_900_id7=3
log_close/mean_60-mean_close/mean_60_id13=2
log_close/mean_300-mean_close/mean_300_id5=2
log_close/mean_300-mean_close/mean_300_id7=2
log_close/mean_300_id1=1
log_close/mean_60_id5=1
log_close/mean_60_id7=1
log_close/mean_300_id7=1
log_close/mean_300_id8=1
log_close/mean_60_id10=1
log_close/mean_900_id10=1
log_return_60-mean_log_returns_60_id2=1
log_close/mean_60-mean_close/mean_60_id5=1
log_close/mean_60-mean_close/mean_60_id9=1
log_close/mean_300-mean_close/mean_300_id2=1
log_return_300-mean_log_returns_300_id3=1
log_close/mean_300-mean_close/mean_300_id4=1
log_return_300-mean_log_returns_300_id10=1
mean_close/mean_900=1
log_return_900-mean_log_returns_900_id1=1
log_return_900-mean_log_returns_900_id4=1
log_return_900-mean_log_returns_900_id10=1

parameters:
[boosting: gbdt]
[objective: regression]
[metric: rmse]
[tree_learner: serial]
[device_type: cpu]
[data: ]
[valid: ]
[num_iterations: 5000]
[learning_rate: 0.03]
[num_leaves: 31]
[num_threads: 0]
[deterministic: 0]
[force_col_wise: 0]
[force_row_wise: 0]
[histogram_pool_size: -1]
[max_depth: 5]
[min_data_in_leaf: 50]
[min_sum_hessian_in_leaf: 0.001]
[bagging_fraction: 0.7]
[pos_bagging_fraction: 1]
[neg_bagging_fraction: 1]
[bagging_freq: 1]
[bagging_seed: 8586]
[feature_fraction: 1]
[feature_fraction_bynode: 1]
[feature_fraction_seed: 8586]
[extra_trees: 1]
[extra_seed: 8586]
[early_stopping_round: 50]
[first_metric_only: 1]
[max_delta_step: 0]
[lambda_l1: 0.5]
[lambda_l2: 2]
[linear_lambda: 0]
[min_gain_to_split: 0]
[drop_rate: 0.1]
[max_drop: 50]
[skip_drop: 0.5]
[xgboost_dart_mode: 0]
[uniform_drop: 0]
[drop_seed: 8586]
[top_rate: 0.2]
[other_rate: 0.1]
[min_data_per_group: 100]
[max_cat_threshold: 32]
[cat_l2: 10]
[cat_smooth: 10]
[max_cat_to_onehot: 4]
[top_k: 20]
[monotone_constraints: ]
[monotone_constraints_method: basic]
[monotone_penalty: 0]
[feature_contri: ]
[forcedsplits_filename: ]
[refit_decay_rate: 0.9]
[cegb_tradeoff: 1]
[cegb_penalty_split: 0]
[cegb_penalty_feature_lazy: ]
[cegb_penalty_feature_coupled: ]
[path_smooth: 0]
[interaction_constraints: ]
[verbosity: -1]
[saved_feature_importance_type: 0]
[linear_tree: 0]
[max_bin: 600]
[max_bin_by_feature: ]
[min_data_in_bin: 3]
[bin_construct_sample_cnt: 200000]
[data_random_seed: 8586]
[is_enable_sparse: 1]
[enable_bundle: 1]
[use_missing: 1]
[zero_as_missing: 1]
[feature_pre_filter: 1]
[pre_partition: 0]
[two_round: 0]
[header: 0]
[label_column: ]
[weight_column: ]
[group_column: ]
[ignore_column: ]
[categorical_feature: ]
[forcedbins_filename: ]
[precise_float_parser: 0]
[objective_seed: 30655]
[num_class: 1]
[is_unbalance: 0]
[scale_pos_weight: 1]
[sigmoid: 1]
[boost_from_average: 1]
[reg_sqrt: 0]
[alpha: 0.9]
[fair_c: 1]
[poisson_max_delta_step: 0.7]
[tweedie_variance_power: 1.5]
[lambdarank_truncation_level: 30]
[lambdarank_norm: 1]
[label_gain: ]
[eval_at: ]
[multi_error_top_k: 1]
[auc_mu_weights: ]
[num_machines: 1]
[local_listen_port: 12400]
[time_out: 120]
[machine_list_filename: ]
[machines: ]
[gpu_platform_id: -1]
[gpu_device_id: -1]
[gpu_use_dp: 0]
[num_gpu: 1]

end of parameters

pandas_categorical:[]
