tree
version=v4
num_class=1
num_tree_per_iteration=1
label_index=0
max_feature_idx=173
objective=regression
feature_names=log_close/mean_60_id0 log_return_60_id0 log_close/mean_300_id0 log_return_300_id0 log_close/mean_900_id0 log_return_900_id0 log_close/mean_60_id1 log_return_60_id1 log_close/mean_300_id1 log_return_300_id1 log_close/mean_900_id1 log_return_900_id1 log_close/mean_60_id2 log_return_60_id2 log_close/mean_300_id2 log_return_300_id2 log_close/mean_900_id2 log_return_900_id2 log_close/mean_60_id3 log_return_60_id3 log_close/mean_300_id3 log_return_300_id3 log_close/mean_900_id3 log_return_900_id3 log_close/mean_60_id4 log_return_60_id4 log_close/mean_300_id4 log_return_300_id4 log_close/mean_900_id4 log_return_900_id4 log_close/mean_60_id5 log_return_60_id5 log_close/mean_300_id5 log_return_300_id5 log_close/mean_900_id5 log_return_900_id5 log_close/mean_60_id6 log_return_60_id6 log_close/mean_300_id6 log_return_300_id6 log_close/mean_900_id6 log_return_900_id6 log_close/mean_60_id7 log_return_60_id7 log_close/mean_300_id7 log_return_300_id7 log_close/mean_900_id7 log_return_900_id7 log_close/mean_60_id8 log_return_60_id8 log_close/mean_300_id8 log_return_300_id8 log_close/mean_900_id8 log_return_900_id8 log_close/mean_60_id9 log_return_60_id9 log_close/mean_300_id9 log_return_300_id9 log_close/mean_900_id9 log_return_900_id9 log_close/mean_60_id10 log_return_60_id10 log_close/mean_300_id10 log_return_300_id10 log_close/mean_900_id10 log_return_900_id10 log_close/mean_60_id11 log_return_60_id11 log_close/mean_300_id11 log_return_300_id11 log_close/mean_900_id11 log_return_900_id11 log_close/mean_60_id12 log_return_60_id12 log_close/mean_300_id12 log_return_300_id12 log_close/mean_900_id12 log_return_900_id12 log_close/mean_60_id13 log_return_60_id13 log_close/mean_300_id13 log_return_300_id13 log_close/mean_900_id13 log_return_900_id13 mean_close/mean_60 mean_log_returns_60 log_close/mean_60-mean_close/mean_60_id0 log_return_60-mean_log_returns_60_id0 log_close/mean_60-mean_close/mean_60_id1 log_return_60-mean_log_returns_60_id1 log_close/mean_60-mean_close/mean_60_id2 log_return_60-mean_log_returns_60_id2 log_close/mean_60-mean_close/mean_60_id3 log_return_60-mean_log_returns_60_id3 log_close/mean_60-mean_close/mean_60_id4 log_return_60-mean_log_returns_60_id4 log_close/mean_60-mean_close/mean_60_id5 log_return_60-mean_log_returns_60_id5 log_close/mean_60-mean_close/mean_60_id6 log_return_60-mean_log_returns_60_id6 log_close/mean_60-mean_close/mean_60_id7 log_return_60-mean_log_returns_60_id7 log_close/mean_60-mean_close/mean_60_id8 log_return_60-mean_log_returns_60_id8 log_close/mean_60-mean_close/mean_60_id9 log_return_60-mean_log_returns_60_id9 log_close/mean_60-mean_close/mean_60_id10 log_return_60-mean_log_returns_60_id10 log_close/mean_60-mean_close/mean_60_id11 log_return_60-mean_log_returns_60_id11 log_close/mean_60-mean_close/mean_60_id12 log_return_60-mean_log_returns_60_id12 log_close/mean_60-mean_close/mean_60_id13 log_return_60-mean_log_returns_60_id13 mean_close/mean_300 mean_log_returns_300 log_close/mean_300-mean_close/mean_300_id0 log_return_300-mean_log_returns_300_id0 log_close/mean_300-mean_close/mean_300_id1 log_return_300-mean_log_returns_300_id1 log_close/mean_300-mean_close/mean_300_id2 log_return_300-mean_log_returns_300_id2 log_close/mean_300-mean_close/mean_300_id3 log_return_300-mean_log_returns_300_id3 log_close/mean_300-mean_close/mean_300_id4 log_return_300-mean_log_returns_300_id4 log_close/mean_300-mean_close/mean_300_id5 log_return_300-mean_log_returns_300_id5 log_close/mean_300-mean_close/mean_300_id6 log_return_300-mean_log_returns_300_id6 log_close/mean_300-mean_close/mean_300_id7 log_return_300-mean_log_returns_300_id7 log_close/mean_300-mean_close/mean_300_id8 log_return_300-mean_log_returns_300_id8 log_close/mean_300-mean_close/mean_300_id9 log_return_300-mean_log_returns_300_id9 log_close/mean_300-mean_close/mean_300_id10 log_return_300-mean_log_returns_300_id10 log_close/mean_300-mean_close/mean_300_id11 log_return_300-mean_log_returns_300_id11 log_close/mean_300-mean_close/mean_300_id12 log_return_300-mean_log_returns_300_id12 log_close/mean_300-mean_close/mean_300_id13 log_return_300-mean_log_returns_300_id13 mean_close/mean_900 mean_log_returns_900 log_close/mean_900-mean_close/mean_900_id0 log_return_900-mean_log_returns_900_id0 log_close/mean_900-mean_close/mean_900_id1 log_return_900-mean_log_returns_900_id1 log_close/mean_900-mean_close/mean_900_id2 log_return_900-mean_log_returns_900_id2 log_close/mean_900-mean_close/mean_900_id3 log_return_900-mean_log_returns_900_id3 log_close/mean_900-mean_close/mean_900_id4 log_return_900-mean_log_returns_900_id4 log_close/mean_900-mean_close/mean_900_id5 log_return_900-mean_log_returns_900_id5 log_close/mean_900-mean_close/mean_900_id6 log_return_900-mean_log_returns_900_id6 log_close/mean_900-mean_close/mean_900_id7 log_return_900-mean_log_returns_900_id7 log_close/mean_900-mean_close/mean_900_id8 log_return_900-mean_log_returns_900_id8 log_close/mean_900-mean_close/mean_900_id9 log_return_900-mean_log_returns_900_id9 log_close/mean_900-mean_close/mean_900_id10 log_return_900-mean_log_returns_900_id10 log_close/mean_900-mean_close/mean_900_id11 log_return_900-mean_log_returns_900_id11 log_close/mean_900-mean_close/mean_900_id12 log_return_900-mean_log_returns_900_id12 log_close/mean_900-mean_close/mean_900_id13 log_return_900-mean_log_returns_900_id13
feature_infos=[-0.2754915561279912:0.18612335057898463] [-0.34597417712211609:0.3103906512260437] [-0.43098862537269339:0.16997900276790495] [-0.55850565433502197:0.35203668475151062] [-0.54669866147208401:0.16536584060842438] [-0.59360933303833008:0.36337894201278687] [-0.20345534477760327:0.18718384735620683] [-0.24752482771873474:0.27085375785827637] [-0.26479761011743219:0.15365908300927966] [-0.3743862509727478:0.27006468176841736] [-0.37828538769771985:0.21028144151618849] [-0.49886235594749451:0.31098797917366028] [-0.45499214994459042:0.20368379927919045] [-0.50675487518310547:0.24635542929172516] [-0.58261133103714169:0.21683164242553649] [-0.64135634899139404:0.28075361251831055] [-0.66006518573389295:0.24060740484564475] [-0.76872223615646362:0.39875480532646179] [-0.35488198973691198:0.20372130869403746] [-0.43459683656692505:0.31838154792785645] [-0.4671905231750057:0.17275730504362347] [-0.53262931108474731:0.31428125500679016] [-0.53779269168245358:0.17781130273521273] [-0.65235692262649536:0.39201706647872925] [-0.47605411294717392:0.21117260103883925] [-0.54088670015335083:0.36176282167434692] [-0.60149003871960782:0.40102995879250597] [-0.6600688099861145:0.54119491577148438] [-0.67317163209484498:0.55465411965767941] [-0.78197211027145386:0.96703696250915527] [-0.46041018329521854:0.1485152161887171] [-0.50999689102172852:0.25686356425285339] [-0.580398851782848:0.24260682779165191] [-0.64203107357025146:0.42485672235488892] [-0.65293368238194505:0.3510371206347927] [-0.76923537254333496:0.47566390037536621] [-0.26003613040306828:0.18113168569841676] [-0.35474357008934021:0.31341543793678284] [-0.37228265214697848:0.17412181831851334] [-0.4304315447807312:0.3185977041721344] [-0.45449898970153119:0.13973147569668037] [-0.56680446863174438:0.28162083029747009] [-0.40130818538376561:0.20985915319863532] [-0.52016961574554443:0.32517635822296143] [-0.55159566020810857:0.3323494064827559] [-0.63466006517410278:0.36236119270324707] [-0.65235717890905121:0.37464714060918569] [-0.78173065185546875:0.49588435888290405] [-0.45905143472066517:0.17998134669678734] [-0.53895717859268188:0.34867843985557556] [-0.60891045049139758:0.17977522169469348] [-0.68811517953872681:0.37866693735122681] [-0.69364595144968577:0.1989779149928361] [-0.79063069820404053:0.48446181416511536] [-0.3758593142133968:0.24475484072434528] [-0.49499672651290894:0.29128947854042053] [-0.52090096345642201:0.28432335592656482] [-0.59514552354812622:0.30654093623161316] [-0.59274604299085776:0.27445341311318427] [-0.68302124738693237:0.33085176348686218] [-0.26173471577752094:0.26387142375806244] [-0.35745590925216675:0.38075369596481323] [-0.41618392941978627:0.27641788466750677] [-0.5488935112953186:0.42322754859924316] [-0.46971618695922274:0.26953499132254366] [-0.82452213764190674:0.60964655876159668] [-0.37653363201466261:0.22739198267328803] [-0.46586686372756958:0.28568130731582642] [-0.4992850342993892:0.13588912647662704] [-0.56931257247924805:0.2925797700881958] [-0.59670109330074972:0.14833366528637507] [-0.71412950754165649:0.33555218577384949] [-0.4402000748864604:0.19680937821611075] [-0.51306986808776855:0.28414455056190491] [-0.57359337524534471:0.21249244820577928] [-0.64151519536972046:0.27672547101974487] [-0.64782429080311177:0.2415196328628777] [-0.75022774934768677:0.38817045092582703] [-0.31000505582274346:0.22527381793268084] [-0.35382354259490967:0.26570227742195129] [-0.41703934727583236:0.17319431042057595] [-0.46521270275115967:0.24551616609096527] [-0.48733767736051864:0.22476806187371343] [-0.58702945709228516:0.33638682961463928] [-0.35716031891224176:0.16696120398499667] [-0.42554935812950134:0.25420477986335754] [-0.11636789101170608:0.086696774914933383] [-0.15874621272087097:0.099792316555976868] [-0.071679191547424664:0.20854634927967503] [-0.10709094256162643:0.23712532222270966] [-0.12292297361919974:0.10825768053487067] [-0.13844995200634003:0.16660785675048828] [-0.054887074910202741:0.088155942605111517] [-0.086680926382541656:0.14527736604213715] [-0.18171772470426084:0.20501678530334652] [-0.28566646575927734:0.34713518619537354] [-0.15242904288880205:0.12381580798387867] [-0.15825824439525604:0.21677957475185394] [-0.065423605636918097:0.097124188509173481] [-0.064227215945720673:0.11007308959960938] [-0.098509593428266068:0.17867295503739539] [-0.17338325083255768:0.27411025762557983] [-0.10189111580842342:0.075365255718990345] [-0.11595060676336288:0.1137324720621109] [-0.076268883883984201:0.1966683004691876] [-0.17890399694442749:0.23478028178215027] [-0.21896217881647048:0.22731408315669879] [-0.31540247797966003:0.38687130808830261] [-0.097487537632589161:0.076896291260185629] [-0.09797242283821106:0.081795386970043182] [-0.083039755974218643:0.14734911957448993] [-0.10457810759544373:0.20564231276512146] [-0.086020360249488836:0.094148176772601413] [-0.13654693961143494:0.12291326373815536] [-0.46889971638911232:0.12253258279570241] [-0.52604091167449951:0.27347704768180847] [-0.1682919660243925:0.1007376782894035] [-0.18926152586936951:0.13708785176277161] [-0.063930301604466319:0.28120027657074731] [-0.096802644431591034:0.31309553980827332] [-0.1327024923914521:0.15508318737590668] [-0.16451443731784821:0.19154058396816254] [-0.084748394252403658:0.15472532201251829] [-0.12169142812490463:0.18630337715148926] [-0.20628697318829384:0.38699286959047319] [-0.32684287428855896:0.5419498085975647] [-0.15848654376431012:0.20335804464753171] [-0.16516977548599243:0.34642365574836731] [-0.053772331692696324:0.12353806328517172] [-0.078862577676773071:0.1299898624420166] [-0.14625860083902398:0.27442694251579824] [-0.25560924410820007:0.3266722559928894] [-0.14270454115347603:0.13268554439874508] [-0.21077586710453033:0.17260955274105072] [-0.081986019352214945:0.2245348465840043] [-0.20750522613525391:0.23056440055370331] [-0.28201313197055078:0.24699618813692745] [-0.33242148160934448:0.31200137734413147] [-0.10574800236309018:0.087001584742095642] [-0.10818082094192505:0.14331762492656708] [-0.10469365885623239:0.19545052753637482] [-0.11547428369522095:0.21053282916545868] [-0.12981815085620296:0.17042376772052775] [-0.1818784773349762:0.2289203554391861] [-0.54037223946627921:0.15846101392223863] [-0.64566898345947266:0.31079274415969849] [-0.18064833748755282:0.13664072561975643] [-0.20061931014060974:0.18884709477424622] [-0.075561244975664049:0.3241910436924994] [-0.14194744825363159:0.3677901029586792] [-0.13460089992495439:0.18589116495190011] [-0.18404689431190491:0.27733913064002991] [-0.10106584195876997:0.17249512479145346] [-0.14311730861663818:0.20583078265190125] [-0.31168450343015014:0.54636063170134996] [-0.51675021648406982:0.9515727162361145] [-0.16248369557885309:0.29120401857012718] [-0.23401620984077454:0.38801771402359009] [-0.073276709304892773:0.12163004992282944] [-0.10547107458114624:0.11719238758087158] [-0.17414044431382278:0.33470695366513958] [-0.2228727787733078:0.43837076425552368] [-0.19477592859692727:0.15975364665033315] [-0.19165723025798798:0.2714599072933197] [-0.094994175617449744:0.22927608217736589] [-0.20969337224960327:0.23497390747070312] [-0.27020243410193034:0.22670089159924905] [-0.58969908952713013:0.35933160781860352] [-0.12016204156175792:0.12379398333694899] [-0.12852165102958679:0.20153205096721649] [-0.10745205133683255:0.20707682704094618] [-0.16981713473796844:0.22416159510612488] [-0.16863422774700948:0.25357991782081823] [-0.22531576454639435:0.33723947405815125]
tree_sizes=3355 2893 3192 3144 2984 3062 3261 2939 3117 3213 2673 2997 2942 2780 3175 2988 3146 3260 3222 3223 3085 3057 3202 3211 2903 2916 3206 3009 3116 3258 3041 2600 3169 3155 3196 2972 3242 2553 3265 3140 3231 2683 2997 3216 2928 2875 3192 3069 3022 2706 2429 3143 2706 2644 2941 2935 2853 2905 3120 2815 3107 2406 2952 3192 2522 2605 3054 2905 2525 3146 3202 2770 2963 3192 2989 2937 2927 2978 3186 2424 2698 2866 3191 3058 2974 2678 3134 2993 3000 2738 3146 3222 2426 2795 3048 2752 3113 3166 2881 2415 2866 2300 2880 2729 2726 2524 2981 3099 2802 3023 2867 2035 3122 3199 2963 2864 3117 2846 2659 2940 3109 2941 3138 2757 2820 3121 2504 2612 2943 2797 2993 2953 2434 2771 2580

Tree=0
num_leaves=31
num_cat=0
split_feature=142 12 17 112 15 87 112 166 112 154 30 64 114 60 118 72 83 126 152 64 63 23 15 136 155 72 104 117 136 63
split_gain=0.0146517 0.00727911 0.0110933 0.00668567 0.00420074 0.00397177 0.00370826 0.00377006 0.00180844 0.00184511 0.00141945 0.00140284 0.00198379 0.00154015 0.00115661 0.00112191 0.000842693 0.000841274 0.00122725 0.000743646 0.000675517 0.000484001 0.000457113 0.00105536 0.000321393 0.000296552 0.000401779 0.000234183 0.000107381 2.98006e-05
threshold=-0.0012186356329603365 -0.0088188367950323109 -0.18536260724067685 -0.00052942941565103181 -0.039264474064111703 0.026170897297561172 0.00035072099883484172 0.0097682924683109382 -0.0021192500597002032 -0.0052065512677764011 0.0039631118035744544 0.0044238559137741969 -0.024144754506588366 0.0055681726355758842 0.0059254508891748844 0.0090448687294474115 -0.0099169774912297708 -0.0088939370249217723 -0.0011317202951295214 -0.04698290495979273 0.0099506163969635981 -0.00056276656687259663 0.013075209222733976 -0.0099238756908784399 0.010477533563971521 -0.0036344759879486485 0.0052417032341372126 0.004588416777551175 0.0033652350975418061 -0.010141062084585427
decision_type=4 6 6 4 6 4 6 4 6 6 6 6 6 6 6 6 4 6 6 6 4 6 6 4 4 6 6 4 6 4
left_child=3 2 4 11 5 -2 22 16 14 -10 -9 12 13 -1 -4 28 -8 18 20 -14 -5 -17 24 -24 -3 27 -27 -19 -13 -20
right_child=1 6 8 17 -6 -7 7 10 9 -11 -12 15 19 -15 -16 21 -18 25 29 -21 -22 -23 23 -25 -26 26 -28 -29 -30 -31
leaf_value=3.6394069410450346e-05 -8.9259452224157746e-05 7.9321402520053115e-06 3.1679899686479037e-05 -3.4329975786494293e-05 6.0582882166027289e-06 -0.00040049440055596436 1.6930701208812929e-06 1.2676917004680023e-07 -2.37957541729059e-05 -3.1929094168493536e-06 -7.7921049591580633e-06 8.2788274935344718e-06 1.499911789566591e-05 6.0582882166027289e-06 -6.9571175528243087e-06 6.0582882166027289e-06 7.3367001757417737e-06 4.4713484806326374e-07 3.5569868055727297e-06 1.0227417072602609e-05 4.745324405247556e-06 2.5627266679374232e-05 -1.4110053547881338e-05 5.5503848221018918e-06 5.2952721188334472e-06 6.0582882166027289e-06 1.6302942130248156e-05 6.0582882166027289e-06 5.9598282220072042e-06 8.8713690681349505e-06
leaf_weight=6340 669 141889 1572 1579 231 91 32849 156167 7731 14879 28089 26301 143994 920 710 1666 83501 15241 1358 54438 1756 4710 2868 32489 49360 101296 3512 6868 24245 2312
leaf_count=6340 669 141889 1572 1579 231 91 32849 156167 7731 14879 28089 26301 143994 920 710 1666 83501 15241 1358 54438 1756 4710 2868 32489 49360 101296 3512 6868 24245 2312
internal_value=6.05829e-06 2.90503e-06 -1.27111e-05 1.04612e-05 -0.000113156 -0.00014718 3.70022e-06 1.5107e-06 -8.10042e-06 -1.0903e-05 -1.16197e-06 1.32499e-05 1.44405e-05 3.08131e-05 1.30904e-05 8.68383e-06 5.87221e-06 5.1046e-06 -5.08119e-06 1.37657e-05 -1.82636e-05 2.07081e-05 6.53856e-06 3.53035e-06 7.17315e-06 5.78514e-06 6.32046e-06 2.56927e-06 6.86978e-06 6.05829e-06
internal_weight=0 553095 25883 396536 991 760 527212 300606 24892 22610 184256 262614 205692 7260 2282 56922 116350 133922 7005 198432 3335 6376 226606 35357 191249 126917 104808 22109 50546 3670
internal_count=949631 553095 25883 396536 991 760 527212 300606 24892 22610 184256 262614 205692 7260 2282 56922 116350 133922 7005 198432 3335 6376 226606 35357 191249 126917 104808 22109 50546 3670
is_linear=0
shrinkage=1


Tree=1
num_leaves=28
num_cat=0
split_feature=113 115 142 82 89 112 12 64 80 112 142 89 62 40 112 54 112 81 97 45 157 12 20 89 54 42 70
split_gain=0.0120482 0.0125051 0.00624464 0.00497711 0.00288887 0.00427187 0.00287921 0.00269261 0.00305298 0.00253643 0.00192459 0.00321147 0.00158809 0.00155087 0.00140385 0.0012259 0.00177206 0.000906546 0.000706254 0.000565383 0.00044785 0.000497337 0.000364133 0.000348214 0.000195239 0.000108658 5.85475e-05
threshold=0.0017549131298437717 -0.080670401453971849 -0.002323110399877482 -0.06897801907785843 0.0024478031555190687 0.012715902825600799 -0.010908765710728545 0.016777883181208323 0.0061861600822460941 -0.00012736346388819667 -0.0071437562345866958 0.0099676451645791548 0.0074925169807080862 -0.0001833388526758825 -0.00061911134499380088 -0.0026126326938888185 -0.00036911088288361617 0.020023997873067859 0.011103878729045393 0.016573079861700538 -0.0099372034892439825 -0.0090022304444907202 0.0018729189214379013 0.00017714999557938429 0.00044596679926150144 0.003091341049765679 -0.030317340352086452
decision_type=4 6 6 6 4 4 6 4 6 6 6 4 4 6 6 6 6 4 6 6 4 6 6 4 4 6 6
left_child=2 4 3 10 18 -6 13 8 -8 12 11 -1 -5 19 -9 20 17 -17 22 -3 26 -22 -2 -18 -11 -15 -4
right_child=1 6 15 9 5 -7 7 14 -10 24 -12 -13 -14 25 -16 16 23 -19 -20 -21 21 -23 -24 -25 -26 -27 -28
leaf_value=1.9007744995452206e-05 -4.5633532454470998e-05 -2.6756897310159447e-05 4.0805499119683141e-06 2.2689223188989746e-06 -6.2752839850678381e-05 -0.00024949524739193335 -3.7135646982037774e-06 2.9182616440281565e-06 7.1718969516248312e-06 -3.0023983749443728e-06 0 7.7799493347439471e-05 8.0871245685568914e-06 0 -6.8199494747624527e-06 4.2151062143126852e-06 0 -2.1052605032766189e-06 2.1325876185226606e-05 0 -1.2816383854702907e-05 -3.257440917588776e-06 0 -3.0226924162488095e-06 4.9111665534128737e-07 2.6914462503757223e-05 -4.9793367765168909e-08
leaf_weight=3920 432 8759 3160 68983 1157 235 65528 12279 35848 25448 1600 1656 156082 2225 159099 123846 91078 21042 129 574 7158 56794 55 66589 20011 133 17197
leaf_count=3920 432 8759 3160 68983 1157 235 65528 12279 35848 25448 1600 1656 156082 2225 159099 123846 91078 21042 129 574 7158 56794 55 66589 20011 133 17197
internal_value=0 -5.01754e-06 2.3413e-06 5.77464e-06 -8.00253e-05 -0.000105352 -4.43474e-06 -3.74129e-06 0 5.0539e-06 3.08468e-05 3.91789e-05 6.37051e-06 -1.93268e-05 -6.03467e-06 -8.44647e-08 7.6697e-07 3.19366e-06 0 -2.48475e-05 -3.31782e-06 -4.56226e-06 -3.43223e-05 -1.36791e-06 -1.13465e-06 0 0
internal_weight=0 286453 664564 277700 2008 1392 284445 272754 101376 270524 7176 5576 225065 11691 171378 386864 302555 144888 616 9333 84309 63952 487 157667 45459 2358 20357
internal_count=951017 286453 664564 277700 2008 1392 284445 272754 101376 270524 7176 5576 225065 11691 171378 386864 302555 144888 616 9333 84309 63952 487 157667 45459 2358 20357
is_linear=0
shrinkage=0.03


Tree=2
num_leaves=31
num_cat=0
split_feature=112 57 54 91 61 88 166 113 68 143 8 172 114 136 79 62 64 43 105 4 73 142 29 64 116 166 85 167 116 2
split_gain=0.0159561 0.00841602 0.00401239 0.00732438 0.00693197 0.0040017 0.00206667 0.00292797 0.001863 0.00335076 0.00204171 0.00178193 0.00135003 0.00330762 0.00101355 0.000982195 0.000982152 0.000742114 0.000740781 0.000696556 0.000677968 0.000622476 0.000592618 0.000416601 0.000405921 0.000277996 0.000203192 0.000194825 0.000109496 1.12761e-05
threshold=-0.0013828925587041341 -0.067215628921985612 -0.0017597916069697532 -0.010650672018527983 0.0012165058869868519 0.0026477513533206989 0.00259156525716703 0.0028499768814072017 -0.012151570634178694 -0.00960381096228957 -0.0064101123277038839 0.0032467674798786544 0.0074592434325507365 -0.0095416346376170514 -0.017253813333809372 0.0062205992832705297 -0.0012362536190756617 -0.015884968452155587 0.0014834146131761374 0.015935565038926226 -0.00057579760323278595 0.0045178173992969769 -0.0120323677547276 -0.016640180074232385 0.0015507376510340717 0.0044850751103205399 -0.0025017862208187576 -0.032423634082078927 0.008194465183162563 -0.0049086247828160285
decision_type=4 4 6 6 4 4 4 6 6 6 6 6 6 4 4 4 6 6 6 4 6 4 6 4 6 6 6 4 6 4
left_child=8 2 3 4 -2 6 19 -8 9 10 16 15 14 -14 -13 27 -1 -4 23 -3 -5 29 -23 -11 -12 -17 -19 -10 -20 -7
right_child=1 5 17 20 -6 21 7 -9 11 18 24 12 13 -15 -16 25 -18 26 28 -21 -22 22 -24 -25 -26 -27 -28 -29 -30 -31
leaf_value=3.8101358752298186e-05 -0.00019925779259642737 2.2039341452867442e-06 3.60418383984571e-05 -3.5632608911143784e-05 0 -9.4363545926025483e-06 -9.1426777782025038e-07 -6.4356815962892463e-06 -4.5943925155238632e-07 -7.1518047892357049e-06 -5.8009638534752415e-06 1.9447062966356374e-05 -5.4316348215266754e-05 -1.6670618767045896e-06 7.571331558091312e-07 8.5464116214058454e-06 0 0 1.4807247785671666e-05 -2.3968457238426331e-06 0 -2.3201025366645992e-05 -5.8330914386606939e-06 4.526096084340118e-06 1.5239059206194434e-05 3.0254471292686107e-06 -1.5504929486917815e-05 3.3905205600328619e-06 0 -4.9007796585269547e-06
leaf_weight=7419 539 147776 330 3415 180 20319 315884 123686 7440 4154 1393 3121 1312 10201 31385 117274 655 512 5607 34205 609 7336 6146 7924 1369 18445 1743 44522 1138 23722
leaf_count=7419 539 147776 330 3415 180 20319 315884 123686 7440 4154 1393 3121 1312 10201 31385 117274 655 512 5607 34205 609 7336 6146 7924 1369 18445 1743 44522 1138 23722
internal_value=0 -2.47484e-06 -3.45822e-05 -5.10734e-05 -0.000145391 -2.10617e-06 -1.37738e-06 -2.50203e-06 6.21078e-06 1.36179e-05 2.72564e-05 5.20644e-06 0 -8.97792e-06 2.88331e-06 6.50373e-06 3.49932e-05 0 4.96762e-06 1.25673e-06 -3.04313e-05 -9.71983e-06 -1.6398e-05 0 0 7.90666e-06 -1.02393e-05 2.55062e-06 1.29486e-05 -7.33425e-06
internal_weight=0 686402 7328 4743 719 679074 621551 439570 263359 29659 10836 233700 46019 11513 34506 187681 8074 2585 18823 181981 4024 57523 13482 12078 2762 135719 2255 51962 6745 44041
internal_count=949761 686402 7328 4743 719 679074 621551 439570 263359 29659 10836 233700 46019 11513 34506 187681 8074 2585 18823 181981 4024 57523 13482 12078 2762 135719 2255 51962 6745 44041
is_linear=0
shrinkage=0.03


Tree=3
num_leaves=31
num_cat=0
split_feature=112 85 119 81 72 62 83 172 172 14 88 42 88 64 58 154 117 14 19 166 84 64 142 113 64 137 104 142 61 166
split_gain=0.0179092 0.0103622 0.00719175 0.00314779 0.00298497 0.00302191 0.00470704 0.00218348 0.0028128 0.00397752 0.00259554 0.00153465 0.00111993 0.00148993 0.000981594 0.000969619 0.000942283 0.000913255 0.000867187 0.000799195 0.000531985 0.000626431 0.0005932 0.000413494 0.000408095 0.0003509 0.000349049 0.000342431 0.000247763 0.000245887
threshold=-0.00024866158886306764 -0.042567327618598931 0.010247746016830208 -0.098149377852678285 -0.0057154896243229005 0.038835699387898874 0.044352341443300254 0.0019941789195015444 -0.032839892437523145 -0.0064987406794036187 0.00078211066822260597 -0.028799596928622249 0.0015752570464995389 -0.022015869646886534 0.016775938348208914 -0.0070363714676670184 -0.014013871550559996 0.0032098423240110373 0.00067920261062681686 0.025327386483002989 -0.0084028211652233068 -0.041671999280585799 0.0024958960583384249 0.0027247653342783455 -0.028536867110089157 0.0095251766033470648 -0.0011056295878891275 0.005555591072263678 0.0023218834539875392 0.0056983209656771942
decision_type=6 6 4 6 6 4 6 6 6 6 4 6 4 6 6 6 6 6 4 4 4 6 6 6 6 6 6 6 4 6
left_child=7 2 11 -4 20 6 -6 8 9 10 -1 24 13 -10 -7 17 -13 29 -19 -11 22 -22 -3 26 -2 -14 -17 -25 -5 -9
right_child=1 4 3 28 5 14 -8 15 12 19 -12 16 25 -15 -16 23 -18 18 -20 -21 21 -23 -24 27 -26 -27 -28 -29 -30 -31
leaf_value=0 -5.3811199982830077e-05 -6.4128824541759153e-06 -0.00018789303978971919 -5.5997678142056743e-05 -1.8428636762347922e-06 -4.2508670283572019e-06 1.1908715300066535e-05 1.8037896736465577e-06 7.6503622435537664e-06 -6.88123697162639e-06 7.4871521629888584e-05 0.00018691989519668692 0 2.8563295637495406e-06 -1.0431648916944309e-05 0 0 0 -1.4349802214249931e-05 1.7554310251975869e-05 -1.1953587600143588e-05 -2.7881089062133531e-06 -2.0734640750221803e-05 0 0 6.0655732212169676e-06 4.739174110720752e-06 -1.2568808189497621e-05 0 -8.3786248201154603e-06
leaf_weight=1072 219 8571 497 768 186295 200631 25430 18237 167800 2015 1820 54 49499 108548 31393 19552 243 5285 9886 2066 16803 20579 10720 2268 64 10081 45916 2635 103 2305
leaf_count=1072 219 8571 497 768 186295 200631 25430 18237 167800 2015 1820 54 49499 108548 31393 19552 243 5285 9886 2066 16803 20579 10720 2268 64 10081 45916 2635 103 2305
internal_value=0 -3.96019e-06 -7.33888e-05 -0.000111313 -3.65966e-06 -2.78495e-06 -1.20238e-07 4.28455e-06 5.4521e-06 2.48621e-05 5.21735e-05 0 5.0044e-06 5.82161e-06 -5.15186e-06 3.69224e-07 6.08889e-05 -3.48477e-06 -9.09696e-06 1.81799e-06 -1.02436e-05 -7.3096e-06 -1.51503e-05 2.5383e-06 -3.09302e-05 9.62139e-07 3.30969e-06 -4.70088e-06 -5.01034e-05 0
internal_weight=0 502370 1948 1368 500422 443749 211725 448985 342901 6973 2892 580 335928 276348 232024 106084 297 35713 15171 4081 56673 37382 19291 70371 283 59580 65468 4903 871 20542
internal_count=951355 502370 1948 1368 500422 443749 211725 448985 342901 6973 2892 580 335928 276348 232024 106084 297 35713 15171 4081 56673 37382 19291 70371 283 59580 65468 4903 871 20542
is_linear=0
shrinkage=0.03


Tree=4
num_leaves=28
num_cat=0
split_feature=112 78 142 112 64 83 108 82 61 27 163 22 120 40 136 49 152 16 60 124 173 19 136 120 105 90 16
split_gain=0.0147621 0.0109285 0.00489034 0.00334506 0.00320132 0.00880413 0.00426834 0.00188198 0.00187757 0.00168045 0.00161909 0.00140006 0.00188615 0.000926103 0.00100347 0.000533066 0.000476111 0.000678884 0.000474748 0.00039558 0.000960557 0.000420442 0.000360836 0.000313478 0.000266104 0.000127538 6.08064e-05
threshold=0.001035430932708036 -0.019027885994863849 -0.00094358540944944347 -0.0012216522021901656 0.012465296844049277 0.04118770174682141 -0.0051222919228248532 0.0075232260156248487 0.001000797492451966 0.017690608277916912 -0.023644533008337017 -0.022944226491907655 0.00090288295271723142 -0.010834197854162692 0.0062311812379780068 0.0099811260588467138 -0.011933574894092448 0.027568809183249211 -0.0020167947416923375 -0.010212608415102726 0.0073823903221637019 0.0074163945391774186 0.0040516020171280981 -0.0019967388945934046 -0.00036590159288607532 -0.00044628493447747329 -0.012721383880232244
decision_type=4 6 6 6 4 6 6 6 4 4 6 6 6 6 4 6 4 6 4 4 6 6 6 6 6 6 6
left_child=2 8 3 13 5 7 -7 -3 11 10 -6 12 -2 14 -1 -11 17 23 -15 20 -18 -21 24 -4 -5 -19 -24
right_child=1 4 16 22 9 6 -8 -9 -10 15 -12 -13 -14 18 -16 -17 19 25 -20 21 -22 -23 26 -25 -26 -27 -28
leaf_value=4.7515915189022192e-06 -0.00014013989327399328 -6.7977835247709612e-06 1.4418836098627738e-06 3.7780698889211342e-07 3.0014897472341078e-06 7.7342917147243235e-05 1.4941413517046441e-05 3.3663127122216832e-06 0 -1.0621110832525758e-05 -6.8620804710222794e-06 0 -2.3870032722089043e-05 5.9934240409283037e-07 1.5849598907016781e-05 -2.2647375404779228e-05 0 0 6.6316869132806888e-06 -2.2560723437082072e-07 -1.6766925262619996e-05 3.1845492561196956e-06 -5.1904428001786051e-06 -5.1544768157456726e-06 3.3042898158283943e-06 -3.003426079761104e-05 -1.0292668884436338e-07
leaf_weight=17199 807 65895 7154 65903 14897 1283 11421 19628 241 41019 117482 281 588 18778 24625 6909 9708 688 150426 220350 4299 37327 4448 13886 74207 1219 20247
leaf_count=17199 807 65895 7154 65903 14897 1283 11421 19628 241 41019 117482 281 588 18778 24625 6909 9708 688 150426 220350 4299 37327 4448 13886 74207 1219 20247
internal_value=0 -5.75687e-06 2.43986e-06 4.71173e-06 -5.20752e-06 -6.8016e-07 2.24352e-05 -4.28966e-06 -7.76709e-05 -7.59069e-06 -5.63877e-06 -8.89171e-05 -0.000101973 7.23076e-06 1.16449e-05 -1.26686e-05 -4.07243e-07 -4.56082e-06 6.05089e-06 -1.1815e-09 -4.95996e-06 2.10196e-07 1.39512e-06 -2.19881e-06 2.03485e-06 -2.27339e-05 -1.62698e-06
internal_weight=0 280451 670464 375833 278534 98227 12704 85523 1917 180307 132379 1676 1395 211028 41824 47928 294631 22947 169204 271684 14007 257677 164805 21040 140110 1907 24695
internal_count=950915 280451 670464 375833 278534 98227 12704 85523 1917 180307 132379 1676 1395 211028 41824 47928 294631 22947 169204 271684 14007 257677 164805 21040 140110 1907 24695
is_linear=0
shrinkage=0.03


Tree=5
num_leaves=30
num_cat=0
split_feature=113 12 15 6 72 142 15 146 88 14 172 94 167 112 173 173 113 125 94 112 42 62 124 142 12 14 173 36 118
split_gain=0.0111806 0.00702715 0.00582866 0.004984 0.00507176 0.00233035 0.00239302 0.00204073 0.00167793 0.00170935 0.00181149 0.00161436 0.00451864 0.00144003 0.00133237 0.00138061 0.00132224 0.000977951 0.000937832 0.000901678 0.00118025 0.000896838 0.000863832 0.000682259 0.00123372 0.000273136 0.000197061 0.00017101 3.03366e-07
threshold=-0.0013234225916676221 -0.010908765710728545 -0.067929875105619417 -0.014029643870529037 -0.023561947018332825 -0.00070300522062495443 -0.051310561597347253 -0.027806934462177909 0.00079038474527869985 0.008942384062645423 0.059208166782001026 0.0018054074195991033 -0.017773861065506932 -0.00023149070941857886 0.037482991814613349 -0.013029611669480799 0.0051467767916619786 0.0033785664709284906 0.010597898462290421 0.00067481208083156345 -0.0024713213408103858 -0.02439717124613033 -0.0087206681748397564 0.0035951026682543466 0.0058140927647044593 -0.0041243240290144249 0.0017166999168694021 -0.0013210545097293552 -0.00091858779529230196
decision_type=6 4 6 6 6 6 4 4 6 6 4 4 4 6 6 6 6 6 4 6 6 6 6 6 6 4 6 6 6
left_child=5 2 3 4 -2 6 14 11 9 10 -3 12 -7 21 15 -1 -11 -16 22 28 -21 -8 -9 25 -25 -10 -5 -15 -4
right_child=1 8 19 26 -6 7 13 18 23 16 -12 -13 -14 27 17 -17 -18 -19 -20 20 -22 -23 -24 24 -26 -27 -28 -29 -30
leaf_value=2.9226412535579906e-05 -0.00014800037301784347 -1.235169920707263e-07 0 0 0 0.00013244608229370986 7.8763837581951626e-06 -9.1128369507468448e-06 -5.0719409107144452e-06 -2.3600210502091551e-06 2.4200888945110426e-05 0 0 -4.2997018699936573e-06 0 0 -1.3312129477138184e-05 0.00013787732003696035 -9.3142351398255634e-06 -2.0050957025212529e-05 8.142744546088185e-06 3.7384949338885689e-06 1.6362460353641142e-06 -6.1735637660797512e-06 -3.1269791634197026e-05 -1.6810784066360319e-06 -2.2242979506766788e-05 1.4051755478407035e-07 -2.9677249522430955e-07
leaf_weight=4189 887 348019 1021 613 317 416 119528 7291 45494 43074 2773 625 435 9230 67 2991 15243 193 9852 10828 713 110851 69021 40987 2242 80815 775 19047 3098
leaf_count=4189 887 348019 1021 613 317 416 119528 7291 45494 43074 2773 625 435 9230 67 2991 15243 193 9852 10828 713 110851 69021 40987 2242 80815 775 19047 3098
internal_value=0 -2.41294e-06 -2.08187e-05 -6.40139e-05 -0.000111183 4.31705e-06 5.71461e-06 0 -1.80639e-06 -7.22133e-07 2.61434e-08 3.50221e-05 6.18754e-05 5.15688e-06 2.30822e-05 1.804e-05 -5.48027e-06 0.000103872 -5.25773e-07 -1.27042e-05 -1.70086e-05 5.95052e-06 4.12489e-07 -4.33426e-06 -7.8235e-06 -3.02122e-06 -1.22053e-05 -7.78604e-07 0
internal_weight=0 596899 18252 2592 1204 353736 266096 87640 578647 409109 350792 1476 851 258656 7440 7180 58317 260 86164 15660 11541 230379 76312 169538 43229 126309 1388 28277 4119
internal_count=950635 596899 18252 2592 1204 353736 266096 87640 578647 409109 350792 1476 851 258656 7440 7180 58317 260 86164 15660 11541 230379 76312 169538 43229 126309 1388 28277 4119
is_linear=0
shrinkage=0.03


Tree=6
num_leaves=31
num_cat=0
split_feature=112 88 1 112 166 173 173 64 142 172 44 172 136 79 172 84 166 144 143 144 54 104 118 79 79 115 94 168 142 166
split_gain=0.0128482 0.00666418 0.00745243 0.003297 0.00435178 0.00266282 0.00254364 0.00198634 0.00177268 0.00169913 0.00083934 0.00227231 0.0013046 0.000794034 0.00226533 0.000781304 0.000670679 0.00162996 0.00182701 0.000633758 0.000605174 0.000567171 0.000498609 0.000465549 0.00116692 0.000493849 0.000440403 0.000376284 0.000339009 0.000115431
threshold=-0.0016374243904419957 0.0025315514858142815 -0.058621600270271294 0.0010143470363582344 -0.04072745277611288 -0.002673349808901548 0.010986024513840677 -0.074476364858081609 0.0027721946753061352 -0.0076986686422790699 0.0071065973129836842 -0.00040052627741083948 -0.0033738856309444613 -0.014867126476019619 0.019370325662530028 -0.0086116376117445648 -0.0095502000460193238 -0.012804433974593608 -0.019048407673835751 0.01028472727432291 3.22450979263892e-05 0.00010072882446911898 0.00193399759662188 -0.026523686014115807 0.007404562085866929 0.0019741901196539406 -0.010660339746655123 -0.013220904635850775 0.0040901151097724534 -0.018378581062896394
decision_type=6 6 4 6 6 4 6 6 6 4 4 4 4 6 6 6 4 6 6 6 4 6 6 4 6 6 4 6 6 6
left_child=9 3 6 20 7 -6 -3 -5 22 16 13 27 -13 14 -11 -10 23 18 -18 -19 28 -8 -4 25 -25 -1 -22 -12 -2 -15
right_child=1 2 8 4 5 -7 21 -9 15 10 11 12 -14 29 -16 -17 17 19 -20 -21 26 -23 -24 24 -26 -27 -28 -29 -30 -31
leaf_value=3.1569285384283095e-05 0 -1.3443110364538108e-06 0 -7.6204514857580388e-06 -5.4349817860834957e-06 4.3321127483686775e-06 -0.00020555085337989836 2.4167607047360514e-05 -2.6235824016238607e-05 5.6824370733952808e-06 0 -2.0915331700452172e-05 -1.3664919674003575e-06 5.435514962854855e-06 4.0741685876383312e-05 -1.0853184094737395e-05 3.4643220118600993e-05 4.516816731138115e-06 9.9314863869574234e-06 1.2355687337067697e-05 1.7770325612711355e-05 -1.1250021522898836e-05 -7.1600359191426992e-06 -4.7554761105483297e-06 2.629551280153451e-05 0 1.672230626673463e-06 8.685397874949842e-06 -4.6274759506017597e-06 2.1726106984057218e-06
leaf_weight=884 180748 418 10315 137910 38486 70273 270 1571 7488 10971 3510 4755 14592 60666 2391 15329 5931 31000 9612 22941 1756 217 33711 8555 1237 295 205487 19245 15670 34442
leaf_count=884 180748 418 10315 137910 38486 70273 270 1571 7488 10971 3510 4755 14592 60666 2391 15329 5931 31000 9612 22941 1756 217 33711 8555 1237 295 205487 19245 15670 34442
internal_value=0 -1.86116e-06 -1.08368e-05 -9.0534e-07 -3.63628e-06 7.37927e-07 -9.80575e-05 -7.15454e-06 -9.42856e-06 6.26911e-06 4.21172e-06 2.3113e-07 -6.948e-06 5.61844e-06 1.30835e-05 -1.65606e-05 9.93291e-06 1.10746e-05 2.03293e-05 8.12908e-06 7.36963e-07 -0.000150048 -5.39101e-06 1.33467e-06 0 1.92699e-05 1.88118e-06 6.99426e-06 -3.93955e-07 4.41168e-06
internal_weight=0 719649 67748 651901 248240 108759 905 139481 66843 231027 150572 42102 19347 108470 13362 22817 80455 69484 15543 53941 403661 487 44026 10971 9792 1179 207243 22755 196418 95108
internal_count=950676 719649 67748 651901 248240 108759 905 139481 66843 231027 150572 42102 19347 108470 13362 22817 80455 69484 15543 53941 403661 487 44026 10971 9792 1179 207243 22755 196418 95108
is_linear=0
shrinkage=0.03


Tree=7
num_leaves=28
num_cat=0
split_feature=112 21 160 96 89 143 85 64 63 142 85 83 113 65 126 106 142 124 154 152 113 63 172 117 56 88 166
split_gain=0.013688 0.00521393 0.0109802 0.0061986 0.00301181 0.002491 0.00496645 0.00220956 0.00216312 0.00212243 0.0019782 0.00165237 0.00141721 0.00100317 0.000967661 0.00055575 0.000542096 0.000459907 0.000459505 0.000420965 0.000800479 0.000662479 0.000406824 0.000374788 0.000339088 0.000265572 0.000195221
threshold=-0.00060184412940524372 -0.071405645459890352 0.048945967522229163 -0.010673021012446594 0.0052959066815674314 -0.027179714292287823 -0.0066985127050429574 0.013700524657026246 -0.0069839181378483764 0.0011439692606476039 0.021274299360811714 0.0010628415038809182 0.0039189455565065154 0.022980850189924244 0.0020327077276127508 -0.0026529496837211278 -0.0022215203487792822 -0.019430755500274944 -0.020775571552196347 -0.017397855784852652 0.0014786819228902461 -0.028129723854362961 -0.0024797367425001722 -0.0055035443510860196 -0.016156969335129664 0.00037980469347683317 0.0045987366010590168
decision_type=6 4 6 6 6 6 6 4 6 6 6 6 6 4 6 6 6 4 6 6 4 6 6 4 6 4 6
left_child=5 2 3 -2 7 6 8 11 24 15 13 -3 -9 -8 -5 22 23 -12 -18 20 -11 -21 -7 -6 -1 -17 -10
right_child=1 4 -4 14 16 9 10 12 26 19 17 -13 -14 -15 -16 25 18 -19 -20 21 -22 -23 -24 -25 -26 -27 -28
leaf_value=7.7133025052121234e-05 -0.00014830520547318791 -2.1074153938667847e-06 -0.00034517902150840214 -2.175350544667937e-05 -1.0943024603371402e-05 7.5905882955810699e-06 -1.1133983571623748e-05 -2.2492077777322618e-06 2.0300457593151835e-05 0 0 3.5438609321239927e-06 -6.9020488457698473e-06 9.2311223927535302e-06 0 4.3772528607428438e-06 -2.5055381447919027e-05 5.8500115135555257e-05 -1.0266723464374379e-05 -3.8987363250647311e-06 -4.0755279109346832e-05 2.5791018660581592e-06 3.6914890170529078e-06 7.9151395732876745e-07 2.140147364976776e-05 1.3246491656904453e-06 -9.7802587472266573e-06
leaf_weight=1688 355 94840 104 3393 2968 97717 3796 251924 325 2487 118 89349 85248 5068 1895 100324 4179 700 26479 26958 706 28720 57762 5254 1084 56973 426
leaf_count=1688 355 94840 104 3393 2968 97717 3796 251924 325 2487 118 89349 85248 5068 1895 100324 4179 700 26479 26958 706 28720 57762 5254 1084 56973 426
internal_value=0 -2.97734e-06 -3.16433e-05 -2.30874e-05 -2.6564e-06 4.35585e-06 1.74865e-05 -2.0202e-06 4.85246e-05 3.84885e-06 4.63604e-06 5.52557e-07 -3.47012e-06 0 -1.17927e-05 4.84243e-06 -1.08011e-05 4.92445e-05 -1.27733e-05 -1.17514e-06 -1.19408e-05 -2.87948e-07 6.23857e-06 -1.62215e-06 6.07775e-05 3.36699e-06 0
internal_weight=0 565988 5747 5643 560241 384852 13205 521361 3523 371647 9682 184189 337172 8864 5288 312776 38880 818 30658 58871 3193 55678 155479 8222 2772 157297 751
internal_count=950840 565988 5747 5643 560241 384852 13205 521361 3523 371647 9682 184189 337172 8864 5288 312776 38880 818 30658 58871 3193 55678 155479 8222 2772 157297 751
is_linear=0
shrinkage=0.03


Tree=8
num_leaves=30
num_cat=0
split_feature=112 66 142 139 21 136 82 146 142 36 64 64 64 88 50 62 2 107 50 10 63 72 21 136 41 93 167 50 61
split_gain=0.0132065 0.00735922 0.00364592 0.00292597 0.00450874 0.00224167 0.00280648 0.00272951 0.00164051 0.0014983 0.00147068 0.00138719 0.000859204 0.000856164 0.000809617 0.000520636 0.000478735 0.00043838 0.000434134 0.000404315 0.00063211 0.000535733 0.000315146 0.00026013 0.000270447 0.000221318 0.000143813 0.000124329 7.97804e-05
threshold=0.00066560107590243249 -0.020611759955662216 -9.6184000347028842e-05 0.0033231953857466583 -0.052852932363748543 -0.0069061987501292093 0.002285338152389156 0.016217936378920599 -0.0037917065731768729 0.01161743740785884 -0.00022161276779934796 -0.0209326147756102 -0.011766228099135091 0.0022317779773792143 0.018287809475946513 -0.0017764397205624208 -0.0022740261918452096 -0.014746048487722872 0.0024246341542310426 0.0039580004602883748 -0.022477425634860989 -0.0024541530931900713 0.0023981760023161773 -0.0088935604163135479 0.062574613839387908 0.0010188728920184078 -0.011116080917418001 -0.012778947345710962 0.0055822795256972322
decision_type=6 4 6 6 6 6 6 6 6 6 4 6 6 6 6 4 6 6 6 4 4 6 6 6 4 6 4 6 4
left_child=2 3 8 15 -5 9 16 -8 11 10 -3 18 -11 17 -13 22 -7 -10 -1 20 21 -4 -2 24 -21 -22 -25 -15 -6
right_child=1 5 19 4 28 6 7 -9 13 12 -12 14 -14 27 -16 -17 -18 -19 -20 23 25 -23 -24 26 -26 -27 -28 -29 -30
leaf_value=1.0425243983711995e-05 -3.3759953071286056e-05 7.0293211117677693e-07 -1.1166673816825742e-05 -0.00015099916063139945 -1.4633413913984991e-05 -8.1583937571843006e-06 4.8510334921211144e-06 -1.5585138177685704e-05 4.7187455839483746e-06 -3.244293409767717e-05 -6.864144616396071e-06 7.3173698874976206e-07 0 -7.7238058797071814e-06 8.6704789850253319e-06 0 -1.9903466603844823e-06 1.6559230209430191e-06 5.5478795696830895e-06 -5.7776250308949546e-06 0 0 0 2.8011558451152094e-06 2.6823955657653933e-07 2.6210712243250794e-06 -2.0077436992494703e-06 -6.301505461279298e-07 0
leaf_weight=63932 1546 22615 7608 610 519 37265 63900 6222 86754 3170 172806 55695 340 5123 16668 869 27399 126447 46916 28608 76184 12087 138 7407 2807 43858 17685 15628 144
leaf_count=63932 1546 22615 7608 610 519 37265 63900 6222 86754 3170 172806 55695 340 5123 16668 869 27399 126447 46916 28608 76184 12087 138 7407 2807 43858 17685 15628 144
internal_value=0 -4.84141e-06 2.54641e-06 -4.66055e-05 -8.82774e-05 -4.31737e-06 -1.19141e-06 2.82341e-06 4.13853e-06 -6.35993e-06 -5.91169e-06 6.31568e-06 -2.70271e-05 2.36942e-06 2.76781e-06 -1.99029e-05 -5.77701e-06 2.97261e-06 8.49637e-06 -7.61594e-07 0 -4.86799e-06 -2.96348e-05 -2.90753e-06 -4.75998e-06 9.22383e-07 0 -3.10479e-06 -7.73265e-06
internal_weight=0 337543 613407 3826 1273 333717 134786 70122 417163 198931 195421 183211 3510 233952 72363 2553 64664 213201 110848 196244 139737 19695 1684 56507 31415 120042 25092 20751 663
internal_count=950950 337543 613407 3826 1273 333717 134786 70122 417163 198931 195421 183211 3510 233952 72363 2553 64664 213201 110848 196244 139737 19695 1684 56507 31415 120042 25092 20751 663
is_linear=0
shrinkage=0.03


Tree=9
num_leaves=31
num_cat=0
split_feature=142 112 18 21 72 116 30 64 114 114 79 112 78 60 136 136 28 167 127 152 133 13 136 153 106 171 149 155 72 123
split_gain=0.00957832 0.00532419 0.00530346 0.00422293 0.00432086 0.00333445 0.00316823 0.00303398 0.00240576 0.00233951 0.00185684 0.00175411 0.00155934 0.00130934 0.00204802 0.00124604 0.000790932 0.000756726 0.000533618 0.00106763 0.000522246 0.000510835 0.000330652 0.000308499 0.000260541 0.000218778 0.000167035 0.000157626 0.000141808 6.03712e-05
threshold=-0.00011356297274697627 -0.00026536909300482617 -0.0079470846882375452 -0.067889172583818422 -0.019569293649309736 -0.017658729541932448 0.0067248307042860073 0.019172847136291127 -0.031625331332291139 0.0050486107622905686 -0.0034903034102171655 4.9956400938995208e-05 0.015560300885879383 0.0036872686764406492 -0.00052948697159936847 -0.0060876023033835363 -0.014507366004861116 -0.00362864788621664 -0.013680826872587202 -0.011624289982139841 0.0066306963562965402 -0.0020115328952670093 -0.0016966484787344085 -0.00012067212082911281 0.0015681924207595879 0.001346448378171772 -0.0052911094389855853 -0.00044556986540555949 0.0010111461033202238 -1.0000000180025095e-35
decision_type=6 6 6 4 6 4 6 4 6 6 6 4 6 6 4 6 6 4 6 6 6 6 6 6 4 4 6 6 4 4
left_child=1 8 3 4 17 6 21 12 13 -9 -8 20 -7 14 -1 24 -13 -2 19 29 -5 -4 27 -21 -10 -17 -24 -20 -6 -3
right_child=2 18 5 11 28 7 10 9 15 -11 -12 16 -14 -15 -16 25 -18 -19 22 23 -22 -23 26 -25 -26 -27 -28 -29 -30 -31
leaf_value=0 -2.645330466089144e-05 -2.9490422081749835e-05 0 -1.5297948390459244e-06 -1.1463723380938555e-05 7.1215439159847269e-07 0 -2.1057344512303156e-06 3.9795315139374334e-06 -8.9376447177811703e-06 -7.6863504642957372e-05 -2.0678414706048345e-05 1.9720826260700468e-05 0 4.7821904725917774e-05 1.0209255552986997e-06 -6.4015027593644749e-06 -0.00012375652519983161 1.0351455469422135e-06 -8.5384696208559192e-06 1.7113368105023771e-05 -1.6205754407345955e-05 0 7.8317238019440787e-07 7.1503961180217212e-06 4.000335160837144e-06 -4.4482696594295063e-06 -1.2671842146662124e-06 0 0
leaf_weight=1096 625 1930 1274 5398 1633 160122 108 185287 59753 64077 1340 12286 4086 810 2835 79593 10371 758 64616 4163 1566 2412 18263 5175 140883 47057 27787 45225 55 86
leaf_count=1096 625 1930 1274 5398 1633 160122 108 185287 59753 64077 1340 12286 4086 810 2835 79593 10371 758 64616 4163 1566 2412 18263 5175 140883 47057 27787 45225 55 86
internal_value=0 2.92036e-06 -3.10932e-06 -1.48256e-05 -4.9718e-05 -2.15863e-06 -2.64023e-05 -1.82128e-06 5.12882e-06 -3.92148e-06 -6.5692e-05 -1.06987e-05 1.27673e-06 2.70342e-05 3.43655e-05 4.76551e-06 -1.48064e-05 -9.07157e-05 -1.37434e-06 -7.81867e-06 5.12901e-07 -6.8733e-06 -8.08669e-07 -1.76748e-06 6.28087e-06 2.24641e-06 -2.94545e-06 0 -7.18479e-06 -2.83848e-05
internal_weight=0 499272 451398 32692 3071 418706 5134 413572 332027 249364 1448 29621 164208 4741 3931 327286 22657 1383 167245 11354 6964 3686 155891 9338 200636 126650 46050 109841 1688 2016
internal_count=950670 499272 451398 32692 3071 418706 5134 413572 332027 249364 1448 29621 164208 4741 3931 327286 22657 1383 167245 11354 6964 3686 155891 9338 200636 126650 46050 109841 1688 2016
is_linear=0
shrinkage=0.03


Tree=10
num_leaves=26
num_cat=0
split_feature=112 54 27 88 74 172 142 113 61 64 112 82 64 2 112 26 138 166 70 153 72 142 142 136 89
split_gain=0.012175 0.0116058 0.00423156 0.0037039 0.00274497 0.003135 0.00186035 0.00174501 0.00215195 0.001681 0.00340331 0.00115831 0.00106018 0.000739578 0.000576099 0.000547989 0.000772877 0.000489829 0.000959104 0.000470786 0.000425919 0.000265482 0.000257655 1.72129e-05 9.55082e-06
threshold=-0.00090962669857546621 -0.021091568870583055 -0.063565228134393678 0.0029818860846110283 -0.041231627394008041 -0.0066556872067881573 0.0023880042634294111 -0.014005739241838453 -0.0025787195190787311 0.022056981531163953 0.00040358166344241512 -0.0068760219659214005 -0.060822579755990078 -0.0091769826117097057 0.0014982813358980376 -0.0084772123178057431 -0.0020265574995377449 -0.016482466972201827 0.0099765126690084995 -0.02849798463284969 -0.00023375704686246347 -0.0017545829314893852 0.01486250321344826 0.00078707956609295072 -0.0022464307257905598
decision_type=6 6 6 6 6 6 4 6 6 4 6 6 6 6 6 6 6 4 6 6 6 6 6 6 6
left_child=4 2 13 9 5 7 12 8 -1 11 -11 -3 21 -2 24 16 -4 18 -8 -19 -14 -6 -16 -7 -5
right_child=1 3 15 14 6 23 17 -9 -10 10 -12 -13 20 -15 22 -17 -18 19 -20 -21 -22 -23 -24 -25 -26
leaf_value=0.00010412795739286852 -0.00010356687635023102 -2.8851305999922422e-06 0 0 7.5035206578737417e-06 -1.5364699643982735e-06 -2.7375397016698469e-05 1.2260746561259215e-05 0 7.2228986096548226e-07 -5.2964914109454641e-06 1.8105633373122358e-06 2.197453941763361e-07 0 -1.2879171495633734e-05 0 -4.2523015951079093e-05 -1.4413989557660659e-05 0 0 4.0778534165071448e-06 3.9518445636238999e-06 -3.692900687715403e-05 4.4956816194551493e-06 -6.1579954558324397e-06
leaf_weight=894 1367 66118 821 109 117896 1235 1958 1217 157 134498 210902 159394 51196 114 19770 457 1404 2080 1359 27997 78736 48637 1232 620 21302
leaf_count=894 1367 66118 821 109 117896 1235 1958 1217 157 134498 210902 159394 51196 114 19770 457 1404 2080 1359 27997 78736 48637 1232 620 21302
internal_value=0 -2.61959e-06 -5.26912e-05 -2.2551e-06 4.48939e-06 2.94165e-05 4.13217e-06 5.30604e-05 8.59462e-05 -1.58881e-06 -2.90937e-06 3.67302e-07 4.90509e-06 -9.72252e-05 -1.08698e-05 -2.24568e-05 -2.87968e-05 -2.28038e-06 -1.35086e-05 -5.42595e-07 2.67315e-06 6.55636e-06 -1.50075e-05 0 -6.10954e-06
internal_weight=0 617488 4163 613325 333982 4123 329859 2268 1051 570912 345400 225512 296465 1481 42413 2682 2225 33394 3317 30077 129932 166533 21002 1855 21411
internal_count=951470 617488 4163 613325 333982 4123 329859 2268 1051 570912 345400 225512 296465 1481 42413 2682 2225 33394 3317 30077 129932 166533 21002 1855 21411
is_linear=0
shrinkage=0.03


Tree=11
num_leaves=29
num_cat=0
split_feature=113 127 61 172 112 80 64 172 110 142 124 64 5 173 112 122 54 158 100 12 172 124 64 21 94 117 123 61
split_gain=0.00683327 0.00678545 0.0128154 0.00609542 0.00406302 0.00184976 0.0026368 0.00199919 0.00158687 0.0013367 0.00150018 0.00157325 0.00101197 0.00232705 0.000926388 0.000884122 0.00153613 0.000785641 0.00060386 0.000373922 0.000311358 0.000307447 0.000270297 0.000269432 0.000329682 0.000233149 0.000142437 6.60607e-06
threshold=0.00089611997827887546 -0.04740572348237037 -0.016097038052976128 0.00079660198623187196 -0.0017059100193230435 -0.0030972223000585559 0.043011092606969704 0.018990377487861646 -0.0022900560996388444 -0.0073019483905970113 -0.0012527086636561148 0.0049930646274122924 -0.1313146501779556 0.0089133852161467093 -0.00033326248299971793 0.0013538876978555145 -0.0037192487765561658 -0.0075937473471072714 -0.00082505473573570118 -0.010100838760284536 -0.0018433579194308408 0.0038123408927221527 0.01337251918566656 0.038654159754514701 0.00066385064001451438 -0.0063203428871929637 0.0008287094533443452 -0.0046550629194825879
decision_type=6 6 4 6 6 6 4 6 4 6 4 6 4 6 6 4 6 6 6 6 6 4 4 4 6 6 6 6
left_child=4 2 3 -2 9 12 7 -7 -8 10 22 -12 13 -3 -14 16 19 20 -18 -6 -11 -19 -1 25 -25 -17 27 -4
right_child=1 5 26 -5 15 6 8 -9 -10 17 11 -13 14 -15 -16 23 18 21 -20 -21 -22 -23 -24 24 -26 -27 -28 -29
leaf_value=-1.6181986035137525e-06 0 0 0 -0.00034816599221627182 -1.6629885822288351e-05 0 -1.1020789678657849e-05 1.1387448060962374e-05 -2.669957182714184e-06 1.5545418966909407e-06 1.5653577467213022e-05 0 7.7872201689318775e-07 -6.355142781105034e-05 -7.1634350113846512e-06 -6.8689426779743292e-07 -2.1978538970496409e-06 5.6254793786812204e-06 1.1696574494875345e-06 -4.859195608194628e-06 -5.0768891771658097e-06 1.8069156614766504e-06 4.7154958522851238e-06 9.8602210034004849e-06 0 2.2565179717851889e-06 0 -3.3716010701151019e-05
leaf_weight=7095 131 1116 159 194 4402 98065 26875 16507 129775 10541 31841 6941 11868 959 80109 23767 72938 91101 139705 30557 10933 40914 12552 8833 3615 89401 561 116
leaf_count=7095 131 1116 159 194 4402 98065 26875 16507 129775 10541 31841 6941 11868 959 80109 23767 72938 91101 139705 30557 10933 40914 12552 8833 3615 89401 561 116
internal_value=0 -3.24469e-06 -7.61232e-05 -0.000236392 1.9793e-06 -2.97157e-06 -1.64033e-06 1.72647e-06 -4.19851e-06 5.29782e-06 9.33427e-06 1.28325e-05 -6.65095e-06 -2.93316e-05 -5.97557e-06 5.47859e-08 -9.43572e-07 3.66343e-06 0 -6.77126e-06 -1.12341e-06 4.5557e-06 1.66492e-06 2.14205e-06 6.72023e-06 1.50581e-06 0 -2.15126e-05
internal_weight=0 366435 1161 325 585136 365274 271222 114572 156650 211918 58429 38782 94052 2075 91977 373218 247602 153489 212643 34959 21474 132015 19647 125616 12448 113168 836 275
internal_count=951571 366435 1161 325 585136 365274 271222 114572 156650 211918 58429 38782 94052 2075 91977 373218 247602 153489 212643 34959 21474 132015 19647 125616 12448 113168 836 275
is_linear=0
shrinkage=0.03


Tree=12
num_leaves=28
num_cat=0
split_feature=112 9 30 88 142 166 82 155 142 36 95 117 94 96 64 23 96 29 118 144 94 152 27 61 109 31 124
split_gain=0.0107953 0.00445772 0.00702141 0.00510733 0.00364797 0.0024501 0.00274586 0.00182942 0.000963218 0.00119839 0.000894981 0.000788086 0.00209299 0.00280822 0.00168958 0.000803181 0.000623221 0.000562119 0.000428806 0.000397513 0.00056816 0.000530467 0.000391786 0.000363099 0.00032416 0.000155388 2.72206e-05
threshold=0.00047719529173616255 -0.063421595841646181 -0.031477546313632664 0.0056441395480267111 -0.0034659918746446643 0.0073509800446405213 -0.00072379374359246736 -0.015172202140092848 0.0026063895966397595 -0.00069171057634647814 0.0012645442038774493 -0.0039725610986351958 -0.011209158851958752 0.00015030642831643921 -0.030881690098749741 0.0026611413341015582 -0.00065572594949236452 -0.03225371986627578 0.0010250392987873099 0.013390563308158561 0.017430047067501609 0.0065397629232485507 -0.019350066781044003 -0.0078842989169061167 0.00093376380391418945 0.0033046180615201597 0.0069704670667152203
decision_type=6 4 6 4 6 4 6 6 6 6 4 4 4 6 6 6 4 4 6 6 6 6 4 6 6 4 6
left_child=4 2 -2 5 11 6 -3 26 9 18 -7 12 13 -1 16 -14 -13 -9 -6 20 -10 -21 24 -11 -4 -16 -5
right_child=1 3 22 7 8 10 -8 17 19 23 -12 14 15 -15 25 -17 -18 -19 -20 21 -22 -23 -24 -25 -26 -27 -28
leaf_value=0 -0.00016241537485239523 -5.087971159076861e-06 0 -5.0159805946471777e-05 6.112832218354487e-07 -3.1247564890924225e-06 3.8061973014457785e-06 -2.5936961865221569e-05 -3.7059421071426653e-07 4.3226458347988342e-06 -7.2479036995752333e-06 5.8756892779510167e-06 -8.1163136775192306e-07 7.1960759210177252e-05 8.134402327580847e-07 5.2191398297580802e-06 1.301558156111035e-05 -1.2206622999656812e-06 -2.9220423565529622e-06 -1.1677738303998403e-05 -3.9407206696567445e-05 0 0 1.4422147480569467e-06 -3.6281605470255408e-05 5.0943611777067261e-06 0
leaf_weight=532 411 52280 980 2697 68291 131249 77248 2319 53226 100468 97864 27752 34303 921 30186 37948 44661 3662 50209 8560 351 4429 237 99430 753 19895 159
leaf_count=532 411 52280 980 2697 68291 131249 77248 2319 53226 100468 97864 27752 34303 921 30186 37948 44661 3662 50209 8560 351 4429 237 99430 753 19895 159
internal_value=0 -3.99743e-06 -4.54596e-05 -3.68772e-06 2.55896e-06 -3.08505e-06 1.00513e-07 -2.64433e-05 8.16696e-07 1.5318e-06 -4.95145e-06 5.901e-06 3.08616e-06 3.93436e-05 7.47214e-06 2.14833e-06 1.04866e-05 -1.33164e-05 -7.59247e-07 -2.37841e-06 -9.07757e-07 -7.28884e-06 -1.33128e-05 2.96498e-06 -2.01164e-05 2.8137e-06 -4.86566e-05
internal_weight=0 369859 2381 367478 581162 358641 129528 8837 384964 318398 229113 196198 73704 1453 122494 72251 72413 5981 118500 66566 53577 12989 1970 199898 1733 50081 2856
internal_count=951021 369859 2381 367478 581162 358641 129528 8837 384964 318398 229113 196198 73704 1453 122494 72251 72413 5981 118500 66566 53577 12989 1970 199898 1733 50081 2856
is_linear=0
shrinkage=0.03


Tree=13
num_leaves=27
num_cat=0
split_feature=112 36 27 126 89 79 78 80 64 4 142 8 62 136 138 22 122 95 172 64 124 138 136 94 106 62
split_gain=0.010659 0.0110629 0.00448202 0.00301317 0.0024194 0.00188466 0.00140218 0.00362251 0.00314027 0.00281694 0.00199124 0.00136333 0.00127397 0.00117762 0.0011237 0.00107203 0.000978457 0.000952457 0.000712443 0.000889017 0.000492393 0.000486201 0.000450152 0.000404404 0.000326875 0.000145024
threshold=-0.0007114806407070908 -0.024962892854994447 -0.052046427503228181 -0.0091827274271016803 0.0068952613510191449 0.0071514223236590633 -0.013314825946047921 -0.035365497357665594 0.0020323473323520928 -0.012503604831280985 0.0044262591277849364 0.0068284364777999309 0.0098010655418425859 0.01267213930162525 -0.00608182181373116 0.0026457264996820689 0.00059441284837782903 -0.0010700686834752557 -0.0036550488318024374 0.056444751887970636 -0.013190359631868008 -0.0037396494531045585 -5.4950680177589383e-05 -0.0023029872371935563 0.0039958528750151353 0.0028844597087955655
decision_type=4 6 6 6 6 4 4 6 6 4 4 6 4 4 6 6 6 4 6 4 6 6 6 6 6 6
left_child=6 2 -2 5 13 16 7 8 17 22 18 -7 -11 -5 24 -10 -3 -1 19 -8 -20 -16 -9 -6 -12 -4
right_child=1 3 25 4 23 11 10 9 15 12 14 -13 -14 -15 21 -17 -18 -19 20 -21 -22 -23 -24 -25 -26 -27
leaf_value=1.4264956782362115e-06 -0.0001203074446364946 -1.4094995817410883e-05 -1.554761582701142e-05 4.4009640861487809e-08 -1.9706743451528781e-05 -1.6529776201977564e-05 2.6881997987236125e-06 -2.1631142360810457e-05 0 0 -1.9287968366619432e-05 -6.0850424218459123e-05 3.2070734808565824e-05 -2.7120040961817513e-06 -1.2266615338472555e-05 -6.7218970532234324e-05 0 4.7100027224936349e-05 -1.5650238072759887e-06 7.5012032474723715e-06 3.1495110792852618e-06 1.4936221860728023e-06 0 -7.1971071428825863e-06 0 0
leaf_weight=1242 1012 7769 884 249793 6721 5250 72351 3202 179 2441 4965 1276 2514 288735 2713 282 8504 4189 18703 98263 140036 13022 1212 14086 709 90
leaf_count=1242 1012 7769 884 249793 6721 5250 72351 3202 179 2441 4965 1276 2514 288735 2713 282 8504 4189 18703 98263 140036 13022 1212 14086 709 90
internal_value=0 -2.56016e-06 -7.34544e-05 -2.29228e-06 -1.82527e-06 -1.30905e-05 3.96877e-06 1.32376e-05 3.17321e-05 1.65488e-09 3.52267e-06 -2.75094e-05 1.70512e-05 -1.40579e-06 -5.03285e-06 -2.62235e-05 -6.38376e-06 3.94204e-05 4.12437e-06 5.54816e-06 2.49953e-06 0 -1.57399e-05 -1.19603e-05 -1.65446e-05 -9.25778e-06
internal_weight=0 584120 1986 582134 559335 22799 366023 15261 5892 9369 350762 6526 4955 538528 21409 461 16273 5431 329353 170614 158739 15735 4414 20807 5674 974
internal_count=950143 584120 1986 582134 559335 22799 366023 15261 5892 9369 350762 6526 4955 538528 21409 461 16273 5431 329353 170614 158739 15735 4414 20807 5674 974
is_linear=0
shrinkage=0.03


Tree=14
num_leaves=31
num_cat=0
split_feature=112 142 144 32 154 146 64 142 173 82 173 97 71 58 89 121 81 124 60 112 82 152 124 112 136 5 29 125 106 5
split_gain=0.00828926 0.00790483 0.0129477 0.00489414 0.0042935 0.00442523 0.00406463 0.0030802 0.00302889 0.00251905 0.00241105 0.00651691 0.00433332 0.0017301 0.00160341 0.00145975 0.00144009 0.00122369 0.000886258 0.00162625 0.00084519 0.000766601 0.000738073 0.000642775 0.000893455 0.000615314 0.000531173 0.000382215 0.000296238 9.28856e-05
threshold=0.001597284320241801 -0.030993553993406441 -9.5108569069619076e-05 -0.018730343724220732 0.0020661817220193343 -0.0053064800909314166 0.007678387986833732 -0.00080335393741139995 0.0038606876041740183 -0.0040388705931245997 0.053923919796943671 1.3793120160698892e-05 -0.033000053837895386 -0.0048518795846300717 -0.0026454600738361474 0.0074172387830913076 -0.032708862796425812 0.0016193548340142667 0.005128726221490367 -0.0010826820411565673 -0.0067300233581255049 -0.010087635147082158 -0.0046184708413275983 -0.00035141633922619375 -0.0093708768764716142 -0.0072829041164368382 -0.0054672530386596909 0.011117748916149141 -0.00092225675860151818 -0.042033875361084931
decision_type=4 6 6 6 4 6 4 4 6 4 6 6 4 6 4 6 6 4 4 6 6 6 6 4 4 6 6 6 4 6
left_child=1 2 13 10 5 -4 8 18 20 -10 22 12 -12 14 -1 17 -6 -8 21 -20 -5 -3 25 24 -9 -2 -25 -24 -17 -13
right_child=3 7 4 6 16 -7 15 23 9 -11 11 29 -14 -15 -16 28 -18 -19 19 -21 -22 -23 27 26 -26 -27 -28 -29 -30 -31
leaf_value=0 -3.7640836771680929e-05 -2.2902189482444002e-06 0 -1.0047623384520816e-05 0 -0.00014956574913875078 -2.2472515629886991e-06 -7.7384932053124327e-06 -5.8503699173604811e-06 1.4438273866143247e-05 -0.00024263391488729528 2.835213918063216e-05 0 0 0.00012859395797651052 -2.2402466975210819e-05 8.0993859139495293e-05 -8.9961365907749099e-06 6.8329950244472827e-06 1.0450120490384652e-06 0 2.4615412621004187e-06 -3.6737320278338852e-06 -6.0260926584977532e-08 1.55861738301459e-06 0 -3.3108206198475044e-06 -1.8208023794219873e-05 -9.8961763721332862e-06 0
leaf_weight=305 3237 34148 243 11784 279 352 70541 9723 6019 23178 242 103 245 181 1319 6065 243 44886 118022 80184 14793 168619 7035 95114 123768 1183 107262 5741 15380 93
leaf_count=305 3237 34148 243 11784 279 352 70541 9723 6019 23178 242 103 245 181 1319 6065 243 44886 118022 80184 14793 168619 7035 95114 123768 1183 107262 5741 15380 93
internal_value=0 1.53119e-06 5.08973e-05 -5.21536e-06 -1.85057e-05 -8.11995e-05 -3.72615e-06 1.31493e-06 2.91612e-06 9.74191e-06 -2.04204e-05 -8.19487e-05 -0.000146287 0.00010212 0.000112014 -6.54241e-06 2.4367e-05 -5.00175e-06 3.09772e-06 4.56719e-06 -4.01838e-06 1.58731e-06 -1.70952e-05 -7.68783e-07 7.68978e-07 -3.02086e-05 -1.85724e-06 -1.13806e-05 -1.41343e-05 2.01828e-06
internal_weight=0 739762 2922 210525 1117 595 192646 736840 55774 29197 17879 683 487 1805 1624 136872 522 115427 400973 198206 26577 202767 17196 335867 133491 4420 202376 12776 21445 196
internal_count=950287 739762 2922 210525 1117 595 192646 736840 55774 29197 17879 683 487 1805 1624 136872 522 115427 400973 198206 26577 202767 17196 335867 133491 4420 202376 12776 21445 196
is_linear=0
shrinkage=0.03


Tree=15
num_leaves=28
num_cat=0
split_feature=112 34 97 112 173 62 24 173 162 81 172 119 65 64 72 124 30 64 89 25 115 165 96 88 173 89 29
split_gain=0.00681663 0.0125001 0.013225 0.00510516 0.00465948 0.00350163 0.00359533 0.00264728 0.00242346 0.00355243 0.00142802 0.00116717 0.00110863 0.00087228 0.000853958 0.000729893 0.000684452 0.000641909 0.000556457 0.000446379 0.000431448 0.00037858 0.000373975 0.000330468 0.00028522 0.000163649 0.000159625
threshold=0.0020035607164052929 -0.15227557347448048 -0.0086477613076567632 -0.00080535874765528669 0.010867954231798651 0.0048475167161332764 0.0043072400162171903 0.021661613136529926 -0.0062170660130015697 0.02474562264978886 -0.0030813519497588926 -0.0098061133176088316 0.02484778314828873 -0.071845393321723114 -0.0017476985328375592 -0.0046854240311445866 0.0018959932344650764 0.053007618944866393 -0.0012673509190790353 0.0034512855345383291 0.0061033281963318595 -0.011185500305145977 -0.0010274717033137665 0.0010515479353476452 -0.010016404557973145 -0.00097355671459808935 -0.006887526484206318
decision_type=4 6 6 6 4 6 4 6 6 4 6 6 6 6 6 6 6 6 6 6 6 6 4 4 4 6 6
left_child=3 2 4 10 -2 6 7 -3 9 -7 13 -10 -8 22 23 19 -15 -17 -4 -12 26 -22 -1 25 -25 -5 -16
right_child=1 5 18 14 -6 8 12 -9 11 -11 15 -13 -14 16 20 17 -18 -19 -20 -21 21 -23 -24 24 -26 -27 -28
leaf_value=4.087352021768111e-06 -2.8397376689402638e-05 -6.6062526123243469e-06 4.4081550361571475e-05 0 -0.00043721000631753829 0 -1.3280968837437415e-05 4.3826096247334928e-06 -1.4427438631782889e-05 3.5705623095845582e-05 0 2.4308545346383472e-06 -3.6518010974771898e-05 3.7010525566456417e-07 1.5445736894476783e-06 3.1887193946674538e-06 6.2877074799583082e-06 -2.3834821841557203e-05 -3.5657510795715073e-05 -7.7038974896276469e-06 1.627928280975412e-06 -2.7672391902862357e-06 9.0269594397854995e-06 -1.5797640734370443e-07 -6.2341548669180845e-06 -2.5459347611712411e-06 -4.4272653792959761e-08
leaf_weight=34329 142 88518 100 27570 146 6190 28497 23678 5020 4630 38439 10946 3009 48662 91860 116494 34178 671 236 8224 18050 79743 69485 14595 42478 49769 105460
leaf_count=34329 142 88518 100 27570 146 6190 28497 23678 5020 4630 38439 10946 3009 48662 91860 116494 34178 671 236 8224 18050 79743 69485 14595 42478 49769 105460
internal_value=0 -5.53368e-06 -0.000140234 1.07661e-06 -0.000288953 -4.95104e-06 -6.85058e-06 -4.15342e-06 4.6794e-06 1.5819e-05 3.7731e-06 -1.93146e-06 -1.59785e-05 5.60123e-06 -1.08875e-06 1.59866e-06 2.99274e-06 2.90553e-06 0 -1.36126e-06 -1.32381e-07 -1.80261e-06 7.53814e-06 -3.0769e-06 -4.9432e-06 -1.50561e-06 6.19386e-07
internal_weight=0 171112 624 780007 288 170488 143702 112196 26786 10820 350482 15966 31506 186654 429525 163828 82840 117165 336 46663 295113 97793 103814 134412 57073 77339 197320
internal_count=951119 171112 624 780007 288 170488 143702 112196 26786 10820 350482 15966 31506 186654 429525 163828 82840 117165 336 46663 295113 97793 103814 134412 57073 77339 197320
is_linear=0
shrinkage=0.03


Tree=16
num_leaves=31
num_cat=0
split_feature=113 57 113 97 88 148 173 143 142 112 154 15 112 52 61 142 26 100 49 104 64 64 61 27 112 66 56 166 155 90
split_gain=0.00596361 0.0060049 0.00668731 0.00413432 0.0022519 0.00233005 0.00387841 0.00202122 0.00140102 0.00107521 0.000986742 0.000846241 0.00896778 0.00213542 0.000697921 0.000585858 0.000546462 0.000498771 0.000476991 0.00039831 0.000377024 0.000363638 0.000358032 0.000334524 0.000294763 0.000259546 0.000230699 0.000178639 0.000128735 9.46169e-05
threshold=-0.00185895076720044 -0.067215628921985612 0.013977118767797949 -0.0011872889590449629 0.0011947085454526443 -0.0083714580666229884 0.041361710056662566 -0.033815983682870858 -0.00071936503269632646 -0.00019701685394613876 -0.0200773480245066 -0.016584245488047596 -0.011910601127892615 0.011735281131926069 0.013978435192257168 0.0016873148079220074 -0.0057873026209103321 0.00067755931426394668 0.0015028147026896479 -0.00092235461244922665 -0.028301963684638682 0.011247872658760838 0.002614831668324769 -0.023580121807754036 -0.00094984138507087155 -0.00058114040734641068 -0.0012348801144271557 0.013687102888804994 0.0061360851395875224 0.0034217070278027097
decision_type=6 4 6 6 6 4 4 6 6 4 6 4 4 6 4 4 6 6 6 6 4 4 4 6 6 6 6 4 6 6
left_child=8 2 16 18 5 7 -7 -3 11 26 23 12 13 -1 20 -11 21 -16 -4 25 -13 -2 -21 28 -14 -12 -6 -25 -10 -5
right_child=1 4 3 29 9 6 -8 -9 10 15 19 14 24 -15 17 -17 -18 -19 -20 22 -22 -23 -24 27 -26 -27 -28 -29 -30 -31
leaf_value=8.1072584918028657e-05 -2.7837227839155492e-05 -6.0351988021394122e-05 -0.00020052389056252274 -1.8955328845480879e-05 -2.4047329532489049e-06 0 1.577029639781375e-05 -4.6451103414038026e-06 -1.2045050306429951e-05 -3.3953996885543791e-06 -5.9584864590875475e-06 -6.4730618727039493e-06 6.4325466254067425e-06 0 3.3642834132729415e-06 -8.5361148490754667e-06 0 8.2200812683524255e-06 0 7.4025849406114359e-06 2.0926140756187868e-06 -2.6485325171371705e-06 5.0343584037485762e-07 1.1277237217845064e-05 0 0 2.2283620282659087e-06 -5.9087183197205082e-06 0 0
leaf_weight=1844 2987 641 363 235 20589 409155 14501 69373 8365 53517 8281 4149 26520 134 66138 53729 614 42355 103 12859 87083 2484 26291 983 6694 11860 17832 1015 102 117
leaf_count=1844 2987 641 363 235 20589 409155 14501 69373 8365 53517 8281 4149 26520 134 66138 53729 614 42355 103 12859 87083 2484 26291 983 6694 11860 17832 1015 102 117
internal_value=0 -1.60637e-06 -2.95326e-05 -0.000113301 -1.2813e-06 -2.81637e-07 5.24066e-07 -5.37107e-06 3.48471e-06 -4.56616e-06 -4.01059e-08 4.59521e-06 9.19036e-06 7.18143e-05 3.71035e-06 -6.11081e-06 -1.5774e-05 5.39833e-06 -0.000174479 1.24023e-06 1.53852e-06 -1.91467e-05 3.15288e-06 -8.72594e-06 5.00521e-06 -1.73285e-06 0 0 -1.13866e-05 0
internal_weight=0 646240 6903 818 639337 493670 423656 70014 304673 145667 69756 234917 35192 1978 199725 107246 6085 108493 466 59291 91232 5471 39150 10465 33214 20141 38421 1998 8467 352
internal_count=950913 646240 6903 818 639337 493670 423656 70014 304673 145667 69756 234917 35192 1978 199725 107246 6085 108493 466 59291 91232 5471 39150 10465 33214 20141 38421 1998 8467 352
is_linear=0
shrinkage=0.03


Tree=17
num_leaves=31
num_cat=0
split_feature=112 20 105 97 113 64 83 17 85 54 97 12 173 81 58 62 82 18 154 113 7 136 154 167 98 173 103 124 121 166
split_gain=0.00962715 0.00386393 0.00761258 0.00323233 0.00246518 0.0021216 0.00579852 0.00599219 0.00195802 0.00122523 0.00118642 0.0011051 0.00102686 0.00181614 0.000974565 0.00121179 0.000883314 0.000719712 0.000668728 0.000640053 0.000587769 0.000546322 0.000757597 0.00050663 0.000491998 0.000457004 0.000454905 0.000241602 0.00018984 0.000120368
threshold=0.00011988433364486523 -0.022965724106109493 -0.016386401839554306 0.0002904280554503203 -0.0075492286123335353 0.0062178138131609067 0.039182908833026893 -0.044302148744463914 -0.0026155012892559166 -0.0027598297510493699 0.0035629138583317403 -0.0074996736292710347 0.015864751301705841 0.02474562264978886 0.0053076570053549373 0.0022989129059089995 -0.0078471860487392547 -0.0059033464730935186 -0.0026363331753301851 0.0070343739353120336 -0.0016724138986319301 -0.0032785471385212155 0.014829297916090601 -0.10372981056571005 0.0027304106757200038 -0.01231249328702688 0.0010999968508258464 0.0059516588480575212 0.0043841837905347356 0.0091147896497829218
decision_type=6 4 6 6 4 4 6 6 6 6 6 6 6 6 6 6 6 6 4 6 4 4 6 4 4 4 6 4 6 6
left_child=4 2 3 11 8 6 16 -8 17 21 19 -2 26 -14 15 -7 -3 24 -12 -4 -16 22 -6 28 -1 -25 -10 -19 -11 -23
right_child=1 5 10 -5 9 14 7 -9 12 23 18 -13 13 -15 20 -17 -18 27 -20 -21 -22 29 -24 25 -26 -27 -28 -29 -30 -31
leaf_value=1.431333831790342e-05 -0.00018221216760280263 -4.9387864030339262e-06 -1.022959976466178e-05 0 -1.9532231400534015e-06 -3.3985920924991773e-06 0.00011289999915336466 1.4023575962812496e-05 9.848042351337255e-06 0 -2.0298734814392745e-05 0 4.9724663807712538e-06 -2.2150537705894648e-05 -1.5668701185893729e-06 4.085602650758266e-06 4.7183795393892438e-07 3.2590194847415325e-06 6.099549041682076e-06 -3.0066745849911329e-05 -7.3802273564718234e-06 3.4019645763194677e-07 -2.361270239631701e-05 4.9842838124665068e-06 3.7546356971614231e-05 2.1924158829682707e-06 8.292398029468795e-07 1.5855792576119257e-05 -2.9051171819251715e-05 -3.6796040525580166e-06
leaf_weight=6455 401 40655 10559 226 11260 150887 648 10980 18215 446 1091 106 4854 3413 27345 20638 69596 8068 4070 3567 91979 68801 2198 82239 3060 282727 12474 4715 523 7411
leaf_count=6455 401 40655 10559 226 11260 150887 648 10980 18215 446 1091 106 4854 3413 27345 20638 69596 8068 4070 3567 91979 68801 2198 82239 3060 282727 12474 4715 523 7411
internal_value=0 -3.27415e-06 -1.62896e-05 -0.000113548 2.79075e-06 -2.6064e-06 6.10716e-07 2.0842e-05 8.5172e-06 1.98789e-06 -1.18042e-05 -0.000155991 3.93371e-06 -4.41381e-06 -4.00608e-06 -2.4106e-06 -1.38733e-06 1.58511e-05 0 -1.6304e-05 -6.17376e-06 -1.03506e-06 -6.60811e-06 2.76964e-06 2.33675e-05 2.86264e-06 6.67125e-06 9.08033e-06 -1.67439e-05 0
internal_weight=0 432748 20020 733 516859 412728 121879 11628 61254 455605 19287 507 38956 8267 290849 171525 110251 22298 5161 14126 119324 89670 13458 365935 9515 364966 30689 12783 969 76212
internal_count=949607 432748 20020 733 516859 412728 121879 11628 61254 455605 19287 507 38956 8267 290849 171525 110251 22298 5161 14126 119324 89670 13458 365935 9515 364966 30689 12783 969 76212
is_linear=0
shrinkage=0.03


Tree=18
num_leaves=31
num_cat=0
split_feature=112 35 89 118 112 89 138 136 143 142 86 96 95 148 83 13 30 69 97 18 136 15 49 127 44 104 99 45 64 172
split_gain=0.00702619 0.00378978 0.00947483 0.00401602 0.00324253 0.00247095 0.0024177 0.00188871 0.00136349 0.00146013 0.00165197 0.00132884 0.000969431 0.000710809 0.00103159 0.0018071 0.000661245 0.000592921 0.000764607 0.000561759 0.000436956 0.000353546 0.000336911 0.000246865 0.000226506 0.000218656 0.000218328 0.000209742 0.00020962 0.000170544
threshold=-0.0017484588322144042 -0.13887833803892133 0.0089202700182795542 0.009525714547478345 0.00029743653437793832 0.0063387670088559398 0.002518994568510105 0.0055856087432602326 0.00036126282066106802 -0.0064640050229375521 0.00016398299344318811 0.00073510916830398811 -0.001560336793772876 -0.010187325895717561 0.0692131742835045 -0.0012267302954569457 -0.0029612522199040114 -0.013126256875693796 -0.003329947241581976 -0.0029713302917986815 -0.011724621263854523 -0.032597152516245835 -0.0031571701401844616 0.011502755340188743 -0.010322497712079612 0.0019321715317519388 -0.0061621014028787604 -0.00053300755098462094 0.0056016075350165803 -0.0058811211169712777
decision_type=6 4 6 6 4 4 6 4 6 6 4 4 6 6 6 6 4 6 6 6 4 6 6 6 6 6 6 6 6 6
left_child=8 2 17 -4 16 7 -5 -6 9 10 28 -12 -7 14 23 -16 25 18 -2 24 26 -22 -18 -10 -11 -3 -15 -19 -1 -21
right_child=1 4 3 6 5 12 -8 -9 13 19 11 -13 -14 20 15 -17 22 27 -20 29 21 -23 -24 -25 -26 -27 -28 -29 -30 -31
leaf_value=6.2313118643673402e-06 -3.1951546365327526e-05 -2.7291307478596661e-06 0 -4.2116763178770364e-05 6.8195226306429715e-08 -2.154479796514027e-05 -0.00015783504858342263 -4.1739263456406857e-06 -1.9271332980513069e-06 -6.3470585531276069e-06 9.2287929693510001e-06 2.4741055037211526e-05 -6.0653424692373437e-06 0 2.9313155516032032e-07 -3.500784189688135e-05 3.5196857772878221e-06 0 0 6.9641842261093472e-06 -3.6295636851083569e-06 4.1399240396745597e-06 9.0777144254509447e-07 1.2335058962623846e-05 5.604514889473214e-07 1.6963698234109453e-06 -1.1475155193341205e-05 1.9991235594752141e-05 0 2.8157027188712258e-06
leaf_weight=26701 933 49080 306 885 152623 8787 664 221833 5620 5101 19208 10627 12914 314 1192 2389 68836 626 1867 28540 3879 46757 203841 1321 12868 8218 2715 1139 9533 41745
leaf_count=26701 933 49080 306 885 152623 8787 664 221833 5620 5101 19208 10627 12914 314 1192 2389 68836 626 1867 28540 3879 46757 203841 1321 12868 8218 2715 1139 9533 41745
internal_value=0 -1.41023e-06 -2.44752e-05 -8.16311e-05 -1.18558e-06 -3.02457e-06 -0.000101532 -2.40485e-06 4.71933e-06 6.26415e-06 9.77089e-06 1.52582e-05 -1.30257e-05 7.71379e-07 -5.97385e-06 -1.90772e-05 9.76807e-07 0 -9.75058e-06 3.46881e-06 2.37358e-06 3.2484e-06 1.62217e-06 0 -5.66247e-07 -1.83258e-06 -7.29446e-06 1.22978e-05 4.83814e-06 4.7138e-06
internal_weight=0 732552 6420 1855 726132 396157 1549 374456 218510 154323 66069 29835 21701 64187 10522 3581 329975 4565 2800 88254 53665 50636 272677 6941 17969 57298 3029 1765 36234 70285
internal_count=951062 732552 6420 1855 726132 396157 1549 374456 218510 154323 66069 29835 21701 64187 10522 3581 329975 4565 2800 88254 53665 50636 272677 6941 17969 57298 3029 1765 36234 70285
is_linear=0
shrinkage=0.03


Tree=19
num_leaves=31
num_cat=0
split_feature=112 119 28 142 142 24 172 136 143 62 18 49 143 62 115 72 5 153 60 166 159 152 12 5 143 143 155 173 104 136
split_gain=0.00840924 0.00307159 0.00453026 0.00348797 0.00229786 0.00181352 0.0032078 0.00248732 0.0014983 0.00383164 0.00146813 0.00111938 0.00198462 0.0019065 0.000958716 0.000931216 0.000823383 0.000797955 0.000643084 0.00092344 0.000491262 0.000624925 0.000517769 0.000409689 0.000300751 0.000239289 0.000207071 0.000339071 0.000237982 0.000141488
threshold=-0.00040422866349177944 0.0088924067094922083 -0.068788122700539023 0.010983268453751286 -0.0052011529601823439 0.0035361881583646855 0.036702056132609844 -0.0037259053682972723 0.015037195757031442 0.013526877278319282 -0.019828285516538046 -0.009578115772455929 -0.017489760182797905 -0.013222382763346219 0.015641994774341587 0.002894758531715144 0.012033310253173115 -0.0078228446654975397 0.0003431851144053047 -0.020084771052503898 -0.0097237601876258833 -0.0095225489378328795 -0.0033373737091214471 -0.057652058079838746 -0.0018454755190759895 0.0037924620555713777 -0.011188989505171774 0.0040571764111518869 0.00076033611215115405 -0.0022577053997325704
decision_type=6 6 4 6 6 4 6 4 6 4 6 4 6 6 6 6 6 6 4 4 6 6 6 6 6 6 6 6 6 4
left_child=4 5 3 24 11 8 14 -8 15 -10 16 12 13 -1 -7 -2 -4 20 19 -13 21 -6 -22 -12 -3 -20 27 -19 -28 -14
right_child=1 2 10 -5 17 6 7 -9 9 -11 23 18 29 -15 -16 -17 -18 26 25 -21 22 -23 -24 -25 -26 -27 28 -29 -30 -31
leaf_value=3.7085502033587406e-05 -2.1847040036843088e-06 0 -4.2254419803919247e-05 -0.00010578935633513538 -1.1026289083004018e-05 -2.6258237635749544e-06 -9.0834106017809269e-05 -1.4144238964773537e-05 1.531580010346169e-05 -4.9148428379822891e-06 0 -1.4736905638138515e-05 0 0 -1.1053171734578842e-05 2.0059288913548784e-06 0 2.5084551653795242e-06 6.985985555659482e-06 2.9307184774454027e-06 -5.0012606658580332e-06 0 1.5291524676384203e-06 -6.5548654249091108e-06 -2.8613556926510882e-05 0 2.2747924412050936e-06 -1.5679269481037346e-06 5.688965728045862e-06 6.1395005929839083e-06
leaf_weight=5002 284493 1090 1657 748 8486 75063 705 2501 16881 15294 8262 2869 2468 2523 17140 53688 198 51914 65108 25361 12696 11030 66283 51254 1863 1798 93912 23821 37684 9171
leaf_count=5002 284493 1090 1657 748 8486 75063 705 2501 16881 15294 8262 2869 2468 2523 17140 53688 198 51914 65108 25361 12696 11030 66283 51254 1863 1798 93912 23821 37684 9171
internal_value=0 -2.74374e-06 -8.91047e-06 -4.1931e-05 2.93451e-06 -1.84995e-06 -5.56753e-06 -3.57303e-05 -8.51716e-07 5.23353e-06 -6.67344e-06 6.60391e-06 1.37025e-05 2.61987e-05 -4.35531e-06 -1.47506e-06 -3.45834e-05 1.51402e-06 5.01606e-06 6.02938e-07 -5.87597e-07 -4.90472e-06 2.89359e-07 -5.55039e-06 -2.06187e-05 6.65385e-06 2.58476e-06 1.02825e-06 3.36653e-06 4.33166e-06
internal_weight=0 530837 65072 3701 420126 465765 95409 3206 370356 32175 61371 114300 19164 7525 92203 338181 1855 305826 95136 28230 98495 19516 78979 59516 2953 66906 207331 75735 131596 11639
internal_count=950963 530837 65072 3701 420126 465765 95409 3206 370356 32175 61371 114300 19164 7525 92203 338181 1855 305826 95136 28230 98495 19516 78979 59516 2953 66906 207331 75735 131596 11639
is_linear=0
shrinkage=0.03


Tree=20
num_leaves=30
num_cat=0
split_feature=112 42 23 18 173 142 142 66 166 112 142 61 151 173 27 125 170 105 61 63 3 58 80 110 36 154 97 14 142
split_gain=0.00684223 0.00283784 0.0054109 0.00199965 0.00173733 0.00161908 0.00193855 0.00235665 0.00149724 0.00274126 0.0020694 0.00143121 0.000853937 0.00268449 0.00161932 0.000754837 0.000623771 0.000794697 0.000835349 0.000682392 0.000589599 0.000549994 0.000545699 0.000478003 0.000384803 0.000322783 0.000225266 0.000156021 2.20781e-05
threshold=-0.0010938568283151596 -0.0071073508325292505 -0.18879175186157224 -0.0081979945634496777 0.011702695395797493 0.00055862093098052706 -0.0089083950591129103 -0.0051832517608662119 0.0023764737564335174 0.00078034921693841271 0.026366546362735239 -0.0067799228709191075 -0.018968146294355389 0.018311939202249054 0.0023875322658568625 0.0087796021252870577 0.018883837061955008 -0.0081354253925383074 0.0043513739947229632 0.062748271971941008 0.014767384622246029 0.0063544196470347357 0.011737543385372137 -0.0036612075124891293 -0.0013210545097293552 0.023074954775365867 -0.0015279044164344666 -0.0013465959867928815 0.002523566761776209
decision_type=4 6 6 6 4 6 6 6 4 6 6 6 6 6 6 4 4 6 4 4 6 6 4 4 6 4 6 6 4
left_child=5 2 4 20 26 6 7 11 12 24 -11 -1 14 -14 -3 -9 17 19 -19 -7 -4 -5 -18 27 -10 -25 -2 -8 -24
right_child=1 8 3 21 -6 16 23 15 9 10 -12 -13 13 -15 -16 -17 22 18 -20 -21 -22 -23 28 25 -26 -27 -28 -29 -30
leaf_value=3.2138590699408864e-05 -3.7189695608419084e-05 2.1567392018063985e-05 -1.5214910448623846e-05 0 -0.00016888636485897917 -3.0005901417657316e-05 -3.7788679778735007e-06 2.2232087664323688e-06 -1.7346096626179042e-06 -4.0624856151662782e-06 -2.5847808635308377e-05 0 -8.6529006396591556e-07 1.0222878456700046e-05 0 1.2009619660124485e-05 0 6.1805554556433533e-06 -1.9419709481797593e-06 0 0 -7.8980493719725743e-06 0 4.4499448444678739e-06 1.0677360485565539e-06 4.4752144763914441e-07 0 1.0489229296771242e-06 -3.0787383275973217e-05
leaf_weight=6620 159 5248 21366 31248 260 1438 8822 22651 59452 189604 4308 2410 136617 22728 5584 15157 2033 17718 28581 813 2159 11340 174 153006 156666 30320 228 13726 1171
leaf_count=6620 159 5248 21366 31248 260 1438 8822 22651 59452 189604 4308 2410 136617 22728 5584 15157 2033 17718 28581 813 2159 11340 174 153006 156666 30320 228 13726 1171
internal_value=0 -1.73823e-06 -7.63149e-06 -6.54103e-06 -9.55824e-05 3.71447e-06 4.71618e-06 1.03831e-05 -1.03426e-06 -2.03039e-06 -4.62409e-06 2.47925e-05 1.27769e-06 6.22233e-07 9.53344e-06 6.54367e-06 -8.71595e-07 0 8.42575e-07 -1.7403e-05 -1.37002e-05 -2.23376e-06 -1.33328e-05 3.35397e-06 2.27423e-07 3.86982e-06 -7.15878e-06 -1.7495e-07 -2.84723e-05
internal_weight=0 646967 66760 66113 647 304640 252712 46838 580207 410030 193912 9030 170177 159345 10832 37808 51928 48550 46299 2251 23525 42588 3378 205874 216118 183326 387 22548 1345
internal_count=951607 646967 66760 66113 647 304640 252712 46838 580207 410030 193912 9030 170177 159345 10832 37808 51928 48550 46299 2251 23525 42588 3378 205874 216118 183326 387 22548 1345
is_linear=0
shrinkage=0.03


Tree=21
num_leaves=30
num_cat=0
split_feature=142 48 88 112 96 112 136 112 150 154 51 62 143 76 116 171 112 135 136 124 65 166 80 19 124 12 117 117 62
split_gain=0.0058884 0.00300907 0.00353465 0.00324569 0.00380424 0.00266964 0.00261802 0.00257884 0.00206771 0.00165949 0.00158916 0.00192885 0.00142743 0.00144506 0.00107979 0.00101555 0.00133956 0.000747291 0.00071603 0.000688626 0.000549048 0.000478671 0.000467995 0.000398842 0.000364049 0.000289485 7.31944e-05 8.81216e-08 4.22354e-06
threshold=-0.00018168663322568943 -0.02872442831748016 0.004295917338593744 0.0035072695041806156 -0.0063897539088589817 -0.0041160324126133657 -0.048428530347858705 0.0012573786217857804 -0.00010535574279556561 -0.0083987904567950425 0.004721682285889984 0.0070594664582660548 -0.012707664165645836 -0.0042850246870094564 -0.0018912563010413466 -0.025291476398706433 0.0003409567154158662 -0.0054661992471665135 -0.0016397083868857417 -0.0043496185685002499 -0.017090789973735806 0.0016913848039807626 0.0024904513338257586 -0.04772162809967994 0.0015184417769265395 8.2163796166134193e-05 -0.0076765601988881818 -0.0072543378919363013 0.0065801249353256942
decision_type=6 6 6 4 6 6 6 6 6 6 4 4 6 6 6 6 6 6 6 4 6 6 6 4 6 6 6 6 4
left_child=5 3 6 27 8 10 7 -3 -5 24 12 14 13 -1 -12 17 21 19 -13 -7 -19 -17 -8 -18 -4 -6 -11 28 -2
right_child=1 2 9 4 25 15 22 -9 -10 26 11 18 -14 -15 -16 16 23 20 -20 -21 -22 -23 -24 -25 -26 -27 -28 -29 -30
leaf_value=2.7256287055073821e-05 4.3192831415476229e-06 -8.1961092356212768e-07 -3.2885369961385841e-05 -0.00018971865542473083 -2.2702913452880329e-05 0 -5.7361964649214595e-07 -7.5189785862773376e-06 0 -1.4259801944541386e-05 -2.3764710633106879e-05 1.1355800138381847e-05 6.1838094962028582e-06 3.2617025139353308e-06 0 3.5651712582768365e-06 -3.7556720681706225e-05 5.0047874494555271e-06 0 -1.5036478285828069e-05 -4.63734478241685e-06 1.2925420244014642e-07 2.1301036972760746e-06 -6.5688038805258001e-07 0 0 -3.0394473146674132e-06 0 0
leaf_weight=9973 206 124911 4900 306 1086 1859 101894 95829 203 2914 3135 13015 18779 4916 3405 254279 281 9425 4966 7350 11996 53352 115837 96819 211 136 7928 1045 66
leaf_count=9973 206 124911 4900 306 1086 1859 101894 95829 203 2914 3135 13015 18779 4916 3405 254279 281 9425 4966 7350 11996 53352 115837 96819 211 136 7928 1045 66
internal_value=0 -2.25865e-06 -2.02406e-06 -3.2291e-05 -5.93355e-05 2.46351e-06 -1.48158e-06 -3.79598e-06 -0.000134361 -1.5992e-05 8.55968e-06 1.99959e-06 1.28916e-05 2.03427e-05 -1.10573e-05 1.61422e-06 2.03646e-06 -3.47514e-06 7.58341e-06 -1.06386e-05 0 3.01805e-06 7.95927e-07 -9.18914e-07 -3.11888e-05 -1.56619e-05 -7.44046e-06 0 5.38006e-07
internal_weight=0 457472 454424 3048 1731 493550 438471 220740 509 15953 58189 24521 33668 14889 6540 435361 404731 30630 17981 9209 21421 307631 217731 97100 5111 1222 10842 1317 272
internal_count=951022 457472 454424 3048 1731 493550 438471 220740 509 15953 58189 24521 33668 14889 6540 435361 404731 30630 17981 9209 21421 307631 217731 97100 5111 1222 10842 1317 272
is_linear=0
shrinkage=0.03


Tree=22
num_leaves=31
num_cat=0
split_feature=142 112 8 112 90 64 81 83 69 97 27 23 126 152 60 96 64 11 12 7 88 4 62 112 80 64 46 124 146 116
split_gain=0.00507463 0.00359192 0.00427974 0.00193872 0.00187573 0.00177677 0.00322572 0.00308008 0.00161389 0.00131385 0.00110622 0.000888234 0.000833808 0.000958697 0.000829248 0.000800343 0.00068816 0.000602545 0.000599851 0.000595141 0.000354751 0.000479441 0.000348906 0.000250143 0.000233099 0.000227503 0.000144621 0.000144036 0.000124063 8.0997e-05
threshold=-0.0027790697927070635 0.00088662979414994199 -0.027698686894757237 -0.0026697114245933453 -0.0033818151266732897 0.039291388324932584 0.048577733337879188 0.036026155576109893 -0.026218770071864125 -0.0031003438634797926 -0.033173363655805581 0.04572697542607785 -0.0064680021201405655 -0.003812352725864583 0.00043579594246251173 -0.0010465049447100853 -0.022966576748815005 0.0090129682794213312 0.0010971280708598054 0.0034412471577525143 0.0011727531158689198 0.012913987094735287 -0.0063615703244769293 0.0011403758360007804 0.0035604134945636102 -0.0069772389000648622 0.009148366590657207 -0.027025629881508549 -0.0034451797165300298 -0.00022487404307882663
decision_type=6 6 6 6 6 4 6 6 4 6 4 4 6 6 4 6 6 6 6 6 6 4 6 6 6 4 6 6 6 6
left_child=3 10 4 8 9 7 -7 -4 15 -3 27 14 13 23 -10 26 19 -17 -6 -14 21 -12 -22 -5 -18 -13 -1 -2 -29 -15
right_child=1 2 5 12 18 6 -8 -9 11 -11 20 25 16 29 -16 17 24 -19 -20 -21 22 -23 -24 -25 -26 -27 -28 28 -30 -31
leaf_value=7.3561304320827289e-06 0 -0.00010962857297979912 -2.980614014960751e-06 -5.8158538233561727e-06 -2.233433430787959e-05 -4.5660176867254591e-06 -2.6522801749260045e-05 9.4029250796439274e-06 -2.3837955657574714e-07 0 1.8491979470770051e-06 0 5.2174377326757047e-06 -1.1969239145762453e-06 6.0778252808516178e-06 2.9731139320079592e-05 -1.2545604403176559e-06 0 0 0 -2.3196618895727257e-06 -1.0085514038853622e-06 1.7742771950235836e-06 -2.6796881327267987e-05 2.7259733313434199e-06 1.4609978486825528e-05 0 -1.3852463407749095e-05 -3.5992881704130248e-06 3.1429752045105962e-06
leaf_weight=3587 1927 572 98122 5662 3097 143046 6665 21965 23144 473 249893 1157 73268 4727 49154 5451 45067 426 455 19765 56303 59648 24263 1699 18684 11391 472 4973 9392 6693
leaf_count=3587 1927 572 98122 5662 3097 143046 6665 21965 23144 473 249893 1157 73268 4727 49154 5451 45067 426 455 19765 56303 59648 24263 1699 18684 11391 472 4973 9392 6693
internal_value=0 -1.34448e-06 -4.00171e-06 3.51327e-06 -3.30843e-05 -3.45034e-06 -5.64405e-06 -5.90526e-07 7.01743e-06 -7.38885e-05 4.12751e-07 5.42649e-06 1.53599e-06 -4.16017e-06 3.84847e-06 1.90897e-05 2.31405e-06 2.69749e-05 -1.68243e-05 3.95995e-06 7.67451e-07 1.25005e-06 -9.00553e-07 -1.27017e-05 0 1.33213e-05 3.97143e-06 -7.1589e-06 -8.19431e-06 3.34412e-08
internal_weight=0 680794 274395 270347 4597 269798 149711 120087 94782 1045 406399 84846 175565 18781 72298 9936 156784 5877 3552 93033 390107 309541 80566 7361 63751 12548 4059 16292 14365 11420
internal_count=951141 680794 274395 270347 4597 269798 149711 120087 94782 1045 406399 84846 175565 18781 72298 9936 156784 5877 3552 93033 390107 309541 80566 7361 63751 12548 4059 16292 14365 11420
is_linear=0
shrinkage=0.03


Tree=23
num_leaves=31
num_cat=0
split_feature=142 34 142 112 16 62 3 124 166 80 113 24 72 112 63 82 112 136 94 96 84 154 136 27 171 62 94 114 110 69
split_gain=0.00466273 0.00355173 0.00430772 0.00248788 0.00202811 0.00192674 0.00135022 0.00165258 0.00109639 0.00251389 0.000958788 0.00124633 0.000881458 0.000779147 0.000672403 0.000619564 0.000593984 0.000463112 0.000440302 0.000409803 0.000344308 0.000752188 0.000673281 0.00030549 0.000298415 0.000283234 0.000174839 0.000107187 7.03135e-05 1.52807e-05
threshold=-0.00099657550965450629 -0.067461761185565905 0.0089962963070367649 -0.0020510486580367963 0.019121756707142539 0.0036559037012762019 -0.033245271071791642 0.0029191273157870424 0.0041852698484498843 0.012370498730017472 -0.00019618449732661245 0.0056749368188640714 -0.0058400085060654654 0.00057830811707700947 0.023115514777600769 0.024237046913593827 -0.0026697114245933453 0.0040516020171280981 0.0018577359180469561 0.0039490900050516342 0.0042978068639557138 -0.0064766342767123364 0.00027937590887087347 -0.048702076077461236 -0.01086143311113119 0.005616728269526936 -0.0011326664056138843 -0.013632182623245255 0.00499122302419554 -0.012675530742853878
decision_type=6 4 6 6 4 6 6 4 4 6 6 4 4 6 4 4 6 6 6 6 6 6 4 6 6 4 6 6 6 6
left_child=3 2 18 6 8 16 7 29 9 -3 23 -12 14 17 25 -10 -4 -14 28 -9 22 -22 -8 -6 -16 -5 -15 -20 -2 -1
right_child=1 4 5 12 10 -7 20 19 15 -11 11 -13 13 26 24 -17 -18 -19 27 -21 21 -23 -24 -25 -26 -27 -28 -29 -30 -31
leaf_value=1.7968309118558375e-06 0 -3.8841751020768639e-07 0 -1.1999064630741981e-05 -1.4393422446939337e-05 0 -5.3589812270214594e-07 1.7509030605748897e-05 -1.5658226076038911e-06 1.0804020113383571e-05 -6.3034548500470156e-06 -2.1167669626269452e-05 2.6215918527344179e-06 0 -5.4940390121877735e-06 -6.5946003138286211e-06 -6.9729986423868216e-05 -1.2631685572680135e-06 -1.8958535643321348e-05 5.2579238646381098e-05 9.6473668215825257e-07 1.2241416673508224e-05 4.6957325491388643e-06 1.876669987070233e-07 5.2528303859632759e-06 0 -3.4363156018743233e-06 0 1.0916750780120694e-05 -2.1834132380427155e-06
leaf_weight=2942 2918 135358 234 10050 1323 152 23611 5313 286800 20510 31480 7980 164577 27004 3571 26720 2035 27538 1712 1084 12680 16148 82310 15114 5823 3466 30886 536 529 889
leaf_count=2942 2918 135358 234 10050 1323 152 23611 5313 286800 20510 31480 7980 164577 27004 3571 26720 2035 27538 1712 1084 12680 16148 82310 15114 5823 3466 30886 536 529 889
internal_value=0 -2.01992e-06 -2.18681e-05 2.20968e-06 -1.68461e-06 -5.61371e-05 5.39596e-06 1.64717e-05 -1.004e-06 9.88233e-07 -7.13144e-06 -9.69048e-06 4.62087e-07 1.02838e-06 -5.06241e-06 -2.04229e-06 -6.4233e-05 1.98666e-06 -4.65251e-06 2.58105e-05 4.44371e-06 7.80207e-06 3.38794e-06 -7.50964e-08 0 -9.39174e-06 -1.89266e-06 -1.51963e-05 0 0
internal_weight=0 533401 8116 417892 525285 2421 144977 10228 469388 155868 55897 39460 272915 250005 22910 313520 2269 192115 5695 6397 134749 28828 105921 16437 9394 13516 57890 2248 3447 3831
internal_count=951293 533401 8116 417892 525285 2421 144977 10228 469388 155868 55897 39460 272915 250005 22910 313520 2269 192115 5695 6397 134749 28828 105921 16437 9394 13516 57890 2248 3447 3831
is_linear=0
shrinkage=0.03


Tree=24
num_leaves=28
num_cat=0
split_feature=112 88 143 113 49 173 172 166 142 81 142 152 36 107 60 81 173 82 93 148 88 166 61 136 25 126 126
split_gain=0.00679707 0.00832247 0.0021586 0.00560181 0.00329001 0.00184694 0.00578826 0.00153489 0.00121453 0.00214192 0.0010971 0.00121209 0.00111707 0.00102056 0.000887769 0.000811771 0.00303275 0.000679803 0.000609598 0.000506581 0.000481603 0.00044365 0.000404053 0.000304614 0.000194136 6.01202e-06 2.37616e-05
threshold=-1.0000000180025095e-35 0.0087101089816552565 -0.017489760182797905 -0.015956114977598187 -0.0051050332840532056 -0.0090794167481362802 0.024162678519068153 0.03457426490973272 0.00065013249986191574 0.033935274928808219 0.0042919979280707865 -0.013089254764910843 -0.0010536278478599861 0.0075309523381292829 -0.0005953847026774578 0.00096715390100143861 0.019755598157644275 0.016902993344827817 0.0017256242572329941 -0.0014362105409611462 -0.00029219217467891167 -0.0089281925586550629 -0.0043212424498051396 -0.0016098601887264599 -0.0063290183898061505 0.0024155778198921203 -0.0029330338501869862
decision_type=4 6 6 6 4 6 6 4 6 6 6 4 6 4 4 4 6 6 4 4 4 6 4 4 6 6 6
left_child=2 7 3 4 -1 25 -7 15 18 -10 12 13 20 -12 24 17 -17 -2 -9 -6 -4 -14 -13 -16 -5 26 -3
right_child=1 5 10 14 19 6 -8 8 9 -11 11 22 21 -15 23 16 -18 -19 -20 -21 -22 -23 -24 -25 -26 -27 -28
leaf_value=5.8640190386272653e-05 -2.849036622025202e-06 -7.3427585689195194e-06 2.6744128356062975e-06 0 0 -3.81895311617572e-05 -0.00020392923204648751 -2.752018009325129e-06 -4.2720257337667317e-06 -1.7133270839115383e-05 -2.8850754093930186e-05 5.8544925534193643e-06 4.2260539084168539e-06 0 0 -9.9932420179205217e-07 1.1193780408446683e-05 1.143188175171597e-05 2.1712233584761607e-06 1.9077170744166493e-05 -1.1515530001777349e-06 1.4797716019118134e-06 -2.9110459614102235e-06 8.512168052717039e-06 -7.6272024803545046e-06 0 0
leaf_weight=3123 94324 495 42881 3029 1288 2285 285 68511 134807 13967 2833 5452 187392 961 3268 84278 22964 2726 30716 1713 95560 101903 22180 18989 4916 312 273
leaf_count=3123 94324 495 42881 3029 1288 2285 285 68511 134807 13967 2833 5452 187392 961 3268 84278 22964 2726 30716 1713 95560 101903 22180 18989 4916 312 273
internal_value=0 -2.64711e-06 2.42861e-06 9.568e-06 3.60312e-05 -4.79574e-05 -6.25455e-05 -2.24808e-06 -3.83905e-06 -5.58048e-06 1.83108e-06 -3.39215e-06 2.24992e-06 -1.94853e-05 3.70345e-06 -2.43271e-07 1.47191e-06 -2.29312e-06 -1.07684e-06 7.48474e-06 0 3.31055e-06 -6.38432e-07 7.03581e-06 -3.74368e-06 0 -2.65086e-06
internal_weight=0 455943 495488 36326 6124 3650 2570 452293 248001 148774 459162 31426 427736 3794 30202 204292 107242 97050 99227 3001 138441 289295 27632 22257 7945 1080 768
internal_count=951431 455943 495488 36326 6124 3650 2570 452293 248001 148774 459162 31426 427736 3794 30202 204292 107242 97050 99227 3001 138441 289295 27632 22257 7945 1080 768
is_linear=0
shrinkage=0.03


Tree=25
num_leaves=28
num_cat=0
split_feature=112 88 128 92 21 122 70 142 136 158 51 172 85 142 64 56 82 34 97 2 116 65 65 118 142 2 61
split_gain=0.00461627 0.00316944 0.00470453 0.00237586 0.00233006 0.00219066 0.00162791 0.00124907 0.00122194 0.00163704 0.00120657 0.00169275 0.00117857 0.000840574 0.000997196 0.000740109 0.00073743 0.00461108 0.00061478 0.000602599 0.000448963 0.000443448 0.000405126 0.000346837 0.000289516 0.000234807 3.89402e-05
threshold=-0.001791097658258645 0.0014945334543309647 0.012808427779019246 -0.012612435477453625 -0.016954134218394753 -0.0008662688771419872 -0.052407958039668072 0.0028546463506252773 0.0005663025304776622 -0.0071515098130059025 0.023700567893683914 0.0053376823915607507 0.00068807532079517852 -0.0038834298416146745 0.00073187170206651423 0.0084520420543044931 0.01070857833306914 -0.028174941503276384 -0.0025601725792512293 -0.018172549834329279 0.011113664428801405 -0.014328239951282738 0.02547470293939114 -0.00018648819365827847 0.0029722034498644383 -0.014801683091652505 0.0060773224104195842
decision_type=4 4 4 6 6 6 6 6 4 6 6 6 6 6 6 6 6 6 6 4 4 6 4 4 6 6 4
left_child=3 10 7 6 5 -4 -1 23 9 15 16 21 -13 14 -10 -5 19 -18 -8 -2 -15 -12 -20 -3 -11 -9 -6
right_child=1 2 4 8 26 -7 18 25 13 24 11 12 -14 20 -16 -17 17 -19 22 -21 -22 -23 -24 -25 -26 -27 -28
leaf_value=0.00014021288273039428 -5.8811526971265615e-06 1.2693713756970627e-06 -0.00010478172107249831 -1.3106224917542698e-05 -1.1393745869173738e-05 -1.1521476319428277e-05 0 -1.4245986485956133e-05 8.6886773009760468e-06 3.8745819329111646e-06 1.6217443145651208e-06 0 -1.7265492747291657e-05 2.9308855810553446e-06 0 0 8.1918370230592234e-05 1.6999874974883552e-06 5.1817487524661871e-05 -1.3156140961872943e-07 -5.6571384891678817e-06 -3.6309390351377382e-06 0 -3.0934700825976912e-06 -2.6695746960209678e-06 -6.4752506997546874e-06 0
leaf_weight=196 17501 15306 869 10502 1019 891 377 10591 64715 37572 22972 4499 12248 67402 17077 5809 657 115425 420 396156 4895 30583 277 77568 4451 29892 916
leaf_count=196 17501 15306 869 10502 1019 891 377 10591 64715 37572 22972 4499 12248 67402 17077 5809 657 115425 420 396156 4895 30583 277 77568 4451 29892 916
internal_value=0 -1.27835e-06 -5.40155e-06 3.72686e-06 -3.9301e-05 -6.61484e-05 4.55804e-05 -4.34922e-06 3.40559e-06 -4.40027e-08 -3.11578e-07 -4.01274e-06 -1.24376e-05 4.80885e-06 6.98278e-06 -8.35302e-06 1.51304e-07 2.28463e-06 1.41413e-05 -4.11104e-07 2.14181e-06 -1.09779e-06 3.31572e-05 -2.21294e-06 2.82441e-06 -8.87931e-06 -7.09466e-06
internal_weight=0 737093 137052 213693 3695 1760 1270 133357 212423 58334 600041 70302 16747 154089 81792 16311 529739 116082 1074 413657 72297 53555 697 92874 42023 40483 1935
internal_count=950786 737093 137052 213693 3695 1760 1270 133357 212423 58334 600041 70302 16747 154089 81792 16311 529739 116082 1074 413657 72297 53555 697 92874 42023 40483 1935
is_linear=0
shrinkage=0.03


Tree=26
num_leaves=31
num_cat=0
split_feature=112 84 17 126 124 116 172 137 64 83 155 143 25 148 86 52 172 148 113 9 88 12 84 9 25 64 57 90 124 80
split_gain=0.0059814 0.00390938 0.00323112 0.00545132 0.00191058 0.00170247 0.00367841 0.00803379 0.00204276 0.00210971 0.0015749 0.00139225 0.00133312 0.00100079 0.000975244 0.000794539 0.000700258 0.000663641 0.00298334 0.000585761 0.00046429 0.000429339 0.000411631 0.000351487 0.000274532 0.000160829 0.000122824 0.000110407 7.49281e-05 5.11478e-05
threshold=0.00090795213811761084 -0.0090495092480473212 -0.14876018464565274 -0.0088939370249217723 0.0011635777972979924 -0.018454139190905588 0.016007106166767909 -0.0052506502252072087 0.018085521252204435 -0.00064521978492848564 -0.01488390378654003 -0.010029729455709456 -0.0042177147697657338 0.023689959726254938 0.00033698902876586853 0.0347731770930697 -0.0023036075370175156 0.0049481944182403854 -0.0094387116841971857 0.0046690609306097039 0.0013681071947697903 0.00019053966488906157 -0.0017151759700520411 0.0029307531658560042 -0.00034484249772503967 -0.0031077034724927431 0.0058018614072352656 0.00046565511145594212 -0.00031065977334275525 0.0003708995895953156
decision_type=6 6 6 6 4 4 6 4 4 6 6 6 6 6 4 6 6 6 6 6 6 6 4 4 4 6 6 6 4 6
left_child=11 2 3 4 -2 6 24 -8 9 -7 27 12 17 16 19 -10 22 25 -19 -14 -15 -16 -13 -18 -3 -1 -5 -4 -12 -22
right_child=1 5 10 26 -6 8 7 -9 15 -11 28 13 14 20 21 -17 23 18 -20 -21 29 -23 -24 -25 -26 -27 -28 -29 -30 -31
leaf_value=6.717175525542843e-06 0 2.906820453006497e-07 -4.0069729695846944e-05 -1.6124174454040559e-05 -0.00024483125639147797 -3.7509022073961899e-06 -0.0001608532491687377 0 -3.6941276236598521e-06 4.7428400287257798e-06 -8.9809571935621242e-06 0 -4.2117791252817609e-06 0 1.053930525612064e-06 -1.2950170978305375e-05 9.0607969679013915e-07 3.6224580374660031e-05 3.8728609069879793e-06 2.9191528234297921e-06 -1.9746913372211933e-05 1.0501725782995261e-05 3.05142711242073e-06 -1.1980837772152155e-06 -1.1249270764557917e-05 0 0 -1.0819633910086975e-05 -1.3502131319340226e-07 0
leaf_weight=19387 192 1026 2098 946 204 46390 483 341 163584 58807 3473 48677 22448 3023 12433 10480 205815 4394 9339 17506 3016 13279 178423 106869 2145 5590 100 2158 6963 1422
leaf_count=19387 192 1026 2098 946 204 46390 483 341 163584 58807 3473 48677 22448 3023 12433 10480 205815 4394 9339 17506 3016 13279 178423 106869 2145 5590 100 2158 6963 1422
internal_value=0 -3.54691e-06 -1.8074e-05 -6.36947e-05 -0.000163417 -2.66638e-06 -2.25501e-05 -8.02415e-05 -2.32806e-06 8.54664e-07 -1.25674e-05 1.57537e-06 4.78642e-06 9.35496e-07 1.89031e-06 -4.33773e-06 1.11135e-06 9.31143e-06 1.532e-05 -7.11931e-07 -9.77399e-06 6.51704e-06 2.38415e-06 1.38945e-07 -2.79022e-06 5.40632e-06 -1.13887e-05 -2.87733e-05 -4.51708e-06 -1.59589e-05
internal_weight=0 299390 16134 1442 396 283256 3995 824 279261 105197 14692 651621 104376 547245 65666 174064 539784 38710 13733 39954 7461 25712 227100 312684 3171 24977 1046 4256 10436 4438
internal_count=951011 299390 16134 1442 396 283256 3995 824 279261 105197 14692 651621 104376 547245 65666 174064 539784 38710 13733 39954 7461 25712 227100 312684 3171 24977 1046 4256 10436 4438
is_linear=0
shrinkage=0.03


Tree=27
num_leaves=29
num_cat=0
split_feature=112 72 112 15 112 18 107 15 24 83 17 78 74 81 136 142 136 142 136 95 36 93 125 30 172 120 40 22
split_gain=0.00546289 0.00418478 0.00470151 0.00573501 0.00349262 0.00407376 0.0037408 0.00168502 0.00165126 0.00365948 0.00708814 0.00323604 0.00138803 0.00107174 0.000990205 0.00078923 0.000659449 0.0011695 0.000593477 0.000563284 0.000539321 0.000435851 0.000311004 0.000260594 0.000233054 0.000169504 0.000144612 7.10324e-05
threshold=-0.00061911134499380088 -0.0074984478154734311 0.0093653414064858425 0.0021427546162158255 -0.020264453503061098 -0.00080926998312458147 0.0024923628661781554 -0.055004833266139024 0.0040544693603791647 0.050960663706064231 -0.0097795831970870477 0.0071471794758341776 0.00086835064616776626 -0.00035876511537935579 0.00019558942151944467 -0.0031820364027444945 -0.0088935604163135479 0.0019567674209685672 -0.0073313646486577663 -3.8016674807295196e-05 -0.00042158953082218725 0.00061649805866181861 -0.021578019484877583 0.0066371828818159928 -0.011450119564900333 0.00090288295271723142 -0.018953074556515563 0.0094280644074695597
decision_type=6 6 4 6 6 6 4 6 4 4 6 6 6 6 6 4 4 6 6 6 6 6 6 4 6 6 6 6
left_child=4 2 19 7 5 6 -1 -4 9 20 -11 21 -5 -8 -13 18 17 -17 23 27 -3 -10 -18 -6 -21 -20 -7 -2
right_child=1 8 3 12 15 26 13 -9 11 10 -12 14 -14 -15 -16 16 22 -19 25 24 -22 -23 -24 -25 -26 -27 -28 -29
leaf_value=0 -1.4288710379165588e-05 -2.2274733819916716e-06 -0.00015109314675115998 -1.403681226924996e-05 4.7840248268683175e-06 9.7674080119331324e-07 0.00014376517733053268 -3.1550730343694696e-05 -3.2202845400234621e-06 5.7148566444970081e-05 4.6956332557027049e-06 -1.641444244189708e-05 6.745719994755797e-05 0 0 0 -9.1386433494784475e-07 -1.7127235773270936e-05 2.7524309189646683e-06 1.8671937754126245e-06 0 1.155842322120842e-06 2.2534318527147554e-06 1.0929534512008502e-05 -5.3228158680310832e-06 0 -1.647549735718716e-05 -1.7681441480164664e-06
leaf_weight=317 15278 180887 541 175 90234 134 560 665 43498 2652 27770 21434 265 57 4585 9245 26193 4683 48766 1626 213108 32222 163946 12068 19306 23960 477 3403
leaf_count=317 15278 180887 541 175 90234 134 560 665 43498 2652 27770 21434 265 57 4585 9245 26193 4683 48766 1626 213108 32222 163946 12068 19306 23960 477 3403
internal_value=0 -1.82734e-06 -1.10673e-05 -6.22338e-05 2.81782e-06 4.83602e-05 8.82181e-05 -9.77549e-05 -1.07424e-06 -2.14118e-07 9.76464e-06 -4.51483e-06 1.1913e-06 0.000131175 -1.37007e-05 2.59239e-06 1.21801e-06 -4.80606e-06 4.10907e-06 -8.55951e-06 -1.02274e-06 -1.15999e-06 1.73822e-06 5.6558e-06 -4.04763e-06 1.72697e-06 0 -1.28112e-05
internal_weight=0 567415 41259 1646 380640 1545 934 1206 526156 424417 30422 101739 440 617 26019 379095 204067 13928 175028 39613 393995 75720 190139 102302 20932 72726 611 18681
internal_count=948055 567415 41259 1646 380640 1545 934 1206 526156 424417 30422 101739 440 617 26019 379095 204067 13928 175028 39613 393995 75720 190139 102302 20932 72726 611 18681
is_linear=0
shrinkage=0.03


Tree=28
num_leaves=30
num_cat=0
split_feature=112 54 11 142 24 12 83 29 128 142 94 142 85 104 97 16 71 173 153 154 117 166 97 136 124 62 142 62 62
