tree
version=v4
num_class=1
num_tree_per_iteration=1
label_index=0
max_feature_idx=173
objective=regression
feature_names=log_close/mean_60_id0 log_return_60_id0 log_close/mean_300_id0 log_return_300_id0 log_close/mean_900_id0 log_return_900_id0 log_close/mean_60_id1 log_return_60_id1 log_close/mean_300_id1 log_return_300_id1 log_close/mean_900_id1 log_return_900_id1 log_close/mean_60_id2 log_return_60_id2 log_close/mean_300_id2 log_return_300_id2 log_close/mean_900_id2 log_return_900_id2 log_close/mean_60_id3 log_return_60_id3 log_close/mean_300_id3 log_return_300_id3 log_close/mean_900_id3 log_return_900_id3 log_close/mean_60_id4 log_return_60_id4 log_close/mean_300_id4 log_return_300_id4 log_close/mean_900_id4 log_return_900_id4 log_close/mean_60_id5 log_return_60_id5 log_close/mean_300_id5 log_return_300_id5 log_close/mean_900_id5 log_return_900_id5 log_close/mean_60_id6 log_return_60_id6 log_close/mean_300_id6 log_return_300_id6 log_close/mean_900_id6 log_return_900_id6 log_close/mean_60_id7 log_return_60_id7 log_close/mean_300_id7 log_return_300_id7 log_close/mean_900_id7 log_return_900_id7 log_close/mean_60_id8 log_return_60_id8 log_close/mean_300_id8 log_return_300_id8 log_close/mean_900_id8 log_return_900_id8 log_close/mean_60_id9 log_return_60_id9 log_close/mean_300_id9 log_return_300_id9 log_close/mean_900_id9 log_return_900_id9 log_close/mean_60_id10 log_return_60_id10 log_close/mean_300_id10 log_return_300_id10 log_close/mean_900_id10 log_return_900_id10 log_close/mean_60_id11 log_return_60_id11 log_close/mean_300_id11 log_return_300_id11 log_close/mean_900_id11 log_return_900_id11 log_close/mean_60_id12 log_return_60_id12 log_close/mean_300_id12 log_return_300_id12 log_close/mean_900_id12 log_return_900_id12 log_close/mean_60_id13 log_return_60_id13 log_close/mean_300_id13 log_return_300_id13 log_close/mean_900_id13 log_return_900_id13 mean_close/mean_60 mean_log_returns_60 log_close/mean_60-mean_close/mean_60_id0 log_return_60-mean_log_returns_60_id0 log_close/mean_60-mean_close/mean_60_id1 log_return_60-mean_log_returns_60_id1 log_close/mean_60-mean_close/mean_60_id2 log_return_60-mean_log_returns_60_id2 log_close/mean_60-mean_close/mean_60_id3 log_return_60-mean_log_returns_60_id3 log_close/mean_60-mean_close/mean_60_id4 log_return_60-mean_log_returns_60_id4 log_close/mean_60-mean_close/mean_60_id5 log_return_60-mean_log_returns_60_id5 log_close/mean_60-mean_close/mean_60_id6 log_return_60-mean_log_returns_60_id6 log_close/mean_60-mean_close/mean_60_id7 log_return_60-mean_log_returns_60_id7 log_close/mean_60-mean_close/mean_60_id8 log_return_60-mean_log_returns_60_id8 log_close/mean_60-mean_close/mean_60_id9 log_return_60-mean_log_returns_60_id9 log_close/mean_60-mean_close/mean_60_id10 log_return_60-mean_log_returns_60_id10 log_close/mean_60-mean_close/mean_60_id11 log_return_60-mean_log_returns_60_id11 log_close/mean_60-mean_close/mean_60_id12 log_return_60-mean_log_returns_60_id12 log_close/mean_60-mean_close/mean_60_id13 log_return_60-mean_log_returns_60_id13 mean_close/mean_300 mean_log_returns_300 log_close/mean_300-mean_close/mean_300_id0 log_return_300-mean_log_returns_300_id0 log_close/mean_300-mean_close/mean_300_id1 log_return_300-mean_log_returns_300_id1 log_close/mean_300-mean_close/mean_300_id2 log_return_300-mean_log_returns_300_id2 log_close/mean_300-mean_close/mean_300_id3 log_return_300-mean_log_returns_300_id3 log_close/mean_300-mean_close/mean_300_id4 log_return_300-mean_log_returns_300_id4 log_close/mean_300-mean_close/mean_300_id5 log_return_300-mean_log_returns_300_id5 log_close/mean_300-mean_close/mean_300_id6 log_return_300-mean_log_returns_300_id6 log_close/mean_300-mean_close/mean_300_id7 log_return_300-mean_log_returns_300_id7 log_close/mean_300-mean_close/mean_300_id8 log_return_300-mean_log_returns_300_id8 log_close/mean_300-mean_close/mean_300_id9 log_return_300-mean_log_returns_300_id9 log_close/mean_300-mean_close/mean_300_id10 log_return_300-mean_log_returns_300_id10 log_close/mean_300-mean_close/mean_300_id11 log_return_300-mean_log_returns_300_id11 log_close/mean_300-mean_close/mean_300_id12 log_return_300-mean_log_returns_300_id12 log_close/mean_300-mean_close/mean_300_id13 log_return_300-mean_log_returns_300_id13 mean_close/mean_900 mean_log_returns_900 log_close/mean_900-mean_close/mean_900_id0 log_return_900-mean_log_returns_900_id0 log_close/mean_900-mean_close/mean_900_id1 log_return_900-mean_log_returns_900_id1 log_close/mean_900-mean_close/mean_900_id2 log_return_900-mean_log_returns_900_id2 log_close/mean_900-mean_close/mean_900_id3 log_return_900-mean_log_returns_900_id3 log_close/mean_900-mean_close/mean_900_id4 log_return_900-mean_log_returns_900_id4 log_close/mean_900-mean_close/mean_900_id5 log_return_900-mean_log_returns_900_id5 log_close/mean_900-mean_close/mean_900_id6 log_return_900-mean_log_returns_900_id6 log_close/mean_900-mean_close/mean_900_id7 log_return_900-mean_log_returns_900_id7 log_close/mean_900-mean_close/mean_900_id8 log_return_900-mean_log_returns_900_id8 log_close/mean_900-mean_close/mean_900_id9 log_return_900-mean_log_returns_900_id9 log_close/mean_900-mean_close/mean_900_id10 log_return_900-mean_log_returns_900_id10 log_close/mean_900-mean_close/mean_900_id11 log_return_900-mean_log_returns_900_id11 log_close/mean_900-mean_close/mean_900_id12 log_return_900-mean_log_returns_900_id12 log_close/mean_900-mean_close/mean_900_id13 log_return_900-mean_log_returns_900_id13
feature_infos=[-0.19868176807752194:0.14978027046349482] [-0.2908763587474823:0.31803938746452332] [-0.35128862017276341:0.2220821040384173] [-0.45682042837142944:0.34279632568359375] [-0.45705708696431668:0.31386048036320729] [-0.54000300168991089:0.5533481240272522] [-0.14567902160380056:0.14206078084975579] [-0.20078793168067932:0.28130057454109192] [-0.20605952492678964:0.14670695332147277] [-0.30274075269699097:0.26722568273544312] [-0.31323796572578266:0.18453981680749398] [-0.47424328327178955:0.28597432374954224] [-0.31038157641878239:0.13301487623560779] [-0.33726653456687927:0.29885813593864441] [-0.42376710400673467:0.22060081668041945] [-0.47162866592407227:0.41455551981925964] [-0.49840475042281623:0.30495768950794416] [-0.60054647922515869:0.44511160254478455] [-0.23307014059090653:0.15518355782673446] [-0.28933367133140564:0.33215472102165222] [-0.33402096136134213:0.17275730504362347] [-0.40068191289901733:0.42395547032356262] [-0.40690759817092165:0.18523179658136893] [-0.52839255332946777:0.37478163838386536] [-0.30325133436577933:0.40428131521579802] [-0.51328808069229126:0.63543152809143066] [-0.41374647910184714:0.67417134065072615] [-0.65023016929626465:1.1424802541732788] [-0.482609342411631:1.0687203886478325] [-0.72230356931686401:1.9248620271682739] [-0.31055279386212298:0.13834405781933223] [-0.38001567125320435:0.26820307970046997] [-0.41640238025653514:0.22766206164817485] [-0.49443730711936951:0.39813020825386047] [-0.50260291143879898:0.33336332370018046] [-0.63070917129516602:0.4624665379524231] [-0.16729576707481886:0.14595276340380073] [-0.25029107928276062:0.3378961980342865] [-0.27690182885304848:0.18058453507302202] [-0.3380122184753418:0.32550549507141113] [-0.36260317688839772:0.16679090999038479] [-0.4805368185043335:0.29365867376327515] [-0.26752199047750902:0.17281515915476647] [-0.30071547627449036:0.36614310741424561] [-0.39516704526063717:0.27353364687961695] [-0.45068976283073425:0.43738949298858643] [-0.48084132455841672:0.35419942476710925] [-0.59677374362945557:0.49185830354690552] [-0.31742269995713057:0.14251330930804532] [-0.46515700221061707:0.3198096752166748] [-0.51703428388060924:0.22104043676856339] [-0.62246471643447876:0.38721725344657898] [-0.62307288926157478:0.30803790778936835] [-0.73226988315582275:0.48371738195419312] [-0.26908071830553676:0.13414339445522622] [-0.39899703860282898:0.29390084743499756] [-0.42663882433190647:0.14025636274540143] [-0.50995415449142456:0.28211051225662231] [-0.5039413700012072:0.20759375996723969] [-0.60355192422866821:0.33466389775276184] [-0.23818713248893189:0.25839624386997351] [-0.35745590925216675:0.38075369596481323] [-0.41473064185190484:0.27623432648190599] [-0.5488935112953186:0.42322754859924316] [-0.43656267433134888:0.35593669184745302] [-0.82452213764190674:0.63517379760742188] [-0.27483390293261473:0.15906672934740687] [-0.40674448013305664:0.29491055011749268] [-0.44086093007403798:0.13264179401991313] [-0.51909422874450684:0.35062021017074585] [-0.54330000198245376:0.16769181113352924] [-0.6690247654914856:0.37979081273078918] [-0.34648344688391558:0.17470515247634433] [-0.38833212852478027:0.37803247570991516] [-0.46423239004375905:0.29668879453019553] [-0.52599066495895386:0.44213518500328064] [-0.53541640342934849:0.47173543201660961] [-0.62878608703613281:0.63581192493438721] [-0.18893057901990287:0.22645327612995769] [-0.25939750671386719:0.3135034441947937] [-0.30898913109255488:0.31333864936145939] [-0.37642344832420349:0.34380844235420227] [-0.3916167928389509:0.34296281771245279] [-0.50230824947357178:0.36377629637718201] [-0.24448485930612587:0.12461815450277326] [-0.31486096978187561:0.26400882005691528] [-0.10214403339103181:0.1213701796984186] [-0.14799953997135162:0.15357695519924164] [-0.05938501132785038:0.16049339959629552] [-0.17974770069122314:0.17572081089019775] [-0.091587793937298656:0.10165232054119583] [-0.11083169281482697:0.15428173542022705] [-0.1081450885844108:0.11803183851003253] [-0.11044330894947052:0.1501862108707428] [-0.21323709960688259:0.37392377578547509] [-0.48016372323036194:0.58796674013137817] [-0.10036081237511735:0.11874154597750716] [-0.13005220890045166:0.21840295195579529] [-0.065423605636918097:0.077189092231307016] [-0.064227215945720673:0.090851917862892151] [-0.10983549186449904:0.14811620941575357] [-0.17692123353481293:0.2269572913646698] [-0.11222291949197616:0.097257192116125393] [-0.15487399697303772:0.13728775084018707] [-0.083188179213588953:0.059547045138614307] [-0.10204726457595825:0.10976932942867279] [-0.21548595953713315:0.229884917985679] [-0.31419992446899414:0.40247169137001038] [-0.0732935975581996:0.079763773884462943] [-0.11425380408763885:0.10421265661716461] [-0.10199858757778971:0.16834455610407742] [-0.12224695086479187:0.22064037621021271] [-0.07132400984259496:0.20486314762520322] [-0.13654693961143494:0.2948545515537262] [-0.35159786701242612:0.1235045268015673] [-0.42809122800827026:0.33837598562240601] [-0.16359976030568274:0.21893610057343793] [-0.18444961309432983:0.28611713647842407] [-0.055340333825916063:0.22649239561489279] [-0.15163929760456085:0.25352692604064941] [-0.098238805609804414:0.1603257636304693] [-0.1843966543674469:0.21158233284950256] [-0.10772166147095794:0.15823064464615577] [-0.12169142812490463:0.19081428647041321] [-0.39219786633895565:0.61683134049458044] [-0.62559783458709717:1.0649678707122803] [-0.12095884818791411:0.2008024753279132] [-0.14049446582794189:0.35193678736686707] [-0.052081329890024161:0.10097390661097069] [-0.098617635667324066:0.13604684174060822] [-0.13711184205046734:0.22148575445386093] [-0.18956328928470612:0.33848506212234497] [-0.18339954117529456:0.20457120838371237] [-0.22227783501148224:0.29499062895774841] [-0.088181025505349703:0.09842957317851328] [-0.11431489884853363:0.1113269180059433] [-0.28282331137835992:0.25932884783098026] [-0.30604538321495056:0.36788350343704224] [-0.12089655042465433:0.10664627600293375] [-0.22406260669231415:0.14135298132896423] [-0.11952929988694044:0.25677916214622643] [-0.18301452696323395:0.36397045850753784] [-0.1329905034554297:0.27102475582026508] [-0.18433228135108948:0.28056344389915466] [-0.43823385144389665:0.15170082243176369] [-0.55317693948745728:0.32655730843544006] [-0.16033159975988118:0.28933873749997546] [-0.19133137166500092:0.50562202930450439] [-0.093230234852532082:0.26808442664415433] [-0.16498772799968719:0.30882757902145386] [-0.10190543154451859:0.21784763121210404] [-0.17256926000118256:0.3219563364982605] [-0.11436353523889298:0.17645862450504662] [-0.18114535510540009:0.2303193211555481] [-0.40054985911333624:0.98750698531579406] [-0.62116575241088867:1.7668718099594116] [-0.13903070032972201:0.27927562612368567] [-0.21342490613460541:0.37284040451049805] [-0.098039276554232918:0.11270344564121984] [-0.17454710602760315:0.14632630348205566] [-0.15212417369945536:0.33461501208624722] [-0.22185300290584564:0.45429447293281555] [-0.21995740461437863:0.27436112468672463] [-0.22791194915771484:0.4163072407245636] [-0.093379925520414006:0.11349676322774442] [-0.13749343156814575:0.17052073776721954] [-0.26030137576096374:0.29876199684257032] [-0.53140568733215332:0.42454037070274353] [-0.16905950402469622:0.1413886318686475] [-0.22618229687213898:0.21099632978439331] [-0.12157488837282621:0.40126547895236775] [-0.18448701500892639:0.53914278745651245] [-0.15958255569139787:0.28088000218368142] [-0.25326845049858093:0.33535650372505188]
tree_sizes=3306 3295 3058 3227 3286 3170 3029 3110 3182 3219 3262 2847 2982 3243

Tree=0
num_leaves=31
num_cat=0
split_feature=87 136 116 84 118 25 149 90 136 4 41 64 86 22 71 34 11 2 146 3 95 86 154 84 162 167 129 27 63 41
split_gain=0.0126955 0.00517734 0.00797105 0.00593326 0.00363801 0.00233097 0.00188022 0.00186598 0.00175248 0.00189344 0.00185554 0.00157304 0.00151979 0.00215274 0.00117972 0.0028436 0.00163787 0.00107942 0.00105578 0.00103588 0.00138511 0.000982921 0.000740411 0.000727916 0.000475508 0.00040356 0.000344164 0.000298598 0.000156591 0.000107407
threshold=-0.005903461715206503 -0.003063476074918988 -0.016907138376676439 -0.0086289430624275788 0.0029246892585822215 -0.0038257911801338191 -0.00050019333139061917 0.00076644967004665964 -0.025347164678315281 0.036816537825523889 0.033697636798024184 -0.0056173110985426105 -0.0014131100333649412 -0.013542904391795679 0.11020729690790178 0.014507490393501387 0.018770447932183746 -0.015217603761945085 -0.0047852938326874254 0.0011306567466817798 -0.0035847394028678532 0.0018251420625672282 0.012772802730580018 -0.0024874228173284861 0.0022593455375290246 -0.07180261984467505 0.00069499411620199691 0.0055635487660765657 -0.050517274066805833 0.066709529608488097
decision_type=6 4 6 6 6 4 6 6 6 6 6 4 6 6 6 6 6 6 4 4 6 6 4 6 6 4 6 6 6 6
left_child=1 6 3 26 14 28 11 27 12 18 -11 24 22 -14 19 29 -17 -5 -10 21 -21 -2 -6 -7 -1 -13 -3 -8 -4 -16
right_child=4 2 5 17 8 23 7 -9 9 10 -12 25 13 -15 15 16 -18 -19 -20 20 -22 -23 -24 -25 -26 -27 -28 -29 -30 -31
leaf_value=3.1929922987553004e-05 3.8869631881852963e-05 5.8565473185498684e-05 6.7034114755031319e-05 8.0440117379267827e-05 3.5736821980024273e-05 5.6535266171099633e-05 3.9742775235911354e-05 5.9166017110895744e-05 4.118583343553036e-05 7.8741838847740439e-05 3.9602905588017543e-05 2.0183687590447564e-05 2.1563752439391318e-05 3.3764273190700819e-05 2.307036981020552e-05 3.9602905588017543e-05 8.823202454538541e-05 5.3697944461144679e-05 3.454741617962877e-05 4.3028447326303849e-05 3.9081085870351798e-05 3.4154614695700352e-05 5.0324621968331081e-05 4.4398358297907251e-05 4.7282805159302334e-06 3.9899583329768385e-05 0.00017883831498158553 2.9200636997320592e-05 5.3142629466689317e-05 3.9602905588017543e-05
leaf_weight=3482 248064 368 6256 4695 11456 6347 4501 5875 26749 1892 2193 959 22885 44017 1067 572 2056 5372 70765 121019 222393 50399 4305 55884 2284 9764 663 2672 9490 227
leaf_count=3482 248064 368 6256 4695 11456 6347 4501 5875 26749 1892 2193 959 22885 44017 1067 572 2056 5372 70765 121019 222393 50399 4305 55884 2284 9764 663 2672 9490 227
internal_value=3.96029e-05 4.88634e-05 5.2489e-05 7.67351e-05 3.83718e-05 4.8845e-05 3.84372e-05 4.63298e-05 3.46509e-05 3.74919e-05 5.69605e-05 3.1282e-05 3.13407e-05 2.93663e-05 3.94567e-05 5.5796e-05 7.55192e-05 6.76652e-05 3.65222e-05 3.93334e-05 4.04285e-05 3.80232e-05 3.96029e-05 4.58777e-05 1.8546e-05 3.95316e-05 0.000150549 3.79045e-05 5.96171e-05 2.73203e-05
internal_weight=0 118612 89075 11098 830059 77977 29537 13048 184262 101599 4085 16489 82663 66902 645797 3922 2628 10067 97514 641875 343412 298463 15761 62231 5766 10723 1031 7173 15746 1294
internal_count=948671 118612 89075 11098 830059 77977 29537 13048 184262 101599 4085 16489 82663 66902 645797 3922 2628 10067 97514 641875 343412 298463 15761 62231 5766 10723 1031 7173 15746 1294
is_linear=0
shrinkage=1


Tree=1
num_leaves=31
num_cat=0
split_feature=86 85 87 118 116 61 95 27 168 48 143 120 64 116 155 148 136 62 48 117 154 146 172 116 94 137 155 60 84 60
split_gain=0.00752415 0.00508241 0.00385153 0.00350535 0.00330271 0.003112 0.00302857 0.00290085 0.00415723 0.00434577 0.00251564 0.00198874 0.00191759 0.00190739 0.00289142 0.0016775 0.00166765 0.00166734 0.00204316 0.00157507 0.00119979 0.00104046 0.00102849 0.00100436 0.00110195 0.000991156 0.000901266 0.00081176 0.000539911 0.000682351
threshold=-0.00041681184468372526 -0.013198256026953457 -0.0085075059905648214 0.0075067382374635894 -0.0010290808590897461 -0.034337766468524926 -0.0050740216393023721 -0.032017948105931275 -0.011625351867048139 -0.0026455396199554673 -0.0048910148907452813 -0.0020744418710195015 0.027949772134106644 0.020105457063421445 0.010539378039538862 -0.0029573818729145278 -0.0035751401221137641 0.0039640933645586863 -0.0073555392366999135 -0.010943464469164608 -0.037291944305976633 -0.0075183376472761094 0.012815199819594529 -0.00053193043085602079 0.00011899157021982175 -0.015399828553199766 0.0074761537835001954 -0.00416586195737548 -0.0039726658848888352 -0.014778663946173257
decision_type=6 4 6 6 6 4 6 6 6 6 6 6 4 4 6 6 4 4 6 6 4 6 4 4 4 6 4 4 6 6
left_child=1 7 10 6 5 19 13 8 16 -10 11 -3 -12 20 -15 22 -1 21 -19 -5 -2 -6 -8 24 -4 -17 -25 -7 29 -9
right_child=3 2 23 4 17 27 15 28 9 -11 12 -13 -14 14 -16 25 -18 18 -20 -21 -22 -23 -24 26 -26 -27 -28 -29 -30 -31
leaf_value=-5.2575001864582033e-05 1.7204549821458561e-05 -9.4151439498299635e-06 4.0241497247821973e-06 0.00012073182115422589 1.1435680425221298e-05 1.2312374917516597e-05 -1.2611416965681229e-06 1.9831961846297898e-05 5.9011574158761884e-05 0 4.7145211415105634e-06 8.1312604489634492e-06 2.092899796531005e-05 5.8495636073864915e-06 5.6239859384592624e-05 -6.5046076615592646e-06 9.8316076874853876e-06 -4.4945599180862218e-05 -1.4748864951215261e-05 0 4.0633430137008489e-07 -1.1087548811199454e-05 6.8885687469378996e-06 -3.4805059765318736e-06 0 -2.4243058788017973e-06 2.092080442386722e-06 -6.306961732295083e-06 -2.2906361813856804e-06 5.2585636178103331e-07
leaf_weight=528 4087 8717 121348 290 1452 2683 104058 4499 4536 914 13996 16067 19883 7147 1447 121894 686 3902 9919 257 109182 15599 16023 70716 112386 124693 37969 8159 1594 5409
leaf_count=528 4087 8717 121348 290 1452 2683 104058 4499 4536 914 13996 16067 19883 7147 1447 121894 686 3902 9919 257 109182 15599 16023 70716 112386 124693 37969 8159 1594 5409
internal_value=0 2.91711e-06 2.17167e-06 -2.45873e-06 -1.0815e-05 1.84923e-06 -1.70511e-06 1.85479e-05 3.50322e-05 4.67031e-05 9.30261e-06 1.35442e-06 1.46739e-05 2.32244e-06 1.60901e-05 -3.0846e-06 -5.01694e-06 -1.59727e-05 -2.43645e-05 7.19071e-05 1.14517e-06 -8.28883e-06 -4.86754e-08 9.06148e-07 2.04068e-06 -4.50217e-06 -1.39571e-06 -3.1468e-07 7.68891e-06 1.08082e-05
internal_weight=0 419248 401082 530792 42261 11389 488531 18166 6664 5450 58663 24784 33879 121863 8594 366668 1214 30872 13821 547 113269 17051 120081 342419 233734 246587 108685 10842 11502 9908
internal_count=950040 419248 401082 530792 42261 11389 488531 18166 6664 5450 58663 24784 33879 121863 8594 366668 1214 30872 13821 547 113269 17051 120081 342419 233734 246587 108685 10842 11502 9908
is_linear=0
shrinkage=0.03


Tree=2
num_leaves=30
num_cat=0
split_feature=87 84 99 119 0 64 86 146 5 5 80 78 162 64 144 83 122 129 166 91 137 158 122 88 29 7 65 162 29
split_gain=0.0108098 0.0053257 0.00457197 0.00392375 0.00343139 0.00378804 0.00284278 0.00254705 0.00542629 0.00493677 0.00365851 0.0017381 0.00166237 0.00191377 0.00155534 0.00245438 0.00116667 0.00102888 0.000957952 0.000912523 0.000821684 0.00082087 0.000702064 0.000577968 0.000506849 0.000471651 0.000450856 0.000292498 0.000286314
threshold=-0.0099952742457389814 -0.011620458141114969 0.0020737312734127049 0.0016693156212568285 -0.0069911302757882715 0.015530347276207883 -0.001785984267502621 -0.0062971963965202521 0.0067938528954982766 0.1031262017786503 -0.024093736943225783 -0.015861606395556203 -0.0028300878688844499 0.023319611079625543 -0.022140282620933548 -0.03142250329256057 0.001457814834768639 0.00064538698643445979 0.0014730838635538673 0.0033712026197463278 0.0013640293618664148 -0.014644450010018168 0.0014328698124735787 0.00048509215366098905 -0.038679787889122956 -0.0022927259560674425 0.019794486463069919 -0.0052760554248320888 -0.01169309066608548
decision_type=6 6 6 6 6 4 6 6 4 4 6 6 6 4 6 6 6 6 6 6 4 6 6 6 4 6 6 6 4
left_child=1 2 12 -4 5 22 11 14 10 -10 -9 19 24 -14 15 -8 28 -18 -7 26 21 -13 -3 -16 -1 -22 -2 -5 -6
right_child=6 4 3 27 16 18 7 8 9 -11 -12 20 13 -15 23 -17 17 -19 -20 -21 25 -23 -24 -25 -26 -27 -28 -29 -30
leaf_value=-3.1798864341399753e-05 4.4950769974123104e-05 1.1637183667602751e-05 0 5.5211891798613841e-05 6.8057800865953304e-06 3.9018319858575781e-05 2.2915258809379679e-05 -1.8881573740401869e-05 -2.1909592627101331e-07 1.9768835907178726e-05 -4.342824800192924e-06 -1.1072787374552873e-05 0 0.00012133855999740856 2.7410727771514479e-06 -1.0183105414591253e-05 1.7758961617223617e-06 2.2279973271484864e-05 0 0 7.0976710708241742e-06 3.6363001706698055e-07 -7.4058016205054651e-06 -1.3216272998551736e-06 0 2.2176801053340576e-06 0 0.00017439202218838545 -2.24599665466391e-06
leaf_weight=495 1564 3896 322 589 3981 8005 7265 17252 251334 11582 298163 6078 275 215 74399 2070 7090 5169 1179 789 29286 59248 2370 49097 373 91526 215 478 14508
leaf_count=495 1564 3896 322 589 3981 8005 7265 17252 251334 11582 298163 6078 275 215 74399 2070 7090 5169 1179 789 29286 59248 2370 49097 373 91526 215 478 14508
internal_value=0 1.37021e-05 5.56485e-05 9.51936e-05 1.08809e-05 2.26751e-05 -7.74127e-07 -1.65539e-06 -2.52748e-06 6.04506e-07 -5.18571e-06 2.4675e-06 4.09072e-06 5.47074e-05 2.02867e-06 1.39687e-05 4.46577e-06 1.1647e-05 3.51166e-05 2.74548e-05 2.0419e-06 -4.71122e-07 2.04135e-06 1.00445e-06 -7.30191e-06 3.52489e-06 3.9355e-05 0.000122861 0
internal_weight=0 48945 2747 1389 46198 15450 899868 711162 578331 262916 315415 188706 1358 490 132831 9335 30748 12259 9184 2568 186138 65326 6266 123496 868 120812 1779 1067 18489
internal_count=948813 48945 2747 1389 46198 15450 899868 711162 578331 262916 315415 188706 1358 490 132831 9335 30748 12259 9184 2568 186138 65326 6266 123496 868 120812 1779 1067 18489
is_linear=0
shrinkage=0.03


Tree=3
num_leaves=31
num_cat=0
split_feature=116 20 118 168 86 35 4 84 99 166 62 87 130 172 5 95 106 34 142 58 86 87 56 27 86 117 42 154 52 125
split_gain=0.00905592 0.00810422 0.00443501 0.00404518 0.00273689 0.00265075 0.00262716 0.00252133 0.00610624 0.00248491 0.00245632 0.00445123 0.00220711 0.00219039 0.00240747 0.002211 0.00217567 0.00214426 0.00303854 0.00169737 0.00163819 0.00141141 0.00137599 0.00200084 0.00103397 0.000949084 0.00094193 0.000755791 0.000503279 0.000490637
threshold=-0.005232800857293214 -0.01393893414771114 0.003994832991675734 -0.015486516109790014 -0.0015841702393885415 -0.012536580208688973 -0.048948859405505217 -0.011620458141114969 0.0051790901925414809 -0.0071893259521748449 0.019038018864494136 -0.022140612825751301 -0.0098118552696458989 0.0052624238876265933 0.017523875460028652 -0.0049482912290841332 0.00033900799401047728 -0.072060483226899327 0.001662516192492482 0.026315951260607942 -0.002360129912530767 -0.0050305491313338271 -0.021497287196438401 0.00062517650076188158 -0.00016468586118561246 0.028938515111804012 0.00015127982378600907 -0.0046728424603196947 -0.0067087183145324737 -0.015233179554343222
decision_type=6 4 6 6 6 4 6 6 6 4 6 4 6 4 4 4 4 6 6 6 6 6 6 4 6 6 6 6 4 6
left_child=1 3 13 17 22 16 10 8 -5 12 11 -3 -8 20 25 -16 -6 18 -1 -12 26 -11 23 -4 -22 -15 -2 -7 -9 -24
right_child=2 6 4 7 5 27 9 28 -10 21 19 -13 -14 14 15 -17 -18 -19 -20 -21 24 -23 29 -25 -26 -27 -28 -29 -30 -31
leaf_value=0 8.4142907214559398e-06 9.4799951016823992e-05 5.3427207403681535e-06 1.8143809804781252e-05 -5.3097117223178382e-06 0 -2.4495721948833325e-05 2.5938801368652909e-05 0.00011051822521701301 8.5513587674353885e-06 0.0001087941095269022 0 -3.9960114560698045e-07 7.4177377758012608e-07 2.2344943709713542e-05 4.7742362455987126e-06 -1.9981068449738174e-05 0 -0.00014425758775174158 0 5.3493129625669872e-08 1.5655239161703483e-06 7.7607442063630219e-06 7.3348930608473924e-05 -2.8355758393354214e-06 -2.8055034639839328e-05 4.8438709291369677e-08 -6.6946241001674872e-06 2.3117361892946723e-06 -3.4620291424088282e-06
leaf_weight=195 22033 529 3857 2274 19072 22869 4290 9865 1317 57076 530 3829 24116 92132 9454 32288 26243 1789 228 137 161961 59509 4116 561 298619 1027 35307 36099 2482 16589
leaf_count=195 22033 529 3857 2274 19072 22869 4290 9865 1317 57076 530 3829 24116 92132 9454 32288 26243 1789 228 137 161961 59509 4116 561 298619 1027 35307 36099 2482 16589
internal_value=0 6.38106e-06 -1.29177e-06 2.54697e-05 -6.3706e-06 -8.54236e-06 3.97128e-06 3.09755e-05 5.62396e-05 3.11385e-06 2.57164e-05 1.32548e-05 -4.56819e-06 -2.62018e-07 3.11281e-06 9.11398e-06 -1.41378e-05 -7.41802e-06 -6.94799e-05 8.44325e-05 -1.17002e-06 5.1143e-06 2.04709e-06 1.74011e-05 -1.78708e-06 2.62706e-07 3.5248e-06 -3.98778e-06 2.24051e-05 -5.06098e-07
internal_weight=0 168166 782227 18150 129406 104283 150016 15938 3591 144991 5025 4358 28406 652821 134901 41742 45315 2212 423 667 517920 116585 25123 4418 460580 93159 57340 58968 12347 20705
internal_count=950393 168166 782227 18150 129406 104283 150016 15938 3591 144991 5025 4358 28406 652821 134901 41742 45315 2212 423 667 517920 116585 25123 4418 460580 93159 57340 58968 12347 20705
is_linear=0
shrinkage=0.03


Tree=4
num_leaves=31
num_cat=0
split_feature=116 87 136 5 7 87 9 0 171 149 89 119 64 87 46 37 69 51 104 87 148 142 55 136 136 106 124 89 80 85
split_gain=0.00784476 0.00571945 0.00457154 0.00446923 0.00387595 0.00355163 0.00285749 0.00261681 0.00206384 0.00202013 0.00173161 0.00207791 0.00142255 0.00135853 0.00123685 0.00190296 0.00122543 0.00115604 0.00108173 0.00101382 0.000740275 0.00063599 0.000582267 0.000518287 0.000454396 0.00044639 0.000700756 0.000463333 0.000444021 0.000343782
threshold=-0.0018006751245110725 -0.006565024144947528 0.003578288690359211 0.0011471483157947662 0.00024095255503198135 0.0072954262141138324 -0.016146163456141945 -0.0061305484583601402 0.0017049042508006098 0.00094027072191238414 0.0002542441943660379 0.0043082474730908879 0.0094848078080692361 -0.017658608034253117 -0.0075479931526376892 -0.014272553846240042 -0.014971792697906492 -0.0072646522894501677 0.0023438712275755907 0.011319850105792286 0.0038551523845781473 0.0047896268331073045 0.010818873066455128 0.015638706273405256 0.007801042483533637 0.0010351607935121592 0.0019359179534590449 -0.00036092894151806826 0.021029024735933616 0.0033192575210705404
decision_type=6 6 4 4 6 4 4 6 6 6 4 4 4 6 6 6 4 4 6 6 6 6 6 4 4 4 4 6 6 6
left_child=1 2 9 10 16 7 29 13 -8 12 19 -12 -1 -5 15 17 -4 -3 -11 21 -9 -2 -21 -17 -13 26 -16 -27 -6 -7
right_child=3 14 4 5 28 6 8 20 -10 18 11 24 -14 -15 25 23 -18 -19 -20 22 -22 -23 -24 -25 -26 27 -28 -29 -30 -31
leaf_value=-1.1797241265881563e-05 -2.5075432767043168e-06 2.7651236684542377e-05 4.2277048839331656e-05 4.979402282137873e-05 6.2852435252861292e-06 -7.4298833961616598e-06 1.2985747372848401e-05 -8.4800891362996382e-07 0 3.3673522551109319e-06 -3.7892089786002506e-06 -7.5147817651404858e-06 4.0977011758287543e-06 7.5947455234516765e-06 4.3596813527190977e-07 0 2.0272948550131336e-05 0 2.4570456333993556e-05 -2.0729287944134689e-05 -4.9717888363831115e-06 3.2772784353271565e-06 0 5.8303375979802609e-06 -1.4684117691105207e-05 3.2910283090735623e-06 -5.0511556282343338e-06 -1.7176023601579095e-07 1.9460139387452833e-05 -5.5264090025242352e-05
leaf_weight=11069 110175 5092 5428 934 25180 2152 36472 197661 16001 10180 79571 27231 7518 12811 58100 27374 14300 1350 3894 4167 53788 18233 1299 30081 31832 64601 29622 58968 4438 462
leaf_count=11069 110175 5092 5428 934 25180 2152 36472 197661 16001 10180 79571 27231 7518 12811 58100 27374 14300 1350 3894 4167 53788 18233 1299 30081 31832 64601 29622 58968 4438 462
internal_value=0 3.61695e-06 1.06014e-05 -2.01002e-06 1.63975e-05 3.4925e-07 7.3153e-06 -1.04124e-06 9.04505e-06 1.38445e-06 -4.83792e-06 -7.23927e-06 -4.56144e-06 1.15602e-05 1.48101e-06 5.15473e-06 2.70911e-05 2.10465e-05 1.03021e-05 -2.23908e-06 -1.78982e-06 -1.56929e-06 -1.52244e-05 3.11117e-06 -1.1633e-05 2.99001e-07 -1.24601e-06 1.5172e-06 8.76698e-06 -2.16539e-05
internal_weight=0 357195 82007 592789 49346 320281 55087 265194 52473 32661 272508 138634 18587 13745 275188 63897 19728 6442 14074 133874 251449 128408 5466 57455 59063 211291 87722 123569 29618 2614
internal_count=949984 357195 82007 592789 49346 320281 55087 265194 52473 32661 272508 138634 18587 13745 275188 63897 19728 6442 14074 133874 251449 128408 5466 57455 59063 211291 87722 123569 29618 2614
is_linear=0
shrinkage=0.03


Tree=5
num_leaves=31
num_cat=0
split_feature=86 72 146 82 41 136 171 71 106 148 138 155 148 118 116 154 136 149 117 75 42 94 25 98 95 116 2 75 138 65
split_gain=0.00605747 0.00366246 0.00343839 0.00510772 0.0136715 0.00469334 0.00384623 0.00517616 0.00300001 0.00242164 0.00211093 0.00283979 0.00241566 0.00208587 0.00319643 0.00182674 0.00178671 0.00163535 0.00153701 0.00265547 0.0014522 0.00114111 0.00103923 0.000978741 0.000923755 0.000814356 0.00069123 0.000507101 0.00038407 0.000319404
threshold=-0.00089167030640337111 -0.0069954299867401358 0.036810679457849861 0.025678081166494622 0.027388490736484531 -0.0019685948673243063 0.00061872415244579326 0.018596289679408077 0.00084199220994986214 -0.0029573818729145278 0.010834023119665958 -0.011893810238689182 0.0028061610075328105 0.0036353111384574079 -0.00055219010305835323 0.046220205275192668 -0.0029297024275184045 -0.0062290187925100318 0.016443043015897277 0.025754964910447601 -0.01148344263481002 -0.0013369277275374907 -0.0044781249016523353 -0.00084267962494109403 0.0043203241657465705 5.9933052076625324e-05 0.0066701754643605487 0.0098146377131342905 -0.011311173347022455 0.0031796750845387582
decision_type=6 6 4 6 6 6 6 6 4 6 6 4 6 4 4 6 4 6 6 6 6 6 4 6 6 6 6 6 6 4
left_child=1 10 9 6 5 -5 7 -4 -8 22 16 -12 -13 21 -15 18 23 24 25 -20 -18 -11 26 -1 -17 -3 -2 -6 -24 -19
right_child=2 15 3 4 27 -7 8 -9 -10 13 11 12 -14 14 -16 17 20 29 19 -21 -22 -23 28 -25 -26 -27 -28 -29 -30 -31
leaf_value=-1.8695162546495818e-05 1.8033763136811537e-06 3.9994806839072577e-06 0 4.0662418756710397e-05 0 0.0001830711343242149 0 4.261702415691322e-05 -4.7000906318047694e-05 1.9038123368294105e-07 0 0 7.3313310335650753e-05 2.3933175327003852e-07 -1.0618418971235524e-05 0 3.07119102349245e-05 1.355312490804855e-05 -5.048237970747398e-07 -3.7833233309785698e-05 7.5043308617573588e-06 -3.5788049454408163e-06 4.7350747839899201e-06 4.313910426917544e-06 -2.6762165378471089e-05 0 1.1739668022389413e-05 -2.4476965994825127e-05 -1.0496107957362001e-06 0
leaf_weight=2402 27888 236420 7329 853 404 643 1904 3561 2021 105703 1303 859 1821 32307 74688 1705 4493 1677 16860 2040 11528 187923 10571 3787 4606 54788 10725 996 135812 2035
leaf_count=2402 27888 236420 7329 853 404 643 1904 3561 2021 105703 1303 859 1821 32307 74688 1705 4493 1677 16860 2040 11528 187923 10571 3787 4606 54788 10725 996 135812 2035
internal_value=0 3.15761e-06 -1.82009e-06 1.1061e-05 4.78816e-05 0.000112048 2.84557e-06 1.29003e-05 -2.12241e-05 -2.23531e-06 1.40521e-05 3.56634e-05 5.33174e-05 -3.55142e-06 -7.1998e-06 2.21929e-06 9.49834e-06 -1.00773e-05 2.66516e-06 -5.33107e-06 1.49519e-05 -2.17085e-06 5.33734e-07 -2.19638e-06 -1.97759e-05 3.23567e-06 4.95216e-06 -1.00474e-05 -5.29343e-07 2.37486e-06
internal_weight=0 346324 603328 17711 2896 1496 14815 10890 3925 585617 26193 3983 2680 400621 106995 320131 22210 10023 310108 18900 16021 293626 184996 6189 6311 291208 38613 1400 146383 3712
internal_count=949652 346324 603328 17711 2896 1496 14815 10890 3925 585617 26193 3983 2680 400621 106995 320131 22210 10023 310108 18900 16021 293626 184996 6189 6311 291208 38613 1400 146383 3712
is_linear=0
shrinkage=0.03


Tree=6
num_leaves=29
num_cat=0
split_feature=116 78 118 142 119 148 29 136 0 147 83 59 149 85 63 128 89 35 159 5 1 62 137 80 87 101 29 162
split_gain=0.00856959 0.00744823 0.00555672 0.00569679 0.00341695 0.00341439 0.00308455 0.00289055 0.00316698 0.00192842 0.00230311 0.00384607 0.00168419 0.00137305 0.00117845 0.00281694 0.00168237 0.00147874 0.00134307 0.00111037 0.00127926 0.000807635 0.000800376 0.000772237 0.000757912 0.000715148 0.000462161 5.18226e-08
threshold=-0.004703004117422087 -0.023322025066520199 0.0046127516954677676 0.0018892853236956782 0.029778519645333294 0.0013279575196170341 -0.032110914587974541 0.0015405878488847491 -0.005981162371213984 0.014076427090913059 0.036601124331355102 0.020988796837627891 -0.013213061727583407 0.0042496810201555499 0.022833699360489849 -0.006405613226820134 0.0012830673949792983 -0.00942780217155814 -0.017612588591873642 -0.03525003790855407 -0.0058494787663221351 -0.00034925087462559342 -0.0042164281476289025 0.013198870314257222 0.0010326863266527655 -0.0026448136195540424 0.013920126948505642 -0.008412779059563065
decision_type=6 6 4 6 4 4 6 4 6 4 6 6 6 6 6 4 4 6 4 4 6 4 4 6 6 6 4 6
left_child=1 2 27 4 -4 9 19 12 -9 23 13 -12 -8 -11 16 21 26 -18 -17 22 -21 -16 -3 24 -2 -25 -7 -1
right_child=5 6 3 -5 -6 14 7 8 -10 10 11 -13 -14 -15 15 18 17 -19 -20 20 -22 -23 -24 25 -26 -27 -28 -29
leaf_value=-3.709207586945391e-07 -6.4964482899574586e-08 4.4943224595570789e-06 6.3699352534608589e-05 0 0.00027741063839253677 -3.0632353219279761e-06 -9.9652867998079172e-06 1.961664913419492e-05 3.3755387366180702e-06 3.9011488845150609e-06 2.7856086343572573e-05 0 9.445545630705255e-07 -4.9661192779503736e-06 0 3.1446956817651487e-05 -1.0067446295067389e-05 -3.4289948428434371e-06 -2.4510131409115385e-06 1.6642570000460634e-05 1.7763777900306738e-06 4.9528930222795559e-05 2.3121441199702109e-05 -1.5663358732566935e-06 -3.1870888853606859e-06 6.6012329829760107e-06 3.9588107862176254e-07 0
leaf_weight=337 186272 5164 480 391 249 118020 19063 13471 77308 58176 8872 10799 32303 20473 187 1106 69027 70230 18816 9207 18573 1382 12297 12613 122975 22572 39080 265
leaf_count=337 186272 5164 480 391 249 118020 19063 13471 77308 58176 8872 10799 32303 20473 187 1106 69027 70230 18816 9207 18573 1382 12297 12613 122975 22572 39080 265
internal_value=0 5.64524e-06 6.84111e-05 0.000107928 0.000157774 -1.49002e-06 4.98767e-06 2.6788e-06 5.95122e-06 1.80803e-07 3.91402e-06 1.31934e-05 -2.81254e-06 1.40214e-06 -3.8646e-06 2.48752e-06 -4.37587e-06 -6.82736e-06 0 1.191e-05 7.24417e-06 4.12121e-05 1.84727e-05 -8.41331e-07 -1.35502e-06 3.24713e-06 -2.10728e-06 0
internal_weight=0 189108 1722 1120 729 760600 187386 142145 90779 442752 98320 19671 51366 78649 317848 21491 296357 139257 19922 45241 27780 1569 17461 344432 309247 35185 157100 602
internal_count=949708 189108 1722 1120 729 760600 187386 142145 90779 442752 98320 19671 51366 78649 317848 21491 296357 139257 19922 45241 27780 1569 17461 344432 309247 35185 157100 602
is_linear=0
shrinkage=0.03


Tree=7
num_leaves=31
num_cat=0
split_feature=3 12 142 125 138 86 0 114 147 147 102 140 147 37 28 137 29 124 116 165 89 116 128 107 99 117 155 116 146 98
split_gain=0.00601622 0.0058111 0.0109735 0.00464202 0.00507259 0.00404126 0.00675424 0.00547803 0.00549871 0.00680294 0.00488791 0.00389473 0.0036556 0.00290193 0.0041481 0.00379109 0.00283301 0.00233622 0.00145713 0.00138492 0.00135861 0.00119358 0.00115753 0.000834561 0.000741482 0.000786491 0.000786313 0.00047112 0.000469723 0.000102997
threshold=-0.052683750167489045 -0.014467284843770909 -0.0026345486967262722 1.0000000180025095e-35 -0.0048178083831108944 0.00011497763715588909 -0.015818227090718614 -0.023248097392254998 0.037865979596972472 0.10352439433336259 0.0075998003591393314 0.005063021822769599 0.0065166000276803979 0.0045922889839857825 -0.010735725107081201 -0.0052453321404755107 0.0053727871272712955 -0.0042370233894642199 -0.0046674050485706097 -0.017521048896014687 -0.0036526729818433519 0.013764499252710961 -0.0035579689186836985 -0.014917463529855011 -0.0041624035220593205 -0.010296495165675877 0.015412129461765291 -0.0032064247895763798 0.0011695594744312191 0.0018348843288604427
decision_type=6 6 6 6 4 6 6 6 4 6 6 6 6 6 4 4 4 6 4 6 6 6 6 6 6 6 6 4 6 6
left_child=1 2 3 4 -1 6 10 12 17 -10 16 -12 28 14 23 -16 -2 -9 19 -8 -5 -14 29 -3 26 -26 -4 -20 -7 -15
right_child=5 13 24 20 -6 7 18 8 9 -11 11 -13 21 22 15 -17 -18 -19 27 -21 -22 -23 -24 -25 25 -27 -28 -29 -30 -31
leaf_value=0 1.8795150904395119e-05 2.1090360544795465e-05 0 0 0.00023754127822473047 4.6151092456307597e-06 -2.6069046188393288e-06 4.5393724658467113e-07 3.5149921569107084e-06 4.1903199079262707e-05 0 -0.0001676348382763078 -2.1849937162700159e-05 1.3172456349257984e-05 0 7.6806297854639508e-05 6.7224773064293521e-05 -4.4703413398695957e-06 2.5997415818410603e-06 4.9592049537648542e-06 6.5741237003048527e-05 -6.1613129728181019e-05 -2.4592473826715444e-05 0 3.65890640482365e-05 0 -3.7969757620943007e-05 -4.5360264846919713e-07 -1.2336067718122319e-05 0
leaf_weight=95 4429 1898 369 90 442 2376 23730 120531 31734 5022 315 165 3697 628 927 1600 2408 267542 53983 121363 1069 2268 3039 7345 1099 1101 514 287437 2471 195
leaf_count=95 4429 1898 369 90 442 2376 23730 120531 31734 5022 315 165 3697 628 927 1600 2408 267542 53983 121363 1069 2268 3039 7345 1099 1101 514 287437 2471 195
internal_value=0 1.61836e-05 4.56765e-05 0.000107756 0.000194963 -2.77689e-07 1.56194e-06 -2.39747e-06 -1.82243e-06 9.17007e-06 3.02455e-05 -4.96395e-05 -2.36006e-05 6.20298e-06 1.42763e-05 4.88643e-05 3.80601e-05 -2.90227e-06 1.0996e-06 3.61837e-06 5.41635e-05 -3.9498e-05 -1.45143e-05 3.18903e-06 6.61602e-06 1.86528e-05 -6.39886e-06 0 -9.34701e-07 4.48792e-06
internal_weight=0 20411 4779 1696 537 929471 493830 435641 424829 36756 7317 480 10812 15632 11770 2527 6837 388073 486513 145093 1159 5965 3862 9243 3083 2200 883 341420 4847 823
internal_count=949882 20411 4779 1696 537 929471 493830 435641 424829 36756 7317 480 10812 15632 11770 2527 6837 388073 486513 145093 1159 5965 3862 9243 3083 2200 883 341420 4847 823
is_linear=0
shrinkage=0.03


Tree=8
num_leaves=31
num_cat=0
split_feature=116 136 82 116 168 20 161 118 70 56 133 53 86 146 38 94 114 3 173 87 157 102 150 136 136 105 77 136 84 137
split_gain=0.00868662 0.00739218 0.00546966 0.00461386 0.00450051 0.00543637 0.00370217 0.00300417 0.00272781 0.00203207 0.00293233 0.00198406 0.00193289 0.00222189 0.00174405 0.00155962 0.00189661 0.00155389 0.00207923 0.00128172 0.00111136 0.000850311 0.000634558 0.000585776 0.000472012 0.000463208 0.000449695 0.000610104 0.00039086 4.02751e-05
threshold=-0.017958114081692695 -0.0019067000633262064 -0.023848805381711673 -0.0036935851672352895 -0.013685200043316683 0.0058243128454341618 0.0050660427659749993 0.0080690734956158274 0.0078950984584416403 -0.017355231010227581 -0.013961961958557366 -0.021391442976891991 0.0015354084717420235 0.0029546059217700226 0.0010364514532087566 -0.0015566399098570014 -0.012059316878131861 0.0041969439480453738 0.026386913843452934 0.0026242204476147894 -0.014068547636270521 0.002850076887768181 -0.012599520249015934 0.00022398090947814206 -6.1511073672573875e-05 0.015453745145350696 -0.047188961878418915 0.0015405878488847491 -0.0018236434721723685 0.0039567667990922937
decision_type=6 4 6 6 6 6 6 4 6 6 6 6 4 6 6 6 6 6 6 6 6 6 6 4 4 6 6 4 6 4
left_child=1 4 8 11 9 14 -7 17 24 10 -1 15 25 -14 -6 16 -2 19 -19 -5 28 -11 -22 -17 -3 -9 29 -28 -13 -4
right_child=3 2 26 7 5 6 -8 12 -10 21 -12 20 13 -15 -16 23 -18 18 -20 -21 22 -23 -24 -25 -26 -27 27 -29 -30 -31
leaf_value=-0.00016775208779953757 3.9250273153669123e-05 0 -1.903777400657418e-05 -1.1844073671622402e-06 7.2821950761838236e-05 1.6741701468243698e-05 -6.7776854764187893e-05 -3.8271493770292218e-06 0 -2.3196977227712738e-05 0 2.4391085140157013e-06 -1.9266793223438808e-06 -2.4219240821785456e-05 0 -1.3243519618744583e-08 1.0190473911269234e-05 -1.1672814507623154e-07 8.7495375935243745e-06 -5.3950103404267672e-06 -4.9140250842916705e-06 0 3.5728546601117296e-06 7.4092251209028539e-06 0.00010488070660257075 1.7527332151432823e-05 0 2.8349859570165645e-05 -5.0003262028947677e-06 1.0007704932992483e-07
leaf_weight=224 3235 112 98 273079 1452 828 734 23589 127 2613 122 5546 8321 12311 488 10776 13275 277552 25757 92152 6987 830 132957 20466 1484 747 775 8440 24532 389
leaf_count=224 3235 112 98 273079 1452 828 734 23589 127 2613 122 5546 8321 12311 488 10776 13275 277552 25757 92152 6987 830 132957 20466 1484 747 775 8440 24532 389
internal_value=0 2.03279e-05 3.54675e-05 -3.09917e-07 -1.34233e-06 2.08953e-05 -1.34195e-05 -1.49127e-06 8.83541e-05 -2.58524e-05 -0.000103401 3.49173e-06 -9.03726e-06 -1.59565e-05 5.62333e-05 8.98064e-06 1.6797e-05 -9.61241e-07 5.86794e-07 -2.28788e-06 1.86181e-06 -1.36497e-05 3.04188e-06 4.36914e-06 9.98156e-05 -2.55396e-06 2.45133e-05 2.60108e-05 -3.12985e-06 0
internal_weight=0 18716 11425 931282 7291 3502 1562 713508 1723 3789 346 217774 44968 20632 1940 47752 16510 668540 303309 365231 170022 3443 139944 31242 1596 24336 9702 9215 30078 487
internal_count=949998 18716 11425 931282 7291 3502 1562 713508 1723 3789 346 217774 44968 20632 1940 47752 16510 668540 303309 365231 170022 3443 139944 31242 1596 24336 9702 9215 30078 487
is_linear=0
shrinkage=0.03


Tree=9
num_leaves=31
num_cat=0
split_feature=87 37 147 118 117 136 62 84 119 4 95 38 166 0 164 53 64 8 173 4 63 82 23 60 64 167 23 99 88 75
split_gain=0.00652538 0.00396905 0.0051342 0.00268188 0.00284193 0.00259075 0.00225142 0.00342984 0.00217589 0.00214841 0.00202194 0.00257455 0.00149757 0.0071518 0.00155559 0.00177539 0.00136594 0.00113892 0.00112674 0.00106402 0.0018695 0.000945703 0.000941099 0.000793582 0.000646574 0.000640476 0.000400824 0.000398536 0.000375139 0.00138812
threshold=-0.0030943475430831309 -0.012529216706752775 -0.056303294375538819 0.0058204606195929936 0.0021226779790595178 0.004491110099302878 -0.00039435610491307487 -0.0025371707233200645 0.0089914803393185156 0.01222227707478786 -0.0092502865009009821 0.0070644700767590702 0.004591027908418391 -0.011859291665642585 -0.001727928464552906 0.0022587876301258807 0.0025255114206901483 0.033883162861617133 0.013720529153943064 -0.016378825397848327 0.030460135079920295 0.0011960071527166878 0.088471185415983214 -0.0099049843032947473 -0.026427581898746211 0.011598645709455015 -0.0023475703783333297 -0.00032976901275105769 0.00050127328880918782 0.0069207123015075931
decision_type=6 4 6 6 6 4 4 6 6 4 6 6 4 6 6 6 4 6 6 6 6 6 6 4 6 4 6 6 6 6
left_child=1 2 28 9 23 27 26 -8 -7 19 11 -11 14 16 15 -3 -14 -15 -12 20 -2 -21 -16 24 -5 -25 -6 -4 -1 -30
right_child=3 12 5 4 6 8 7 -9 -10 10 18 -13 13 17 22 -17 -18 -19 -20 21 -22 -23 -24 25 -26 -27 -28 -29 29 -31
leaf_value=0 4.792080141136236e-07 2.5252094268823014e-06 -4.6032429023615545e-06 1.7610370030898777e-05 -7.4890013645187925e-06 1.0339760575391063e-05 -3.6620635559039565e-05 -7.5634424712278517e-06 5.126274990198379e-05 1.4604339023557913e-05 -8.3941483084142026e-07 -2.1057080062432154e-06 0 3.2139114834340566e-06 2.2331722832295095e-06 -1.0875134974082739e-05 4.6086514002517922e-05 2.6917286997474492e-05 6.5023631784577322e-06 -3.6037611994872109e-06 2.7979475131220718e-05 -6.0745693389730738e-07 2.4836814684728137e-05 -6.8267925615035179e-06 0 9.0398171265462485e-07 0 9.895015678344537e-06 0.00014343613887203072 0
leaf_weight=257 58057 13388 4209 3492 13509 4624 7549 10399 2522 22806 103504 10801 459 144384 36706 19980 4438 2043 22643 233750 2384 182596 1966 16913 1369 15982 5733 2750 438 69
leaf_count=257 58057 13388 4209 3492 13509 4624 7549 10399 2522 22806 103504 10801 459 144384 36706 19980 4438 2043 22643 233750 2384 182596 1966 16913 1369 15982 5733 2750 438 69
internal_value=0 4.33429e-06 1.95473e-05 -1.40164e-06 -6.79448e-06 1.4182e-05 -1.2707e-05 -2.06234e-05 2.68913e-05 -7.43102e-07 2.22658e-06 8.78776e-06 3.25426e-06 4.95309e-06 -1.06053e-07 -5.04928e-06 4.09149e-05 3.64743e-06 3.59587e-07 -1.7696e-06 1.81297e-06 -2.32572e-06 3.77137e-06 -5.72962e-07 1.01567e-05 -2.61501e-06 -4.54215e-06 0 9.87229e-05 0.000123816
internal_weight=0 238233 14869 711487 74946 14105 37190 17948 7146 636541 159754 33607 223364 151324 72040 33368 4897 146427 126147 476787 60441 416346 38672 37756 4861 32895 19242 6959 764 507
internal_count=949720 238233 14869 711487 74946 14105 37190 17948 7146 636541 159754 33607 223364 151324 72040 33368 4897 146427 126147 476787 60441 416346 38672 37756 4861 32895 19242 6959 764 507
is_linear=0
shrinkage=0.03


Tree=10
num_leaves=31
num_cat=0
split_feature=116 81 148 167 148 5 24 117 24 167 63 154 88 1 93 64 146 91 44 0 71 124 63 91 39 24 88 24 1 154
split_gain=0.00720891 0.00416518 0.00511316 0.00379504 0.00355147 0.00352118 0.00283294 0.0020671 0.00229912 0.00223913 0.00182975 0.00244228 0.00166529 0.0015714 0.00157086 0.00155475 0.00121384 0.00107086 0.000964686 0.000925846 0.000841447 0.000787331 0.000779098 0.000627874 0.000582313 0.000543301 0.00052965 0.000414353 0.000413298 0.00019171
threshold=-0.002917480148663219 -0.027904668822884556 0.0028061610075328105 -0.041051365435123437 0.0044684482585761586 0.049486683681607253 0.0080551385270258482 0.0075717067811638126 -0.0028238322446805198 -0.012806385755538939 0.011289997026324274 -0.019360881829855608 0.0034852833191099364 -0.0059581217356026164 0.025287040509283546 0.062021385837281694 0.00069604069556652244 -0.0072037973441183558 0.047513987009134825 0.0019160057359942635 1.0000000180025095e-35 -0.00031521790623598628 0.018384356983006004 0.000102688922197558 0.0060752488207072028 -0.0031102366317689151 0.0011707943247634307 0.00035951377362024203 -0.0028300656704232092 -0.025611171081461829
decision_type=6 4 6 4 4 6 6 4 6 4 4 4 4 6 6 4 4 6 6 6 6 4 6 6 6 6 6 6 4 4
left_child=1 2 3 -1 7 28 -7 18 9 -9 11 14 26 25 -3 22 -17 -13 23 -15 -10 -5 -14 -2 -20 -12 27 -6 -4 -28
right_child=4 10 5 21 12 6 -8 8 20 -11 13 17 15 19 -16 16 -18 -19 24 -21 -22 -23 -24 -25 -26 -27 29 -29 -30 -31
leaf_value=-5.2517040508577089e-05 -2.8629364607551848e-06 -1.0828682064012536e-05 2.6776117399975909e-05 2.3836270171970374e-05 -5.009498961135618e-07 0.00017349002206565431 0 2.1519319453239688e-05 -3.5994452143489883e-06 4.3158615720675691e-06 1.5039592357049875e-05 -1.1161949197884853e-05 -8.2484857834289431e-06 1.1328301881276875e-06 -7.5696168162982185e-05 -3.8783592976005252e-06 -2.9736933626366126e-05 1.9425793843140536e-06 0 7.0401630337166686e-06 2.3664879769324483e-06 0 9.2681771386857946e-06 -2.1155976372088302e-07 2.8845911298685367e-05 5.8634512534186206e-06 0 -4.7131945465011923e-06 8.6911919110720629e-06 -7.1062728268457433e-06
leaf_weight=1222 197086 6439 10822 1461 58133 286 134 9541 36274 37699 16830 5830 15416 88539 486 4069 6989 81218 398 37652 51301 3964 1923 157882 1463 21340 1416 44044 4456 46195
leaf_count=1222 197086 6439 10822 1461 58133 286 134 9541 36274 37699 16830 5830 15416 88539 486 4069 6989 81218 398 37652 51301 3964 1923 157882 1463 21340 1416 44044 4456 46195
internal_value=0 4.02796e-06 1.65974e-05 -3.53184e-06 -1.69926e-06 2.60755e-05 0.000120414 -3.51402e-07 2.77343e-06 8.1087e-06 2.88256e-06 -3.08672e-07 -5.33403e-06 4.79838e-06 -1.75671e-05 -1.22544e-05 -2.15804e-05 8.92359e-07 -1.57405e-06 3.01437e-06 0 4.75358e-06 -5.43993e-06 -1.72593e-06 1.93136e-05 1.03029e-05 -3.92176e-06 -2.46352e-06 2.24849e-05 -6.73599e-06
internal_weight=0 280679 22345 6647 669829 15698 420 491644 134815 47240 258334 93973 178185 164361 6925 28397 11058 87048 356829 126191 87575 5425 17339 354968 1861 38170 149788 102177 15278 47611
internal_count=950508 280679 22345 6647 669829 15698 420 491644 134815 47240 258334 93973 178185 164361 6925 28397 11058 87048 356829 126191 87575 5425 17339 354968 1861 38170 149788 102177 15278 47611
is_linear=0
shrinkage=0.03


Tree=11
num_leaves=28
num_cat=0
split_feature=87 118 147 172 86 145 167 116 153 91 27 52 86 116 86 34 24 137 54 3 61 143 166 30 86 89 55
split_gain=0.00441389 0.00677894 0.00580691 0.00895109 0.00906441 0.00779967 0.00533302 0.0032071 0.00314271 0.00373751 0.0030765 0.00263358 0.00209926 0.00194429 0.00187357 0.00177822 0.00234791 0.00126042 0.00225429 0.000873139 0.000854633 0.000807588 0.000611252 0.000280657 0.000273397 8.69999e-05 0.000203032
threshold=-0.00052931829122826446 0.025909103257856982 0.078049723058938994 0.0058175507323614713 0.0042391539806815133 0.0083885295316576975 -0.1118185557425022 -0.0030490830641992 0.014813523739576341 -0.0049070266541093579 -0.0080899619497358782 -0.013123768563286941 -0.0049782148210561093 -0.0050197323538337937 -0.00042724520570309549 -0.007181027977554961 -0.003498791298507119 0.012654527090489866 -0.00011951039649000368 -0.048406776040792458 0.0043584357481449851 0.0049521776381880054 0.010669858313136384 0.0015731648728924106 -0.0015426075962730881 -0.00056364323245361436 -0.0033202094491571184
decision_type=6 6 4 6 6 6 4 6 6 6 4 6 4 6 6 4 6 6 6 4 6 6 6 6 6 6 6
left_child=1 6 15 8 23 -6 14 11 9 -4 -10 -8 -9 22 24 17 20 18 -2 -19 -17 -18 -3 -5 -1 -15 -27
right_child=2 13 3 4 5 -7 7 12 10 -11 -12 -13 -14 25 -16 16 21 19 -20 -21 -22 -23 -24 -25 -26 26 -28
leaf_value=-6.4249607877906758e-05 -9.5917111157546841e-06 8.8168298889562785e-05 -4.650705231875082e-05 3.9719941447688859e-06 0 0.00016097805369931124 1.1851327758514623e-05 1.1189125794814489e-05 0 6.4919853536366549e-06 6.3119706398563142e-05 3.0455111927022842e-06 -1.1199141976132578e-06 0 0 1.8293531556993551e-06 -3.4369282972971406e-06 1.8456820273996477e-05 -1.0197570398599058e-06 -4.0527991575602418e-07 1.2063167862463338e-05 3.303602472625674e-07 0 -2.7985933153518721e-05 0 2.2289903464771589e-05 0
leaf_weight=1523 77189 1149 1503 321 169 1047 39904 13177 1009 4764 1442 172256 209489 109 284 72348 213386 2357 49565 18706 9282 58173 206 314 140 524 259
leaf_count=1523 77189 1149 1503 321 169 1047 39904 13177 1009 4764 1442 172256 209489 109 284 72348 213386 2357 49565 18706 9282 58173 206 314 140 524 259
internal_value=0 2.17634e-06 -1.92376e-06 1.99282e-05 8.04938e-05 0.000128666 1.87325e-06 2.1282e-06 5.33325e-06 -3.83671e-06 3.4879e-05 4.77255e-06 -3.24027e-07 5.43681e-05 -4.73134e-05 -2.41476e-06 -1.20284e-06 -5.20895e-06 -6.3582e-06 9.94904e-07 3.17704e-06 -2.57467e-06 7.86649e-05 0 -6.02754e-05 5.87789e-07 1.00069e-05
internal_weight=0 439020 511575 10569 1851 1216 436773 434826 8718 6267 2451 212160 222666 2247 1947 501006 353189 147817 126754 21063 81630 271559 1355 635 1663 892 783
internal_count=950595 439020 511575 10569 1851 1216 436773 434826 8718 6267 2451 212160 222666 2247 1947 501006 353189 147817 126754 21063 81630 271559 1355 635 1663 892 783
is_linear=0
shrinkage=0.03


Tree=12
num_leaves=28
num_cat=0
split_feature=87 19 168 85 136 95 116 83 155 18 99 64 91 27 128 146 59 62 148 112 80 82 5 13 88 88 13
split_gain=0.00870518 0.00744115 0.006589 0.00287803 0.00228965 0.0022813 0.00220628 0.00286872 0.002308 0.00159664 0.00157658 0.00156647 0.00126908 0.00121383 0.00108245 0.00101418 0.000958826 0.00110843 0.000918074 0.000726574 0.00217069 0.000672857 0.000574663 0.000587798 0.00050251 0.000401629 0.000371412
threshold=-0.0099952742457389814 -0.040337629616260522 -0.022092098771903965 0.0019023430068045857 0.0020838372484205145 -0.0056593175977468482 0.0016352447423545792 -0.023744694888591763 0.037999909371137626 -0.0025381223334285602 0.0034543121000751857 0.015655641690769686 -0.0067745912820100776 -0.011145634111016987 -0.0028645898577485426 0.0038131709713981215 -0.0019551543518900867 -0.021074174819934784 0.0081114865492085738 3.4200536295506455e-05 -0.054127169402649035 -0.024135090450838319 0.01886029448360205 0.012054274789988996 0.001661685035149121 -0.0013484268347826527 -0.0037033202825114127
decision_type=6 4 6 6 4 6 4 4 6 6 6 4 6 4 6 6 4 6 4 6 6 6 6 6 6 6 4
left_child=1 2 -1 4 13 14 19 8 -8 -6 25 12 -5 -3 16 -13 26 -18 -9 20 -7 -21 24 -24 -16 -4 -2
right_child=5 3 10 11 9 6 7 18 -10 -11 -12 15 -14 -15 22 -17 17 -19 -20 21 -22 -23 23 -25 -26 -27 -28
leaf_value=-3.3728703692479307e-05 -5.0321553554994045e-06 -9.3128117187391603e-06 0 -2.6691520539968289e-05 4.0203366453287136e-05 4.9287916699158244e-05 -7.6868434888260037e-06 -1.151673071805732e-06 -3.0527468831805173e-05 1.3668921369929999e-05 0.00017906888954698704 1.2242220431135485e-05 0 1.4223293655089878e-05 3.6297710375911793e-07 -3.1508662772995246e-06 2.2685223795165185e-06 1.4781239588870946e-05 -7.7570266331720086e-06 7.2321291616568859e-06 -1.6814163053524524e-06 3.8692960129080581e-07 4.8923553220664466e-06 -3.2843289464260167e-06 -4.5748355276838229e-06 4.5454679956102547e-05 3.2272288322531656e-06
leaf_weight=128 6524 2811 50 2048 5792 735 48550 162913 5025 6967 493 15086 7333 4574 83527 3292 16125 16065 23219 14494 240625 195770 41099 7514 22600 376 16325
leaf_count=128 6524 2811 50 2048 5792 735 48550 162913 5025 6967 493 15086 7333 4574 83527 3292 16125 16065 23219 14494 240625 195770 41099 7514 22600 376 16325
internal_value=0 1.22451e-05 9.30928e-05 1.01611e-05 1.89658e-05 -7.43377e-07 -1.58694e-06 -3.91902e-06 -1.01102e-05 2.68942e-05 0.000127078 3.23043e-06 -5.82453e-06 3.2339e-06 1.9651e-06 8.66875e-06 5.61265e-06 8.9797e-06 -2.05632e-06 -3.1593e-07 -1.46365e-06 9.30188e-07 5.7072e-07 3.31987e-06 -5.47271e-07 3.13083e-05 2.12294e-07
internal_weight=0 48950 1047 47903 20144 901110 691331 239707 53575 12759 919 27759 9381 7385 209779 18378 55039 32190 186132 451624 241360 210264 154740 48613 106127 426 22849
internal_count=950060 48950 1047 47903 20144 901110 691331 239707 53575 12759 919 27759 9381 7385 209779 18378 55039 32190 186132 451624 241360 210264 154740 48613 106127 426 22849
is_linear=0
shrinkage=0.03


Tree=13
num_leaves=31
num_cat=0
split_feature=116 3 136 146 119 147 53 171 60 95 76 167 87 69 104 88 62 86 97 134 86 136 0 146 162 77 129 159 52 155
split_gain=0.00623704 0.00409636 0.00428247 0.00457073 0.00313154 0.00306036 0.00205175 0.00282152 0.00204617 0.00164824 0.00152059 0.00141954 0.00186981 0.00131619 0.00127427 0.00122118 0.0015879 0.00100798 0.000987295 0.000958512 0.000854689 0.000817505 0.000773692 0.000757435 0.000748609 0.000703748 0.000650574 0.000475867 0.000454219 0.000423513
threshold=-0.0027872954806240496 -0.03055639378726482 0.0029545899856039518 -0.0190585719729944 0.008630484342575075 0.017020802944898609 -0.018626353703439232 -0.0071063672658056012 -0.020750939883172691 0.0076547737699002036 0.016033019531062991 -0.038745665922760957 -0.015663328580558297 -0.0092140431515872461 -0.0024563292238113129 0.001358726105664465 0.016825530793162374 -0.00465386955197045 -0.0038450526772066946 0.0034818985587505122 0.0031275962046122571 0.0028735785018382614 -0.011230267646267191 0.080907349931119268 -0.010491493470497363 -0.051179846748709672 -0.00010519591160118579 -0.015183357521891592 -0.0013981030312175461 -0.0057901842519640914
decision_type=6 6 4 6 4 4 6 6 4 6 6 4 6 4 6 4 4 4 6 6 6 4 4 6 6 4 6 6 6 6
left_child=1 2 8 10 5 22 21 -8 14 11 -4 12 -3 28 -1 25 23 -18 -10 -15 -5 -7 27 -17 -13 29 -24 -2 -11 -6
right_child=4 9 3 20 15 6 7 -9 18 13 -12 24 -14 19 -16 16 17 -19 -20 -21 -22 -23 26 -25 -26 -27 -28 -29 -30 -31
leaf_value=0 0 -4.3246443280424044e-05 5.3633941627872144e-05 8.0895571598167064e-06 0 3.204036428318122e-06 1.2187574469850752e-05 6.0904904790883316e-07 -1.6197599076555386e-05 1.6212622254663547e-05 0 8.0235422906127472e-06 -1.1804958639801777e-06 -1.096414378264053e-05 5.4130157550913774e-05 -6.034683315134401e-06 4.2088064474057504e-06 -1.9769351768879877e-05 1.5968043066101996e-06 2.3379173876488668e-06 4.690996363239024e-05 -6.0308382171394021e-06 -8.8552454386842224e-07 4.4753953105314659e-05 2.867621575884002e-06 -8.0135415071215267e-07 -3.2891511860252212e-06 1.4622497344694745e-05 0 -1.4347495065549101e-05
leaf_weight=401 850 1141 4789 11679 3222 11845 37740 43909 3469 2806 847 35413 11933 18547 1004 25003 637 16825 9978 4309 779 22128 230747 202 179527 38034 217993 4022 2287 7103
leaf_count=401 850 1141 4789 11679 3222 11845 37740 43909 3469 2806 847 35413 11933 18547 1004 25003 637 16825 9978 4309 779 22128 230747 202 179527 38034 217993 4022 2287 7103
internal_value=0 3.63035e-06 1.368e-05 2.35234e-05 -1.65409e-06 -7.97975e-07 3.51331e-06 6.14478e-06 6.76619e-07 2.27812e-06 4.69224e-05 3.15967e-06 -6.00489e-06 -4.37678e-06 3.57756e-05 -6.84289e-06 -1.07042e-05 -1.80354e-05 -1.88012e-06 -7.80012e-06 1.1728e-05 -2.36951e-06 -1.92997e-06 -5.02906e-06 3.78695e-06 -3.12561e-06 -2.08662e-06 9.41586e-06 8.0392e-06 -1.02331e-05
internal_weight=0 288909 32946 18094 660260 569234 115622 81649 14852 255963 5636 228014 13074 27949 1405 91026 42667 17462 13447 22856 12458 33973 453612 25205 214940 48359 448740 4872 5093 10325
internal_count=949169 288909 32946 18094 660260 569234 115622 81649 14852 255963 5636 228014 13074 27949 1405 91026 42667 17462 13447 22856 12458 33973 453612 25205 214940 48359 448740 4872 5093 10325
is_linear=0
shrinkage=0.03


end of trees

feature_importances:
log_close/mean_300-mean_close/mean_300_id0=19
log_close/mean_300-mean_close/mean_300_id10=17
log_close/mean_60-mean_close/mean_60_id0=16
log_return_60-mean_log_returns_60_id0=15
log_close/mean_900-mean_close/mean_900_id0=10
log_close/mean_900_id10=9
log_close/mean_300-mean_close/mean_300_id1=8
log_close/mean_900-mean_close/mean_900_id1=8
log_close/mean_60_id0=7
log_return_900_id0=7
mean_close/mean_60=7
log_close/mean_60-mean_close/mean_60_id1=7
log_return_60-mean_log_returns_60_id4=7
log_return_900-mean_log_returns_900_id0=7
log_close/mean_300_id10=6
log_return_300-mean_log_returns_300_id0=6
log_return_300-mean_log_returns_300_id10=6
log_close/mean_900-mean_close/mean_900_id4=6
log_return_900-mean_log_returns_900_id4=6
log_return_900-mean_log_returns_900_id10=6
log_return_300_id0=5
log_close/mean_60_id4=5
log_return_300_id4=5
log_return_900_id4=5
log_return_300_id10=5
log_return_60-mean_log_returns_60_id1=5
log_return_60-mean_log_returns_60_id2=5
log_return_60-mean_log_returns_60_id6=5
log_return_300-mean_log_returns_300_id1=5
log_close/mean_900-mean_close/mean_900_id8=5
log_close/mean_900_id0=4
log_close/mean_60_id10=4
log_close/mean_300_id13=4
log_close/mean_900_id13=4
mean_log_returns_60=4
log_close/mean_300-mean_close/mean_300_id13=4
log_return_900-mean_log_returns_900_id1=4
log_close/mean_900-mean_close/mean_900_id10=4
log_close/mean_900-mean_close/mean_900_id11=4
log_return_60_id0=3
log_close/mean_900_id5=3
log_return_60_id6=3
log_return_900_id6=3
log_close/mean_900_id8=3
log_return_900_id8=3
log_return_900_id11=3
log_return_300_id12=3
log_return_900_id13=3
log_close/mean_60-mean_close/mean_60_id4=3
log_close/mean_60-mean_close/mean_60_id10=3
log_close/mean_300-mean_close/mean_300_id4=3
log_close/mean_300-mean_close/mean_300_id6=3
log_return_300-mean_log_returns_300_id6=3
log_close/mean_300-mean_close/mean_300_id11=3
log_return_900-mean_log_returns_900_id12=3
log_close/mean_900-mean_close/mean_900_id13=3
log_close/mean_300_id0=2
log_return_60_id1=2
log_return_60_id2=2
log_close/mean_300_id3=2
log_return_900_id3=2
log_return_60_id4=2
log_return_900_id5=2
log_close/mean_300_id6=2
log_close/mean_60_id7=2
log_close/mean_60_id8=2
log_return_60_id9=2
log_close/mean_300_id9=2
log_return_900_id9=2
log_return_60_id10=2
log_return_900_id10=2
log_return_300_id11=2
log_return_900_id12=2
log_close/mean_60_id13=2
log_close/mean_60-mean_close/mean_60_id6=2
log_close/mean_60-mean_close/mean_60_id8=2
log_close/mean_60-mean_close/mean_60_id9=2
mean_close/mean_300=2
log_close/mean_300-mean_close/mean_300_id3=2
log_return_300-mean_log_returns_300_id4=2
log_return_300-mean_log_returns_300_id13=2
log_return_900-mean_log_returns_900_id6=2
log_return_900-mean_log_returns_900_id13=2
log_close/mean_300_id1=1
log_return_300_id1=1
log_return_900_id1=1
log_close/mean_60_id2=1
log_close/mean_60_id3=1
log_return_60_id3=1
log_close/mean_900_id3=1
log_close/mean_900_id4=1
log_close/mean_60_id5=1
log_return_300_id6=1
log_close/mean_300_id7=1
log_close/mean_900_id7=1
log_return_300_id8=1
log_close/mean_60_id9=1
log_close/mean_900_id9=1
log_close/mean_900_id11=1
log_close/mean_60_id12=1
log_close/mean_900_id12=1
log_return_300_id13=1
log_close/mean_60-mean_close/mean_60_id2=1
log_return_60-mean_log_returns_60_id3=1
log_return_60-mean_log_returns_60_id5=1
log_return_60-mean_log_returns_60_id7=1
log_return_60-mean_log_returns_60_id9=1
log_return_60-mean_log_returns_60_id10=1
log_close/mean_60-mean_close/mean_60_id13=1
log_close/mean_300-mean_close/mean_300_id2=1
log_close/mean_300-mean_close/mean_300_id7=1
log_return_300-mean_log_returns_300_id8=1
log_close/mean_300-mean_close/mean_300_id9=1
log_close/mean_300-mean_close/mean_300_id12=1
mean_close/mean_900=1
mean_log_returns_900=1
log_close/mean_900-mean_close/mean_900_id2=1
log_return_900-mean_log_returns_900_id3=1
log_return_900-mean_log_returns_900_id5=1
log_close/mean_900-mean_close/mean_900_id6=1
log_return_900-mean_log_returns_900_id7=1
log_close/mean_900-mean_close/mean_900_id9=1
log_return_900-mean_log_returns_900_id9=1

parameters:
[boosting: gbdt]
[objective: regression]
[metric: rmse]
[tree_learner: serial]
[device_type: cpu]
[data: ]
[valid: ]
[num_iterations: 5000]
[learning_rate: 0.03]
[num_leaves: 31]
[num_threads: 0]
[deterministic: 0]
[force_col_wise: 0]
[force_row_wise: 0]
[histogram_pool_size: -1]
[max_depth: 5]
[min_data_in_leaf: 50]
[min_sum_hessian_in_leaf: 0.001]
[bagging_fraction: 0.7]
[pos_bagging_fraction: 1]
[neg_bagging_fraction: 1]
[bagging_freq: 1]
[bagging_seed: 8586]
[feature_fraction: 1]
[feature_fraction_bynode: 1]
[feature_fraction_seed: 8586]
[extra_trees: 1]
[extra_seed: 8586]
[early_stopping_round: 50]
[first_metric_only: 1]
[max_delta_step: 0]
[lambda_l1: 0.5]
[lambda_l2: 2]
[linear_lambda: 0]
[min_gain_to_split: 0]
[drop_rate: 0.1]
[max_drop: 50]
[skip_drop: 0.5]
[xgboost_dart_mode: 0]
[uniform_drop: 0]
[drop_seed: 8586]
[top_rate: 0.2]
[other_rate: 0.1]
[min_data_per_group: 100]
[max_cat_threshold: 32]
[cat_l2: 10]
[cat_smooth: 10]
[max_cat_to_onehot: 4]
[top_k: 20]
[monotone_constraints: ]
[monotone_constraints_method: basic]
[monotone_penalty: 0]
[feature_contri: ]
[forcedsplits_filename: ]
[refit_decay_rate: 0.9]
[cegb_tradeoff: 1]
[cegb_penalty_split: 0]
[cegb_penalty_feature_lazy: ]
[cegb_penalty_feature_coupled: ]
[path_smooth: 0]
[interaction_constraints: ]
[verbosity: -1]
[saved_feature_importance_type: 0]
[linear_tree: 0]
[max_bin: 600]
[max_bin_by_feature: ]
[min_data_in_bin: 3]
[bin_construct_sample_cnt: 200000]
[data_random_seed: 8586]
[is_enable_sparse: 1]
[enable_bundle: 1]
[use_missing: 1]
[zero_as_missing: 1]
[feature_pre_filter: 1]
[pre_partition: 0]
[two_round: 0]
[header: 0]
[label_column: ]
[weight_column: ]
[group_column: ]
[ignore_column: ]
[categorical_feature: ]
[forcedbins_filename: ]
[precise_float_parser: 0]
[objective_seed: 30655]
[num_class: 1]
[is_unbalance: 0]
[scale_pos_weight: 1]
[sigmoid: 1]
[boost_from_average: 1]
[reg_sqrt: 0]
[alpha: 0.9]
[fair_c: 1]
[poisson_max_delta_step: 0.7]
[tweedie_variance_power: 1.5]
[lambdarank_truncation_level: 30]
[lambdarank_norm: 1]
[label_gain: ]
[eval_at: ]
[multi_error_top_k: 1]
[auc_mu_weights: ]
[num_machines: 1]
[local_listen_port: 12400]
[time_out: 120]
[machine_list_filename: ]
[machines: ]
[gpu_platform_id: -1]
[gpu_device_id: -1]
[gpu_use_dp: 0]
[num_gpu: 1]

end of parameters

pandas_categorical:[]
