tree
version=v4
num_class=1
num_tree_per_iteration=1
label_index=0
max_feature_idx=173
objective=regression
feature_names=log_close/mean_60_id0 log_return_60_id0 log_close/mean_300_id0 log_return_300_id0 log_close/mean_900_id0 log_return_900_id0 log_close/mean_60_id1 log_return_60_id1 log_close/mean_300_id1 log_return_300_id1 log_close/mean_900_id1 log_return_900_id1 log_close/mean_60_id2 log_return_60_id2 log_close/mean_300_id2 log_return_300_id2 log_close/mean_900_id2 log_return_900_id2 log_close/mean_60_id3 log_return_60_id3 log_close/mean_300_id3 log_return_300_id3 log_close/mean_900_id3 log_return_900_id3 log_close/mean_60_id4 log_return_60_id4 log_close/mean_300_id4 log_return_300_id4 log_close/mean_900_id4 log_return_900_id4 log_close/mean_60_id5 log_return_60_id5 log_close/mean_300_id5 log_return_300_id5 log_close/mean_900_id5 log_return_900_id5 log_close/mean_60_id6 log_return_60_id6 log_close/mean_300_id6 log_return_300_id6 log_close/mean_900_id6 log_return_900_id6 log_close/mean_60_id7 log_return_60_id7 log_close/mean_300_id7 log_return_300_id7 log_close/mean_900_id7 log_return_900_id7 log_close/mean_60_id8 log_return_60_id8 log_close/mean_300_id8 log_return_300_id8 log_close/mean_900_id8 log_return_900_id8 log_close/mean_60_id9 log_return_60_id9 log_close/mean_300_id9 log_return_300_id9 log_close/mean_900_id9 log_return_900_id9 log_close/mean_60_id10 log_return_60_id10 log_close/mean_300_id10 log_return_300_id10 log_close/mean_900_id10 log_return_900_id10 log_close/mean_60_id11 log_return_60_id11 log_close/mean_300_id11 log_return_300_id11 log_close/mean_900_id11 log_return_900_id11 log_close/mean_60_id12 log_return_60_id12 log_close/mean_300_id12 log_return_300_id12 log_close/mean_900_id12 log_return_900_id12 log_close/mean_60_id13 log_return_60_id13 log_close/mean_300_id13 log_return_300_id13 log_close/mean_900_id13 log_return_900_id13 mean_close/mean_60 mean_log_returns_60 log_close/mean_60-mean_close/mean_60_id0 log_return_60-mean_log_returns_60_id0 log_close/mean_60-mean_close/mean_60_id1 log_return_60-mean_log_returns_60_id1 log_close/mean_60-mean_close/mean_60_id2 log_return_60-mean_log_returns_60_id2 log_close/mean_60-mean_close/mean_60_id3 log_return_60-mean_log_returns_60_id3 log_close/mean_60-mean_close/mean_60_id4 log_return_60-mean_log_returns_60_id4 log_close/mean_60-mean_close/mean_60_id5 log_return_60-mean_log_returns_60_id5 log_close/mean_60-mean_close/mean_60_id6 log_return_60-mean_log_returns_60_id6 log_close/mean_60-mean_close/mean_60_id7 log_return_60-mean_log_returns_60_id7 log_close/mean_60-mean_close/mean_60_id8 log_return_60-mean_log_returns_60_id8 log_close/mean_60-mean_close/mean_60_id9 log_return_60-mean_log_returns_60_id9 log_close/mean_60-mean_close/mean_60_id10 log_return_60-mean_log_returns_60_id10 log_close/mean_60-mean_close/mean_60_id11 log_return_60-mean_log_returns_60_id11 log_close/mean_60-mean_close/mean_60_id12 log_return_60-mean_log_returns_60_id12 log_close/mean_60-mean_close/mean_60_id13 log_return_60-mean_log_returns_60_id13 mean_close/mean_300 mean_log_returns_300 log_close/mean_300-mean_close/mean_300_id0 log_return_300-mean_log_returns_300_id0 log_close/mean_300-mean_close/mean_300_id1 log_return_300-mean_log_returns_300_id1 log_close/mean_300-mean_close/mean_300_id2 log_return_300-mean_log_returns_300_id2 log_close/mean_300-mean_close/mean_300_id3 log_return_300-mean_log_returns_300_id3 log_close/mean_300-mean_close/mean_300_id4 log_return_300-mean_log_returns_300_id4 log_close/mean_300-mean_close/mean_300_id5 log_return_300-mean_log_returns_300_id5 log_close/mean_300-mean_close/mean_300_id6 log_return_300-mean_log_returns_300_id6 log_close/mean_300-mean_close/mean_300_id7 log_return_300-mean_log_returns_300_id7 log_close/mean_300-mean_close/mean_300_id8 log_return_300-mean_log_returns_300_id8 log_close/mean_300-mean_close/mean_300_id9 log_return_300-mean_log_returns_300_id9 log_close/mean_300-mean_close/mean_300_id10 log_return_300-mean_log_returns_300_id10 log_close/mean_300-mean_close/mean_300_id11 log_return_300-mean_log_returns_300_id11 log_close/mean_300-mean_close/mean_300_id12 log_return_300-mean_log_returns_300_id12 log_close/mean_300-mean_close/mean_300_id13 log_return_300-mean_log_returns_300_id13 mean_close/mean_900 mean_log_returns_900 log_close/mean_900-mean_close/mean_900_id0 log_return_900-mean_log_returns_900_id0 log_close/mean_900-mean_close/mean_900_id1 log_return_900-mean_log_returns_900_id1 log_close/mean_900-mean_close/mean_900_id2 log_return_900-mean_log_returns_900_id2 log_close/mean_900-mean_close/mean_900_id3 log_return_900-mean_log_returns_900_id3 log_close/mean_900-mean_close/mean_900_id4 log_return_900-mean_log_returns_900_id4 log_close/mean_900-mean_close/mean_900_id5 log_return_900-mean_log_returns_900_id5 log_close/mean_900-mean_close/mean_900_id6 log_return_900-mean_log_returns_900_id6 log_close/mean_900-mean_close/mean_900_id7 log_return_900-mean_log_returns_900_id7 log_close/mean_900-mean_close/mean_900_id8 log_return_900-mean_log_returns_900_id8 log_close/mean_900-mean_close/mean_900_id9 log_return_900-mean_log_returns_900_id9 log_close/mean_900-mean_close/mean_900_id10 log_return_900-mean_log_returns_900_id10 log_close/mean_900-mean_close/mean_900_id11 log_return_900-mean_log_returns_900_id11 log_close/mean_900-mean_close/mean_900_id12 log_return_900-mean_log_returns_900_id12 log_close/mean_900-mean_close/mean_900_id13 log_return_900-mean_log_returns_900_id13
feature_infos=[-0.22807757679301877:0.1225217771359559] [-0.33914896845817566:0.17198517918586731] [-0.37471100653486078:0.2220821040384173] [-0.43397310376167297:0.2909504771232605] [-0.46436598280542823:0.31386048036320729] [-0.59379559755325317:0.5533481240272522] [-0.16888859086068614:0.11226159094292959] [-0.23344297707080841:0.15720094740390778] [-0.24036691271358346:0.13317477131545927] [-0.26984381675720215:0.2234543114900589] [-0.27450434903172483:0.19377696269569789] [-0.33830362558364868:0.29411333799362183] [-0.29838439597003313:0.15767970132324538] [-0.45918524265289307:0.22860442101955414] [-0.4955162291947684:0.24280853453999535] [-0.57055038213729858:0.4024651050567627] [-0.58568726588619158:0.3267464134784302] [-0.69867730140686035:0.46652406454086304] [-0.2544505589359945:0.16933201013709029] [-0.4032951295375824:0.22173464298248291] [-0.42695810832053388:0.17891375978605678] [-0.494911789894104:0.48757895827293396] [-0.50867410218316411:0.18132167877129093] [-0.62615841627120972:0.41996109485626221] [-0.29474463548310292:0.35450241916583519] [-0.49236267805099487:0.61582952737808228] [-0.47233381059632917:0.63991757666989713] [-0.69174551963806152:1.1009650230407715] [-0.56129109122788234:1.0422312535058769] [-0.83078455924987793:1.9278208017349243] [-0.34883273374682988:0.13041367592265027] [-0.51106739044189453:0.24270395934581757] [-0.54291254170964665:0.22588183777639551] [-0.61696690320968628:0.41190409660339355] [-0.62854743803965674:0.35533046149241804] [-0.75385600328445435:0.45632600784301758] [-0.23782156864866363:0.073217767975019665] [-0.34853857755661011:0.13924941420555115] [-0.37045075448736203:0.12642830094453036] [-0.42667052149772644:0.32038861513137817] [-0.453351237914287:0.16445459069514726] [-0.56796640157699585:0.28639596700668335] [-0.30426073280041471:0.17740374689181959] [-0.48379108309745789:0.26888057589530945] [-0.5210633854181177:0.27283562905815389] [-0.60538017749786377:0.43825459480285645] [-0.6227977023815614:0.37464714060918569] [-0.75572067499160767:0.50340372323989868] [-0.37376389320073994:0.15999853247859816] [-0.54719418287277222:0.19716979563236237] [-0.6006094534082046:0.22104043676856339] [-0.69609898328781128:0.44283893704414368] [-0.70117585197491006:0.30682918540038656] [-0.80341053009033203:0.47754055261611938] [-0.30217651289429709:0.2252812817876314] [-0.45826292037963867:0.28624457120895386] [-0.48632048124588662:0.27679894231192975] [-0.55979180335998535:0.30217653512954712] [-0.55911736572632498:0.26938457886321648] [-0.65282523632049561:0.29666107892990112] [-0.2770099681799198:0.18524324143355325] [-0.36545681953430176:0.21874614059925079] [-0.41861144767190456:0.24076891285255791] [-0.47559326887130737:0.44036442041397095] [-0.48999245840575706:0.35364269737924292] [-0.59827655553817749:0.64374738931655884] [-0.30123699252364372:0.12752468042292855] [-0.45401281118392944:0.19058167934417725] [-0.49027990132529825:0.13596360310951569] [-0.5620916485786438:0.32775029540061951] [-0.58859950018774498:0.17073949410086703] [-0.70818358659744263:0.38319206237792969] [-0.29731145932874226:0.15660213697178499] [-0.48256406188011169:0.24072210490703583] [-0.50832139644489738:0.29668879453019553] [-0.58935177326202393:0.49033546447753906] [-0.59671115123061391:0.47173543201660961] [-0.70222151279449463:0.63581192493438721] [-0.22578539828956415:0.1690791307383514] [-0.3379656970500946:0.24271848797798157] [-0.3797329364762006:0.22471140672961995] [-0.44038635492324829:0.27111494541168213] [-0.45918299896904813:0.26070588865023031] [-0.56593906879425049:0.37044873833656311] [-0.27625893162526466:0.097329468386629453] [-0.4170415997505188:0.14085246622562408] [-0.10212932201580718:0.1213701796984186] [-0.15996114909648895:0.13714328408241272] [-0.064629523488063029:0.10737034076457852] [-0.065055646002292633:0.18359862267971039] [-0.068418460919223989:0.12462010323348766] [-0.085314422845840454:0.17453637719154358] [-0.090264263720410631:0.10322735276790257] [-0.089370682835578918:0.1538846492767334] [-0.26305389309893534:0.31959880331233576] [-0.45519444346427917:0.56250125169754028] [-0.14421294827253067:0.11108601764436922] [-0.1592521071434021:0.21194897592067719] [-0.041911567922147848:0.061491635803749903] [-0.04956141859292984:0.099275387823581696] [-0.10983549186449904:0.1650517621698194] [-0.16167590022087097:0.22012209892272949] [-0.09750496157547528:0.097257192116125393] [-0.13015258312225342:0.13333623111248016] [-0.099937819383324494:0.18174368014151815] [-0.17890399694442749:0.23261266946792603] [-0.13259040316449291:0.17043235031641865] [-0.1808771938085556:0.18342548608779907] [-0.07653337329144716:0.079763773884462943] [-0.12009811401367188:0.10706652700901031] [-0.094349022983089961:0.14038216402321579] [-0.16446004807949066:0.21632732450962067] [-0.0897526101898041:0.15250454028414998] [-0.10331317782402039:0.22767636179924011] [-0.44982787186487477:0.12791386156572232] [-0.51821517944335938:0.35656732320785522] [-0.18100907019821144:0.21893610057343793] [-0.19449974596500397:0.28039702773094177] [-0.058547508949367534:0.20946095915129131] [-0.19701081514358521:0.24837136268615723] [-0.091589735540057976:0.18129312746358406] [-0.1089540496468544:0.20554345846176147] [-0.088529655654664585:0.14341027366759435] [-0.12235932052135468:0.17041043937206268] [-0.41864779817233799:0.59501395760551845] [-0.667388916015625:1.03139328956604] [-0.15189226548851212:0.20335804464753171] [-0.16025084257125854:0.36805865168571472] [-0.051951558862122375:0.092201015235309297] [-0.096505157649517059:0.12551574409008026] [-0.12813600731095265:0.2263153626340014] [-0.26490128040313721:0.34667316079139709] [-0.15078158154332982:0.20457120838371237] [-0.1778838038444519:0.28909438848495483] [-0.11269482103757515:0.21941480156650647] [-0.17072033882141113:0.22945454716682434] [-0.1149642946129882:0.2157499722758312] [-0.17557747662067413:0.30581137537956238] [-0.12912294450678935:0.10734254498229462] [-0.21057641506195068:0.14850281178951263] [-0.11502121243207042:0.25677916214622643] [-0.1824149489402771:0.36397045850753784] [-0.11508558251971412:0.19751560287404463] [-0.20819666981697083:0.22682803869247437] [-0.53270308023151569:0.13799429171039063] [-0.64324843883514404:0.32655730843544006] [-0.13501484315980852:0.28933873749997546] [-0.22143664956092834:0.50562202930450439] [-0.092373100802236513:0.25819873119979087] [-0.16498772799968719:0.30494481325149536] [-0.10018595909783132:0.23853154263370713] [-0.14432629942893982:0.3415645956993103] [-0.10037674161993486:0.15145622310378856] [-0.18517737090587616:0.2318713366985321] [-0.48903998406760979:0.96123148966722149] [-0.72058010101318359:1.7702592611312866] [-0.15897962807831112:0.29969260476251625] [-0.23401620984077454:0.37661904096603394] [-0.10315480688584765:0.10932574031823981] [-0.18119262158870697:0.15430828928947449] [-0.15527442345987677:0.3481218755153328] [-0.19542589783668518:0.45462235808372498] [-0.16847277174339437:0.27436112468672463] [-0.18256369233131409:0.412019282579422] [-0.11954210455290201:0.22586402662341856] [-0.23406423628330231:0.23247823119163513] [-0.15767537894842901:0.29415193362013015] [-0.25712290406227112:0.43135011196136475] [-0.15656876845434431:0.14334504978497142] [-0.22202256321907043:0.21335482597351074] [-0.12345459352576316:0.40126547895236775] [-0.20008373260498047:0.53914278745651245] [-0.16720719835450293:0.25697629809483546] [-0.24310332536697388:0.33459407091140747]
tree_sizes=3083 3092 2661 3138 3218 2599 3045 2879 2740 2786 3206 3201 3271 2737 2367 3004 2931 3004 3156 2647 3152 3246 2905 2880 2515 2806 2929 3225 3014 2889 2928 2623 3187 2889 2575 2665 3106 3034 3171 2926 2530 2866 2560 3114 2959 2445 2766 2750 2399 2850 2608 3164 3146 3118 3016 3162 3164 2858 2969 3049 2556 2207 2902 2891 3112 3095 3134 2682 3172 2853 3166 3069 2607 2616 2618 3209 2343 3267 2805 2529 3001 2992 2585 3222 3213 2799 2442 3078 2947 2627 2625 2753 2812 3194 3042 3259 2270 2949 2958 2995 2868 2679 2791 2599 2732 2379 3143 2907 2490 3170 2909 3136 3026 3117 3022 2859 3052 3057 3063 2667

Tree=0
num_leaves=29
num_cat=0
split_feature=20 122 122 93 118 166 171 102 65 128 136 134 3 64 149 92 29 28 113 35 19 4 155 29 34 171 113 93
split_gain=0.0223042 0.0169594 0.00632137 0.00589555 0.00373012 0.00350156 0.00589551 0.00719893 0.00245982 0.00245456 0.00185488 0.00165317 0.00185015 0.00154427 0.00167694 0.00169273 0.00139244 0.00126028 0.00123446 0.000933516 0.00074046 0.000602755 0.000703292 0.000542583 0.00042747 0.000366897 6.699e-05 2.08381e-05
threshold=-0.036039865153746152 -0.0048098570668501555 -0.017852751255083749 -0.0023806315148249264 0.0021509871728244436 -0.024464377498802221 0.0019594629993662242 -0.0020119968462163 -0.056460266932845109 0.0022127407111496469 0.0085784830325663555 0.026317140798941274 0.0036174114793539052 -0.024277139022595269 -0.0059736929833888999 -0.0044278060521448512 0.053559586405754096 -0.01256749034619206 -0.0021681524813175197 -0.047902097925543778 -0.0080732572823762876 0.0041418549244559523 0.028583214618265632 -0.0084035242907702905 -0.032368186119726888 -0.0098126232624053938 -0.00088684415095485736 0.0058683087117969998
decision_type=6 6 6 6 6 6 6 6 4 6 4 6 6 6 6 6 6 6 6 4 6 6 4 4 6 6 6 6
left_child=1 2 20 13 11 6 27 -8 17 23 -10 16 -13 14 19 -16 -5 -6 25 -2 -1 24 -23 -4 -15 -7 -20 -3
right_child=3 5 9 4 8 18 7 -9 10 -11 -12 12 -14 21 15 -17 -18 -19 26 -21 -22 22 -24 -25 -26 -27 -28 -29
leaf_value=0.00011200437786584168 9.7656861063716973e-06 1.8793763490362926e-05 3.2075654860161263e-05 1.3196732026226908e-05 2.301682851975037e-05 -9.5470646698332688e-06 1.362873517566663e-05 -0.00017375206067581642 9.3045971069887053e-06 6.9959532942973199e-05 2.1455482755319705e-06 1.362873517566663e-05 5.118913329260486e-05 2.4240020433372945e-05 2.5287749929153068e-05 1.4379726300103763e-05 6.4311428337726253e-06 5.0039161642498225e-06 1.362873517566663e-05 2.6400978553937416e-05 1.362873517566663e-05 1.782480917908322e-05 1.0742598594599023e-05 1.362873517566663e-05 1.2479917340884241e-05 1.362873517566663e-05 3.9788083823399183e-05 1.362873517566663e-05
leaf_weight=3451 1875 701 2252 426855 13122 658 416 413 95582 3114 59689 1237 2136 2720 17012 67088 29921 3982 168 32490 336 69338 12827 661 81648 718 2283 332
leaf_count=3451 1875 701 2252 426855 13122 658 416 413 95582 3114 59689 1237 2136 2720 17012 67088 29921 3982 168 32490 336 69338 12827 661 81648 718 2283 332
internal_value=1.36287e-05 4.93702e-05 7.33575e-05 1.30874e-05 1.14594e-05 1.06194e-05 -2.50339e-05 -8.50525e-05 7.68297e-06 4.9958e-05 6.45581e-06 1.29067e-05 3.3637e-05 1.66481e-05 1.92969e-05 1.67648e-05 1.27207e-05 1.79458e-05 2.406e-05 2.50567e-05 0.0001066 1.46736e-05 1.65366e-05 2.34065e-05 1.30371e-05 9.43022e-06 3.83849e-05 1.36287e-05
internal_weight=0 15503 9814 917522 632524 5689 1862 829 172375 6027 155271 460149 3373 284998 118465 84100 456776 17104 3827 34365 3787 166533 82165 2913 84368 1376 2451 1033
internal_count=933025 15503 9814 917522 632524 5689 1862 829 172375 6027 155271 460149 3373 284998 118465 84100 456776 17104 3827 34365 3787 166533 82165 2913 84368 1376 2451 1033
is_linear=0
shrinkage=1


Tree=1
num_leaves=30
num_cat=0
split_feature=92 114 122 62 158 88 61 122 91 122 97 89 149 99 104 19 7 105 142 28 17 107 64 6 10 64 136 107 50
split_gain=0.0143028 0.015727 0.0114863 0.00950852 0.00612686 0.00438005 0.00351128 0.00918656 0.00204897 0.00362624 0.0055276 0.00199838 0.00180076 0.00142112 0.00131416 0.00114732 0.00108463 0.0011196 0.00109388 0.0010786 0.000905126 0.000893341 0.000820197 0.00063657 0.000631079 0.000557621 8.49428e-05 5.40396e-05 1.16191e-05
threshold=-0.001369178022228584 -0.041976201800042322 -0.0023710953591410066 0.0067883536796551833 0.0062015292442483758 -3.5879461397204019e-05 -0.0073857284151017657 -0.014114590283252305 -0.0071444134227931491 0.0053215203945417228 -0.0097192851826548559 -0.0034641408128663893 0.0046418835408985623 -0.00087461614748463024 -0.0045705577524751779 -0.016358410939574238 0.023030768148601059 0.0075990634504705676 -0.012502360412977353 -0.00057277672534931728 0.048221673816442497 -0.002371065784245729 0.011839510996725923 0.0052582544207868823 0.005567562619421952 0.041550328353731063 -0.0039189177676878508 -0.017795391380786892 0.0038326969541677344
decision_type=6 6 6 4 4 4 6 6 6 4 6 6 4 6 6 6 6 6 6 4 6 6 4 6 6 4 4 6 6
left_child=1 2 4 27 19 16 7 26 9 22 -11 -9 24 14 -8 -6 17 20 -19 -1 -2 -18 -7 -15 -10 -14 -3 -4 -23
right_child=5 6 3 -5 15 8 13 11 12 10 -12 -13 25 23 -16 -17 21 18 -20 -21 -22 28 -24 -25 -26 -27 -28 -29 -30
leaf_value=5.1097572833576067e-05 3.1687995154242642e-08 2.0403416115691787e-05 0 -0.00031897672447386475 0.00016847078804944476 1.2497812056637339e-06 -1.3457752801568963e-05 1.8465746329410277e-05 -1.1649333727536416e-06 -9.8907611181315525e-05 -1.4566714373712082e-05 4.6183517491847395e-06 -5.3835539034901591e-06 3.0910508219622736e-06 0 0 -4.8580372771762113e-05 3.4368760872561964e-05 4.0820090981061534e-06 0 -5.9719543760451251e-06 0 -1.2398078696924403e-05 1.1402487724246512e-05 -5.4234858381683719e-06 -1.0423858789969254e-05 4.6641387097813693e-05 1.4783687722586926e-05 -4.178242067028442e-06
leaf_weight=799 276198 2708 82 81 1135 4929 7069 11553 130988 1146 3395 98415 79994 84399 68643 88 753 1383 18461 194 24192 326 7333 11474 48150 43773 5426 750 597
leaf_count=799 276198 2708 82 81 1135 4929 7069 11553 130988 1146 3395 98415 79994 84399 68643 88 753 1383 18461 194 24192 326 7333 11474 48150 43773 5426 750 597
internal_value=0 5.41077e-06 7.26158e-05 -1.80449e-06 0.000110014 -2.59e-06 4.63259e-06 8.64796e-06 -5.0781e-06 -1.56386e-05 -3.91876e-05 6.20984e-06 -4.44266e-06 1.78132e-06 -1.13706e-06 0.000159689 -7.22968e-08 6.97494e-09 6.95187e-06 3.356e-05 -4.01919e-07 -2.414e-05 -5.6896e-06 4.24243e-06 -2.39336e-06 -7.2875e-06 3.9757e-05 1.17793e-05 0
internal_weight=0 292816 3129 913 2216 641618 289687 118102 319708 16803 4541 109968 302905 171585 75712 1223 321910 320234 19844 993 300390 1676 12262 95873 179138 123767 8134 832 923
internal_count=934434 292816 3129 913 2216 641618 289687 118102 319708 16803 4541 109968 302905 171585 75712 1223 321910 320234 19844 993 300390 1676 12262 95873 179138 123767 8134 832 923
is_linear=0
shrinkage=0.03


Tree=2
num_leaves=26
num_cat=0
split_feature=92 0 122 158 50 88 88 113 144 92 21 172 8 60 155 30 83 146 99 134 7 122 29 98 16
split_gain=0.0201453 0.0122114 0.00705105 0.00602381 0.00508296 0.00486504 0.00446432 0.00324098 0.004105 0.00314157 0.00262567 0.00240692 0.00209527 0.00149675 0.00228496 0.00138313 0.00123164 0.00120294 0.00136003 0.00117488 0.00106315 0.00093815 0.000882223 0.0005425 0.000163564
threshold=-0.0082351506969394906 -0.013405797385079124 -0.0052902311152159074 0.0048438904635087288 -0.036037171878423875 -0.00062545582469023073 -1.4332699581678973e-05 -0.010156682692468165 -0.11996237743406574 0.00073302053277998996 -0.0051795635372400275 -0.0073651257451486183 -0.0069830073175122546 -0.0024953820809645324 0.062521412968635573 0.016675730364143864 -0.0088864858262240869 -0.0011784300836271422 -0.0027415148215368386 0.0029992957988787352 -0.0051858546212315551 0.0016370273022017119 -0.015769761987030503 0.0013817054082716923 0.020000771856877656
decision_type=6 6 4 4 4 6 6 6 6 4 6 6 6 6 6 6 6 4 6 6 6 6 4 6 6
left_child=1 3 4 21 16 13 17 8 -7 -9 20 -8 23 14 -4 -15 22 18 -3 -14 -5 -1 -2 -6 -19
right_child=2 6 5 10 12 7 11 9 -10 -11 -12 -13 19 15 -16 -17 -18 24 -20 -21 -22 -23 -24 -25 -26
leaf_value=4.8418022249438236e-05 5.2742266021833221e-05 -2.1201946975851253e-05 5.1523787227257511e-06 0.0001959544758740958 8.3749864658299252e-06 -0.00020437544218741374 6.0150284285753553e-05 -1.1446038409909934e-06 -1.4597849307610908e-05 -6.2921163386355949e-06 0 2.0945824210661926e-05 5.9965281981815252e-07 9.9610132819973016e-08 -2.5933275327504062e-05 -1.4954759994728399e-05 0 2.5240076512653708e-05 8.1860762069455197e-06 7.1070038793222207e-06 0 0 0 2.2811473833865054e-05 0
leaf_weight=1002 2871 2761 91548 739 15294 115 2932 276968 17008 183416 129 6936 96465 178513 2034 5620 780 1695 2016 36939 68 140 620 5726 744
leaf_count=1002 2871 2761 91548 739 15294 115 2932 276968 17008 183416 129 6936 96465 178513 2034 5620 780 1695 2016 36939 68 140 620 5726 744
internal_value=0 3.03998e-05 -6.78682e-07 0.000101007 5.04397e-06 -1.90106e-06 2.09228e-05 -3.74512e-06 -1.6772e-05 -3.22796e-06 0.00016369 3.41239e-05 4.04177e-06 1.21565e-06 4.31591e-06 -2.78566e-07 3.77506e-05 7.87453e-07 -5.66258e-06 2.51403e-06 0.000184358 3.6323e-05 4.53947e-05 1.30229e-05 1.95597e-05
internal_weight=0 19162 913917 2078 158695 755222 17084 477507 17123 460384 936 9868 154424 277715 93582 184133 4271 7216 4777 133404 807 1142 3491 21020 2439
internal_count=933079 19162 913917 2078 158695 755222 17084 477507 17123 460384 936 9868 154424 277715 93582 184133 4271 7216 4777 133404 807 1142 3491 21020 2439
is_linear=0
shrinkage=0.03


Tree=3
num_leaves=30
num_cat=0
split_feature=92 85 162 122 166 88 61 122 122 112 128 106 88 11 166 138 129 155 4 30 21 145 107 61 144 89 26 104 63
split_gain=0.0145763 0.00944355 0.0117669 0.00512251 0.00456583 0.00431699 0.00314545 0.0030086 0.00266129 0.00310956 0.00239671 0.00207774 0.00146593 0.00145602 0.0013524 0.00130396 0.00129036 0.00128163 0.00215118 0.00120304 0.00101909 0.000877755 0.000790331 0.000737945 0.000596583 0.000567557 0.000430368 0.000601137 0.000373395
threshold=-0.0033983266704314115 -0.020572370849549767 -0.019887805283784737 -0.005024203229580115 -0.018423454395454144 -9.2300635229099581e-05 -0.0082701244391500933 -0.0070378092802635362 -0.00077857028429400004 -0.0027142849925586095 0.0030519671882629587 -0.0015409945708243348 0.00036085395136358487 -0.01203414751216769 -0.023613059593098534 0.0098840019697955962 -0.017031162977218624 -0.028008764609694477 0.041253990289251939 0.0084261751344550159 -0.00026172844809480006 -0.0077243980485945931 0.0012860911083407702 -0.00636000046506524 0.047618098866593288 0.0011427181307226422 -0.033727690138638751 0.0016959529772007751 -0.016440661624073979
decision_type=4 6 6 6 4 4 6 6 4 6 6 6 6 4 6 4 6 4 4 6 6 6 4 4 6 6 4 6 6
left_child=1 2 4 10 -1 11 26 -6 13 15 -4 17 16 23 -5 -10 -8 18 -2 -15 21 -13 -19 -7 -22 -11 -3 -28 -14
right_child=5 6 3 14 7 8 12 -9 9 25 -12 20 28 19 -16 -17 -18 22 -20 -21 24 -23 -24 -25 -26 -27 27 -29 -30
leaf_value=0 5.2524132827747984e-06 0 1.0832659077581925e-05 -6.0424578187230979e-05 0.00021123686565183053 9.9443367580483304e-06 -1.5206746704569988e-05 2.8740808528797251e-05 -1.1713338852316895e-05 -2.105215998309793e-06 7.513012798822773e-05 0 0 -2.7088586844154168e-06 0 -3.435554589690501e-05 1.9536681364464529e-06 1.6367061145348468e-08 3.8431111428704851e-05 1.4468785187912718e-05 9.4753342870595523e-07 -6.2284921498005333e-06 4.1569787877850856e-06 4.4047294051826028e-07 -1.4855657544197833e-05 -5.7135369596729401e-06 1.1535254648433339e-05 2.2635448234261454e-05 1.0896874026537288e-05
leaf_weight=275 12739 923 1864 466 629 13875 4370 341 26976 84989 1472 40457 5298 144153 991 3557 39381 89331 2458 3523 110162 52014 91739 23577 2118 115494 28568 11122 21853
leaf_count=275 12739 923 1864 466 629 13875 4370 341 26976 84989 1472 40457 5298 144153 991 3557 39381 89331 2458 3523 110162 52014 91739 23577 2118 115494 28568 11122 21853
internal_value=0 9.88112e-06 4.6917e-05 2.17258e-05 0.000131679 -1.41709e-06 7.74049e-06 0.000162704 -3.56413e-06 -5.72288e-06 4.37254e-05 7.73543e-07 3.64051e-06 -7.89227e-07 -1.83554e-05 -1.48444e-05 0 3.00246e-06 1.16101e-05 -2.1973e-06 -1.28976e-06 -3.64402e-06 2.19707e-06 4.36224e-06 5.15578e-07 -4.25875e-06 1.45284e-05 1.50247e-05 9.12124e-06
internal_weight=0 117553 6038 4793 1245 817162 111515 970 416144 231016 3336 401018 70902 185128 1457 30533 43751 196267 15197 147676 204751 92471 181070 37452 112280 200483 40613 39690 27151
internal_count=934715 117553 6038 4793 1245 817162 111515 970 416144 231016 3336 401018 70902 185128 1457 30533 43751 196267 15197 147676 204751 92471 181070 37452 112280 200483 40613 39690 27151
is_linear=0
shrinkage=0.03


Tree=4
num_leaves=31
num_cat=0
split_feature=92 84 28 123 21 77 38 88 93 60 37 140 99 21 105 61 144 53 30 149 64 149 110 61 134 96 149 131 65 90
split_gain=0.0138739 0.00937266 0.00709007 0.0111189 0.00556525 0.00529494 0.00649524 0.00528868 0.00438555 0.00341715 0.00278461 0.0027494 0.00213465 0.00203217 0.00185007 0.00183871 0.00173492 0.00168405 0.00160797 0.00166814 0.00117888 0.0014022 0.00111723 0.000994093 0.000954228 0.000817846 0.000710094 0.000678589 0.000647245 0.000615855
threshold=-0.0015108273548187642 -0.0090798612274770058 -0.049613032908998898 -0.010029930621385573 0.065333195030689253 0.046221438795328147 0.0081373728803375619 0.00039948264149155681 -0.0096467696130275709 0.0026914378334564229 0.0088762119412422198 0.016448307995080982 -0.0099931703880429251 0.029894528910517696 0.0012937819119542839 -0.00078306451905518759 0.0012597251050132767 -0.013410623650997875 0.016675730364143864 0.0014657329302281143 0.01726831683164962 0.013378783594816925 -0.004151667683392775 -0.010624682530760763 0.007099869520380035 0.00061014101617009491 0.01147788902744651 0.0067227378021925696 -0.019719277508556839 0.0011845202844599939
decision_type=6 6 4 6 4 6 6 4 6 4 4 6 4 6 6 6 6 6 6 6 4 4 6 6 6 6 6 6 6 6
left_child=1 2 3 17 7 18 11 13 12 -5 15 -7 -4 23 -8 25 -15 -1 19 -6 26 -22 -17 -2 -12 -3 -9 -20 -10 -26
right_child=4 10 8 9 5 6 14 20 28 -11 24 -13 -14 16 -16 22 -18 -19 27 -21 21 -23 -24 -25 29 -27 -28 -29 -30 -31
leaf_value=0.00014593535224329834 1.5573632272565136e-06 2.982419341106357e-06 0 2.7426326462632482e-05 1.1550643924572154e-05 -3.2697906101173885e-05 -3.477648051716014e-05 -1.6067183984868572e-06 -3.7375097605145573e-06 -0.00017069905332079674 8.9425124047450163e-06 -0.00015237347289031306 4.9566211636134473e-05 2.4076188226846735e-05 0 -8.8744569707957695e-06 3.8223153745188635e-06 0 -8.7095974321521499e-05 -2.0428627196308254e-05 -5.7504887331767655e-06 -1.4865196246410028e-05 9.4479661975414462e-07 -1.7019094633643439e-06 7.9339150811741063e-06 8.2011401173321486e-06 -6.5693909283301966e-06 0 1.3300974592239776e-05 3.4673764284741538e-05
leaf_weight=1263 133549 81484 351 1612 4388 771 2642 97316 4486 68 28712 725 3712 4974 1307 11926 31744 79 276 2192 94353 22114 77807 219017 3386 54559 43003 131 2984 3521
leaf_count=1263 133549 81484 351 1612 4388 771 2642 97316 4486 68 28712 725 3712 4974 1307 11926 31744 79 276 2192 94353 22114 77807 219017 3386 54559 43003 131 2984 3521
internal_value=0 5.67197e-06 2.92804e-05 7.18163e-05 -2.34103e-06 -2.23366e-05 -4.47708e-05 -1.93298e-06 1.68238e-05 1.02956e-05 4.29981e-06 -0.000100835 4.20958e-05 2.34746e-07 -1.96952e-05 2.98146e-06 6.97566e-06 0.000137541 -2.69943e-06 0 -5.2776e-06 -7.61015e-06 -1.93245e-07 -4.24778e-07 1.22347e-05 5.18569e-06 -3.23458e-06 -6.05213e-05 1.063e-06 2.37423e-05
internal_weight=0 275950 14555 3022 658502 12432 5445 646070 11533 1680 261395 1496 4063 389284 3949 225776 36718 1342 6987 6580 256786 116467 89733 352566 35619 136043 140319 407 7470 6907
internal_count=934452 275950 14555 3022 658502 12432 5445 646070 11533 1680 261395 1496 4063 389284 3949 225776 36718 1342 6987 6580 256786 116467 89733 352566 35619 136043 140319 407 7470 6907
is_linear=0
shrinkage=0.03


Tree=5
num_leaves=25
num_cat=0
split_feature=20 122 18 24 76 39 153 26 118 23 110 132 112 146 93 137 30 64 99 76 62 55 136 65
split_gain=0.00775826 0.00782984 0.0167026 0.0098632 0.00605342 0.00576895 0.00485895 0.00485993 0.00466848 0.00458402 0.00406527 0.00393109 0.00339787 0.00335955 0.0031302 0.00285267 0.00282143 0.00265645 0.00248068 0.00230351 0.00143719 0.00123479 0.00113046 0.00100882
threshold=0.048820141596566557 -0.0029200659867832453 -0.01069897706354222 -0.024867103765657445 0.05803422708887282 -0.012483799830079077 0.031082158908247951 -0.0070411815398327459 -0.0013293612249412824 0.0092202811501920241 -0.002652205659501619 -0.004507024243685407 -0.0049017651743425159 -0.0054920313058774142 -0.0013432055711746214 0.0047983131371438512 0.0030641505523405876 -0.01838269927659331 0.0047130056191235789 0.009837078997261656 -0.0084441408718227643 -0.016976716928184029 0.0092273926061531078 -0.04265091381967067
decision_type=6 6 6 4 6 6 4 4 6 6 6 6 6 6 6 6 6 6 6 6 6 6 4 6
left_child=1 2 3 21 5 10 8 9 20 -8 -2 13 -10 -7 -6 -13 23 -18 -5 -9 -3 -1 -12 -4
right_child=4 6 16 18 14 11 7 19 12 -11 22 15 -14 -15 -16 -17 17 -19 -20 -21 -22 -23 -24 -25
leaf_value=0.00010693817551277554 -0.0002874116808721029 4.1355726819959618e-06 3.5870302221805077e-06 1.4579868156757541e-05 0 0 -7.9764355899029937e-06 8.1302158834099002e-06 -1.7828042086027113e-05 3.0393910150759384e-05 -6.1557335207360872e-05 -4.3783296996028591e-05 -3.7272982722833257e-06 6.9972018176151773e-05 -9.7273458049584782e-05 8.0809558079373721e-06 1.5081971395349074e-05 2.4976389819037692e-06 4.1617229072277678e-05 -4.5015207784243574e-06 -8.9127398095737423e-07 0 0 -9.2378010312663278e-07
leaf_weight=1681 111 87852 64178 16520 450 1209 2948 25369 16827 11610 337 2173 344469 998 1515 970 26629 43357 5158 25343 114428 408 129 139340
leaf_count=1681 111 87852 64178 16520 450 1209 2948 25369 16827 11610 337 2173 344469 998 1515 970 26629 43357 5158 25343 114428 408 129 139340
internal_value=0 4.21923e-07 4.44643e-06 2.86241e-05 -2.94351e-05 -1.1253e-05 -1.45671e-06 6.22908e-06 -2.37347e-06 2.15937e-05 -0.000101311 0 -4.42564e-06 2.91146e-05 -7.65847e-05 -2.30124e-05 2.2904e-06 7.50047e-06 2.17082e-05 1.52188e-06 1.2178e-06 9.31286e-05 -2.38925e-05 4.24991e-07
internal_weight=0 926117 297271 23767 7892 5927 628846 65270 563576 14558 577 5350 361296 2207 1965 3143 273504 69986 21678 50712 202280 2089 466 203518
internal_count=934009 926117 297271 23767 7892 5927 628846 65270 563576 14558 577 5350 361296 2207 1965 3143 273504 69986 21678 50712 202280 2089 466 203518
is_linear=0
shrinkage=0.03


Tree=6
num_leaves=29
num_cat=0
split_feature=93 18 91 49 134 123 99 89 134 36 152 87 154 58 136 65 22 70 11 24 64 106 131 124 152 157 136 106
split_gain=0.00850511 0.0181441 0.00642927 0.00536421 0.0106565 0.00487685 0.00301667 0.00250075 0.00227801 0.00218466 0.00226485 0.00192201 0.00166444 0.00160958 0.00139631 0.00130063 0.00128075 0.00112821 0.00131519 0.00106288 0.000845176 0.000740338 0.000674499 0.000654601 0.00058363 0.000521002 0.000400162 0.000169733
threshold=-0.0023355284938588734 -0.013091005690982338 -0.015807014890015122 -0.052097262814640992 -0.0018150582830500849 -0.001030159182846546 0.0015960123855620625 0.00046380719868466263 0.0076123514349548125 0.0053752639921018737 0.0020529179592205502 0.0025312394136562948 0.0035075258895330128 0.026035036574138904 0.012408634571838335 -0.059463379904627793 0.013071967654558659 0.0070769325791664459 -0.031850561499595635 0.0014053632475387859 -0.012916303740812676 -0.0029310882604274766 0.0014846380800008776 -0.0040956760452155487 0.01590558708201242 -0.033760968595743172 0.001491255779523998 0.0044573780198603457
decision_type=4 6 6 4 6 6 6 6 4 4 6 4 4 4 6 6 4 6 4 4 6 6 6 6 6 6 6 4
left_child=1 6 3 4 -2 -6 11 8 13 15 21 -1 -13 -4 -8 23 -10 18 -9 24 -19 -11 -16 -3 -5 -17 -12 -21
right_child=2 9 7 19 5 -7 14 17 16 10 26 12 -14 -15 22 25 -18 20 -20 27 -22 -23 -24 -25 -26 -27 -28 -29
leaf_value=3.048663804725107e-05 0 8.4605704332757615e-06 -1.4831191779403058e-07 -1.9158743277752313e-05 0 -0.00044755066468113859 3.6878615880749708e-05 4.1043515830448227e-06 1.5166248187253341e-06 2.3071584473751129e-05 -8.3430663711407098e-06 2.2527753994625178e-05 -1.4543914781157633e-05 -8.7293220587436168e-06 0.00010394399380201863 -8.7886434805639446e-06 1.5686612936217957e-05 -1.1065039589919721e-05 -3.4545295432736393e-06 -1.0900730401903675e-05 -3.9181601223399965e-06 8.8137746126768886e-06 1.2758195089694259e-05 1.9331922729719511e-06 -8.5983104022155222e-05 1.1974478608814951e-07 3.5636530396939591e-06 0
leaf_weight=4958 196 27267 318238 1870 60 112 8097 22027 16097 8421 5320 1999 2279 21296 999 6061 12127 31812 162425 1284 46856 14939 540 45101 434 169639 2815 836
leaf_count=4958 196 27267 318238 1870 60 112 8097 22027 16097 8421 5320 1999 2279 21296 999 6061 12127 31812 162425 1284 46856 14939 540 45101 434 169639 2815 836
internal_value=0 4.20306e-06 -1.93601e-06 -3.66953e-05 -0.000154696 -0.000325587 3.27307e-05 -1.6481e-06 -9.34527e-09 2.22341e-06 9.73602e-06 1.76572e-05 0 -7.3075e-07 4.56156e-05 1.20906e-06 8.13715e-06 -3.88152e-06 -2.4705e-06 -2.34251e-05 -6.99911e-06 1.45971e-05 8.1741e-05 4.60003e-06 -3.83147e-05 -1.02286e-07 -2.37962e-06 -1.53537e-07
internal_weight=0 298435 635670 4792 368 172 18872 630878 367758 279563 31495 9236 4278 339534 9636 248068 28224 263120 184452 4424 78668 23360 1539 72368 2304 175700 8135 2120
internal_count=934105 298435 635670 4792 368 172 18872 630878 367758 279563 31495 9236 4278 339534 9636 248068 28224 263120 184452 4424 78668 23360 1539 72368 2304 175700 8135 2120
is_linear=0
shrinkage=0.03


Tree=7
num_leaves=27
num_cat=0
split_feature=93 42 29 2 92 98 88 149 166 97 64 106 92 105 118 122 90 155 28 118 112 21 29 122 22 143
split_gain=0.00860995 0.0160431 0.00753226 0.00688245 0.0055264 0.00392098 0.00253703 0.00239474 0.00217059 0.00231155 0.00200738 0.00189426 0.00169442 0.00162406 0.00146886 0.00134635 0.00130663 0.00147975 0.00122682 0.00107879 0.000872567 0.000596683 0.00055214 0.000301321 0.000217702 0.000163021
threshold=-0.0032363238278776403 -0.05528131773756003 -0.040084371343255036 -0.015597028802933044 -0.0092146541684291067 0.0029039630216607893 -0.00051972713283974202 0.011581136845052244 0.092468480274289902 -0.0069698847364634267 -0.015127886295284399 -0.00016009380535579568 -0.0095939336038288331 -0.0032615110976621504 0.002799673517122403 -0.0059201424414550598 -0.00048218115148369672 -0.030926922336220738 0.015978997365711924 -0.0037464579425328026 -0.0016996460897802919 0.0050977845676243314 0.017665194347500805 -0.00020700893892855625 0.046448959978699259 0.0019348082132637503
decision_type=6 4 4 6 6 4 6 6 4 6 4 6 6 6 4 6 6 4 4 6 6 6 6 6 6 6
left_child=1 2 10 5 13 15 11 14 23 -10 -1 16 -7 -5 19 -3 22 -18 -6 -8 -16 25 -2 -9 -23 -13
right_child=6 3 -4 4 18 12 7 8 9 -11 -12 21 -14 -15 20 -17 17 -19 -20 -21 -22 24 -24 -25 -26 -27
leaf_value=0.0003428100317526922 1.1970970568545727e-06 2.0913019615648256e-05 0 8.0159375802337027e-07 2.6333213003725104e-07 9.5401877772857563e-05 4.6968998112699944e-06 -9.5603815924465644e-07 -4.1319159554298486e-05 -1.0630951475287468e-05 0 -6.1489112814753543e-06 3.1559387766505924e-05 3.2368910135487272e-05 -1.1617950388143959e-05 1.2902951594465198e-06 1.9987394911692073e-05 3.8220345038774765e-06 5.6282245753275117e-06 -1.3890883281257331e-06 -3.3303658881859981e-06 7.5733836320691159e-07 -4.5838983863057655e-06 -5.8097233158040871e-06 -5.2209481888583003e-06 -1.4998803748140247e-06
leaf_weight=201 67101 9026 84 3108 150871 864 29103 29602 2911 28798 59 35179 3821 7288 17920 7561 6112 79582 54732 218993 59438 39537 19071 36135 6354 20887
leaf_count=201 67101 9026 84 3108 150871 864 29103 29602 2911 28798 59 35179 3821 7288 17920 7561 6112 79582 54732 218993 59438 39537 19071 36135 6354 20887
internal_value=0 4.9692e-06 0.000210083 4.60684e-06 2.92243e-06 2.10036e-05 -1.64351e-06 -3.10582e-06 -7.28371e-06 -1.39237e-05 0.000290102 5.60139e-07 4.65691e-05 2.43761e-05 -1.80877e-06 1.28737e-05 2.5268e-06 5.15048e-06 1.76448e-06 -6.14677e-07 -5.44434e-06 -2.60787e-06 0 -3.85233e-06 0 -4.68459e-06
internal_weight=0 237615 344 237271 215999 21272 696723 422900 97446 31709 260 273823 4685 10396 325454 16587 171866 85694 205603 248096 77358 101957 86172 65737 45891 56066
internal_count=934338 237615 344 237271 215999 21272 696723 422900 97446 31709 260 273823 4685 10396 325454 16587 171866 85694 205603 248096 77358 101957 86172 65737 45891 56066
is_linear=0
shrinkage=0.03


Tree=8
num_leaves=27
num_cat=0
split_feature=18 93 47 92 159 122 116 64 139 89 147 36 164 21 64 81 29 29 88 166 165 122 87 82 92 22
split_gain=0.0127281 0.0222646 0.0112657 0.00445742 0.00304426 0.00428379 0.00258287 0.00723937 0.00469196 0.00240592 0.00205529 0.00204171 0.00206924 0.00157567 0.00153095 0.00133544 0.00131149 0.00124408 0.000978771 0.00147088 0.000873039 0.000690934 0.000655463 0.000434995 0.000230495 0.000181843
threshold=-0.012769026967843657 -0.016631798818707463 -0.1917876452207565 -2.0629918200264064e-05 -0.027827600017189976 0.021234444007233556 0.0059856722893075432 0.025479132765037094 -0.0022888446692377325 0.00055409083142876636 -0.027440083213150498 0.0019157108852009958 0.0034874661484146632 0.0076132148969918498 -0.023269182525208685 -0.049126891419291489 -0.010479300282895563 -0.055090989917516701 0.001923860114267991 0.0027613254638664043 0.0022512781433761124 0.00096442023701219114 0.00071603147080168139 -0.081677893763695983 0.00085200416860645764 -0.01156057138226829
decision_type=6 6 6 4 4 6 4 4 6 4 6 4 4 6 6 6 4 4 4 4 6 6 6 6 6 6
left_child=1 2 15 4 5 10 22 21 -9 13 -2 14 -13 17 -6 -1 -15 -5 23 -20 -7 -8 24 -11 -3 -24
right_child=3 6 -4 9 11 20 7 8 -10 18 -12 12 -14 16 -16 -17 -18 -19 19 -21 -22 -23 25 -25 -26 -27
leaf_value=0.00031667922711332039 -1.9707193932577696e-05 2.1776756090802197e-05 6.1551393761835049e-05 6.5103793856347119e-06 2.8267930723264203e-06 -0.00013957479998917072 1.965606112036517e-05 0 -8.6984642587725725e-05 1.5965946464241237e-05 0 2.2616734847893121e-06 1.0788726813712804e-05 7.5879762103518718e-06 -1.315163238885286e-06 0 0 -3.8472890478327903e-06 -3.1876770708779535e-06 -1.3157673996398479e-05 0 0 0 -3.9027906091017078e-06 0 1.0305393889478175e-05
leaf_weight=225 7302 7660 4934 10292 146857 290 3145 919 1388 712 9810 86740 40681 25671 172495 51 89494 137496 30067 33780 98 1726 4572 114016 1565 2353
leaf_count=225 7302 7660 4934 10292 146857 290 3145 919 1388 712 9810 86740 40681 25671 172495 51 89494 137496 30067 33780 98 1726 4572 114016 1565 2353
internal_value=0 1.96832e-05 7.60249e-05 -6.63513e-07 1.36705e-06 -1.0781e-05 6.4516e-06 -7.20803e-06 -5.22115e-05 -2.83265e-06 -7.5939e-06 1.87651e-06 5.1019e-06 -9.38446e-07 5.4259e-07 0.000278504 1.60817e-06 -3.0244e-06 -5.53784e-06 -8.69775e-06 -0.000112121 1.1041e-05 1.34515e-05 -3.64847e-06 1.92694e-05 3.53262e-06
internal_weight=0 28538 5210 905801 464273 17500 23328 7178 2307 441528 17112 446773 127421 262953 319352 276 115165 147788 178575 63847 388 4871 16150 114728 9225 6925
internal_count=934339 28538 5210 905801 464273 17500 23328 7178 2307 441528 17112 446773 127421 262953 319352 276 115165 147788 178575 63847 388 4871 16150 114728 9225 6925
is_linear=0
shrinkage=0.03


Tree=9
num_leaves=27
num_cat=0
split_feature=19 122 52 92 149 108 136 92 129 11 92 92 91 112 88 22 98 154 52 72 166 103 137 89 62 30
split_gain=0.0130237 0.0167202 0.0102254 0.00579687 0.0030177 0.00299425 0.00343124 0.00242406 0.00202655 0.00174062 0.00166986 0.00198713 0.00164883 0.00160946 0.00141458 0.00119681 0.00108546 0.00153012 0.000815433 0.00072301 0.000620499 0.000553562 0.000444698 0.000388193 0.000320589 0.000269151
threshold=-0.031320590525865548 -0.0041909798682246832 -0.065761086127869142 -3.0435418505337359e-05 0.0070596253499388703 0.0097570236677156901 0.002366402189796946 -0.0018861007410307768 0.0032772056292742495 0.05677402392029763 -0.0051389046552517467 -0.015024578253388999 -0.003844463150016963 -0.0013384216591469263 0.00047211052208270289 0.00032387666122365137 0.0015053910084483987 0.0093809133147598738 -0.0057223676165252119 0.0028564389811608199 -0.006685193660700711 0.0015522073954343798 -0.065700288861989961 0.0023524957941845064 -0.016252184228806841 0.0036297584699329284
decision_type=4 6 6 6 4 6 4 6 6 6 6 6 6 6 6 6 6 4 6 4 4 6 6 6 6 4
left_child=1 2 -1 7 9 16 -7 10 18 15 11 -2 -8 24 -15 -5 17 -3 -4 25 -12 -18 -21 -11 -6 -9
right_child=3 5 8 4 13 6 12 19 -10 23 20 -13 -14 14 -16 -17 21 -19 -20 22 -22 -23 -24 -25 -26 -27
leaf_value=0.00012207148152580625 4.3196876346891218e-05 0 0 -3.3846002004894962e-06 -1.6284725957081631e-05 0 -0.00018764302728401547 -1.4219164985656298e-06 5.5171943070670395e-05 -2.7413919682484617e-05 -4.2991069867075952e-07 7.564397591378358e-06 0 -6.666987607585565e-07 -8.3560640193170855e-06 4.2546025677257761e-07 2.5636167257142411e-05 -4.5828103792674551e-05 4.0717068484016835e-05 8.5142735079926791e-06 3.565091217616093e-06 0 1.0888670081357987e-06 0 -7.9748949136118027e-06 2.2687996569717118e-06
leaf_weight=1899 1673 1186 2359 115131 17429 364 219 180289 2761 2828 38582 48487 174 51026 44339 193564 1465 897 657 10962 135551 657 43200 1057 20388 16874
leaf_count=1899 1673 1186 2359 115131 17429 364 219 180289 2761 2828 38582 48487 174 51026 44339 193564 1465 897 657 10962 135551 657 43200 1057 20388 16874
internal_value=0 3.02105e-05 5.82701e-05 -4.48577e-07 -2.91959e-06 -1.01807e-05 -6.50258e-05 1.83579e-06 3.46669e-05 -1.24909e-06 4.10538e-06 9.05356e-06 -0.000126265 -6.72756e-06 -4.39918e-06 -9.46963e-07 0 -1.56549e-05 1.09013e-05 -1.30025e-07 2.5938e-06 1.48109e-05 2.86891e-06 -2.1384e-05 -1.2202e-05 -1.02995e-06
internal_weight=0 12638 7676 921380 445762 4962 757 475618 5777 312580 224293 50160 393 133182 95365 308695 4205 2083 3016 251325 174133 2122 54162 3885 37817 197163
internal_count=934018 12638 7676 921380 445762 4962 757 475618 5777 312580 224293 50160 393 133182 95365 308695 4205 2083 3016 251325 174133 2122 54162 3885 37817 197163
is_linear=0
shrinkage=0.03


Tree=10
num_leaves=31
num_cat=0
split_feature=93 93 13 30 64 92 22 145 32 62 88 78 61 88 30 153 62 66 88 158 161 64 69 118 22 122 61 119 167 128
split_gain=0.0112043 0.010339 0.0170237 0.00711439 0.00372663 0.00299055 0.00328682 0.00339864 0.00256921 0.00220118 0.00213503 0.0015958 0.00155792 0.00224868 0.00149381 0.00137296 0.00167332 0.00130899 0.00104166 0.00102646 0.000942685 0.000937041 0.000859331 0.000856058 0.000828 0.000821358 0.000805985 0.000578843 0.000397069 6.71208e-05
threshold=-0.0060425300616770974 -0.015279486775398253 -0.019779250025749203 -0.0327159194096922 -0.048618067360441289 0.0010785005314407712 0.011423107639053381 0.035659458488225944 0.0014021536985364543 0.025141194193010478 -0.0049161912256074566 0.0028234027870438065 -0.019239836372435089 -0.0030826658800128079 -0.0059767913584307048 0.04376609809696675 -0.0043022796643271211 0.0027517340829187535 0.0011748613137638443 0.010897688815480621 -0.02522975858300924 -0.020341900122255677 -0.0089677637442946417 0.00012794812493766041 -0.056472916309350314 0.00019155598819833216 -0.0010312747326679526 -0.007640519179403781 -0.027008694596588608 0.00040062795637184795
decision_type=4 6 6 6 6 6 4 6 6 4 6 6 6 6 6 6 4 6 6 6 6 6 6 6 6 6 6 6 4 6
left_child=1 2 3 4 -1 11 14 9 -5 -8 20 15 13 -13 25 23 -17 -9 -12 21 -4 26 -21 -2 -16 -7 -3 -23 -14 -24
right_child=5 19 10 8 -6 6 7 17 -10 -11 18 12 28 -15 24 16 -18 -19 -20 22 -22 27 29 -25 -26 -27 -28 -29 -30 -31
leaf_value=0.00029689635572245724 3.4603448175281253e-07 9.3729524257578992e-06 -4.1725356432738275e-05 8.4727492573179053e-05 0 -2.5672594588827139e-06 7.7177898103845565e-06 -1.7717919149819213e-06 0 -2.5395762837379493e-06 1.0027356643510896e-05 3.2581807587162676e-05 -3.8725804105635521e-06 5.5327609803121902e-06 7.9423567438447729e-06 2.6968926903535394e-05 0 -1.5561506034175363e-05 3.3156801779303241e-05 2.5178558681268527e-05 0 -4.2737791481992923e-06 0 -2.3559835422226826e-06 -5.2165413206138345e-06 -1.6698590091672603e-05 0 2.8739883240108119e-06 1.8692466046103416e-06 6.2221147823249648e-06
leaf_weight=308 194761 30525 535 1592 97 8032 49687 18060 172 27487 6041 3491 11662 29281 3539 3470 7497 12552 5934 4492 1250 14174 932 210894 151968 18648 8853 32561 69040 7261
leaf_count=308 194761 30525 535 1592 97 8032 49687 18060 172 27487 6041 3491 11662 29281 3539 3470 7497 12552 5934 4492 1250 14174 932 210894 151968 18648 8853 32561 69040 7261
internal_value=0 8.82078e-06 3.14317e-05 0.000110897 0.00024269 -1.18818e-06 -3.63952e-06 3.83323e-07 7.19044e-05 3.8701e-06 1.78013e-05 1.2446e-07 3.30212e-06 8.87362e-06 -6.10184e-06 -7.05036e-07 9.63969e-06 -7.91668e-06 2.27448e-05 5.02288e-06 -6.9575e-06 3.60648e-06 1.34538e-05 -1.02173e-06 -4.82052e-06 -1.3007e-05 7.04855e-06 3.85146e-07 8.53573e-07 5.19041e-06
internal_weight=0 114727 15929 2169 405 820069 289973 107786 1764 77174 13760 530096 113474 32772 182187 416622 10967 30612 11975 98798 1785 86113 12685 405655 155507 26680 39378 46735 80702 8193
internal_count=934796 114727 15929 2169 405 820069 289973 107786 1764 77174 13760 530096 113474 32772 182187 416622 10967 30612 11975 98798 1785 86113 12685 405655 155507 26680 39378 46735 80702 8193
is_linear=0
shrinkage=0.03


Tree=11
num_leaves=31
num_cat=0
split_feature=92 56 122 160 88 24 18 64 134 10 166 91 138 167 165 27 82 21 124 100 106 166 158 122 63 6 93 129 158 134
split_gain=0.00751912 0.00612119 0.0100133 0.00718105 0.00402875 0.00296573 0.00289932 0.00229408 0.00444281 0.00189952 0.00170516 0.00281821 0.0020713 0.00149094 0.00154321 0.00145716 0.000934199 0.00175897 0.0013431 0.00115153 0.000786195 0.000771332 0.000699576 0.00062115 0.000561646 0.00052626 0.00042487 0.000310742 0.000240135 9.64042e-05
threshold=-0.00081197121267824457 -0.033627004022023871 -0.0057808158268637883 -0.0033849406446469208 0.00060075842087854963 -0.010404127615117583 -0.0063840999643782499 -0.00017057157477010779 -0.00069854963544659207 0.046590989904884035 0.00336330765980499 -0.017181999981403347 0.0021198617709377184 -0.028549958020448681 0.0085857529193162935 -0.018039039336144921 -0.048157008540173289 0.0058289428707212218 0.018013531954829003 -0.00074531756022579881 -0.0011441355991297049 0.021409305460865741 0.0034784344190901279 -0.0069798338584241282 -0.011981725227087734 -0.005864076692832146 -0.0037507425295189019 0.00037746485031675553 0.00082293089089849 0.0016023520384503504
decision_type=6 4 6 6 6 4 4 4 6 6 4 6 6 4 6 4 6 6 4 6 6 4 6 4 4 4 6 6 6 6
left_child=1 2 3 5 16 -1 9 27 -9 22 23 12 -12 24 -15 -5 18 25 19 -2 -19 -13 -3 -6 -8 -18 -20 -4 -25 -11
right_child=4 6 7 15 10 -7 13 8 -10 29 11 21 -14 14 -16 -17 17 20 26 -21 -22 -23 -24 28 -26 -27 -28 -29 -30 -31
leaf_value=0.00015462114312064264 0 4.7706265926671388e-06 0 3.5682083383670535e-05 7.2893519828779883e-06 2.7249489981086449e-05 0 0 -0.00023684026968424273 2.5982758311686903e-06 0 -3.0239421274978822e-06 -9.0086623125954377e-05 8.5849097531524713e-07 6.489808086081831e-06 -8.2317494155141639e-06 -9.4175795848757659e-06 3.8109324032890188e-06 0 2.407273520227284e-05 -2.8367919498481111e-07 -9.2460310465620151e-06 1.2265406680946718e-05 -9.6873796831019428e-07 -7.7991069040033814e-06 -1.9351643209661655e-06 -2.0784109864983711e-05 1.6072166793305473e-05 -4.7752792130753077e-06 8.0591967971645534e-05
leaf_weight=997 2915 44907 944 1567 4943 593 10820 703 103 532 454 34357 685 202570 59249 410 10239 84345 161 4840 72004 75864 22906 43904 19432 191294 1362 1758 39706 426
leaf_count=997 2915 44907 944 1567 4943 593 10820 703 103 532 454 34357 685 202570 59249 410 10239 84345 161 4840 72004 75864 22906 43904 19432 191294 1362 1758 39706 426
internal_value=0 3.37681e-06 3.12185e-05 6.6762e-05 -2.1298e-06 0.000116633 2.78918e-06 -6.668e-07 -4.83806e-05 8.37685e-06 -5.56005e-06 -8.08563e-06 -5.70318e-05 1.42211e-06 2.19018e-06 1.89963e-05 -2.21214e-07 -5.0469e-07 9.09474e-06 1.51037e-05 1.82931e-06 -7.44272e-06 7.5237e-06 -2.21449e-06 -4.7291e-06 -2.38983e-06 -1.1646e-05 8.04403e-06 -2.95592e-06 5.30009e-05
internal_weight=0 367917 7075 3567 567073 1590 360842 3508 806 68771 199913 111360 1139 292071 261819 1977 367160 357882 9278 7755 156349 110221 67813 88553 30252 201533 1523 2702 83610 958
internal_count=934990 367917 7075 3567 567073 1590 360842 3508 806 68771 199913 111360 1139 292071 261819 1977 367160 357882 9278 7755 156349 110221 67813 88553 30252 201533 1523 2702 83610 958
is_linear=0
shrinkage=0.03


Tree=12
num_leaves=31
num_cat=0
split_feature=92 114 61 107 20 122 88 122 65 148 112 60 64 116 122 155 64 105 72 104 118 126 122 11 65 137 21 14 129 64
split_gain=0.0106883 0.0115049 0.00691459 0.00820467 0.00543007 0.00448812 0.00273847 0.00262123 0.00204857 0.00199483 0.00193466 0.00168226 0.00135834 0.00133161 0.00132928 0.00126121 0.00111888 0.00230374 0.00104785 0.000901933 0.000841035 0.000741284 0.000650783 0.000647474 0.000559386 0.00124377 0.000642695 0.000483778 9.9732e-05 6.45472e-05
threshold=-0.0023274117127373142 -0.038861446029365442 -0.067361846566200242 -0.0047321934252977363 -0.036039865153746152 -0.0091586565658500398 -0.0005613116067604882 -0.016117161475616159 0.0045804225374013194 0.0030786371739169841 -0.00040209276295181869 -0.010604497202546298 0.0066161795635870527 -0.0009351821850063644 -0.0052134154388220914 0.0069349070545285949 0.022071841401466123 0.0016390841919928791 0.0023597119584427965 0.0001800819403278742 -0.00040209944329359682 -0.0067393817736551408 -0.0046738058167137891 -0.01576609909534454 -0.065074305981397615 -0.0090210931375622732 0.00093297334387898456 -0.0041555053912199083 0.0040712419431656608 -0.0040519911730676006
decision_type=6 6 4 6 4 6 4 6 4 6 6 6 4 6 6 4 4 6 6 6 6 6 6 6 6 4 6 6 6 4
left_child=1 2 3 29 19 8 11 -5 -4 14 22 13 -7 15 18 -2 20 -18 -8 28 -6 -16 -11 -12 25 -13 -26 -15 -3 -1
right_child=6 4 5 7 16 12 9 -9 -10 10 23 24 -14 27 21 -17 17 -19 -20 -21 -22 -23 -24 -25 26 -27 -28 -29 -30 -31
leaf_value=1.844413658387645e-05 1.4459889710689805e-05 0 9.189837746160736e-05 0.00056738712000660603 -4.8933695206441338e-07 1.5428548124348897e-05 9.9982970063249591e-07 5.7800179205612171e-05 0 -1.2493660084495807e-06 1.2164799934014571e-06 -5.7524926953027531e-06 -5.8362949675281903e-05 -4.3121000901558827e-06 -8.3608025262893851e-06 1.3194830352627556e-06 3.1455982127667167e-06 1.4226185818031739e-05 1.661855832900209e-05 5.0949234704957404e-05 4.7870619698141807e-06 -1.5586094100843626e-06 -1.05273318720141e-05 -3.9947883499437025e-06 -3.235603169077395e-06 7.9973186016815834e-06 2.012531755029993e-07 3.0502750281265004e-06 2.0339677567293647e-05 0
leaf_weight=182 18600 1232 1199 73 49523 1170 21039 110 219 11871 23805 7505 275 11147 16864 14436 55768 27861 5606 2773 50215 236333 63370 81502 80121 18384 107177 25039 879 67
leaf_count=182 18600 1232 1199 73 49523 1170 21039 110 219 11871 23805 7505 275 11147 16864 14436 55768 27861 5606 2773 50215 236333 63370 81502 80121 18384 107177 25039 879 67
internal_value=0 6.36401e-06 6.23488e-05 0.000184541 5.30376e-06 3.85596e-05 -1.58349e-06 0.000346095 7.64489e-05 -3.01642e-06 -5.5032e-06 6.99401e-07 0 4.78649e-06 -1.35837e-06 9.17227e-06 4.37899e-06 7.01671e-06 4.84986e-06 3.69376e-05 2.01682e-06 -2.07097e-06 -9.26295e-06 -2.67432e-06 -5.57352e-07 3.43188e-06 -1.18887e-06 3.677e-07 1.14022e-05 4.23504e-06
internal_weight=0 191546 3295 432 188251 2863 742799 183 1418 460390 180548 282409 1445 69222 279842 33036 183367 83629 26645 4884 99738 253197 75241 105307 213187 25889 187298 36186 2111 249
internal_count=934345 191546 3295 432 188251 2863 742799 183 1418 460390 180548 282409 1445 69222 279842 33036 183367 83629 26645 4884 99738 253197 75241 105307 213187 25889 187298 36186 2111 249
is_linear=0
shrinkage=0.03


Tree=13
num_leaves=26
num_cat=0
split_feature=92 50 93 92 158 37 88 134 91 112 10 62 86 99 60 155 134 63 152 152 129 148 70 61 89
split_gain=0.014095 0.011279 0.0063058 0.00425759 0.00336767 0.00331488 0.00319781 0.00280837 0.00149801 0.00161823 0.00148784 0.00146257 0.00147759 0.000968523 0.000834415 0.0012866 0.000689574 0.000583039 0.000545043 0.000531618 0.000463709 0.00040681 0.000345848 0.000301308 0.000269754
threshold=-0.0063053535926838903 -0.047447989490320835 -0.00087974895723164071 -0.0012222831454531114 0.0058807391656352541 -0.010319365654140709 -0.00012217217972986094 -0.0038634227078640287 -0.005497363628819584 -0.0034163447178191231 -0.018495157714901751 -0.034669799673424019 0.0010961860358657558 -0.0014165977481752632 -0.00080412133427988826 -0.020680705085396763 -0.012250578930938991 -0.0078311925753951055 0.0094341190450053271 -0.025998845491458453 -0.0020564533770084377 -0.01652648023496725 -0.0041572975630282411 -0.013125381432473658 0.004275478422641755
decision_type=6 6 6 6 4 6 6 6 6 6 6 6 6 6 6 4 6 4 6 4 6 6 6 6 6
left_child=1 2 4 11 -1 -6 14 16 9 -8 -10 12 18 21 15 -5 20 -16 -2 -14 -3 -13 -15 -9 -18
right_child=3 7 -4 6 5 -7 8 23 10 -11 -12 13 19 22 17 -17 24 -19 -20 -21 -22 -23 -24 -25 -26
leaf_value=3.5176465653743073e-05 9.2581622992904979e-06 -1.9872327236065701e-05 -6.8375537089908106e-05 1.0242950946196516e-05 0.00019368792315689582 0 -2.9668999628950157e-05 2.8186028951923125e-05 3.6902417743343586e-06 -7.0867413132514414e-06 -4.0277661102657328e-06 -9.368588251546411e-06 3.5815058482682003e-05 4.8791271318870864e-06 -4.2699144104694476e-06 7.8948579279651881e-07 9.0846350342671771e-06 -3.6400889790801187e-08 0 -8.8536695093775431e-09 0 -9.1033019951113648e-07 1.0543933838176374e-06 1.5269684577038864e-05 0
leaf_weight=705 54717 1836 81 15444 687 168 4127 7934 22463 22719 273430 6550 371 40216 41178 115003 6788 127734 5755 32303 962 59302 75910 15311 1825
leaf_count=705 54717 1836 81 15444 687 168 4127 7934 22463 22719 273430 6550 371 40216 41178 115003 6788 127734 5755 32303 962 59302 75910 15311 1825
internal_value=0 1.84469e-05 9.68814e-05 -6.19122e-07 0.000115142 0.000163339 -2.00678e-06 1.42947e-05 -4.08049e-06 -1.11189e-05 -3.39113e-06 2.46406e-06 5.55058e-06 8.0174e-07 1.7879e-07 2.02384e-06 6.93738e-07 -1.1573e-06 8.33337e-06 0 -1.04967e-05 -1.97967e-06 2.50818e-06 2.03256e-05 6.07178e-06
internal_weight=0 36297 1641 897222 1560 855 622098 34656 322739 26846 295893 275124 93146 181978 299359 130447 11411 168912 60472 32674 2798 65852 116126 23245 8613
internal_count=933519 36297 1641 897222 1560 855 622098 34656 322739 26846 295893 275124 93146 181978 299359 130447 11411 168912 60472 32674 2798 65852 116126 23245 8613
is_linear=0
shrinkage=0.03


Tree=14
num_leaves=23
num_cat=0
split_feature=20 122 65 19 20 167 92 99 92 22 24 11 66 91 94 118 166 48 19 169 36 93
split_gain=0.0172063 0.0163066 0.0088221 0.00604389 0.0105799 0.00728323 0.003989 0.00304024 0.00312437 0.00279871 0.00260178 0.00254821 0.00202357 0.00190819 0.00184761 0.0018458 0.00182611 0.00158539 0.00156933 0.00139526 0.000874627 0.00342756
threshold=-0.062831671397206745 -0.0044729447593647833 -0.0094785564579069597 0.039253400638699538 0.056969220030488578 -0.014791391789913176 9.1651322100225988e-05 0.0047598259989172229 -0.01127524315748079 0.014640031446260389 -0.0021300260158508629 0.0055484340991824874 0.0024825471616107919 -0.012805836275219916 0.0015676723516227307 0.0060295407750943766 0.0071532101048879968 -0.002756079764703647 -0.011530277784913777 -0.016255840659141537 0.0046296690326012233 -0.015940892510116097
decision_type=6 6 4 6 6 6 6 6 6 4 4 6 6 6 6 6 4 6 6 6 6 6
left_child=1 20 14 6 11 17 7 18 -9 13 -11 16 -7 -8 19 -13 -5 -6 -2 -3 21 -1
right_child=3 2 -4 4 5 12 9 8 -10 10 -12 15 -14 -15 -16 -17 -18 -19 -20 -21 -22 -23
leaf_value=0.00017502173694499161 5.7024812507633092e-06 0 -0.00029341479209392672 3.5834267930356039e-05 0 6.484021504994333e-06 -2.4460211502193322e-05 4.8286616865373321e-05 7.1025844577194793e-06 1.0802175747718668e-05 -2.7467448110280318e-07 -4.0187611719851416e-05 -4.9205325555206038e-05 -3.1961648244191414e-06 6.3556839890977783e-05 8.8852340375581614e-06 -3.9644800862503938e-06 -0.00015094310598038192 3.6730584709959101e-07 -5.9522744114853458e-05 0 5.9888104473280877e-05
leaf_weight=976 58268 120 94 1930 177 548 4082 1882 48446 23689 86221 1898 979 306980 346 411 1019 980 393287 425 128 1042
leaf_count=976 58268 120 94 1930 177 548 4082 1882 48446 23689 86221 1898 979 306980 346 411 1019 980 393287 425 128 1042
internal_value=0 7.02923e-05 -1.8145e-05 -1.23582e-07 -2.61857e-05 -7.46524e-05 8.45087e-08 1.90645e-06 8.94254e-06 -2.05198e-06 1.97641e-06 0 -1.94272e-05 -3.52359e-06 0 -2.49619e-05 1.70058e-05 -0.000134437 1.08899e-06 -2.16803e-05 0.000117847 0.000123116
internal_weight=0 3131 985 930797 7942 2684 922855 501883 50328 420972 109910 5258 1527 311062 891 2309 2949 1157 451555 545 2146 2018
internal_count=933928 3131 985 930797 7942 2684 922855 501883 50328 420972 109910 5258 1527 311062 891 2309 2949 1157 451555 545 2146 2018
is_linear=0
shrinkage=0.03


Tree=15
num_leaves=30
num_cat=0
split_feature=21 92 122 164 167 113 93 162 167 61 148 112 102 122 62 136 105 122 98 96 136 28 169 0 60 122 28 90 91
split_gain=0.00823421 0.0065707 0.0059934 0.0061836 0.00597961 0.0080557 0.00304087 0.00733466 0.00354523 0.0028317 0.00200368 0.00210787 0.00171801 0.00133805 0.00130499 0.00119683 0.00112367 0.0010325 0.000764341 0.000988318 0.000711727 0.00109808 0.000963067 0.000579502 0.00049135 0.000462954 0.000249308 0.000209881 5.60989e-05
threshold=-0.067774161696434007 -0.0022398538392389756 0.0020515584652269713 0.00065663862069605214 0.020560040138661865 -0.0048388980794697991 -0.0042762206867337218 -0.024627081179853554 -0.014441945590078829 -0.0062329603824764481 -0.00039894048390922034 -0.0024515228597450102 0.0023890557204978859 -0.0017392952297597393 -0.02432558657488294 0.019303576101415355 0.0038870569551363592 0.0030059661779007324 0.0018329388199881458 0.00079184169529977224 -0.0084320284866427498 0.0070004007458190336 -0.025874666869640347 -0.0066465584812897055 0.0068524824298499525 -0.0045080258450992785 0.0048772676969738166 -0.0001919651588171594 0.0047103883698582658
decision_type=4 6 6 6 4 6 6 6 6 6 4 6 6 6 4 6 6 4 4 6 4 4 6 6 6 6 4 6 6
left_child=2 9 6 12 24 -6 7 8 -1 18 15 17 27 -9 -13 16 -3 -12 19 -2 22 -22 -11 -20 -5 -17 -8 -4 -14
right_child=1 10 3 4 5 -7 26 13 -10 20 11 14 28 -15 -16 25 -18 -19 23 -21 21 -23 -24 -25 -26 -27 -28 -29 -30
leaf_value=0 3.4225899517453548e-06 -3.6811354750876148e-07 1.0587551687536733e-07 -3.1852507026657678e-05 -0.00043407989875010974 0 1.5751262996408389e-05 3.7847805974703324e-05 0.00019340835729420548 -1.7577599989385673e-05 -5.4157540322370176e-06 6.3120893240675271e-06 -1.2206152777927578e-05 0 -2.606209115027899e-06 0 4.4209684366456085e-06 -1.5655788132653065e-05 2.6067852105975203e-05 1.1864681261307516e-05 0 6.3019549524448855e-06 0 9.4888991037892362e-06 0 -1.4135098870701888e-05 0 6.0482347302800357e-05 0
leaf_weight=290 39213 288316 712 601 92 110 3790 4026 526 3794 38723 14601 540 167 309130 2852 51443 15969 5080 25259 60777 38464 9731 11609 208 7308 433 609 131
leaf_count=290 39213 288316 712 601 92 110 3790 4026 526 3794 38723 14601 540 167 309130 2852 51443 15969 5080 25259 60777 38464 9731 11609 208 7308 433 609 131
internal_value=0 -3.05052e-07 2.44662e-05 -8.45509e-06 -7.1989e-05 -0.000226459 3.67988e-05 5.38381e-05 0.000142283 4.5821e-06 -1.6269e-06 -3.13999e-06 1.63076e-05 3.29904e-05 -2.1576e-06 0 3.12876e-07 -8.68036e-06 8.89054e-06 6.96297e-06 1.34807e-06 2.33132e-06 -4.75696e-06 1.54366e-05 -1.44602e-05 -1.01353e-05 1.30218e-05 3.93275e-05 -6.70584e-06
internal_weight=0 922269 12235 3003 1011 202 9232 5009 816 193927 728342 378423 1992 4193 323731 349919 339759 54692 81161 64472 112766 99241 13525 16689 809 10160 4223 1321 671
internal_count=934504 922269 12235 3003 1011 202 9232 5009 816 193927 728342 378423 1992 4193 323731 349919 339759 54692 81161 64472 112766 99241 13525 16689 809 10160 4223 1321 671
is_linear=0
shrinkage=0.03


Tree=16
num_leaves=28
num_cat=0
split_feature=92 61 128 20 136 117 153 88 36 42 12 149 166 104 159 147 20 29 122 153 108 136 27 18 78 129 118
split_gain=0.00771204 0.00742065 0.0072626 0.00320343 0.00456284 0.00337993 0.00399846 0.00333617 0.00269853 0.00308945 0.00179571 0.00171529 0.00190146 0.00167805 0.00234838 0.00295083 0.00154269 0.0014291 0.00112605 0.00108134 0.000918993 0.000780023 0.000557045 0.000663407 0.00045045 0.000198929 0.000128727
threshold=-0.0028029778151396306 -0.041136728599667542 0.0061963445645338037 0.035962284583839425 -0.0085647760453814049 0.0020235554547980432 0.010063634254038336 0.00033788225625468036 -0.00063530226930786661 0.0020823512568741835 0.0050334859884095589 0.0065495008602738389 -0.020274342983024832 0.0026385342536555403 -0.021963029168546196 -0.014926066156476734 -0.036039865153746152 -0.010952388867735861 -0.01157947914542957 0.0038789194077253346 -0.0022378010948225537 0.022806393663158692 0.0109577220864594 -0.0064549873019417786 -0.0020459662449452509 0.0068861148320138463 0.0011462228882645777
decision_type=6 4 6 4 6 6 4 6 6 6 4 4 6 4 4 6 6 6 4 6 6 4 4 6 6 4 6
left_child=1 2 26 7 5 6 -5 10 9 -6 16 21 -13 14 15 -3 -2 -4 -16 -10 -12 -9 23 -15 -7 -24 -1
right_child=3 13 17 4 8 24 -8 11 19 -11 20 12 -14 22 18 -17 -18 -19 -20 -21 -22 -23 25 -25 -26 -27 -28
leaf_value=0 2.5677796504786157e-05 -2.2292789167635448e-05 0.00016316846797282485 0 1.4447797811650274e-06 3.5143157161303772e-05 -5.7491156842098922e-05 -1.8972028168707154e-08 9.9907962481395708e-06 0.00010868288799075059 1.0045962357769991e-05 -1.1204925703930205e-05 -3.0295483898860977e-06 1.4782198889872193e-05 1.2198554910956861e-05 4.9351224539491313e-06 -3.0539487893012727e-07 0 3.4584007724329063e-06 -1.5285657280527914e-05 1.9028017881854044e-06 -4.1005006612907573e-06 1.3033498957283016e-05 5.6137473379101598e-07 -3.7964505848454586e-06 3.4082986701772083e-05 1.772673142784289e-05
leaf_weight=429 2059 6773 594 1129 1533 308 4298 124635 1289 391 24369 45860 74527 6722 18075 6167 383857 84 95428 6025 37887 70162 7530 9682 1562 2117 972
leaf_count=429 2059 6773 594 1129 1533 308 4298 124635 1289 391 24369 45860 74527 6722 18075 6167 383857 84 95428 6025 37887 70162 7530 9682 1562 2117 972
internal_value=0 5.99123e-06 6.29087e-05 -1.34187e-06 -1.4476e-05 -3.22086e-05 -4.42158e-05 -1.03768e-06 0 3.11164e-05 5.97131e-07 -3.40986e-06 -6.26859e-06 5.11608e-06 3.519e-06 -8.15862e-06 -1.27765e-07 0.000146437 4.98259e-06 -8.77919e-06 5.33145e-06 -1.56609e-06 1.22912e-05 7.30415e-06 0 1.92134e-05 1.16437e-05
internal_weight=0 154573 2079 779891 16535 7297 5427 763356 9238 1924 448172 315184 120387 152494 126443 12940 385916 678 113503 7314 62256 194797 26051 16404 1870 9647 1401
internal_count=934464 154573 2079 779891 16535 7297 5427 763356 9238 1924 448172 315184 120387 152494 126443 12940 385916 678 113503 7314 62256 194797 26051 16404 1870 9647 1401
is_linear=0
shrinkage=0.03


Tree=17
num_leaves=30
num_cat=0
split_feature=21 92 96 92 122 98 160 149 164 116 38 11 47 112 105 68 93 78 164 92 172 6 160 61 164 62 123 90 31
split_gain=0.00526194 0.01099 0.0043651 0.00563698 0.00311603 0.0028922 0.00283986 0.00210757 0.00197571 0.00436829 0.00188599 0.0021478 0.00183757 0.00149241 0.00148924 0.00126592 0.00109135 0.00102195 0.00191655 0.000929487 0.000820836 0.000812386 0.000712915 0.00173986 0.000701192 0.000519102 0.000514071 0.000202501 8.34338e-05
threshold=-0.041374690830707543 -0.010583614228898012 -0.0056126136022577834 -0.0045781664790718662 -0.003066575389835 0.0034042332653969548 -0.025265568272487732 -0.0017317598685622213 -0.011948944624716984 -0.014847924038573245 -0.0071799246945032247 -0.040384918451309197 -0.0050957177300006143 0.0016132440099465325 0.0057030871976166972 -0.028843111630280454 0.0017773760482668879 -0.0058674377573659066 0.0038304893349681841 -0.002008542198445055 0.016741449800574685 0.00096274852084087079 0.0081199060615037514 -0.0031264071585610505 0.0028691582995678884 0.020778191880786483 0.00050311756785959016 -0.0024047078510803055 -0.0058666558470576993
decision_type=4 6 6 6 6 6 6 6 6 4 6 6 6 6 4 6 6 6 6 4 6 6 6 6 6 4 6 6 6
left_child=1 5 8 17 10 21 13 14 9 12 11 -3 -2 -6 -5 -8 25 20 -19 -9 -4 26 23 -7 -18 -10 -1 -11 -12
right_child=2 4 3 7 6 22 15 19 16 27 28 -13 -14 -15 -16 -17 24 18 -20 -21 -22 -23 -24 -25 -26 -27 -28 -29 -30
leaf_value=4.8467125255823991e-05 0 3.4296896667707225e-05 2.2329668722312624e-05 9.7775208154309392e-08 -5.2370231823146151e-05 0.00016671045550297777 1.143527737731813e-05 6.2636696253445032e-07 4.2005841427042312e-06 -1.7048281221455719e-05 0 8.8465474796896363e-06 -9.0253461030567324e-05 0 6.7629341610906815e-06 -6.3488352053019925e-06 -4.597522545952876e-06 2.5489534648896309e-06 1.6954124852055575e-05 -2.9343524828787158e-06 0 0 0 0 -2.5530805086301466e-05 -6.5975696190210684e-06 0 0 -4.752056772238644e-06
leaf_weight=1213 232 5681 8064 333709 1481 577 6402 72501 6787 2724 1038 11511 1205 751 33765 7652 5806 35096 12564 364554 804 316 196 180 4088 8139 65 2507 3460
leaf_count=1213 232 5681 8064 333709 1481 577 6402 72501 6787 2724 1038 11511 1205 751 33765 7652 5806 35096 12564 364554 804 316 196 180 4088 8139 65 2507 3460
internal_value=0 1.03957e-05 -6.51474e-07 -2.32473e-07 5.91547e-06 7.1254e-05 -3.27689e-06 -8.92855e-07 -1.16322e-05 -2.69838e-05 1.35087e-05 1.81319e-05 -7.53866e-05 -3.49201e-05 7.51049e-07 6.85653e-07 -6.9018e-06 8.90071e-06 6.66167e-06 -2.30936e-06 1.92388e-05 3.22535e-05 0.000120576 0.000138341 -1.47659e-05 -6.82814e-07 4.3224e-05 -1.07971e-05 -8.28466e-07
internal_weight=0 40523 892545 861057 37976 2547 16286 804529 31488 6668 21690 17192 1437 2232 367474 14054 24820 56528 47660 437055 8868 1594 953 757 9894 14926 1278 5231 4498
internal_count=933068 40523 892545 861057 37976 2547 16286 804529 31488 6668 21690 17192 1437 2232 367474 14054 24820 56528 47660 437055 8868 1594 953 757 9894 14926 1278 5231 4498
is_linear=0
shrinkage=0.03


Tree=18
num_leaves=31
num_cat=0
split_feature=122 52 50 88 166 80 36 90 161 30 85 113 129 134 134 142 22 118 57 92 128 57 23 169 132 60 168 156 34 81
split_gain=0.00815034 0.0157138 0.0130677 0.0034599 0.00245365 0.00233528 0.00237554 0.00210906 0.00193301 0.00192852 0.00165212 0.00156723 0.00147568 0.00116994 0.00110226 0.00117309 0.00138716 0.0011638 0.00144325 0.000826942 0.000807825 0.000758527 0.000756663 0.000688942 0.000611977 0.000468485 0.000416738 0.000213906 0.000182124 2.11662e-06
threshold=-0.0055357344365688536 -0.052173277244723336 -0.059958980501648738 0.0011116911076289105 -0.00782115191144136 -0.023532240435407775 0.0025850777968446973 -0.0040055526493818971 -0.02083279192447662 -0.0022586881360524146 -0.00028498642495833332 -0.010562668088823555 -0.0042927465401589862 0.0031513066660474871 0.0034487301577599641 -0.0047042347439561439 0.0069196774461847375 -0.0040805743096572139 0.023226868361234668 -0.0018560541995714368 -0.0063264194645222087 -0.003331392770633101 0.024310639128088955 -0.015920903533697125 -0.0017567866407250431 0.0058551531201216861 -0.017582084578607434 -0.010325061990314644 -0.025193766534418939 0.00063601764850318443
decision_type=4 6 4 4 6 6 6 6 6 6 6 6 4 6 6 6 6 6 6 4 6 4 6 6 6 4 4 6 6 6
left_child=1 2 8 14 7 20 10 26 9 -1 -7 -9 29 -8 15 24 -17 18 -16 23 -3 -19 -21 -6 -2 -10 -5 -22 -14 -4
right_child=3 5 12 4 19 6 13 11 25 -11 -12 -13 28 -15 17 16 -18 21 -20 22 27 -23 -24 -25 -26 -27 -28 -29 -30 -31
leaf_value=0.000247694115671122 -7.934693220567933e-06 0 1.0680335436480238e-06 0 1.5149219685599109e-05 4.1437349664359846e-06 4.943783370986588e-06 -2.1952054486924158e-05 8.5583257615641937e-05 0 -3.1674800857032959e-06 -5.1662897066369727e-06 4.0221574103921195e-05 1.7254990706760831e-05 0 -1.363936268221176e-06 2.3161734806263769e-06 6.8514401121890272e-06 1.3410341127605578e-05 -4.1080020085104144e-06 2.0612371648106236e-06 -7.7800215505670598e-07 2.7244572231515137e-06 0 -1.5975534759360422e-06 0 -2.516067437609899e-05 3.0695057749960768e-05 0 0
leaf_weight=375 27208 1023 1668 743 4385 61846 25543 6055 911 107 49009 90447 3094 13434 11586 258147 143208 14193 17247 58963 1530 58191 16639 12498 43905 84 7578 4360 359 273
leaf_count=375 27208 1023 1668 743 4385 61846 25543 6055 911 107 49009 90447 3094 13434 11586 258147 143208 14193 17247 58963 1530 58191 16639 12498 43905 84 7578 4360 359 273
internal_value=0 6.12032e-06 5.07125e-05 -1.25118e-06 -4.67896e-06 4.06928e-06 3.16462e-06 -7.84285e-06 0.000132384 0.000210245 7.76138e-07 -6.37538e-06 2.55285e-05 9.57251e-06 -4.61001e-08 -6.80353e-07 -1.34533e-08 2.76627e-06 7.90766e-06 -9.30715e-07 2.1501e-05 5.10899e-07 -2.40583e-06 4.786e-06 -4.23324e-06 7.92747e-05 -2.30539e-05 2.58061e-05 3.74464e-05 0
internal_weight=0 163616 6871 770993 197308 156745 149832 104823 1477 482 110855 96502 5394 38977 573685 472468 401355 101217 28833 92485 6913 72384 75602 16883 71113 995 8321 5890 3453 1941
internal_count=934609 163616 6871 770993 197308 156745 149832 104823 1477 482 110855 96502 5394 38977 573685 472468 401355 101217 28833 92485 6913 72384 75602 16883 71113 995 8321 5890 3453 1941
is_linear=0
shrinkage=0.03


Tree=19
num_leaves=26
num_cat=0
split_feature=19 16 92 48 25 147 71 20 29 118 99 89 90 93 20 29 107 72 10 152 80 7 167 111 9
split_gain=0.00554113 0.0147026 0.00665508 0.0147824 0.00635302 0.00422862 0.00464457 0.00394599 0.00342216 0.00323124 0.00298599 0.00274438 0.00132465 0.00132228 0.00122732 0.00151876 0.00105514 0.000840051 0.000670868 0.000560989 0.000468618 0.000947464 0.000427631 0.000388421 0.000168184
threshold=0.051468852907419212 -0.0030165758712611813 -0.0014976942467693286 -0.027385299817026285 0.00036805057607125496 0.013895022682845594 0.0044110736344009647 -0.028671896875898609 -0.0045418310910463324 0.0027441760395617858 0.0021556111751124267 8.0031597462948425e-05 -0.0028267750324801636 0.0032637782860547308 0.01064704727215215 0.16774950176477435 -0.022960026748478409 0.0079253919965961983 0.0082834159352741122 0.001966852748954227 -0.0035954016776301228 -0.0049948955420404664 0.032430808991193778 -0.00072513549821451296 -0.007290259236469864
decision_type=6 6 6 6 4 6 6 6 4 6 4 4 6 4 4 6 6 6 6 6 6 6 4 6 6
left_child=2 5 3 8 -3 20 23 10 9 -1 -5 14 13 -13 17 -16 -9 -4 -14 -6 21 -2 -10 -7 -22
right_child=1 4 11 7 19 6 -8 16 22 -11 -12 12 18 -15 15 -17 -18 -19 -20 -21 24 -23 -24 -25 -26
leaf_value=0 -0.00013556906389092783 -0.0002264002331252264 -9.9609997994091057e-07 4.7374985511847975e-06 0 0 0.00035928757599756509 6.3966727467689341e-06 2.7065699753649142e-05 0.00011634581520815258 3.6866713004150969e-05 -3.6292817306219963e-06 -1.7312850992116027e-06 -1.7850430484364979e-05 4.4412988237186674e-06 -2.3058822434469474e-05 1.5474951342326324e-06 5.6448927218819698e-06 -5.4002773591704894e-06 -6.2914476029893239e-05 0 0 -1.4108811681221404e-05 4.2341041975395402e-05 2.1135630248858737e-05
leaf_weight=278 67 363 241648 7268 212 133 65 55475 478 1538 5604 19283 214863 11623 80772 1690 206038 18052 66357 1223 156 417 165 281 351
leaf_count=278 67 363 241648 7268 212 133 65 55475 478 1538 5604 19283 214863 11623 80772 1690 206038 18052 66357 1223 156 417 165 281 351
internal_value=0 -3.88028e-05 2.99775e-07 4.21191e-06 -9.81355e-05 2.36134e-05 9.80743e-05 3.49809e-06 7.77004e-05 9.93318e-05 1.98941e-05 -1.33262e-06 -3.37314e-06 -9.46363e-06 4.84947e-07 3.69526e-06 2.63355e-06 -4.7668e-07 -2.6504e-06 -5.49811e-05 0 -2.92369e-05 0 1.94747e-05 3.52508e-06
internal_weight=0 3268 931132 276844 1798 1470 479 274385 2459 1816 12872 654288 312126 30906 342162 82462 261513 259700 281220 1435 991 484 643 414 507
internal_count=934400 3268 931132 276844 1798 1470 479 274385 2459 1816 12872 654288 312126 30906 342162 82462 261513 259700 281220 1435 991 484 643 414 507
is_linear=0
shrinkage=0.03


Tree=20
num_leaves=31
num_cat=0
split_feature=92 32 149 131 152 22 54 137 63 29 0 27 22 64 80 122 10 30 96 37 102 62 64 102 166 93 155 122 38 51
split_gain=0.00636326 0.0108891 0.0136219 0.00464795 0.0119845 0.00272525 0.00791017 0.00382666 0.00334933 0.00280877 0.00264603 0.00261452 0.00232404 0.00239522 0.00213935 0.00209026 0.00202797 0.00181656 0.00173335 0.00174849 0.00139683 0.00160633 0.00139667 0.00131513 0.00120716 0.00113477 0.00104521 0.000692802 0.000634037 0.000337475
threshold=-0.00099790415051145397 -0.072724205536575368 0.045467201620340354 -0.0050920979119837275 0.0029223615160529331 0.065732318468261761 0.00059989575918793466 -0.0019059350015595553 -0.036579571664333337 0.015637867152690891 -0.0091515386431905068 0.0042741615325212487 0.011544948754492948 -0.038207366753354857 -0.0080610925836737315 -0.0068164679052071043 0.0056306027240287035 -0.00049393975927529996 -0.0059898183507981996 -0.0033667969983071084 -0.0004193654965161568 0.05429451637903928 -0.013980111189320505 -0.0040151955202526535 0.0035324617996378791 0.0026792582357302312 -0.023305259644985196 -0.00032848461991003512 -0.0062480125558708362 -0.029384138062596318
decision_type=6 4 6 6 6 4 4 4 4 6 6 4 6 4 6 4 6 4 4 6 6 4 6 6 4 6 6 4 6 4
left_child=1 2 20 4 -4 12 8 11 9 -7 15 -8 17 26 -10 28 -15 27 19 -12 23 -22 -20 -1 -9 -19 -14 -2 -3 -17
right_child=5 10 3 -5 -6 6 7 24 14 -11 18 -13 13 16 -16 29 -18 25 22 -21 21 -23 -24 -25 -26 -27 -28 -29 -30 -31
leaf_value=8.1743508004624999e-05 -2.566246765138197e-06 3.216848665266218e-05 0.00040543827698211714 0 0 -0.00018034316452546741 -0.00010161275254929742 1.7571423776555058e-05 -2.3220524321801377e-05 0 -2.6931354747608124e-05 -3.2087077267909274e-05 9.0884320503033502e-05 5.1894484025802149e-06 3.067590118787711e-05 -6.0531141923048907e-07 -1.7205983010008959e-06 5.2437709522519158e-07 4.7555804312616643e-06 0 0 -0.00017344201012095783 6.1450517473981417e-07 0 -2.0599165955534465e-05 -3.948809440646335e-06 1.3549488022864807e-06 -6.5404711561370587e-06 3.0267847570575127e-06 8.0224509672994926e-06
leaf_weight=278 87925 5770 228 186 106 132 1208 763 482 65 3466 2677 394 65145 3735 3622 88326 158063 151022 6885 226 65 160994 107 2257 72629 765 108654 2144 6731
leaf_count=278 87925 5770 228 186 106 132 1208 763 482 65 3466 2677 394 65145 3735 3622 88326 158063 151022 6885 226 65 160994 107 2257 72629 765 108654 2144 6731
internal_value=0 3.27637e-06 9.39686e-05 0.000209168 0.000283585 -1.86235e-06 -1.65791e-05 -3.72092e-05 1.2299e-05 -9.5903e-05 2.91336e-06 -5.76055e-05 -1.55025e-06 1.53998e-06 2.09521e-05 1.41767e-05 1.11485e-06 -2.70371e-06 2.2285e-06 -9.53722e-06 0 -4.4099e-05 2.66696e-06 4.21435e-05 -5.98656e-06 -8.18922e-07 4.48143e-05 -4.83925e-06 2.61713e-05 3.55592e-06
internal_weight=0 341830 1196 520 334 593220 11319 6905 4414 197 340634 3885 581901 154630 4217 18267 153471 427271 322367 10351 676 291 312016 385 3020 230692 1159 196579 7914 10353
internal_count=935050 341830 1196 520 334 593220 11319 6905 4414 197 340634 3885 581901 154630 4217 18267 153471 427271 322367 10351 676 291 312016 385 3020 230692 1159 196579 7914 10353
is_linear=0
shrinkage=0.03


Tree=21
num_leaves=31
num_cat=0
split_feature=93 93 37 76 123 36 4 126 148 136 89 167 91 72 1 21 143 21 60 118 90 173 113 72 77 52 166 96 103 7
split_gain=0.00339156 0.00962783 0.007128 0.00816413 0.00330417 0.00217993 0.00263353 0.00193428 0.00180739 0.0013732 0.00267108 0.00113664 0.00335618 0.00289981 0.00112143 0.00224845 0.00118283 0.000988536 0.00136446 0.000978065 0.00131872 0.000876432 0.000774647 0.000693374 0.000514497 0.000480725 0.000294765 0.000555095 0.000178002 0.000116222
threshold=0.0011853055912069978 -0.013485034462064503 -0.0078643537126481516 -0.079322966823495974 -0.0056737842969596377 0.0015994752160366371 -0.035263053089439708 -0.006604936977848086 -0.0020402930791244946 -0.030431088754180231 0.0022694573272019629 0.046623252332210548 -0.0034444904886186119 -0.0037067918193945458 -0.031847054138779633 -0.0057006534188985816 -0.0048621096648275844 0.00039069171180017298 -0.0073479380048206517 -0.0083148632203632142 0.0041894400143059887 -0.013613553717732428 -0.0010680432897061107 0.0037479422793602261 0.0017852334422059359 0.0028621056726238344 -0.034036633777162019 -0.0005590346307746192 -0.0081360926851630194 -0.00056816381402313698
decision_type=6 6 6 6 6 6 4 6 6 6 6 6 6 6 6 6 6 4 4 6 6 6 6 6 6 4 6 6 6 6
left_child=1 2 3 4 -1 6 21 11 17 10 -7 12 13 -2 15 -10 -16 29 -19 28 -21 -3 -8 -5 -14 -11 -13 -28 -4 -9
right_child=7 5 19 23 -6 9 22 8 14 25 -12 26 24 -15 16 -17 -18 18 -20 20 -22 -23 -24 -25 -26 -27 27 -29 -30 -31
leaf_value=0.00016957846851472155 -4.6493016813733277e-05 0 1.4916371911844496e-06 3.39392337603265e-05 0 1.1088773148163675e-05 -2.7096202188302462e-06 -4.974446194613571e-06 0 -1.8468309850139599e-07 -4.8037168953485509e-06 -5.3997096188874314e-06 7.8412812147358383e-08 -1.1562635229602161e-05 -7.770697643012487e-06 6.4791895024302593e-05 -1.9723086149439283e-06 1.7996965967475931e-05 1.8630795570863771e-06 7.2417450642686878e-06 3.7293884567310123e-05 1.5847676783956418e-05 1.4625592359431559e-08 0 -7.9775288177175581e-06 3.4074798564917799e-06 1.7293937482743787e-05 0 -8.2266405339285325e-06 -2.0608411274614196e-08
leaf_weight=700 3707 4810 1378 4758 194 42967 145283 16203 1688 55415 10743 339 13702 9618 48330 626 125575 5347 89284 10022 2118 11417 235685 289 9918 63715 2791 757 2339 14834
leaf_count=700 3707 4810 1378 4758 194 42967 145283 16203 1688 55415 10743 339 13702 9618 48330 626 125575 5347 89284 10022 2118 11417 235685 289 9918 63715 2791 757 2339 14834
internal_value=0 1.5215e-06 2.11135e-05 4.97761e-05 0.000138606 7.45926e-07 -4.44444e-07 -2.22612e-06 -1.33785e-06 3.56821e-06 7.63065e-06 -8.4257e-06 -1.01967e-05 -2.24113e-05 -3.32298e-06 1.62655e-05 -3.67006e-06 1.32646e-06 2.93357e-06 9.42393e-06 1.37254e-05 1.13185e-05 -9.84907e-07 3.10217e-05 -2.66965e-06 1.61065e-06 4.54681e-06 9.72503e-06 -5.91585e-07 -3.0902e-06
internal_weight=0 591833 21798 5941 894 570035 397195 342719 301887 172840 53710 40832 36945 13325 176219 2314 173905 125668 94631 15857 12140 16227 380968 5047 23620 119130 3887 3548 3717 31037
internal_count=934552 591833 21798 5941 894 570035 397195 342719 301887 172840 53710 40832 36945 13325 176219 2314 173905 125668 94631 15857 12140 16227 380968 5047 23620 119130 3887 3548 3717 31037
is_linear=0
shrinkage=0.03


Tree=22
num_leaves=28
num_cat=0
split_feature=122 81 61 7 161 92 32 12 22 130 91 104 63 159 73 108 104 11 122 149 98 80 141 155 127 83 83
split_gain=0.00916094 0.0156834 0.00400793 0.00277375 0.00479738 0.00246369 0.00188284 0.00185174 0.0026073 0.00418606 0.00166418 0.00162919 0.0020574 0.00171702 0.00228587 0.00106288 0.00105521 0.000824432 0.000822877 0.000812413 0.000759541 0.000719367 0.000624935 0.000326942 4.94934e-05 4.7313e-05 3.4681e-05
threshold=-0.01289303090215302 -0.091079603880643831 -0.0073092621751129619 -0.011297232005745171 -0.0083166956901550276 0.0016465881656751605 0.009966532781428868 -0.014090390991991239 0.013694470199439625 -0.0064618524944494481 -0.0039096167311072341 0.0032546937490992626 -0.045643871650099747 -0.02571729943156242 0.012311240658164026 -0.00074293047958837448 0.0025890704598258967 0.017501737922430042 0.002240993028257181 -0.00057352636940777291 -0.00014339651439253441 -0.030515740590800606 -0.022080945782363411 -0.0059634665958583346 -0.0094644529744982702 0.0095828878693282622 -0.02374954707920551
decision_type=4 4 6 6 6 4 6 6 6 6 6 4 6 6 6 4 6 6 6 6 6 6 6 6 6 6 6
left_child=1 3 6 4 -1 11 21 10 22 -10 15 13 19 18 -15 -7 20 -18 -2 -13 -4 -3 -9 -14 -12 -8 -5
right_child=5 2 16 26 -6 7 25 8 9 -11 24 12 23 14 -16 -17 17 -19 -20 -21 -22 -23 -24 -25 -26 -27 -28
leaf_value=0.00030487786709005888 -3.7867011226090101e-06 5.4489453374726433e-05 -7.6566472639492314e-06 1.8770190442236079e-05 3.8559028720340289e-05 0 0 -1.7270269561741925e-05 -1.1043880800002689e-05 4.9958350782177655e-06 2.7188991148280212e-06 2.0441134486526563e-05 3.5731046540507935e-06 -2.4238407537542744e-07 7.2520543404376267e-06 -4.2937396972265375e-05 0 3.2641876688079779e-05 -1.9801357548612559e-05 5.5972282580579406e-06 5.4285859777884245e-06 2.2864977666610738e-05 -4.6919762241805826e-06 -1.4195140547703031e-06 -4.4760263541752838e-06 -5.9693569277355237e-06 0
leaf_weight=257 14902 1793 8102 280 289 1175 461 4698 18487 66722 1064 9029 22345 551348 39085 2655 2561 1673 5207 11341 7211 9397 131453 20004 1828 1193 51
leaf_count=257 14902 1793 8102 280 289 1175 461 4698 18487 66722 1064 9029 22345 551348 39085 2655 2561 1673 5207 11341 7211 9397 131453 20004 1828 1193 51
internal_value=0 1.55428e-05 1.16433e-05 0.000142147 0.000191942 -4.85071e-07 2.4801e-05 -3.18742e-06 -2.63732e-06 1.33964e-06 -1.90656e-05 4.08136e-07 5.01495e-06 -4.05535e-08 2.28345e-07 -3.20731e-05 2.2286e-06 1.56893e-05 -8.68093e-06 1.29145e-05 -5.15382e-07 2.92813e-05 -5.23642e-06 8.6065e-07 0 0 1.43048e-05
internal_weight=0 33268 32391 877 546 901343 12844 228082 221360 85209 6722 673261 62719 610542 590433 3830 19547 4234 20109 20370 15313 11190 136151 42349 2892 1654 331
internal_count=934611 33268 32391 877 546 901343 12844 228082 221360 85209 6722 673261 62719 610542 590433 3830 19547 4234 20109 20370 15313 11190 136151 42349 2892 1654 331
is_linear=0
shrinkage=0.03


Tree=23
num_leaves=29
num_cat=0
split_feature=21 170 122 11 92 123 23 44 6 105 61 118 65 64 106 124 82 40 123 167 65 130 74 44 94 64 132 133
split_gain=0.00510396 0.00731787 0.00505687 0.00304541 0.00418352 0.00330639 0.00558668 0.00524057 0.00273277 0.00270332 0.00229472 0.00214112 0.00209925 0.00205504 0.00193372 0.00185264 0.00182166 0.00166699 0.00149408 0.00122431 0.00110991 0.000920437 0.000708436 0.000697137 0.000393573 0.000170849 0.000132805 0.00010813
threshold=0.067226774990558638 0.012171577573156558 0.015424192057019125 -0.035870533436536782 -0.0023835739566630235 -0.015731938183307644 0.0022667566081508998 -0.045561227705729408 0.00053331086362622539 0.0015267590060830118 -0.016217402182519432 -0.0015110964180753571 0.021918553858995441 -0.0056141997754295308 -0.0011162506540555318 -0.00579918780197801 -0.021364222006098995 0.021350639017295912 0.027084900066256527 -9.5102237537503229e-05 -0.017946735955774781 0.0068062956347985414 -0.00071511998588229221 0.061956023912645465 -0.0037270672716899884 0.0200478577731238 0.0011900666895956226 -0.0052112778648734084
decision_type=4 6 6 4 6 6 4 6 6 6 6 6 4 6 6 6 6 4 6 4 6 6 6 6 6 4 6 6
left_child=3 8 26 5 10 7 12 16 13 -4 20 14 -7 24 -6 21 -1 -12 -13 -8 -5 -10 -9 -15 -2 -17 -3 -28
right_child=1 2 9 4 11 6 19 22 15 -11 17 18 -14 23 -16 25 -18 -19 -20 -21 -22 -23 -24 -25 -26 -27 27 -29
leaf_value=0.00010378598971771162 -2.5005963926049401e-05 0 -8.923801330302741e-05 6.3894552555828124e-06 3.7278169642636562e-06 4.4997280948009789e-06 5.6271539692870252e-05 1.8179749839500272e-05 -3.7596090605067791e-05 0 0 -2.6770349583976548e-06 -9.3791388487745185e-06 3.2743030076556922e-05 -1.7056438666921078e-06 1.0382228585190122e-05 0 9.0934290464849015e-06 9.7354616861573469e-06 7.112374933339907e-06 1.8210792961797824e-05 0 0 0 0 -4.3319610040556363e-06 0 -1.7488287460058299e-05
leaf_weight=956 682 970 2260 38103 122631 46995 2180 4544 2950 745 94907 441970 12011 3012 109317 1147 92 21933 8410 1596 12063 428 1179 128 1116 1592 73 707
leaf_count=956 682 970 2260 38103 122631 46995 2180 4544 2950 745 94907 441970 12011 3012 109317 1147 92 21933 8410 1596 12063 428 1179 128 1116 1592 73 707
internal_value=0 -1.68477e-05 -4.81508e-05 3.40386e-07 -1.36585e-07 6.38033e-06 3.94929e-06 2.66989e-05 -2.02067e-06 -7.19815e-05 4.09908e-06 -1.1953e-06 1.42018e-06 1.29454e-05 1.10237e-06 -1.65538e-05 9.09193e-05 1.63807e-06 -2.41191e-06 3.94786e-05 9.53164e-06 -3.14547e-05 1.22911e-05 2.87879e-05 -6.3896e-06 0 0 -1.2363e-05
internal_weight=0 15810 4755 918887 849334 69553 62782 6771 11055 3005 167006 682328 59006 4938 231948 6117 1048 116840 450380 3776 50166 3378 5723 3140 1798 2739 1750 780
internal_count=934697 15810 4755 918887 849334 69553 62782 6771 11055 3005 167006 682328 59006 4938 231948 6117 1048 116840 450380 3776 50166 3378 5723 3140 1798 2739 1750 780
is_linear=0
shrinkage=0.03


Tree=24
num_leaves=25
num_cat=0
split_feature=152 52 2 152 79 76 93 11 160 135 23 92 94 88 130 63 70 73 18 18 29 60 158 48
split_gain=0.0122357 0.0137002 0.00538027 0.00557478 0.00359939 0.00457616 0.00416473 0.00355224 0.0058244 0.00347362 0.00500536 0.00330184 0.00266585 0.00211691 0.00194398 0.00187841 0.00186594 0.00148726 0.00143769 0.00138834 0.00128241 0.00124788 0.000950207 0.00042422
threshold=0.07582954231700377 0.059091869800322168 -0.023661776178355905 -0.0087606599859032328 0.0064543955959379682 -0.016394467944095336 -0.0036977594718337055 -0.059930698946118348 -0.0048012361213151831 0.015488875564187767 0.032848913222551353 0.00013347571437785467 -0.00084612172607558 0.0020304162484424642 -0.00039068686233082053 0.013307739049196245 0.040494352448182225 0.0090585099533200281 -0.0075182537704970671 -0.0058189162696745773 -0.069197118282318101 0.0017894396100911949 -0.0063156315962463114 -0.011136283354757031
decision_type=6 6 6 6 4 6 6 6 6 6 4 4 6 4 6 4 6 4 6 6 4 4 6 6
left_child=2 4 3 7 12 -6 -7 8 -1 10 -5 17 14 20 -2 -11 -3 19 -19 -4 -13 -15 -9 -14
right_child=1 16 11 9 5 6 -8 22 -10 15 -12 13 23 21 -16 -17 -18 18 -20 -21 -22 -23 -24 -25
leaf_value=0.00012761746034288429 -6.9875134888774959e-05 -0.00041264323225926193 4.3398792697363594e-06 1.9963904837391832e-06 0 0 -0.000154076892922575 0 1.2682028153664321e-05 -5.0613483906370044e-05 5.1818290963949018e-05 8.4427958474621604e-06 0 -4.0894071736069532e-06 0 0 0 2.988781651578943e-05 4.4812351043439232e-06 -6.9660948045642265e-08 -1.7092825615822653e-06 -1.4447742309719319e-05 2.4446959418044691e-05 3.0864968938939901e-05
leaf_weight=932 781 120 77027 19340 251 114 641 1718 1296 1503 2108 11159 174 39518 239 586 64 2343 62883 351164 336068 18429 5725 809
leaf_count=932 781 120 77027 19340 251 114 641 1718 1296 1503 2108 11159 174 39518 239 586 64 2343 62883 351164 336068 18429 5725 809
internal_value=0 -5.86422e-05 1.64414e-07 1.20321e-05 -3.74518e-05 -8.56686e-05 -0.000123342 3.14189e-05 6.75587e-05 3.42709e-06 7.59677e-06 -2.57497e-07 -5.69248e-06 -2.27829e-06 -4.50423e-05 -3.21762e-05 -0.000320401 1.3715e-06 5.62472e-06 6.88554e-07 -1.33977e-06 -7.64292e-06 1.85707e-05 1.99186e-05
internal_weight=0 3193 931799 33208 3009 1006 755 9671 2228 23537 21448 898591 2003 405174 1020 2089 184 493417 65226 428191 347227 57947 7443 983
internal_count=934992 3193 931799 33208 3009 1006 755 9671 2228 23537 21448 898591 2003 405174 1020 2089 184 493417 65226 428191 347227 57947 7443 983
is_linear=0
shrinkage=0.03


Tree=25
num_leaves=28
num_cat=0
split_feature=122 64 24 160 122 170 34 81 94 92 89 92 88 92 81 164 35 64 122 26 105 172 3 61 121 18 8
split_gain=0.00904051 0.012281 0.00593112 0.00466951 0.00314298 0.0116373 0.00558685 0.00422098 0.00401675 0.00359876 0.00275288 0.0024061 0.00273727 0.00175019 0.00142127 0.00130127 0.001274 0.00118291 0.000995674 0.00185788 0.000911205 0.000808512 0.000758726 0.00118897 0.000546507 0.000231421 0.000129009
threshold=-0.017225768172537001 -0.017738314583020939 -0.03762233901251557 -0.0036035186892554453 0.022869074477903806 0.02366314904824935 0.023334256070363237 0.0039028559112921361 -0.0011923546508861447 0.007476877454057799 0.0019332066876813772 -0.0013200015883596552 -0.00036167154924376059 0.0090249880675660841 0.0023220024304464464 0.0099415804707622367 0.023789912462234501 0.040768634621128778 -0.0040713370939768284 -0.010499967920427644 -0.0015510459779761729 -0.0064044607225984575 0.0084043042734265345 -0.0095940935425460321 -0.030302317813038823 0.0053926448812752952 0.0013757729369769658
decision_type=4 6 4 6 4 4 6 6 6 4 6 6 4 4 6 6 6 4 6 4 6 6 6 6 4 6 6
left_child=1 2 3 -1 11 6 8 -8 -6 16 15 18 14 -11 -13 21 -7 -14 19 -2 -12 -3 23 -4 -20 -22 -17
right_child=4 10 22 -5 5 9 7 -9 -10 13 20 12 17 -15 -16 26 -18 -19 24 -21 25 -23 -24 -25 -26 -27 -28
leaf_value=0.00031542928010266425 1.3266065049413647e-05 0 6.1945617042984014e-05 0 -8.6749667929143532e-06 0 1.8418155913092382e-05 -6.0296891173942218e-05 2.3177684427740847e-05 0 0 -9.4353938132370515e-07 -1.3833449594344363e-06 -0.00011964251699628346 3.459846553702586e-06 0 -5.7766825524999551e-05 -5.0351751681024666e-06 -1.8668450363760213e-05 2.5019280070493238e-06 3.449915957090095e-05 -2.7752430991695306e-05 0 1.4645962635461144e-05 6.2081476432060031e-07 0 2.1290343764688212e-05
leaf_weight=165 17822 1960 3483 163 7488 767 482 2318 6249 148 799 131656 216318 1240 125126 395 457 143490 1299 116725 2329 3205 825 1661 147030 72 608
leaf_count=165 17822 1960 3483 163 7488 767 482 2318 6249 148 799 131656 216318 1240 125126 395 457 143490 1299 116725 2329 3205 825 1661 147030 72 608
internal_value=0 2.25956e-05 5.49962e-05 0.000193948 -3.86923e-07 -1.24207e-05 -2.18068e-06 -4.13899e-05 4.72438e-06 -7.14626e-05 0 -1.14028e-07 -1.18077e-06 -0.000107968 1.14376e-06 -1.08893e-05 -1.77228e-05 -2.88139e-06 2.15813e-06 4.0394e-06 2.33511e-05 -1.83633e-05 4.47862e-05 4.9599e-05 3.50513e-07 3.26781e-05 1.26331e-05
internal_weight=0 15665 6297 328 918615 19149 16537 2800 13737 2612 9368 899466 616590 1388 256782 6168 1224 359808 282876 134547 3200 5165 5969 5144 148329 2401 1003
internal_count=934280 15665 6297 328 918615 19149 16537 2800 13737 2612 9368 899466 616590 1388 256782 6168 1224 359808 282876 134547 3200 5165 5969 5144 148329 2401 1003
is_linear=0
shrinkage=0.03


Tree=26
num_leaves=28
num_cat=0
split_feature=92 62 19 147 82 84 29 96 23 95 99 149 87 134 91 123 22 93 88 93 136 72 159 153 123 65 62
split_gain=0.00378621 0.00802115 0.00441691 0.00548396 0.00380863 0.0039139 0.003204 0.0073079 0.00282502 0.00260169 0.00243977 0.00225301 0.00201189 0.00162496 0.00128773 0.000985807 0.00092457 0.00155894 0.00108463 0.000833503 0.000757409 0.00258713 0.0018427 0.000660928 0.000548847 0.000243636 0.000115712
threshold=-0.00012048873423359782 -0.054561043049450968 0.033507673069834716 -0.0036574937403202053 -0.00034987363574915178 0.0082582370722144669 -0.012195050250738857 -0.0043443574130708476 -0.005142207955941557 0.0020430008880794053 0.0022343599703162913 0.0048340160865336665 -0.004524184623733162 0.0072955203883826652 0.0033722199732437734 -0.015103355981409548 -0.067831747035214926 0.0032950633903965358 0.00092575621522806813 0.015825152397155765 0.0018289279586080748 0.0072541628569822271 -0.025292048230767247 0.014239990618079902 -0.0093296212144196016 -0.012928250245749949 -0.0082049419587397147
decision_type=4 4 6 6 6 6 4 6 6 4 6 6 4 6 6 4 6 6 6 6 4 4 6 6 6 4 6
left_child=1 6 11 8 5 -5 7 -1 26 -6 20 12 13 -2 15 -12 17 -13 -18 -10 22 -22 -3 -14 -16 -9 -4
right_child=2 10 3 4 9 -7 -8 25 19 -11 14 16 23 -15 24 -17 18 -19 -20 -21 21 -23 -24 -25 -26 -27 -28
leaf_value=0.00020804048300009613 3.1819380213432082e-06 -1.2231009914359773e-05 -5.6598911333780398e-06 6.8581884556631555e-05 -4.0739873022991902e-05 0 0 3.6857027312150232e-05 -7.4777292768537746e-07 1.7791655214095094e-05 1.1750577388702956e-05 3.1609104667540709e-05 -1.9840953889251819e-06 2.0950314471859619e-05 1.7974402781869534e-05 1.7069951347918077e-06 -2.6406742603040927e-06 -1.893929093911303e-06 -8.1735157281479733e-06 -5.4773984197374171e-05 5.3037529851529906e-07 1.5228778644108545e-05 -2.2598767201605117e-07 1.4952187494508168e-06 6.7012665704840583e-06 0 1.1371692888572949e-05
leaf_weight=357 40111 12861 294 1194 2093 1280 518 1353 892 596 11185 1690 182583 5930 9689 74172 97259 2263 58585 4350 192030 11636 139321 62372 19091 90 730
leaf_count=357 40111 12861 294 1194 2093 1280 518 1353 892 596 11185 1690 182583 5930 9689 74172 97259 2263 58585 4350 192030 11636 139321 62372 19091 90 730
internal_value=0 1.78723e-06 -2.03049e-06 -2.05537e-05 0 2.91426e-05 5.76049e-05 7.66318e-05 -3.94697e-05 -2.2189e-05 1.47977e-06 -1.52751e-06 0 5.79707e-06 5.30236e-06 3.19906e-06 -4.38991e-06 8.64548e-06 -4.81691e-06 -4.84449e-05 2.11518e-07 1.44393e-06 -1.33925e-06 -1.03693e-06 1.10186e-05 3.34975e-05 0
internal_weight=0 472303 462222 11429 5163 2474 2318 1800 6266 2689 469985 450793 290996 46041 114137 85357 159797 3953 155844 5242 355848 203666 152182 244955 28780 1443 1024
internal_count=934525 472303 462222 11429 5163 2474 2318 1800 6266 2689 469985 450793 290996 46041 114137 85357 159797 3953 155844 5242 355848 203666 152182 244955 28780 1443 1024
is_linear=0
shrinkage=0.03


Tree=27
num_leaves=31
num_cat=0
split_feature=92 92 36 99 78 62 93 0 140 149 153 108 150 61 134 98 72 118 152 120 150 165 136 86 62 158 159 44 61 99
split_gain=0.00522736 0.00391787 0.0036858 0.00272891 0.00171721 0.00276843 0.00191008 0.00383882 0.00486127 0.0013272 0.00204871 0.00180351 0.00126905 0.0012449 0.00142439 0.00124392 0.00110474 0.000954087 0.00144618 0.000766407 0.000612841 0.00059589 0.000568098 0.0010899 0.000784734 0.000574578 0.000452138 0.000399213 0.000317424 0.000240891
threshold=-0.0017104400036927713 -0.0052777654956977314 -0.0061825382880563518 0.00043329491745680576 -0.0039335882217922087 0.017154596560735796 0.016377796418964866 0.0016121495147573661 0.0024483560379625203 -0.0039359494112431994 0.034122068434953697 -0.0041362121901619827 0.0007168917695424263 -0.012822710908949373 0.0019401857001602059 0.00047861003315741781 -0.0043792931799291742 -0.0035076865028749078 0.005510639115574506 -0.0085375883806519687 -0.0020779564102436482 0.0019023646600544455 0.0074982571366439552 1.9293303552049853e-05 0.0036292464864837513 0.001840697401285534 -0.041691672056913369 0.032849728404915339 -0.019517712295055386 0.0019721582066267733
decision_type=6 6 6 6 6 4 6 4 6 6 6 6 6 6 6 6 6 6 6 6 6 6 4 6 6 6 6 6 4 6
left_child=1 2 3 20 5 17 9 12 -9 11 -11 -6 -8 27 -15 -5 19 18 -2 -7 -1 -19 25 24 -24 26 -3 -4 -25 -27
right_child=4 22 13 15 6 16 7 8 -10 10 -12 -13 -14 14 -16 -17 -18 21 -20 -21 -22 -23 23 28 -26 29 -28 -29 -30 -31
leaf_value=0 0 -1.5296577754018412e-05 1.7132392861788468e-05 0 9.3506780195977623e-06 -4.2186899314681818e-05 1.0782720728719155e-05 -4.1253113893099665e-06 -5.1542943041631752e-05 -2.0206125719070886e-06 1.0463166608560505e-05 3.9101225873356467e-07 -1.3779350345502841e-05 -5.5444249791678234e-07 1.2383745423778864e-05 5.7458351575159181e-05 -6.4822759996760132e-06 0 2.4113270746157161e-05 -1.4236731326499595e-05 2.1575719912643336e-05 -6.593014426901375e-06 9.0956181449522458e-06 1.5047616281045542e-05 0 3.1434095959945928e-07 -7.7621517632498438e-07 0 -4.0123047342733455e-07 5.7880717410868857e-06
leaf_weight=2805 6408 2187 10934 782 23345 1829 6456 5953 3617 335065 11938 186666 2353 21614 10447 3208 22274 36144 3093 12167 2472 22765 32969 1230 11502 23684 67705 767 41732 17491
leaf_count=2805 6408 2187 10934 782 23345 1829 6456 5953 3617 335065 11938 186666 2353 21614 10447 3208 22274 36144 3093 12167 2472 22765 32969 1230 11502 23684 67705 767 41732 17491
internal_value=0 3.65819e-06 1.09533e-05 2.86765e-05 -1.40314e-06 -4.9628e-06 -7.29458e-07 -1.02778e-05 -2.3621e-05 -3.87441e-07 -1.54785e-06 1.45848e-06 2.51781e-06 6.85638e-06 3.19412e-06 4.87267e-05 -1.1714e-05 -1.16391e-06 7.23927e-06 -1.89664e-05 1.06621e-05 -2.77402e-06 1.63365e-06 3.44972e-06 6.7419e-06 6.89374e-08 -1.44561e-06 1.56071e-05 0 3.00401e-06
internal_weight=0 251529 53029 9267 680073 104680 575393 18379 9570 557014 347003 210011 8809 43762 32061 3990 36270 68410 9501 13996 5277 58909 198500 87433 44471 111067 69892 11701 42962 41175
internal_count=931602 251529 53029 9267 680073 104680 575393 18379 9570 557014 347003 210011 8809 43762 32061 3990 36270 68410 9501 13996 5277 58909 198500 87433 44471 111067 69892 11701 42962 41175
is_linear=0
shrinkage=0.03


Tree=28
num_leaves=29
num_cat=0
split_feature=92 93 20 104 18 119 112 131 122 86 167 62 134 158 64 22 153 137 56 117 10 106 26 29 107 85 122 89
split_gain=0.00371786 0.0125979 0.00571066 0.00183438 0.001798 0.00143661 0.00259572 0.00186943 0.00145368 0.00130645 0.00451261 0.0012894 0.00170222 0.00168585 0.00110099 0.00103818 0.00243582 0.00112361 0.000939681 0.00227026 0.00184366 0.000944977 0.00152334 0.00094013 0.00067702 0.000362946 0.000178513 8.6957e-06
threshold=-0.00076049649588114598 -0.025886030867695805 -0.0413050349946514 0.00022574328735065579 -0.010303843134050686 0.0020802185172215108 -0.0018936428991881292 -0.020203261636197564 0.0024705831797468959 0.0025156095170086701 -0.04125732742249965 -0.065636615396324843 0.0047933473939224536 -0.021048392406329271 -0.039766731886164509 -0.053266541119672529 0.025971347466111187 0.006259449291974307 0.02232550081247189 -0.013155139517039059 0.020701601394191468 -0.0013551417142534637 0.040530612844866643 0.098170984536409392 -0.0034608879359439011 -0.016797354444861409 0.010520228593506575 -0.00097902340348809936
decision_type=6 6 6 6 6 6 6 4 6 4 6 6 6 4 6 6 6 4 6 4 6 6 6 4 4 6 6 6
left_child=1 2 27 -4 9 18 7 8 -7 14 -11 12 -6 -13 -3 17 -17 -8 21 24 -21 23 -23 -2 -20 -5 -9 -1
right_child=5 4 3 25 11 6 15 26 -10 10 -12 13 -14 -15 -16 16 -18 -19 19 20 -22 22 -24 -25 -26 -27 -28 -29
leaf_value=0 1.9752362812308088e-06 2.2004251688884593e-05 0 0 2.0810412834388478e-06 -1.5717934337076309e-06 0 -6.1735587640577486e-06 -4.7725544127822513e-05 -3.3065345644248015e-05 1.1400543079060783e-05 -1.5395606487310965e-05 1.3050729160630411e-05 2.7616327308695277e-07 5.5272895095392495e-06 -3.3991901961429936e-06 9.3835758951211568e-06 2.4392490145337362e-05 -2.1249404103177887e-05 2.1187528064613306e-05 -5.1067096463412895e-07 -2.8155038751636245e-06 1.9818480373964526e-05 -3.6098553662421134e-06 0 5.9501638452970096e-05 -1.7046441874710639e-05 0.00013226686009361436
leaf_weight=86 137302 8699 1060 77 95631 1855 3035 35865 2260 2731 8256 6336 15931 222363 12107 147320 14266 2749 2142 9048 3669 157254 2575 32524 3487 914 3539 917
leaf_count=86 137302 8699 1060 77 95631 1855 3035 35865 2260 2731 8256 6336 15931 222363 12107 147320 14266 2749 2142 9048 3669 157254 2575 32524 3487 914 3539 917
internal_value=0 2.36199e-06 6.31718e-05 2.48273e-05 1.82218e-06 -1.49824e-06 -3.45861e-06 -1.00564e-05 -3.05742e-05 8.71732e-06 0 1.13379e-06 3.78217e-06 -9.25589e-08 1.31386e-05 -1.65337e-06 -2.1777e-06 1.03981e-05 -2.67136e-07 6.26362e-06 1.37489e-05 -6.76124e-07 -2.35676e-06 8.1726e-07 -7.98215e-06 5.41937e-05 -7.53156e-06 0.00012645
internal_weight=0 375108 3054 2051 372054 558890 210889 43519 4115 31793 10987 340261 111562 228699 20806 167370 161586 5784 348001 18346 12717 329655 159829 169826 5629 991 39404 1003
internal_count=933998 375108 3054 2051 372054 558890 210889 43519 4115 31793 10987 340261 111562 228699 20806 167370 161586 5784 348001 18346 12717 329655 159829 169826 5629 991 39404 1003
is_linear=0
shrinkage=0.03


Tree=29
num_leaves=28
num_cat=0
split_feature=21 122 122 122 92 11 23 162 93 77 36 134 18 165 152 64 62 108 71 144 154 144 29 166 121 137 61
split_gain=0.00604462 0.0042489 0.00288477 0.00476217 0.00270468 0.00225641 0.00258629 0.00189604 0.00167345 0.00161717 0.00156417 0.00188015 0.00225161 0.00188226 0.00172673 0.0027584 0.00104888 0.000779346 0.000733791 0.00201832 0.000653393 0.000641846 0.000595837 0.000396553 0.00030672 0.00209401 0.000144869
