tree
version=v4
num_class=1
num_tree_per_iteration=1
label_index=0
max_feature_idx=173
objective=regression
feature_names=log_close/mean_60_id0 log_return_60_id0 log_close/mean_300_id0 log_return_300_id0 log_close/mean_900_id0 log_return_900_id0 log_close/mean_60_id1 log_return_60_id1 log_close/mean_300_id1 log_return_300_id1 log_close/mean_900_id1 log_return_900_id1 log_close/mean_60_id2 log_return_60_id2 log_close/mean_300_id2 log_return_300_id2 log_close/mean_900_id2 log_return_900_id2 log_close/mean_60_id3 log_return_60_id3 log_close/mean_300_id3 log_return_300_id3 log_close/mean_900_id3 log_return_900_id3 log_close/mean_60_id4 log_return_60_id4 log_close/mean_300_id4 log_return_300_id4 log_close/mean_900_id4 log_return_900_id4 log_close/mean_60_id5 log_return_60_id5 log_close/mean_300_id5 log_return_300_id5 log_close/mean_900_id5 log_return_900_id5 log_close/mean_60_id6 log_return_60_id6 log_close/mean_300_id6 log_return_300_id6 log_close/mean_900_id6 log_return_900_id6 log_close/mean_60_id7 log_return_60_id7 log_close/mean_300_id7 log_return_300_id7 log_close/mean_900_id7 log_return_900_id7 log_close/mean_60_id8 log_return_60_id8 log_close/mean_300_id8 log_return_300_id8 log_close/mean_900_id8 log_return_900_id8 log_close/mean_60_id9 log_return_60_id9 log_close/mean_300_id9 log_return_300_id9 log_close/mean_900_id9 log_return_900_id9 log_close/mean_60_id10 log_return_60_id10 log_close/mean_300_id10 log_return_300_id10 log_close/mean_900_id10 log_return_900_id10 log_close/mean_60_id11 log_return_60_id11 log_close/mean_300_id11 log_return_300_id11 log_close/mean_900_id11 log_return_900_id11 log_close/mean_60_id12 log_return_60_id12 log_close/mean_300_id12 log_return_300_id12 log_close/mean_900_id12 log_return_900_id12 log_close/mean_60_id13 log_return_60_id13 log_close/mean_300_id13 log_return_300_id13 log_close/mean_900_id13 log_return_900_id13 mean_close/mean_60 mean_log_returns_60 log_close/mean_60-mean_close/mean_60_id0 log_return_60-mean_log_returns_60_id0 log_close/mean_60-mean_close/mean_60_id1 log_return_60-mean_log_returns_60_id1 log_close/mean_60-mean_close/mean_60_id2 log_return_60-mean_log_returns_60_id2 log_close/mean_60-mean_close/mean_60_id3 log_return_60-mean_log_returns_60_id3 log_close/mean_60-mean_close/mean_60_id4 log_return_60-mean_log_returns_60_id4 log_close/mean_60-mean_close/mean_60_id5 log_return_60-mean_log_returns_60_id5 log_close/mean_60-mean_close/mean_60_id6 log_return_60-mean_log_returns_60_id6 log_close/mean_60-mean_close/mean_60_id7 log_return_60-mean_log_returns_60_id7 log_close/mean_60-mean_close/mean_60_id8 log_return_60-mean_log_returns_60_id8 log_close/mean_60-mean_close/mean_60_id9 log_return_60-mean_log_returns_60_id9 log_close/mean_60-mean_close/mean_60_id10 log_return_60-mean_log_returns_60_id10 log_close/mean_60-mean_close/mean_60_id11 log_return_60-mean_log_returns_60_id11 log_close/mean_60-mean_close/mean_60_id12 log_return_60-mean_log_returns_60_id12 log_close/mean_60-mean_close/mean_60_id13 log_return_60-mean_log_returns_60_id13 mean_close/mean_300 mean_log_returns_300 log_close/mean_300-mean_close/mean_300_id0 log_return_300-mean_log_returns_300_id0 log_close/mean_300-mean_close/mean_300_id1 log_return_300-mean_log_returns_300_id1 log_close/mean_300-mean_close/mean_300_id2 log_return_300-mean_log_returns_300_id2 log_close/mean_300-mean_close/mean_300_id3 log_return_300-mean_log_returns_300_id3 log_close/mean_300-mean_close/mean_300_id4 log_return_300-mean_log_returns_300_id4 log_close/mean_300-mean_close/mean_300_id5 log_return_300-mean_log_returns_300_id5 log_close/mean_300-mean_close/mean_300_id6 log_return_300-mean_log_returns_300_id6 log_close/mean_300-mean_close/mean_300_id7 log_return_300-mean_log_returns_300_id7 log_close/mean_300-mean_close/mean_300_id8 log_return_300-mean_log_returns_300_id8 log_close/mean_300-mean_close/mean_300_id9 log_return_300-mean_log_returns_300_id9 log_close/mean_300-mean_close/mean_300_id10 log_return_300-mean_log_returns_300_id10 log_close/mean_300-mean_close/mean_300_id11 log_return_300-mean_log_returns_300_id11 log_close/mean_300-mean_close/mean_300_id12 log_return_300-mean_log_returns_300_id12 log_close/mean_300-mean_close/mean_300_id13 log_return_300-mean_log_returns_300_id13 mean_close/mean_900 mean_log_returns_900 log_close/mean_900-mean_close/mean_900_id0 log_return_900-mean_log_returns_900_id0 log_close/mean_900-mean_close/mean_900_id1 log_return_900-mean_log_returns_900_id1 log_close/mean_900-mean_close/mean_900_id2 log_return_900-mean_log_returns_900_id2 log_close/mean_900-mean_close/mean_900_id3 log_return_900-mean_log_returns_900_id3 log_close/mean_900-mean_close/mean_900_id4 log_return_900-mean_log_returns_900_id4 log_close/mean_900-mean_close/mean_900_id5 log_return_900-mean_log_returns_900_id5 log_close/mean_900-mean_close/mean_900_id6 log_return_900-mean_log_returns_900_id6 log_close/mean_900-mean_close/mean_900_id7 log_return_900-mean_log_returns_900_id7 log_close/mean_900-mean_close/mean_900_id8 log_return_900-mean_log_returns_900_id8 log_close/mean_900-mean_close/mean_900_id9 log_return_900-mean_log_returns_900_id9 log_close/mean_900-mean_close/mean_900_id10 log_return_900-mean_log_returns_900_id10 log_close/mean_900-mean_close/mean_900_id11 log_return_900-mean_log_returns_900_id11 log_close/mean_900-mean_close/mean_900_id12 log_return_900-mean_log_returns_900_id12 log_close/mean_900-mean_close/mean_900_id13 log_return_900-mean_log_returns_900_id13
feature_infos=[-0.20535693831193275:0.20378711353993445] [-0.2908763587474823:0.30023872852325439] [-0.35128862017276341:0.22281339499391656] [-0.45682042837142944:0.35904914140701294] [-0.45705708696431668:0.31418866333185347] [-0.54000300168991089:0.55262202024459839] [-0.1580825908961882:0.15852327224531729] [-0.22499485313892365:0.28130057454109192] [-0.22006655580673407:0.15365908300927966] [-0.30769342184066772:0.27611792087554932] [-0.32301365511633512:0.21028144151618849] [-0.4518750011920929:0.31098797917366028] [-0.23189540148563179:0.14549028558998237] [-0.32050743699073792:0.26123920083045959] [-0.31120252794626041:0.21683164242553649] [-0.37989643216133118:0.26646393537521362] [-0.39072154578393375:0.26587698868246323] [-0.49754965305328369:0.40749111771583557] [-0.15889974392325715:0.15525941494530948] [-0.21759761869907379:0.33215472102165222] [-0.26035830509379126:0.16758294572344987] [-0.37855973839759827:0.31135055422782898] [-0.37179043872945289:0.21357250960082447] [-0.41957792639732361:0.34387689828872681] [-0.32319639456862753:0.45838757681411191] [-0.48994320631027222:0.69719934463500977] [-0.43604905127516208:0.74400819091916204] [-0.71376359462738037:1.194722056388855] [-0.50238374352560733:1.1415253983403066] [-0.79540836811065674:1.8864371776580811] [-0.2284986726564685:0.099616635815336738] [-0.30695018172264099:0.26253232359886169] [-0.30092765453681242:0.15653003242196811] [-0.40302625298500061:0.247544065117836] [-0.3823406450892286:0.18408161500089118] [-0.42403113842010498:0.25043794512748718] [-0.20036086273848705:0.14732778958284506] [-0.27925035357475281:0.3378961980342865] [-0.28302273361458741:0.16002272314562913] [-0.35857033729553223:0.33399242162704468] [-0.35962718426835633:0.16808271563101101] [-0.49657177925109863:0.33074262738227844] [-0.22245339913166876:0.16678279950908187] [-0.31943231821060181:0.28303736448287964] [-0.3127489167721072:0.28414862217948067] [-0.37286755442619324:0.35308465361595154] [-0.36570946731855164:0.3202795036523004] [-0.46369007229804993:0.45462089776992798] [-0.19411978390566823:0.14309177666634934] [-0.26743566989898682:0.34867843985557556] [-0.36903221562979627:0.21233866181363698] [-0.51473486423492432:0.37866693735122681] [-0.51350016940100374:0.31362848400395132] [-0.56710654497146606:0.47475409507751465] [-0.20588122016927249:0.24475484072434528] [-0.25036618113517761:0.29390084743499756] [-0.25316480791738483:0.28432335592656482] [-0.32800775766372681:0.30654093623161316] [-0.33065639442462486:0.27445341311318427] [-0.45125532150268555:0.35399347543716431] [-0.27148819282418363:0.25843376421151354] [-0.35745590925216675:0.38075369596481323] [-0.42341885440248345:0.27715245453164111] [-0.5488935112953186:0.42322754859924316] [-0.43244709352407201:0.35364269737924292] [-0.82452213764190674:0.53260624408721924] [-0.16170855431630154:0.20088357259985412] [-0.20643803477287292:0.29491055011749268] [-0.2327820438577993:0.13264179401991313] [-0.30904257297515869:0.29902005195617676] [-0.32403120117557688:0.16769181113352924] [-0.45488610863685608:0.28367301821708679] [-0.18356094894365019:0.1726988205459048] [-0.21695651113986969:0.2651425302028656] [-0.22950378720611495:0.27485590898843587] [-0.29015657305717468:0.38550713658332825] [-0.30214122882986616:0.45662551438679272] [-0.39357516169548035:0.62171149253845215] [-0.20887820068669979:0.22552045322512096] [-0.28552186489105225:0.30489152669906616] [-0.28620885918244443:0.30337113530568094] [-0.3449670672416687:0.32524752616882324] [-0.34788883324972669:0.33123815227033149] [-0.46416968107223511:0.35060742497444153] [-0.1624635467257465:0.15045216974056719] [-0.23026959598064423:0.26400882005691528] [-0.10214403339103181:0.12290112686340456] [-0.15996114909648895:0.14588131010532379] [-0.035332387087174462:0.090198380787883004] [-0.055994264781475067:0.12276312708854675] [-0.095726514250519479:0.093712547671730595] [-0.1222747415304184:0.14584788680076599] [-0.06047592164948782:0.1107390150200588] [-0.086680926382541656:0.1538846492767334] [-0.28824560391639337:0.43039494888814717] [-0.43889874219894409:0.65508413314819336] [-0.1805843323633857:0.073123990878343897] [-0.19931153953075409:0.15381154417991638] [-0.048303044983155248:0.069955297269775493] [-0.061367738991975784:0.10520196706056595] [-0.10006442403666907:0.14811620941575357] [-0.17070841789245605:0.23264473676681519] [-0.10083875528937616:0.096107386238827197] [-0.13974983990192413:0.13562555611133575] [-0.10903226321018095:0.1966683004691876] [-0.15323247015476227:0.23478028178215027] [-0.2460458673841677:0.24771920988264046] [-0.31419992446899414:0.38896173238754272] [-0.067032515318244335:0.074282013195527824] [-0.11041175574064255:0.1046300083398819] [-0.085667903744419127:0.14734911957448993] [-0.14567753672599792:0.20564231276512146] [-0.088541400071440624:0.20584275144443742] [-0.11783445626497269:0.28341671824455261] [-0.24660327743991303:0.10466025180112713] [-0.31183820962905884:0.27395036816596985] [-0.18100907019821144:0.21907018010500356] [-0.19449974596500397:0.27564132213592529] [-0.055092715949553943:0.11496071510790758] [-0.091651499271392822:0.12978874146938324] [-0.1068473071405982:0.15479270632371531] [-0.17041608691215515:0.18438617885112762] [-0.090381940850401771:0.14757455051900464] [-0.11430668830871582:0.17835196852684021] [-0.42259913117181719:0.69610597055313628] [-0.69022631645202637:1.1064443588256836] [-0.18585218686184124:0.12711488913182425] [-0.2023676335811615:0.19246096909046173] [-0.058538389975097069:0.099365377039347946] [-0.10374678671360016:0.13604684174060822] [-0.124720700193501:0.22533919833742549] [-0.18956328928470612:0.31362932920455933] [-0.16660794712551663:0.19341779325652883] [-0.20907261967658997:0.30069488286972046] [-0.10874387515187836:0.2245348465840043] [-0.19299697875976562:0.23056440055370331] [-0.2887122682018054:0.23585423671493427] [-0.37178182601928711:0.3513978123664856] [-0.12163209685486187:0.10664627600293375] [-0.22406260669231415:0.14946731925010681] [-0.10970201295556135:0.23498749243738667] [-0.17055049538612366:0.33392477035522461] [-0.12981815085620296:0.26323766442506491] [-0.18433228135108948:0.27271997928619385] [-0.31173350608118117:0.15170082243176369] [-0.44141373038291931:0.31374844908714294] [-0.16844455855147486:0.28905428158880858] [-0.21312291920185089:0.50426441431045532] [-0.091944749452227928:0.10780058034056703] [-0.13483512401580811:0.1366940438747406] [-0.10894540950077147:0.18355345880837032] [-0.18976090848445892:0.29525384306907654] [-0.098770969019875698:0.16683372450617806] [-0.18083846569061279:0.2303193211555481] [-0.43379084171123711:1.0499224994867702] [-0.68829107284545898:1.7372318506240845] [-0.19608184473808773:0.16597344401639177] [-0.20635369420051575:0.18306551873683929] [-0.10140760376350466:0.11413933097824881] [-0.18115898966789246:0.15770363807678223] [-0.14168699154268341:0.28006618510326642] [-0.2228727787733078:0.32489007711410522] [-0.20176666331982257:0.2782823212843577] [-0.22791194915771484:0.42157912254333496] [-0.10646763509915408:0.22927608217736589] [-0.21574914455413818:0.23497390747070312] [-0.26030137576096374:0.29415193362013015] [-0.53565067052841187:0.42921683192253113] [-0.16905950402469622:0.14337823806574315] [-0.2251436710357666:0.21701470017433167] [-0.11354188075091383:0.38528713731226799] [-0.20824933052062988:0.52859348058700562] [-0.16528498016444246:0.27152434790796959] [-0.25326845049858093:0.33535650372505188]
tree_sizes=3111 3120 3217 3140 3249

Tree=0
num_leaves=29
num_cat=0
split_feature=108 128 166 76 125 95 64 67 138 68 124 154 64 124 100 91 146 168 18 136 106 90 124 13 154 168 61 107
split_gain=0.0155261 0.00914477 0.0408916 0.092973 0.0088768 0.00715101 0.00448008 0.00662102 0.00355467 0.00299122 0.00283135 0.00272739 0.00237416 0.00181431 0.00158883 0.00152752 0.00135789 0.00130067 0.00124622 0.00123283 0.00100936 0.00100278 0.000606816 0.000497192 0.000402321 0.00029276 0.000269074 0.00022623
threshold=0.00083847182727593008 0.024964858000954375 -0.017393570593757388 -0.0086579135426813093 0.0094683822244405764 -0.056942446157336228 0.0061767510365944725 0.01726215519011021 -0.003611136072472407 0.014131159044961874 0.0075605760893422223 0.0084614548609274545 -0.011322812686838324 0.0040420853757144872 -0.0034021138293430946 0.0031393335666507487 0.0022545461145391738 -0.0059149081402842217 -0.0024790659719484067 0.0022350577806189882 -0.0014943806204807573 0.003750103646080609 -0.00087785442920347003 -0.0024376097135245796 -0.0088160868169014032 0.0025752702325216653 0.013676274567842485 0.011218226514756681
decision_type=4 4 4 6 4 6 4 4 6 6 4 4 6 6 6 6 4 6 6 4 6 6 6 4 6 6 6 6
left_child=5 4 3 -3 6 8 19 -8 17 11 20 12 -7 24 16 -12 -11 26 23 -2 -6 -13 -16 -10 -4 -19 -1 -20
right_child=1 2 13 -5 10 9 7 -9 18 14 15 21 -14 -15 22 -17 -18 25 27 -21 -22 -23 -24 -25 -26 -27 -28 -29
leaf_value=5.0313834476658154e-05 2.1527354410900833e-05 0.0015578947092360512 -6.2432762410231703e-06 2.1283234618925527e-05 9.9103770576915102e-06 2.6853039318590496e-05 1.7258079930356323e-05 -5.7725325750619506e-06 8.8064432494413776e-06 -1.3816275995092626e-05 -4.7798906701535052e-07 1.7487674380107598e-05 2.1949205991145036e-05 0.00013210086638190961 2.1283234618925527e-05 1.4716161155325171e-05 2.1283234618925527e-05 3.3240964408856878e-05 3.1135590081848407e-05 3.0478088204937971e-05 2.2184614829526341e-05 2.9553710686413527e-05 1.0175235277651123e-05 2.23285599056779e-05 2.1283234618925527e-05 2.1283234618925527e-05 2.1283234618925527e-05 2.1283234618925527e-05
leaf_weight=14843 65203 52 686 111 10238 211232 129631 12716 3754 3267 41265 71172 166571 118 14920 10549 1615 7291 22254 19029 9935 6116 6636 2403 110 1099 909 1219
leaf_count=14843 65203 52 686 111 10238 211232 129631 12716 3754 3267 41265 71172 166571 118 14920 10549 1615 7291 22254 19029 9935 6116 6636 2403 110 1099 909 1219
internal_value=2.12832e-05 1.57342e-05 0.000101974 0.000536669 1.53724e-05 2.42622e-05 1.83704e-05 1.5095e-05 3.46816e-05 2.30675e-05 6.14466e-06 2.36628e-05 2.47307e-05 2.12832e-05 1.33879e-05 2.32558e-06 -2.68281e-06 4.34631e-05 2.70194e-05 2.37277e-05 1.66983e-05 1.86368e-05 1.77252e-05 1.6518e-05 7.15817e-06 3.09199e-05 4.91898e-05 3.04131e-05
internal_weight=0 299643 1077 163 298566 535301 226579 142347 53772 481529 71987 455091 377803 914 26438 51814 4882 24142 29630 84232 20173 77288 21556 6157 796 8390 15752 23473
internal_count=834944 299643 1077 163 298566 535301 226579 142347 53772 481529 71987 455091 377803 914 26438 51814 4882 24142 29630 84232 20173 77288 21556 6157 796 8390 15752 23473
is_linear=0
shrinkage=1


Tree=1
num_leaves=30
num_cat=0
split_feature=108 26 165 107 94 108 136 124 98 66 60 168 168 63 60 126 9 138 26 94 90 140 128 35 62 91 13 169 142
split_gain=0.0163304 0.00627747 0.0200395 0.0306072 0.0095653 0.00656114 0.00567761 0.00483046 0.00414524 0.0038719 0.00266823 0.00255924 0.00198553 0.00278018 0.00170564 0.00167964 0.00150565 0.00263312 0.00138595 0.00165528 0.00133356 0.00121607 0.00120494 0.00114854 0.000898863 0.000829039 0.000528341 0.000245662 2.61388e-05
threshold=-0.00069799996685898831 -0.047023996921297696 0.058131506666541106 -0.0053276680409908286 0.0035888593665856041 0.0025565245423471968 -0.020832523337518675 -0.0034469326551837993 -0.0021388608830155884 0.0056794226665744952 -0.0046847653709908392 -0.0035254068963387545 -0.0011077473404150842 0.010201042052358391 0.00072529885279029171 1.6079829747322076e-05 -0.0086131417192518694 0.00028495143201522473 0.0030070581830302441 0.008395662368812078 -0.00099627278546467754 0.0075836682174766747 -0.00023438784958474082 -0.029277615249156948 -0.00064694296081197009 -0.0050893879961222402 -0.0092300148680806143 0.0027303814422339205 -0.012092266466194589
decision_type=6 4 6 6 4 6 6 6 6 6 4 6 4 6 4 6 6 6 6 4 6 6 6 6 4 6 4 6 6
left_child=6 2 15 -4 9 25 7 11 -7 14 16 24 13 -9 -3 22 17 -8 19 -12 -11 -20 -2 -14 -1 -6 -13 -18 -17
right_child=1 4 3 -5 5 8 10 12 -10 20 18 26 23 -15 -16 28 27 -19 21 -21 -22 -23 -24 -25 -26 -27 -28 -29 -30
leaf_value=0 0 1.6883510890290534e-06 0 0.00084398381441775088 -1.4646289603112572e-05 -4.1153564139169526e-05 3.1007986404222188e-05 5.2577143421534699e-06 -1.6051617524976632e-05 -1.3955560041441268e-05 1.0227486351400041e-06 -3.0096355501575004e-07 -1.225282795676028e-05 2.9763927763653526e-05 -2.6819283236818857e-06 -4.4504817321520774e-06 6.2940565893441355e-06 0 -1.4699464328903136e-06 1.8417367593884961e-05 -4.449476375536303e-06 -1.3350833414274415e-05 4.8951872715085168e-05 1.1586946143084815e-06 2.106037378889953e-05 -3.2349058237438607e-06 9.2246128433883314e-06 0 2.5881287206002201e-06
leaf_weight=900 511 153030 50 66 8318 9146 6503 50026 29436 27181 95636 2731 6812 5000 165435 253 9364 2667 57056 5413 39403 9937 1680 30307 37856 42003 31567 4743 2756
leaf_count=900 511 153030 50 66 8318 9146 6503 50026 29436 27181 95636 2731 6812 5000 165435 253 9364 2667 57056 5413 39403 9937 1680 30307 37856 42003 31567 4743 2756
internal_value=0 -3.6633e-06 2.84001e-05 0.000420759 -4.05471e-06 -1.29547e-05 4.8152e-06 8.90419e-06 -2.23927e-05 -1.96079e-06 1.206e-06 1.47482e-05 4.108e-06 7.75809e-06 -5.34807e-07 1.66056e-05 1.07288e-05 2.05801e-05 -2.39369e-08 2.10333e-06 -8.55564e-06 -3.45647e-06 3.66526e-05 -8.99003e-07 2.03068e-05 -5.41978e-06 8.02884e-06 3.25994e-06 0
internal_weight=0 479268 5316 116 473952 88903 356518 165199 38582 385049 191319 73054 92145 55026 318465 5200 23277 9170 168042 101049 66584 66993 2191 37119 38756 50321 34298 14107 3009
internal_count=835786 479268 5316 116 473952 88903 356518 165199 38582 385049 191319 73054 92145 55026 318465 5200 23277 9170 168042 101049 66584 66993 2191 37119 38756 50321 34298 14107 3009
is_linear=0
shrinkage=0.03


Tree=2
num_leaves=31
num_cat=0
split_feature=108 70 64 62 134 168 64 72 61 167 168 27 47 61 124 72 165 27 98 169 4 28 29 132 8 24 172 10 62 128
split_gain=0.00822772 0.00604342 0.00505183 0.00532501 0.00382941 0.00332217 0.00541476 0.00611108 0.00430307 0.00348232 0.00330088 0.00292519 0.00460804 0.00240833 0.00197389 0.00184687 0.00168513 0.00154199 0.00138074 0.00122727 0.00112053 0.00103407 0.000719521 0.000620836 0.00129492 0.00137242 0.00050516 0.000367454 0.000193209 0.000188355
threshold=-0.0039294027078319582 0.032703096055508064 0.0040491672829949445 -0.030949428632830425 -0.0051756635487534893 -0.0038677178909047741 0.025078336352257088 -0.0032523547157323808 -0.011070597916841505 -0.072974722832441316 -0.00055347028787190212 0.05241262540221215 0.047914512455463416 -0.0034526815870776768 0.0052178523605737742 -0.0051074277851090354 -0.014742749743163584 0.012189478147774937 0.00027688161318716677 0.003898495808243752 -0.033348624951465497 0.0042484310556292629 -0.02399341948330402 -0.0072761620294672447 0.00098970471529324488 0.0025640727726157731 0.004904617098947594 0.013557408520077937 0.0039508745851929879 0.0026810047368767357
decision_type=4 6 6 6 6 6 4 6 6 4 6 6 6 4 6 6 6 6 6 6 4 6 6 6 6 6 6 6 6 6
left_child=2 5 3 10 18 8 9 -8 14 -7 13 15 -13 -1 -2 -6 17 -5 22 -18 -10 -12 -3 24 29 -26 -20 28 -25 -4
right_child=1 4 23 16 11 6 7 -9 20 -11 21 12 -14 -15 -16 -17 19 -19 26 -21 -22 -23 -24 27 25 -27 -28 -29 -30 -31
leaf_value=5.3857450239827906e-05 8.897710492114855e-06 -8.3529587138047402e-05 1.0991348800471296e-05 0 1.9695115769694063e-05 4.3972657998356802e-05 -1.4350956714117975e-05 -2.2806668124677158e-06 -1.7615220337981045e-05 1.3383382145197293e-06 1.0915669641390954e-05 0 -0.00010135087948018396 2.0901896322020134e-05 -1.3140706746803502e-06 -7.0032194179290043e-06 1.1980931915626321e-05 -3.0231487101275075e-05 -1.732500983381147e-05 -1.4440759020854638e-06 -1.6601995020326075e-07 -5.404666102627079e-06 -3.0968336807173472e-05 8.6209924097186075e-06 0 -3.6758690421983808e-05 3.4422297392099649e-06 -6.5648244216825076e-06 0 0
leaf_weight=2946 91522 817 1511 4229 2354 1766 48787 188064 3452 205435 10757 958 756 28033 17906 24348 13129 2377 1721 8212 144859 3786 4117 3612 1809 2335 608 5474 8570 535
leaf_count=2946 91522 817 1511 4229 2354 1766 48787 188064 3452 205435 10757 958 756 28033 17906 24348 13129 2377 1721 8212 144859 3786 4117 3612 1809 2335 608 5474 8570 535
internal_value=0 -7.5574e-07 8.51904e-06 1.24552e-05 -1.28043e-05 -1.21785e-07 -1.71465e-06 -4.83036e-06 2.56431e-06 1.77453e-06 1.88192e-05 -7.14858e-06 -4.60499e-05 2.45233e-05 7.08966e-06 -4.08653e-06 1.55174e-06 -1.09096e-05 -3.2859e-05 6.11254e-06 -6.73527e-07 5.63553e-06 -4.27409e-05 -2.97917e-06 -1.11544e-05 -2.15341e-05 -5.47028e-06 0 2.78806e-06 2.54509e-06
internal_weight=0 737470 97315 73469 35679 701791 444052 236851 257739 207201 45522 28416 1714 30979 109428 26702 27947 6606 7263 21341 148311 14543 4934 23846 6190 4144 2329 17656 12182 2046
internal_count=834785 737470 97315 73469 35679 701791 444052 236851 257739 207201 45522 28416 1714 30979 109428 26702 27947 6606 7263 21341 148311 14543 4934 23846 6190 4144 2329 17656 12182 2046
is_linear=0
shrinkage=0.03


Tree=3
num_leaves=30
num_cat=0
split_feature=168 66 62 125 108 10 65 78 129 166 65 65 13 64 108 155 24 26 59 60 61 24 154 61 95 142 0 124 138
split_gain=0.0108329 0.0110199 0.00647942 0.00613813 0.00727352 0.00418267 0.00400212 0.00351248 0.00769381 0.00644499 0.00382534 0.00213908 0.00203594 0.00208861 0.0017073 0.00152347 0.0013899 0.00130153 0.00128954 0.00136319 0.00117873 0.00113074 0.000929895 0.000925536 0.000580953 0.000504812 0.000487817 0.00027636 0.000256021
threshold=-0.00051443394198265704 0.0088516154284812281 -0.011889325735270804 0.00015247310511767867 -0.0043285547631741013 0.068231111379471202 -0.036412935703992837 -0.014520701826768892 -0.0035179993137717243 -0.014925849314463271 0.0093751782551407831 -0.013069157488644121 -0.0061449774075299493 0.016097899308490874 -0.0024796301092781035 -0.015530578792095183 -0.001399183391211474 0.011627051058179074 -0.010741919279098509 0.0039809989099962818 -0.002840974484570324 -0.00011743389384567692 0.0037011450850439908 -0.021349305287003514 -0.0093759088777005655 0.012174821132646745 0.0025293674845833507 0.0010368976891298148 0.002086581554999778
decision_type=6 6 6 6 6 6 4 6 6 6 4 6 6 4 6 6 4 6 6 6 6 4 6 4 6 6 6 6 6
left_child=2 7 3 4 28 6 16 8 9 -2 -10 -7 13 -9 -6 -8 -3 20 19 -5 26 -14 27 -20 -22 -24 -4 -19 -1
right_child=1 5 17 18 14 11 15 12 10 -11 -12 -13 21 -15 -16 -17 -18 22 23 -21 24 -23 25 -25 -26 -27 -28 -29 -30
leaf_value=2.8911811930027624e-05 -8.4957650521650117e-05 4.7198413699124773e-05 2.7886576295022114e-06 -1.5420806383797667e-06 1.6313218778092039e-05 0 -3.2562176177958328e-05 0 1.6511642964694068e-05 0 -3.0474120668793683e-05 -0.00016547846115761016 1.9060009271981351e-06 -1.0588834425425195e-05 5.9716007173683845e-06 -1.4969160742592009e-05 0 -2.3987792208090925e-06 2.1679071243245278e-05 -2.8752169973661514e-05 5.1168912937979793e-06 -1.8662453553547735e-06 -1.0327744040469111e-05 2.6278056419829679e-06 -1.518781243462801e-06 1.891993044064664e-06 1.1647055084113539e-05 6.4718546732187768e-06 0
leaf_weight=19077 2294 606 44679 34182 20469 204 11377 31520 4226 1121 2464 300 120781 39444 88067 15847 4090 6312 2757 1882 12568 171782 22250 48222 114541 1223 8675 5085 160
leaf_count=19077 2294 606 44679 34182 20469 204 11377 31520 4226 1121 2464 300 120781 39444 88067 15847 4090 6312 2757 1882 12568 171782 22250 48222 114541 1223 8675 5085 160
internal_value=0 -3.4472e-06 3.38418e-06 7.07303e-06 1.12679e-05 -2.02732e-05 -1.83484e-05 -1.94679e-06 -1.95101e-05 -5.61458e-05 0 -0.000111976 -1.41721e-06 -5.98624e-06 8.06041e-06 -2.28741e-05 4.69431e-06 -2.26177e-07 7.42746e-07 -3.37946e-06 7.25986e-07 -2.57647e-07 -5.58382e-06 3.95316e-06 -7.44597e-07 -9.05198e-06 4.51049e-06 2.43568e-07 2.85826e-05
internal_weight=0 406056 430149 214816 127773 32424 31920 373632 10105 3415 6690 504 363527 70964 108536 27224 4696 215333 87043 36064 180463 292563 34870 50979 127109 23473 53354 11397 19237
internal_count=836205 406056 430149 214816 127773 32424 31920 373632 10105 3415 6690 504 363527 70964 108536 27224 4696 215333 87043 36064 180463 292563 34870 50979 127109 23473 53354 11397 19237
is_linear=0
shrinkage=0.03


Tree=4
num_leaves=31
num_cat=0
split_feature=108 64 108 103 61 64 154 124 29 106 54 136 36 169 169 27 166 33 107 169 90 107 167 59 63 126 158 59 50 61
split_gain=0.0119827 0.00589365 0.00578819 0.0140153 0.0812877 0.0103793 0.00444329 0.00275841 0.00267326 0.00156994 0.00180865 0.00151529 0.00142815 0.00142204 0.00298493 0.00224353 0.00134201 0.00182126 0.00126334 0.0012502 0.00120308 0.000774034 0.000643506 0.000616479 0.000475375 0.00049025 0.000433567 0.000408503 0.000318311 1.52362e-05
threshold=-0.00080687780111117719 -0.020560541146729772 0.0037449677233335984 -0.04536794871091842 -0.029519586823880669 0.0066603864823187855 -7.0790131145085925e-05 0.0042881873465816572 0.065871968865394606 0.0025528940376522619 -0.0021749657726606204 -0.020327048465004969 -0.00043921570570566417 -0.018533019348978993 0.018253432586789135 0.010324167087674143 -0.037706549882999145 0.0040250367019325503 -0.00054211384849622835 -0.024037325754761692 0.002410249258295246 0.00069338054163381468 -0.0078946230933070165 -0.029346204362809655 0.0036841038381680851 -0.0088391788075255582 0.0024136525708777202 -0.010489630047231911 -0.0026244465737113895 -0.0035562793491408225
decision_type=4 6 6 6 4 4 6 6 4 4 6 4 6 6 6 6 6 6 6 6 6 4 6 4 4 6 4 6 6 6
left_child=1 6 7 4 -4 18 13 21 -7 27 -11 19 24 15 -15 -1 28 -18 -5 -8 -13 22 -2 -23 25 -3 -26 -9 -14 -6
right_child=2 12 3 5 29 8 11 9 -10 10 -12 20 16 14 -16 -17 17 -19 -20 -21 -22 23 -24 -25 26 -27 -28 -29 -30 -31
leaf_value=2.4131752653576121e-05 3.8736675749207945e-06 -5.6014440956319796e-06 0.0012490978935966268 -1.9204681438140938e-06 -1.1651941120110469e-05 -1.2680549593192485e-05 0 -5.9594549400514766e-06 -2.7167006883858967e-05 -1.9992688203988979e-05 -3.3863439247106854e-06 8.1705668323171674e-07 0 1.1720295336589165e-05 -2.5904427686958244e-06 0 1.4164817576999274e-06 -6.5602723026523943e-06 8.9895895051845386e-06 -3.8365222048879381e-05 1.1858344752393521e-05 -5.920581010714164e-06 -2.3785250286696662e-07 -6.2215308556646526e-07 -2.0609774640043294e-06 7.8624309070605695e-06 6.1895455075397241e-06 0 4.1953794874449718e-05 0
leaf_weight=16357 61236 1360 52 19043 99 49833 590 16860 19221 14574 14277 62861 153 83872 13602 3382 44541 53976 16415 1492 11216 24184 63653 170075 16215 25444 8399 22225 715 186
leaf_count=16357 61236 1360 52 19043 99 49833 590 16860 19221 14574 14277 62861 153 83872 13602 3382 44541 53976 16415 1492 11216 24184 63653 170075 16215 25444 8399 22225 715 186
internal_value=0 4.20996e-06 -3.08699e-06 -9.36408e-06 0.000180905 -1.01246e-05 7.6786e-06 -1.34793e-06 -1.69307e-05 -6.84198e-06 -1.22957e-05 1.79992e-06 -1.38389e-07 1.13702e-05 9.56941e-06 1.95011e-05 -2.33314e-06 -2.80165e-06 2.70747e-06 -2.26996e-05 2.69158e-06 -1.31393e-07 1.65805e-06 -1.35904e-06 3.81201e-06 6.61935e-06 1.45251e-07 -2.4321e-06 3.34857e-05 0
internal_weight=0 344175 491933 104849 337 104512 193372 387084 69054 67936 28851 76159 150803 117213 97474 19739 99385 98517 35458 2082 74077 319148 124889 194259 51418 26804 24614 39085 868 285
internal_count=836108 344175 491933 104849 337 104512 193372 387084 69054 67936 28851 76159 150803 117213 97474 19739 99385 98517 35458 2082 74077 319148 124889 194259 51418 26804 24614 39085 868 285
is_linear=0
shrinkage=0.03


end of trees

feature_importances:
log_close/mean_60-mean_close/mean_60_id11=8
log_return_60_id10=7
log_close/mean_900_id10=7
log_close/mean_300-mean_close/mean_300_id4=7
log_close/mean_900-mean_close/mean_900_id11=7
log_return_900-mean_log_returns_900_id11=5
log_close/mean_300_id10=4
log_return_60-mean_log_returns_60_id10=4
log_close/mean_900-mean_close/mean_900_id4=4
log_return_60_id2=3
log_close/mean_60_id4=3
log_close/mean_300_id4=3
log_return_300_id4=3
log_return_900_id9=3
log_close/mean_60_id10=3
log_return_900_id10=3
log_close/mean_60-mean_close/mean_60_id2=3
log_close/mean_300-mean_close/mean_300_id6=3
log_close/mean_300-mean_close/mean_300_id10=3
log_close/mean_300-mean_close/mean_300_id11=3
log_close/mean_900-mean_close/mean_900_id10=3
log_close/mean_900_id1=2
log_return_900_id4=2
log_return_300_id10=2
log_close/mean_60_id11=2
log_close/mean_60_id12=2
log_return_60-mean_log_returns_60_id2=2
log_close/mean_60-mean_close/mean_60_id4=2
log_return_60-mean_log_returns_60_id4=2
log_close/mean_60-mean_close/mean_60_id6=2
log_close/mean_60-mean_close/mean_60_id10=2
log_return_300-mean_log_returns_300_id4=2
log_close/mean_300-mean_close/mean_300_id5=2
log_close/mean_300-mean_close/mean_300_id13=2
log_return_900-mean_log_returns_900_id9=2
log_return_900-mean_log_returns_900_id10=2
log_close/mean_60_id0=1
log_close/mean_900_id0=1
log_close/mean_300_id1=1
log_return_300_id1=1
log_close/mean_60_id3=1
log_close/mean_900_id4=1
log_return_300_id5=1
log_return_900_id5=1
log_close/mean_60_id6=1
log_return_900_id7=1
log_close/mean_300_id8=1
log_close/mean_60_id9=1
log_return_60_id11=1
log_close/mean_300_id11=1
log_close/mean_900_id11=1
log_close/mean_900_id12=1
log_close/mean_60_id13=1
log_close/mean_60-mean_close/mean_60_id7=1
log_return_60-mean_log_returns_60_id8=1
log_return_300-mean_log_returns_300_id6=1
log_close/mean_300-mean_close/mean_300_id8=1
log_close/mean_300-mean_close/mean_300_id9=1
log_close/mean_300-mean_close/mean_300_id12=1
log_close/mean_900-mean_close/mean_900_id0=1
log_return_900-mean_log_returns_900_id4=1
log_close/mean_900-mean_close/mean_900_id6=1
log_close/mean_900-mean_close/mean_900_id13=1

parameters:
[boosting: gbdt]
[objective: regression]
[metric: rmse]
[tree_learner: serial]
[device_type: cpu]
[data: ]
[valid: ]
[num_iterations: 5000]
[learning_rate: 0.03]
[num_leaves: 31]
[num_threads: 0]
[deterministic: 0]
[force_col_wise: 0]
[force_row_wise: 0]
[histogram_pool_size: -1]
[max_depth: 5]
[min_data_in_leaf: 50]
[min_sum_hessian_in_leaf: 0.001]
[bagging_fraction: 0.7]
[pos_bagging_fraction: 1]
[neg_bagging_fraction: 1]
[bagging_freq: 1]
[bagging_seed: 8586]
[feature_fraction: 1]
[feature_fraction_bynode: 1]
[feature_fraction_seed: 8586]
[extra_trees: 1]
[extra_seed: 8586]
[early_stopping_round: 50]
[first_metric_only: 1]
[max_delta_step: 0]
[lambda_l1: 0.5]
[lambda_l2: 2]
[linear_lambda: 0]
[min_gain_to_split: 0]
[drop_rate: 0.1]
[max_drop: 50]
[skip_drop: 0.5]
[xgboost_dart_mode: 0]
[uniform_drop: 0]
[drop_seed: 8586]
[top_rate: 0.2]
[other_rate: 0.1]
[min_data_per_group: 100]
[max_cat_threshold: 32]
[cat_l2: 10]
[cat_smooth: 10]
[max_cat_to_onehot: 4]
[top_k: 20]
[monotone_constraints: ]
[monotone_constraints_method: basic]
[monotone_penalty: 0]
[feature_contri: ]
[forcedsplits_filename: ]
[refit_decay_rate: 0.9]
[cegb_tradeoff: 1]
[cegb_penalty_split: 0]
[cegb_penalty_feature_lazy: ]
[cegb_penalty_feature_coupled: ]
[path_smooth: 0]
[interaction_constraints: ]
[verbosity: -1]
[saved_feature_importance_type: 0]
[linear_tree: 0]
[max_bin: 600]
[max_bin_by_feature: ]
[min_data_in_bin: 3]
[bin_construct_sample_cnt: 200000]
[data_random_seed: 8586]
[is_enable_sparse: 1]
[enable_bundle: 1]
[use_missing: 1]
[zero_as_missing: 1]
[feature_pre_filter: 1]
[pre_partition: 0]
[two_round: 0]
[header: 0]
[label_column: ]
[weight_column: ]
[group_column: ]
[ignore_column: ]
[categorical_feature: ]
[forcedbins_filename: ]
[precise_float_parser: 0]
[objective_seed: 30655]
[num_class: 1]
[is_unbalance: 0]
[scale_pos_weight: 1]
[sigmoid: 1]
[boost_from_average: 1]
[reg_sqrt: 0]
[alpha: 0.9]
[fair_c: 1]
[poisson_max_delta_step: 0.7]
[tweedie_variance_power: 1.5]
[lambdarank_truncation_level: 30]
[lambdarank_norm: 1]
[label_gain: ]
[eval_at: ]
[multi_error_top_k: 1]
[auc_mu_weights: ]
[num_machines: 1]
[local_listen_port: 12400]
[time_out: 120]
[machine_list_filename: ]
[machines: ]
[gpu_platform_id: -1]
[gpu_device_id: -1]
[gpu_use_dp: 0]
[num_gpu: 1]

end of parameters

pandas_categorical:[]
