tree
version=v4
num_class=1
num_tree_per_iteration=1
label_index=0
max_feature_idx=173
objective=regression
feature_names=log_close/mean_60_id0 log_return_60_id0 log_close/mean_300_id0 log_return_300_id0 log_close/mean_900_id0 log_return_900_id0 log_close/mean_60_id1 log_return_60_id1 log_close/mean_300_id1 log_return_300_id1 log_close/mean_900_id1 log_return_900_id1 log_close/mean_60_id2 log_return_60_id2 log_close/mean_300_id2 log_return_300_id2 log_close/mean_900_id2 log_return_900_id2 log_close/mean_60_id3 log_return_60_id3 log_close/mean_300_id3 log_return_300_id3 log_close/mean_900_id3 log_return_900_id3 log_close/mean_60_id4 log_return_60_id4 log_close/mean_300_id4 log_return_300_id4 log_close/mean_900_id4 log_return_900_id4 log_close/mean_60_id5 log_return_60_id5 log_close/mean_300_id5 log_return_300_id5 log_close/mean_900_id5 log_return_900_id5 log_close/mean_60_id6 log_return_60_id6 log_close/mean_300_id6 log_return_300_id6 log_close/mean_900_id6 log_return_900_id6 log_close/mean_60_id7 log_return_60_id7 log_close/mean_300_id7 log_return_300_id7 log_close/mean_900_id7 log_return_900_id7 log_close/mean_60_id8 log_return_60_id8 log_close/mean_300_id8 log_return_300_id8 log_close/mean_900_id8 log_return_900_id8 log_close/mean_60_id9 log_return_60_id9 log_close/mean_300_id9 log_return_300_id9 log_close/mean_900_id9 log_return_900_id9 log_close/mean_60_id10 log_return_60_id10 log_close/mean_300_id10 log_return_300_id10 log_close/mean_900_id10 log_return_900_id10 log_close/mean_60_id11 log_return_60_id11 log_close/mean_300_id11 log_return_300_id11 log_close/mean_900_id11 log_return_900_id11 log_close/mean_60_id12 log_return_60_id12 log_close/mean_300_id12 log_return_300_id12 log_close/mean_900_id12 log_return_900_id12 log_close/mean_60_id13 log_return_60_id13 log_close/mean_300_id13 log_return_300_id13 log_close/mean_900_id13 log_return_900_id13 mean_close/mean_60 mean_log_returns_60 log_close/mean_60-mean_close/mean_60_id0 log_return_60-mean_log_returns_60_id0 log_close/mean_60-mean_close/mean_60_id1 log_return_60-mean_log_returns_60_id1 log_close/mean_60-mean_close/mean_60_id2 log_return_60-mean_log_returns_60_id2 log_close/mean_60-mean_close/mean_60_id3 log_return_60-mean_log_returns_60_id3 log_close/mean_60-mean_close/mean_60_id4 log_return_60-mean_log_returns_60_id4 log_close/mean_60-mean_close/mean_60_id5 log_return_60-mean_log_returns_60_id5 log_close/mean_60-mean_close/mean_60_id6 log_return_60-mean_log_returns_60_id6 log_close/mean_60-mean_close/mean_60_id7 log_return_60-mean_log_returns_60_id7 log_close/mean_60-mean_close/mean_60_id8 log_return_60-mean_log_returns_60_id8 log_close/mean_60-mean_close/mean_60_id9 log_return_60-mean_log_returns_60_id9 log_close/mean_60-mean_close/mean_60_id10 log_return_60-mean_log_returns_60_id10 log_close/mean_60-mean_close/mean_60_id11 log_return_60-mean_log_returns_60_id11 log_close/mean_60-mean_close/mean_60_id12 log_return_60-mean_log_returns_60_id12 log_close/mean_60-mean_close/mean_60_id13 log_return_60-mean_log_returns_60_id13 mean_close/mean_300 mean_log_returns_300 log_close/mean_300-mean_close/mean_300_id0 log_return_300-mean_log_returns_300_id0 log_close/mean_300-mean_close/mean_300_id1 log_return_300-mean_log_returns_300_id1 log_close/mean_300-mean_close/mean_300_id2 log_return_300-mean_log_returns_300_id2 log_close/mean_300-mean_close/mean_300_id3 log_return_300-mean_log_returns_300_id3 log_close/mean_300-mean_close/mean_300_id4 log_return_300-mean_log_returns_300_id4 log_close/mean_300-mean_close/mean_300_id5 log_return_300-mean_log_returns_300_id5 log_close/mean_300-mean_close/mean_300_id6 log_return_300-mean_log_returns_300_id6 log_close/mean_300-mean_close/mean_300_id7 log_return_300-mean_log_returns_300_id7 log_close/mean_300-mean_close/mean_300_id8 log_return_300-mean_log_returns_300_id8 log_close/mean_300-mean_close/mean_300_id9 log_return_300-mean_log_returns_300_id9 log_close/mean_300-mean_close/mean_300_id10 log_return_300-mean_log_returns_300_id10 log_close/mean_300-mean_close/mean_300_id11 log_return_300-mean_log_returns_300_id11 log_close/mean_300-mean_close/mean_300_id12 log_return_300-mean_log_returns_300_id12 log_close/mean_300-mean_close/mean_300_id13 log_return_300-mean_log_returns_300_id13 mean_close/mean_900 mean_log_returns_900 log_close/mean_900-mean_close/mean_900_id0 log_return_900-mean_log_returns_900_id0 log_close/mean_900-mean_close/mean_900_id1 log_return_900-mean_log_returns_900_id1 log_close/mean_900-mean_close/mean_900_id2 log_return_900-mean_log_returns_900_id2 log_close/mean_900-mean_close/mean_900_id3 log_return_900-mean_log_returns_900_id3 log_close/mean_900-mean_close/mean_900_id4 log_return_900-mean_log_returns_900_id4 log_close/mean_900-mean_close/mean_900_id5 log_return_900-mean_log_returns_900_id5 log_close/mean_900-mean_close/mean_900_id6 log_return_900-mean_log_returns_900_id6 log_close/mean_900-mean_close/mean_900_id7 log_return_900-mean_log_returns_900_id7 log_close/mean_900-mean_close/mean_900_id8 log_return_900-mean_log_returns_900_id8 log_close/mean_900-mean_close/mean_900_id9 log_return_900-mean_log_returns_900_id9 log_close/mean_900-mean_close/mean_900_id10 log_return_900-mean_log_returns_900_id10 log_close/mean_900-mean_close/mean_900_id11 log_return_900-mean_log_returns_900_id11 log_close/mean_900-mean_close/mean_900_id12 log_return_900-mean_log_returns_900_id12 log_close/mean_900-mean_close/mean_900_id13 log_return_900-mean_log_returns_900_id13
feature_infos=[-0.24511673243171081:0.14978027046349482] [-0.34424123167991638:0.34632083773612976] [-0.43098862537269339:0.20460418740923289] [-0.55850565433502197:0.2909504771232605] [-0.54669866147208401:0.29517020981300229] [-0.58988618850708008:0.53206849098205566] [-0.1672216261559612:0.14206078084975579] [-0.20542380213737488:0.28987497091293335] [-0.26479761011743219:0.15365908300927966] [-0.3743862509727478:0.23077994585037231] [-0.37828538769771985:0.21028144151618849] [-0.47666323184967041:0.31098797917366028] [-0.40485915249203275:0.12565630465466548] [-0.48461812734603882:0.27882668375968933] [-0.54335152268062148:0.21683164242553649] [-0.60255217552185059:0.34016436338424683] [-0.62280371860977313:0.22688023763916151] [-0.72768837213516235:0.37991729378700256] [-0.24344023514698737:0.13232045406043982] [-0.38699272274971008:0.30350151658058167] [-0.41272022661023672:0.18328071546557392] [-0.48186463117599487:0.43334287405014038] [-0.49522772179285146:0.18132167877129093] [-0.61356228590011597:0.41996109485626221] [-0.26680300404237556:0.23479847348068214] [-0.37791687250137329:0.31252738833427429] [-0.40386741771574858:0.36532119703307125] [-0.4557652473449707:0.51775997877120972] [-0.46871316319789591:0.56874569066778113] [-0.56653463840484619:0.90351051092147827] [-0.3256818405032893:0.14573124915093214] [-0.43720433115959167:0.24270395934581757] [-0.47157774519931006:0.21248451156495782] [-0.54871618747711182:0.41252803802490234] [-0.55810893544259432:0.33113422807657922] [-0.68322956562042236:0.46343886852264404] [-0.19202028818598976:0.14595276340380073] [-0.3030962347984314:0.31822890043258667] [-0.32837249023732779:0.18225641887944638] [-0.38738211989402771:0.32038861513137817] [-0.41189658717614097:0.14387956590550374] [-0.52767813205718994:0.31230586767196655] [-0.32813459921921118:0.20274746466989474] [-0.41318240761756897:0.38529860973358154] [-0.47799095498898581:0.3295239769230624] [-0.54530215263366699:0.43825459480285645] [-0.56802854886031018:0.43017638166164757] [-0.68939083814620972:0.55770814418792725] [-0.34868150800965469:0.14251330930804532] [-0.48789012432098389:0.31627315282821655] [-0.54126196845160912:0.23827236972799312] [-0.64006614685058594:0.44283893704414368] [-0.64291763432788251:0.33386347298690872] [-0.74705713987350464:0.49109727144241333] [-0.34231175182626233:0.24475484072434528] [-0.41687881946563721:0.29128947854042053] [-0.46342127865678828:0.28432335592656482] [-0.52406078577041626:0.30654093623161316] [-0.52446980533657506:0.27445341311318427] [-0.61476796865463257:0.34874311089515686] [-0.23818713248893189:0.32922023317913018] [-0.35745590925216675:0.38075369596481323] [-0.41473064185190484:0.278991243384764] [-0.5488935112953186:0.44036442041397095] [-0.45011083915457084:0.31038650657812944] [-0.82452213764190674:0.65518546104431152] [-0.34873840466728834:0.15637681107725288] [-0.42088636755943298:0.28735062479972839] [-0.47396521958934568:0.12176727428197527] [-0.53410881757736206:0.32775029540061951] [-0.56095061479403963:0.15766578544499654] [-0.67200225591659546:0.35435947775840759] [-0.38516388047447625:0.16359511098745402] [-0.47719043493270874:0.28769439458847046] [-0.52930561965450662:0.21916661949548966] [-0.59953105449676514:0.3874075710773468] [-0.60554809288265699:0.26189212397229772] [-0.70347559452056885:0.42343127727508545] [-0.25177656920959435:0.1785833768819084] [-0.31028836965560913:0.23802968859672546] [-0.36570965302270214:0.18228188977307438] [-0.41560035943984985:0.24962969124317169] [-0.43735851231344519:0.23065535992166758] [-0.53522598743438721:0.35348790884017944] [-0.28526859185410858:0.12461815450277326] [-0.36783391237258911:0.24950428307056427] [-0.10776510396216971:0.10787324692616958] [-0.15347625315189362:0.13202150166034698] [-0.055502943373542404:0.14990636326600434] [-0.12621818482875824:0.18875303864479065] [-0.13159968335928016:0.10825768053487067] [-0.14352138340473175:0.16124895215034485] [-0.079493233350592538:0.12475255788467701] [-0.087568230926990509:0.15014514327049255] [-0.18814192857991419:0.22396841569705608] [-0.29373985528945923:0.29942208528518677] [-0.14319133595341063:0.12418961875966222] [-0.15812669694423676:0.21677957475185394] [-0.043653873219942019:0.093964391988853257] [-0.069207571446895599:0.10520196706056595] [-0.10963173791445556:0.1704286702777808] [-0.17692123353481293:0.27161663770675659] [-0.11120844560908302:0.12506312883173781] [-0.1404135674238205:0.15219199657440186] [-0.085950125973203007:0.1966683004691876] [-0.18526050448417664:0.23478028178215027] [-0.21548595953713315:0.2458708968344534] [-0.31419992446899414:0.38687130808830261] [-0.086455562734673419:0.066725589790326473] [-0.087245076894760132:0.10337042063474655] [-0.13284692724084057:0.14570158663537469] [-0.14881235361099243:0.17994537949562073] [-0.088541400071440624:0.11105547148545468] [-0.13090714812278748:0.1464477926492691] [-0.40528833056683705:0.13212329600385458] [-0.4732392430305481:0.350169837474823] [-0.17033197545638759:0.2008285671047397] [-0.18727725744247437:0.26482602953910828] [-0.055259004683566211:0.22677433009447506] [-0.1267155259847641:0.26069831848144531] [-0.13806319211378443:0.15683987791338569] [-0.17041608691215515:0.20738668739795685] [-0.095730338768672735:0.15823064464615577] [-0.11837085336446762:0.19081428647041321] [-0.23516812085287903:0.34180690467563246] [-0.33237725496292114:0.51227426528930664] [-0.15848654376431012:0.19939686118834421] [-0.16516977548599243:0.35075920820236206] [-0.053772331692696324:0.1223829734875263] [-0.078862577676773071:0.12671113014221191] [-0.12813600731095265:0.26980079990710187] [-0.22439724206924438:0.35411980748176575] [-0.1655639562566073:0.21685958571146657] [-0.23355747759342194:0.31209111213684082] [-0.090928285176344992:0.2245348465840043] [-0.19235427677631378:0.23056440055370331] [-0.28282331137835992:0.24699618813692745] [-0.33242148160934448:0.35775578022003174] [-0.095650331093761198:0.098133710492439505] [-0.10782580822706223:0.1439024955034256] [-0.1465442690718684:0.18752445944287863] [-0.1561560332775116:0.22314207255840302] [-0.11987801227962261:0.17521564559775249] [-0.18334142863750458:0.2289203554391861] [-0.48619333978982343:0.1699460316477637] [-0.59762799739837646:0.31955358386039734] [-0.17670335177287327:0.26997803024899719] [-0.21881453692913055:0.48352149128913879] [-0.075561244975664049:0.27062561931184537] [-0.15621854364871979:0.31468191742897034] [-0.14446532715597188:0.20139452669949537] [-0.19002179801464081:0.23527628183364868] [-0.10216424406859981:0.17645862450504662] [-0.14676418900489807:0.23663733899593353] [-0.28206733006814544:0.51149406136339526] [-0.55209839344024658:0.89091962575912476] [-0.16248369557885309:0.27937182805504956] [-0.23401620984077454:0.37661904096603394] [-0.073276709304892773:0.11982054811951476] [-0.10547107458114624:0.11717364192008972] [-0.1655835433226191:0.3862455380770079] [-0.21893994510173798:0.49351292848587036] [-0.21606862985289541:0.29633801807457327] [-0.22791194915771484:0.43195885419845581] [-0.1030695764255786:0.22927608217736589] [-0.23406423628330231:0.23497390747070312] [-0.24075868432986303:0.22291012791812836] [-0.5005260705947876:0.38001194596290588] [-0.11021627332587625:0.13341652935132983] [-0.12989254295825958:0.19692783057689667] [-0.14785551570691557:0.21821484135716729] [-0.17126569151878357:0.26967787742614746] [-0.16528498016444246:0.25697629809483546] [-0.24221475422382355:0.33545279502868652]
tree_sizes=2889 2882 2964 2938 3109 2919 2300 3038 3157 3200 2949 3189 3245 3206 2793 2732 2675

Tree=0
num_leaves=27
num_cat=0
split_feature=124 78 107 149 94 172 43 94 94 88 166 56 29 94 61 12 38 147 106 164 18 28 34 126 26 54
split_gain=0.0360453 0.0186343 0.00962668 0.00875471 0.0199006 0.0343556 0.0510426 0.00846392 0.0295502 0.0208887 0.00876556 0.00732257 0.007295 0.00642283 0.00640639 0.00691597 0.00568626 0.00544299 0.00324118 0.00583285 0.00245764 0.00194786 0.00180993 0.00146253 0.00132203 0.00120051
threshold=-4.0724541047631832e-05 -0.032188709384396094 -0.00027822167612612242 -0.010277374647557734 0.011975693209189007 -0.024464774181373602 0.006351226009428502 0.00038853614028388925 -0.020489415151357819 -0.0015377556205208773 0.039285405487969279 -0.0080551053681178677 -0.02193012926727533 0.0021703055452764269 0.005195390200242401 -0.0081604970722987755 0.013329366742484179 -0.066925510764121995 -0.0030980438034006459 0.01801715265471307 -0.0023468030640706075 -0.0021794612606080336 -0.023317675956364452 -0.0032513641113611079 0.0059470718419351214 0.00055810509925899191
decision_type=6 4 4 6 4 6 4 6 6 6 4 6 6 6 4 6 6 6 4 6 6 6 6 6 4 4
left_child=1 2 -1 4 16 6 -6 8 9 -3 -10 -7 -4 21 15 -15 22 -18 19 -9 -16 25 -2 -23 -20 -5
right_child=3 7 12 13 5 11 -8 18 10 -11 -12 -13 -14 14 20 -17 17 -19 24 -21 -22 23 -24 -25 -26 -27
leaf_value=1.9047407378634484e-05 3.9055620774767295e-05 -1.3956270454577048e-06 0.0002895498317458335 1.3678899958239946e-05 3.899611485325646e-05 -3.3402907688477545e-05 0.00041599980438322497 2.2500120631398708e-05 2.2138880725692958e-05 0.00015972278251553696 3.2890901934377782e-05 4.9057271182103115e-05 1.9047407378634484e-05 -1.2659409367392281e-05 -1.6062371249986756e-05 1.679989589206883e-05 -0.00012208173068999295 -9.2535623234329156e-07 1.6326583245101584e-05 9.1639913849393911e-05 8.3980748593978383e-07 7.8476233924300651e-07 1.7072297971449566e-05 1.1940899658298455e-05 4.7148197884363714e-06 2.1406043851238678e-05
leaf_weight=243 3554 801 457 46909 927 1087 585 12926 183556 2532 113451 5315 62 9277 16618 37939 415 6489 63360 1275 27409 15976 54777 65392 11667 26278
leaf_count=243 3554 801 457 46909 927 1087 585 12926 183556 2532 113451 5315 62 9277 16618 37939 415 6489 63360 1275 27409 15976 54777 65392 11667 26278
internal_value=1.90474e-05 2.52581e-05 0.000174052 1.16637e-05 2.05983e-05 6.56603e-05 0.0001951 2.49277e-05 2.73483e-05 0.000116515 2.62965e-05 3.2702e-05 0.00024678 8.94377e-06 2.53041e-06 1.0693e-05 1.53602e-05 -1.04189e-05 1.69483e-05 2.97731e-05 -5.88191e-06 1.28272e-05 1.86695e-05 9.56574e-06 1.43207e-05 1.66583e-05
internal_weight=0 390330 762 318947 73149 7914 1512 389568 300340 3333 297007 6402 519 245798 91243 47216 65235 6904 89228 14201 44027 154555 58331 81368 75027 73187
internal_count=709277 390330 762 318947 73149 7914 1512 389568 300340 3333 297007 6402 519 245798 91243 47216 65235 6904 89228 14201 44027 154555 58331 81368 75027 73187
is_linear=0
shrinkage=1


Tree=1
num_leaves=28
num_cat=0
split_feature=124 84 155 124 149 143 146 62 63 170 9 110 111 42 136 90 95 94 166 136 94 94 94 64 143 97 172
split_gain=0.0253415 0.0230404 0.0119664 0.0113557 0.0244846 0.0231819 0.0202005 0.00969679 0.00675659 0.00474999 0.00402294 0.00392358 0.00371356 0.00364814 0.00450711 0.00352242 0.00315139 0.00276882 0.00234932 0.00220897 0.00165016 0.00153638 0.00173064 0.0013047 0.00124949 0.000588715 0.000210542
threshold=-0.0056859249471778303 -0.024178939787006904 -0.094350513070821748 0.0024579454153112706 -0.031573764979839318 -0.0066596097312867633 -0.0065801039981014256 -0.038533453292695884 -0.034478299319744103 0.0024788261185664804 -0.015173381194472311 0.00046290868839286511 0.011487490031868221 0.029800466042994869 -0.011088241898588742 -0.0018897896700210861 -0.00083229131996631611 -0.00018998029848226098 -0.020792769469364272 0.0051519540003592034 0.00037670979491246758 0.0033066580533393894 -0.0015563225160423856 -0.030267012540837589 0.0014554853551089766 0.0020013116300106053 0.0079176961673606428
decision_type=6 4 6 6 6 6 4 6 4 6 6 6 4 6 6 6 6 6 6 6 6 6 6 6 6 6 6
left_child=1 2 -1 16 5 6 -5 8 23 -7 25 15 -13 14 -6 -9 17 18 -2 -15 -10 22 -18 -3 -23 -4 -19
right_child=3 7 10 4 13 9 -8 11 20 -11 -12 12 -14 19 -16 -17 21 26 -20 -21 -22 24 -24 -25 -26 -27 -28
leaf_value=0.00045859461197254555 9.8209070970501554e-06 7.3672883429907335e-05 0.00014538353108705572 0.00012579417543105991 -1.5606299187659699e-05 1.9322397109810945e-05 1.7391252841566503e-06 -1.3396228060384066e-05 2.08905222480632e-05 -3.3125944750137339e-05 0 7.4126352826983938e-06 3.3522837356060347e-05 -1.8890904939058818e-05 -6.0784711865370398e-06 4.0137558892164381e-06 8.6289626901036403e-06 -5.3851693282234899e-06 1.7010742401092798e-06 -0.00015170725979722624 0 -1.758906452983124e-05 -2.2459545456235466e-06 0 0 0 0
leaf_weight=129 59305 2709 553 3289 89192 2918 2236 13733 35220 3029 178 32108 6536 815 104666 43778 13972 27188 82016 293 5069 10254 157662 146 7165 146 5366
leaf_count=129 59305 2709 553 3289 89192 2918 2236 13733 35220 3029 178 32108 6536 815 104666 43778 13972 27188 82016 293 5069 10254 157662 146 7165 146 5366
internal_value=0 1.14769e-05 0.000155459 -2.75676e-06 -8.37774e-06 3.38938e-05 7.83211e-05 1.03272e-05 2.22425e-05 -4.87197e-06 9.28636e-05 4.82458e-06 1.22184e-05 -1.09423e-05 -1.05396e-05 0 3.99217e-07 3.34902e-06 5.21477e-06 -6.77365e-05 1.85647e-05 -2.23443e-06 -1.27319e-06 6.88427e-05 -1.08436e-05 0.000126406 -4.2895e-06
internal_weight=0 140305 1006 569366 206438 11472 5525 139299 43144 5947 877 96155 38644 194966 193858 57511 362928 173875 141321 1108 40289 189053 171634 2855 17419 699 32554
internal_count=709671 140305 1006 569366 206438 11472 5525 139299 43144 5947 877 96155 38644 194966 193858 57511 362928 173875 141321 1108 40289 189053 171634 2855 17419 699 32554
is_linear=0
shrinkage=0.03


Tree=2
num_leaves=29
num_cat=0
split_feature=124 8 95 56 98 12 48 161 125 84 64 36 61 164 52 94 29 7 26 26 60 168 167 26 2 61 3 125
split_gain=0.0299155 0.0196785 0.0159329 0.00761928 0.0174798 0.00742284 0.0103445 0.0117999 0.00939724 0.012713 0.00675676 0.0077598 0.00536561 0.00438603 0.0149712 0.0195971 0.00715165 0.0061496 0.00769957 0.0033617 0.00334605 0.00308439 0.00288702 0.00238266 0.00532635 0.00196931 0.00146792 0.00081677
threshold=-0.0012901479400903558 -0.020920915317917264 -0.015807488933205601 -0.010922202800379628 0.0015349492953062617 -0.0056528584563194156 0.017936699742207633 0.03079070616513491 0.021068595349788669 -0.00041520046761973542 -0.049241169941517123 0.0005626117294478156 -0.027228699065744873 -0.018598461515099352 -0.0062876097793721115 0.0033428575667633475 0.0026132860220968728 0.0090247816406190413 0.013067174242830938 -0.0095013995404411473 -0.0015799441000222854 -0.0079337662811044193 -0.021962173283100125 0.01103588101363095 0.021874896446973765 -0.0059359364677220574 -0.006560760084539651 -0.0017735435394570229
decision_type=6 4 6 6 6 4 6 6 6 6 6 6 4 6 6 6 6 6 6 4 4 6 4 6 6 4 6 6
left_child=1 2 12 22 -5 6 8 -8 20 -10 11 25 -1 14 16 -16 -7 21 -19 -13 -2 -15 -4 24 -12 -3 -25 -14
right_child=5 10 3 4 -6 13 7 -9 9 -11 23 19 27 17 15 -17 -18 18 -20 -21 -22 -23 -24 26 -26 -27 -28 -29
leaf_value=0.0002240568296440161 -2.2010432593442504e-06 1.9820129418266895e-05 -1.5681108789616358e-05 0 0.00057451040571042822 0 0 0.0005143118204090142 -5.2615923109582863e-05 9.4332456132790194e-05 4.5988522464714508e-06 4.1062547228801614e-05 6.3088129965899076e-05 1.9342482236699956e-06 0 0.00011719767684395795 -8.7146711761920448e-05 -9.5801608901990451e-08 -3.5961666569830945e-05 1.6079424875544377e-05 -2.040506500689063e-05 -5.0268822279209477e-06 3.5104364589402202e-05 -7.0741025351533324e-05 -1.550641448849047e-05 6.3074555967315206e-07 -7.0624247098294952e-06 0
leaf_weight=714 22752 5631 992 153 76 2880 155 66 9573 490 179912 6425 319 72803 2692 2270 1152 11174 12203 54872 17936 228800 3217 414 12417 47918 10787 115
leaf_count=714 22752 5631 992 153 76 2880 155 66 9573 490 179912 6425 319 72803 2692 2270 1152 11174 12203 54872 17936 228800 3217 414 12417 47918 10787 115
internal_value=0 6.78666e-06 6.2869e-05 3.2772e-05 0.000208198 -5.58426e-06 -1.63409e-05 0.00018176 -1.75062e-05 -4.39529e-05 5.75518e-06 1.16077e-05 0.000165917 -3.89755e-06 1.6411e-05 5.22831e-05 -2.40209e-05 -4.50585e-06 -1.94612e-05 1.89441e-05 -1.0595e-05 -3.29682e-06 1.95711e-05 2.37898e-06 3.22269e-06 2.9294e-06 -1.07672e-05 3.52749e-05
internal_weight=0 323962 5586 4438 229 384946 50972 221 50751 10063 318376 114846 1148 333974 8994 4962 4032 324980 23377 61297 40688 301603 4209 203530 192329 53549 11201 434
internal_count=708908 323962 5586 4438 229 384946 50972 221 50751 10063 318376 114846 1148 333974 8994 4962 4032 324980 23377 61297 40688 301603 4209 203530 192329 53549 11201 434
is_linear=0
shrinkage=0.03


Tree=3
num_leaves=29
num_cat=0
split_feature=124 31 24 95 63 92 55 98 98 148 24 109 65 38 166 94 153 155 138 54 62 136 3 95 48 63 95 87
split_gain=0.0296373 0.0182013 0.0177557 0.0175779 0.0187034 0.0167609 0.0150331 0.0148555 0.0141596 0.00599368 0.0157142 0.0384959 0.0125046 0.00857306 0.00517774 0.013063 0.00446904 0.00606375 0.00390004 0.00347655 0.00875296 0.00476619 0.00189793 0.00149665 0.000228479 0.000180117 0.000243172 0.000239743
threshold=-6.3049385287793869e-05 -0.039637673646211617 -0.025050476620573549 -0.0068141473457217208 -0.03002676926553249 -0.0055173022073076511 -0.0012336230720393357 0.0047030048752260576 0.0030422815035622548 -0.0096441277376391934 0.0036241013544211689 -0.028768825344741341 0.20201629400253299 0.02976249199596567 0.095123379719060444 -0.0014545564949457735 -0.018929548561573025 0.027083670720458034 0.00027532403297552142 -0.0038131359440311961 0.024141983290877963 -0.048822698926256063 0.0040343571454286584 0.0060603229794651279 -0.0049830436088942167 -0.085566282272338853 -0.0043286527507007113 -0.010747855994850395
decision_type=6 4 6 6 6 6 6 6 6 6 4 4 6 4 4 4 6 6 6 6 4 4 6 6 4 6 6 4
left_child=1 3 5 4 7 8 -7 -1 -3 10 16 -12 -13 19 22 -16 17 -2 -6 20 -11 -21 -4 -18 -15 26 -5 -27
right_child=9 2 14 25 18 6 -8 -9 -10 13 11 12 -14 24 15 -17 23 -19 -20 21 -22 -23 -24 -25 -26 27 -28 -29
leaf_value=3.9453108575216638e-05 -3.9710743487255512e-06 -0.00025955124308398036 4.2706684337870704e-06 0 -0.00011885210660276227 4.6962884524458075e-05 0.00020418473081043395 0.00032252091927126173 3.1757652443453797e-05 -4.7376403683444731e-06 -0.00058049105070297267 2.3213043514094833e-05 0.00018789273184642062 0 1.8582941615584949e-05 0 0 -8.5842414690352799e-05 6.369506572570429e-05 9.1346798839759711e-05 -2.7663581341517252e-05 -6.0240860968967004e-06 -9.4066410060365545e-07 -2.4293994944614296e-05 -7.4764106182446439e-05 0 -4.3852319085528385e-05 1.6708962495021306e-05
leaf_weight=415 2330 229 124420 65 181 2277 934 615 231 40463 90 17996 455 154 66727 72567 12323 1741 226 433 25854 213801 119811 3098 1841 70 191 806
leaf_count=415 2330 229 124420 65 181 2277 934 615 231 40463 90 17996 455 154 66727 72567 12323 1741 226 433 25854 213801 119811 3098 1841 70 191 806
internal_value=0 5.60077e-06 5.0313e-06 8.5526e-05 0.000155122 7.09471e-05 9.7462e-05 0.000223302 -8.12918e-05 -6.71316e-06 4.20902e-06 2.42814e-05 2.81068e-05 -8.23649e-06 4.3609e-06 9.00141e-06 -1.41151e-05 -4.26918e-05 0 -7.73547e-06 -1.39022e-05 -5.75642e-06 1.65277e-06 -5.59399e-06 -7.11031e-05 0 -2.42954e-05 3.34366e-06
internal_weight=0 389765 387196 2569 1437 3671 3211 1030 460 320579 38033 18541 18451 282546 383525 139294 19492 4071 407 280551 66317 214234 244231 15421 1995 1132 256 876
internal_count=710344 389765 387196 2569 1437 3671 3211 1030 460 320579 38033 18541 18451 282546 383525 139294 19492 4071 407 280551 66317 214234 244231 15421 1995 1132 256 876
is_linear=0
shrinkage=0.03


Tree=4
num_leaves=31
num_cat=0
split_feature=124 10 99 137 139 12 64 136 89 95 94 166 28 93 126 119 107 26 37 84 94 118 3 173 90 166 167 36 62 136
split_gain=0.0262798 0.0134861 0.0146566 0.0399384 0.0269786 0.00673293 0.00899793 0.00874927 0.00770775 0.00715644 0.00626762 0.00616427 0.0258877 0.00751932 0.0055177 0.00454654 0.0038352 0.0037622 0.00738416 0.00711761 0.0102758 0.0058734 0.00370713 0.00397499 0.00396505 0.00344718 0.00324774 0.00117431 0.00037649 0.000366672
threshold=-0.0041944900609485738 -0.030822819931649242 0.0063371092546731242 -0.047553433105349534 -0.0046643733512610188 -0.0018605183149287029 -0.044424448680496151 -0.033719794224963802 -0.008533512242138384 0.009914271533489229 0.00080400562841147422 0.010489278788226688 -0.17957477127645902 0.00029593973886221653 0.001210309067395167 -0.0191850122064352 -0.0015054687391966579 0.0026599903350178933 -0.047340339049696915 0.011363218807361691 0.0095428596990724899 -0.011115916021790163 -0.0016710705822333691 -0.018928012810647484 -0.0049333844900078068 0.065324116216855452 -0.012238187715411184 0.0013879334972661834 0.01428150775367896 0.0024241436174110812
decision_type=6 4 6 6 6 4 6 6 6 6 6 4 4 6 6 6 4 6 4 6 6 6 4 6 6 6 4 4 6 6
left_child=1 2 26 4 -4 6 8 14 9 -2 -10 22 13 -13 -8 -9 -5 18 -7 21 -21 -19 23 -3 -24 -14 29 -20 -28 -1
right_child=5 11 3 16 -6 17 7 15 10 -11 -12 12 25 -15 -16 -17 -18 19 27 20 -22 -23 24 -25 -26 -27 28 -29 -30 -31
leaf_value=0 0 4.0097242866333035e-05 0 0 0.00075600252920864747 0.00029488343049216873 -0.00025835137817417685 3.665605179789339e-05 -5.686035903505598e-06 0.00015680603714025721 -2.3993130386090517e-05 0 1.4259095379708102e-05 0.00053845030233197889 0 -2.2858457888936039e-06 9.2133477147584553e-05 2.3469779023273629e-05 0 -1.4806923383565606e-05 -0.00012431376754151862 -4.2916398660961239e-06 -3.5596845320628975e-05 6.4121167097302444e-06 2.2814300112093453e-08 -1.5838825724186688e-05 4.2742913359336431e-05 4.9471801245273391e-06 0 -3.0732486070276697e-05
leaf_weight=1070 1246 3907 117 510 146 76 193 2762 29611 402 48359 54 82804 109 154 86639 941 7040 117541 4797 1047 157113 2908 28421 61058 3102 2917 64696 260 429
leaf_count=1070 1246 3907 117 510 146 76 193 2762 29611 402 48359 54 82804 109 154 86639 941 7040 117541 4797 1047 157113 2908 28421 61058 3102 2917 64696 260 429
internal_value=0 9.62162e-06 5.28784e-05 0.00012981 0.000477047 -3.44124e-06 -8.36953e-06 -1.66833e-06 -1.57347e-05 4.60093e-05 -1.72333e-05 8.02308e-06 1.38994e-05 0.000392465 -0.000151869 -9.14182e-07 5.59781e-05 -1.02946e-06 1.90757e-06 -4.2675e-06 -3.70276e-05 -3.00939e-06 2.61483e-06 1.09493e-05 -1.36308e-06 1.29973e-05 2.1429e-05 1.69985e-06 3.96352e-05 -7.16553e-06
internal_weight=0 188753 6390 1714 263 521676 169366 89748 79618 1648 77970 182363 86069 163 347 89401 1451 352310 182313 169997 5844 164153 96294 32328 63966 85906 4676 182237 3177 1499
internal_count=710429 188753 6390 1714 263 521676 169366 89748 79618 1648 77970 182363 86069 163 347 89401 1451 352310 182313 169997 5844 164153 96294 32328 63966 85906 4676 182237 3177 1499
is_linear=0
shrinkage=0.03


Tree=5
num_leaves=28
num_cat=0
split_feature=94 33 138 124 28 91 119 154 75 10 67 126 6 64 28 136 124 136 165 107 12 154 64 95 105 1 24
split_gain=0.0239453 0.056709 0.0165163 0.012613 0.00794917 0.0104536 0.0075979 0.0125922 0.0253301 0.0106772 0.0100242 0.00649729 0.00532658 0.00587317 0.0208762 0.00536032 0.00568253 0.00508906 0.00246032 0.00253452 0.00238073 0.00213628 0.00202076 0.00198444 0.00172615 0.00102824 0.00100547
threshold=-0.001332365322566311 -0.16771161556243894 0.0096398323098511509 0.0037831747517079522 0.033739175001607828 -0.0034099060576409097 -0.0075791683048009864 0.022042806991431293 0.022222898900508884 0.028685723097281332 -0.001239173114299774 -0.0024847524136440745 -0.0017097156789645132 -0.031069891623200341 0.093219394626513255 0.0038063676901778664 0.0068659363618537748 -0.0087574734155155317 0.0028734859079122548 -0.0075339730829000464 0.0028288597868444537 -0.00016408974835354639 0.034066655495681941 0.00017179087444674226 -0.00083465524949133385 0.0045671316329389819 0.021598167242654589
decision_type=6 4 6 6 4 6 6 4 4 6 6 6 6 4 6 4 6 6 6 4 6 6 6 6 6 6 6
left_child=1 2 11 17 24 -6 7 18 10 -10 -9 25 15 14 -14 26 -17 20 21 -20 -3 -2 -19 -15 -5 -1 -8
right_child=6 3 -4 4 5 -7 12 8 9 -11 -12 -13 13 23 -16 16 -18 22 19 -21 -22 -23 -24 -25 -26 -27 -28
leaf_value=0.00025003298382771815 0 1.0457851427202115e-05 0.00058425227447139424 -1.2412456252735732e-05 -0.00010438701502719076 -1.681428650540141e-05 -3.0477178565975826e-06 -4.2642802791488426e-05 0.00010575555897232091 -4.5559117714447689e-05 2.816743467136054e-05 0 1.0010963890834286e-05 -9.3254533128405237e-07 0.00035626946649345984 -1.192740940441365e-05 -3.5733989179981589e-05 6.6696531108037871e-06 3.351043696415107e-05 2.7277387265690984e-06 2.1208138183878637e-05 -1.3858846256290185e-05 -5.2010373023917001e-06 -6.3824452574232177e-06 7.7335851356133788e-06 0 -4.3263822260670633e-05
leaf_weight=170 27398 57050 187 6576 1738 6429 50430 2992 4006 321 4507 60 14987 105736 160 42568 12997 109803 3057 19188 36807 14797 13182 165109 9028 53 634
leaf_count=170 27398 57050 187 6576 1738 6429 50430 2992 4006 321 4507 60 14987 105736 160 42568 12997 109803 3057 19188 36807 14797 13182 165109 9028 53 634
internal_value=0 7.87525e-06 0.000337081 7.16706e-06 -1.33168e-05 -3.73076e-05 -3.75736e-06 4.80327e-06 3.32674e-05 9.10494e-05 0 0.000118171 -5.45847e-06 -3.25058e-06 1.47053e-05 -1.12395e-05 -1.77669e-05 9.48185e-06 -1.88563e-07 7.63491e-06 1.48339e-05 -4.6687e-06 5.27528e-06 -4.31025e-06 0 0.000208991 -3.84245e-06
internal_weight=0 241083 470 240613 23771 8167 468887 76266 11826 4327 7499 283 392621 285992 15147 106629 55565 216842 64440 22245 93857 42195 122985 270845 15604 223 51064
internal_count=709970 241083 470 240613 23771 8167 468887 76266 11826 4327 7499 283 392621 285992 15147 106629 55565 216842 64440 22245 93857 42195 122985 270845 15604 223 51064
is_linear=0
shrinkage=0.03


Tree=6
num_leaves=23
num_cat=0
split_feature=124 63 128 97 114 23 94 64 13 167 61 144 169 60 8 124 90 4 26 137 165 126
split_gain=0.0224566 0.0579141 0.0204281 0.0248978 0.0191625 0.0145805 0.0115858 0.0106644 0.00676372 0.0211857 0.0277157 0.0144614 0.00577849 0.0037829 0.00375177 0.00275306 0.0139617 0.00244919 0.00225874 0.00209893 0.00073443 0.00132213
threshold=0.00077800190214595479 -0.17570994794368741 0.0080130435486015974 0.0030292972223833208 0.038487393059937362 -0.042074590921401971 -0.0036331943255089446 -0.026477921234584742 -0.024513443931937214 -0.059730906039476388 -0.0065526603721082202 0.014572764962891017 0.0022928573889657859 0.0037453533617314793 -0.0075709242396067786 -0.076086966433030048 -0.0020381798215751384 0.0087889168507607716 0.0065561752148062266 0.0083131720311939734 0.019707628525793556 -0.0031070896542538151
decision_type=6 4 6 6 6 6 6 6 4 4 6 6 6 4 4 4 6 6 4 4 6 6
left_child=1 2 -1 -4 8 -6 7 14 11 10 -10 12 -2 -11 -3 16 -8 -9 -17 -13 21 -7
right_child=4 6 3 -5 5 20 15 17 9 13 -12 19 -14 -15 -16 18 -18 -19 -20 -21 -22 -23
leaf_value=0 -4.6366052479969246e-05 4.6300535723836197e-05 0.0010330834718743889 0 -0.0004413736895838437 -0.00012979873895239277 0 1.0736100778498294e-05 -1.4560149730461729e-05 -3.3675231432575337e-06 0.00010076412059286288 -0.00027789818055666044 0 -1.0917383996530866e-05 2.0279851109424305e-05 2.3319930728923125e-06 0.00042213957370532785 -2.4845052451628996e-06 -4.9665408520950153e-06 0 0 0
leaf_weight=71 4629 7824 86 59 140 387 87 25416 3277 150373 3847 252 5392 108982 28595 304567 83 22212 42589 109 181 370
leaf_count=71 4629 7824 86 59 140 387 87 25416 3277 150373 3847 252 5392 108982 28595 304567 83 22212 42589 109 181 370
internal_value=0 4.24569e-06 0.000493656 0.000697473 -6.68778e-06 -0.000133485 3.96357e-06 1.39798e-05 -6.13893e-06 -5.14526e-06 4.56214e-05 -3.01936e-05 -2.17812e-05 -6.5979e-06 2.6284e-05 1.49655e-06 0.000122513 4.25571e-06 1.39338e-06 -0.000220984 -7.07322e-05 -8.40654e-05
internal_weight=0 431589 216 145 277939 1078 431373 84047 276861 266479 7124 10382 10021 259355 36419 347326 170 47628 347156 361 938 757
internal_count=709528 431589 216 145 277939 1078 431373 84047 276861 266479 7124 10382 10021 259355 36419 347326 170 47628 347156 361 938 757
is_linear=0
shrinkage=0.03


Tree=7
num_leaves=29
num_cat=0
split_feature=124 7 74 64 94 54 24 120 166 135 61 125 91 26 62 78 146 127 166 111 105 167 65 166 70 64 8 22
split_gain=0.0230435 0.0121177 0.018838 0.00786266 0.00666374 0.0080527 0.0158835 0.0155677 0.010151 0.0393785 0.00734602 0.00631649 0.00641152 0.00631486 0.00444745 0.00538192 0.00404267 0.00347022 0.00298274 0.00275285 0.0047794 0.00460801 0.00237233 0.00147868 0.0014381 0.000748233 0.000666153 1.87392e-06
threshold=-0.0040963922702105457 -0.019350552931427952 -0.084438119281682267 -0.043233525714064969 -0.00056789446829431966 -0.012374889175018404 0.0134716107675948 -0.0071381899876541916 -0.020439369228488814 -0.019368699751794335 0.0033764396794140343 0.0085553438402712362 -0.0036719747586175795 0.0036924426706904418 -0.021466653723663222 0.00030136888304656251 -0.00031232482266409055 0.0087378793396055716 -0.018404005869596934 0.0031836194684728984 0.0049111410044133672 -0.048789523541927331 0.0038136743241921072 -0.012025162761278777 0.0059237296964803109 0.014939444437306389 0.0019242644721826796 -0.032147854308426323
decision_type=6 6 6 6 4 6 4 6 4 6 4 4 6 4 4 6 6 6 6 6 6 6 4 6 6 4 6 6
left_child=1 2 -1 14 11 6 24 -8 9 -7 -10 23 13 -13 18 -16 27 -14 -3 21 -21 -5 -18 25 -6 -2 -25 -4
right_child=4 3 16 19 5 8 7 -9 10 -11 -12 12 17 -15 15 -17 22 -19 -20 20 -22 -23 -24 26 -26 -27 -28 -29
leaf_value=0.00029157885817172505 5.3999195386403386e-08 8.5257311527571874e-05 -1.7821705189349701e-06 -2.8775270920519567e-05 -1.5610940701105053e-05 0.00017020988894510947 -0.00037368420320308711 0 -8.4143977559369574e-07 2.7584816718340658e-06 -1.0145556379363351e-05 0 -6.9759361287169255e-06 -6.2581376408526164e-05 2.0522574981923955e-06 2.0651505045781071e-05 2.8793993038316633e-05 2.433127675721191e-05 1.705507313027561e-05 5.1162834379712042e-06 3.978500958170909e-05 1.9427359228104154e-06 0.00013306704469551002 3.6343681472428863e-06 -5.2850156759321775e-05 9.4106075596749245e-06 -2.3394673614265314e-06 0
leaf_weight=319 12827 1526 529 4617 11800 1402 238 232 143462 14866 173049 3123 27113 3685 24574 39757 1333 3485 2108 25133 4538 86695 504 42059 1558 53122 25087 754
leaf_count=319 12827 1526 529 4617 11800 1402 238 232 143462 14866 173049 3123 27113 3685 24574 39757 1333 3485 2108 25133 4538 86695 504 42059 1558 53122 25087 754
internal_value=0 8.82007e-06 6.5204e-05 7.71377e-06 -3.34121e-06 -5.73862e-06 -2.83898e-05 -0.000203271 -4.75216e-06 1.81308e-05 -5.97579e-06 1.44447e-06 -9.31634e-06 -3.58585e-05 1.59309e-05 1.37802e-05 3.70821e-05 -2.91861e-06 4.98513e-05 2.97341e-06 1.09265e-05 2.2468e-07 6.56726e-05 4.58156e-06 -2.10843e-05 7.81826e-06 1.17904e-06 0
internal_weight=0 192387 3439 188948 517108 346607 13828 470 332779 16268 316511 170501 37406 6808 67965 64331 3120 30598 3634 120983 29671 91312 1837 133095 13358 65949 67146 1283
internal_count=709495 192387 3439 188948 517108 346607 13828 470 332779 16268 316511 170501 37406 6808 67965 64331 3120 30598 3634 120983 29671 91312 1837 133095 13358 65949 67146 1283
is_linear=0
shrinkage=0.03


Tree=8
num_leaves=30
num_cat=0
split_feature=124 148 94 149 77 123 95 42 62 28 123 62 107 83 27 94 27 74 94 84 36 57 167 66 62 167 64 64 54
split_gain=0.0190973 0.00912682 0.0193311 0.0104126 0.0258076 0.00840245 0.00778876 0.0312999 0.00991127 0.0102106 0.00765469 0.00677207 0.00590979 0.0050023 0.00353175 0.00343935 0.00306478 0.00807607 0.00282084 0.00237877 0.00232627 0.00220395 0.00206684 0.00164696 0.00133218 0.00127294 0.00104874 0.000491744 0.000393089
threshold=0.0021205959870928691 -0.011578859193554671 -0.0040979069157550006 -0.0023722164332866664 0.022322926670312885 0.017744641751050953 -0.002159465453587472 -0.049554562033305279 -0.023240971979243265 -0.038901793733057036 -0.033757796511054032 0.025672890333756592 0.0027070890646427874 0.010064153466373684 -0.029016987420618531 -8.0000352634350736e-05 -0.051144087687134736 -0.0015737085043370264 0.0025324203208102756 0.0046451165616897385 0.0016054453200513694 -0.018855254165828225 -0.035823870450258248 0.00021000083537551443 0.0065786401960929077 0.0058858823031187066 -0.028426266704565023 -0.005474688481464424 -0.00060890124869255431
decision_type=6 6 6 6 6 6 6 4 6 6 6 4 6 6 6 6 4 6 6 6 6 6 4 6 4 4 6 6 6
left_child=6 2 10 5 -5 -4 7 14 9 -9 23 19 18 -12 -1 25 17 -17 -13 21 -21 -3 -10 -2 -18 28 -14 -27 -8
right_child=1 11 3 4 -6 -7 15 8 22 -11 13 12 26 -15 -16 16 24 -19 -20 20 -22 -23 -24 -25 -26 27 -28 -29 -30
leaf_value=0.00030910814325865537 0 3.5270168271326585e-06 7.7905585389328659e-06 4.5906666302407593e-05 0.00063090491846983388 6.6563010815360427e-05 -2.7492462494058603e-06 5.2770131129252603e-05 -9.1546409538745727e-06 1.1926313611023708e-05 2.6435786156287598e-06 -6.3188088317482163e-06 -2.9497225625453849e-05 -6.2849226789109825e-05 0 0 -5.1340623071499689e-07 9.7754890141880384e-05 -1.985422998732224e-05 2.4623045692902608e-05 -2.0352956601462679e-05 -5.8975962043816191e-06 3.1867240187656852e-06 -0.00025673476507532595 -6.373976445349686e-06 9.1216971111499109e-06 -6.6433390238884981e-05 2.2034570288783242e-06 2.4896095346672387e-06
leaf_weight=345 90 29953 16702 682 87 2708 20102 6258 13052 75577 1292 37181 11714 2098 70 2915 71627 970 27648 828 13186 73544 125588 219 81505 38306 1660 20882 32988
leaf_count=345 90 29953 16702 682 87 2708 20102 6258 13052 75577 1292 37181 11714 2098 70 2915 71627 970 27648 828 13186 73544 125588 219 81505 38306 1660 20882 32988
internal_value=0 -7.33298e-06 9.87088e-06 2.19548e-05 0.00013301 1.6769e-05 3.31274e-06 7.48891e-06 6.92787e-06 1.52342e-05 -5.19733e-05 -9.50865e-06 -1.64302e-05 -3.34795e-05 0.000268116 -5.70979e-08 -2.97855e-06 2.27965e-05 -1.23231e-05 -4.77454e-06 -1.66223e-05 -3.02508e-06 1.91656e-06 -0.000205115 -3.73071e-06 3.89484e-06 -3.52125e-05 6.93446e-06 2.23412e-07
internal_weight=0 219592 23878 20179 769 19410 490185 220890 220475 81835 3699 195714 78203 3390 415 269295 157017 3885 64829 117511 14014 103497 138640 309 153132 112278 13374 59188 53090
internal_count=709777 219592 23878 20179 769 19410 490185 220890 220475 81835 3699 195714 78203 3390 415 269295 157017 3885 64829 117511 14014 103497 138640 309 153132 112278 13374 59188 53090
is_linear=0
shrinkage=0.03


Tree=9
num_leaves=31
num_cat=0
split_feature=95 50 138 12 128 137 149 125 64 26 48 33 27 94 26 61 64 100 155 125 61 107 60 110 157 132 128 96 99 89
split_gain=0.0126771 0.0158343 0.0176205 0.00929877 0.00819997 0.00881452 0.00811117 0.0228137 0.0129786 0.00767937 0.00639984 0.0111988 0.0246678 0.0061711 0.00561695 0.00539101 0.00534992 0.00603073 0.00493882 0.00424179 0.00396181 0.00420559 0.00394602 0.00311192 0.00265358 0.00255508 0.00199869 0.00199234 0.000858295 0.000200609
threshold=-0.0042953551746904841 -0.049189206361381861 0.011048704256885195 -0.0042247487353225185 0.003486829308538057 -0.0058748985175043336 -0.038263320922851556 0.017628116533160213 0.018401455877431177 0.011910279045816661 0.008416619720416265 -0.027586370706558224 -0.0027644364163279529 -0.00078330103293534155 0.0099365435726468249 -0.020017595961689946 -0.056982245283623577 -0.0055922433530551556 -0.0071344105526804915 0.0018038362613879146 -0.010205159429460762 -0.0023255707928910847 -0.0059487689157312609 0.0045973949923380436 -0.052818197757005685 0.0074291999771408839 0.0023759013997962002 -0.0009774399687239475 0.00049268334987573336 -0.002083832048811018
decision_type=6 6 4 6 4 6 6 6 6 6 6 6 6 6 6 6 6 6 4 6 6 6 4 6 6 6 6 6 6 6
left_child=1 2 19 10 -4 -6 7 25 -9 15 16 12 -12 14 -8 22 18 -18 -2 26 27 -22 -3 -17 -15 -5 -1 -11 -21 -13
right_child=3 9 4 6 5 -7 13 8 -10 20 11 29 -14 24 -16 23 17 -19 -20 28 21 -23 -24 -25 -26 -27 -28 -29 -30 -31
leaf_value=0 -1.3254444806360551e-06 4.3556223527048787e-05 0 8.0450699147819683e-06 0.00046673024285826589 9.5450177841817054e-05 6.5243672413460433e-06 3.6993054466384741e-05 0.00018558767886041891 -1.0130895246210575e-05 1.8397615926424287e-05 1.6432490098699706e-05 0.00075523986590386846 2.5033388583456169e-05 -1.3390108663398131e-05 2.4294027359040457e-06 -3.5205328838524172e-05 -7.244614788667482e-07 -2.6379706253285122e-05 0 -4.7979913445393627e-05 -7.9020885061340351e-06 1.3666282142605707e-05 2.0926844884505154e-05 -3.5551421558384921e-06 -3.3100916780971801e-05 8.3327178741748301e-05 3.169331311120972e-05 -5.493601254503488e-05 0
leaf_weight=262 10876 5188 205 4657 204 272 121477 1731 1066 1102 276 674 60 2825 13822 84594 5273 41872 30805 209 3770 9790 37703 9534 314507 1831 891 2332 382 1200
leaf_count=262 10876 5188 205 4657 204 272 121477 1731 1066 1102 276 674 60 2825 13822 84594 5273 41872 30805 209 3770 9790 37703 9534 314507 1831 891 2332 382 1200
internal_value=0 7.57469e-06 8.41099e-05 -2.09788e-06 0.000216649 0.000287238 -3.37206e-07 2.73635e-05 9.9077e-05 6.27114e-06 -1.08666e-05 3.79165e-05 0.000198046 -9.38699e-07 4.37889e-06 8.69516e-06 -1.225e-05 -4.90051e-06 -2.02024e-05 2.3576e-05 -1.23894e-05 -2.01561e-05 1.76333e-05 4.46272e-06 -3.25321e-06 -1.26225e-06 6.17329e-05 1.39079e-05 -2.55276e-05 1.02981e-06
internal_weight=0 156438 2425 552952 681 476 461916 9285 2797 154013 91036 2210 336 452631 135299 137019 88826 47145 41681 1744 16994 13560 42891 94128 317332 6488 1153 3434 591 1874
internal_count=709390 156438 2425 552952 681 476 461916 9285 2797 154013 91036 2210 336 452631 135299 137019 88826 47145 41681 1744 16994 13560 42891 94128 317332 6488 1153 3434 591 1874
is_linear=0
shrinkage=0.03


Tree=10
num_leaves=28
num_cat=0
split_feature=124 4 87 8 64 30 100 166 25 8 94 62 119 146 155 26 114 99 62 109 98 129 12 48 166 12 158
split_gain=0.01817 0.0145153 0.0186306 0.00918714 0.00781174 0.0061292 0.0072541 0.0110318 0.0328358 0.00539657 0.00508614 0.00718982 0.0260552 0.00476139 0.00473136 0.00782798 0.00433049 0.00421987 0.00379695 0.00836643 0.00358965 0.00316226 0.00299245 0.00268389 0.00225893 0.00204439 0.0014462
threshold=-0.0057261738050254805 -0.14926802693731819 0.013604251202195885 -0.013686657055666839 -0.046235476357128054 -0.010415952115893684 -0.0050881542061293012 -0.0083896234332323377 0.0024197009624913339 0.0076965132958317301 -3.4785835721269131e-05 -0.048731607455941288 -0.02181318216025829 0.0010197361054252532 0.0033557300921529536 0.0045476565970505632 -0.00080361234952479332 0.0040651173330843457 0.0037670390332842389 0.011703599244356157 0.0059182862931913922 0.002394800074398518 0.0017543163165695212 -0.0020622364309096424 0.028745140881824314 -0.0015018961201250845 0.011633717551287384
decision_type=6 4 6 4 6 4 6 4 6 6 6 6 4 4 6 6 4 6 4 6 6 6 6 6 4 6 6
left_child=1 2 9 13 25 6 7 8 -2 20 14 16 -13 26 24 -16 -12 -15 19 -8 -1 -20 -6 -9 -7 -5 -3
right_child=5 3 -4 4 22 10 18 23 -10 -11 11 12 -14 17 15 -17 -18 -19 21 -21 -22 -23 -24 -25 -26 -27 -28
leaf_value=0 -2.0254359235096181e-05 2.3267278784810022e-05 0.00064961193267860126 3.8472560697495591e-06 -2.9481524035693516e-06 1.3509078588057648e-06 -5.9655839006126748e-06 -2.7376297764163285e-05 -0.00034893140289436882 -0.00014185775871737859 -1.6762474631029886e-05 6.7376684207589931e-05 -2.618408753082687e-06 3.2216621462603598e-05 2.0612253620232135e-06 -1.7063675440101327e-05 -4.4775635427206516e-06 0.00010755806187370583 -3.9201528487154571e-05 7.0840988543555993e-05 0.00027233129170706454 0 8.2729357855627303e-06 4.5482266049147024e-05 8.7364979321662334e-06 2.0978003786952537e-05 -1.5279977974392713e-05
leaf_weight=110 1154 2645 72 10492 50133 100416 12324 3853 412 50 52789 4912 178091 2734 54848 28829 59089 1561 4841 1413 95 2652 36114 380 65501 34032 837
leaf_count=110 1154 2645 72 10492 50133 100416 12324 3853 412 50 52789 4912 178091 2734 54848 28829 59089 1561 4841 1413 95 2652 36114 380 65501 34032 837
internal_value=0 9.64654e-06 0.000210751 9.06059e-06 7.03752e-06 -2.45079e-06 -1.64601e-05 -4.67218e-05 -0.000116627 2.4381e-05 -1.72772e-06 -4.40759e-06 -6.56983e-07 4.11398e-05 1.3783e-06 -4.34882e-06 -1.04084e-05 6.31273e-05 -7.48402e-06 8.52188e-07 0.00013837 -2.47644e-05 1.57659e-06 -1.72754e-05 4.35708e-06 1.72784e-05 9.69248e-06
internal_weight=0 138875 327 138548 130771 571504 27029 5799 1566 255 544475 294881 183003 7777 249594 83677 111878 4295 21230 13737 205 7493 86247 4233 165917 44524 3482
internal_count=710379 138875 327 138548 130771 571504 27029 5799 1566 255 544475 294881 183003 7777 249594 83677 111878 4295 21230 13737 205 7493 86247 4233 165917 44524 3482
is_linear=0
shrinkage=0.03


Tree=11
num_leaves=31
num_cat=0
split_feature=94 27 90 84 124 135 30 29 161 143 167 154 137 92 122 155 149 28 121 166 109 64 28 81 91 95 86 125 155 108
split_gain=0.0222222 0.0116447 0.0133448 0.0118234 0.0195679 0.0102221 0.00863362 0.0148549 0.0178218 0.031085 0.0181103 0.00910676 0.0088211 0.00803858 0.0237684 0.0073708 0.00707362 0.00700867 0.00689454 0.00613111 0.00398198 0.0033977 0.00302484 0.0024421 0.00198715 0.00144709 0.00128264 0.00125829 0.000979018 0.000904161
threshold=-0.00061502394374292064 0.038332572206854827 6.3567719997784981e-05 -0.016257972969750178 -0.027136083608269319 0.02012329921126366 -0.01267953064395627 0.074420519173145308 -0.028720485046505925 -0.022185808978974816 -0.053057484328746789 0.010430665341611203 0.012802531942725183 0.005994901847840641 -0.0031992950409299634 -0.078360918909311281 0.057971673086285598 0.0016309253837140062 -0.01068319473415613 0.010192837872331616 -0.0086508700624108297 -0.016981903497803499 -0.020581500553516142 0.011509271804243328 0.00088798237266018998 -0.0071548260748386374 0.0030817785108843963 0.00055330339819192897 -0.014308357611298559 0.0069574847235955644
decision_type=6 6 6 6 6 6 6 6 6 6 4 4 4 6 6 4 6 4 6 4 6 4 6 6 6 6 4 6 6 6
left_child=1 3 17 4 5 -1 11 15 10 -10 -9 26 24 23 -15 16 -8 28 -19 20 -5 -17 -21 -4 -13 -6 29 -28 -3 -2
right_child=6 2 13 19 25 -7 7 8 9 -11 -12 12 -14 14 -16 21 -18 18 -20 22 -22 -23 -24 -25 -26 -27 27 -29 -30 -31
leaf_value=0.0001278833843760178 -1.8219474329860395e-06 8.4712122821971341e-05 1.610583509727884e-05 -1.5177503843443437e-05 4.1196255263881555e-05 0.0005607819366419026 1.9760051300150279e-05 -0.00024955345551398782 0.00016414116167268235 1.9728370358736621e-05 -1.1989058053802064e-05 -0.00010474758548952456 -4.9424243166011698e-06 0.00054625206933224036 1.6947040993068361e-05 1.3299335083000605e-06 0.00019545481143162213 -9.7472326853158245e-05 -2.8066936269595875e-05 2.3704805588100031e-05 3.7865883411335608e-06 -6.8172001762488476e-06 9.4020108653593265e-06 -1.8440972825540657e-05 -3.6091761090500448e-05 0 0 -4.2994343341346499e-05 0 3.6534853788632492e-05
leaf_weight=614 5885 258 2947 10503 1543 91 3911 346 1515 16348 2854 2440 2588 94 772 50656 251 2685 4204 16977 138585 308762 124862 4335 1424 1331 1509 1406 242 593
leaf_count=614 5885 258 2947 10503 1543 91 3911 346 1515 16348 2854 2440 2588 94 772 50656 251 2685 4204 16977 138585 308762 124862 4335 1424 1331 1509 1406 242 593
internal_value=0 6.07871e-06 -1.8962e-05 7.45082e-06 6.21435e-05 0.000206406 -4.6189e-06 -3.67946e-06 2.06729e-05 3.2833e-05 -4.25001e-05 -2.64742e-05 -5.42394e-05 5.89875e-06 9.28078e-05 -5.13162e-06 3.40469e-05 -4.84e-05 -5.7315e-05 6.726e-06 2.3498e-06 -5.62722e-06 1.122e-05 -2.40011e-06 -8.33576e-05 2.14211e-05 -5.79838e-06 -2.24505e-05 4.4289e-05 0
internal_weight=0 310043 15537 294506 3579 705 400488 384643 21063 17863 3200 15845 6452 8148 866 363580 4162 7389 6889 290927 149088 359418 141839 7282 3864 2874 9393 2915 500 6478
internal_count=710531 310043 15537 294506 3579 705 400488 384643 21063 17863 3200 15845 6452 8148 866 363580 4162 7389 6889 290927 149088 359418 141839 7282 3864 2874 9393 2915 500 6478
is_linear=0
shrinkage=0.03


Tree=12
num_leaves=31
num_cat=0
split_feature=94 25 105 119 98 162 155 9 2 155 124 27 121 136 109 61 6 1 29 135 84 14 136 65 167 64 59 86 3 39
split_gain=0.0149037 0.0174474 0.0178297 0.0169776 0.0118952 0.0104374 0.0117133 0.0211235 0.0100118 0.00976393 0.00881363 0.00926051 0.0120464 0.00582119 0.0055618 0.00527114 0.00755577 0.004651 0.00411882 0.00756676 0.00389885 0.00375335 0.0037511 0.00256061 0.00241869 0.00234054 0.00225166 0.00182623 0.00172266 0.00167048
threshold=0.00060043514405291084 -0.02841703966259956 0.0036439250688999896 -0.020349128171801564 -3.0298278135582596e-05 0.002997993474933818 0.02983125671744347 -0.0066270888783037654 0.0045901042231332847 -0.027134858071804043 0.0039141953904370677 0.029676009900867942 -0.019367844797670838 -0.023516583102388269 0.00075268588261678826 0.022357257083058361 -0.001221286893657101 0.0073474072851240644 0.034620266407728202 -0.012100609950721262 0.0010800062386573858 0.0039654039497122465 0.006999718666078061 -0.056741526350378983 -0.032760387286543839 0.019615639909998272 0.016277098096907142 -0.00031658504252266294 -0.042265990749001496 0.0080224671401083487
decision_type=6 4 6 4 6 6 6 6 4 6 6 6 6 6 6 4 6 6 6 6 6 6 4 6 4 4 6 6 6 6
left_child=1 2 8 5 17 6 26 -8 9 -1 13 28 -13 20 -6 18 -17 -4 25 -20 -3 22 -7 -18 -15 -5 -2 -10 -12 -23
right_child=3 10 4 15 14 21 7 -9 27 -11 11 12 -14 24 -16 16 23 -19 19 -21 -22 29 -24 -25 -26 -27 -28 -29 -30 -31
leaf_value=8.2862001773368758e-05 -1.097688644482181e-05 3.8204542908574473e-06 3.0898993661686422e-05 -3.7244164941141163e-06 4.2686745505619034e-05 9.7831117919458153e-05 -1.8070750514170517e-05 0.00015371828930986505 0 6.2245101804173782e-07 1.6110982976727213e-05 -0.00012861266670538549 -2.1657084384799139e-05 -8.7115034081965608e-06 0.00013703759182133942 -2.460827812040228e-05 -1.9720682073643331e-06 -0.0001066614248613701 3.882302136694593e-05 -1.7891374165241606e-07 1.4398949721621093e-05 -7.5768988097415328e-05 0 -1.7908377578077164e-05 1.9181954444460866e-06 -1.3138519044733389e-05 3.5205542033072051e-05 -6.5634990432276682e-05 -4.7011269012657928e-06 -4.1818176157815492e-06
leaf_weight=1959 1191 73402 1308 112848 1441 505 722 2071 399 5011 3971 1149 10247 20782 2515 32495 42773 256 5214 26519 62299 595 532 12631 222151 33403 1927 1510 26658 1734
leaf_count=1959 1191 73402 1308 112848 1441 505 722 2071 399 5011 3971 1149 10247 20782 2515 32495 42773 256 5214 26519 62299 595 532 12631 222151 33403 1927 1510 26658 1734
internal_value=0 3.47051e-06 3.60129e-05 -5.4501e-06 7.86816e-05 3.41701e-05 5.84121e-05 0.000103962 7.78538e-06 2.59054e-05 2.32077e-06 -1.06198e-05 -3.37776e-05 3.79673e-06 0.000106498 -6.88916e-06 -1.29724e-05 0 -3.80051e-06 5.75881e-06 8.78761e-06 -3.95686e-06 3.76968e-05 -5.87647e-06 9.47056e-07 -5.97726e-06 1.27616e-05 -5.04818e-05 -1.51229e-06 -2.89548e-05
internal_weight=0 435058 14399 275160 5520 9277 5911 2793 8879 6970 420659 42025 11396 378634 3956 265883 87899 1564 177984 31733 135701 3366 1037 55404 242933 146251 3118 1909 30629 2329
internal_count=710218 435058 14399 275160 5520 9277 5911 2793 8879 6970 420659 42025 11396 378634 3956 265883 87899 1564 177984 31733 135701 3366 1037 55404 242933 146251 3118 1909 30629 2329
is_linear=0
shrinkage=0.03


Tree=13
num_leaves=31
num_cat=0
split_feature=124 94 60 154 64 12 84 49 136 61 114 118 76 141 125 137 169 137 149 30 21 94 166 64 156 164 62 166 136 151
split_gain=0.0127075 0.0111194 0.00874124 0.0136621 0.0101487 0.00789037 0.00805335 0.0118894 0.00756418 0.0046029 0.0115218 0.00865946 0.0214987 0.00686193 0.00446022 0.00438528 0.0030713 0.006219 0.00291136 0.00290919 0.00254797 0.0029283 0.00245762 0.00203823 0.00179499 0.00170752 0.00267116 0.0012647 0.00123383 0.000791209
threshold=0.0035346495927390696 0.00019031011672273747 -0.010072606975840082 -0.017938223514157452 0.011827101866922879 -0.004974494415807963 0.00051314585378318934 0.0075033034663647422 0.0066548543456380971 0.012947127223014833 0.024298193581193697 -0.0074893888480931968 -0.0023722316792026514 -0.029205852188169953 -0.0053790106903761617 -0.039845993742346757 -0.0011858302168548105 -0.046117095276713364 0.00034735024382825946 0.0018703881200314847 -0.027369522489607331 0.0042896694895121568 0.0078837905705114609 0.020574423842555024 -0.035911301401682819 0.032953447027639533 0.0028926242137747829 0.028014230946460796 -0.0044278123945627702 -0.023458682931959626
decision_type=6 6 4 6 6 6 6 6 4 4 6 6 6 6 6 6 6 4 6 6 4 6 4 4 6 6 4 4 4 6
left_child=1 2 3 4 -1 6 16 27 -9 11 24 12 -7 -12 -13 19 17 -2 -18 -4 21 28 -17 -23 -11 29 -27 -8 -3 -22
right_child=5 20 15 -5 -6 9 7 8 -10 10 13 14 -14 -15 -16 22 18 -19 -20 -21 25 23 -24 -25 -26 26 -28 -29 -30 -31
leaf_value=0.00010908607765490535 -0.00011649307228804721 2.1892013266704399e-05 5.3808352016189959e-06 1.0424297279214612e-05 -7.6189281685208487e-06 -4.8190916046371873e-05 -4.1939753452185062e-05 0.00037393638061123004 0 3.9210619117689135e-05 -0.00024154325836560074 -4.278069507676426e-05 5.6631486702092901e-05 -4.887710350843249e-05 -1.096196435939479e-06 0 4.6061842895151749e-06 -2.656881517625154e-05 -1.9995034059894933e-05 1.6741817976488817e-05 -1.5182516722297078e-05 5.3903612891655622e-05 6.4041564775918584e-06 0 -8.5031057407364842e-06 6.1603392842022773e-05 0 5.5129172567266941e-05 -3.1212520396144858e-06 -4.4334949513901654e-06
leaf_weight=2675 851 2155 58540 10072 587 2244 322 152 71 613 266 2432 6677 1667 72000 160187 5145 15916 13178 36740 7803 1886 82534 470 49047 874 1233 185 8272 164814
leaf_count=2675 851 2155 58540 10072 587 2244 322 152 71 613 266 2432 6677 1667 72000 160187 5145 15916 13178 36740 7803 1886 82534 470 49047 874 1233 185 8272 164814
internal_value=0 2.2462e-06 5.41166e-06 2.94354e-05 8.34975e-05 -7.14508e-06 -1.97598e-05 7.41558e-05 0.000255828 -3.68524e-06 -1.07426e-05 5.03249e-07 2.85784e-05 -8.33641e-05 -2.66083e-06 4.41939e-06 -2.21451e-05 -3.20407e-05 -1.22688e-05 9.91932e-06 -3.60499e-06 8.93121e-06 2.19853e-06 3.9351e-05 -7.61053e-06 -4.60809e-06 2.089e-05 0 6.13274e-07 -5.00646e-06
internal_weight=0 538842 351335 13334 3262 170766 35820 730 223 134946 51593 83353 8921 1933 74432 338001 35090 16767 18323 95280 187507 12783 242721 2356 49660 174724 2107 507 10427 172617
internal_count=709608 538842 351335 13334 3262 170766 35820 730 223 134946 51593 83353 8921 1933 74432 338001 35090 16767 18323 95280 187507 12783 242721 2356 49660 174724 2107 507 10427 172617
is_linear=0
shrinkage=0.03


Tree=14
num_leaves=27
num_cat=0
split_feature=124 53 128 97 14 137 167 99 6 149 34 17 24 26 166 71 94 124 36 101 5 162 35 106 26 121
split_gain=0.0176847 0.0203926 0.0205548 0.0190454 0.0112391 0.00888018 0.0218693 0.00833574 0.00616937 0.00588241 0.0109989 0.047004 0.00516409 0.00434322 0.00413626 0.00634632 0.00430045 0.00406918 0.00387125 0.0033264 0.00232069 0.00189927 0.00187505 0.00114059 0.000617138 0.000556614
threshold=-0.0017440105833724515 -0.28368194401264185 -0.00078633859981587842 0.0024629030376672749 -0.03339408603863727 -0.0013665948063135145 -9.479018626734613e-05 0.001160120125859976 0.0060977341386000373 -0.011930053122341631 -0.034574583318434889 -0.0012355029466561971 -0.00085907239731097286 0.022753079461245034 0.0077969880064273156 0.063615296036005034 -0.00094031547775973699 0.0016109750275116296 -0.0018568733293753443 -0.0047639964614063493 -0.02510130405426025 0.0001449749899231556 0.052121460437774665 -0.0019193132539424976 -0.0048812110189357565 -0.012333167716860769
decision_type=6 4 6 6 6 6 4 4 4 4 6 6 6 4 4 6 6 6 6 4 6 6 4 4 6 6
left_child=1 2 -1 -4 5 7 -7 -3 9 10 11 -2 -12 23 15 -6 -16 22 -19 20 -15 -21 -11 25 -25 -10
right_child=8 4 3 -5 14 6 -8 -9 13 17 12 -13 -14 19 16 -17 -18 18 -20 21 -22 -23 -24 24 -26 -27
leaf_value=0 0 9.3591358515778641e-06 0.00061412914105721315 0 2.3663205071230591e-06 -0.00010519922732927465 8.2537016970406931e-05 0.00016555182847314157 0 -1.8389236446650453e-06 -9.4322949076418169e-06 0.00037064732434049266 7.6365132759045088e-06 8.2888599640775317e-05 1.1760674991605186e-05 -2.3238081217540726e-05 1.0024811181723829e-06 -1.3752964056344017e-05 -4.366891464679954e-06 -7.4243820071218615e-05 -2.1584984225322342e-05 -1.516138907541867e-05 1.7504494316744215e-05 1.5978983762537576e-05 -6.831685005223016e-06 -2.8384963093352869e-05
leaf_weight=162 1447 763 144 87 135274 848 1538 1002 474 132042 22818 385 50558 243 94823 9275 56640 69293 108556 2736 868 1490 4570 932 8792 3716
leaf_count=162 1447 763 144 87 135274 848 1538 1002 474 132042 22818 385 50558 243 94823 9275 56640 69293 108556 2736 868 1490 4570 932 8792 3716
internal_value=0 5.44045e-06 0.000221756 0.000403439 5.10578e-06 5.44333e-05 9.5007e-06 0.000106607 -4.14418e-06 -3.27933e-06 4.14839e-06 7.69592e-05 2.12403e-06 -2.08688e-05 4.36302e-06 6.19343e-07 7.83672e-06 -5.1035e-06 -8.10832e-06 -4.48345e-05 0 -5.69774e-05 -1.08179e-06 -1.05933e-05 -3.10029e-06 -2.43947e-05
internal_weight=0 300556 393 231 300163 4151 2386 1765 408920 389669 75208 1832 73376 19251 296012 144549 151463 314461 177849 5337 1111 4226 136612 13914 9724 4190
internal_count=709476 300556 393 231 300163 4151 2386 1765 408920 389669 75208 1832 73376 19251 296012 144549 151463 314461 177849 5337 1111 4226 136612 13914 9724 4190
is_linear=0
shrinkage=0.03


Tree=15
num_leaves=27
num_cat=0
split_feature=95 0 166 111 124 61 112 92 64 157 50 158 155 0 121 6 123 107 149 54 137 6 97 98 153 60
split_gain=0.0460953 0.0307747 0.0164617 0.0180812 0.0134609 0.0101659 0.0157183 0.0131703 0.00944517 0.00628425 0.00583577 0.00409949 0.00467636 0.00321271 0.00647036 0.0183353 0.00488342 0.00490816 0.00317234 0.0029714 0.00245517 0.00175389 0.00150741 0.00147577 0.000331338 8.30873e-05
threshold=-0.049814481288194649 0.0042407475572155641 -0.010547498537056298 -0.00493944645859301 -0.0027686679831657626 0.0044364717323333034 -0.0021065363244115788 -0.001130007359703788 -0.033290686803402622 -0.024649283848702904 -0.0081532647079075888 -0.0053841736828511887 0.016395607031881813 0.0080062106960853714 -0.024960279464721676 0.0019892029643837567 -0.020591020584106442 0.0014273148262873294 -0.010945053771138189 0.00069137727699387485 0.0088967042975127714 0.0033382784924448363 -0.0029788080137223001 -0.00033796976024777964 0.012839791364967825 -0.0064429219603132125
decision_type=6 4 4 6 4 4 6 6 6 6 4 6 4 4 4 6 4 4 6 6 4 6 6 6 6 6
left_child=1 5 3 -3 8 6 23 -8 9 20 -4 12 -10 14 15 -6 17 -15 -16 -11 -2 -18 -13 -1 -12 -7
right_child=4 2 10 -5 13 25 7 -9 11 19 24 22 -14 16 18 -17 21 -19 -20 -21 -22 -23 -24 -25 -26 -27
leaf_value=-4.9283777109601274e-05 6.6696616702988318e-05 -0.00025171835942320144 0 0.00024022843302095898 8.6558370570225426e-07 0 2.658499479129323e-05 0.00039685488416669345 -2.8935874021945139e-06 3.9544532779982519e-06 -0.00024029243437347374 1.042812307621321e-05 -3.2598332351933343e-05 -0.00011075279546416963 1.7820276252165427e-06 0.00013880580059854897 0 0 -4.5600601651496733e-06 1.5538768251867205e-05 2.1170178899558466e-05 -1.6775769078524103e-05 1.5706601273863058e-06 8.1001075178913217e-05 0 5.2305566091601527e-05
leaf_weight=64 2669 57 94 313 5269 82 205 653 36213 41973 253 23825 5818 939 85680 1095 9779 740 342644 47130 4269 13368 85933 176 70 367
leaf_count=64 2669 57 94 313 5269 82 205 653 36213 41973 253 23825 5818 939 85680 1095 9779 740 342644 47130 4269 13368 85933 176 70 367
internal_value=0 0.000133118 -1.49138e-06 0.000123174 -3.62493e-07 0.000211195 0.000265099 0.000326097 5.24895e-06 1.26186e-05 -0.000147965 4.87064e-07 -7.36358e-06 -3.42157e-06 -2.77891e-06 2.69922e-05 -1.40688e-05 -6.51047e-05 -3.2564e-06 1.02504e-05 4.08594e-05 -9.71354e-06 3.63015e-06 0 -0.000210681 4.55262e-05
internal_weight=0 2334 787 370 707344 1547 1098 858 247830 96041 417 151789 42031 459514 434688 6364 24826 1679 428324 89103 6938 23147 109758 240 323 449
internal_count=709678 2334 787 370 707344 1547 1098 858 247830 96041 417 151789 42031 459514 434688 6364 24826 1679 428324 89103 6938 23147 109758 240 323 449
is_linear=0
shrinkage=0.03


Tree=16
num_leaves=27
num_cat=0
split_feature=124 56 64 94 37 30 127 155 26 119 154 125 90 166 94 158 6 155 95 13 77 15 14 62 44 165
split_gain=0.0157628 0.0136114 0.00726891 0.0104955 0.014946 0.00691889 0.00891475 0.0160596 0.0154849 0.0141944 0.0183433 0.00698777 0.00972213 0.0231986 0.00544302 0.00471872 0.0041108 0.0037647 0.00281904 0.0026542 0.00250605 0.00181439 0.00681761 0.00142461 0.00120178 0.000313354
threshold=-0.0041267266080917938 -0.068238109462975108 -0.014968516747629355 -0.039246388496777355 -0.005447026574984192 -0.013736045129616093 0.02098421007394791 0.045830897986888892 0.018145072610547101 -0.042064756155014031 0.013480960004226909 0.0066775807645171889 -0.0023206726321080128 -0.012939115965314199 0.00079214930159773888 -0.00070515976729000694 0.010448947022433713 0.029350247234106067 -0.0063341329805552951 0.0081202015280723589 -0.052796661853790276 -0.028797253035008904 -0.053901750812031086 0.017537645657333362 -0.0018037047088134601 0.056358397006988532
decision_type=6 6 6 4 6 6 4 4 4 6 4 4 6 4 6 6 6 6 6 4 6 6 6 6 6 6
left_child=1 14 3 4 -3 11 9 24 -9 10 -7 21 13 -13 18 17 -11 -4 -1 -5 -14 22 -2 -17 -8 -23
right_child=5 2 15 19 -6 6 7 8 -10 16 -12 12 20 -15 -16 23 -18 -19 -20 -21 -22 25 -24 -25 -26 -27
leaf_value=0.00021547562374525791 0.00013416030871749997 0.00038124316831908797 -1.9454289272156686e-06 9.0380023122357611e-06 0 0 1.9056546023956882e-05 0 0.00015199332593941536 -2.1384727217798975e-06 -0.00028624067630153208 -0.00026706465839387232 -3.6051516189445074e-05 -3.9586028355421821e-05 0 1.033168329302368e-05 -2.4260991986723513e-05 -2.9356836505173592e-05 0 2.212187851534056e-05 2.2194170404284101e-06 -1.4965775567169084e-05 0 -4.5572127475172789e-07 0 0
leaf_weight=455 394 168 45503 65637 124 438 3874 842 1492 481369 363 544 2310 2591 131 41094 7837 5247 71 21362 2761 4120 2133 11524 7228 94
leaf_count=455 394 168 45503 65637 124 438 3874 842 1492 481369 363 544 2310 2591 131 41094 7837 5247 71 21362 2761 4120 2133 11524 7228 94
internal_value=0 7.37206e-06 6.81893e-06 1.32128e-05 0.00019568 -2.70352e-06 -2.07349e-06 2.19089e-05 9.38566e-05 -2.76179e-06 -0.000129164 -2.29176e-05 -4.15062e-05 -8.39859e-05 0.000144618 1.27423e-06 -2.52363e-06 -5.07607e-06 0.000188099 1.24235e-05 -1.22647e-05 0 1.98028e-05 7.68412e-06 5.41813e-06 -1.23324e-05
internal_weight=0 191316 190659 87291 292 518390 503443 13436 2334 490007 801 14947 8206 3135 657 103368 489206 50750 526 86999 5071 6741 2527 52618 11102 4214
internal_count=709706 191316 190659 87291 292 518390 503443 13436 2334 490007 801 14947 8206 3135 657 103368 489206 50750 526 86999 5071 6741 2527 52618 11102 4214
is_linear=0
shrinkage=0.03


end of trees

feature_importances:
log_close/mean_60-mean_close/mean_60_id4=27
log_close/mean_300-mean_close/mean_300_id4=20
log_close/mean_900_id10=19
log_close/mean_900-mean_close/mean_900_id10=16
log_close/mean_300_id4=13
log_return_60-mean_log_returns_60_id4=12
log_close/mean_300_id10=11
log_close/mean_300-mean_close/mean_300_id10=11
log_return_900-mean_log_returns_900_id4=11
log_return_60_id10=10
log_return_900-mean_log_returns_900_id10=9
log_close/mean_60_id2=8
log_return_300-mean_log_returns_300_id4=8
log_return_300-mean_log_returns_300_id10=8
log_return_900-mean_log_returns_900_id1=8
log_close/mean_900_id4=7
mean_close/mean_60=7
log_close/mean_60_id1=6
log_close/mean_60-mean_close/mean_60_id6=6
log_return_60-mean_log_returns_60_id10=6
log_close/mean_300_id1=5
log_close/mean_60_id4=5
log_return_300_id4=5
log_close/mean_60_id9=5
log_close/mean_60_id10=5
log_close/mean_60-mean_close/mean_60_id2=5
log_return_300-mean_log_returns_300_id1=5
log_close/mean_900-mean_close/mean_900_id4=5
log_return_300_id0=4
log_return_900_id4=4
log_close/mean_60_id5=4
log_close/mean_60_id6=4
log_close/mean_60_id8=4
log_return_300_id10=4
log_return_60-mean_log_returns_60_id5=4
log_return_60-mean_log_returns_60_id6=4
log_return_60-mean_log_returns_60_id11=4
log_return_300-mean_log_returns_300_id2=4
log_close/mean_300-mean_close/mean_300_id5=4
log_close/mean_300-mean_close/mean_300_id6=4
log_close/mean_300_id2=3
log_close/mean_300_id9=3
log_return_900_id10=3
log_return_60-mean_log_returns_60_id2=3
log_close/mean_60-mean_close/mean_60_id3=3
log_return_60-mean_log_returns_60_id9=3
log_return_60-mean_log_returns_60_id12=3
mean_close/mean_300=3
log_return_300-mean_log_returns_300_id3=3
log_return_300-mean_log_returns_300_id9=3
log_close/mean_300-mean_close/mean_300_id11=3
log_return_300-mean_log_returns_300_id13=3
log_close/mean_900-mean_close/mean_900_id0=3
log_close/mean_900-mean_close/mean_900_id6=3
log_close/mean_900-mean_close/mean_900_id9=3
log_return_900-mean_log_returns_900_id9=3
log_close/mean_60_id0=2
log_return_60_id0=2
log_close/mean_300_id0=2
log_close/mean_900_id0=2
log_return_60_id1=2
log_return_300_id1=2
log_close/mean_900_id1=2
log_return_60_id2=2
log_return_60_id4=2
log_return_300_id5=2
log_close/mean_900_id5=2
log_return_60_id6=2
log_close/mean_300_id6=2
log_close/mean_60_id7=2
log_close/mean_300_id8=2
log_close/mean_300_id12=2
log_return_900_id12=2
log_close/mean_60_id13=2
log_close/mean_60-mean_close/mean_60_id0=2
log_return_60-mean_log_returns_60_id0=2
log_return_60-mean_log_returns_60_id1=2
log_close/mean_60-mean_close/mean_60_id7=2
log_close/mean_60-mean_close/mean_60_id10=2
log_close/mean_60-mean_close/mean_60_id12=2
log_close/mean_300-mean_close/mean_300_id1=2
log_return_300-mean_log_returns_300_id5=2
log_close/mean_900-mean_close/mean_900_id1=2
log_return_900-mean_log_returns_900_id3=2
log_return_900-mean_log_returns_900_id5=2
log_return_900-mean_log_returns_900_id7=2
log_close/mean_900-mean_close/mean_900_id8=2
log_return_900-mean_log_returns_900_id11=2
log_close/mean_900-mean_close/mean_900_id13=2
log_return_900_id0=1
log_return_300_id2=1
log_return_900_id2=1
log_close/mean_60_id3=1
log_return_300_id3=1
log_close/mean_900_id3=1
log_return_900_id3=1
log_return_60_id5=1
log_return_900_id5=1
log_return_300_id6=1
log_return_60_id7=1
log_close/mean_300_id7=1
log_return_60_id8=1
log_close/mean_900_id8=1
log_return_900_id8=1
log_return_60_id9=1
log_return_300_id9=1
log_return_900_id9=1
log_close/mean_60_id11=1
log_return_60_id11=1
log_close/mean_900_id11=1
log_return_900_id11=1
log_return_300_id12=1
log_close/mean_900_id12=1
log_return_300_id13=1
log_return_900_id13=1
log_close/mean_60-mean_close/mean_60_id1=1
log_return_60-mean_log_returns_60_id3=1
log_close/mean_60-mean_close/mean_60_id5=1
log_return_60-mean_log_returns_60_id7=1
log_close/mean_60-mean_close/mean_60_id11=1
log_close/mean_60-mean_close/mean_60_id13=1
log_close/mean_300-mean_close/mean_300_id2=1
log_close/mean_300-mean_close/mean_300_id3=1
log_return_300-mean_log_returns_300_id6=1
log_close/mean_300-mean_close/mean_300_id8=1
log_return_300-mean_log_returns_300_id11=1
log_return_300-mean_log_returns_300_id12=1
mean_close/mean_900=1
log_return_900-mean_log_returns_900_id0=1
log_return_900-mean_log_returns_900_id2=1
log_close/mean_900-mean_close/mean_900_id5=1
log_close/mean_900-mean_close/mean_900_id11=1
log_close/mean_900-mean_close/mean_900_id12=1
log_return_900-mean_log_returns_900_id13=1

parameters:
[boosting: gbdt]
[objective: regression]
[metric: rmse]
[tree_learner: serial]
[device_type: cpu]
[data: ]
[valid: ]
[num_iterations: 5000]
[learning_rate: 0.03]
[num_leaves: 31]
[num_threads: 0]
[deterministic: 0]
[force_col_wise: 0]
[force_row_wise: 0]
[histogram_pool_size: -1]
[max_depth: 5]
[min_data_in_leaf: 50]
[min_sum_hessian_in_leaf: 0.001]
[bagging_fraction: 0.7]
[pos_bagging_fraction: 1]
[neg_bagging_fraction: 1]
[bagging_freq: 1]
[bagging_seed: 8586]
[feature_fraction: 1]
[feature_fraction_bynode: 1]
[feature_fraction_seed: 8586]
[extra_trees: 1]
[extra_seed: 8586]
[early_stopping_round: 50]
[first_metric_only: 1]
[max_delta_step: 0]
[lambda_l1: 0.5]
[lambda_l2: 2]
[linear_lambda: 0]
[min_gain_to_split: 0]
[drop_rate: 0.1]
[max_drop: 50]
[skip_drop: 0.5]
[xgboost_dart_mode: 0]
[uniform_drop: 0]
[drop_seed: 8586]
[top_rate: 0.2]
[other_rate: 0.1]
[min_data_per_group: 100]
[max_cat_threshold: 32]
[cat_l2: 10]
[cat_smooth: 10]
[max_cat_to_onehot: 4]
[top_k: 20]
[monotone_constraints: ]
[monotone_constraints_method: basic]
[monotone_penalty: 0]
[feature_contri: ]
[forcedsplits_filename: ]
[refit_decay_rate: 0.9]
[cegb_tradeoff: 1]
[cegb_penalty_split: 0]
[cegb_penalty_feature_lazy: ]
[cegb_penalty_feature_coupled: ]
[path_smooth: 0]
[interaction_constraints: ]
[verbosity: -1]
[saved_feature_importance_type: 0]
[linear_tree: 0]
[max_bin: 600]
[max_bin_by_feature: ]
[min_data_in_bin: 3]
[bin_construct_sample_cnt: 200000]
[data_random_seed: 8586]
[is_enable_sparse: 1]
[enable_bundle: 1]
[use_missing: 1]
[zero_as_missing: 1]
[feature_pre_filter: 1]
[pre_partition: 0]
[two_round: 0]
[header: 0]
[label_column: ]
[weight_column: ]
[group_column: ]
[ignore_column: ]
[categorical_feature: ]
[forcedbins_filename: ]
[precise_float_parser: 0]
[objective_seed: 30655]
[num_class: 1]
[is_unbalance: 0]
[scale_pos_weight: 1]
[sigmoid: 1]
[boost_from_average: 1]
[reg_sqrt: 0]
[alpha: 0.9]
[fair_c: 1]
[poisson_max_delta_step: 0.7]
[tweedie_variance_power: 1.5]
[lambdarank_truncation_level: 30]
[lambdarank_norm: 1]
[label_gain: ]
[eval_at: ]
[multi_error_top_k: 1]
[auc_mu_weights: ]
[num_machines: 1]
[local_listen_port: 12400]
[time_out: 120]
[machine_list_filename: ]
[machines: ]
[gpu_platform_id: -1]
[gpu_device_id: -1]
[gpu_use_dp: 0]
[num_gpu: 1]

end of parameters

pandas_categorical:[]
