tree
version=v4
num_class=1
num_tree_per_iteration=1
label_index=0
max_feature_idx=173
objective=regression
feature_names=log_close/mean_60_id0 log_return_60_id0 log_close/mean_300_id0 log_return_300_id0 log_close/mean_900_id0 log_return_900_id0 log_close/mean_60_id1 log_return_60_id1 log_close/mean_300_id1 log_return_300_id1 log_close/mean_900_id1 log_return_900_id1 log_close/mean_60_id2 log_return_60_id2 log_close/mean_300_id2 log_return_300_id2 log_close/mean_900_id2 log_return_900_id2 log_close/mean_60_id3 log_return_60_id3 log_close/mean_300_id3 log_return_300_id3 log_close/mean_900_id3 log_return_900_id3 log_close/mean_60_id4 log_return_60_id4 log_close/mean_300_id4 log_return_300_id4 log_close/mean_900_id4 log_return_900_id4 log_close/mean_60_id5 log_return_60_id5 log_close/mean_300_id5 log_return_300_id5 log_close/mean_900_id5 log_return_900_id5 log_close/mean_60_id6 log_return_60_id6 log_close/mean_300_id6 log_return_300_id6 log_close/mean_900_id6 log_return_900_id6 log_close/mean_60_id7 log_return_60_id7 log_close/mean_300_id7 log_return_300_id7 log_close/mean_900_id7 log_return_900_id7 log_close/mean_60_id8 log_return_60_id8 log_close/mean_300_id8 log_return_300_id8 log_close/mean_900_id8 log_return_900_id8 log_close/mean_60_id9 log_return_60_id9 log_close/mean_300_id9 log_return_300_id9 log_close/mean_900_id9 log_return_900_id9 log_close/mean_60_id10 log_return_60_id10 log_close/mean_300_id10 log_return_300_id10 log_close/mean_900_id10 log_return_900_id10 log_close/mean_60_id11 log_return_60_id11 log_close/mean_300_id11 log_return_300_id11 log_close/mean_900_id11 log_return_900_id11 log_close/mean_60_id12 log_return_60_id12 log_close/mean_300_id12 log_return_300_id12 log_close/mean_900_id12 log_return_900_id12 log_close/mean_60_id13 log_return_60_id13 log_close/mean_300_id13 log_return_300_id13 log_close/mean_900_id13 log_return_900_id13 mean_close/mean_60 mean_log_returns_60 log_close/mean_60-mean_close/mean_60_id0 log_return_60-mean_log_returns_60_id0 log_close/mean_60-mean_close/mean_60_id1 log_return_60-mean_log_returns_60_id1 log_close/mean_60-mean_close/mean_60_id2 log_return_60-mean_log_returns_60_id2 log_close/mean_60-mean_close/mean_60_id3 log_return_60-mean_log_returns_60_id3 log_close/mean_60-mean_close/mean_60_id4 log_return_60-mean_log_returns_60_id4 log_close/mean_60-mean_close/mean_60_id5 log_return_60-mean_log_returns_60_id5 log_close/mean_60-mean_close/mean_60_id6 log_return_60-mean_log_returns_60_id6 log_close/mean_60-mean_close/mean_60_id7 log_return_60-mean_log_returns_60_id7 log_close/mean_60-mean_close/mean_60_id8 log_return_60-mean_log_returns_60_id8 log_close/mean_60-mean_close/mean_60_id9 log_return_60-mean_log_returns_60_id9 log_close/mean_60-mean_close/mean_60_id10 log_return_60-mean_log_returns_60_id10 log_close/mean_60-mean_close/mean_60_id11 log_return_60-mean_log_returns_60_id11 log_close/mean_60-mean_close/mean_60_id12 log_return_60-mean_log_returns_60_id12 log_close/mean_60-mean_close/mean_60_id13 log_return_60-mean_log_returns_60_id13 mean_close/mean_300 mean_log_returns_300 log_close/mean_300-mean_close/mean_300_id0 log_return_300-mean_log_returns_300_id0 log_close/mean_300-mean_close/mean_300_id1 log_return_300-mean_log_returns_300_id1 log_close/mean_300-mean_close/mean_300_id2 log_return_300-mean_log_returns_300_id2 log_close/mean_300-mean_close/mean_300_id3 log_return_300-mean_log_returns_300_id3 log_close/mean_300-mean_close/mean_300_id4 log_return_300-mean_log_returns_300_id4 log_close/mean_300-mean_close/mean_300_id5 log_return_300-mean_log_returns_300_id5 log_close/mean_300-mean_close/mean_300_id6 log_return_300-mean_log_returns_300_id6 log_close/mean_300-mean_close/mean_300_id7 log_return_300-mean_log_returns_300_id7 log_close/mean_300-mean_close/mean_300_id8 log_return_300-mean_log_returns_300_id8 log_close/mean_300-mean_close/mean_300_id9 log_return_300-mean_log_returns_300_id9 log_close/mean_300-mean_close/mean_300_id10 log_return_300-mean_log_returns_300_id10 log_close/mean_300-mean_close/mean_300_id11 log_return_300-mean_log_returns_300_id11 log_close/mean_300-mean_close/mean_300_id12 log_return_300-mean_log_returns_300_id12 log_close/mean_300-mean_close/mean_300_id13 log_return_300-mean_log_returns_300_id13 mean_close/mean_900 mean_log_returns_900 log_close/mean_900-mean_close/mean_900_id0 log_return_900-mean_log_returns_900_id0 log_close/mean_900-mean_close/mean_900_id1 log_return_900-mean_log_returns_900_id1 log_close/mean_900-mean_close/mean_900_id2 log_return_900-mean_log_returns_900_id2 log_close/mean_900-mean_close/mean_900_id3 log_return_900-mean_log_returns_900_id3 log_close/mean_900-mean_close/mean_900_id4 log_return_900-mean_log_returns_900_id4 log_close/mean_900-mean_close/mean_900_id5 log_return_900-mean_log_returns_900_id5 log_close/mean_900-mean_close/mean_900_id6 log_return_900-mean_log_returns_900_id6 log_close/mean_900-mean_close/mean_900_id7 log_return_900-mean_log_returns_900_id7 log_close/mean_900-mean_close/mean_900_id8 log_return_900-mean_log_returns_900_id8 log_close/mean_900-mean_close/mean_900_id9 log_return_900-mean_log_returns_900_id9 log_close/mean_900-mean_close/mean_900_id10 log_return_900-mean_log_returns_900_id10 log_close/mean_900-mean_close/mean_900_id11 log_return_900-mean_log_returns_900_id11 log_close/mean_900-mean_close/mean_900_id12 log_return_900-mean_log_returns_900_id12 log_close/mean_900-mean_close/mean_900_id13 log_return_900-mean_log_returns_900_id13
feature_infos=[-0.24511673243171081:0.20378711353993445] [-0.34597417712211609:0.34767889976501465] [-0.43098862537269339:0.18829856751394944] [-0.55850565433502197:0.35203668475151062] [-0.54669866147208401:0.27833035977215903] [-0.59360933303833008:0.48810857534408569] [-0.18440419620431819:0.19817428468528128] [-0.24752482771873474:0.2869265079498291] [-0.26479761011743219:0.12549886791825518] [-0.3743862509727478:0.27006468176841736] [-0.37828538769771985:0.1835745125076228] [-0.47666323184967041:0.283316969871521] [-0.40485915249203275:0.22279233743364665] [-0.48461812734603882:0.27191737294197083] [-0.54335152268062148:0.20938775239409635] [-0.60255217552185059:0.47480124235153198] [-0.62280371860977313:0.22468153781095673] [-0.72768837213516235:0.31737697124481201] [-0.28659405701707003:0.21077497485404759] [-0.43459683656692505:0.30210313200950623] [-0.45409473280620699:0.18762646899070196] [-0.52008485794067383:0.51722538471221924] [-0.53500030108412666:0.23260452653752045] [-0.65235692262649536:0.37581735849380493] [-0.29788020849337338:0.39608527180641073] [-0.51328808069229126:0.6219058632850647] [-0.45424771612047288:0.68870427789948152] [-0.71376359462738037:1.1457085609436035] [-0.53680005839719513:1.0879977150523312] [-0.73162400722503662:1.9617093801498413] [-0.32746202578078493:0.14708278139754588] [-0.48678091168403625:0.24602207541465759] [-0.51538002705542318:0.2257722664471277] [-0.5881616473197937:0.39796796441078186] [-0.60003017273166115:0.33336332370018046] [-0.72292792797088623:0.45632600784301758] [-0.24389349407260733:0.17486920302328188] [-0.35474357008934021:0.31051680445671082] [-0.37228265214697848:0.19522785252789501] [-0.4304315447807312:0.3185977041721344] [-0.45449898970153119:0.16733128024580546] [-0.56680446863174438:0.33074262738227844] [-0.34699808040053282:0.20274746466989474] [-0.52016961574554443:0.32522845268249512] [-0.55159566020810857:0.3295239769230624] [-0.63466006517410278:0.45904397964477539] [-0.65235717890905121:0.40465835581078985] [-0.78173065185546875:0.52942407131195068] [-0.3690893852942766:0.1896513629784673] [-0.53895717859268188:0.31055548787117004] [-0.58945305156520811:0.20866667972769967] [-0.68477094173431396:0.48176592588424683] [-0.68886144346792788:0.3110934271000706] [-0.79063069820404053:0.4925818145275116] [-0.34235680024812065:0.24475484072434528] [-0.49499672651290894:0.29128947854042053] [-0.52090096345642201:0.28432335592656482] [-0.59514552354812622:0.31173381209373474] [-0.59274604299085776:0.27445341311318427] [-0.68302124738693237:0.35399347543716431] [-0.27148819282418363:0.32922023317913018] [-0.35745590925216675:0.38075369596481323] [-0.42341885440248345:0.278991243384764] [-0.5488935112953186:0.42322754859924316] [-0.46971618695922274:0.35364269737924292] [-0.79778569936752319:0.63517379760742188] [-0.34873840466728834:0.22047797240614242] [-0.46586686372756958:0.27632921934127808] [-0.4992850342993892:0.1297469162884051] [-0.56931257247924805:0.39843788743019104] [-0.59670109330074972:0.15037434657394019] [-0.71412950754165649:0.3335559070110321] [-0.38516388047447625:0.20320976238462291] [-0.48947003483772278:0.27603563666343689] [-0.52930561965450662:0.24283291032994361] [-0.59953105449676514:0.47569715976715088] [-0.60554809288265699:0.39659321951408183] [-0.70434421300888062:0.58025270700454712] [-0.25177656920959435:0.21720745280700043] [-0.32834291458129883:0.25580412149429321] [-0.36617822684563806:0.1894684561767179] [-0.42657539248466492:0.27984878420829773] [-0.44490161223686059:0.22978399986650394] [-0.55020785331726074:0.34831506013870239] [-0.28634274047900338:0.17185190947375478] [-0.42554935812950134:0.24872578680515289] [-0.10776510396216971:0.092182735707924623] [-0.15347625315189362:0.12960860133171082] [-0.07426717130533185:0.14990636326600434] [-0.068946138024330139:0.18875303864479065] [-0.11959056063792417:0.10825768053487067] [-0.12998214364051819:0.14400565624237061] [-0.1081450885844108:0.12228379266769139] [-0.11243053525686264:0.15502215921878815] [-0.23777473809937694:0.37312683696605936] [-0.48016372323036194:0.58654731512069702] [-0.14634213926280465:0.12418961875966222] [-0.15812669694423676:0.20433181524276733] [-0.065423605636918097:0.093964391988853257] [-0.061523925513029099:0.11007308959960938] [-0.14386724603614157:0.1704286702777808] [-0.17338325083255768:0.27161663770675659] [-0.13204314063936906:0.094661623330311029] [-0.16710007190704346:0.13160213828086853] [-0.12642783341206359:0.1966683004691876] [-0.15069599449634552:0.23478028178215027] [-0.2460458673841677:0.24689273870104822] [-0.31419992446899414:0.38554230332374573] [-0.11412081083933306:0.058861428360618709] [-0.11476737260818481:0.081835292279720306] [-0.099895288620367673:0.18111160544988625] [-0.14567753672599792:0.24500231444835663] [-0.098520505935027397:0.11002559436291902] [-0.11783445626497269:0.18699178099632263] [-0.45483033265431294:0.12450142790622769] [-0.52287179231643677:0.38407611846923828] [-0.1635052004566861:0.17267344694374218] [-0.18727725744247437:0.26754137873649597] [-0.053860556936865339:0.22677433009447506] [-0.18705540895462036:0.26069831848144531] [-0.13806319211378443:0.153188003702945] [-0.17258310317993164:0.19959735870361328] [-0.11343879522162412:0.16209597891486191] [-0.12938402593135834:0.19374822080135345] [-0.42093317649252526:0.64549329354706442] [-0.69022631645202637:1.0618364810943604] [-0.15848654376431012:0.18932968695665142] [-0.16516977548599243:0.34999346733093262] [-0.053972747210560772:0.12353806328517172] [-0.097938470542430878:0.13464261591434479] [-0.16170315315209693:0.26980079990710187] [-0.20908141136169434:0.33848506212234497] [-0.18796400215220177:0.18931010830462236] [-0.23355747759342194:0.29852986335754395] [-0.12778016804094985:0.2245348465840043] [-0.20750522613525391:0.23056440055370331] [-0.2887122682018054:0.24333358094995958] [-0.37178182601928711:0.33573290705680847] [-0.12051922181301217:0.092475227828088369] [-0.22238610684871674:0.14725467562675476] [-0.12401728908766957:0.21099198960262755] [-0.20537437498569489:0.33067157864570618] [-0.13249717410973777:0.16893686279558806] [-0.18136873841285706:0.22714671492576599] [-0.53685635061051196:0.15340137402577628] [-0.64534235000610352:0.32655730843544006] [-0.17670335177287327:0.25961211485398877] [-0.22189198434352875:0.44259506464004517] [-0.089330492949555182:0.27062561931184537] [-0.16498772799968719:0.31468191742897034] [-0.14446532715597188:0.19094250321681402] [-0.15795624256134033:0.23222003877162933] [-0.12695969306257149:0.17941808584946783] [-0.18200747668743134:0.23663733899593353] [-0.40858958753390368:1.0009786513395773] [-0.62840670347213745:1.7957041263580322] [-0.16248369557885309:0.27732179579617305] [-0.17946580052375793:0.37661904096603394] [-0.098628157912914308:0.12163004992282944] [-0.17502368986606598:0.15663351118564606] [-0.17414044431382278:0.35574266846626967] [-0.21810883283615112:0.46053284406661987] [-0.2203443506154904:0.27525349525616533] [-0.23195625841617584:0.42261794209480286] [-0.12572493986275746:0.22927608217736589] [-0.19940671324729919:0.23497390747070312] [-0.27110847975264291:0.29415193362013015] [-0.54940712451934814:0.42274731397628784] [-0.16768597054172898:0.14278713029843912] [-0.22527629137039185:0.21541911363601685] [-0.12720970142885574:0.32457331341219214] [-0.20008373260498047:0.48625451326370239] [-0.16863422774700948:0.25172709264574977] [-0.25326845049858093:0.33373892307281494]
tree_sizes=2909 2770 2605 2997 2801 2816 2994 2968 2803 2990 3217 3052 3179 2832 2764 3135 2875 3073 2819 2672 3053 3146 3275 3088 2431 2550 2856 3234 3023 3009 2984 3106 2982 3112 3292 3223 3183 3184 3151 2916 3155 3054 2335 2945 3148 2686 2584 3180 3029 3015 2828 3084 3226 2499 3134 3006 3173

Tree=0
num_leaves=27
num_cat=0
split_feature=112 56 84 88 23 80 16 61 142 89 88 30 113 39 154 78 67 101 83 113 153 153 97 71 63 84
split_gain=0.0126649 0.0170359 0.0048196 0.00469405 0.00327886 0.0032008 0.00419106 0.00317521 0.00276235 0.00144317 0.00141648 0.00129181 0.00124984 0.00161197 0.00109384 0.000918169 0.000847379 0.000755551 0.000690179 0.000636719 0.000586908 0.000471677 0.00046062 0.000178111 0.000149397 5.84661e-05
threshold=-0.0013769495805934821 -0.064406457305127271 -0.0067005240953571217 0.00052081847770145124 -0.025891497731208798 -0.033982521167850041 0.0059048537526564587 -0.0096022780053317529 0.0015674648367333289 -0.006616664817556738 0.00051349074158862321 0.0034094628894736335 0.0018208096735179426 0.063824567943811431 0.0049428593156636211 -0.0033846995550855974 0.0085024149157106894 -0.004195314832031726 -0.029508567415177819 0.0016193937044590714 -5.9212557971477502e-05 -0.0089225936681032163 0.010495140217244627 0.031705651432275779 0.012190243229269983 -1.0000000180025095e-35
decision_type=6 6 6 6 6 6 6 4 6 6 6 6 6 6 6 6 6 6 4 6 6 6 6 4 6 4
left_child=5 3 12 22 7 6 17 -5 9 11 18 -7 24 -14 -8 -11 -12 23 -4 -19 21 -10 -2 -1 -3 -22
right_child=1 2 10 4 -6 8 14 -9 20 15 16 -13 13 -15 -16 -17 -18 19 -20 -21 25 -23 -24 -25 -26 -27
leaf_value=1.7076122563759106e-05 -2.8618734213434895e-05 -1.8386800652265685e-06 1.1284247511642344e-07 -0.00014532610596870352 3.4217986090127846e-06 5.8170614029753747e-06 -5.2721737351804504e-05 3.4217986090127846e-06 -6.8075577984118319e-06 5.4730464068713266e-06 9.9219484952093019e-07 2.3795900540250831e-05 -1.3617265257987937e-05 3.8488820757326742e-05 3.4217986090127846e-06 1.0221018099816878e-05 -5.703763016539344e-06 4.3698458645686792e-05 3.709426205035625e-06 3.4217986090127846e-06 6.5924540949247166e-06 3.4217986090127846e-06 2.3524814705855198e-05 3.4217986090127846e-06 3.4217986090127846e-06 3.4217986090127846e-06
leaf_weight=3200 316 15738 54679 1180 93 7948 587 261 11811 66821 204149 12622 26461 360 349 125118 21041 5483 370978 290 5959 6344 216 255 2155 7824
leaf_count=3200 316 15738 54679 1180 93 7948 587 261 11811 66821 204149 12622 26461 360 349 125118 21041 5483 370978 290 5959 6344 216 255 2155 7824
internal_value=3.4218e-06 1.26956e-06 1.54722e-06 -8.48661e-05 -0.000111665 9.08604e-06 2.59984e-05 -0.000123636 8.3213e-06 9.58164e-06 2.22756e-06 1.75791e-05 -8.01965e-06 -1.23561e-05 -2.70703e-05 8.64626e-06 2.99862e-07 3.30117e-05 3.28264e-06 4.13891e-05 4.04995e-07 -3.26393e-06 3.4218e-06 1.46609e-05 -6.80209e-07 4.14984e-06
internal_weight=0 697627 695561 2066 1534 254611 10164 1441 244447 212509 650847 20570 44714 26821 936 191939 225190 9228 425657 5773 31938 18155 532 3455 17893 13783
internal_count=952238 697627 695561 2066 1534 254611 10164 1441 244447 212509 650847 20570 44714 26821 936 191939 225190 9228 425657 5773 31938 18155 532 3455 17893 13783
is_linear=0
shrinkage=1


Tree=1
num_leaves=27
num_cat=0
split_feature=142 12 112 115 0 84 64 29 80 166 112 148 88 169 80 17 120 66 97 8 113 161 88 112 113 48
split_gain=0.00885104 0.0100756 0.00516255 0.00438295 0.00789724 0.00424106 0.00225264 0.00538378 0.00181333 0.00147821 0.00115249 0.0010523 0.00104722 0.00098863 0.000962866 0.000813733 0.000750903 0.000737474 0.000566531 0.000526147 0.000502007 0.000490658 0.000362246 0.000355536 0.000338274 0.000264181
threshold=-0.00366241954231425 -0.015269018949542993 -0.00042387192757153443 0.0048309278208762416 -0.03807708574187995 0.010528636653114183 0.0083655133170976326 0.31086383759975439 0.016900547647417326 -0.028761918613379369 -0.0015122848454774938 0.0015653536355477865 0.0021351176452952857 -0.0051256376318633548 0.011057260088664264 0.046652285382151611 0.0068141500714242005 -0.0049618473052690194 0.0026438882341608409 -0.0039018397244577475 0.0047600350808352241 0.015424833633005621 0.0048678479161507133 -0.00069968222336004224 0.00056503474479541193 -0.0034947637131352515
decision_type=4 6 6 6 6 6 4 6 6 6 6 6 6 6 6 6 6 6 6 6 6 6 6 6 4 6
left_child=5 3 12 4 11 9 7 -4 -8 18 16 -2 14 17 -3 20 -11 -5 21 -6 25 -1 -14 -20 -12 -7
right_child=1 2 6 13 19 15 8 -9 -10 10 24 -13 22 -15 -16 -17 -18 -19 23 -21 -22 -23 -24 -25 -26 -27
leaf_value=7.3308240935565e-06 0 3.8143543268736675e-06 -8.4650442300413651e-07 0 -2.8449892807111324e-05 0 -3.8120832376439724e-06 9.1562236081011526e-05 -1.2009228460675775e-05 5.9369691864596152e-06 3.1493765878595749e-07 -0.00014257976918157904 -2.7178557817548095e-07 0 -2.0667573725649881e-06 4.4232027907144849e-05 -2.436641588967228e-06 9.3426577112001467e-05 1.6961216963932269e-05 0 0 0 -9.385851214084132e-06 2.9847814620801362e-06 -4.6967877948383221e-06 1.9415696488552738e-05
leaf_weight=43565 128 195128 207572 541 8646 113 244933 565 29584 64657 40962 747 21591 590 25253 2481 8561 206 11566 639 261 11505 6272 5305 15117 7141
leaf_count=43565 128 195128 207572 541 8646 113 244933 565 29584 64657 40962 747 21591 590 25253 2481 8561 206 11566 639 261 11505 6272 5305 15117 7141
internal_value=0 -1.59596e-06 -1.13623e-06 -2.95123e-05 -3.67146e-05 5.3634e-06 -2.95824e-06 -5.22711e-07 -4.75019e-06 4.32521e-06 2.24212e-06 -0.000127601 2.34583e-06 1.39892e-05 3.07237e-06 2.47587e-05 4.75298e-06 3.92147e-05 7.86041e-06 -2.65088e-05 1.63242e-05 5.87329e-06 -2.86221e-06 1.34563e-05 -7.68703e-07 1.83938e-05
internal_weight=0 742395 730898 11497 10160 211234 482654 208137 274517 201238 129297 875 248244 1337 220381 9996 73218 747 71941 9285 7515 55070 27863 16871 56079 7254
internal_count=953629 742395 730898 11497 10160 211234 482654 208137 274517 201238 129297 875 248244 1337 220381 9996 73218 747 71941 9285 7515 55070 27863 16871 56079 7254
is_linear=0
shrinkage=0.03


Tree=2
num_leaves=25
num_cat=0
split_feature=112 72 172 142 89 78 24 166 97 80 172 30 71 25 93 96 30 166 118 64 89 104 153 31
split_gain=0.014423 0.0205233 0.00455847 0.00273392 0.00335563 0.00255494 0.00200706 0.00337828 0.00136974 0.00113772 0.000907365 0.0021273 0.000797053 0.00140384 0.000724907 0.000693089 0.00052891 0.000516033 0.000372991 0.000304555 0.000226025 0.000152547 9.72039e-05 9.02231e-07
threshold=-0.00018296782196983855 -0.042099901144589093 0.0043216845887804499 0.0018876045190619212 -0.017399323172867295 -0.0030289752355519141 0.0028025227028535991 -0.015644283805779095 0.001991821802221239 0.014362171450701454 -0.0024438721092605582 -0.010419747739217498 0.095324564725160613 0.00050621334230527293 -0.0057270671240985385 -0.0040820398306528971 0.0048542773232477651 -0.0011117408726711616 0.0051003476697148364 -0.01214658924111865 0.0020161210559308533 -0.00048605556619278455 -0.014624761883169411 -0.0010844088392332194
decision_type=6 6 6 6 4 6 6 4 6 6 4 6 4 6 6 6 4 6 6 6 6 6 6 6
left_child=3 2 -2 4 15 10 7 -7 16 20 18 -12 13 -11 -8 23 -6 -10 -3 -17 22 -22 -5 -1
right_child=1 5 -4 9 8 6 14 -9 17 12 11 -13 -14 -15 -16 19 -18 -19 -20 -21 21 -23 -24 -25
leaf_value=0 -3.3453139055605341e-06 0 -0.00020021802396126057 0 2.9624729332192464e-06 9.0057700062577632e-06 -1.427326397894286e-05 -2.18692458651943e-06 9.4973951783854788e-06 0 -2.1399547883909891e-05 -6.268238671754269e-06 1.6244950139594039e-05 -1.8794613796718675e-05 -5.1260486985462041e-06 8.6422881409566017e-06 7.6833173914778027e-06 3.2547839689248825e-06 -8.3732359121707978e-06 7.6071660429592481e-05 -7.2922184034999622e-06 0 2.5628440483472763e-06 1.1481265502138799e-06
leaf_weight=195 332 13878 586 6350 275769 25872 11888 322199 63948 4725 14211 31758 558 8734 69334 723 28680 24949 6729 837 4752 8043 26703 614
leaf_count=195 332 13878 586 6350 275769 25872 11888 322199 63948 4725 14211 31758 558 8734 69334 723 28680 24949 6729 837 4752 8043 26703 614
internal_value=0 -3.54639e-06 -0.000145484 3.84424e-06 4.75954e-06 -3.25278e-06 -2.35675e-06 -1.31183e-06 4.50213e-06 -1.95545e-06 -8.80496e-06 -1.1273e-05 -9.45351e-06 -1.16355e-05 -6.64987e-06 4.11326e-05 3.45651e-06 7.91425e-06 -2.571e-06 5.44749e-05 1.00798e-08 -3.00436e-06 1.63089e-06 0
internal_weight=0 496787 918 455580 395715 495869 429293 348071 393346 59865 66576 45969 14017 13459 81222 2369 304449 88897 20607 1560 45848 12795 33053 809
internal_count=952367 496787 918 455580 395715 495869 429293 348071 393346 59865 66576 45969 14017 13459 81222 2369 304449 88897 20607 1560 45848 12795 33053 809
is_linear=0
shrinkage=0.03


Tree=3
num_leaves=29
num_cat=0
split_feature=142 32 18 84 112 54 64 83 28 118 101 140 64 86 136 118 142 129 78 136 96 172 113 39 119 104 18 128
split_gain=0.0105343 0.0123946 0.00468728 0.0041997 0.00461594 0.00280218 0.00236255 0.00168149 0.0016343 0.00152887 0.00168428 0.00146561 0.00133662 0.00126043 0.000852451 0.00112811 0.000843393 0.00122638 0.000788311 0.000752975 0.000669804 0.000552719 0.000460907 0.000391514 0.000342568 0.000309363 0.000259045 0.000255151
threshold=-0.00023644502657005093 -0.048783923728389016 -0.023778421784310239 0.008571404788935099 -0.001296333703111145 -0.0073002276117585538 0.025273898340286167 0.099791143089532866 -0.013160955214632898 -0.0098186789939021264 0.0053236298263072976 -0.0033674855238869992 -0.02309006527749715 0.0078420759481755507 -0.0033858991948739177 0.019044919703411396 0.020483982111162684 -0.0081150173209607584 0.010843266511513698 -0.0038747183993960706 0.00119350243543185 -0.0013122668190845128 0.0056929986458271751 0.023993371054530147 -0.0058504748158156863 0.00024696427585424241 0.0011697644798783883 -0.0011152671558064247
decision_type=4 6 6 4 4 6 4 6 6 6 4 6 6 4 6 6 6 6 6 4 6 6 6 6 6 6 6 6
left_child=3 2 13 4 12 8 7 -7 11 10 21 -3 19 -2 20 -16 25 -18 -8 -1 -6 -5 27 -14 -12 -4 -10 -11
right_child=1 5 16 9 14 6 18 -9 26 22 24 -13 23 -15 15 -17 17 -19 -20 -21 -22 -23 -24 -25 -26 -27 -28 -29
leaf_value=0 -5.7294520223087885e-05 -3.0011670918903267e-05 -2.2981459180749328e-05 1.7632357354777974e-05 2.0051818354325284e-07 -3.9750326602531574e-07 -3.8541095804878043e-06 1.3665806463847531e-05 -4.3343337738331371e-06 1.8029093245848928e-05 5.6173369117254461e-05 -9.4192303757712677e-06 4.3592369753060657e-06 -0.00016965568275694164 -1.4933223426901431e-06 -3.1356795839771209e-05 0 -0.00017688252940388337 -1.3385092406020108e-05 9.9469573871267224e-06 5.0655829859938371e-06 0 -3.1433119282937071e-06 0 0 0 1.0065166791797522e-05 5.9063014484710281e-06
leaf_weight=9845 1109 6291 1512 2861 113534 229815 178889 7907 17055 5898 2177 13310 88920 437 119827 1211 54 94 9763 76315 35885 542 524 17593 280 1303 659 10373
leaf_count=9845 1109 6291 1512 2861 113534 229815 178889 7907 17055 5898 2177 13310 88920 437 119827 1211 54 94 9763 76315 35885 542 524 17593 280 1303 659 10373
internal_value=0 -3.1681e-06 -5.28334e-05 3.1376e-06 2.48215e-06 -2.65257e-06 -1.91953e-06 7.27674e-09 -1.0626e-05 1.58733e-05 3.04751e-05 -1.6796e-05 6.03082e-06 -9.89232e-05 0 -1.91655e-06 -2.36756e-05 -0.000112542 -4.427e-06 8.93149e-06 1.46937e-06 1.07386e-05 9.88249e-06 3.54346e-06 5.16794e-05 -1.3602e-05 -2.95087e-06 1.12241e-05
internal_weight=0 468198 4509 485785 463130 463689 426374 237722 37315 22655 5860 19601 192673 1546 270457 121038 2963 148 188652 86160 149419 3403 16795 106513 2457 2815 17714 16271
internal_count=953983 468198 4509 485785 463130 463689 426374 237722 37315 22655 5860 19601 192673 1546 270457 121038 2963 148 188652 86160 149419 3403 16795 106513 2457 2815 17714 16271
is_linear=0
shrinkage=0.03


Tree=4
num_leaves=27
num_cat=0
split_feature=112 48 82 54 173 36 2 142 24 96 30 124 62 153 78 61 42 89 142 136 21 88 12 61 136 62
split_gain=0.0105396 0.00781054 0.0034844 0.00314885 0.00513708 0.00265606 0.00253897 0.00170989 0.00139999 0.00231869 0.0012148 0.00154443 0.00142917 0.00117681 0.00157005 0.00186586 0.00110348 0.00108761 0.00136634 0.0010458 0.000909063 0.000597378 0.000538766 0.000525523 9.34793e-05 1.65372e-06
threshold=-0.0012170539102326339 -0.023429135488228184 0.076552865333229539 -0.0059492441754784324 0.042700022459030158 -0.0035754329818655103 -0.062916073173920992 -0.0031984403774185477 0.0022166480474664009 0.0047322297868766317 0.0051715576047345162 0.0023961954155403901 -0.0091540718325368881 0.0033586621284484868 -0.0028643670082837765 0.012221568729728462 -0.0091276863888987217 0.0036439218092709784 0.012694380213300709 -0.020991211363139195 -0.0012865590979345141 0.0032328559422089924 -0.0088144149799758344 -0.016219309531152245 -0.0061659886377630436 -0.023245981675522814
decision_type=4 4 6 6 6 6 6 6 6 6 6 4 6 6 6 6 6 6 6 4 6 4 4 6 4 6
left_child=2 3 7 4 20 16 -6 10 9 -7 12 -12 -1 14 15 -4 21 18 -9 -10 -2 -3 -19 -18 -5 -26
right_child=1 5 13 24 6 8 -8 17 19 -11 11 -13 -14 -15 -16 -17 23 22 -20 -21 -22 -23 -24 -25 25 -27
leaf_value=9.63600838615914e-06 -3.9752416489334037e-05 -5.8421556073241986e-06 -8.7028101038332182e-05 1.9901851332659409e-05 -0.00035195676181056694 -3.4055827733462754e-07 -1.0713944557210199e-05 4.5090998270906267e-06 -2.0562103793660574e-05 1.2750111033481312e-05 7.754973738793667e-06 2.4828173403307399e-05 2.5283682564149503e-06 0 0 0 -7.0794266868457827e-06 -1.6344624423391253e-05 -1.3330392460173041e-05 -2.863372901393882e-06 0 -1.669320752468591e-05 -5.8276555254834439e-07 -1.3605216459887695e-06 0 -1.0994588836403417e-06
leaf_weight=54177 4316 16317 839 210 92 409620 172 107462 3404 12543 19969 8852 62243 746 459 127 29564 2747 3616 139112 725 13436 16093 45211 101 1363
leaf_count=54177 4316 16317 839 210 92 409620 172 107462 3404 12543 19969 8852 62243 746 459 127 29564 2747 3616 139112 725 13436 16093 45211 101 1363
internal_value=0 -2.01667e-06 4.92821e-06 -3.36975e-05 -4.503e-05 -1.66376e-06 -0.000187775 5.27392e-06 -8.1979e-07 1.29096e-08 7.56767e-06 1.35206e-05 5.96492e-06 -3.19499e-05 -4.79234e-05 -6.96091e-05 -6.07945e-06 2.5941e-06 3.79309e-06 -3.39164e-06 -3.45085e-05 -1.12472e-05 -3.67854e-06 -3.82235e-06 0 -3.32087e-07
internal_weight=0 676186 277330 6979 5305 669207 264 275159 564679 422163 145241 28821 116420 2171 1425 966 104528 129918 111078 142516 5041 29753 18840 74775 1674 1464
internal_count=953516 676186 277330 6979 5305 669207 264 275159 564679 422163 145241 28821 116420 2171 1425 966 104528 129918 111078 142516 5041 29753 18840 74775 1674 1464
is_linear=0
shrinkage=0.03


Tree=5
num_leaves=27
num_cat=0
split_feature=142 79 148 20 113 84 12 120 64 82 4 54 127 112 72 64 123 82 14 72 77 142 137 112 107 167
split_gain=0.00848366 0.00883057 0.00977638 0.00327538 0.0030133 0.00313652 0.00213509 0.00246276 0.0019042 0.00248442 0.00146025 0.00144475 0.00104591 0.00180767 0.00090584 0.000821881 0.00060711 0.000570923 0.000542745 0.000478769 0.000345312 0.000331998 0.000320708 0.000513874 0.000305929 0.000115472
threshold=0.00011655017331430041 -0.04385144263505935 0.013063378928815712 -0.022744606308262496 0.0008499383693560959 0.0092995931482763826 -0.0017505252064663214 -0.0060327513197170448 -0.0054609748818255704 0.0034484494709188609 0.021699319556043782 0.0014008820686837525 -0.00078520714305341233 0.0025613525371726564 -0.004482226008537332 -0.0019786193667605946 0.0028265960281714801 -0.011828720706356472 -0.0080094016652914931 0.0048867888807197033 -0.0027460275450721379 -0.0009300265624327934 -0.0073000530246645203 -0.0012288791783198461 -0.0041978571098297826 -0.012015305459499357
decision_type=6 4 6 4 4 4 6 6 4 6 6 6 6 4 6 6 6 6 6 4 6 6 4 6 4 4
left_child=4 2 11 14 5 15 7 -4 9 -5 -10 -2 13 18 -3 19 -15 -16 -6 -1 -17 24 25 -24 -7 -14
right_child=1 3 6 8 12 21 -8 -9 10 -11 -12 -13 22 16 17 20 -18 -19 -20 -21 -22 -23 23 -25 -26 -27
leaf_value=3.7046987703586959e-06 0 -1.8466738930395177e-05 -0.00022445294901404144 -1.350512482460042e-06 -9.0836762903457454e-06 2.7327697326382934e-05 0 -5.269535906381956e-05 -2.4051779129689724e-06 8.827941330414103e-06 -8.9565482112365926e-06 0.00015306330463707646 8.8751826407636213e-06 -2.4281754567547802e-05 -9.4011668910627882e-06 -5.877896716872312e-07 -1.7176830671789757e-06 5.8690771392678721e-06 0 8.3691664142186706e-06 2.3076378733499819e-06 0 1.408119589338682e-05 -1.3218907025548692e-06 1.2040872271599533e-05 0
leaf_weight=224179 431 15060 400 76551 8010 4964 75 477 265954 29277 37523 54 5653 5528 5969 46037 3281 2289 34725 29016 106256 1191 2050 31826 10827 5614
leaf_count=224179 431 15060 400 76551 8010 4964 75 477 265954 29277 37523 54 5653 5528 5969 46037 3281 2289 34725 29016 106256 1191 2050 31826 10827 5614
internal_value=0 -2.99065e-06 -7.75646e-05 -2.70792e-06 2.69135e-06 3.79715e-06 -0.000135224 -0.000148431 -2.04169e-06 1.3237e-06 -3.26469e-06 4.90432e-06 -1.98525e-06 -4.96274e-06 -1.37579e-05 3.22209e-06 -1.75823e-05 -3.3521e-06 -2.00978e-06 4.29855e-06 1.33388e-06 1.66432e-05 1.08224e-06 0 1.7799e-05 5.50505e-06
internal_weight=0 434060 1437 432623 519157 422470 952 877 409305 105828 303477 485 96687 51544 23318 405488 8809 8258 42735 253195 152293 16982 45143 33876 15791 11267
internal_count=953217 434060 1437 432623 519157 422470 952 877 409305 105828 303477 485 96687 51544 23318 405488 8809 8258 42735 253195 152293 16982 45143 33876 15791 11267
is_linear=0
shrinkage=0.03


Tree=6
num_leaves=29
num_cat=0
split_feature=113 2 26 87 112 88 89 64 142 136 3 8 79 97 97 110 140 30 24 88 25 163 172 24 96 12 128 118
split_gain=0.00920384 0.0157543 0.00476552 0.00431396 0.00244723 0.0021421 0.00203078 0.00146967 0.00141393 0.00110488 0.00106178 0.000701346 0.00469416 0.000583427 0.0039708 0.000564086 0.000555558 0.000547934 0.0016208 0.00116655 0.000512611 0.000574693 0.000510464 0.000274189 0.000222668 0.000180672 0.000132019 4.92818e-05
threshold=-0.00015130720566958186 -0.05504148596136408 -0.045791663979115417 -4.6331435441970818e-05 -0.00070904859039805227 0.0038968442329789812 -0.0018175341538153587 0.027542792130987186 -0.0022063501348201829 -0.0091126248708085309 0.017761815339326862 0.0093900712399141249 0.010280925314873459 -0.0031131785362958904 -0.012034911662340162 0.0025105613144788216 -0.018790653062856034 0.0021206146579083392 -0.010811221269794393 -0.0018921954005767007 0.020555155351758007 -0.0067652110010385505 0.0059471374815609586 0.0034044091848463931 0.00065869717407581135 -0.00076416043707016733 0.003093091935912676 -0.0009800286421560707
decision_type=4 6 6 4 6 6 6 4 6 6 4 6 4 6 6 6 6 6 6 6 6 4 6 6 6 6 6 6
left_child=4 3 11 6 8 7 27 -4 9 16 -7 12 -3 14 -5 -11 -1 24 19 -19 21 -10 -22 -20 25 -6 -26 -2
right_child=1 2 5 13 17 10 -8 -9 20 15 -12 -13 -14 -15 -16 -17 -18 18 23 -21 22 -23 -24 -25 26 -27 -28 -29
leaf_value=3.0605689881477963e-05 2.8722449406202817e-05 -1.8749169176305353e-05 -5.377219272713662e-08 -0.00027790599983565438 -3.2454635657473786e-06 -1.3811202001244938e-05 -5.2827078756164263e-05 -3.5901434068975875e-06 -4.8425622343700796e-08 2.7454264044608305e-06 0 0 -0.00011563392980233564 -5.3680619960547764e-05 0 8.9423760416428793e-06 8.3509528980619801e-06 0.00010331526257237634 3.8125812049021762e-06 0 0 3.9800549171837681e-06 -1.9755585933253722e-05 -6.9331094756354478e-07 2.3720412851027392e-06 -2.1123649590906868e-07 -1.6884325164996038e-06 0
leaf_weight=1578 59 4884 247911 245 45154 20288 1754 196734 45250 93392 4027 285 617 409 104 19686 77448 255 24699 499 3653 70409 1778 14940 22109 48480 6553 100
leaf_count=1578 59 4884 247911 245 45154 20288 1754 196734 45250 93392 4027 285 617 409 104 19686 77448 255 24699 499 3653 70409 1778 14940 22109 48480 6553 100
internal_value=0 -2.97629e-06 -2.53466e-06 -7.57996e-05 2.91894e-06 -2.16621e-06 -4.00961e-05 -1.65219e-06 4.46972e-06 6.10393e-06 -1.09482e-05 -2.97954e-05 -3.23798e-05 -0.000145827 -0.000210159 3.95706e-06 8.98591e-06 0 2.96063e-06 4.73272e-05 1.75317e-06 2.2743e-06 -6.5808e-06 1.73596e-06 -1.06635e-06 -1.83469e-06 9.20337e-07 6.08945e-06
internal_weight=0 477417 474746 2671 475883 468960 1913 444645 313194 192104 24315 5786 5501 758 349 113078 79026 162689 40393 754 121090 115659 5431 39639 122296 93634 28662 159
internal_count=953300 477417 474746 2671 475883 468960 1913 444645 313194 192104 24315 5786 5501 758 349 113078 79026 162689 40393 754 121090 115659 5431 39639 122296 93634 28662 159
is_linear=0
shrinkage=0.03


Tree=7
num_leaves=29
num_cat=0
split_feature=112 26 142 93 80 123 82 64 88 64 3 54 147 12 163 88 4 96 152 74 4 31 18 113 172 63 31 148
split_gain=0.0106271 0.0105221 0.00428176 0.00283464 0.00415945 0.0038439 0.00239244 0.00446362 0.00195927 0.00207773 0.00194241 0.00240976 0.00119678 0.00229346 0.00108366 0.000795089 0.00078766 0.000787272 0.000575642 0.000443787 0.000366783 0.000305426 0.000248032 0.000213295 0.000188795 0.000133238 0.000130122 9.38662e-05
threshold=0.0007596611397600808 -0.052997925346515241 -0.00054040767010108618 -0.0091416654177010042 0.051520664916395946 -0.0005625317571684717 -0.0037212318707760439 -0.029560645091888837 -0.0044261380773518199 -0.075953480936852211 -0.0014478610246442256 -0.011196776875575512 -0.038931284099817269 0.0020693946095297244 -0.0158466687425971 0.0034123681588704778 -0.032016961206530421 0.00055614006097113634 -0.0037835346590652029 0.0079592207167621856 0.017000957877959359 0.0017858879873529079 0.0012567960194872884 -0.0051587743218988171 -0.0038996277168574594 -0.012020543683320282 -0.003909411607310175 0.00044673271747517853
decision_type=6 6 6 4 6 6 4 4 6 6 6 6 6 4 6 6 6 4 6 6 6 6 6 6 6 4 6 6
left_child=2 10 8 4 24 -6 19 -8 17 16 11 -2 13 14 -4 22 -10 18 -1 -5 -11 26 -14 -13 -3 -15 -12 -17
right_child=1 3 12 6 5 -7 7 -9 9 20 21 23 15 25 -16 27 -18 -19 -20 -21 -22 -23 -24 -25 -26 -27 -28 -29
leaf_value=0 -8.8628380753099154e-05 -1.8149099747014921e-06 -5.4664166733756322e-05 -7.3704335475110781e-06 -0.00012586432842243123 0 3.2811948894735933e-05 -1.6748035680162474e-06 1.677151176365035e-05 2.3629474621650743e-06 -2.8803581254849904e-05 0 -8.824475506533393e-07 0 -7.3136226002935702e-06 0 5.7589726749854373e-06 2.1563416816436025e-05 1.2411013436188303e-05 0 -3.2528801136994144e-07 0 1.1605305207133937e-06 -2.0443232514613436e-05 -1.3788080159799523e-05 8.7032439567066048e-06 0 -9.9756514395317298e-06
leaf_weight=5548 1897 4749 1378 93193 580 156 3408 194984 7870 177530 645 83 137366 547 2020 3109 133905 8301 7136 7784 49034 598 86434 1160 13283 1825 345 8611
leaf_count=5548 1897 4749 1378 93193 580 156 3408 194984 7870 177530 645 83 137366 547 2020 3109 133905 8301 7136 7784 49034 598 86434 1160 13283 1825 345 8611
internal_value=0 -4.49252e-06 2.19941e-06 -3.78101e-06 -1.52903e-05 -8.83485e-05 -3.00927e-06 -1.00645e-06 4.15247e-06 3.58836e-06 -4.91753e-05 -6.44259e-05 -8.89701e-07 -1.44841e-05 -3.09484e-05 -4.92844e-07 6.47631e-06 1.33379e-05 6.76986e-06 -6.79562e-06 1.71494e-06 -9.54262e-06 -2.64003e-08 -1.53582e-05 -1.14671e-05 2.78966e-06 -2.05683e-05 -8.11868e-06
internal_weight=0 322865 630614 318137 18768 736 299369 198392 389324 368339 4728 3140 241290 5770 3398 235520 141775 20985 12684 100977 226564 1588 223800 1243 18032 2372 990 11720
internal_count=953479 322865 630614 318137 18768 736 299369 198392 389324 368339 4728 3140 241290 5770 3398 235520 141775 20985 12684 100977 226564 1588 223800 1243 18032 2372 990 11720
is_linear=0
shrinkage=0.03


Tree=8
num_leaves=27
num_cat=0
split_feature=112 72 80 113 113 142 118 64 78 173 88 88 136 152 88 172 137 172 81 54 88 118 97 172 63 39
split_gain=0.010791 0.0109992 0.00954117 0.00659024 0.00350874 0.0023619 0.00206228 0.00207868 0.00300689 0.00175876 0.00162348 0.00197627 0.00124138 0.00174463 0.00113769 0.000818055 0.000722601 0.000707342 0.000702345 0.000661101 0.000616452 0.000349319 0.000291121 0.000285046 0.000243422 5.00318e-06
threshold=-0.00028110838370526805 -0.022607073782896125 -0.067563038736486433 -0.0070077211130410424 0.0096366479992866533 0.0063185034201133404 0.0053767968700016442 -0.0062571736912893248 0.0040560156121729283 -0.0005891667678952216 0.00059610911221851448 -0.0066864111341427444 -0.0051267111150086319 -0.0092380605934972385 8.5871922504686049e-05 -0.039274645066223093 0.00052688946016132842 0.0064168034505779807 0.038076415657997138 -0.0020767069658184484 -0.0010723530723808002 -0.00017304645149518263 -0.0014963570283725856 -0.0070558109520869388 0.018545565195381645 0.017168004997074608
decision_type=6 6 6 6 4 4 6 4 6 4 6 6 4 6 6 6 4 4 6 6 6 6 4 6 6 6
left_child=2 4 3 22 21 10 7 8 -3 25 11 -4 13 -7 16 -9 -8 -11 -16 -12 -14 -2 -1 -5 -23 -6
right_child=1 6 5 23 9 12 14 15 -10 17 19 -13 20 -15 18 -17 -18 -19 -20 -21 -22 24 -24 -25 -26 -27
leaf_value=5.4709329818744528e-05 0 -4.1129311846667037e-07 1.9656069125127297e-05 0 -8.1673681547239796e-06 -4.5557221138733543e-05 9.0058853368596738e-06 2.7773896090527636e-05 1.2530251656897239e-05 0 -1.5367694183869074e-06 4.4313971512700485e-06 -1.1898534487554308e-05 -2.57303629034452e-06 -1.0549237927439669e-05 -2.8998640372129405e-06 -5.936929349751621e-06 -0.00012157413772571591 6.2315350472708796e-06 2.6136167323762469e-06 1.8915509828996651e-06 -2.9670240002742498e-05 0.0001417083432257512 -3.4706913062226727e-05 0 0
leaf_weight=1085 540 76562 8572 304 418 1727 5156 692 19856 109 55569 271083 3771 3428 46852 355070 6580 1011 1212 81355 9168 2373 624 215 139 114
leaf_count=1085 540 76562 8572 304 418 1727 5156 692 19856 109 55569 271083 3771 3428 46852 355070 6580 1011 1212 81355 9168 2373 624 215 139 114
internal_value=0 -2.90644e-06 3.49849e-06 6.57349e-05 -4.8732e-05 3.14467e-06 -2.45591e-06 -1.72066e-06 2.09848e-06 -8.78895e-05 3.62967e-06 4.95184e-06 -7.19173e-06 -1.98941e-05 -7.76451e-06 -2.79788e-06 0 -0.000113035 -9.81378e-06 8.19685e-07 -9.69604e-07 -2.25814e-05 9.53702e-05 -3.05116e-06 -2.72856e-05 -6.63574e-06
internal_weight=0 516684 436901 2228 4704 434673 511980 452180 96418 1652 416579 279655 18094 5155 59800 355762 11736 1120 48064 136924 12939 3052 1709 519 2512 532
internal_count=953585 516684 436901 2228 4704 434673 511980 452180 96418 1652 416579 279655 18094 5155 59800 355762 11736 1120 48064 136924 12939 3052 1709 519 2512 532
is_linear=0
shrinkage=0.03


Tree=9
num_leaves=29
num_cat=0
split_feature=112 58 173 33 82 64 64 24 112 97 113 142 30 83 89 61 89 89 142 142 72 63 117 173 172 118 64 172
split_gain=0.00717073 0.00551691 0.00710531 0.004741 0.00356113 0.00759751 0.00416289 0.00303338 0.00271731 0.00212142 0.00207953 0.00131324 0.00105664 0.000898384 0.000663212 0.000484188 0.000467142 0.000431633 0.000391791 0.000363922 0.000233662 0.000132869 6.21232e-05 4.03327e-05 3.1261e-05 2.72127e-05 1.8779e-05 1.75654e-05
threshold=0.0015551651788381176 -0.099538485606207525 0.0084646842442452925 -0.073464896529912935 0.0054183790940570461 -0.024279820704657232 -1.0000000180025095e-35 0.0072899582281468651 0.00079805705468226492 -0.0034201723756268616 -0.0021611375268548723 -0.00032197104458955037 -0.0006725929026418448 0.043279528617858894 -0.0076560133602470151 0.0079376138746738451 0.0064005511812865743 0.0018696321058087053 0.0059429078001617388 0.0085414731497195761 0.0035794503087205548 -0.00071172407479025413 0.0072033882606774577 -0.046805918216705315 0.0094542240166545551 0.0010066693659379685 -0.010388764953206122 -0.0011403441265259568
decision_type=6 6 4 6 6 4 4 6 6 6 6 6 6 6 6 6 6 6 6 4 6 4 6 6 6 6 4 6
left_child=8 2 21 9 13 7 -7 -6 10 -4 11 14 16 15 -1 -3 -12 -15 -14 -13 23 22 -2 -10 27 -25 -23 -22
right_child=1 4 3 -5 5 6 -8 -9 20 -11 12 19 18 17 -16 -17 -18 -19 -20 -21 24 26 -24 25 -26 -27 -28 -29
leaf_value=1.1528478855399691e-05 0 -9.1801696955426776e-06 -0.00025534111262479552 0 5.6960534252376785e-05 1.0996052104344547e-05 -4.8327461960011551e-06 -9.7687988454708829e-06 0 -5.4539623508563384e-05 -7.210732088733892e-07 7.1026057372148193e-07 2.2357505141454848e-06 2.713724848132862e-05 4.5419428338174176e-06 -2.7568073155182914e-09 -7.5844044549142662e-06 0 -3.3168171498584023e-06 -6.7995657226238407e-06 1.9316444356784096e-06 0 -1.7821982947524174e-05 -2.5070818682222326e-06 -3.1342712815018282e-06 -4.9900685883329685e-06 1.6946239362206047e-05 0
leaf_weight=16663 523 97308 267 301 2841 18021 80623 324 666 386 136746 42172 215580 799 198600 8947 10471 474 9972 6622 6815 53 422 51210 1882 37680 199 6722
leaf_count=16663 523 97308 267 301 2841 18021 80623 324 666 386 136746 42172 215580 799 198600 8947 10471 474 9972 6622 6815 53 422 51210 1882 37680 199 6722
internal_value=0 -4.91669e-06 -5.33231e-05 -0.000114423 -4.34714e-06 -1.73892e-07 -1.7888e-06 4.53913e-05 1.34498e-06 -0.000160073 2.09624e-06 4.1433e-06 6.05919e-07 -8.15886e-06 5.15254e-06 -8.54858e-06 -1.31122e-06 1.25686e-05 1.92373e-06 -1.75822e-09 -3.06956e-06 0 -9.11972e-06 -3.65959e-06 0 -3.72844e-06 1.26773e-05 8.43246e-07
internal_weight=0 211488 2151 954 209337 101809 98644 3165 741801 653 636826 264057 372769 107528 215263 106255 147217 1273 225552 48794 104975 1197 945 89556 15419 88890 252 13537
internal_count=953289 211488 2151 954 209337 101809 98644 3165 741801 653 636826 264057 372769 107528 215263 106255 147217 1273 225552 48794 104975 1197 945 89556 15419 88890 252 13537
is_linear=0
shrinkage=0.03


Tree=10
num_leaves=31
num_cat=0
split_feature=112 54 77 97 172 112 142 1 25 65 94 24 51 172 172 62 162 18 11 77 97 62 124 138 60 97 102 118 36 149
split_gain=0.00780266 0.00593535 0.00539484 0.0032901 0.0130792 0.00204804 0.00189845 0.00161046 0.00131279 0.00124419 0.0027303 0.00116729 0.000930394 0.000863043 0.000679682 0.000591903 0.000546232 0.000540373 0.00047316 0.000588972 0.000467817 0.000425737 0.000903363 0.000265167 0.000252308 0.000249068 0.000203144 0.000194489 0.000171703 0.000148603
threshold=-0.001352549455480944 -0.0071948857991518903 -0.094148028641939149 -0.0056080683134496203 0.065657226459572393 0.00040419523663459 -0.0010821982610264155 -0.018170410767197605 0.034184603020548827 0.012635707855224611 -0.0065960442783681971 0.0049257512302064458 -0.01001676172018051 0.0014108406215204005 0.015371883713253603 -0.0091540718325368881 -0.011289307553689549 0.0036085016928049745 0.002840950153768063 -0.04589551500976085 -0.0004472914151847362 -0.011467181386561203 0.011314494905560432 -0.00055965835768187857 -0.0025242352866214749 0.0032196866814047102 -0.0028503518489972983 0.0037188922223907418 0.0012614196213734388 -0.016109935939311978
decision_type=6 4 4 6 6 6 6 6 6 4 6 6 4 4 6 4 4 6 6 4 4 6 6 6 6 6 6 6 6 6
left_child=6 2 3 4 -2 20 12 -5 18 10 -7 -11 21 23 29 25 -17 -15 19 -8 28 22 -1 -4 -20 -14 -23 -22 -3 -10
right_child=1 5 13 7 -6 9 8 -9 14 11 -12 -13 15 17 -16 16 -18 -19 24 -21 27 26 -24 -25 -26 -27 -28 -29 -30 -31
leaf_value=8.9905764702526847e-06 -5.1891545763474447e-05 -1.1472057448002476e-06 0 -3.7276860649134283e-05 -0.00055517635678025443 1.4312880004378198e-05 -2.8800537283081269e-06 0 -1.5477023715681045e-05 -3.2643337270676829e-06 -1.5337903343461626e-06 -1.2082568782955206e-05 -5.9329614053555728e-06 -1.2856841574096113e-05 -6.2936040530938613e-05 0 5.7496953283826261e-06 4.8121238850981264e-06 -5.0751681678711179e-06 5.4088197577790054e-06 2.4771000093800826e-06 0 2.5530436817738588e-05 -5.5060251102105564e-06 0 3.8940711386563546e-06 7.4965436593368449e-06 0 9.9909930018780192e-07 0
leaf_weight=23454 1387 89077 10422 2580 56 10432 7869 2012 601 173710 145259 16512 6669 22915 436 17061 111907 387 11896 29356 134688 8104 5296 14142 18701 1756 14701 23469 48371 871
leaf_count=23454 1387 89077 10422 2580 56 10432 7869 2012 601 173710 145259 16512 6669 22915 436 17061 111907 387 11896 29356 134688 8104 5296 14142 18701 1756 14701 23469 48371 871
internal_value=0 -1.72188e-06 -1.13075e-05 -3.86605e-05 -8.2545e-05 -8.93078e-07 4.38022e-06 -2.15751e-05 0 -2.47184e-06 -3.75478e-07 -4.10876e-06 5.94217e-06 -7.54394e-06 -2.4365e-05 4.44331e-06 4.98738e-06 -1.19193e-05 8.38018e-07 3.25364e-06 9.03624e-07 9.64533e-06 1.25606e-05 -2.78211e-06 -1.61069e-06 -2.10431e-06 5.31158e-06 2.02948e-06 -2.82739e-07 -2.69416e-06
internal_weight=0 695419 53901 6035 1443 641518 258678 4592 69730 345913 155691 190222 188948 47866 1908 137393 128968 23302 67822 37225 295605 51555 28750 24564 30597 8425 22805 158157 137448 1472
internal_count=954097 695419 53901 6035 1443 641518 258678 4592 69730 345913 155691 190222 188948 47866 1908 137393 128968 23302 67822 37225 295605 51555 28750 24564 30597 8425 22805 158157 137448 1472
is_linear=0
shrinkage=0.03


Tree=11
num_leaves=29
num_cat=0
split_feature=112 30 142 83 17 136 64 142 173 88 61 79 88 139 62 94 89 0 139 167 172 153 106 62 154 150 112 15
split_gain=0.00817011 0.0080074 0.00318392 0.00218352 0.00955817 0.00390468 0.00277439 0.00207291 0.00196094 0.00180381 0.00163355 0.00139214 0.0012644 0.000979875 0.000873902 0.000753582 0.000743581 0.00120929 0.000586231 0.000519723 0.000436982 0.000408058 0.000379062 0.000323949 0.00031503 0.000305282 0.000293502 0.000103419
threshold=0.00057385672464949273 -0.024609740141209115 -0.0017555718947548273 0.0019177275244146588 -0.045411067083477967 -0.0024280285062510533 -0.025894801959148363 0.008099472245336933 0.0026264819316565995 -0.0003488570419409918 -0.00091615552082657803 0.012663959525525572 0.0031080995257091256 0.0019032103009521963 0.03617694866719056 -0.013240557326259787 -0.00017312995623797176 -0.007416908499598065 -0.0025754496455192562 -0.017654130235314366 0.0080774982386124013 0.039843225851655013 0.025306624627323793 -0.0067686337293215194 0.0060325294502377941 0.028834035778860571 -0.0039190703769887035 -0.0069287894293665877
decision_type=6 6 6 4 4 6 4 6 4 6 4 6 6 6 4 6 6 6 6 6 6 6 6 4 6 4 6 6
left_child=2 8 11 12 5 -5 -6 16 23 13 20 14 18 -9 15 -1 25 -18 -3 -11 -10 26 -16 27 -14 -4 -13 -2
right_child=1 3 7 4 6 -7 -8 9 10 19 -12 21 24 -15 22 -17 17 -19 -20 -21 -22 -23 -24 -25 -26 -27 -28 -29
leaf_value=1.6631258068282598e-05 -2.456769536527491e-05 -1.8485946305279897e-06 1.8745994985033416e-06 2.7931128503724097e-06 2.1046611555418656e-05 0.00011957931231848058 -2.2129894490120029e-06 -2.8354078856395751e-05 -9.0731163323183742e-06 -8.0137001348429027e-06 0 2.0169225409346027e-05 -1.7272984683864384e-05 0 6.4640184144472236e-06 2.0476038001537851e-06 -1.1863173954132753e-05 -7.4925545791370782e-08 -6.1960808086241486e-06 5.8101257789358899e-06 -0.00010041692535080482 3.4793389429155532e-05 -2.1647897802920529e-06 0 -5.3539691081955495e-06 1.4958785732148949e-05 4.6603998457517719e-06 0
leaf_weight=3594 848 58509 134998 795 4642 823 180177 5328 463 4964 244 3242 11735 2051 99745 177296 8483 141029 87527 4407 1174 1489 2123 454 7880 2004 8096 90
leaf_count=3594 848 58509 134998 795 4642 823 180177 5328 463 4964 244 3242 11735 2051 99745 177296 8483 141029 87527 4407 1174 1489 2123 454 7880 2004 8096 90
internal_value=0 -3.63396e-06 2.10777e-06 -3.15416e-06 -8.31986e-07 7.15303e-05 -1.54741e-06 -2.6916e-09 -5.06345e-05 -1.03073e-05 -7.29948e-05 4.32378e-06 -5.67713e-06 -2.14726e-05 3.81245e-06 2.42046e-06 5.47447e-07 -8.44241e-07 -4.55703e-06 0 -8.37763e-05 1.4424e-05 6.1369e-06 -9.59751e-06 -1.32504e-05 2.17569e-06 1.04205e-05 -2.11368e-05
internal_weight=0 355361 598849 352088 186437 1618 184819 303264 3273 16750 1881 295585 165651 7379 282758 180890 286514 149512 146036 9371 1637 12827 101868 1392 19615 137002 11338 938
internal_count=954210 355361 598849 352088 186437 1618 184819 303264 3273 16750 1881 295585 165651 7379 282758 180890 286514 149512 146036 9371 1637 12827 101868 1392 19615 137002 11338 938
is_linear=0
shrinkage=0.03


Tree=12
num_leaves=30
num_cat=0
split_feature=112 22 72 172 160 173 96 97 148 166 81 82 65 119 72 72 155 30 50 167 77 72 150 79 116 125 32 133 64
split_gain=0.0100011 0.00743364 0.0110824 0.00244832 0.0019431 0.00181157 0.00225537 0.00140336 0.00119039 0.00118143 0.00241761 0.0017626 0.00294875 0.00168413 0.00103149 0.000747604 0.000703391 0.000749583 0.00108593 0.000542419 0.000512719 0.000510284 0.000483455 0.000444282 0.000414702 0.000407051 0.000312345 0.000311724 0.000298815
threshold=0.0002189856150034708 -0.062875046082190481 -0.024793714291793206 -0.0013415505619663365 0.052163375782369674 -0.0046703326515853396 -0.0048239886507675531 0.001420918677467853 0.0094074583458079782 0.012814357936902115 0.037381617352366454 0.009458296660349216 -0.022022893652319905 -0.0029965828871354456 0.0049374033446033128 0.0024615386116409658 -0.019304410554468628 -0.0049295830886076147 0.0089843574422799038 -0.040129208937287324 -0.02338540647178888 0.0049841166881278943 -0.0011776944046909107 -0.0076742637902498237 0.00040503766644200181 0.0048374803736805925 -0.045441772419508634 -0.0055694766342639914 -0.033897445430139894
decision_type=6 6 6 4 6 6 6 4 6 4 6 6 6 6 4 4 6 6 6 6 4 4 6 4 6 6 6 6 6
left_child=3 2 5 7 8 -2 -7 14 -4 11 24 22 -13 -12 28 19 17 25 -19 -9 27 -17 -3 -22 -11 -5 -16 -18 -1
right_child=1 9 4 16 -6 6 -8 15 -10 10 13 12 -14 -15 26 21 20 18 -20 -21 23 -23 -24 -25 -26 -27 -28 -29 -30
leaf_value=3.4885761829138216e-06 -9.7488947482672397e-06 -1.0949965394271381e-06 1.3534231647461341e-05 -1.9051262588220903e-05 -0.00016050855697234177 -0.00021191484288334394 -6.3889789160758969e-05 9.4168431312577861e-06 -1.5475972540263274e-05 -5.1521864626505948e-06 -2.7169378094356632e-05 1.6791357707311196e-05 0 0 4.0020859023335564e-05 5.2549572799329697e-06 -4.8695657360493796e-06 2.051817719934182e-06 -1.0301641781289169e-05 2.487736796262584e-06 6.1849387027527148e-06 1.6042974822957548e-05 -4.8643813944804248e-06 1.080809888904246e-06 -1.7987791378775057e-06 0 6.8481279181240729e-06 0 7.8381593114683792e-07
leaf_weight=76463 454 67931 1266 4007 86 401 744 21190 4560 102654 7169 10808 62773 2700 462 11877 16919 19488 8876 36421 20300 17108 83342 125328 74821 771 38135 28732 107858
leaf_count=76463 454 67931 1266 4007 86 401 744 21190 4560 102654 7169 10808 62773 2700 462 11877 16919 19488 8876 36421 20300 17108 83342 125328 74821 771 38135 28732 107858
internal_value=0 -3.5172e-06 -3.32855e-05 2.67131e-06 -1.14245e-05 -0.000104628 -0.000129088 4.40405e-06 -6.59574e-06 -2.93822e-06 -4.73242e-06 -1.37659e-06 2.31397e-06 -1.9563e-05 3.03263e-06 7.76105e-06 2.14721e-07 -3.72941e-06 -1.28563e-06 5.29694e-06 9.76552e-07 1.21406e-05 -3.27089e-06 1.89538e-06 -3.82299e-06 -1.50919e-05 7.63586e-06 -1.62593e-06 1.98725e-06
internal_weight=0 419709 7511 533935 5912 1599 1145 309514 5826 412198 187344 224854 73581 9869 222918 86596 224421 33142 28364 57611 191279 28985 151273 145628 177475 4778 38597 45651 184321
internal_count=953644 419709 7511 533935 5912 1599 1145 309514 5826 412198 187344 224854 73581 9869 222918 86596 224421 33142 28364 57611 191279 28985 151273 145628 177475 4778 38597 45651 184321
is_linear=0
shrinkage=0.03


Tree=13
num_leaves=27
num_cat=0
split_feature=142 94 112 42 49 173 172 51 49 120 166 1 30 64 172 118 118 172 75 169 127 124 136 73 124 93
split_gain=0.00421787 0.00677919 0.00600886 0.00347287 0.00303278 0.00495953 0.00250783 0.00469122 0.00292201 0.00229956 0.00246145 0.00148544 0.00142792 0.00132806 0.00111388 0.000769225 0.000987145 0.000587511 0.000562734 0.000450839 0.000411667 0.000408059 0.000383798 0.000414666 0.000279314 0.000164443
threshold=0.0014684988610153807 0.025180011853798326 0.00027777503157809091 -0.021804872475249055 0.012767537496984007 0.0014273785054683687 -0.02883983931124591 -0.011975994333624838 -0.015336908865720032 0.0040767998508128749 0.015699785302546905 -0.038668604567646973 0.0038885597481014369 -0.030783092473315846 0.014824981078636638 -0.0068916195653593425 0.0023161282500387208 -0.0049956245431874964 0.020478775724768642 0.01525973901152611 0.0074009522795677194 0.0017159369669181017 -0.0013179121265221477 -0.0003299959644209593 -0.0015062445825311719 -0.0020533748902380462
decision_type=6 4 6 4 4 6 4 4 4 6 4 6 6 4 6 6 6 6 6 6 6 6 4 6 6 4
left_child=2 3 6 11 5 -3 7 8 -1 10 -5 18 14 -9 -8 22 20 -14 -2 -18 -17 -13 23 -4 -11 -24
right_child=1 4 15 9 -6 -7 12 13 -10 24 -12 21 17 -15 -16 16 19 -19 -20 -21 -22 -23 25 -25 -26 -27
leaf_value=7.3239054012693808e-05 -5.2619764523757933e-05 0 0 1.7359952934497603e-06 0 -0.0001691295889702713 1.8524966044929867e-06 -4.0295725887073444e-05 1.5466395964360561e-05 -1.0836967381127826e-05 -4.1390591226244196e-06 -1.9783999934366611e-05 9.6333478012158238e-06 5.1662330809285568e-06 1.5952327934321258e-05 -2.637841477855521e-06 -4.9305244144516298e-06 3.6783780386257079e-06 0 -1.2968588788197375e-05 2.2524642529100068e-06 -2.6985184086505422e-08 -6.6570744612354029e-06 1.4762352250663077e-05 -4.1456746005090805e-06 2.1478957446055354e-06
leaf_weight=1789 1721 439 1659 150141 232 481 353568 643 3079 24499 110199 3545 38364 5541 5438 104672 40182 43810 61 12476 14875 3574 2808 3986 19902 5085
leaf_count=1789 1721 439 1659 150141 232 481 353568 643 3079 24499 110199 3545 38364 5541 5438 104672 40182 43810 61 12476 14875 3574 2808 3986 19902 5085
internal_value=0 -2.74282e-06 1.49938e-06 -2.42633e-06 -7.57576e-05 -0.000100716 3.38096e-06 1.77735e-05 3.97994e-05 -1.83273e-06 -6.93245e-07 -2.10593e-05 2.98634e-06 0 2.10794e-06 -3.00097e-06 -3.58611e-06 6.64123e-06 -4.88904e-05 -7.12021e-06 -1.90385e-06 -1.19745e-05 3.33367e-06 9.37098e-06 -8.17584e-06 0
internal_weight=0 314794 637975 313642 1152 920 452232 11052 4868 304741 260340 8901 441180 6184 359006 185743 172205 82174 1782 52658 119547 7119 13538 5645 44401 7893
internal_count=952769 314794 637975 313642 1152 920 452232 11052 4868 304741 260340 8901 441180 6184 359006 185743 172205 82174 1782 52658 119547 7119 13538 5645 44401 7893
is_linear=0
shrinkage=0.03


Tree=14
num_leaves=27
num_cat=0
split_feature=72 173 112 10 97 88 142 72 94 64 83 113 97 90 167 130 173 107 166 122 163 27 157 88 107 133
split_gain=0.00852776 0.00858335 0.00724626 0.00525485 0.00371374 0.00209035 0.00191606 0.00294965 0.0017976 0.00184963 0.00168997 0.00118053 0.00110914 0.000971376 0.000928673 0.000899704 0.00071761 0.000753455 0.000639891 0.000623677 0.000612546 0.000450099 0.000266465 0.00024612 7.65627e-05 1.57041e-05
threshold=-0.027745145024889211 0.0070415243972092876 0.0001867599727345543 -0.053229271950046293 0.0012149628018960359 0.0018832012996533747 0.00037218573707778528 0.01773148978878485 0.0010604297283809052 0.0043264330995856732 0.11422384902834894 0.00024196776212193075 -0.00069309625541791309 -0.0030878792219826523 -0.02377349883317947 -0.0059443010882517322 -0.0090501927770674211 0.010413697455078365 -0.031094242709895591 -0.0026395697288469308 -0.0063772057183086863 0.038505854085087783 -0.0055528096854686728 -0.00069449972728338966 0.017759847454726699 -0.0021023973822593685
decision_type=6 6 6 6 6 4 6 4 6 4 6 6 6 6 4 6 6 6 4 6 6 6 6 6 6 6
left_child=1 11 6 4 -3 8 7 12 9 -4 -10 16 -2 15 -15 -7 17 -1 -9 20 -8 25 -21 -5 -18 -13
right_child=2 3 5 23 -6 13 19 18 10 -11 -12 21 -14 14 -16 -17 24 -19 -20 22 -22 -23 -24 -25 -26 -27
leaf_value=4.5510292439229628e-05 1.3829322742008109e-06 -0.00022674508556236821 3.1806078795899051e-06 0 -1.7580109645902442e-05 -3.4967234411381357e-05 -7.8753950488718873e-06 0 -4.5072351469057324e-06 -2.1934029156704284e-06 -3.8655103746309336e-05 -4.2941584774276495e-05 4.7508882623858909e-06 1.1825230083222695e-06 -7.4124401489503277e-06 -7.4865639093934043e-06 -1.3780903290543059e-05 0 2.4522829432645979e-05 2.8899178564135351e-06 0 0 -2.8432025910361943e-07 -3.343259271857887e-05 0 0
leaf_weight=666 182177 435 87365 67 306 2575 17538 668 94154 166610 1456 792 204862 10640 55007 5504 415 441 7390 34756 23002 143 54455 925 102 462
leaf_count=666 182177 435 87365 67 306 2575 17538 668 94154 166610 1456 792 204862 10640 55007 5504 415 441 7390 34756 23002 143 54455 925 102 462
internal_value=0 -4.00615e-05 2.104e-07 -9.39241e-05 -0.000160838 -2.69259e-06 2.58036e-06 3.62397e-06 -1.66857e-06 -2.85723e-07 -5.18494e-06 -4.15945e-06 3.20438e-06 -7.34454e-06 -5.7909e-06 -1.81081e-05 6.55573e-06 2.52212e-05 2.19107e-05 -4.81891e-07 -3.63799e-06 -2.73293e-05 7.84241e-07 -2.86278e-05 -4.45214e-06 -3.39772e-05
internal_weight=0 4754 948159 1733 741 423311 524848 395097 349585 253975 95610 3021 387039 73726 65647 8079 1624 1107 8058 129751 40540 1397 89211 992 517 1254
internal_count=952913 4754 948159 1733 741 423311 524848 395097 349585 253975 95610 3021 387039 73726 65647 8079 1624 1107 8058 129751 40540 1397 89211 992 517 1254
is_linear=0
shrinkage=0.03


Tree=15
num_leaves=31
num_cat=0
split_feature=112 144 172 88 138 36 142 141 32 78 113 83 64 113 30 155 93 64 107 17 85 122 157 63 61 9 62 78 64 21
split_gain=0.00750534 0.00737688 0.00224092 0.00604183 0.00221793 0.00239884 0.00184737 0.0016797 0.0016583 0.00227344 0.00463864 0.00158914 0.00278749 0.00165893 0.000958329 0.000887957 0.00128845 0.000866872 0.000839919 0.000576102 0.000698292 0.000517892 0.000512348 0.000276061 0.000208107 8.86163e-05 3.70395e-05 3.54187e-05 2.21845e-05 7.78794e-06
threshold=0.00053772278478562388 -0.068901542995403561 -0.00014398486883922146 0.008592282648485345 -0.024005843876720279 5.0797890708076782e-05 0.003485369051468614 -0.0025077271275222297 0.033153143557169772 -0.025981981745853512 -0.013346801511943339 -0.004124253522604703 -0.016305543787608155 0.0054906965233385572 0.0049108728340564256 0.0036795777268707757 -0.003613099223002791 -0.016433389453130793 0.0039596622809767732 0.0087845190428197401 -0.0032917890930548306 0.0015612803927719224 0.000522777729202062 0.012728050351142885 0.0017049671150743964 -0.011470858473330734 0.015784049976010687 0.0095219427565504302 0.057514657977908945 -0.0056189808528870335
decision_type=6 6 4 4 6 6 6 6 4 4 6 6 4 6 6 6 6 4 6 6 6 6 6 4 4 6 4 6 6 6
left_child=6 2 23 29 5 24 8 -7 9 10 -1 13 -13 -6 -11 19 21 27 -18 22 -21 -17 -8 25 -3 -2 -25 -10 -19 -4
right_child=1 4 3 -5 11 7 15 -9 17 14 -12 12 -14 -15 -16 16 18 28 -20 20 -22 -23 -24 26 -26 -27 -28 -29 -30 -31
leaf_value=5.6570618103536909e-05 -1.6410791487931375e-05 3.2138109652100658e-06 -2.0204841442351907e-05 -0.00012213298281136466 -3.9071809089237524e-06 9.3440625835457947e-05 7.2870569943970879e-06 0 -8.2675978811773777e-06 1.6479358835044261e-06 -8.6989878887875943e-06 1.0797716864834029e-05 -2.404950330073884e-06 -1.2901894924471336e-05 5.621397534179963e-06 -2.735605677477874e-05 0 1.3926214189236473e-05 -1.9335008797266735e-05 4.5226940086226363e-06 -8.6023734469134264e-06 0 -1.709891426087457e-06 0 -2.0827721922760777e-05 0 1.1071560475068721e-05 0 3.7984099711925803e-05 0
leaf_weight=2058 1243 870 1991 973 111800 592 11697 649 520 461411 1227 15207 201906 25156 67318 3828 10583 7030 2265 3569 12068 503 7045 50 409 90 270 132 1135 145
leaf_count=2058 1243 870 1991 973 111800 592 11697 649 520 461411 1227 15207 201906 25156 67318 3828 10583 7030 2265 3569 12068 503 7045 50 409 90 270 132 1135 145
internal_value=0 -3.40382e-06 -4.0729e-05 -5.64471e-05 -2.86308e-06 2.45145e-05 2.08213e-06 5.4371e-05 2.61485e-06 2.3677e-06 2.76375e-05 -3.10043e-06 -1.41103e-06 -5.66901e-06 2.18223e-06 -3.2149e-06 -8.80518e-06 1.58226e-05 -2.66953e-06 0 -4.64736e-06 -2.35353e-05 3.10508e-06 -2.0701e-06 0 -1.38353e-05 1.37162e-07 -2.41161e-06 1.91156e-05 -1.94235e-05
internal_weight=0 361351 4762 3109 356589 2520 592389 1241 540831 532014 3285 354069 217113 136956 528729 51558 17179 8817 12848 34379 15637 4331 18742 1653 1279 1333 320 652 8165 2136
internal_count=953740 361351 4762 3109 356589 2520 592389 1241 540831 532014 3285 354069 217113 136956 528729 51558 17179 8817 12848 34379 15637 4331 18742 1653 1279 1333 320 652 8165 2136
is_linear=0
shrinkage=0.03


Tree=16
num_leaves=28
num_cat=0
split_feature=112 15 142 112 84 142 97 136 27 153 122 89 82 142 49 110 166 83 88 72 113 3 142 96 113 63 95
split_gain=0.00741939 0.00657749 0.00312428 0.00286715 0.00212823 0.0020029 0.00244002 0.00169362 0.00162963 0.00127202 0.00263184 0.00113295 0.00110134 0.00108423 0.000978906 0.000937122 0.00153767 0.00092098 0.000725898 0.000660283 0.000503805 0.00054085 0.000350552 0.000214081 0.00013801 7.95884e-05 3.11444e-07
threshold=-0.00018296782196983855 -0.076869778335094438 0.01014124353353634 0.0040389174112991583 -0.0080832366790087578 -0.0030269029397743297 -0.0040699641685932866 0.0047861831141244203 0.013922243379056455 -0.00043803872540593142 -0.0013365525149743645 -0.0026331819826737042 0.03998468992232132 -0.0041819688799933892 -0.0055938363075256339 0.010307657320414138 -0.025563410366522463 -0.00052635811152867962 2.0523921941672361e-05 0.0047534297025524303 -0.0003925665514543652 -0.0047844778746366492 0.00011655017331430041 -0.00068429490676530694 0.00077113753650337468 -0.00098736141808330991 0.0060057090595364579
decision_type=4 4 6 6 6 6 6 4 6 6 6 6 6 6 6 4 4 4 6 6 4 6 6 6 6 6 6
left_child=2 3 13 24 20 -5 -7 17 11 10 -10 14 -9 15 -4 19 -17 -6 23 -1 26 -22 -20 -15 -2 -13 -3
right_child=1 4 8 5 7 6 -8 12 9 -11 -12 25 -14 18 -16 16 -18 -19 22 -21 21 -23 -24 -25 -26 -27 -28
leaf_value=3.4478199282674906e-06 0 0 0 0 -2.0547266328643502e-06 -0.00014372306825077787 -3.3387815998699103e-05 -2.9933690082165044e-06 -9.1435141508001749e-05 0 0 0 -1.4708437003923666e-05 1.7487284622505803e-06 -3.3003551609647325e-05 -8.9213593976128392e-06 2.5975529106667301e-05 1.7485187761460628e-06 1.5116273945849833e-06 9.0634720447304604e-06 -1.4808575511406592e-05 -1.5582600582842015e-06 -1.6247516642497901e-06 4.4585081103118349e-06 -1.6801171975796113e-05 6.0162151191504385e-06 5.3317885219938465e-07
leaf_weight=112926 1141 2028 362 403 98560 573 1047 222590 789 982 404 3784 8270 69705 1921 749 4738 135536 87380 29318 17710 6489 48110 93386 1691 1977 984
leaf_count=112926 1141 2028 362 403 98560 573 1047 222590 789 982 404 3784 8270 69705 1921 749 4738 135536 87380 29318 17710 6489 48110 93386 1691 1977 984
internal_value=0 -2.54377e-06 2.7535e-06 -3.74759e-05 -2.16855e-06 -6.68447e-05 -8.17907e-05 -1.65283e-06 -1.33691e-05 -3.77331e-05 -5.9597e-05 -4.9094e-06 -3.47813e-06 3.15632e-06 -2.30458e-05 5.32393e-06 1.84777e-05 8.31821e-08 2.03357e-06 4.71083e-06 -1.04288e-05 -1.18757e-05 2.87242e-07 3.39236e-06 -1.11715e-05 0 0
internal_weight=0 497022 456531 4855 492167 2023 1620 464956 10219 2175 1193 8044 230860 446312 2283 147731 5487 234096 298581 142244 27211 24199 135490 163091 2832 5761 3012
internal_count=953553 497022 456531 4855 492167 2023 1620 464956 10219 2175 1193 8044 230860 446312 2283 147731 5487 234096 298581 142244 27211 24199 135490 163091 2832 5761 3012
is_linear=0
shrinkage=0.03


Tree=17
num_leaves=29
num_cat=0
split_feature=142 112 54 50 14 168 26 137 172 50 118 88 82 64 119 113 48 136 53 96 96 88 156 79 89 63 137 113
split_gain=0.00333077 0.00541515 0.0039973 0.00724056 0.00249916 0.00274114 0.00625175 0.00248269 0.00222992 0.00537005 0.00194543 0.00163939 0.00163164 0.00289866 0.00134436 0.00105532 0.00142019 0.00103207 0.000964374 0.000799782 0.000661235 0.000659191 0.000492842 0.000481527 0.00048111 0.00041303 0.000183593 0.000122241
threshold=0.0022991842736562588 0.00021042662928204538 -0.0058786737179429066 -0.071629229242864176 0.0063704975207061337 -0.015113260493317907 0.043220754503645584 -0.0048217787407338611 -0.036197810714835819 0.0032516457442585372 0.0082531354539430342 -0.0047560249852566924 -0.00051245921918498531 -0.009095064098456564 0.01058784779161215 0.0084433546289801615 1.9284441026606088e-05 0.00087962910028898083 -0.020008839666843411 -0.0042235360795554048 -0.0031774950525470073 -0.0066864111341427444 0.0033303534406825546 0.011758012697100641 0.00052282883552834402 0.0019328975467942657 -0.012820445932447909 0.0019377635326236489
decision_type=6 6 6 6 6 6 6 6 6 6 6 6 6 4 4 6 6 4 4 6 4 6 6 6 6 6 4 6
left_child=1 8 3 -2 12 7 -7 -6 9 10 -1 20 23 -14 22 25 -17 26 -19 -13 -10 -11 27 -4 -24 -5 -16 -3
right_child=2 14 4 15 5 6 -8 -9 11 21 -12 19 13 -15 17 16 -18 18 -20 -21 -22 -23 24 -25 -26 -27 -28 -29
leaf_value=1.6322932365262826e-05 -8.2918699352878825e-05 -1.6340277455522533e-06 -2.5458207677056592e-06 -7.5851505863724217e-06 -3.3095997991409017e-05 -5.3188858025573231e-06 8.2741621239043077e-05 0 0 0 7.3899156905864229e-05 -3.0978966448989841e-06 1.4306478242814482e-05 3.7676710988766311e-07 3.106637384677092e-06 -2.6223697730863987e-05 6.2344124670278458e-06 -2.3164336989727847e-05 -5.1184001107302989e-06 2.578341707500578e-06 1.516473021578599e-05 -2.2702216829360036e-05 3.4417639330127281e-06 -1.4277428774157349e-05 -2.4774358303152495e-06 0 -4.370609634277107e-06 -3.8778829514324479e-06
leaf_weight=2194 1307 99356 52313 23472 6258 39354 723 3311 4964 501 1556 21228 16188 94773 3699 6042 651 7030 8844 420586 13458 1642 28284 4241 19745 5142 6835 58518
leaf_count=2194 1307 99356 52313 23472 6258 39354 723 3311 4964 501 1556 21228 16188 94773 3699 6042 651 7030 8844 420586 13458 1642 28284 4241 19745 5142 6835 58518
internal_value=0 1.07168e-06 -2.94133e-06 -1.21621e-05 -1.3175e-06 -7.24458e-06 -3.35194e-06 -2.19764e-05 2.95178e-06 2.16517e-05 4.42378e-05 2.67965e-06 3.49614e-07 2.54436e-06 -2.63614e-06 -9.11349e-06 -2.08252e-05 -9.14628e-06 -1.4057e-05 2.27165e-06 1.16493e-05 -1.08825e-05 -1.72825e-06 -3.69127e-06 6.96046e-07 -5.84859e-06 -3.21203e-07 -2.56079e-06
internal_weight=0 698440 253775 36614 217161 49646 40077 9569 466129 5893 3750 460236 167515 110961 232311 35307 6693 26408 15874 441814 18422 2143 205903 56554 48029 28614 10534 157874
internal_count=952215 698440 253775 36614 217161 49646 40077 9569 466129 5893 3750 460236 167515 110961 232311 35307 6693 26408 15874 441814 18422 2143 205903 56554 48029 28614 10534 157874
is_linear=0
shrinkage=0.03


Tree=18
num_leaves=27
num_cat=0
split_feature=112 18 143 9 83 110 25 113 94 119 129 147 97 142 136 156 151 142 65 61 172 109 172 137 172 115
split_gain=0.00702015 0.00589998 0.00156741 0.00138134 0.00137869 0.00131888 0.00109294 0.00197144 0.000898412 0.00109105 0.000873388 0.00122743 0.00076872 0.00085382 0.000726319 0.00162245 0.00070976 0.000852145 0.000666508 0.000536814 0.000526682 0.000521052 0.00038634 0.000291494 0.000192355 2.70094e-05
threshold=-0.0008314258625993974 -0.010243426500290195 0.0046981680206954488 0.002826923038810492 -0.19902157038450238 0.0016924973778356799 -0.0082748718559741957 0.00011328561231493951 0.00057389010518361407 -0.018327564932405945 0.0025664047570899133 -0.018745092675089833 -0.00048590957885608072 0.0010762104723789317 -0.0021338157914493274 -0.0054804799316646837 -0.010228767991065977 -0.0057825081868054891 -0.014178600627928971 0.013203746173530819 0.014824981078636638 0.0081719486042857187 0.0022266907389537002 0.012716358527541162 0.005581227244031998 -0.014134438242763279
decision_type=6 6 6 6 4 6 6 6 6 4 6 6 6 6 4 6 6 6 6 4 6 4 6 4 6 6
left_child=4 2 10 22 5 -1 7 -7 14 24 25 -12 13 19 15 -3 18 -18 -14 -6 -15 -16 -4 -11 -10 -2
right_child=1 8 3 -5 12 6 -8 -9 9 23 11 -13 16 20 21 -17 17 -19 -20 -21 -22 -23 -24 -25 -26 -27
leaf_value=0 0 8.8509989290953931e-06 -9.8982972308276758e-07 0 9.9928098029678694e-07 0.00013812040126103223 0 0 -6.1650772754959051e-06 -1.1768385372204245e-06 -4.2937034256902212e-05 -6.5949084426308778e-06 1.3277225046524918e-05 0 -6.6612987716518829e-07 -8.3787234231088769e-08 8.0071894643716036e-06 1.884687073180076e-06 3.9696415665287776e-06 4.990622258409954e-06 -1.0022756799323162e-05 -6.2623209147314939e-06 -3.0254936694099857e-05 -3.7449063284743609e-06 -2.625009258065994e-05 -2.1237127815003218e-06
leaf_weight=689 4339 23280 1567 1602 87602 292 440 55 4399 124572 1439 6119 18204 18417 259847 70825 30874 93808 21441 59228 7035 17011 9428 83482 2212 5443
leaf_count=689 4339 23280 1567 1602 87602 292 440 55 4399 124572 1439 6119 18204 18417 259847 70825 30874 93808 21441 59228 7035 17011 9428 83482 2212 5443
internal_value=0 -1.88553e-06 -1.49195e-05 -2.36426e-05 3.49499e-06 3.35514e-05 6.01095e-05 0.000104818 -1.19357e-06 -2.74608e-06 -7.71546e-06 -1.55079e-05 3.31843e-06 1.77696e-06 -2.5474e-07 1.96728e-06 4.8432e-06 3.52116e-06 8.62225e-06 2.7115e-06 -3.02482e-06 -1.0642e-06 -2.7449e-05 -2.2794e-06 -1.51596e-05 -1.59637e-07
internal_weight=0 615565 29937 12597 338085 1476 787 347 585628 214665 17340 7558 336609 172282 370963 94105 164327 124682 39645 146830 25452 276858 10995 208054 6611 9782
internal_count=953650 615565 29937 12597 338085 1476 787 347 585628 214665 17340 7558 336609 172282 370963 94105 164327 124682 39645 146830 25452 276858 10995 208054 6611 9782
is_linear=0
shrinkage=0.03


Tree=19
num_leaves=27
num_cat=0
split_feature=112 49 54 145 84 88 94 66 83 166 60 142 61 84 98 87 26 142 97 124 54 63 30 30 65 62
split_gain=0.00532531 0.00405269 0.00808483 0.00565554 0.00379321 0.00195357 0.00324449 0.000895013 0.00157921 0.00103986 0.00108071 0.000921956 0.000809314 0.000806697 0.000738848 0.000601975 0.000561127 0.000930559 0.000447232 0.000278884 0.000235638 0.000106958 5.81496e-05 5.03109e-05 1.16861e-06 9.99135e-07
threshold=-0.0013888011014851289 -0.072408448904752717 -0.0056155615727832937 -0.084054626524448381 -0.011163868566896133 0.0016532997369176257 -0.013240557326259787 0.010092052210599061 0.13513322174549106 -0.05157368713331173 -0.0095634581156601155 0.0090146911747349644 -0.00059085653629153956 0.0040825102735464131 -0.001103566454549785 -0.0029006680706515904 0.0045899622848356312 0.0093448990830103679 0.0022360864095389847 -0.0035553746277431774 0.0012176141577272834 0.0071928470861166724 -0.0028523059955085721 -0.00044705822991939148 0.044207274913787849 -0.025462941102291772
decision_type=4 4 6 6 6 6 6 6 6 6 6 6 4 6 6 6 6 4 6 6 6 6 6 6 4 6
left_child=7 2 3 -2 16 6 -6 8 11 24 -11 15 -13 -7 22 -1 17 -3 -4 21 -21 -16 -9 -24 -10 -18
right_child=1 4 18 -5 5 13 -8 14 9 10 -12 12 -14 -15 19 -17 25 -19 -20 20 -22 -23 23 -25 -26 -27
leaf_value=8.6768224899859123e-07 -0.00015732537055779697 -1.1439605746144417e-05 0 0 2.135856864374868e-05 -3.744803507457224e-06 -5.4349726799106995e-07 0 0 0 -4.3614055593571636e-05 2.9089075865638736e-06 -1.4417373818530561e-05 -1.4527908226614709e-05 -6.4974644914433786e-06 4.6405410542156469e-06 0 -3.4363835723737449e-05 0.00020278060032995988 0 1.0762730509539044e-05 0 0 1.818793962636768e-05 2.2874855271969756e-06 1.0628620223115488e-06
leaf_weight=63627 582 13345 50 263 6133 104556 562706 479 228 87 1539 2569 4878 7991 2287 161792 334 3106 51 815 4530 2103 508 8028 199 794
leaf_count=63627 582 13345 50 263 6133 104556 562706 479 228 87 1539 2569 4878 7991 2287 161792 334 3106 51 815 4530 2103 508 8028 199 794
internal_value=0 -1.50824e-06 -6.38535e-05 -0.000105149 -1.40222e-06 -1.0236e-06 -2.80914e-07 3.56295e-06 2.96823e-06 -2.2309e-05 -3.46856e-05 3.25568e-06 -6.42744e-06 -4.64394e-06 1.02132e-05 3.64217e-06 -1.52231e-05 -1.66831e-05 0.000131343 2.52893e-06 7.64971e-06 -2.9116e-07 1.68454e-05 1.74876e-05 0 0
internal_weight=0 699911 946 845 698965 681386 568839 253669 234919 2053 1626 232866 7447 112547 18750 225419 17579 16451 101 9735 5345 4390 9015 8536 427 1128
internal_count=953580 699911 946 845 698965 681386 568839 253669 234919 2053 1626 232866 7447 112547 18750 225419 17579 16451 101 9735 5345 4390 9015 8536 427 1128
is_linear=0
shrinkage=0.03


Tree=20
num_leaves=30
num_cat=0
split_feature=113 118 5 112 93 98 94 172 72 100 47 110 82 147 42 142 57 64 24 88 166 92 64 7 7 44 106 162 30
split_gain=0.00426861 0.00565471 0.00329028 0.00196385 0.0015169 0.00232646 0.00121926 0.00273586 0.000927293 0.00114712 0.000899548 0.000842661 0.000781991 0.000681142 0.00089225 0.000642481 0.000616822 0.00101445 0.000604902 0.0053935 0.000640144 0.000340479 0.000334833 0.000310159 0.000300153 0.000223418 0.000206021 0.000143205 6.77206e-05
threshold=-0.0017733152490109203 0.017383881930140063 0.0077790650539100179 0.0002693115615512951 -0.0078532155603170378 0.0022353050129963578 0.0021262302233645545 0.016794666792182521 0.021352728615263761 -0.0010976447093714067 0.059782737866044051 0.0067558494831222856 0.021026991260089261 0.036810092628002174 -0.0022872695630301479 0.0042706103033345521 -0.0021857946412637825 -0.011150060291970484 -0.0077193300638723058 -0.00047413342634204393 -0.010178332394623516 -0.0025714329428639976 0.016857456543754545 0.0063496276270598182 -0.0041080340743064872 -0.00070231542342063526 -0.001736629962316643 -0.0030655825750424619 0.002674075825770607
decision_type=4 4 6 6 6 4 6 6 6 6 6 4 6 6 6 4 6 6 6 6 4 6 4 6 6 6 4 6 6
left_child=8 3 4 11 5 -3 7 -5 9 13 23 15 -8 21 -15 -2 17 -4 19 -11 -20 -1 27 24 -10 -6 -13 -12 -18
right_child=1 2 16 6 25 -7 12 -9 10 18 22 26 -14 14 -16 -17 28 -19 20 -21 -22 -23 -24 -25 -26 -27 -28 -29 -30
leaf_value=-2.5535611450971885e-06 9.9826388713615696e-07 -7.8067063995064242e-06 8.482989132264221e-05 -2.5786311514174926e-06 -2.6174143358232353e-05 -0.0001138972749435261 -4.4775246938937532e-06 7.0055789227365924e-06 7.2226672644371161e-05 4.5024316249697932e-05 0 1.8367878305910933e-05 -1.4500246886300715e-05 -1.6692485739251941e-05 0 -4.477302591307728e-06 -8.548670136368113e-06 0 -2.1717526770687515e-07 0 4.1390072729641223e-06 1.7277504265528785e-06 3.2925867527312999e-07 5.3197149950602685e-06 1.4119096859931862e-05 0 2.166797507068337e-06 -4.8617432509602689e-05 0
leaf_weight=19196 226876 718 203 284112 3839 737 60242 28933 438 3093 355 3107 10322 4896 3619 20462 832 146 29722 8065 156545 77893 446 2367 1642 395 4447 180 417
leaf_count=19196 226876 718 203 284112 3839 737 60242 28933 438 3093 355 3107 10322 4896 3619 20462 832 146 29722 8065 156545 77893 446 2367 1642 395 4447 180 417
internal_value=0 -1.47208e-06 -2.78358e-05 -1.14762e-06 -3.8878e-05 -7.19224e-05 -2.51391e-06 -1.64486e-06 2.81655e-06 2.53694e-06 1.56577e-05 8.4979e-07 -6.15657e-06 0 -8.12134e-06 4.84599e-07 2.09981e-06 4.00212e-05 3.8869e-06 1.12801e-05 3.36338e-06 7.26739e-07 0 2.19362e-05 3.36175e-05 -2.39527e-05 1.08187e-05 -2.36872e-05 0
internal_weight=0 645788 7287 638501 5689 1455 383609 313045 308457 303029 5428 254892 70564 105604 8515 247338 1598 349 197425 11158 186267 97089 981 4447 2080 4234 7554 535 1249
internal_count=954245 645788 7287 638501 5689 1455 383609 313045 308457 303029 5428 254892 70564 105604 8515 247338 1598 349 197425 11158 186267 97089 981 4447 2080 4234 7554 535 1249
is_linear=0
shrinkage=0.03


Tree=21
num_leaves=30
num_cat=0
split_feature=142 2 149 112 116 45 172 148 18 88 166 169 62 21 126 152 88 118 54 113 173 84 170 6 96 86 72 64 105
split_gain=0.00434479 0.00396734 0.00320283 0.00314185 0.00256848 0.00177404 0.00150826 0.00635415 0.00128848 0.00106909 0.0010299 0.00116368 0.000988628 0.00170785 0.000940805 0.000973063 0.000877011 0.000649468 0.000605098 0.000604977 0.000588831 0.000756584 0.000483313 0.000458811 0.000433811 0.000370583 0.0003499 0.000245344 0.0001883
threshold=5.0051176535229515e-05 -0.0241550287107163 -0.043813928961753838 -0.0018103712554838971 0.0066396311878619127 -0.0038802408380433913 0.010379546193767563 -0.010444334541171206 -0.0018288385944781357 0.0054839390699085019 -0.017353525632103326 0.0092682819813489931 -0.0082100534526142379 -0.028644450940191742 -0.0031557331942808175 -0.0034615123572532551 0.00058695768273912547 0.0025359853659842131 -0.00031835648470227739 0.01111604366451502 0.020094728097319606 0.0046721031289147065 -0.012915799391738597 0.0001550232279811011 0.0034137926249403774 -0.0024087453320373758 0.0063395526091126605 0.0031046517556244714 -0.0030517114792019124
decision_type=6 6 6 6 6 6 6 6 6 6 6 6 6 6 6 6 6 4 4 6 6 6 6 6 4 6 6 6 6
left_child=3 4 5 12 9 22 16 -8 -7 28 11 18 13 24 15 -12 -4 -13 -5 -11 21 -14 -3 -22 -1 -6 -16 -15 -2
right_child=1 2 6 10 25 8 7 -9 -10 19 14 17 20 27 26 -17 -18 -19 -20 -21 23 -23 -24 -25 -26 -27 -28 -29 -30
leaf_value=1.357311571548131e-05 -1.1750131288296653e-05 -1.784914272683494e-05 -9.3881317728030127e-07 8.5613304183506167e-07 0 0 -1.4908062037806048e-05 6.1241403181110328e-06 -3.7762035205318148e-05 -1.3391778653913006e-05 -9.9220709578167869e-06 0 1.2650518888660587e-06 5.7966234689752328e-06 -5.1622149662876629e-07 -8.7163290382887804e-07 -4.2919672077231898e-06 -7.6504768465442482e-06 5.7536533992885686e-06 -6.3563982974736616e-05 0 7.822234192485536e-06 1.6202760823969115e-05 -1.212658374915856e-05 3.7322076963898741e-05 -5.4494861294438531e-05 4.6817964851646391e-06 0 -1.0271159486207141e-06
leaf_weight=11358 3900 344 207451 49733 244 2001 15570 71114 4306 2765 20626 31127 55856 60426 129204 31014 120055 12795 60096 629 3206 27171 1235 3853 1896 1835 12794 1922 9107
leaf_count=11358 3900 344 207451 49733 244 2001 15570 71114 4306 2765 20626 31127 55856 60426 129204 31014 120055 12795 60096 629 3206 27171 1235 3853 1896 1835 12794 1922 9107
internal_value=0 -2.29418e-06 -1.65873e-06 1.76589e-06 -1.59944e-05 -2.07211e-05 -1.25947e-06 2.17308e-06 -2.81051e-05 -1.08132e-05 1.00366e-07 1.97306e-06 5.16733e-06 7.81612e-06 -1.30912e-06 -4.77726e-06 -2.21381e-06 -1.93514e-06 3.67258e-06 -2.7139e-05 2.77778e-06 3.59172e-06 0 -4.66956e-06 1.81071e-05 -4.96107e-05 0 5.38736e-06 -5.39665e-06
internal_weight=0 440556 422076 513077 18480 7886 414190 86684 6307 16401 347389 153751 165688 75602 193638 51640 327506 43922 109829 3394 90086 83027 1579 7059 13254 2079 141998 62348 13007
internal_count=953633 440556 422076 513077 18480 7886 414190 86684 6307 16401 347389 153751 165688 75602 193638 51640 327506 43922 109829 3394 90086 83027 1579 7059 13254 2079 141998 62348 13007
is_linear=0
shrinkage=0.03


Tree=22
num_leaves=31
num_cat=0
split_feature=112 30 16 172 162 166 51 112 142 142 15 64 42 73 25 72 84 61 104 14 78 96 15 122 102 36 91 122 46 66
split_gain=0.00449234 0.00413327 0.00284248 0.00205115 0.00182406 0.00503168 0.0337046 0.00178859 0.00160346 0.00150976 0.00102589 0.000989724 0.000842626 0.000829304 0.00071496 0.000639523 0.0005427 0.00050695 0.000991563 0.000514379 0.000436107 0.000356368 0.000161601 0.000154505 0.000147873 0.000123151 0.000105773 8.74519e-05 2.03831e-05 9.31556e-06
threshold=0.0009721425739405734 -0.011757018872096911 -0.08486430965278631 0.0017762201843638649 -0.0059528155354988945 -0.02781177086834757 0.038645496591925628 -0.00044936310499421979 0.0020888519067430969 0.0046263266014895752 0.0062420056201517591 0.0015145598658039682 -0.0044322103297206325 -0.0019742054864764209 -0.011475350242108105 0.0050326268402093146 -0.0031054110809140109 0.0007506771362386645 -0.0012201409125679604 0.0050144922194646823 0.0021690773410836884 -0.00010350180466769789 -0.026143907569348809 -0.00083090736278245705 -0.00010951240715823922 -0.00061046270244917097 0.0009002698352560402 -0.0021309669630040786 0.011979140017498452 1.6499123439348836e-05
decision_type=6 6 6 6 6 4 6 6 6 4 4 6 6 6 4 4 6 4 6 6 6 4 6 6 6 4 6 4 6 6
left_child=7 2 3 -2 5 6 -3 8 11 -7 16 15 -13 29 -12 -1 -6 18 -10 -19 -15 23 -5 28 27 -25 -26 -23 -9 -4
right_child=1 4 13 22 10 9 -8 21 17 -11 14 12 -14 20 -16 -17 -18 19 -20 -21 -22 24 -24 25 26 -27 -28 -29 -30 -31
leaf_value=3.630437009813359e-06 0 6.4936886561200319e-06 -1.5029750473174786e-05 -7.7859525885278183e-05 -6.210387405649857e-06 -3.3185645226385143e-06 0.00035300293262539086 -2.0058668553773175e-06 -8.9884035560818852e-06 4.6071358475039241e-06 1.255294547850552e-06 -6.2979437473441654e-06 1.860518535889416e-06 0 -8.4997712250319683e-06 8.4008376047372504e-06 -9.8995928635763484e-07 -1.1535499290784929e-06 5.9577973764294277e-06 -1.0698502398422936e-05 4.085077968193218e-05 0 0 -2.0898774355345024e-06 -1.6774581021970809e-06 2.2611027583237724e-07 7.1641133169807305e-07 2.0777972768531939e-06 -5.3396533039658577e-06 0
leaf_weight=202712 547 3921 11699 1288 26200 60787 277 43102 5378 33067 4759 12220 106376 650 53787 36714 91377 19344 13266 10065 253 25952 52 29403 36352 40907 20254 50680 12012 385
leaf_count=202712 547 3921 11699 1288 26200 60787 277 43102 5378 33067 4759 12220 106376 650 53787 36714 91377 19344 13266 10065 253 25952 52 29403 36352 40907 20254 50680 12012 385
internal_value=0 -3.14038e-06 -1.86818e-05 -5.55479e-05 -2.24242e-06 9.13616e-07 3.30863e-05 1.33937e-06 2.58818e-06 -3.66294e-07 -4.08462e-06 3.29679e-06 8.9331e-07 -1.21627e-05 -7.4506e-06 4.42465e-06 -2.2809e-06 -2.37911e-06 8.41491e-07 -4.93075e-06 6.04256e-06 -5.63157e-07 -7.5623e-05 -1.7366e-06 4.28895e-07 -5.29112e-07 -5.55941e-07 1.3521e-06 -3.00478e-06 -1.4765e-05
internal_weight=0 289049 14874 1887 274175 98052 4198 664737 406075 93854 176123 358022 118596 12987 58546 239426 117577 48053 18644 29409 903 258662 1340 125424 133238 70310 56606 76632 55114 12084
internal_count=953786 289049 14874 1887 274175 98052 4198 664737 406075 93854 176123 358022 118596 12987 58546 239426 117577 48053 18644 29409 903 258662 1340 125424 133238 70310 56606 76632 55114 12084
is_linear=0
shrinkage=0.03


Tree=23
num_leaves=31
num_cat=0
split_feature=112 78 6 166 2 93 106 110 142 113 23 166 29 62 173 65 31 31 83 88 162 18 21 88 31 21 60 147 113 62
split_gain=0.00470393 0.00406728 0.00273263 0.0028011 0.00383695 0.00172911 0.00253381 0.00154016 0.00150056 0.00158763 0.00234841 0.00136741 0.00125989 0.00142958 0.00231305 0.000985336 0.00190309 0.000968574 0.000902425 0.000768464 0.000758875 0.000655489 0.0005933 0.000543744 0.000521025 0.00040604 0.000389836 0.000364653 1.46295e-05 2.43359e-08
threshold=0.00051875800382415196 -0.011206242681308458 0.011705159450034527 -0.02016733297750534 0.002853754249764143 -0.0095653822645544988 -0.0027475100747303342 0.0094258052782018095 -0.0012199811796387956 0.013907178305089475 -0.032938206568360322 -0.023675668767502066 -0.048171231523156159 -0.055773525021156761 0.003242452628910542 -0.066420234739780412 -0.01642602868378162 0.011765140108764173 -0.0043526708614081136 0.0025033291090234629 0.0011284898059176463 0.0048940375502024369 -0.0098408591002225859 0.0011864352413608022 0.0022561709629371767 0.022306430153548721 -0.017526211217194474 0.012068050447851421 -2.9502611141651865e-05 0.0041903651541713898
decision_type=6 6 6 4 6 6 4 6 6 4 6 6 4 6 6 4 6 6 4 6 6 6 6 6 6 6 4 6 6 4
left_child=7 12 3 4 -3 6 -4 8 11 19 -11 17 13 14 -2 16 27 -1 -5 -10 24 -13 -15 -7 -17 -22 28 -9 -14 -28
right_child=1 2 5 18 -6 23 -8 15 9 10 -12 21 26 22 -16 20 -18 -19 -20 -21 25 -23 -24 -25 -26 -27 29 -29 -30 -31
leaf_value=4.2153245201862186e-06 0 -1.1456939000855414e-06 -0.0001916257412047602 -4.6154842698778011e-06 2.3579885085185446e-05 0 0 0.0001436536188267973 3.53273799014103e-07 -0.00015061782099463512 0 8.9369015311028075e-09 0 -2.2207664181818986e-05 -8.6903681951172064e-05 1.4847599656963944e-06 0 1.4549881313565033e-05 -1.2569163652145221e-06 -5.4487950266202219e-06 -7.9778972509765454e-06 4.3596938410141395e-06 0 -2.4873187694180772e-05 2.228748113313357e-05 9.6274006620176467e-06 0 0 -1.7608434118126773e-05 1.5652231353053273e-07
leaf_weight=117615 560 12527 167 128651 8937 692 213 192 232334 155 662 149492 167 2205 1113 3955 693 10451 203774 22399 3063 41940 507 1587 3929 1836 1313 123 1743 892
leaf_count=117615 560 12527 167 128651 8937 692 213 192 232334 155 662 149492 167 2205 1113 3955 693 10451 203774 22399 3063 41940 507 1587 3929 1836 1313 123 1743 892
internal_value=0 -2.6972e-06 -2.16177e-06 -1.889e-06 8.45179e-06 -3.28001e-05 -0.000101369 1.63696e-06 1.36972e-06 -2.91206e-07 -4.2049e-05 2.74515e-06 -2.33865e-05 -3.575e-05 -6.15182e-05 1.16908e-05 4.40801e-05 5.17603e-06 -2.60185e-06 -9.80636e-08 7.957e-06 1.04052e-06 -1.42935e-05 -1.4712e-05 1.37569e-05 0 -6.55743e-06 0.000107675 -1.66159e-05 0
internal_weight=0 365048 356548 353889 21464 2659 380 588839 575048 255550 817 319498 8500 4385 1673 13791 1008 128066 332425 254733 12783 191432 2712 2279 7884 4899 4115 315 1910 2205
internal_count=953887 365048 356548 353889 21464 2659 380 588839 575048 255550 817 319498 8500 4385 1673 13791 1008 128066 332425 254733 12783 191432 2712 2279 7884 4899 4115 315 1910 2205
is_linear=0
shrinkage=0.03


Tree=24
num_leaves=25
num_cat=0
split_feature=142 119 88 34 29 2 42 162 162 173 112 74 26 63 96 106 142 155 59 86 172 93 25 154
split_gain=0.00481424 0.0183933 0.0092691 0.00580762 0.00482253 0.0042777 0.00388577 0.00384199 0.00380987 0.00400894 0.00347883 0.0034333 0.00148482 0.00130901 0.00123189 0.00122676 0.00100632 0.000714463 0.000713412 0.000630867 0.000341254 0.000637845 5.74588e-05 5.67196e-05
threshold=-0.032358509273458458 0.001290917629376054 0.01386070333991842 0.0093510925252098323 -0.069699335843324647 0.01320943496867079 -0.015025828710355642 -0.011208524388073704 0.0032035885626507167 -0.011386412195861338 -0.0013073111956309806 0.0023767790518525399 -0.0053357623775251526 -0.015458663925528525 0.0028738512332091267 -0.0049125381856229052 -0.0017937723272749035 -0.012965491041541098 -0.042837005108594887 -0.0016465645613423026 -0.0074294254128275776 -0.00066922279074788083 1.0000000180025095e-35 -0.0050792303867581287
decision_type=4 4 4 6 6 6 6 6 6 6 6 6 6 6 6 4 6 6 6 6 6 6 6 6
left_child=1 7 6 5 13 11 12 17 22 -10 16 -3 19 18 -12 -14 -8 23 -4 -2 -6 -22 -9 -1
right_child=2 3 4 -5 20 -7 10 8 9 -11 14 -13 15 -15 -16 -17 -18 -19 -20 -21 21 -23 -24 -25
leaf_value=0 -2.9118621530768561e-05 0.00015959245271813155 -0.00012171284560376491 0 0 0 4.6968125918316713e-06 0 -0.00016453572194767427 0 -1.1901551074924359e-06 0 2.5647106312053928e-05 0 3.4847718997250279e-06 -5.5381874091966041e-06 4.8305836944244517e-07 3.7734484030946849e-05 0 -1.1056945134243037e-05 -4.4309381074337002e-05 0 1.9016534894366154e-05 -2.8004194920702664e-05
leaf_weight=88 4292 1227 965 282 768 167 168434 110 449 174 607333 82 1127 118 54052 14622 85249 453 107 12811 554 396 141 64
leaf_count=88 4292 1227 965 282 768 167 168434 110 449 174 607333 82 1127 118 54052 14622 85249 453 107 12811 554 396 141 64
internal_value=0 3.64438e-05 -1.86175e-07 0.000104271 -5.36474e-05 0.000128388 -6.23081e-09 -3.40822e-05 -7.68423e-05 -0.000117313 3.41872e-07 0.000146696 -1.01584e-05 -0.000102424 -7.85406e-07 -2.35127e-06 3.33994e-06 3.02815e-06 -0.000112873 -1.64693e-05 -1.10605e-05 -2.33161e-05 0 -2.15002e-06
internal_weight=0 3237 950828 1758 2908 1476 947920 1479 874 623 915068 1309 32852 1190 661385 15749 253683 605 1072 17103 1718 950 251 152
internal_count=954065 3237 950828 1758 2908 1476 947920 1479 874 623 915068 1309 32852 1190 661385 15749 253683 605 1072 17103 1718 950 251 152
is_linear=0
shrinkage=0.03


Tree=25
num_leaves=25
num_cat=0
split_feature=64 142 112 153 0 142 136 162 111 103 25 153 137 136 97 37 112 74 75 125 143 113 90 113
split_gain=0.00505891 0.00868827 0.00458895 0.00332317 0.00243456 0.00163918 0.00131207 0.00147794 0.001172 0.00139194 0.00114622 0.000989057 0.000982508 0.000773354 0.000947595 0.000716031 0.000613914 0.000492472 0.00048371 0.000408391 0.000170817 8.15692e-05 0.000548046 9.96234e-07
threshold=-0.12692277752118195 0.02159021677192928 -0.00039050641096764993 0.038520978763699538 -0.0079193833567108591 0.003134326697618847 0.0047385339882564373 -0.0045840740617635366 -0.0077210727613419286 0.0014275405555963518 0.018310503102838997 -0.029119623824954029 0.01014835759997368 -0.0044587649109581254 0.0028751466888934378 -0.0022809271467849608 0.011613164691873866 0.028676100326115905 0.001078143483027816 0.0011436352506279948 -0.0032133553177118297 -0.0043127655517309895 -0.00064849508725921604 -0.0025683642597869034
decision_type=4 6 6 6 4 4 4 6 6 6 4 6 4 6 6 6 6 6 6 6 6 6 6 6
left_child=1 8 5 -3 12 13 7 -6 9 20 11 -7 18 14 -2 -12 -8 -14 -4 -15 -1 22 -10 -23
right_child=2 3 4 -5 6 10 16 -9 21 -11 15 -13 17 19 -16 -17 -18 -19 -20 -21 -22 23 -24 -25
leaf_value=0 3.3210405790229165e-06 -0.00024517659610886594 -7.4027055580423681e-06 0 3.2016703442467981e-06 -1.7603467099589351e-05 -2.3971587543830518e-06 -1.4659537801187287e-06 0 0 -6.6484106627545995e-05 0 -1.8283953765032018e-05 3.0927622122207592e-07 9.0108836241031986e-06 -6.9643731779772221e-06 -1.6469227692351469e-05 0 7.8926211585224412e-07 3.4475118144698605e-06 -0.00011729817133141412 0 4.9960372093935216e-05 -1.0611700128604548e-06
leaf_weight=57 163119 250 17995 66 102597 3102 247252 147289 132 174 432 30667 11514 112001 37422 2005 3225 218 5426 67128 191 65 225 841
leaf_count=57 163119 250 17995 66 102597 3102 247252 147289 132 174 432 30667 11514 112001 37422 2005 3225 218 5426 67128 191 65 225 841
internal_value=0 -4.75669e-05 1.53267e-07 -0.000195526 -1.66598e-06 2.53194e-06 -1.09577e-06 3.9044e-07 -1.07286e-05 -5.42744e-05 -3.37071e-06 -1.45732e-06 -9.35501e-06 3.13435e-06 4.45767e-06 -2.37112e-05 -2.63836e-06 -1.70388e-05 -4.86455e-06 1.56908e-06 -0.000100034 0 1.42949e-05 -2.40861e-07
internal_weight=0 2001 951392 316 535516 415876 500363 249886 1685 422 36206 33769 35153 379670 200541 2437 250477 11732 23421 179129 248 1263 357 906
internal_count=953393 2001 951392 316 535516 415876 500363 249886 1685 422 36206 33769 35153 379670 200541 2437 250477 11732 23421 179129 248 1263 357 906
is_linear=0
shrinkage=0.03


Tree=26
num_leaves=28
num_cat=0
split_feature=112 126 113 66 88 142 142 80 136 78 97 136 72 64 61 64 109 167 173 89 137 90 53 49 25 91 23
split_gain=0.00442704 0.00894889 0.00347854 0.00225795 0.00193151 0.00181955 0.0015678 0.00121941 0.000953318 0.0012337 0.000994354 0.000907213 0.000847167 0.000753815 0.000696187 0.000630327 0.00045258 0.000723182 0.000815462 0.000715929 0.000457422 0.000452083 0.00049598 0.000421612 0.000281115 0.00025977 0.000188416
threshold=0.00056496545446908808 -0.030244819691772774 0.0078179063275456446 -0.023832555679143597 0.0012418737171407568 -0.001378097194265918 -0.0021434840287819046 0.0026613867350210436 -0.0089432983994981938 -0.029964798330860607 0.0022153998725116257 -0.00017050646313166576 0.0033953043054526411 0.0069397414809626032 0.0033187571680173282 -0.079757788579232977 -0.0066035795025527469 -0.03185333497822284 0.0058600720949471006 0.003607147373259068 -0.00094094243831932534 0.0023450183462216845 -0.0082259518094360811 -0.0065932187717407933 -0.019037670455873009 -0.0016113841556943951 0.03877371363341809
decision_type=4 6 4 6 6 6 4 6 6 6 4 4 6 6 4 6 4 4 6 6 6 6 6 4 4 6 4
left_child=5 2 21 14 7 8 -4 -5 10 13 24 -6 -11 -10 15 -3 17 18 -7 23 -21 22 -2 -18 -1 -19 -12
right_child=1 3 6 4 11 16 -8 -9 9 12 26 -13 -14 -15 -16 -17 19 25 -20 20 -22 -23 -24 -25 -26 -27 -28
leaf_value=-4.6857010196639801e-06 -5.4326914106063624e-05 -5.5085028839135946e-05 0 -2.9357949249594797e-06 -1.8265570303679553e-06 0 -0.00019336919252091545 1.1383920555321472e-06 4.4449270219092654e-05 0 7.7414040377255339e-06 -8.458719308871797e-06 4.4225912498721607e-06 0 0 -4.4063877727307607e-06 3.9048516836034219e-06 -6.242691313705568e-06 -3.1814102611010872e-05 -6.8196565842110943e-06 0 0 0 1.6627853005213945e-07 3.7119188722296199e-06 0 1.7766415228059516e-05
leaf_weight=2160 321 1193 117 121874 38643 1132 347 138261 981 129708 27145 53848 55104 212 396 1215 34106 7336 1719 19709 10674 220 75 185977 99666 15992 5497
leaf_count=2160 321 1193 117 121874 38643 1132 347 138261 981 129708 27145 53848 55104 212 396 1215 34106 7336 1719 19709 10674 220 75 185977 99666 15992 5497
internal_value=0 -2.66756e-06 -8.91945e-05 -2.36193e-06 -2.10277e-06 1.55696e-06 -0.000158037 -7.12722e-07 3.09844e-06 1.58751e-06 5.07684e-06 -5.85006e-06 1.30633e-06 3.25193e-05 -2.95839e-05 -3.57631e-05 -1.74524e-07 -3.95385e-06 -1.87963e-05 1.60636e-07 -4.0769e-06 -1.27238e-05 -3.56887e-05 8.13826e-07 3.38639e-06 -1.49549e-06 9.89013e-06
internal_weight=0 356510 1080 355430 352626 597118 464 260135 320473 186005 134468 92491 184812 1193 2804 2408 276645 26179 2851 250466 30383 616 396 220083 101826 23328 32642
internal_count=953628 356510 1080 355430 352626 597118 464 260135 320473 186005 134468 92491 184812 1193 2804 2408 276645 26179 2851 250466 30383 616 396 220083 101826 23328 32642
is_linear=0
shrinkage=0.03


Tree=27
num_leaves=31
num_cat=0
split_feature=112 88 78 64 173 118 172 11 82 94 142 6 142 72 113 64 121 172 82 29 172 137 153 147 97 161 96 140 39 78
split_gain=0.00334099 0.0029313 0.00597115 0.00118335 0.00311448 0.0069438 0.00117374 0.00532304 0.00115346 0.00112151 0.00104369 0.000909977 0.00114327 0.000856829 0.00143811 0.00292764 0.00101969 0.000925497 0.000836049 0.000762719 0.000761792 0.000572505 0.00122299 0.000820013 0.000557682 0.00031168 0.000653868 0.000229941 0.000212645 0.000174552
threshold=-0.0012727465796891788 0.0012543405575752814 -0.029964798330860607 0.0083655133170976326 0.042700022459030158 -0.0077579470645157151 0.00084150178797340249 -0.093213215470314012 0.0067862188550285559 0.0035880471172074968 -0.00011359987560220621 0.0071389912385034704 0.0054662489770197151 0.0067853182814521474 -0.017048658803105351 0.012913708822406134 -0.010054592974483965 -0.0039922850049246717 0.023207912054243992 0.06512178480625154 -0.001533612483527561 -0.019024444743990895 -0.011085069738328455 -0.0032232366502284999 -0.0060284563805907956 0.056208495050668723 0.00091166617343827817 0.0062738589303858562 -0.0087563279084861261 0.0028120955983727647
decision_type=4 6 6 4 4 4 6 6 6 4 6 6 6 6 6 6 6 6 4 6 6 4 6 6 6 4 6 6 6 6
left_child=10 3 6 4 8 -6 -3 -8 -2 20 13 19 -13 14 15 -1 17 -15 -11 -4 -5 22 23 -12 -16 27 -27 -23 -24 -18
right_child=1 2 11 9 5 -7 7 -9 -10 18 21 12 -14 16 24 -17 29 -19 -20 -21 -22 25 28 -25 -26 26 -28 -29 -30 -31
leaf_value=2.663898193206514e-05 -1.7011310783625893e-07 0 -3.9908154745481328e-06 1.1447210431206537e-06 -4.0682095720233376e-05 3.1280328880571097e-05 -0.00019977298493398373 0 5.3784487991420878e-06 -3.6573900930427259e-06 -4.5081016518514059e-05 -6.4997755286304231e-06 -3.7297474233521429e-05 2.7117143315956421e-05 -2.2715053127364388e-06 -1.7771872278274259e-05 3.8378590221180766e-07 0 -1.948523552526959e-05 4.3775678551524661e-06 -1.905148138477328e-06 2.1319377638718707e-06 -7.6230904087133227e-06 0 2.8900561101409678e-06 -2.7979432332298722e-05 0 -3.5503774921171663e-06 5.3468377709642375e-06 7.2871977726125228e-06
leaf_weight=5852 154484 216 138903 125318 1271 7600 297 242 41600 19932 1162 8632 1785 4738 18147 1308 10593 2022 4760 8859 168361 40594 1873 1238 154777 1046 546 6044 2881 15575
leaf_count=5852 154484 216 138903 125318 1271 7600 297 242 41600 19932 1162 8632 1785 4738 18147 1308 10593 2022 4760 8859 168361 40594 1873 1238 154777 1046 546 6044 2881 15575
internal_value=0 -1.06369e-06 -4.63204e-06 0 1.79784e-06 1.92725e-05 -8.96622e-05 -0.000114899 9.30582e-07 -1.12445e-06 2.88644e-06 -4.13023e-06 -1.32229e-05 3.85075e-06 2.90838e-06 1.64289e-05 8.54864e-06 1.98059e-05 -7.31737e-06 -3.38753e-06 -5.52641e-07 -5.51574e-07 -8.58077e-06 -2.60307e-05 2.26163e-06 3.28713e-07 -1.20628e-05 1.07381e-06 0 5.06606e-06
internal_weight=0 682260 158934 523326 204955 8871 755 539 196084 318371 268396 158179 10417 213012 180084 7160 32928 6760 24692 147762 293679 55384 7154 2400 172924 48230 1592 46638 4754 26168
internal_count=950656 682260 158934 523326 204955 8871 755 539 196084 318371 268396 158179 10417 213012 180084 7160 32928 6760 24692 147762 293679 55384 7154 2400 172924 48230 1592 46638 4754 26168
is_linear=0
shrinkage=0.03


Tree=28
num_leaves=29
num_cat=0
split_feature=112 42 115 142 167 24 97 173 85 85 88 31 148 64 100 149 136 109 89 110 137 62 0 64 60 122 127 113
split_gain=0.00472726 0.00389022 0.00374661 0.00121732 0.00101811 0.00144629 0.00441364 0.000942677 0.00578709 0.00142518 0.00099407 0.000978972 0.000913463 0.000682705 0.000556989 0.000516301 0.000468663 0.00046474 0.000459671 0.00087033 0.000544513 0.000500692 0.000427814 0.000415919 0.000258859 0.000229153 0.000180469 0.000141032
threshold=-0.0005377918927446005 -0.01295535983903243 -0.10118550807237624 0.0008750742186055372 -0.015792795456945893 0.00028178542720474765 0.0085744597017765063 0.038672415539622314 -0.0021430806955322619 -0.0044870113488286725 -0.0050492660720042265 -2.6107175472134255e-05 -0.010965073815809884 0.045893301454596698 -0.006232574697023245 0.0010924609377980234 0.0037088593918418434 -0.0049603076186031094 0.0061383442953228959 0.00047990830442928351 -0.020502655766904351 -0.013835563830723435 -0.0079193833567108591 -0.0076491639252876534 0.0013082197430950859 -0.0082771968318191627 -0.010263704694807528 0.0021371515467762951
decision_type=6 6 6 6 4 6 6 4 6 6 4 4 6 4 6 6 4 6 4 6 4 6 6 6 4 6 6 6
left_child=3 2 22 7 5 6 -3 10 9 -9 11 -1 -7 -12 25 17 -17 -6 20 -20 21 -5 -2 -10 -22 -4 -21 -16
right_child=1 4 14 18 15 12 -8 8 23 -11 13 -13 -14 -15 27 16 -18 -19 19 26 24 -23 -24 -25 -26 -27 -28 -29
leaf_value=0 -7.5151726656311701e-05 2.4093455356434012e-06 -1.8599703173548315e-05 0 2.2020467086001799e-06 -1.1677410627021679e-05 3.7612655452933206e-05 6.4715640389304376e-05 3.1956497489200548e-06 0 1.3136150371252184e-06 1.5046114523563155e-05 0 4.3973219026981384e-06 -3.3269234289347857e-06 -9.5243769040280208e-07 -4.2145323897939737e-06 -1.3023272055366484e-06 -1.9223557407286214e-05 1.9525530508183685e-05 3.3974093855397208e-06 -1.821229504508561e-05 0 -1.1816209313774255e-05 -5.2555206744999988e-07 -3.4994343590803772e-06 0 -1.9800448731867335e-05
leaf_weight=2984 976 51173 1716 3554 38547 7579 3551 1912 1852 695 176366 11797 36335 124138 3155 84485 109111 200567 3379 426 22192 2736 67 2754 33759 19115 1305 6965
leaf_count=2984 976 51173 1716 3554 38547 7579 3551 1912 1852 695 176366 11797 36335 124138 3155 84485 109111 200567 3379 426 22192 2736 67 2754 33759 19115 1305 6965
internal_value=0 -1.68939e-06 -1.18947e-05 2.60686e-06 -1.04662e-06 1.62741e-06 4.96905e-06 3.38337e-06 1.46779e-05 5.08019e-05 3.07731e-06 1.1004e-05 -2.19528e-06 2.63743e-06 -9.44354e-06 -1.69084e-06 -2.86846e-06 -6.74651e-07 -8.886e-07 -9.55675e-06 0 -8.52745e-06 -7.01229e-05 -2.5262e-06 7.62407e-07 -5.46503e-06 6.58256e-07 -1.61483e-05
internal_weight=0 563342 31994 389849 531348 98638 54724 322498 7213 2607 315285 14781 43914 300504 30951 432710 193596 239114 67351 5110 62241 6290 1043 4606 55951 20831 1731 10120
internal_count=953191 563342 31994 389849 531348 98638 54724 322498 7213 2607 315285 14781 43914 300504 30951 432710 193596 239114 67351 5110 62241 6290 1043 4606 55951 20831 1731 10120
is_linear=0
shrinkage=0.03


Tree=29
num_leaves=29
num_cat=0
split_feature=112 8 140 97 150 64 120 136 83 142 96 113 41 115 54 143 125 109 118 88 144 64 54 42 159 77 42 106
split_gain=0.00352037 0.00440635 0.00267311 0.00665838 0.00660889 0.00188099 0.00131387 0.001587 0.00143696 0.00117867 0.00135507 0.00113011 0.00265461 0.00105366 0.000994839 0.000699698 0.00312683 0.00067639 0.00087268 0.000654191 0.000644321 0.000581805 0.00060476 0.000470188 0.000436897 0.000387092 0.000153333 8.69189e-05
threshold=0.00061099489070281122 -0.031680347535914193 -0.0087518374558308749 -0.013121958822011946 -0.0073563743014863105 0.011458026729323586 0.0059476563047270734 0.0037924923214587678 -0.0092943855561315996 0.00083892658411583441 0.0016007295216879673 0.026946523226797584 0.0058089725207537421 0.024165828712284568 -0.0039980440277867799 -0.02724416088312864 -0.00053674180526286353 -0.0055037396959960452 -0.0043342050559627933 -1.0000000180025095e-35 0.020815539223057265 0.00041794050817029735 -0.0015168492162683856 -0.003412229095874754 0.018454579636454586 0.077053293585777297 0.00013124951072983015 -0.00085373742521111233
decision_type=6 6 6 6 6 4 6 4 4 6 6 4 6 6 6 6 6 6 6 4 6 6 6 6 6 4 6 6
left_child=9 2 5 4 -4 14 7 8 -3 10 21 17 -13 -9 -2 16 -12 18 -11 20 -8 22 -1 -23 -17 -19 -21 -5
right_child=1 6 3 27 -6 -7 19 13 -10 11 15 12 -14 -15 -16 24 -18 25 -20 26 -22 23 -24 -25 -26 -27 -28 -29
