tree
version=v4
num_class=1
num_tree_per_iteration=1
label_index=0
max_feature_idx=173
objective=regression
feature_names=log_close/mean_60_id0 log_return_60_id0 log_close/mean_300_id0 log_return_300_id0 log_close/mean_900_id0 log_return_900_id0 log_close/mean_60_id1 log_return_60_id1 log_close/mean_300_id1 log_return_300_id1 log_close/mean_900_id1 log_return_900_id1 log_close/mean_60_id2 log_return_60_id2 log_close/mean_300_id2 log_return_300_id2 log_close/mean_900_id2 log_return_900_id2 log_close/mean_60_id3 log_return_60_id3 log_close/mean_300_id3 log_return_300_id3 log_close/mean_900_id3 log_return_900_id3 log_close/mean_60_id4 log_return_60_id4 log_close/mean_300_id4 log_return_300_id4 log_close/mean_900_id4 log_return_900_id4 log_close/mean_60_id5 log_return_60_id5 log_close/mean_300_id5 log_return_300_id5 log_close/mean_900_id5 log_return_900_id5 log_close/mean_60_id6 log_return_60_id6 log_close/mean_300_id6 log_return_300_id6 log_close/mean_900_id6 log_return_900_id6 log_close/mean_60_id7 log_return_60_id7 log_close/mean_300_id7 log_return_300_id7 log_close/mean_900_id7 log_return_900_id7 log_close/mean_60_id8 log_return_60_id8 log_close/mean_300_id8 log_return_300_id8 log_close/mean_900_id8 log_return_900_id8 log_close/mean_60_id9 log_return_60_id9 log_close/mean_300_id9 log_return_300_id9 log_close/mean_900_id9 log_return_900_id9 log_close/mean_60_id10 log_return_60_id10 log_close/mean_300_id10 log_return_300_id10 log_close/mean_900_id10 log_return_900_id10 log_close/mean_60_id11 log_return_60_id11 log_close/mean_300_id11 log_return_300_id11 log_close/mean_900_id11 log_return_900_id11 log_close/mean_60_id12 log_return_60_id12 log_close/mean_300_id12 log_return_300_id12 log_close/mean_900_id12 log_return_900_id12 log_close/mean_60_id13 log_return_60_id13 log_close/mean_300_id13 log_return_300_id13 log_close/mean_900_id13 log_return_900_id13 mean_close/mean_60 mean_log_returns_60 log_close/mean_60-mean_close/mean_60_id0 log_return_60-mean_log_returns_60_id0 log_close/mean_60-mean_close/mean_60_id1 log_return_60-mean_log_returns_60_id1 log_close/mean_60-mean_close/mean_60_id2 log_return_60-mean_log_returns_60_id2 log_close/mean_60-mean_close/mean_60_id3 log_return_60-mean_log_returns_60_id3 log_close/mean_60-mean_close/mean_60_id4 log_return_60-mean_log_returns_60_id4 log_close/mean_60-mean_close/mean_60_id5 log_return_60-mean_log_returns_60_id5 log_close/mean_60-mean_close/mean_60_id6 log_return_60-mean_log_returns_60_id6 log_close/mean_60-mean_close/mean_60_id7 log_return_60-mean_log_returns_60_id7 log_close/mean_60-mean_close/mean_60_id8 log_return_60-mean_log_returns_60_id8 log_close/mean_60-mean_close/mean_60_id9 log_return_60-mean_log_returns_60_id9 log_close/mean_60-mean_close/mean_60_id10 log_return_60-mean_log_returns_60_id10 log_close/mean_60-mean_close/mean_60_id11 log_return_60-mean_log_returns_60_id11 log_close/mean_60-mean_close/mean_60_id12 log_return_60-mean_log_returns_60_id12 log_close/mean_60-mean_close/mean_60_id13 log_return_60-mean_log_returns_60_id13 mean_close/mean_300 mean_log_returns_300 log_close/mean_300-mean_close/mean_300_id0 log_return_300-mean_log_returns_300_id0 log_close/mean_300-mean_close/mean_300_id1 log_return_300-mean_log_returns_300_id1 log_close/mean_300-mean_close/mean_300_id2 log_return_300-mean_log_returns_300_id2 log_close/mean_300-mean_close/mean_300_id3 log_return_300-mean_log_returns_300_id3 log_close/mean_300-mean_close/mean_300_id4 log_return_300-mean_log_returns_300_id4 log_close/mean_300-mean_close/mean_300_id5 log_return_300-mean_log_returns_300_id5 log_close/mean_300-mean_close/mean_300_id6 log_return_300-mean_log_returns_300_id6 log_close/mean_300-mean_close/mean_300_id7 log_return_300-mean_log_returns_300_id7 log_close/mean_300-mean_close/mean_300_id8 log_return_300-mean_log_returns_300_id8 log_close/mean_300-mean_close/mean_300_id9 log_return_300-mean_log_returns_300_id9 log_close/mean_300-mean_close/mean_300_id10 log_return_300-mean_log_returns_300_id10 log_close/mean_300-mean_close/mean_300_id11 log_return_300-mean_log_returns_300_id11 log_close/mean_300-mean_close/mean_300_id12 log_return_300-mean_log_returns_300_id12 log_close/mean_300-mean_close/mean_300_id13 log_return_300-mean_log_returns_300_id13 mean_close/mean_900 mean_log_returns_900 log_close/mean_900-mean_close/mean_900_id0 log_return_900-mean_log_returns_900_id0 log_close/mean_900-mean_close/mean_900_id1 log_return_900-mean_log_returns_900_id1 log_close/mean_900-mean_close/mean_900_id2 log_return_900-mean_log_returns_900_id2 log_close/mean_900-mean_close/mean_900_id3 log_return_900-mean_log_returns_900_id3 log_close/mean_900-mean_close/mean_900_id4 log_return_900-mean_log_returns_900_id4 log_close/mean_900-mean_close/mean_900_id5 log_return_900-mean_log_returns_900_id5 log_close/mean_900-mean_close/mean_900_id6 log_return_900-mean_log_returns_900_id6 log_close/mean_900-mean_close/mean_900_id7 log_return_900-mean_log_returns_900_id7 log_close/mean_900-mean_close/mean_900_id8 log_return_900-mean_log_returns_900_id8 log_close/mean_900-mean_close/mean_900_id9 log_return_900-mean_log_returns_900_id9 log_close/mean_900-mean_close/mean_900_id10 log_return_900-mean_log_returns_900_id10 log_close/mean_900-mean_close/mean_900_id11 log_return_900-mean_log_returns_900_id11 log_close/mean_900-mean_close/mean_900_id12 log_return_900-mean_log_returns_900_id12 log_close/mean_900-mean_close/mean_900_id13 log_return_900-mean_log_returns_900_id13
feature_infos=[-0.20535693831193275:0.20378711353993445] [-0.2908763587474823:0.30023872852325439] [-0.35128862017276341:0.22281339499391656] [-0.45682042837142944:0.35904914140701294] [-0.45705708696431668:0.31418866333185347] [-0.54000300168991089:0.55262202024459839] [-0.1580825908961882:0.15852327224531729] [-0.22499485313892365:0.28130057454109192] [-0.22006655580673407:0.15365908300927966] [-0.30769342184066772:0.27611792087554932] [-0.32301365511633512:0.21028144151618849] [-0.4518750011920929:0.31098797917366028] [-0.31038157641878239:0.14549028558998237] [-0.35180538892745972:0.26072987914085388] [-0.42376710400673467:0.21683164242553649] [-0.47162866592407227:0.45715206861495972] [-0.49840475042281623:0.26587698868246323] [-0.60054647922515869:0.40749111771583557] [-0.237798370210139:0.20142147658456636] [-0.39595037698745728:0.33215472102165222] [-0.42492175587183234:0.1768565961607986] [-0.49593010544776917:0.53176021575927734] [-0.50904276099736534:0.21357250960082447] [-0.63139426708221436:0.38843750953674316] [-0.32319639456862753:0.45838757681411191] [-0.48994320631027222:0.69719934463500977] [-0.43604905127516208:0.74400819091916204] [-0.71376359462738037:1.194722056388855] [-0.50238374352560733:1.1415253983403066] [-0.79540836811065674:1.8864371776580811] [-0.31055279386212298:0.13355226122710093] [-0.41311508417129517:0.26253232359886169] [-0.44516348149192642:0.22921558231943592] [-0.52244842052459717:0.41760876774787903] [-0.53339558371715423:0.34731258370106916] [-0.66061711311340332:0.46513435244560242] [-0.20036086273848705:0.14732778958284506] [-0.27925035357475281:0.3378961980342865] [-0.28325218935980334:0.16002272314562913] [-0.35857033729553223:0.33399242162704468] [-0.3678769848497907:0.16808271563101101] [-0.49657177925109863:0.33074262738227844] [-0.26752199047750902:0.20890585154464339] [-0.39298385381698608:0.28303736448287964] [-0.43635595868338822:0.28414862217948067] [-0.52380156517028809:0.49623996019363403] [-0.54068665618829326:0.36974756981099305] [-0.67639374732971191:0.49307805299758911] [-0.31742269995713057:0.19761863764934123] [-0.5028069019317627:0.34867843985557556] [-0.55672439781943417:0.21233866181363698] [-0.65487521886825562:0.48881691694259644] [-0.6605936888693118:0.31362848400395132] [-0.76809412240982056:0.47475409507751465] [-0.26908071830553676:0.16471056728076916] [-0.41747716069221497:0.29390084743499756] [-0.44269353487296836:0.14025636274540143] [-0.52015507221221924:0.30421304702758789] [-0.51820072734188793:0.20759375996723969] [-0.61698234081268311:0.35399347543716431] [-0.27148819282418363:0.25843376421151354] [-0.35745590925216675:0.38075369596481323] [-0.42341885440248345:0.27715245453164111] [-0.5488935112953186:0.42322754859924316] [-0.43301278179733843:0.35364269737924292] [-0.82452213764190674:0.63670700788497925] [-0.27483390293261473:0.20088357259985412] [-0.40033093094825745:0.29491055011749268] [-0.43342673572929691:0.13264179401991313] [-0.50569230318069458:0.36705696582794189] [-0.53420533580064067:0.16769181113352924] [-0.65955096483230591:0.32205310463905334] [-0.34648344688391558:0.18752017320381262] [-0.42229971289634705:0.2651425302028656] [-0.46423239004375905:0.27485590898843587] [-0.53297483921051025:0.49033546447753906] [-0.54151307118260816:0.45662551438679272] [-0.64983010292053223:0.62171149253845215] [-0.20887820068669979:0.22552045322512096] [-0.28552186489105225:0.30489152669906616] [-0.32497054717289514:0.30337113530568094] [-0.38916972279548645:0.32524752616882324] [-0.40633056609100521:0.33123815227033149] [-0.51571476459503174:0.35060742497444153] [-0.24448485930612587:0.15045216974056719] [-0.34892386198043823:0.26400882005691528] [-0.10214403339103181:0.12290112686340456] [-0.15996114909648895:0.14588131010532379] [-0.061598990594702641:0.16049339959629552] [-0.078647240996360779:0.17572081089019775] [-0.091587793937298656:0.093712547671730595] [-0.1222747415304184:0.14584788680076599] [-0.06047592164948782:0.1107390150200588] [-0.086680926382541656:0.1538846492767334] [-0.28824560391639337:0.43039494888814717] [-0.43889874219894409:0.65508413314819336] [-0.16509384560130405:0.11836620551055638] [-0.17175093293190002:0.21677957475185394] [-0.048303044983155248:0.092038935248194939] [-0.061367738991975784:0.098771378397941589] [-0.10006442403666907:0.17559835841515017] [-0.17070841789245605:0.23264473676681519] [-0.11509856239002714:0.096107386238827197] [-0.15388303995132446:0.13562555611133575] [-0.10903226321018095:0.066283126086546684] [-0.12003786861896515:0.083162121474742889] [-0.2460458673841677:0.24771920988264046] [-0.31419992446899414:0.38896173238754272] [-0.073524998289685339:0.074282013195527824] [-0.11041175574064255:0.1046300083398819] [-0.13284692724084057:0.14734911957448993] [-0.14881235361099243:0.20564231276512146] [-0.088541400071440624:0.20584275144443742] [-0.11849444359540939:0.28341671824455261] [-0.38339095489656821:0.12721600046505085] [-0.45483472943305969:0.40116152167320251] [-0.18100907019821144:0.21907018010500356] [-0.19449974596500397:0.27564132213592529] [-0.06265029343333807:0.22649239561489279] [-0.20538106560707092:0.25352692604064941] [-0.090222356066625958:0.15479270632371531] [-0.17041608691215515:0.18438617885112762] [-0.090381940850401771:0.14757455051900464] [-0.11430668830871582:0.17835196852684021] [-0.42259913117181719:0.69610597055313628] [-0.69022631645202637:1.1064443588256836] [-0.1688854072810928:0.19939686118834421] [-0.17243051528930664:0.36502358317375183] [-0.058538389975097069:0.11330860927904066] [-0.10374678671360016:0.13604684174060822] [-0.14047933912701488:0.23015506510804457] [-0.2409873902797699:0.3452095091342926] [-0.17333344292286595:0.19341779325652883] [-0.20907261967658997:0.30069488286972046] [-0.10874387515187836:0.085663279807585146] [-0.11480744928121567:0.11203838139772415] [-0.2887122682018054:0.23585423671493427] [-0.37178182601928711:0.3513978123664856] [-0.12163209685486187:0.10664627600293375] [-0.22406260669231415:0.14946731925010681] [-0.1465442690718684:0.23498749243738667] [-0.17055049538612366:0.33392477035522461] [-0.12981815085620296:0.26323766442506491] [-0.18433228135108948:0.27271997928619385] [-0.46856163141943213:0.15170082243176369] [-0.58271610736846924:0.32547479867935181] [-0.16844455855147486:0.28905428158880858] [-0.21312291920185089:0.50426441431045532] [-0.091944749452227928:0.26808442664415433] [-0.16305463016033173:0.30882757902145386] [-0.10210254466249674:0.18355345880837032] [-0.18976090848445892:0.29525384306907654] [-0.098770969019875698:0.16683372450617806] [-0.18083846569061279:0.2303193211555481] [-0.43379084171123711:1.0499224994867702] [-0.68829107284545898:1.7372318506240845] [-0.17373140709635698:0.29500840275848461] [-0.22800928354263306:0.38053932785987854] [-0.10140760376350466:0.11413933097824881] [-0.18115898966789246:0.15770363807678223] [-0.16413535377847743:0.35412790626475943] [-0.2228727787733078:0.45933210849761963] [-0.20176666331982257:0.2782823212843577] [-0.22791194915771484:0.42157912254333496] [-0.10646763509915408:0.11349676322774442] [-0.13749343156814575:0.17052073776721954] [-0.26030137576096374:0.29415193362013015] [-0.53565067052841187:0.42921683192253113] [-0.16905950402469622:0.14337823806574315] [-0.2251436710357666:0.21701470017433167] [-0.14785551570691557:0.38528713731226799] [-0.20824933052062988:0.52859348058700562] [-0.16528498016444246:0.27152434790796959] [-0.25326845049858093:0.33535650372505188]
tree_sizes=3348 3127 3177 3176 2472 3214 3252 2870 3081 2968 3232 3241 3270 3172 3080 3191 3247 3219 3177 3257

Tree=0
num_leaves=31
num_cat=0
split_feature=168 64 109 64 154 108 147 166 135 84 155 127 154 161 138 124 139 79 1 32 71 124 115 108 106 108 120 108 25 97
split_gain=0.0117684 0.00634506 0.00831092 0.00504049 0.00529883 0.00556633 0.00467358 0.00345623 0.00282668 0.0262208 0.060822 0.00445068 0.00256867 0.00224314 0.00196524 0.00184044 0.0017481 0.00170628 0.00169011 0.00156157 0.00175599 0.0013545 0.00184893 0.00114818 0.000869514 0.000860636 0.000749693 0.000633684 0.000553793 0.000363195
threshold=-0.001964297546170982 0.0046254196733785981 0.0036165609490126376 0.00071118711927946343 0.0021947367476056654 -0.0038985310574949287 -0.020211174152791497 0.021291205491588999 0.022941797971725467 -0.019711040170082555 0.037009568884968765 0.019249353557825092 0.052636900310304151 0.017463751137256626 -0.0014910726452305393 0.0013497783446134325 0.00045431987382471567 -0.027480193413794037 -0.012486636172980068 0.0032795215380768241 0.024107537232339386 0.0059060238567398976 -0.037169026210904114 -0.00026443948192029858 0.0015151051266539706 -0.0022699451403813331 0.0027984567006640337 -3.5336951174925887e-05 0.0017880300292745235 0.0023724676575511698
decision_type=4 4 4 6 6 6 4 4 6 6 6 6 4 6 6 6 6 4 6 6 6 4 4 6 6 6 4 6 6 6
left_child=3 8 15 4 5 7 16 -1 11 10 -10 17 -8 -11 -7 23 -4 -2 -13 26 29 25 -23 -3 -22 -6 -5 -17 -28 -21
right_child=1 2 6 19 21 14 12 -9 9 13 -12 18 -14 -15 -16 27 -18 -19 -20 20 24 22 -24 -25 -26 -27 28 -29 -30 -31
leaf_value=2.6484987822415885e-05 1.1471579235731934e-05 2.8217118839847886e-05 2.6176487703015988e-05 2.6700920786856838e-05 3.5827167025015889e-05 3.5344750084624294e-05 1.876956296832774e-05 5.2891060384399242e-05 2.6176487703015988e-05 2.329210640870659e-05 0.0011886382989539938 -3.5781043100561133e-05 4.2549571087036224e-06 7.0272806098180062e-05 2.7442965870445706e-05 2.2895835105310899e-05 -8.1410707998247318e-06 2.8826372024903876e-05 1.4368762261897403e-05 2.3348858296163109e-05 2.0518640434187218e-05 3.8103694007188724e-05 1.9616231491021444e-05 2.2805352245128701e-05 4.9276107125589528e-06 2.6773124915561255e-05 4.0888017274787482e-05 1.5638795987421255e-05 2.6176487703015988e-05 2.8640838085921415e-05
leaf_weight=6955 5089 78598 2197 46416 15090 92982 72491 23383 170 3385 58 1194 14949 1083 47578 33593 11689 133290 3772 31407 13872 5189 34924 62972 6883 36619 6926 25707 2786 16346
leaf_count=6955 5089 78598 2197 46416 15090 92982 72491 23383 170 3385 58 1194 14949 1083 47578 33593 11689 133290 3772 31407 13872 5189 34924 62972 6883 36619 6926 25707 2786 16346
internal_value=2.61765e-05 2.28257e-05 2.03218e-05 2.99573e-05 3.23233e-05 3.54487e-05 1.32853e-05 4.73323e-05 2.78354e-05 5.08484e-05 0.000364582 2.69765e-05 1.61161e-05 3.13387e-05 3.27769e-05 2.39461e-05 -3.45637e-06 2.80795e-05 -7.28416e-07 2.50904e-05 2.1968e-05 2.6343e-05 2.23822e-05 2.59158e-05 1.4624e-05 2.97057e-05 2.86342e-05 1.94967e-05 3.63277e-05 2.54744e-05
internal_weight=0 450237 302196 387356 262720 170898 101326 30338 148041 4696 228 143345 87440 4468 140560 200870 13886 138379 4966 124636 68508 91822 40113 141570 20755 51709 56128 59300 9712 47753
internal_count=837593 450237 302196 387356 262720 170898 101326 30338 148041 4696 228 143345 87440 4468 140560 200870 13886 138379 4966 124636 68508 91822 40113 141570 20755 51709 56128 59300 9712 47753
is_linear=0
shrinkage=1


Tree=1
num_leaves=30
num_cat=0
split_feature=108 64 114 102 10 124 169 168 64 138 136 67 155 12 166 61 29 5 64 165 116 61 151 60 75 131 43 29 107
split_gain=0.0132521 0.0103177 0.0081078 0.0210865 0.116392 0.00650997 0.00646406 0.00396808 0.00389426 0.00987369 0.00364616 0.00320233 0.00221802 0.00214406 0.00351985 0.00197268 0.0017727 0.0015988 0.00152374 0.00150886 0.00143862 0.00142184 0.001309 0.00129753 0.000989028 0.000833445 0.000778395 0.00030977 0.000131127
threshold=0.0069608745951921297 0.077245712526891899 -0.039276155634817907 -0.0060859939703628765 -0.094120111377975199 0.0047837270056491086 0.0013803457841277125 0.02388921030204209 -0.022326972431627345 -0.0029811290006597517 -0.036424905794635754 0.029298680834472183 0.0021204131189733748 -0.003769550758302181 0.023743303286867159 0.00019935766613343733 -0.035942446440458291 -0.122426800429821 0.00036071690666434779 0.014320547692477705 0.0047437351751150022 -0.0055291943717747918 -0.0043969452381134025 0.00037809184092665041 -0.058816380798816674 -0.00096082966774702061 -0.021077737212181088 0.005031601758673788 0.032212197780609138
decision_type=4 4 6 6 6 6 6 4 6 6 6 4 4 4 4 4 4 6 6 6 6 4 6 4 6 6 6 6 4
left_child=5 2 3 4 -2 6 8 16 9 -1 22 -12 19 14 -14 24 28 -9 -17 23 -10 -21 -4 -7 -8 -15 -5 -18 -3
right_child=1 7 10 26 -6 12 15 17 20 -11 11 -13 13 25 -16 18 27 -19 -20 21 -22 -23 -24 -25 -26 -27 -28 -29 -30
leaf_value=1.5291996341654755e-05 0.0012373138184775599 0 0 1.5318488432323205e-06 0 3.9988845959306623e-06 -1.4433748783684607e-05 -0.00018708418054905443 -6.0659400915489176e-09 1.6383160239841382e-06 0 -3.335676981303373e-05 -3.2118294656972101e-06 -7.6507499738040591e-07 -2.5280813729353734e-05 -1.4650837513580698e-06 -2.9936114397216254e-05 -5.0072302804647002e-05 -8.1221665323208545e-06 3.4471240487434446e-05 6.8072298688668935e-06 2.0665762873648233e-06 -0.00015483618581002925 -7.3341218910721821e-06 3.279587537499134e-06 -7.7485283978148703e-06 -5.3509919632427331e-05 -1.1133089485595664e-05 1.7272207497741655e-05
leaf_weight=85651 83 732 111 811 401 15530 2671 173 135474 113857 16256 2915 15249 38052 14283 159139 11247 4329 41462 2104 33789 5862 207 19314 80145 33945 242 4006 424
leaf_count=85651 83 732 111 811 401 15530 2671 173 135474 113857 16256 2915 15249 38052 14283 159139 11247 4329 41462 2104 33789 5862 207 19314 80145 33945 242 4006 424
internal_value=0 -1.65001e-05 -9.16188e-07 6.44874e-05 0.000228513 8.0068e-07 2.09276e-06 -3.1451e-05 4.71982e-06 7.57527e-06 -6.84992e-06 -4.35465e-06 -4.93355e-06 -7.36005e-06 -1.43943e-05 -1.27255e-06 -2.30413e-05 -5.87484e-05 -2.91587e-06 4.70887e-07 1.26548e-06 1.25144e-05 -0.000109438 -1.85259e-06 2.52684e-06 -4.26608e-06 0 -2.59831e-05 2.7992e-06
internal_weight=0 41937 21026 1537 484 796527 652188 20911 368771 199508 19489 19171 144339 101529 29532 283417 16409 4502 200601 42810 169263 7966 318 34844 82816 71997 1053 15253 1156
internal_count=838464 41937 21026 1537 484 796527 652188 20911 368771 199508 19489 19171 144339 101529 29532 283417 16409 4502 200601 42810 169263 7966 318 34844 82816 71997 1053 15253 1156
is_linear=0
shrinkage=0.03


Tree=2
num_leaves=31
num_cat=0
split_feature=108 26 60 106 116 108 64 25 169 168 154 124 124 151 18 36 95 74 64 91 126 90 30 126 148 18 124 60 91 124
split_gain=0.0105431 0.00783947 0.00567979 0.0224719 0.0579181 0.00922635 0.00499807 0.00459122 0.00391802 0.0035356 0.0029795 0.00218035 0.00207456 0.00175441 0.0017273 0.00146566 0.00144199 0.00140382 0.00136413 0.00131181 0.00106431 0.000943253 0.000937462 0.000928552 0.000808913 0.000750061 0.00421548 0.000700306 2.47341e-05 1.07462e-05
threshold=-0.001603037075072629 -0.036693639654825298 -0.00077264077682288521 0.018504879349255651 -0.0045925916566060361 0.0024514387997276372 0.068120641524238482 -0.042074995115399354 0.019366838037967685 -0.0026180116656414373 0.0063441752525749623 -0.001533220034242024 -0.0043190782261488822 -0.005906839855015277 0.0029796979202299906 -0.0012473354938439915 -0.018867526203393933 0.0039586577095315646 0.024171057477494217 -0.0062374274712055913 -0.0020753157095694491 0.0013079984114635914 -0.0054518765513420836 0.0050809477518027292 -0.0030520438718730212 0.0093168301521412873 0.017281652105938388 -0.00072730182835202171 -0.00018140429165214297 -0.014752170017593205
decision_type=4 6 4 6 6 4 4 6 6 6 4 6 6 6 6 6 4 6 6 6 6 6 6 6 6 6 6 6 6 6
left_child=1 9 3 10 -5 11 13 16 23 25 21 18 27 17 -14 -13 -7 -3 -4 -12 -10 -2 -9 -8 -15 26 -1 -11 -6 -27
right_child=2 6 5 4 28 7 8 22 20 12 19 15 14 24 -16 -17 -18 -19 -20 -21 -22 -23 -24 -25 -26 29 -28 -29 -30 -31
leaf_value=2.4702721532039138e-05 2.8755843907277021e-06 0 2.582200402453277e-06 0.0010502529838016595 1.3344863477395847e-05 0 8.6498175802850838e-06 -1.8239066038226837e-05 -1.9843832512259765e-05 1.3454750252268199e-05 -1.742207606005562e-05 -7.891799899970528e-06 -6.2725241366185156e-05 -1.4041168829173461e-06 0 -1.3471106990823195e-06 -2.6408252345497053e-05 -9.9363989826327169e-06 -7.9444573610511283e-06 -1.6770081677530981e-06 0 9.3948497374866041e-06 -6.7814503893855708e-06 1.8359705122672153e-05 4.789589103714982e-06 2.5358538256595471e-06 0.00015576561614204107 0 0 0
leaf_weight=21242 81898 29820 131576 64 123 1179 71712 9108 4093 9334 6094 48013 694 27647 143 107487 19104 25735 11556 37849 7280 32688 86763 14656 45175 1502 269 4365 75 192
leaf_count=21242 81898 29820 131576 64 123 1179 71712 9108 4093 9334 6094 48013 694 27647 143 107487 19104 25735 11556 37849 7280 32688 86763 14656 45175 1502 269 4365 75 192
internal_value=0 5.28548e-06 -1.9569e-06 2.81388e-06 0.000279839 -3.81944e-06 3.09247e-06 -1.10065e-05 8.21682e-06 1.80262e-05 2.2579e-06 -9.73719e-07 5.08917e-06 -6.92216e-07 -3.7563e-05 -3.46442e-06 -2.43492e-05 -4.79549e-06 1.62742e-06 -4.20256e-06 -7.58623e-06 4.86637e-06 -8.02677e-06 1.04716e-05 2.23219e-06 2.54827e-05 2.70533e-05 8.7951e-06 0 0
internal_weight=0 263859 573577 158791 262 414786 226118 116154 97741 37741 158529 298632 14536 128377 837 155500 20283 55555 143132 43943 11373 114586 95871 86368 72822 23205 21511 13699 198 1694
internal_count=837436 263859 573577 158791 262 414786 226118 116154 97741 37741 158529 298632 14536 128377 837 155500 20283 55555 143132 43943 11373 114586 95871 86368 72822 23205 21511 13699 198 1694
is_linear=0
shrinkage=0.03


Tree=3
num_leaves=30
num_cat=0
split_feature=66 108 27 27 168 62 108 60 94 14 155 91 139 167 65 106 150 90 123 156 163 166 96 116 136 95 40 166 136
split_gain=0.0111445 0.0073592 0.00697014 0.00491807 0.00484542 0.00303176 0.00295729 0.00277666 0.00435942 0.00461415 0.00221468 0.00294166 0.0021686 0.00207327 0.00196042 0.00161063 0.00155023 0.00154876 0.0013136 0.00112583 0.00097335 0.00077383 0.00076749 0.00076273 0.000647518 0.000542107 0.000439768 0.000365915 3.02786e-05
threshold=0.0078806405908305784 -0.000399214039155725 -0.043356498703360551 0.06210144795477391 -0.00023161176583374796 -0.00079699548420129125 0.0030362365236729695 -0.0029426897371063105 0.0019886201053430186 -0.0077695542663127086 0.0032725352793931965 0.013292675837874414 0.0034395267721265559 -0.028851050883531567 -0.023447213694453236 0.00054620848364252573 -0.0094653003895038782 0.0034678344841964424 -0.00011566979810595511 0.0064133904233833351 -0.012316633015871046 -0.033314487838541393 -0.0041229927295688366 0.0017020736766628645 0.0078335253531358999 0.0025906508089974527 0.01160587837911572 -0.02008759869431755 -0.027800078673721366
decision_type=6 6 6 4 4 6 6 4 4 4 4 6 6 4 4 6 6 6 6 6 6 4 6 4 4 6 6 4 4
left_child=1 2 4 6 16 14 17 10 23 -10 21 -12 18 20 -4 -6 -1 25 27 -7 -8 -3 -15 -9 -20 -2 -19 -5 -14
right_child=3 7 5 12 15 19 13 8 9 -11 11 -13 28 22 -16 -17 -18 26 24 -21 -22 -23 -24 -25 -26 -27 -28 -29 -30
leaf_value=3.8800982230930605e-05 -6.7824924176160485e-06 -9.7739875564461984e-06 -1.4880874272663851e-06 2.5010510409408718e-05 6.4225581357567346e-06 -7.853392365991153e-08 1.8128046302267667e-05 -2.1661250814730113e-06 -2.2243577691681316e-05 -4.9348912826149166e-06 -4.3483099437274375e-06 5.4179362193298951e-05 0 -3.3688445017873544e-05 5.7826597320520372e-06 -1.3056173404519364e-05 1.6638546356894123e-05 2.6440887416957729e-05 0 -8.2210280618048124e-06 -5.8741178661948426e-06 7.9334806268167695e-06 -1.3426343982884972e-05 1.5341624308920156e-06 -3.9412450071577631e-05 5.0932360094658726e-06 0 -2.7824572104577557e-06 -4.2534772593327574e-05
leaf_weight=4545 10802 1580 37543 493 13650 98467 2349 146492 19018 65773 33775 763 100 3205 173030 5205 35078 2446 701 19022 3327 47752 25530 71674 1563 3733 2090 2541 6543
leaf_count=4545 10802 1580 37543 493 13650 98467 2349 146492 19018 65773 33775 763 100 3205 173030 5205 35078 2446 701 19022 3327 47752 25530 71674 1563 3733 2090 2541 6543
internal_value=0 1.05814e-06 3.99799e-06 -1.18358e-05 1.35911e-05 2.2422e-06 -7.56791e-06 -1.84076e-06 -3.20184e-06 -8.99444e-06 2.89688e-06 -2.618e-06 -2.96907e-05 -1.28665e-05 4.41512e-06 2.49099e-07 1.95611e-05 1.20662e-06 -1.12096e-05 -1.52463e-06 1.42024e-06 7.06192e-06 -1.62105e-05 -8.81714e-07 -2.85592e-05 -2.70034e-06 1.7027e-05 0 -4.21649e-05
internal_weight=0 773367 386540 65423 58478 328062 53482 386827 302957 84791 83870 34538 11941 34411 210573 18855 39623 19071 5298 117489 5676 49332 28735 218166 2264 14535 4536 3034 6643
internal_count=838790 773367 386540 65423 58478 328062 53482 386827 302957 84791 83870 34538 11941 34411 210573 18855 39623 19071 5298 117489 5676 49332 28735 218166 2264 14535 4536 3034 6643
is_linear=0
shrinkage=0.03


Tree=4
num_leaves=24
num_cat=0
split_feature=9 151 108 64 163 78 133 156 156 124 98 60 140 3 64 62 124 124 59 44 84 136 98
split_gain=0.012769 0.155223 0.0128127 0.00929056 0.00847517 0.0123279 0.0120417 0.017362 0.00502352 0.00434987 0.00415169 0.00403964 0.00366668 0.0034826 0.00287357 0.00286802 0.00419632 0.00260514 0.00220745 0.00248466 0.00188666 0.00134448 0.00108308
threshold=-0.095933154225349412 0.059948153793811805 0.0025980211283950002 0.0047148903555367869 -0.020267607644200322 -0.0076095393242215249 -0.019518085755407807 -0.010901278435075858 -0.0079368680346438483 -0.0019178486632544806 -0.004064476164798797 0.0062666348825458264 -0.0013726108245464799 -0.012603487819433211 0.036825931583276537 -0.061193713077288506 0.0017451751605936231 -0.1024505225275896 -0.016253870911896225 -0.0068494038850923158 0.003652421677836496 -0.0033405610154382914 0.0063005776783471483
decision_type=6 6 6 4 6 6 6 6 6 6 6 6 6 4 4 6 6 6 4 6 6 6 6
left_child=1 4 9 15 5 12 7 -6 -8 11 13 14 -1 -5 -2 16 -4 -12 21 -20 -17 -11 -13
right_child=2 -3 3 10 6 -7 8 -9 -10 18 17 22 -14 -15 -16 20 -18 -19 19 -21 -22 -23 -24
leaf_value=0.00038078417929069953 1.8186529203735095e-06 0.0014485454898870861 -0.00010811520780112715 -8.1972383139573027e-05 0 0 -4.9565061708321277e-05 -0.00046195816342612566 9.5754101215940555e-05 -6.6789774341148848e-06 -2.1942384901906975e-05 -2.7555770923960453e-06 0 -2.0484134902335443e-05 8.2852672661686872e-06 5.9621537532162591e-06 0 -8.5701413484774877e-06 6.9423910328663803e-06 -3.8184499105179419e-07 -9.5880950332146676e-06 0 -2.2641977993982706e-05
leaf_weight=145 113153 70 510 1472 136 207 299 125 430 67238 18134 32709 101 4651 157643 46087 579 85312 51412 204707 7667 42839 3084
leaf_count=145 113153 70 510 1472 136 207 299 125 430 67238 18134 32709 101 4651 157643 46087 579 85312 51412 204707 7667 42839 3084
internal_value=0 8.70708e-05 -9.70024e-08 -7.62139e-06 8.73148e-06 0.000123319 -2.87228e-05 -0.000208896 1.56589e-05 1.71949e-06 -1.2688e-05 4.36056e-06 0.000269516 -3.77371e-05 5.6386e-06 2.22769e-06 -4.49873e-05 -1.10597e-05 -4.50733e-07 1.02986e-06 3.46489e-06 -4.03189e-06 -4.88925e-06
internal_weight=0 1513 837197 164412 1443 453 990 261 729 672785 109569 306589 246 6123 270796 54843 1089 103446 366196 256119 53754 110077 35793
internal_count=838710 1513 837197 164412 1443 453 990 261 729 672785 109569 306589 246 6123 270796 54843 1089 103446 366196 256119 53754 110077 35793
is_linear=0
shrinkage=0.03


Tree=5
num_leaves=31
num_cat=0
split_feature=138 27 64 24 138 95 154 50 116 93 166 108 107 148 84 58 103 90 146 106 64 166 146 119 147 108 151 66 25 26
split_gain=0.00895258 0.0100506 0.00830715 0.00482769 0.00375112 0.00394799 0.00275443 0.00265995 0.00757987 0.0025722 0.00225493 0.00311764 0.00203741 0.00208285 0.0019536 0.00187691 0.00260556 0.00186616 0.0016886 0.00158062 0.00133146 0.00129485 0.00124504 0.0012405 0.00105964 0.00108192 0.000864605 0.000700238 0.000593393 0.00011045
threshold=0.0024352930151483017 0.066833637654781355 0.0052320359605586434 -0.0039816199901239815 -0.0028347069529404442 0.0047502978704869756 0.0055885878612046119 -0.033774969928083556 -0.0097764440781703005 -0.0042089824564754954 -0.011187288271926632 -0.0024338322538079954 0.0078645232133567351 0.0018544332313246668 -0.0059151585490391338 -0.023941598500936887 -0.0023878788342699404 0.00054142490273287162 -0.033361437502626705 -0.0045135620634671322 0.0011704828725100148 -0.0092686937130564036 -0.010636330513982108 -0.0044624044094234696 -0.020211174152791497 0.00047273274948675593 -0.0073485900647938243 0.0007700406995063729 -0.00060842066886834789 0.0012421744779520477
decision_type=4 4 4 6 6 4 4 6 6 6 6 4 6 6 6 6 6 6 6 4 4 4 4 4 6 6 4 6 6 4
left_child=3 2 12 4 5 19 10 8 -4 14 11 -5 17 -14 23 16 -6 -2 20 -1 -8 -7 -9 -3 29 -26 -12 -17 -20 -11
right_child=1 9 7 6 15 21 18 22 -10 24 26 -13 13 -15 -16 27 -18 -19 28 -21 -22 -23 -24 -25 25 -27 -28 -29 -30 -31
leaf_value=2.0235299566869146e-05 -4.0814276048429814e-07 0 -0.0001805847620474966 1.0457294457756689e-05 -3.0591819772510148e-05 0 0 -1.3637730869035291e-05 -1.4695675840509359e-05 0 -4.2513542282033388e-06 1.4767078313281593e-06 0 2.9857945746602027e-05 -2.8837977611453082e-05 5.5078165840899922e-06 0 8.3130269189372617e-06 1.8339913585013319e-07 1.466824835289261e-06 -4.3171417969606317e-05 2.019330575041163e-05 -5.0169892452519604e-06 -0.00010722523047963256 0 -1.4868159597757984e-05 5.8546624375001791e-07 -2.0238430301422147e-06 -4.4263026770880022e-06 -3.1306416155028794e-05
leaf_weight=5051 55966 141 310 49509 3689 1718 1159 20618 3060 207 49436 135338 2170 5299 5477 41132 5286 33575 28989 33446 1780 33746 121580 723 4185 14671 89749 11781 73885 4524
leaf_count=5051 55966 141 310 49509 3689 1718 1159 20618 3060 207 49436 135338 2170 5299 5477 41132 5286 33575 28989 33446 1780 33746 121580 723 4185 14671 89749 11781 73885 4524
internal_value=0 -4.65132e-06 -2.55706e-06 1.96545e-06 6.90178e-06 1.14881e-05 3.70437e-07 -7.12734e-06 -3.4502e-05 -2.11237e-05 1.77443e-06 3.96328e-06 4.14624e-06 1.95357e-05 -3.974e-05 1.17827e-06 -1.1116e-05 2.69461e-06 -3.78723e-06 4.31989e-06 -2.68671e-05 1.88456e-05 -6.37261e-06 -9.13022e-05 -1.54801e-05 -1.09713e-05 -1.02475e-06 3.54742e-06 -2.98154e-06 -3.02692e-05
internal_weight=0 272506 242578 565694 135849 73961 429845 145568 3370 29928 324032 184847 97010 7469 6341 61888 8975 89541 105813 38497 2939 35464 142198 864 23587 18856 139185 52913 102874 4731
internal_count=838200 272506 242578 565694 135849 73961 429845 145568 3370 29928 324032 184847 97010 7469 6341 61888 8975 89541 105813 38497 2939 35464 142198 864 23587 18856 139185 52913 102874 4731
is_linear=0
shrinkage=0.03


Tree=6
num_leaves=31
num_cat=0
split_feature=90 108 108 25 64 169 29 108 60 168 94 62 64 169 91 120 168 62 62 64 64 139 156 64 65 97 62 138 170 124
split_gain=0.00466142 0.00563276 0.00527829 0.00389248 0.0035343 0.00306571 0.00302413 0.00289115 0.00253324 0.00244148 0.00197184 0.0018396 0.00173008 0.00172044 0.00168096 0.0014713 0.00140786 0.00131562 0.00125606 0.00123801 0.00103781 0.0015106 0.000703895 0.000667196 0.000591644 0.00100675 0.000403839 0.000323212 0.000297666 5.28673e-05
threshold=-0.0017859730745997324 0.00056352377097256066 0.0053702586205761063 0.010569841135293247 0.010516288736657905 0.014466057997196915 -0.094104740768671022 -0.0014316056203223363 0.0041763328067178701 -0.0048506033772067617 0.0032669803691119628 0.0057665684736091689 -0.072762647934149063 -0.015369879547506569 -0.0052663255482912055 -0.0067920534209258612 0.017409805393901426 -0.013686953710173762 0.011658400747163169 -0.0099215990893875405 0.001936798041566265 -0.012492892798036335 -0.0075305583165027291 -0.00077397825456029812 -0.15620695054531095 -4.37618582509458e-05 0.0032200464482760845 -0.013216051424327737 0.0031579307773485937 0.006751267891336103
decision_type=6 6 6 4 4 6 6 6 4 4 4 6 4 6 6 6 6 6 4 6 4 6 6 6 6 6 4 6 6 6
left_child=2 6 5 8 24 7 9 19 15 10 -2 12 -8 -10 17 -3 27 -7 -9 -1 22 -22 -5 -13 29 -26 -11 -6 -16 -4
right_child=1 3 4 20 16 14 11 18 13 26 -12 23 -14 -15 28 -17 -18 -19 -20 -21 21 -23 -24 -25 25 -27 -28 -29 -30 -31
leaf_value=8.7862798875692659e-06 -8.1287980002165045e-07 1.6247836833744693e-05 4.3981866241492319e-05 1.4011675487685645e-05 0 -6.5345389334653256e-06 -2.4787650701575509e-05 0 5.2398620351874306e-06 -2.425930038649553e-06 2.2348669398761892e-05 3.8319309152121387e-06 3.7757608003857435e-06 -6.8426241672073372e-06 -5.4920918918921885e-07 1.0145358231344087e-06 -4.2848784069153293e-05 -2.8862235576956457e-05 -7.1476796690509253e-06 0 3.4098946891489637e-06 -1.518267556939359e-05 -7.3100751324704037e-06 -3.4446569772097227e-06 -1.2581293925061714e-05 9.3799566020556466e-06 5.8183816473870416e-06 -1.8373445559634586e-05 -1.1439296510250604e-05 0
leaf_weight=32235 2562 6219 250 2206 125 6977 1787 35022 11166 4042 17884 12562 275403 67105 14842 129165 4711 6901 46217 24794 3065 30223 3741 54808 5007 2337 23148 9632 3867 179
leaf_count=32235 2562 6219 250 2206 125 6977 1787 35022 11166 4042 17884 12562 275403 67105 14842 129165 4711 6901 46217 24794 3065 30223 3741 54808 5007 2337 23148 9632 3867 179
internal_value=0 1.20756e-06 -4.10545e-06 -2.24764e-06 -1.79498e-05 -2.21528e-06 3.47373e-06 -1.53647e-07 -5.78249e-07 1.06539e-05 1.8713e-05 2.43747e-06 3.53733e-06 -4.92723e-06 -1.05021e-05 1.82532e-06 -2.67413e-05 -1.87205e-05 -3.89237e-06 4.90918e-06 -1.09555e-05 -1.30201e-05 0 -1.86513e-06 0 -3.55023e-06 4.04108e-06 -1.74199e-05 -3.60275e-06 3.19472e-05
internal_weight=0 645086 193096 252890 22241 170855 392196 138268 213655 47636 20446 344560 277190 78271 32587 135384 14468 13878 81239 57029 39235 33288 5947 67370 7773 7344 27190 9757 18709 429
internal_count=838182 645086 193096 252890 22241 170855 392196 138268 213655 47636 20446 344560 277190 78271 32587 135384 14468 13878 81239 57029 39235 33288 5947 67370 7773 7344 27190 9757 18709 429
is_linear=0
shrinkage=0.03


Tree=7
num_leaves=28
num_cat=0
split_feature=66 108 62 45 130 153 78 90 31 166 61 6 29 172 163 124 168 146 27 130 124 90 23 165 137 154 138
split_gain=0.0109305 0.00609252 0.00625991 0.00608884 0.0337389 0.0772678 0.00499411 0.00447239 0.00516104 0.00513664 0.00358265 0.00358185 0.00325772 0.00289752 0.00315174 0.00283867 0.0027678 0.00220727 0.00183606 0.00169164 0.00161188 0.00151606 0.00128373 0.00111297 0.000514118 0.000391927 0.000333894
threshold=0.011022564239641966 -0.00091826700906859934 0.048150802711700975 -0.15172865986824033 -0.0072756383925506795 0.0088474834337830561 -0.013690624826129949 0.0029214645037011762 -0.020162212662398812 -0.012659517324821729 -0.0047795069403946391 -1.0281149042785485e-05 -0.0080201113596558554 0.0099419769556355637 -0.02086654398590326 0.0024843134791641464 -0.0044785775172670426 -0.00046890855259153029 0.009940702002495529 -0.00077930705710939916 0.0023332432498039055 0.0015193475020804468 0.08208546414971353 -0.0084699923172593099 0.012087041512131693 -0.009487112260356723 -0.0070557150767722896
decision_type=6 6 4 4 6 6 6 6 6 4 4 6 4 6 6 6 6 6 6 6 6 6 6 6 6 6 6
left_child=1 2 18 4 17 -6 12 11 9 -9 -8 24 -5 19 -15 16 -4 -3 21 -10 25 -1 -17 -20 -2 -13 -22
right_child=7 3 15 6 5 -7 10 8 13 -11 -12 20 -14 14 -16 22 -18 -19 23 -21 26 -23 -24 -25 -26 -27 -28
leaf_value=5.1485188205430564e-08 -5.4747986981048e-05 5.4764015829538682e-05 1.5719908478318682e-05 -5.8640196503755643e-06 0.0014084708150959449 0 4.1667250208544335e-06 0.00040792391687448663 -2.439710917526953e-05 0 -2.4015440081203149e-06 -2.8739446370901617e-05 -3.7726976947153632e-05 0.00013477859709541917 0 1.6020921489023474e-06 5.8641125673134122e-06 -5.5308975189121166e-05 -9.6677416747524015e-06 4.9348083974673001e-06 1.3812868499319611e-05 7.8562961504103513e-06 -3.9257875339954214e-05 -3.6659220220944282e-07 0 -1.2846166343421595e-05 -5.5318743667219142e-06
leaf_weight=97458 3711 284 54395 9064 51 80 92799 54 3044 56 365385 7831 5525 278 470 33794 61675 367 22639 2770 845 30749 694 31152 554 7863 4537
leaf_count=97458 3711 284 54395 9064 51 80 92799 54 3044 56 365385 7831 5525 278 470 33794 61675 367 22639 2770 845 30749 694 31152 554 7863 4537
internal_value=0 7.08936e-07 3.83367e-06 -1.45375e-06 8.17133e-05 0.000517367 -1.62339e-06 -1.71646e-05 2.75318e-06 0.000204754 -1.03848e-06 -2.30004e-05 -1.89624e-05 0 5.47687e-05 8.35957e-06 1.06124e-05 0 7.13493e-09 -7.84634e-06 -1.68214e-05 2.04047e-06 3.42732e-07 -4.56022e-06 -4.99975e-05 -2.17349e-05 0
internal_weight=0 806111 332556 473555 782 131 472773 32013 6672 110 458184 25341 14589 6562 748 150558 116070 651 181998 5814 21076 128207 34488 53791 4265 15694 5382
internal_count=838124 806111 332556 473555 782 131 472773 32013 6672 110 458184 25341 14589 6562 748 150558 116070 651 181998 5814 21076 128207 34488 53791 4265 15694 5382
is_linear=0
shrinkage=0.03


Tree=8
num_leaves=30
num_cat=0
split_feature=66 124 168 64 108 60 129 16 108 107 136 94 64 161 168 144 96 26 72 161 9 12 29 98 29 114 62 108 62
split_gain=0.00986682 0.00354182 0.00525344 0.00532513 0.00371599 0.0033893 0.00961282 0.00897578 0.00319741 0.00313552 0.00294085 0.00273002 0.00233819 0.0029747 0.00226764 0.00189203 0.00290841 0.00184573 0.00181292 0.00151539 0.00135104 0.00129127 0.000902623 0.000803487 0.000838551 0.000775227 0.000640941 0.000466584 0.000230848
threshold=0.010159303759820626 0.0011928786917826558 -4.5070997625557814e-05 -0.01377017079933656 -0.0046465179578723806 -0.005145206529846711 0.028878252021968368 -0.053187210405433609 0.0034009173629938254 0.030624818056821827 -0.0025484364582370107 0.0014875908455886588 0.0065107098159242162 0.0045975244138389834 -0.010068902133376712 -0.035217399538639033 -0.0021515109858902281 0.011853835270781248 -0.0066888732013544614 0.028364801779389385 -0.0031240154057741161 0.0027652820593658625 0.057765521109104163 0.0024128366526672009 -0.051745180040597909 0.011645679863341288 0.0052195720752820233 -0.0010455807484516897 -0.0030349051336276888
decision_type=6 6 6 6 6 4 6 6 6 6 6 6 4 6 6 6 6 4 6 6 4 6 6 4 6 6 6 6 4
left_child=1 2 3 4 -1 6 14 -8 9 23 -11 27 13 26 -3 16 -4 -17 -13 -15 -5 -14 -12 25 -25 -2 -10 -7 -23
right_child=8 5 15 20 -6 11 7 -9 12 10 22 18 21 19 -16 17 -18 -19 -20 -21 -22 28 -24 24 -26 -27 -28 -29 -30
leaf_value=2.0665621822404165e-05 0 1.4918929103159199e-05 -4.2502587226408817e-05 6.3332050742510142e-06 6.5766895499426335e-06 2.3161916401114815e-06 0.00020084015612456164 0 -2.6738977380247503e-05 0 -0.00014860657881878524 -1.6462936225769313e-05 -3.6731964279567366e-05 0 -4.1327755681237954e-07 6.2823805406985476e-07 -2.3364061476531447e-06 -6.6797864315459699e-06 -5.0346504733656943e-06 4.0233217132481509e-05 -1.39550277048718e-06 0 0 9.1434571125575959e-06 -1.9057710497424462e-05 1.6066201448622403e-05 0 -1.6914577806473445e-06 -1.749655686843885e-05
leaf_weight=20814 3263 11105 2496 25583 140230 42093 434 346 3782 144 281 16216 8691 1858 32134 194468 7412 36628 103449 1308 97880 604 83 665 2622 4644 1478 67856 9589
leaf_count=20814 3263 11105 2496 25583 140230 42093 434 346 3782 144 281 16216 8691 1858 32134 194468 7412 36628 103449 1308 97880 604 83 665 2622 4644 1478 67856 9589
internal_value=0 6.69987e-07 2.12531e-06 4.89573e-06 8.49098e-06 -2.07013e-06 5.42137e-06 0.00011027 -1.47797e-05 -3.12121e-07 -7.39716e-05 -3.57168e-06 -2.04292e-05 -4.96836e-06 3.17808e-06 -1.08296e-06 -1.39751e-05 -4.65201e-07 -6.70891e-06 1.54546e-05 8.4562e-08 -2.65324e-05 -0.000121886 1.70351e-06 -8.78952e-06 7.96323e-06 -2.01128e-05 -2.07261e-08 -1.63589e-05
internal_weight=0 799144 525511 284507 161044 273633 44019 780 39012 11702 508 229614 27310 8426 43239 241004 9908 231096 119665 3166 123463 18884 364 11194 3287 7907 5260 109949 10193
internal_count=838156 799144 525511 284507 161044 273633 44019 780 39012 11702 508 229614 27310 8426 43239 241004 9908 231096 119665 3166 123463 18884 364 11194 3287 7907 5260 109949 10193
is_linear=0
shrinkage=0.03


Tree=9
num_leaves=29
num_cat=0
split_feature=108 90 61 172 108 94 60 95 169 23 148 64 166 136 30 64 64 21 6 168 26 139 74 19 68 22 167 138
split_gain=0.00903186 0.0171858 0.0527175 0.110964 0.00587933 0.00534722 0.00398062 0.00333744 0.00301707 0.00331823 0.00314851 0.00248543 0.00231233 0.00237775 0.00179182 0.00281179 0.00231533 0.00159256 0.00145772 0.00165307 0.00135943 0.00129305 0.00232199 0.00171744 0.000700536 0.000379798 0.000291143 9.66282e-05
threshold=0.0084265436065721431 0.0086830889211208274 -0.052260030061006539 -6.0942273327408687e-05 -0.00037521643791319236 -0.016437378469260432 0.003184787954246131 0.0017173717496916654 0.0012215055176056924 -0.15308631956577298 -0.015202382692923592 0.030920183619699212 0.011663388820958886 -0.0099958159788720545 -0.0050574254309872458 -0.0083770176142302349 -0.026796174322566247 -0.0011567007750272749 -0.0024493632229886067 -0.008931307946406274 -0.0014524088051012074 0.022807850502431396 -0.0016841209937074394 -0.025735836476087567 0.00011687579073986082 -0.010352287139998726 0.03014682233333588 -0.00069385445304399657
decision_type=6 6 4 6 6 6 4 4 6 4 6 4 6 6 6 4 4 4 6 6 4 6 6 6 6 6 6 6
left_child=4 6 3 -3 5 18 12 21 9 -7 -10 20 13 -2 15 -4 -16 -13 25 -20 -9 23 -23 -6 -14 -1 27 -8
right_child=1 2 14 -5 7 8 26 11 10 -11 -12 17 24 -15 16 -17 -18 -19 19 -21 -22 22 -24 -25 -26 -27 -28 -29
leaf_value=-1.4515285560999259e-05 -2.9234772994758685e-05 0 0.00016177839351932504 0.0017089359027643999 -2.0592565831917862e-05 6.9193875412677948e-05 0 4.4992714566323567e-06 -2.5273783335699522e-05 3.8244631319587402e-06 -5.3676529329694612e-07 -1.2509201151259525e-05 3.9955500718651227e-05 -1.0755198392763898e-06 -0.00016574914442283938 0 0 -4.0631057852487518e-06 2.4934667157042118e-05 9.990259038230867e-06 -4.1875345879391244e-06 2.0625224581203616e-05 -8.3022964965611372e-07 0 0 1.5693010320260849e-06 -7.3013265117392883e-05 -3.2084071035297463e-05
leaf_weight=1610 6141 97 153 52 3684 728 313 26042 4878 215028 130154 46727 741 6951 77 102 591 47657 11861 31051 41044 7622 8201 231474 1160 2629 819 10558
leaf_count=1610 6141 97 153 52 3684 728 313 26042 4878 215028 130154 46727 741 6951 77 102 591 47657 11861 31051 41044 7622 8201 231474 1160 2629 819 10558
internal_value=0 -1.67981e-05 9.8363e-05 0.000618892 6.04762e-07 3.22019e-06 -2.19939e-05 -1.88227e-06 1.89483e-06 4.11519e-06 -1.54183e-06 -5.25099e-06 -1.03067e-05 -1.54321e-05 0 7.7059e-05 -1.13656e-05 -8.40364e-06 1.27618e-05 1.44714e-05 -5.91798e-07 2.2527e-07 8.55838e-06 -2.71719e-07 1.7088e-05 -1.00679e-06 -3.5696e-05 -3.14922e-05
internal_weight=0 27755 1072 149 810390 397939 26683 412451 350788 215756 135032 161470 14993 13092 923 255 668 94384 47151 42912 67086 250981 15823 235158 1901 4239 11690 10871
internal_count=838145 27755 1072 149 810390 397939 26683 412451 350788 215756 135032 161470 14993 13092 923 255 668 94384 47151 42912 67086 250981 15823 235158 1901 4239 11690 10871
is_linear=0
shrinkage=0.03


Tree=10
num_leaves=31
num_cat=0
split_feature=108 154 155 64 94 3 165 60 169 18 106 112 139 19 59 62 76 124 107 119 87 91 23 61 60 95 169 137 94 80
split_gain=0.00863473 0.00627131 0.00492711 0.00427303 0.00414939 0.00464228 0.00221476 0.0022095 0.00218146 0.0016834 0.00393649 0.00154358 0.00142304 0.00141458 0.00125977 0.00237754 0.00180305 0.0012472 0.00121318 0.00103601 0.00115774 0.00110468 0.000896721 0.000857142 0.000683761 0.000423599 0.000411 0.000363542 0.000360876 0.000138805
threshold=0.0003307265702041068 0.0062781621167212103 0.17778588831424716 0.00080690160785352929 -7.2713170283026618e-05 -0.13479810208082196 0.0050518047064542779 -0.00094725624037667207 -0.0018182699568569658 -0.010459662964638072 0.0018989833388500857 -0.0007995231994753476 0.0069075911305844792 -0.0068218407686799756 -0.034708263352513306 -0.0039327045360150843 0.022419747645996902 0.00078400597427329512 -0.0089353970251977426 0.0090051642619073408 0.002684062579646707 0.00084575824439525615 0.028409248217940334 -0.015114349313080309 0.0046538230568381649 0.0085777658969163912 -0.017256218008697029 -0.0073434333316981784 0.0016735069193639345 -0.010344743362822538
decision_type=6 4 4 4 4 6 6 6 6 6 4 4 6 4 4 6 6 4 4 6 6 6 6 6 6 6 6 4 4 6
left_child=2 3 7 12 5 6 -3 19 26 10 -6 -10 24 27 16 -16 -9 -11 25 21 -21 -1 -14 -7 -2 -15 -5 28 -4 -29
right_child=1 4 13 8 9 23 -8 14 11 17 -12 -13 22 18 15 -17 -18 -19 -20 20 -22 -23 -24 -25 -26 -27 -28 29 -30 -31
leaf_value=2.2988372085822583e-06 2.433855181633712e-06 0 0 3.4475921496945488e-06 0 -8.0609762498021378e-06 0.00029450861272290607 -4.4809506690837365e-06 -1.0884633179470031e-05 1.4938669654364466e-06 -4.4461692261823928e-05 -2.9761272266577186e-06 1.1682665982933617e-05 1.6797381403199564e-06 5.2371768248409786e-06 -2.2021490034696718e-06 -4.4108153507098273e-05 -1.2446178191094032e-05 1.4299890663915323e-05 -5.4469811877870242e-06 6.1497795057965384e-06 7.2919887692579648e-06 0 2.6396611091383071e-06 -1.0849080167493175e-05 -1.8977422412854401e-05 -1.1485089404109214e-06 0 -2.3003954374223669e-05 5.8733303024815138e-06
leaf_weight=110041 36166 56 156 26013 3412 10141 69 25008 41845 4266 4963 63252 29002 2632 56594 121370 1214 65079 44585 21658 11415 76589 4377 18006 3645 1036 49294 1699 1198 4111
leaf_count=110041 36166 56 156 26013 3412 10141 69 25008 41845 4266 4963 63252 29002 2632 56594 121370 1214 65079 44585 21658 11415 76589 4377 18006 3645 1036 49294 1699 1198 4111
internal_value=0 -3.56503e-06 2.58467e-06 -9.37946e-07 -9.70888e-06 0 0.000181093 1.44406e-06 -3.46812e-06 -1.32891e-05 -2.73631e-05 -6.26782e-06 5.09358e-06 1.10383e-05 -7.42355e-07 7.93636e-08 -6.89079e-06 -1.13723e-05 1.28964e-05 3.54431e-06 -9.90766e-07 4.42835e-06 9.71656e-06 -6.8306e-07 8.40456e-07 -7.4696e-08 2.39974e-07 0 -1.51256e-05 1.70812e-06
internal_weight=0 359586 479306 253594 105992 28272 125 423889 180404 77720 8375 105097 73190 55417 204186 177964 26222 69345 48253 219703 33073 186630 33379 28147 39811 3668 75307 7164 1354 5810
internal_count=838892 359586 479306 253594 105992 28272 125 423889 180404 77720 8375 105097 73190 55417 204186 177964 26222 69345 48253 219703 33073 186630 33379 28147 39811 3668 75307 7164 1354 5810
is_linear=0
shrinkage=0.03


Tree=11
num_leaves=31
num_cat=0
split_feature=168 61 94 144 64 91 60 144 108 142 34 112 113 24 117 47 90 68 154 62 137 74 51 24 63 19 113 27 54 138
split_gain=0.00804034 0.00757188 0.00464762 0.00346639 0.00291371 0.00364325 0.0024903 0.0023813 0.00233709 0.00218618 0.0153285 0.025007 0.00209556 0.00198677 0.00192063 0.00182924 0.00179181 0.00154274 0.00142296 0.00130387 0.00153805 0.00147001 0.00125507 0.000862773 0.00144896 0.000798567 0.000650184 0.000611637 0.000485294 0.000479685
threshold=-0.0037650152311515472 -0.0086389938369393331 0.0022238464739512275 -0.016516552404297658 -0.0010187749990394569 -0.0027983440086245532 -0.0053598336579022176 -0.0085510653085910156 -0.0017830695820779017 -0.0084901860697423302 -0.12857991446119468 -0.0028604198631556085 0.007997194770723583 -0.024031778867695499 -0.0054361440706998101 -0.0064714881591498843 -0.0035500916617096992 0.012165682640840673 0.0070091378239445648 -0.010540401092916705 -0.0067619592882692805 0.0013191667884433036 -0.0060173349920660249 0.0092281752445796898 -0.020722568966448304 -0.0078222416341304762 -0.001430947915650904 0.01170157687738538 -0.001688986912693982 0.00018387762910323876
decision_type=6 6 4 6 4 6 4 6 6 6 6 6 4 6 4 6 6 6 4 6 4 6 6 6 4 4 6 4 6 6
left_child=1 8 9 4 12 -6 27 15 13 14 11 -11 -4 29 26 22 -12 -8 -15 20 -9 -21 -3 24 -10 -16 -2 -5 -17 -1
right_child=2 7 3 6 5 -7 17 19 23 10 16 -13 -14 18 25 28 -18 -19 -20 21 -22 -23 -24 -25 -26 -27 -28 -29 -30 -31
leaf_value=2.3833958362392443e-05 -2.659551645274735e-05 -1.7937892386675055e-05 -8.8964409545226244e-07 1.3081783071352083e-05 -4.5361842126284296e-05 -1.1374266043632748e-05 -4.1823340522859651e-06 -1.1336501268188955e-06 1.6389363887462221e-05 0.00053441298934429405 -8.8905954987081717e-06 1.6189426442288871e-08 -4.3822204564512737e-05 1.2537653082501605e-05 -1.4150361894751442e-05 1.9801347842580629e-05 2.0735440554430272e-07 -1.4139755211560329e-05 0 3.904395434503465e-06 1.3734254028877348e-05 -2.7869318173223533e-06 0 -9.8335769482620525e-06 3.8979970806555173e-06 1.1031403354720256e-07 0 0 0 0
leaf_weight=15224 6129 14822 13035 7606 5966 8531 87617 8380 10751 125 20621 372 1206 34454 4135 1527 317359 19327 12801 44524 13755 85319 6219 2695 76080 12087 1366 3984 2972 330
leaf_count=15224 6129 14822 13035 7606 5966 8531 87617 8380 10751 125 20621 372 1206 34454 4135 1527 317359 19327 12801 44524 13755 85319 6219 2695 76080 12087 1366 3984 2972 330
internal_value=0 3.46119e-06 -2.54837e-06 -7.05308e-06 -1.66079e-05 -2.64002e-05 -4.60977e-06 -6.71501e-07 8.37549e-06 -6.75264e-07 -1.37912e-08 0.000166085 -5.58418e-06 1.29693e-05 -9.48226e-06 -9.1891e-06 -3.03402e-07 -6.12234e-06 9.3548e-06 6.61292e-07 7.42828e-06 -3.76886e-07 -1.31527e-05 4.98482e-06 5.61771e-06 -2.60148e-06 -2.23694e-05 8.0517e-06 6.01313e-06 2.29838e-05
internal_weight=0 329853 509466 147272 28738 14497 118534 177518 152335 362194 338477 497 14241 62809 23717 25540 337980 106944 47255 151978 22135 129843 21041 89526 86831 16222 7495 11590 4499 15554
internal_count=839319 329853 509466 147272 28738 14497 118534 177518 152335 362194 338477 497 14241 62809 23717 25540 337980 106944 47255 151978 22135 129843 21041 89526 86831 16222 7495 11590 4499 15554
is_linear=0
shrinkage=0.03


Tree=12
num_leaves=31
num_cat=0
split_feature=138 81 171 147 64 29 108 61 165 90 36 124 159 147 60 166 169 55 151 26 107 25 173 58 169 29 71 1 155 128
split_gain=0.00558586 0.0096901 0.0411665 0.183412 0.00741284 0.00473453 0.00419693 0.00462282 0.00411296 0.00397622 0.00377728 0.00281886 0.00276181 0.0062631 0.00226839 0.00271509 0.00256209 0.00201891 0.00180119 0.0016252 0.00125936 0.00177591 0.00101512 0.000936634 0.000887468 0.000852153 0.000521334 0.000339859 0.000336649 0.000293784
threshold=0.0017823064279956617 -0.10591502115130423 0.02497052121907473 -0.014801153447479008 0.0049738113229645083 -0.023179377429187294 -0.00068168915455354973 -0.0078756776638329012 0.0074725057929754266 -0.0053879088478124551 -0.01993184537337166 0.00012639986843099828 -0.0099039636552333814 -0.0093928142450749857 -0.015133290249263387 -0.0044383453583637855 -0.005032929126173257 -0.031212046742439267 -0.010322322137653826 -0.00034771279729646731 -0.001023721066303551 -0.0016241141711361704 0.012853840831667187 -0.016552307602904045 -1.0000000180025095e-35 -0.01195491151884198 -0.0029552691848948594 -0.0065048141404986373 -0.025688110850751397 -0.0026130333140497453
decision_type=6 4 6 6 4 6 4 6 6 4 6 6 6 6 4 4 6 4 6 4 4 4 6 6 4 4 4 4 6 6
left_child=6 2 12 -4 10 9 7 14 -5 -6 11 -3 13 -2 15 -1 -16 -7 25 -14 21 29 -12 27 -20 -9 -25 -22 -23 -8
right_child=1 4 3 8 5 17 20 18 -10 -11 22 -13 19 -15 16 -17 -18 -19 24 -21 23 28 -24 26 -26 -27 -28 -29 -30 -31
leaf_value=0 -0.00021276053765550057 -8.7881805042611507e-05 0.001868530725085293 0.0001199776975829944 -4.7781397405837298e-05 -4.9164269610795338e-05 1.5182151746509692e-05 -1.1225389201870302e-05 -5.4496047436960584e-05 -1.2568635858698017e-05 1.6956293769668055e-06 0 3.5702554468780119e-05 0 1.0969722731414372e-05 4.5956277721940949e-05 2.7034548000690776e-06 -3.9402914845623191e-06 4.5995824266042678e-06 -3.0897649988930774e-05 -1.5045295037714734e-05 3.9198035458887008e-06 9.7222204359678541e-06 2.8326905928141145e-07 -8.5699690644958255e-07 -1.4434067548102107e-06 -3.2839038647417294e-06 -4.0639635539420868e-06 -2.607869412838176e-06 5.1123604075534992e-06
leaf_weight=2118 164 700 58 249 3486 956 6805 12605 107 48017 85280 1089 1478 290 74960 3132 72299 140541 71911 191 7636 7222 19228 54533 36256 35700 81286 12186 39283 18822
leaf_count=2118 164 700 58 249 3486 956 6805 12605 107 48017 85280 1089 1478 290 74960 3132 72299 140541 71911 191 7636 7222 19228 54533 36256 35700 81286 12186 39283 18822
internal_value=0 -3.2716e-06 5.47076e-05 0.000327611 -3.81354e-06 -7.3371e-06 1.82953e-06 4.11837e-06 2.56266e-05 -1.5245e-05 2.44298e-06 -4.01332e-05 0 -6.41671e-05 7.84113e-06 2.81958e-05 7.01323e-06 -4.35254e-06 3.93968e-07 1.90763e-05 -1.2095e-06 1.94702e-06 3.31609e-06 -2.76878e-06 2.63196e-06 -4.30685e-06 -1.74122e-06 -9.05204e-06 -1.2715e-06 8.37255e-06
internal_weight=0 301834 2537 414 299297 193000 536754 308981 356 51503 106297 1789 2123 454 152509 5250 147259 141497 156472 1669 227773 72132 104508 155641 108167 48305 135819 19822 46505 25627
internal_count=838588 301834 2537 414 299297 193000 536754 308981 356 51503 106297 1789 2123 454 152509 5250 147259 141497 156472 1669 227773 72132 104508 155641 108167 48305 135819 19822 46505 25627
is_linear=0
shrinkage=0.03


Tree=13
num_leaves=30
num_cat=0
split_feature=108 27 94 137 60 64 91 167 64 25 173 110 168 125 60 122 124 13 169 142 47 124 29 98 113 113 145 169 28
split_gain=0.00698719 0.00574831 0.00326485 0.00375459 0.00228181 0.00223643 0.00400727 0.00200821 0.00190187 0.00175892 0.00153316 0.00568919 0.00142849 0.0012591 0.00123914 0.00182233 0.00142834 0.00127238 0.00112758 0.000937382 0.000840369 0.00070788 0.000568717 0.00164501 0.000468711 0.0006262 0.000441885 0.000345187 0.000136136
threshold=0.0019285511819773571 0.032785467803478248 -0.00033401698955133656 -0.023286242038011547 -0.004458068210803569 0.022632697855700389 -0.013331455178558825 -0.15568247437477109 0.016980510759090649 0.018085748888552192 0.010445194784551861 0.011564061567231975 -0.017269105067102553 0.0040554348379373559 -0.0045055798312086757 -0.014520974968450114 0.0088174569809185647 -0.009721290320158003 -0.0069134770892560473 -0.0013121585779787912 -0.038628427311778062 -0.0011764458845374291 0.00724302837625146 -0.0021389647116807123 0.00033267575781792408 -0.00287765369284898 0.030089110136032108 0.026621492579579357 0.013654564522452452
decision_type=4 4 6 6 4 4 6 4 6 4 6 6 6 4 4 6 4 4 6 6 6 6 4 6 6 6 6 6 6
left_child=2 4 3 12 10 27 -7 -5 -9 24 19 -12 18 -14 15 26 21 -18 -1 -2 -17 -16 -11 -24 25 -3 -4 -6 -26
right_child=1 9 14 7 5 6 -8 8 -10 22 11 -13 13 -15 16 20 17 -19 -20 -21 -22 -23 23 -25 28 -27 -28 -29 -30
leaf_value=2.2781862424562734e-05 -5.3664998325116846e-06 -1.9118455429336966e-05 4.0402026739026531e-05 -0.00015810915963707624 -9.5078486735963613e-07 -6.0193800349987041e-05 -6.289078630682813e-06 2.7822458372839271e-06 -4.5232170087145757e-06 0 1.0717329576746713e-05 0.0002162966800677901 3.5604200865596457e-06 1.0044270905810469e-05 2.2260629256565931e-06 -4.7657328624166216e-06 -1.9172738135183325e-05 -3.5597148240147248e-06 -8.8565163081546836e-06 5.7904997338058515e-06 4.9475824207386111e-06 -1.4358222442336694e-06 -3.6250375473289064e-05 -1.488910823853296e-05 -2.6044910054188494e-06 0 0 4.3743078297121075e-06 5.4368949033827939e-06
leaf_weight=8994 11615 3012 1571 68 48427 1339 73911 149609 39726 769 8058 132 69073 58449 68089 9316 6527 33743 414 15325 31724 150926 6026 19097 1056 2544 615 13946 4010
leaf_count=8994 11615 3012 1571 68 48427 1339 73911 149609 39726 769 8058 132 69073 58449 68089 9316 6527 33743 414 15325 31724 150926 6026 19097 1056 2544 615 13946 4010
internal_value=0 -4.55129e-06 1.77439e-06 3.8604e-06 -2.16389e-06 -3.96438e-06 -7.44916e-06 1.03212e-06 1.17017e-06 -1.54349e-05 4.46242e-06 1.59137e-05 7.66289e-06 6.64999e-06 -4.26321e-07 4.19785e-06 -1.2551e-06 -6.46358e-06 1.9794e-05 4.23441e-07 2.37707e-06 -2.28891e-07 -1.98112e-05 -2.06123e-05 -3.3537e-06 -9.83933e-06 3.14921e-05 0 8.00566e-07
internal_weight=0 209267 628844 326333 172753 137623 75250 189403 189335 36514 35130 8190 136930 127522 302511 43226 259285 40270 9408 26940 41040 219015 25892 25123 10622 5556 2186 62373 5066
internal_count=838111 209267 628844 326333 172753 137623 75250 189403 189335 36514 35130 8190 136930 127522 302511 43226 259285 40270 9408 26940 41040 219015 25892 25123 10622 5556 2186 62373 5066
is_linear=0
shrinkage=0.03


Tree=14
num_leaves=30
num_cat=0
split_feature=108 75 102 140 166 138 124 166 168 108 38 167 94 84 87 149 0 59 169 12 94 107 169 8 107 154 131 95 143
split_gain=0.00739435 0.00921256 0.0191973 0.0335515 0.00562231 0.00426182 0.00400969 0.0037279 0.00615272 0.00672704 0.00305926 0.0028498 0.00272809 0.00269458 0.00266044 0.00151761 0.00149508 0.00276501 0.00142554 0.00141255 0.00136211 0.0014905 0.00101144 0.000989172 0.000875737 0.00080395 0.000549195 0.000254492 0.000225024
threshold=0.0028978500762166389 -0.13850814104080197 -0.0091226288270204441 -0.0018806763220077728 0.012518661409650423 -0.0027247700260811568 0.0021219542753376694 -0.03911683425331175 0.0035803730593273807 -0.0025638831010867274 0.0040018499709649066 -0.027761142700910565 0.000724286045446301 0.00014242138005249473 0.022832306101918224 -0.0061236312612891189 0.0015327620024063067 -0.069367267191410051 0.025615668855607513 -0.0062565513177116278 0.001133026910575798 0.010341655462980272 -0.0052668345160782329 -0.0043259891012707432 -0.0088429260067641718 0.0020084200866054077 0.0026970440521836285 -0.016224035993218418 -0.0018647151300683615
decision_type=4 6 4 6 4 6 6 6 6 6 4 6 4 6 4 6 6 6 6 6 4 4 6 6 6 4 6 6 6
left_child=6 2 3 28 13 -4 7 8 9 -1 26 -7 22 18 20 -12 17 -16 -3 -10 24 -22 -6 -15 -8 -14 -9 -18 -2
right_child=1 4 5 -5 12 11 14 10 19 -11 15 -13 25 23 16 -17 27 -19 -20 -21 21 -23 -24 -25 -26 -27 -28 -29 -30
leaf_value=1.7435120995767447e-05 4.641647312885826e-05 1.4597595569734217e-06 -0.00025337983549333427 0.00096239466577278975 1.1237733938401664e-06 0.00015767346835642549 5.1030346794204513e-06 4.217203320313416e-06 -1.8717404391000728e-05 4.4245585390794894e-06 -8.2153877358985336e-06 0 -8.5787110964072773e-06 3.8447569434728081e-06 0.00022885769735152077 -3.4157447983647246e-07 0 0 1.6346784499638796e-05 -8.1558884764136579e-07 -1.9773038845088739e-06 -9.2710506110861514e-06 -8.6252847268348891e-06 -9.5366900430405535e-06 -1.6779686235546531e-06 -2.0529819653587779e-05 0 1.7413975465296124e-05 0
leaf_weight=52283 92 28274 52 57 10402 116 25489 96057 4462 129209 42961 318 12247 4443 107 53978 109 128 8398 62349 83579 41496 29791 24493 49196 29910 46586 1286 59
leaf_count=52283 92 28274 52 57 10402 116 25489 96057 4462 129209 42961 318 12247 4443 107 53978 109 128 8398 62349 83579 41496 29791 24493 49196 29910 46586 1286 59
internal_value=0 -6.0659e-06 0.000101512 0.000341214 -6.67324e-06 0 1.31128e-06 2.79502e-06 5.37198e-06 8.25535e-06 6.16151e-08 2.90826e-05 -1.18935e-05 0 -2.20871e-06 -3.98589e-06 3.53243e-05 0.000116569 5.27865e-06 -2.2362e-06 -2.59041e-06 -4.51718e-06 -5.7291e-06 -6.96355e-06 4.35534e-07 -1.74143e-05 2.91744e-06 1.07533e-05 0
internal_weight=0 148652 694 208 147958 486 689275 487885 248303 181492 239582 434 82350 65608 201390 96939 1630 235 36672 66811 199760 125075 40193 28936 74685 42157 142643 1395 151
internal_count=837927 148652 694 208 147958 486 689275 487885 248303 181492 239582 434 82350 65608 201390 96939 1630 235 36672 66811 199760 125075 40193 28936 74685 42157 142643 1395 151
is_linear=0
shrinkage=0.03


Tree=15
num_leaves=31
num_cat=0
split_feature=66 124 169 64 172 121 90 108 166 100 154 89 154 119 64 75 62 60 137 97 161 125 10 97 52 26 6 21 64 29
split_gain=0.00719994 0.0035836 0.00370892 0.00350303 0.00265793 0.0023406 0.00302286 0.00201939 0.00374561 0.00176079 0.00186962 0.00156597 0.00147858 0.00133841 0.00695598 0.00246579 0.00119276 0.00114628 0.00111003 0.00108263 0.00103321 0.0010847 0.000995695 0.000938825 0.000735588 0.000715733 0.000614763 0.000601984 0.000586975 5.65956e-05
threshold=0.0096744544632887605 0.0033380498555912589 -0.013229526579380034 0.0074001447339249972 0.0097988088212200269 0.002838070504367352 0.00022565160596396295 -0.0022875432025919852 -0.047487226825500856 -0.00067940015114973339 -0.016318845819986896 -0.0021932694362476464 0.0020084200866054077 0.009287509601563217 -0.03422983225292086 0.010393775533884765 -0.025566955199050674 0.0065029883733025611 -0.0098280487582087499 0.00084444362437352549 0.015209497883915903 -0.0039276436436921349 0.011965445784005191 -0.0072798097971826783 -0.0076373116752668866 0.0020372227785649803 -0.0047433164044199654 0.023910909891128544 0.0013387642464819018 -0.019949795678257939
decision_type=6 6 6 6 6 6 6 6 6 6 6 6 4 6 4 4 6 4 4 6 6 6 6 6 6 6 6 6 6 6
left_child=1 2 3 16 9 20 -7 8 -4 19 25 -8 18 15 -15 -14 -1 -9 27 23 21 -6 -5 -2 -12 -11 -20 -3 -22 -21
right_child=4 12 7 22 5 6 11 17 -10 10 24 -13 13 14 -16 -17 -18 -19 26 29 28 -23 -24 -25 -26 -27 -28 -29 -30 -31
leaf_value=1.1821335391176199e-05 -4.9216906043001711e-05 1.6117176616090732e-05 9.6004147006774535e-06 2.4570926388805826e-06 -3.1488233330049252e-05 0 6.3837874570025194e-06 8.1433222214610998e-07 -1.8062875869095381e-06 -3.0508202616827315e-05 7.4860180581555289e-06 0.00013622569428847856 0 1.435937172448559e-05 -1.6754343544453958e-05 -1.0344720532833798e-05 4.7320925379474677e-06 -2.6046964651893237e-06 1.0692597164358068e-05 0 3.5801744756132041e-05 0 -6.6357413196718482e-06 -2.0545560056130352e-05 -6.5541606629226498e-06 0 -2.29081317844095e-06 0 0 -1.1582832063902542e-05
leaf_weight=60215 2550 6615 54541 24579 1620 695 505 210324 45861 3518 5109 341 85858 7909 27971 27275 47620 147722 3688 2785 672 1430 18020 9688 8772 1482 25099 1794 167 3851
leaf_count=60215 2550 6615 54541 24579 1620 695 505 210324 45861 3518 5109 341 85858 7909 27971 27275 47620 147722 3688 2785 672 1430 18020 9688 8772 1482 25099 1794 167 3851
internal_value=0 7.10996e-07 1.83992e-06 5.93612e-06 -1.18649e-05 5.86908e-06 3.82365e-05 4.63066e-07 4.2408e-06 -1.48129e-05 -7.09564e-06 7.66061e-05 -2.89989e-06 -4.27101e-06 -9.47752e-06 -2.48705e-06 8.82997e-06 -5.54398e-07 2.18975e-06 -2.17369e-05 -3.11437e-06 -1.43902e-05 -1.03734e-06 -2.77523e-05 -3.05782e-07 -2.29392e-05 -1.05805e-07 1.18298e-05 1.99772e-05 -8.37857e-06
internal_weight=0 795091 608882 150434 43185 5430 1541 458448 100402 37755 18881 846 186209 149013 35880 113133 107835 358046 37196 18874 3889 3050 42599 12238 13881 5000 28787 8409 839 6636
internal_count=838276 795091 608882 150434 43185 5430 1541 458448 100402 37755 18881 846 186209 149013 35880 113133 107835 358046 37196 18874 3889 3050 42599 12238 13881 5000 28787 8409 839 6636
is_linear=0
shrinkage=0.03


Tree=16
num_leaves=31
num_cat=0
split_feature=108 64 154 172 107 123 168 166 84 128 107 146 26 12 166 138 85 169 26 88 104 5 66 46 48 169 60 127 127 166
split_gain=0.00701537 0.00768608 0.00404238 0.00386697 0.0117461 0.0509145 0.00346597 0.00594699 0.00279813 0.0110146 0.0113004 0.00290183 0.00226463 0.00198717 0.00185726 0.00315385 0.00161732 0.00156385 0.00340935 0.00150794 0.00143619 0.00202211 0.00126007 0.000906021 0.00085861 0.000852471 0.000694008 0.000568358 0.000550578 0.000726817
threshold=0.0062535006283343311 -0.00110743945699387 0.0062070361158344722 0.0099419769556355637 0.0052819182164967069 -0.029699638485908505 -0.0053870641774522868 -0.019380435906131598 -0.014144537533717444 -0.0037870622627943704 -0.00056663987925276149 -0.0013005035220372567 -0.012702992336843371 -0.0044910199369647286 -0.0048206026087291012 0.019792955316866114 0.012406299356371166 0.030653014779090885 -0.014354519786846419 -0.00043892631524253847 -0.005858290847371184 -0.050054954364895814 -0.00123216608566818 0.0051848013774416285 -0.008868995088916037 -0.0024237832985818382 -0.0015683462212560605 -0.0052980869077146045 1.0000000180025095e-35 -0.003182325520837507
decision_type=4 4 6 6 6 6 6 6 6 6 6 6 4 6 6 4 6 6 6 6 4 6 6 6 6 6 6 6 6 6
left_child=2 3 6 17 16 -6 7 25 9 10 -4 -11 28 19 15 -14 -5 24 -19 -8 21 -10 -15 -22 -2 -1 -9 -16 29 -3
right_child=1 12 8 4 5 -7 13 26 20 11 -12 -13 14 22 27 -17 -18 18 -20 -21 23 -23 -24 -25 -26 -27 -28 -29 -30 -31
leaf_value=1.1228356184114162e-05 1.1984561281505064e-08 -2.1666524675021795e-05 0 1.5848056753217351e-05 0.00089824151716074991 9.3146041053045724e-06 3.6105273585946386e-06 3.6175589165276451e-06 -4.7222058983171221e-05 -2.1127767338163245e-05 -0.00017369392935835096 3.1312400387073384e-05 -1.9179515547626302e-05 3.8880660105538539e-06 -1.4553212545288159e-05 -5.2011842092802167e-05 -7.7039115842955107e-05 -1.8355314313068014e-05 3.3313384340975635e-05 -7.8661868703246044e-06 -1.7874150893053583e-07 -4.6774045423632552e-06 0 -5.4143491538323012e-06 -1.6743436825468971e-05 1.4013862036698579e-06 -1.7079222667421392e-06 0 1.5214282543009185e-05 4.6104824560706113e-06
leaf_weight=90343 2572 1544 914 2139 73 432 11658 32043 1579 1928 775 1783 21304 104154 3171 3929 156 1442 3051 41758 108130 5928 258528 44796 4899 12631 70359 4066 1752 840
leaf_count=90343 2572 1544 914 2139 73 432 11658 32043 1579 1928 775 1783 21304 104154 3171 3929 156 1442 3051 41758 108130 5928 258528 44796 4899 12631 70359 4066 1752 840
internal_value=0 -1.06823e-05 7.58551e-07 6.86314e-06 3.86043e-05 0.000170435 1.88451e-06 5.07787e-06 -3.37061e-06 -2.49335e-05 -8.85905e-05 3.12534e-08 -1.81685e-05 2.72281e-07 -2.08544e-05 -2.48899e-05 2.94232e-06 0 1.33928e-05 -5.08056e-06 -2.55103e-06 -1.56339e-05 1.10203e-06 -1.81052e-06 -8.96945e-06 1.01687e-05 0 -4.70876e-06 0 -6.12507e-06
internal_weight=0 51370 787307 14764 2800 505 621474 205376 165833 5400 1689 3711 36606 416098 32470 25233 2295 11964 4493 53416 160433 7507 362682 152926 7471 102974 102402 7237 4136 2384
internal_count=838677 51370 787307 14764 2800 505 621474 205376 165833 5400 1689 3711 36606 416098 32470 25233 2295 11964 4493 53416 160433 7507 362682 152926 7471 102974 102402 7237 4136 2384
is_linear=0
shrinkage=0.03


Tree=17
num_leaves=31
num_cat=0
split_feature=108 124 169 166 26 60 136 114 76 64 168 64 156 167 83 2 73 28 31 62 146 169 74 124 117 107 134 40 159 62
split_gain=0.00682447 0.0052943 0.00366246 0.00338612 0.00341682 0.00259688 0.00242004 0.00288884 0.00199126 0.00182459 0.00177419 0.00169988 0.0016558 0.00148421 0.00930113 0.00144004 0.00155668 0.00140786 0.00131787 0.00102882 0.000994869 0.000958551 0.000879102 0.000856558 0.00094685 0.000696151 0.000550713 0.000444338 0.000348583 0.000284707
threshold=-0.00066981780896899722 0.0050938353117042541 0.020616112276911739 -0.0068659846983302845 -0.010336527973732478 0.00022246265341040308 0.0039467082917803431 -0.011873128454391771 0.042774416297939467 0.012897025675590453 0.0048994266645090243 -0.040442828115848706 0.011076695094847577 -0.093585077673196779 -0.064051758497953401 0.017140990223109984 -0.004566709976643323 -0.0047218795135666467 0.01723684556782246 -0.0042152927246297935 -0.013212146336557222 0.0009030199726112188 0.035772180234457655 0.0076822512836295957 0.011648498941212894 0.0047057911287993201 -0.0098316769945821451 -0.015332141903608413 0.0046510379761457452 0.00067398590466459171
decision_type=4 4 4 4 6 4 4 6 4 4 6 4 6 4 4 4 6 4 6 6 6 6 4 4 6 4 6 6 6 4
left_child=2 5 3 23 10 15 12 9 25 -8 -5 -9 17 14 -7 16 -2 -3 -14 -6 -17 -15 -10 27 -25 26 -4 -1 -27 -24
right_child=1 6 8 4 19 13 7 11 22 -11 -12 -13 18 21 -16 20 -18 -19 -20 -21 -22 -23 29 24 -26 28 -28 -29 -30 -31
leaf_value=-6.8030254023277742e-06 5.6731715984763525e-06 9.6308594829614567e-06 -2.063929207106855e-05 1.3750436218900115e-05 5.6058740479444701e-06 0.00023337134184265746 0 6.36455239507237e-05 0 -3.1027084846053949e-05 0 -8.5981210393168408e-06 -2.7337770460844754e-05 -4.965428389316635e-07 0 6.0372632662861347e-05 -7.0059366519076231e-07 -3.1956962181294154e-06 6.1406113461528102e-06 9.755407441604704e-07 9.7902448422107771e-06 -4.7440695568898608e-06 0 -1.2314285019344993e-05 5.6525150731737667e-06 -3.0586243896836535e-06 1.0196343745493137e-06 1.3739306229278717e-06 -1.4854637225942471e-05 -7.714172322048499e-05
leaf_weight=7161 55552 10764 1106 56902 116600 172 2550 245 685 9613 7470 63026 3676 101769 516 541 82172 26342 570 82734 8481 107739 71 11854 2119 11496 22751 36229 5815 569
leaf_count=7161 55552 10764 1106 56902 116600 172 2550 245 685 9613 7470 63026 3676 101769 516 541 82172 26342 570 82734 8481 107739 71 11854 2119 11496 22751 36229 5815 569
internal_value=0 -2.22426e-06 3.23824e-06 4.35855e-06 5.81083e-06 -3.65932e-07 -7.77548e-06 -1.10099e-05 -4.8734e-06 -2.50179e-05 1.19302e-05 -8.07931e-06 -1.51225e-06 -2.54069e-06 4.00254e-05 2.64692e-06 1.76145e-06 1.21225e-07 -1.93117e-05 3.75932e-06 1.44983e-05 -2.75244e-06 -4.20867e-05 -2.05631e-06 -8.51586e-06 -3.30935e-06 0 0 -7.88872e-06 -6.99543e-05
internal_weight=0 473728 363562 321069 263706 356942 116786 75434 42493 12163 64372 63271 41352 210196 688 146746 137724 37106 4246 199334 9022 209508 1325 57363 13973 41168 23857 43390 17311 640
internal_count=837290 473728 363562 321069 263706 356942 116786 75434 42493 12163 64372 63271 41352 210196 688 146746 137724 37106 4246 199334 9022 209508 1325 57363 13973 41168 23857 43390 17311 640
is_linear=0
shrinkage=0.03


Tree=18
num_leaves=31
num_cat=0
split_feature=108 66 169 64 124 166 2 119 68 39 148 28 172 165 64 136 168 39 61 25 28 140 138 13 24 149 29 28 106 64
split_gain=0.00536183 0.00422888 0.00367041 0.00454489 0.00353878 0.00279525 0.0028864 0.00270343 0.00240389 0.00492345 0.0165619 0.00233023 0.00226209 0.00381861 0.00962505 0.00241054 0.00215893 0.00214128 0.00189474 0.00172565 0.00139361 0.001356 0.00130039 0.00104483 0.000992683 0.000792434 0.000739003 0.00042888 0.000734281 0.000620057
threshold=-0.00090642319678534329 0.012205942686699809 -0.0029673617100343104 -0.026050129968818485 0.0044464328957721155 0.054747195414495173 -0.0071582942506842389 0.011195267084985973 0.035904374204497401 -0.12264901027083396 0.0028671023172964442 0.0027402995686912159 0.002881265811963346 0.035005796700716026 0.0029840740124721242 -0.026848953430284778 0.021868722429486728 -0.010026003234088419 -0.0028968348633497949 -0.0015745332930237053 -0.02091609804253463 0.0088830793709096887 0.0052644738546888956 -0.0057323947548866263 -0.0022436790407971596 0.0020261028548702602 0.01885895058512688 -0.00028540220494932626 -0.0025871051123883709 -0.010668851492168639
decision_type=4 6 6 6 4 4 4 6 6 4 6 6 6 6 4 6 6 6 4 4 4 6 6 4 6 6 6 6 4 6
left_child=2 4 3 7 18 19 -7 24 9 10 -4 17 16 15 -15 -14 26 -10 25 -6 -9 -11 -18 -20 -1 -2 -3 28 -5 -29
right_child=1 12 8 27 5 6 -8 20 11 21 -12 -13 13 14 -16 -17 22 -19 23 -21 -22 -23 -24 -25 -26 -27 -28 29 -30 -31
leaf_value=1.6889742415212065e-05 6.7274885609308396e-06 -1.5837053704404196e-05 -0.00052177654335793422 1.2726358342839857e-05 6.9517560270306778e-06 -1.876941077306563e-05 -5.16020895729377e-06 -1.9029519498561021e-05 0 1.0839621327235626e-06 0 0 -3.0951449856595228e-05 0.0003184941462653006 0 7.8078432864942976e-06 0 -0.00013008540298649216 -5.8500332232470946e-06 -4.3840910388725278e-06 3.2243402419443066e-06 -9.8239563933512476e-06 -3.9149894486902768e-05 -2.5766326595175309e-07 8.9256733659939133e-06 5.7218503596403576e-07 0 -1.0386038142216931e-05 5.4803721520052752e-07 1.9034978444586551e-07
leaf_weight=33146 46548 7000 69 6642 18696 22077 52386 3510 53 143541 322 747 2186 116 229 3327 143 365 35973 33799 6759 10968 5844 228039 49570 41439 3463 5294 23216 53415
leaf_count=33146 46548 7000 69 6642 18696 22077 52386 3510 53 143541 322 747 2186 116 229 3327 143 365 35973 33799 6759 10968 5844 228039 49570 41439 3463 5294 23216 53415
internal_value=0 -1.98694e-06 2.90373e-06 5.80948e-06 -1.3577e-06 -5.6549e-06 -9.39694e-06 1.04562e-05 -3.80479e-07 0 -0.000106101 -4.32811e-05 -1.48231e-05 0 9.7626e-05 -4.84668e-06 -2.05355e-05 -0.000100987 1.49613e-07 -6.10078e-08 -2.92395e-06 2.12453e-07 -3.60652e-05 -1.07651e-06 1.22987e-05 3.9991e-06 -1.02108e-05 7.6146e-07 3.76016e-06 -5.08193e-07
internal_weight=0 501265 337617 181552 478957 126958 74463 92985 156065 154900 391 1165 22308 5858 345 5513 16450 418 351999 52495 10269 154509 5987 264012 82716 87987 10463 88567 29858 58709
internal_count=838882 501265 337617 181552 478957 126958 74463 92985 156065 154900 391 1165 22308 5858 345 5513 16450 418 351999 52495 10269 154509 5987 264012 82716 87987 10463 88567 29858 58709
is_linear=0
shrinkage=0.03


Tree=19
num_leaves=31
num_cat=0
split_feature=108 108 136 12 136 40 167 137 73 156 62 168 127 60 151 151 94 107 127 165 116 169 24 38 171 32 127 170 27 59
split_gain=0.00570335 0.00506493 0.00508175 0.00497413 0.00488258 0.0037658 0.00281591 0.00257126 0.0024635 0.00226225 0.00209277 0.00321964 0.00193927 0.00180217 0.00156147 0.00173135 0.00142604 0.0017382 0.00132049 0.00667826 0.00130977 0.000930577 0.00264992 0.000864637 0.000746731 0.000681758 0.000539051 0.00051969 0.000516511 0.000228978
threshold=-0.001799627466842273 0.0058184758489240969 0.047889516118345639 -0.032183295686438886 0.013665843003986487 0.019809840119040894 0.0060439049266278752 -0.0090880938805639726 -0.0031059886096045371 0.00067815461505415814 -0.00064483179026265209 0.0055467895648368352 0.0065621149260550746 -0.00027157589756131572 0.0015511172823607924 -0.0084076579660177213 0.00050500795280283275 0.0025834965053945784 -0.030379254370927807 -0.011592858936637638 0.0017020736766628645 0.022915737703442577 0.00089486194995243849 0.0078489713044357715 0.010816456284374 -0.0098613409348135232 0.011999025940895082 -0.0031224583113483753 -0.0095719476230442507 0.0016380832530558111
decision_type=6 6 4 6 4 6 6 6 6 6 6 6 6 4 6 6 4 4 6 6 4 6 6 6 6 6 6 6 6 6
left_child=4 3 5 18 9 8 24 -7 -3 23 11 12 -6 -8 15 -11 20 -18 -2 -20 -5 29 -23 27 -4 -13 -16 -1 -25 -12
right_child=1 2 6 16 10 7 13 -9 -10 14 21 25 -14 -15 26 -17 17 -19 19 -21 -22 22 -24 28 -26 -27 -28 -29 -30 -31
leaf_value=9.905300627084091e-07 0 1.1472478164601081e-05 -1.7743872339292936e-05 -6.1334939667240064e-07 8.9976541729525636e-06 -5.5959417372103686e-05 0 -5.3923281653947923e-06 -6.3250281600159362e-06 -1.8101729529077507e-05 -3.723235989517431e-06 -1.5201304992651306e-05 2.0527034324101865e-05 -5.8206797355615018e-05 3.2280016653946939e-06 -6.0705940597663216e-07 3.1399377534099795e-07 -4.689018392187756e-06 0 -0.00015429870720651127 3.5724003777848784e-06 2.2848630864893847e-07 -5.8484830136711878e-05 9.9350929518970565e-06 0 2.3524403128482337e-08 -6.7066538934260517e-06 7.6016150716830994e-06 -4.0137105942620943e-06 4.5011393586182763e-06
leaf_weight=26083 188 14121 19178 192300 69639 1763 527 3571 12907 13531 5066 2848 20386 2727 15581 11172 110456 129794 282 493 100297 902 959 2286 3794 14548 7174 29714 19563 6702
leaf_count=26083 188 14121 19178 192300 69639 1763 527 3571 12907 13531 5066 2848 20386 2727 15581 11172 110456 129794 282 493 100297 902 959 2286 3794 14548 7174 29714 19563 6702
internal_value=0 -1.69893e-06 -1.0093e-05 -7.49511e-07 3.73255e-06 -1.62709e-06 -1.99667e-05 -2.49316e-05 2.41865e-06 -3.08923e-07 8.03323e-06 9.46845e-06 1.17755e-05 -4.83892e-05 -5.57478e-06 -1.07976e-05 -5.97867e-07 -2.32644e-06 -6.89381e-05 -8.62084e-05 7.702e-07 -2.1782e-06 -2.20061e-05 2.7165e-06 -1.52839e-05 -1.60831e-06 0 4.78015e-06 -1.86704e-06 0
internal_weight=0 592398 58588 533810 246154 32362 26226 5334 27028 125104 121050 107421 90025 3254 47458 24703 532847 240250 963 775 292597 13629 1861 77646 22972 17396 22755 55797 21849 11768
internal_count=838552 592398 58588 533810 246154 32362 26226 5334 27028 125104 121050 107421 90025 3254 47458 24703 532847 240250 963 775 292597 13629 1861 77646 22972 17396 22755 55797 21849 11768
is_linear=0
shrinkage=0.03


end of trees

feature_importances:
log_close/mean_900_id10=35
log_close/mean_60-mean_close/mean_60_id11=33
log_close/mean_300-mean_close/mean_300_id4=23
log_return_900-mean_log_returns_900_id11=20
log_close/mean_60_id10=18
log_close/mean_900-mean_close/mean_900_id10=17
log_close/mean_900-mean_close/mean_900_id11=17
log_close/mean_300_id10=15
log_close/mean_300-mean_close/mean_300_id11=12
log_return_900_id4=11
log_close/mean_60-mean_close/mean_60_id4=11
log_return_60-mean_log_returns_60_id10=11
log_close/mean_900-mean_close/mean_900_id4=11
log_close/mean_60-mean_close/mean_60_id2=10
log_close/mean_300-mean_close/mean_300_id10=10
log_close/mean_300_id4=9
log_return_60_id10=8
log_return_60_id4=7
log_return_300_id4=7
log_close/mean_60_id11=7
log_return_60-mean_log_returns_60_id2=7
log_return_900-mean_log_returns_900_id2=7
log_return_60-mean_log_returns_60_id4=6
log_close/mean_60-mean_close/mean_60_id10=6
log_return_300-mean_log_returns_300_id5=6
log_return_300-mean_log_returns_300_id10=6
log_close/mean_900-mean_close/mean_900_id5=6
log_return_900-mean_log_returns_900_id9=6
log_return_900-mean_log_returns_900_id10=6
log_close/mean_60_id2=5
log_close/mean_60_id4=5
log_close/mean_900_id4=5
mean_close/mean_60=5
log_close/mean_300-mean_close/mean_300_id0=5
log_return_300-mean_log_returns_300_id11=5
log_close/mean_900-mean_close/mean_900_id0=5
log_return_900-mean_log_returns_900_id4=5
log_close/mean_900-mean_close/mean_900_id13=5
log_return_900_id9=4
log_close/mean_300_id12=4
log_return_60-mean_log_returns_60_id5=4
log_close/mean_60-mean_close/mean_60_id6=4
log_return_60-mean_log_returns_60_id13=4
log_return_300-mean_log_returns_300_id1=4
log_return_900-mean_log_returns_900_id0=4
log_close/mean_900-mean_close/mean_900_id1=4
log_return_900-mean_log_returns_900_id7=4
log_close/mean_60_id1=3
log_close/mean_60_id3=3
log_return_60_id3=3
log_return_900_id3=3
log_close/mean_900_id6=3
log_close/mean_300_id11=3
log_return_300_id12=3
mean_close/mean_300=3
log_close/mean_300-mean_close/mean_300_id12=3
mean_close/mean_900=3
log_return_900-mean_log_returns_900_id8=3
log_return_60_id0=2
log_close/mean_300_id0=2
log_return_300_id0=2
log_return_900_id0=2
log_return_300_id1=2
log_close/mean_900_id1=2
log_return_60_id2=2
log_return_300_id3=2
log_close/mean_60_id5=2
log_return_60_id5=2
log_close/mean_300_id5=2
log_close/mean_60_id6=2
log_close/mean_300_id6=2
log_return_300_id6=2
log_return_900_id7=2
log_close/mean_900_id9=2
log_return_900_id10=2
log_return_900_id11=2
log_return_60_id12=2
log_close/mean_900_id12=2
log_close/mean_60_id13=2
log_return_60-mean_log_returns_60_id0=2
log_close/mean_60-mean_close/mean_60_id5=2
log_close/mean_60-mean_close/mean_60_id8=2
log_close/mean_60-mean_close/mean_60_id13=2
log_return_300-mean_log_returns_300_id0=2
log_close/mean_300-mean_close/mean_300_id2=2
log_return_300-mean_log_returns_300_id3=2
log_return_300-mean_log_returns_300_id4=2
log_close/mean_300-mean_close/mean_300_id5=2
log_close/mean_300-mean_close/mean_300_id6=2
log_close/mean_300-mean_close/mean_300_id7=2
log_return_300-mean_log_returns_300_id7=2
log_close/mean_300-mean_close/mean_300_id13=2
log_return_900-mean_log_returns_900_id1=2
log_return_900-mean_log_returns_900_id6=2
log_close/mean_900-mean_close/mean_900_id12=2
log_return_900-mean_log_returns_900_id12=2
log_return_900-mean_log_returns_900_id13=2
log_close/mean_60_id0=1
log_close/mean_300_id1=1
log_close/mean_300_id2=1
log_close/mean_900_id2=1
log_close/mean_900_id3=1
log_close/mean_900_id5=1
log_return_60_id7=1
log_close/mean_300_id7=1
log_return_300_id7=1
log_close/mean_900_id7=1
log_close/mean_60_id8=1
log_close/mean_300_id8=1
log_return_300_id8=1
log_close/mean_900_id8=1
log_close/mean_60_id9=1
log_return_60_id9=1
log_return_300_id10=1
log_return_60_id11=1
log_close/mean_60_id12=1
log_return_60_id13=1
log_close/mean_300_id13=1
log_return_300_id13=1
log_return_900_id13=1
mean_log_returns_60=1
log_close/mean_60-mean_close/mean_60_id1=1
log_return_60-mean_log_returns_60_id1=1
log_return_60-mean_log_returns_60_id3=1
log_close/mean_60-mean_close/mean_60_id7=1
log_return_60-mean_log_returns_60_id8=1
log_close/mean_60-mean_close/mean_60_id9=1
log_return_60-mean_log_returns_60_id11=1
log_close/mean_60-mean_close/mean_60_id12=1
mean_log_returns_300=1
log_return_300-mean_log_returns_300_id2=1
log_close/mean_300-mean_close/mean_300_id3=1
log_return_300-mean_log_returns_300_id6=1
log_return_300-mean_log_returns_300_id8=1
log_close/mean_300-mean_close/mean_300_id9=1
log_return_300-mean_log_returns_300_id9=1
log_return_300-mean_log_returns_300_id13=1
mean_log_returns_900=1
log_close/mean_900-mean_close/mean_900_id2=1
log_return_900-mean_log_returns_900_id3=1

parameters:
[boosting: gbdt]
[objective: regression]
[metric: rmse]
[tree_learner: serial]
[device_type: cpu]
[data: ]
[valid: ]
[num_iterations: 5000]
[learning_rate: 0.03]
[num_leaves: 31]
[num_threads: 0]
[deterministic: 0]
[force_col_wise: 0]
[force_row_wise: 0]
[histogram_pool_size: -1]
[max_depth: 5]
[min_data_in_leaf: 50]
[min_sum_hessian_in_leaf: 0.001]
[bagging_fraction: 0.7]
[pos_bagging_fraction: 1]
[neg_bagging_fraction: 1]
[bagging_freq: 1]
[bagging_seed: 8586]
[feature_fraction: 1]
[feature_fraction_bynode: 1]
[feature_fraction_seed: 8586]
[extra_trees: 1]
[extra_seed: 8586]
[early_stopping_round: 50]
[first_metric_only: 1]
[max_delta_step: 0]
[lambda_l1: 0.5]
[lambda_l2: 2]
[linear_lambda: 0]
[min_gain_to_split: 0]
[drop_rate: 0.1]
[max_drop: 50]
[skip_drop: 0.5]
[xgboost_dart_mode: 0]
[uniform_drop: 0]
[drop_seed: 8586]
[top_rate: 0.2]
[other_rate: 0.1]
[min_data_per_group: 100]
[max_cat_threshold: 32]
[cat_l2: 10]
[cat_smooth: 10]
[max_cat_to_onehot: 4]
[top_k: 20]
[monotone_constraints: ]
[monotone_constraints_method: basic]
[monotone_penalty: 0]
[feature_contri: ]
[forcedsplits_filename: ]
[refit_decay_rate: 0.9]
[cegb_tradeoff: 1]
[cegb_penalty_split: 0]
[cegb_penalty_feature_lazy: ]
[cegb_penalty_feature_coupled: ]
[path_smooth: 0]
[interaction_constraints: ]
[verbosity: -1]
[saved_feature_importance_type: 0]
[linear_tree: 0]
[max_bin: 600]
[max_bin_by_feature: ]
[min_data_in_bin: 3]
[bin_construct_sample_cnt: 200000]
[data_random_seed: 8586]
[is_enable_sparse: 1]
[enable_bundle: 1]
[use_missing: 1]
[zero_as_missing: 1]
[feature_pre_filter: 1]
[pre_partition: 0]
[two_round: 0]
[header: 0]
[label_column: ]
[weight_column: ]
[group_column: ]
[ignore_column: ]
[categorical_feature: ]
[forcedbins_filename: ]
[precise_float_parser: 0]
[objective_seed: 30655]
[num_class: 1]
[is_unbalance: 0]
[scale_pos_weight: 1]
[sigmoid: 1]
[boost_from_average: 1]
[reg_sqrt: 0]
[alpha: 0.9]
[fair_c: 1]
[poisson_max_delta_step: 0.7]
[tweedie_variance_power: 1.5]
[lambdarank_truncation_level: 30]
[lambdarank_norm: 1]
[label_gain: ]
[eval_at: ]
[multi_error_top_k: 1]
[auc_mu_weights: ]
[num_machines: 1]
[local_listen_port: 12400]
[time_out: 120]
[machine_list_filename: ]
[machines: ]
[gpu_platform_id: -1]
[gpu_device_id: -1]
[gpu_use_dp: 0]
[num_gpu: 1]

end of parameters

pandas_categorical:[]
